layers 10
ayer 0 Dense
4 4
[-1.8846455e+00 -3.4213739e-03 -1.0929509e-02  6.2810234e-04]
[1.4770347  0.04885762 1.7091951  0.20224702]
[ 0.01320727  0.00889218 -0.02600336 -0.05363892]
[-0.21081075 -2.9559195   0.7074268   2.866173  ]
[-0.36454412  1.8894824  -0.03222531 -1.339752  ]
layer 1 Activation
relu
layer 2 Dense
4 20
[-0.04015195  0.03685359 -0.1584113   0.586854   -0.02209034 -0.37102285
 -0.38606787  0.08457168  0.29341874  0.4419592  -0.0880005  -0.07364876
  0.4135616  -0.0800361  -0.37702778 -0.09585557  0.0630815  -2.4228656
  0.02498143  0.06652355]
[ -0.10276973  -0.10855915   1.324893    -0.09663831   0.05623197
  -0.2520087    0.16320768  -0.6049227  -10.911325    -0.2091276
   0.39695308  -0.24187963  -0.546317     0.04363428  -3.0259898
   1.8375245   -0.4954846    0.20139624   0.09254939  -0.21634698]
[-0.17441583 -0.00555468 -1.1644992   0.01248712 -0.03628908  0.0302937
  0.45679614  0.43890396 -0.01372909 -0.5278985  -0.28450373 -0.00948078
  0.60812837  0.2010165   1.3175359   0.05707913 -0.39555347  0.08644156
  0.02496113 -0.24882412]
[-4.22642231e-02 -1.97225496e-01 -3.06416273e-01 -1.58184990e-01
  6.18805103e-02  2.93975949e-01 -2.14799540e-03 -9.34214890e-02
  1.40845761e-01 -3.73839550e-02  2.10256070e-01 -5.65403163e-01
  2.19646144e+00  1.39783096e+00  1.16748974e-01  6.16524160e-01
 -3.56305361e-01 -2.77258903e-01  1.78599441e+00 -2.50122070e-01]
[ 0.          0.03553531  0.64063615  0.06244256 -0.10970432 -0.57753164
 -0.53467625 -0.15231071 -0.19815741  0.63645446  0.05295821  0.33404338
 -1.3351635  -0.9448041  -1.6047434  -0.9282844   0.         -0.09869134
 -1.9821876   0.        ]
layer 3 Activation
relu
layer 4 Dense
20 100
[-0.17485711 -0.06011991  0.10242447  0.03849438  0.00364451 -0.20651326
 -0.12193108 -0.0056015   0.09305862 -0.06213388 -0.11243211  0.0436525
  0.06414378 -0.14064807  0.16829857 -0.09645754  0.00117014  0.09113035
 -0.07832393 -0.08774646  0.16130808  0.14032629 -0.19680242  0.0457398
  0.20860016 -0.09020558  0.07399824  0.22093624  0.1910694   0.13474378
  0.12745547 -0.0336685   0.08896068  0.20924759  0.10022062  0.02636732
  0.21821338 -0.06248173 -0.1969599   0.12111056 -0.08682565  0.03039414
  0.11999384 -0.22251822 -0.12174412  0.07240677  0.17891335  0.17553285
 -0.20760787  0.16581699  0.07292342  0.02491686 -0.04081269 -0.11071455
  0.04158562  0.1325042   0.15127796  0.21961826  0.01042655 -0.12607923
 -0.15640247  0.02259944 -0.07280065  0.06511763  0.09744641 -0.17036329
 -0.06009272  0.21435359  0.00653814 -0.03695856 -0.11876467 -0.0639354
  0.11367059  0.12081671  0.00419442  0.21834782 -0.1725373  -0.12678337
 -0.10431605 -0.1725856   0.08830294 -0.19827922  0.11185282  0.16817945
  0.1144965   0.00236183  0.11369479  0.03421241 -0.14074218  0.08996946
  0.08874866  0.0933665  -0.07223949 -0.03154846 -0.168766    0.01889037
 -0.10267931  0.02805427  0.05548358  0.03324595]
[ 1.27241209e-01  6.03255391e-01  4.51575232e+00 -8.61468762e-02
 -3.73035610e-01  8.24022710e-01  1.63594931e-01  1.57239996e-02
 -1.23997712e+00 -4.63654578e-01  4.41786677e-01 -4.55222651e-03
  4.27377690e-03 -3.93952504e-02 -2.25476757e-01 -3.54615152e-01
  3.95008588e+00 -2.50266612e-01 -3.23913068e-01  2.13637900e+00
 -1.08503871e-01 -1.31064057e-01 -2.54309654e-01 -9.70263630e-02
 -7.78626651e-02 -3.02466899e-02 -1.28553905e+01  9.75430787e-01
 -7.27231652e-02 -3.02328676e-01  2.08059639e-01  3.83996665e-02
  4.64203581e-03 -1.32350117e-01 -9.83683243e-02 -1.49470791e-01
 -5.00631392e-01  2.72761273e+00 -2.70637512e-01 -8.96088555e-02
  4.80358839e-01 -4.84500319e-01 -2.71860123e-01 -3.24784815e-02
 -1.54024825e-01 -2.93113351e+00 -5.77200234e-01  2.83059515e-02
 -1.94560453e-01 -8.85120451e-01  7.98061967e-01  3.45800705e-02
 -3.01397800e-01  4.54903953e-02 -2.34856114e-01 -7.03954604e-03
  1.40841782e-01 -2.75640398e-01 -2.01126084e-01 -3.28828067e-01
 -3.14560533e-02 -1.10175647e-01 -3.62167507e-01 -2.43554398e-01
 -2.54788280e-01 -2.90569782e-01 -8.38820264e-02  1.89189151e-01
 -1.06523357e-01 -2.91349173e-01 -2.09502578e-01 -2.85989083e-02
 -3.52207243e-01 -1.67296082e-01 -2.74888379e-03 -8.55123177e-02
 -8.99516195e-02 -4.54334408e-01 -2.56227642e-01  7.37578630e+00
  1.03126019e-01 -1.98422953e-01  2.38425776e-01  1.51840523e-01
 -1.16100691e-01 -1.50507450e-01  1.29839942e-01 -1.77909583e-01
 -4.51684564e-01 -8.59314263e-01 -3.15713972e-01  1.63286284e-01
 -1.61414728e-01 -1.36341184e-01 -1.90101892e-01  1.00530945e-02
 -1.59970328e-01  9.98280197e-03  9.78033915e-02 -3.80482137e-01]
[ 0.0712024  -0.10799066 -0.4326642  -0.02643965 -0.01183439 -0.41523373
  0.18856797  0.10806641 -0.27753857 -0.19262467  0.23804349  0.6394641
 -0.49240196 -0.40260792  0.4467916  -0.16310842  0.4526867   0.0159343
 -0.10678204  0.16462664  0.11212769  0.05260909  0.15070522 -0.13756841
  0.43319917  0.12179032 -0.22676085  1.1298037   0.07788459 -0.04773097
 -0.438821   -0.47325122 -0.10494301  0.1695591  -0.15569957  0.06599945
  0.9338684  -0.6546744   0.13353042 -0.00237345  1.3244438  -0.22809067
  0.08860553  0.04889271 -0.18043683  0.98790157 -1.0713618   0.01365706
 -0.17224339 -0.24836786 -1.2108217   0.04189557 -0.0467111   0.04649395
 -0.07976829  0.03112377 -0.04090706 -0.17778951  0.04528351  0.1402632
 -0.25607365  0.108364    0.05273435 -0.15426084  0.24189438  0.03884029
 -0.11493441 -0.91635424 -0.11967537 -0.06089661  0.71285397  0.0451261
 -0.175707   -0.29846922  0.12628102 -0.36656553  0.20759827  0.02810573
  0.04222744  0.20585997 -1.9551977   0.20377696  0.10285886 -0.49737424
  0.15655722  0.08625585 -0.08761641  0.05500991  0.11106809 -0.17668073
 -0.18698289 -0.06480727 -0.15331307  0.08553255 -0.09589259  0.03032956
  0.12404635  0.07097271 -0.22811358  0.12547833]
[-0.03753609  0.67236525 -0.64045674  0.45814538 -0.17748818 -0.20610818
  0.08413476 -0.20624714  0.07930759 -0.5150203   0.6518505   0.98706675
 -1.4152174   0.122591   -0.07568431 -0.15607657  2.9040284  -0.02784562
 -0.34943035  1.8170757  -0.557761    0.07883839 -1.3014076  -0.58374894
 -0.39859653 -0.22179277 -2.8779495   1.7483668  -0.09032549 -0.29931155
 -1.2956527  -0.05628524 -0.16447106 -0.535462    0.07504592 -0.01543739
 -0.8570759   0.10980456 -0.479047   -0.32339188  0.10583115 -0.2999168
 -0.10105397 -0.18459538 -0.2231417  -4.099711   -0.53520685 -0.03474589
  0.19021592 -0.693474    0.6896755  -0.3008144  -0.58516717 -0.33320612
 -0.01020213  0.00882655 -0.25866818  0.08971887 -0.08137536 -0.5868305
  0.15801805 -0.02921929 -0.10538512  0.25801584 -0.6550391  -0.9976912
  0.19078481  0.03445912 -0.04126612 -0.23755957  0.13757911 -0.2614643
 -0.42584518 -0.43584096 -0.09863892  0.1533053  -0.7672163  -0.5369198
 -0.16753599  0.7431887   0.1114208  -1.2651943   0.29537028 -0.03506811
  0.05781448 -0.14851363 -0.06878322 -0.11931057  0.12447651 -0.5237691
 -0.01827462 -0.03948042  0.16457796  0.01487392 -0.21244355 -0.04264761
 -0.15220855 -0.08881577  0.09860241  0.03051242]
[ 1.57847926e-02 -1.81540400e-01 -1.33793548e-01 -7.24507794e-02
  8.51560012e-03 -1.97082292e-02 -2.31267899e-01 -2.12621063e-01
  1.66201338e-01  2.32202962e-01 -4.11262095e-01 -1.22766127e-03
  1.11373711e+00 -2.17347413e-01 -2.93567508e-01 -1.28141552e-01
  2.31925815e-01 -1.29745863e-02 -1.49496738e-02  3.16686571e-01
 -8.99892822e-02  1.94028154e-01 -5.20991907e-02 -7.76570886e-02
  1.58980966e-01 -2.17577741e-01 -2.97506452e-01  1.10842206e-01
 -1.44514325e-03  1.00350097e-01 -4.60178375e+00  8.52085799e-02
 -2.21009180e-01  1.58528641e-01  1.83328778e-01  1.06027327e-01
  2.52368242e-01 -1.04566127e-01  6.80800304e-02  7.13688880e-02
 -3.18360329e-01  7.23314136e-02 -2.71732569e-01 -2.05781847e-01
  7.01568350e-02 -2.19718128e-01 -1.66199386e-01 -3.05504538e-04
 -2.38163516e-01 -5.29241227e-02  4.20414358e-01  8.23378563e-02
 -9.96926054e-02 -1.26671985e-01 -9.12696123e-04 -1.72597155e-01
 -2.94889212e-01 -1.32387981e-01  4.07828763e-02 -1.05654215e-02
  7.37741366e-02 -3.83988991e-02  2.10837036e-01  1.29476726e-01
 -3.54784846e-01  1.63714319e-01  1.23313800e-01  1.46488696e-01
  2.00683877e-01  1.80673990e-02 -1.13409066e+00 -1.08583942e-01
  2.50762939e-01  1.26895115e-01  1.18571825e-01 -2.42843851e-01
 -3.22720222e-02  6.40199408e-02  1.54702917e-01 -3.09964847e-02
  1.00563332e-01 -3.63861918e-02  3.67590636e-01  6.99794292e-02
  7.52642751e-03 -2.08017025e-02  2.88138334e-02 -7.59531483e-02
 -4.73730676e-02  1.73171401e-01  8.30581188e-02 -4.76734564e-02
 -1.04175851e-01  7.93740898e-02  9.39312875e-02  5.64042814e-02
  1.35260642e-01 -7.57806227e-02  3.04566324e-03  1.37610406e-01]
[-1.51545510e-01 -1.94250092e-01  1.10796821e+00 -2.75519222e-01
 -1.44980252e-01 -1.51650205e-01 -3.29485685e-01  1.32266730e-01
 -1.64416656e-01  1.30231027e-02 -1.18663780e-01 -1.56182975e-01
 -2.93873549e-01 -2.61181116e-01 -6.49851114e-02  1.91288024e-01
  2.26934838e+00  9.62347165e-02 -1.51048228e-01  4.50982511e-01
 -1.79595560e-01  5.53454459e-02 -3.46268937e-02  1.77800193e-01
 -9.10609305e-01  4.50755283e-02 -3.00314784e-01 -2.08228663e-01
  1.64514452e-01 -6.81379065e-02 -7.31318951e-01  1.55593380e-01
 -8.21021274e-02  2.15395883e-01 -2.23877996e-01  1.92754656e-01
 -2.66349703e-01 -4.25863899e-02  2.47824505e-01 -6.71252087e-02
 -2.13503376e-01  2.07762390e-01  3.98821570e-02 -1.71781540e-01
  1.09681645e-02 -7.77096987e-01 -1.50785878e-01  9.63865817e-02
  1.68301165e-03  4.42685932e-01 -6.88571557e-02  2.13273317e-01
  1.14471540e-01  1.54862732e-01 -2.01046318e-01  9.83168110e-02
  4.55065705e-02 -2.80894171e-02 -1.99655332e-02 -1.03802145e-01
 -1.36937514e-01 -4.28737491e-01 -3.18175033e-02  2.67467499e-02
 -4.04734500e-02  5.88801838e-02 -2.55385563e-02 -7.65086055e-01
 -8.44712853e-02  1.26428306e-02 -5.50455451e-01  1.93011388e-02
  7.29846656e-02 -3.44601005e-01  1.45184547e-02 -2.84520954e-01
 -1.77713588e-01  7.78976604e-02 -1.73438147e-01 -4.02405530e-01
  2.18163952e-01  1.70666754e-01  1.49573758e-01 -1.14029860e+00
 -9.58836377e-02 -1.44780234e-01  1.16715901e-01 -3.12545933e-02
 -5.93875170e-01  1.79617688e-01  2.14568764e-01  1.56816244e-02
 -1.02827065e-01 -1.92497090e-01  1.64936706e-01 -8.02980781e-01
 -4.93868962e-02  5.10336980e-02 -4.57602479e-02  9.99413356e-02]
[-0.04168365 -1.0962279  -1.6541715  -0.13712722 -0.25281206  0.35624662
 -0.00884267 -0.1813601  -0.35921434  0.17809708  0.9829628  -0.58851665
 -0.67741674 -0.15818533 -0.02055378  0.03870009 -3.2228434  -0.20132363
  0.02222544  3.2293956  -0.01085125 -0.15651229 -0.12553969 -0.354757
 -0.6364395  -0.07515334 -2.750223    0.6737901   0.12695237 -0.2467893
 -1.6796553   0.06598333 -0.23831502  0.050789    0.15394214 -0.04919415
  0.01632214  0.03746255 -0.16078322  0.01743756  0.3411945   0.0905863
 -0.16244696 -0.20817861  0.0962676   1.8552725  -0.3907027  -0.04073454
 -0.14883566 -0.23999059  0.5392335  -0.20342249 -0.08723765  0.1214396
 -0.05265567 -0.16482602  0.28462985 -0.0523131  -0.04033181 -0.07247787
 -0.00525459  0.5437713  -0.22925444 -0.58855766  0.2157257  -0.27783892
  0.14660585  0.32615334  0.12226076 -0.2017925   1.0832224  -0.19238216
 -0.02625694 -0.04513878  0.10514231  0.07940407  0.12063245 -0.18469149
 -0.2908261  -0.21417154  0.00964269  0.00505092 -0.9027519  -0.30245775
 -0.21112725 -0.06566547  0.03213334 -0.03440387  0.24697068  0.01615883
  0.07312413 -0.26325575 -0.1518587  -0.16918588 -0.1917818  -0.19167183
  0.0839755   0.06605154  0.01033926 -0.1435732 ]
[-5.81154227e-02 -4.32013810e-01 -4.24142551e+00  2.22263426e-01
 -2.33346060e-01  9.38765705e-01 -3.98248732e-02 -1.32833764e-01
 -2.53177941e-01 -1.79986751e+00 -4.53417635e+00 -6.13419473e-01
  2.27186680e+00 -1.14490665e-01  4.88014817e-01 -7.82819539e-02
  1.94741905e+00  1.55914471e-01  5.76367415e-02  9.22488689e-01
  6.69443384e-02 -9.35438126e-02 -9.81098711e-02  9.14326906e-02
  5.69602430e-01  1.67257071e-01  3.74679774e-01 -1.00764742e+01
 -6.05054125e-02  9.33944583e-02  1.39915240e+00  7.64154345e-02
 -1.45164862e-01 -2.53829919e-02 -2.17476428e-01 -1.81550637e-01
 -1.37795506e+01 -1.64059624e-01 -1.24845505e-01  5.34015633e-02
 -1.99192066e+01  4.17803880e-03  2.71494817e-02  6.05777502e-02
 -1.65598422e-01 -5.86268544e-01  2.27572322e-01 -2.16340050e-01
  1.78878605e-01  9.10974219e-02 -1.82534322e-01 -1.44950867e-01
  1.33315921e-01 -1.30210891e-01 -2.47527525e-01 -2.22739771e-01
 -1.28264844e-01 -2.03377187e-01 -1.85629241e-02  1.27398774e-01
  1.35168642e-01 -1.05710417e-01 -1.32094711e-01 -1.27064839e-01
  1.27666727e-01  1.05644256e-01 -1.96395487e-01  7.78981447e-01
  3.20982262e-02  4.27937657e-02 -1.83403865e-01  1.75427273e-01
  2.05037519e-02 -3.59030515e-02 -2.45187059e-02 -1.42996860e+00
  5.53790405e-02  1.50061071e-01 -1.55206680e-01  1.80442369e+00
 -1.66063756e-01  1.86822906e-01 -3.39331322e+01  2.81019241e-01
 -2.26179376e-01 -8.96880925e-02 -7.41148740e-03 -2.84295175e-02
 -1.27860129e+00  1.50887892e-01  6.03103898e-02  1.00259006e-01
 -1.84175879e-01  9.92405266e-02  5.48453405e-02 -2.59684801e-01
 -2.39419296e-01 -1.47384256e-01 -1.31970599e-01  1.77612707e-01]
[ 9.10411403e-02 -9.51694176e-02 -7.78454989e-02 -3.64785314e-01
  2.04361990e-01 -5.83823025e-02  2.32653901e-01 -7.94269070e-02
  7.87825882e-02  1.98611677e-01  1.30276326e-02  1.29061908e-01
 -3.04287910e+01 -4.02632922e-01 -2.48112623e-02  5.26747294e-02
 -2.33033895e+00  2.73273457e-02  9.36270505e-02 -6.55983031e-01
  8.81771147e-02  2.23819315e-02 -1.59624234e-01 -2.30619848e-01
 -3.44381714e+00 -1.31147001e-02 -2.08517098e+00 -3.79450500e-01
 -1.91899747e-01 -9.22123045e-02 -1.39585323e+01 -3.69707868e-02
  1.19289577e-01  1.39090493e-01 -1.88145354e-01  2.01322630e-01
 -6.68021590e-02  1.04686491e-01  7.10318470e-03 -2.16336027e-01
  1.45574689e-01  1.04607515e-01 -1.73375607e-01 -7.13234469e-02
 -8.67893398e-02  2.61969984e-01 -2.03368783e-01 -1.70806155e-01
 -1.20419426e+01  8.28920081e-02 -1.00868354e-02  3.94770540e-02
 -5.75402752e-02  1.84863418e-01 -3.43677253e-02  7.24770501e-02
  1.74368218e-01  3.07032056e-02 -1.23946229e-04 -1.18783846e-01
 -5.21980822e-01 -3.12678330e-02  3.65826450e-02 -1.38761282e-01
  5.19264415e-02  1.53403103e-01 -1.50266320e-01 -8.94876480e+00
  6.15198314e-02 -9.72222537e-02 -5.79402637e+00 -1.86401725e-01
  1.47153750e-01  9.75314155e-02  8.61649513e-02 -7.77863359e+00
  1.40943855e-01 -6.61808774e-02  1.28220871e-01  1.08392453e+00
  9.09550488e-02 -1.22124560e-01  1.61640242e-01 -2.67122313e-02
  6.21878691e-02 -1.35368586e-01 -4.72736433e-02  1.87968269e-01
 -5.27467012e+00  1.10556565e-01 -1.55352265e-01  4.64396179e-02
 -2.50291247e-02  6.16332814e-02 -1.77950785e-01 -2.53528690e+00
  1.26851186e-01 -3.89605314e-02  1.28692567e-01 -2.11695172e-02]
[ 4.5644172e-02  8.2864189e-01  2.2803302e+00  1.3464075e-01
  7.7554710e-02 -6.3826652e+00 -5.7203621e-01 -1.8405664e-01
  1.8238667e-01  3.9564129e-02 -3.9766972e+00  5.8977902e-01
 -2.5474684e+00  4.7053069e-02 -1.0806518e+00 -1.9382161e-01
  2.6643825e+00 -2.6539784e-02 -1.5413968e-02  1.1516223e+00
 -3.4013873e-01 -2.6802421e-01 -2.7974105e-01  7.5255791e-03
  4.8143369e-01 -2.8309879e-01  1.8398608e-01 -2.3391562e+00
 -2.9044947e-01 -5.2693378e-02  1.3127877e-01 -2.7642235e-01
 -1.3210921e-01 -4.8296395e-01  1.3386803e-02  3.1593353e-02
 -2.0111604e-01  1.5391307e+00  1.2578845e-01 -2.3461953e-01
  6.9221333e-02 -2.3508185e-01 -4.8485365e-02  1.4937930e-02
 -3.1966758e-01 -2.2729993e+00  9.3376776e-03  7.6621205e-02
 -3.7011269e-01 -6.0179275e-01  1.5089685e+00 -3.4500133e-02
 -3.8027364e-01 -1.8141283e-02 -7.7124350e-02 -3.8333163e-01
  1.6800368e-01 -1.5482806e-01  1.6583184e-02 -2.7958557e-01
  1.8820414e-01 -5.4948491e-01  9.3325250e-02 -2.4272184e-01
  3.0877523e-02  1.8610986e-01 -8.2103409e-02 -1.7228061e+00
  4.4353206e-02 -1.5218572e-01 -1.1749545e+00 -1.9483416e-01
 -1.6061734e-01  9.8925576e-02  8.8296793e-02 -4.6190956e-01
 -1.0799470e-01 -3.2662767e-01 -1.5677300e-01  8.4352240e-02
 -4.4880140e-01  5.3817189e-01  3.1794503e-01  1.3977623e-01
 -2.6360053e-01  1.1910512e-01 -2.3414108e-01 -1.3388309e-01
 -2.3911943e-01 -4.0415022e-01 -1.8981908e-02 -1.3640629e-01
 -1.7795101e-01 -2.0126916e-01 -1.7892076e-01  2.7970266e-01
 -3.7615886e-05 -1.4431460e-01 -2.7621517e-01 -1.2073244e-01]
[-2.26806208e-01 -3.01683736e+00 -7.96179056e-01 -3.03193837e-01
 -6.60790876e-02  9.88623202e-01 -2.17492968e-01 -3.09829742e-01
  7.59191718e-03 -3.27906102e-01 -8.57904851e-02 -1.86543489e+00
 -2.16071868e+00  1.42822623e-01 -7.61104155e+00 -2.63065696e-01
  6.25718310e-02 -1.29661605e-01 -3.76238078e-01  1.60991263e+00
 -3.57290924e-01  1.48919582e-01 -4.46366489e-01  1.21890612e-01
  3.66692752e-01 -1.60579726e-01 -5.29040843e-02 -3.29313457e-01
 -1.54541507e-01  1.07252538e-01 -6.20034170e+00 -2.68344164e-01
  2.39052642e-02 -4.57130462e-01 -4.04874422e-03 -2.44595200e-01
  3.82309675e-01  5.94839692e-01 -2.42235377e-01 -3.47232252e-01
 -6.20337725e-01 -1.92759439e-01 -1.56433042e-02 -7.91896880e-02
  1.06131934e-01  8.95537496e-01 -7.88038597e-02 -1.82361212e-02
  7.48382330e-01 -2.27541715e-01  2.96472001e+00  4.40707877e-02
 -2.61487633e-01  1.24080099e-01 -9.00067538e-02  1.45719185e-01
 -6.24110222e-01 -1.20704144e-01 -2.76567638e-01  6.70878217e-03
 -1.20150812e-01  1.94319963e-01  8.19066465e-02  6.68095946e-02
 -3.09706837e-01 -1.78788424e-01 -8.99655074e-02  1.91969931e+00
  7.96541274e-02  8.83752257e-02  2.27347076e-01 -1.24390900e-01
  4.10625003e-02  3.25669944e-02 -2.07136348e-01 -4.60086226e-01
 -1.36908829e-01 -2.99703449e-01  2.24983878e-02 -8.35930407e-01
  2.47259345e-02  1.92801222e-01 -1.29518044e+00 -9.28467751e+00
 -6.51866645e-02 -1.84062049e-01  1.05134815e-01 -1.44624546e-01
 -1.81575865e-01 -2.68448710e-01 -3.24184209e-01 -1.13622144e-01
 -4.38256204e-01 -4.24626023e-01 -6.13560416e-02 -1.50695980e+00
 -1.49478972e-01 -1.36972159e-01 -6.22608699e-02  2.53858697e-02]
[-1.5790679e-01  9.2820388e-01 -1.9631518e-01  2.9173464e-01
 -6.9118924e-02  7.5288111e-01 -1.6691941e-01 -3.5763830e-02
 -1.0273412e-01 -7.0081055e-01 -2.6350304e-02 -1.2327814e+00
 -2.0201817e+00 -5.2534215e-02 -8.4669250e-01 -4.1478735e-01
  6.9808751e-01 -2.0603096e-02 -1.9363399e-01  3.3876548e+00
 -3.6950949e-01 -1.2387764e-01 -4.6619689e-03 -2.4027266e-01
 -9.8454662e-02 -2.8111744e-01  1.6965096e+00  1.1505536e+00
 -3.1821460e-01 -1.1767791e-01 -2.5274971e+00  1.0144107e-01
 -1.7228067e-01 -2.6568249e-01 -3.1485486e-01 -1.5721430e-01
 -1.4373610e+00 -3.0180035e+00 -9.1836773e-02 -2.9737645e-01
 -1.1582787e-01 -1.4992282e-01 -4.2043662e-01 -8.8087417e-02
 -3.3988354e-01 -4.7540441e+00  4.6991235e-01 -1.9189335e-01
 -5.9474194e-01 -2.0783322e-01  4.7125542e-01 -3.9823830e-02
 -3.5324475e-01 -3.6782253e-01 -1.4200525e-01 -1.6936705e-01
  1.7360279e-01 -4.4404659e-01 -1.9338252e-01 -3.4702599e-01
  1.3532891e+00  5.4726351e-02 -3.2036492e-01 -4.3559489e-01
 -1.0416771e-01 -3.2328293e-01 -2.4142590e-01  1.5898114e-01
 -7.2026573e-02 -5.4408401e-02  3.3128590e-03 -2.4738896e-01
 -1.5062113e-01 -5.2407131e-02 -2.2221485e-01  6.1443484e-01
 -1.8107282e-01 -3.1538805e-01  5.1454408e-03  5.1013846e+00
  1.0131941e+00 -2.2236969e+00  8.5910356e-01  7.3171782e-01
 -2.4699843e-01 -8.2821608e-02 -3.4705880e-01 -3.5038280e-01
  1.8032382e-01 -1.6803730e-01 -2.6447955e-01  1.6234821e-01
 -5.5232704e-02 -1.9951577e-01  3.9985321e-02  2.5990334e-01
 -1.7107032e-01 -3.1816238e-01 -3.4361652e-01 -4.8969692e-01]
[-1.17224015e-01  2.17120111e-01  2.12801144e-01 -3.35080177e-03
 -5.11195585e-02 -1.22487336e-01  9.69754681e-02  1.19080685e-01
 -9.44771990e-02 -1.09311447e-01 -3.59318733e-01  3.66771907e-01
  3.27505350e-01  5.25838882e-02  4.55941036e-02  1.30264252e-01
 -3.97193193e-01 -2.04746991e-01 -2.63020582e-02  1.17693603e-01
 -2.08331302e-01 -4.10416499e-02  1.09040819e-01  5.04783392e-02
 -4.04012531e-01  4.29825746e-02 -1.12449551e+00 -8.54843140e-01
  3.19135413e-02 -1.96445435e-01 -3.42788726e-01 -6.01729844e-04
 -5.91062419e-02 -4.80612963e-02 -2.37911157e-02 -1.37262195e-01
 -1.38825560e+00  3.08116302e-02  6.04169443e-02  7.09653646e-02
 -3.09948969e+00  9.65901613e-02  8.50439817e-02 -1.98882706e-02
  9.40946164e-04 -5.09574413e-01 -2.35518590e-02 -8.92355740e-02
 -3.43754709e-01 -1.16044663e-01 -2.66632290e+01  4.83319797e-02
 -8.30423236e-02 -4.39936295e-02 -9.85183287e-03 -8.52870941e-02
  7.10592344e-02  8.14838782e-02 -6.78467602e-02 -4.50729616e-02
 -7.04189599e-01  4.22687922e-03  2.46287845e-02 -2.79728860e-01
 -5.21380007e-02 -1.37270987e-01 -1.80684805e-01 -6.00972772e-02
 -1.08083941e-01  1.18973404e-01  4.16181415e-01 -1.83809996e-01
 -1.65194869e-01 -1.26308516e-01  3.77436280e-02 -3.81297916e-01
 -1.63449094e-01 -2.02590123e-01  1.46628963e-02 -1.23558843e+00
  7.49909401e-01  5.06791696e-02 -5.76226187e+00  3.43587995e-01
  6.64448962e-02 -5.68340123e-02  8.20915960e-03 -1.43191248e-01
  1.94750860e-01 -2.52763107e-02 -4.55722027e-02 -2.04001009e-01
 -9.99914780e-02 -1.42695755e-01 -1.76232442e-01  2.11783443e-02
 -1.71197262e-02  1.23934336e-01 -2.03387663e-01 -1.51997834e-01]
[ 6.85048401e-02 -5.84165764e+00 -3.51237869e+00 -1.51297731e+01
  7.92820305e-02 -2.81189966e+00 -1.70508176e-01 -1.42389938e-01
  5.28826267e-02 -2.70260703e-02 -1.69142151e+00 -5.35611033e-01
 -3.22184801e-01 -2.08801240e-01 -6.42970741e-01 -1.87165841e-01
  1.73749566e+00 -9.82382745e-02  7.81702697e-02  6.15394831e-01
  2.86975652e-02 -2.90000606e-02 -2.49695122e-01 -1.03525534e-01
  2.90329516e-01 -1.27384111e-01  1.92390871e+00 -6.53809726e-01
 -9.65718329e-02  2.83158980e-02 -6.68902218e-01  1.30517974e-01
  1.87918395e-01  8.21212307e-02  9.84579474e-02  2.38675973e-03
 -1.39088559e+00  5.21434128e-01 -1.58772115e-02 -2.24543363e-01
  4.12458777e-01 -7.90227577e-02  8.65878724e-03 -2.62826234e-02
 -6.01961352e-02  2.30738260e-02  2.22123250e-01 -1.96263030e-01
 -9.26898122e-02  6.73612431e-02 -1.20628443e+01 -9.44864601e-02
  5.47584258e-02 -2.26902403e-02 -3.23427804e-02  7.26630986e-02
 -1.61838084e-01 -1.07144944e-01  5.24116196e-02  1.13097303e-01
 -2.48228028e-01 -1.44468555e+01  2.56505255e-02  1.52145743e-01
 -1.93860024e-01 -9.16538611e-02  1.57965496e-01  1.95648462e-01
 -9.09296572e-02 -1.68040097e-01 -7.16508687e-01 -4.99157719e-02
 -3.89287919e-02  1.65881649e-01 -2.09400579e-01 -9.33398664e-01
  6.32330775e-05  5.36341108e-02  1.51385337e-01  4.36195135e+00
  8.77645373e-01 -3.01238871e+00 -1.83866310e+00 -5.73119104e-01
 -1.04518697e-01  3.23086814e-03  3.31955813e-02 -4.47059190e-03
 -4.34591341e+00 -1.67385070e-03  1.57738790e-01 -2.21159726e-01
  2.07289457e-01  1.52662575e-01  3.65637466e-02 -6.23058975e-02
  6.21901937e-02 -6.15688413e-02 -1.99320465e-01 -1.05739623e-01]
[-1.14735320e-01 -3.09638143e-01 -9.52742845e-02 -1.42183340e+00
  1.41609117e-01 -1.08118999e+00 -1.26004174e-01 -1.96357608e-01
 -2.42494375e-01 -1.97484478e-01  1.68877155e-01 -5.60547113e+00
 -6.58557415e-01 -1.99172944e-02  8.90419960e-01  7.56158084e-02
 -7.45636642e-01  2.76272576e-02 -2.96545684e-01 -1.49013674e+00
  1.39187947e-01  3.51989479e-03  1.34906635e-01 -2.42211193e-01
 -9.61570382e-01  5.06662577e-03 -4.63927746e-01 -8.36979926e-01
 -5.43630682e-02  1.53135598e-01  2.90853173e-01 -1.08798638e-01
  4.06945646e-02 -2.40357503e-01 -1.83032602e-01  1.99831381e-01
 -1.34645775e-01 -8.99784565e-01  8.86854380e-02  9.52540487e-02
 -1.24069250e+00 -1.67440787e-01 -2.28746146e-01  2.89577879e-02
  1.30675375e-01 -1.65635809e-01 -2.90397704e-01  7.72622228e-02
 -1.20800228e+01 -1.03953898e-01 -1.75455868e-01  8.36989135e-02
 -6.76940754e-02 -1.16395317e-01 -9.80238989e-02 -2.72640705e-01
  7.82220587e-02  9.69203282e-03 -8.46714806e-03 -4.95799147e-02
  7.80397207e-02  1.16575725e-01  1.37426198e-01 -5.02195835e-01
 -9.57751200e-02 -2.26454511e-01  1.01416737e-01 -3.51840526e-01
  1.15889512e-01 -2.65378654e-01 -3.83675843e-01 -1.90439090e-01
  6.80946410e-02 -3.15984786e-02 -1.14798419e-01 -7.74767756e-01
  6.98061567e-03 -2.56502815e-02  7.19894320e-02 -6.06963873e-01
  1.17018007e-01 -2.20360577e-01 -5.57438135e-01 -7.79716372e-02
 -1.92985386e-01 -5.22609204e-02 -9.41577777e-02  3.72384861e-02
 -7.29962170e-01 -2.69738257e-01 -1.09089918e-01  9.83211324e-02
 -2.20613912e-01 -5.97779416e-02 -2.40728438e-01 -1.73611507e-01
 -1.59563899e-01 -6.29450828e-02  9.55879688e-03  1.04518823e-01]
[-1.2078008e-01  3.2355377e-01  8.9652240e-01  1.1841145e-01
  2.8144864e-03  4.7411761e-01 -1.1477073e+00  7.7659930e-03
  5.7657398e-03  3.0595273e-01 -2.6450440e-01 -9.6110225e-02
  1.2159942e+00 -2.0697476e-02  1.0949760e-02  1.0657480e-01
  5.2644587e-01  5.5055387e-02  1.8085763e-01 -5.0434656e+00
 -6.3367002e-02 -2.4228711e-01 -2.4741139e-01 -6.5134768e-04
 -4.6961954e-01  4.2100344e-03  3.5807958e-01 -9.4018209e-01
 -1.0702771e-01 -4.2173732e-04 -1.2673951e+01 -1.6399147e-01
  1.2400661e-01  9.7196642e-03 -2.0828241e-01  5.9056420e-02
  9.1888797e-01  3.5034996e-02 -1.2539656e-01 -3.7375003e-01
 -2.1033576e-01 -6.6349305e-02 -2.8953850e-01 -9.6164480e-02
  3.9186317e-02 -1.0356784e+00  9.2597388e-02 -2.0855129e-02
 -1.4149761e-01  3.2103148e-01 -1.1116029e+00 -6.3302398e-02
  1.3505620e-01 -1.8767312e-01  3.9783642e-02 -5.5605251e-01
 -3.5505095e-01  9.3839556e-02  6.6190004e-02 -7.2943337e-02
  4.7508739e-02 -7.3371463e-02 -4.9218431e-02 -6.7241734e-01
 -5.0341797e-01  8.9009121e-02 -1.3366237e-01  3.6316636e-01
 -1.5454929e-01 -2.3918827e-03 -6.8382609e-01  4.7723405e-02
 -1.0960279e-01  4.6748170e-03 -2.2285306e-01  3.9457035e-01
 -1.2421371e-01  7.6719716e-02 -2.3197820e-03  1.0304606e+00
  3.9255574e-01  6.4532518e-01 -6.2809676e-02  9.0344831e-02
 -2.6594752e-01 -6.4601593e-02  3.9978977e-02  5.7599377e-02
 -1.2796731e-01  3.3205595e-02 -1.0873194e-01 -2.2759101e-01
 -3.4832674e-01  1.0420617e-01 -7.6365903e-02 -1.4858438e-01
 -3.2283612e-02 -1.4977087e-01 -7.1673185e-01 -7.7917263e-02]
[-0.11239217  0.17375362 -0.18981662 -0.00858898  0.17142722 -0.05882858
  0.21381891  0.16369337 -0.06180456  0.13167715  0.22223029  0.03174636
 -0.00036876 -0.18004629  0.0585922  -0.17942612 -0.05468832 -0.02658947
  0.20525467  0.12503517 -0.01162186 -0.22273584 -0.03740761  0.01404504
  0.20083532 -0.1587699  -0.09971794 -0.17603765  0.00313143  0.0490275
  0.19158888 -0.07272239  0.14829114  0.21920803 -0.0055027   0.09640837
 -0.00945888  0.15880513  0.0067018  -0.1012627   0.09663132  0.01955523
  0.2213983   0.03133076  0.02030697  0.12440386  0.1345633  -0.2089115
 -0.14763409  0.08286941 -0.07162507  0.1560053  -0.00368556  0.06739843
 -0.16188444  0.06448492 -0.06463501 -0.1847384  -0.21857174 -0.04880352
 -0.18532142 -0.16251934 -0.10716525 -0.03611852 -0.14560023 -0.07305105
  0.02648041  0.06493381  0.15958408  0.03176603  0.14562199 -0.17044416
  0.12238124 -0.02899544 -0.00621267 -0.05373356  0.12503597  0.20114648
  0.20727402 -0.00051787 -0.17938395  0.04085669  0.14456001  0.15794548
  0.16168216 -0.00878513 -0.11678258  0.02577263 -0.1060617   0.15383092
 -0.17325056  0.13094759 -0.14624232  0.1791352  -0.01415023 -0.10867222
 -0.11899673 -0.06607907  0.12815127 -0.11821043]
[-1.3144495e-01 -9.3815196e-01  1.8675824e-01 -1.4880204e-01
 -4.4993803e-01 -2.5163572e+00 -9.9026656e-01  4.6634693e-02
 -4.4838023e-01 -9.3202263e-02 -9.8511048e-02 -1.5626043e+00
  1.3717945e-01  8.7347552e-02 -2.8641710e-01  1.7331727e-01
 -2.5175062e+01 -9.9155255e-02 -1.9945890e-01  7.6760664e+00
 -1.3127121e-01  1.3825871e-02 -1.2756751e-02 -2.4373697e-01
  1.2221133e-01 -2.1495314e-01 -3.7102601e-01 -1.0639457e+00
  9.0725347e-02 -2.4977192e-01 -2.7068617e+00  1.8910289e-01
 -2.9878670e-01 -7.6985252e-01 -1.1901253e-01 -3.1838000e-02
  1.8854011e-02 -5.9651275e+00 -2.8742746e-01  8.2274601e-02
 -1.5181865e-01 -4.6584144e-01  2.9118132e-02  2.3061872e-02
 -3.4773073e-01 -1.8410112e-01 -5.4673898e-01 -1.7643183e-02
  1.3761997e-01 -2.1855798e-01  1.9808780e+00 -1.0630009e-01
 -3.4860607e-02  3.2142475e-02 -1.0646768e-01  7.1972892e-02
  8.3850250e-02 -3.9543843e-01 -1.6178684e-01 -1.1281335e-01
  1.4389381e-01 -7.6812416e-01 -4.2049554e-01 -1.7563994e-01
  2.4223793e-01 -9.7105360e-01 -2.0825189e-01  1.6240591e-01
 -3.3702132e-01  5.0762072e-02 -8.1575644e-01 -2.2128670e-01
 -8.7014467e-02 -6.6779751e-01 -2.3090026e-01 -1.3527463e-01
 -3.6616883e-01  1.4097595e-01 -1.6197582e-01  4.0831420e-01
 -5.8126575e-01 -1.2330437e+00 -1.7231418e+00 -1.4598033e-01
  1.8776613e-01 -1.7058411e-01  2.4384264e-02 -3.6256936e-01
  9.9044189e-02 -3.9507726e-01 -1.0858251e-02 -2.8894573e-01
 -2.8070480e-01 -8.9414483e-01 -2.1453479e-01 -1.7143932e-01
 -2.4528414e-01 -2.9232723e-01 -9.8716775e-03 -2.5637090e-01]
[-5.11384830e-02 -6.11358397e-02  1.70500398e-01 -1.23227084e+00
  8.04446489e-02 -1.56211346e-01 -3.01974356e-01  3.66138369e-02
 -9.14244354e-02 -6.85074925e-03 -4.59995210e-01 -1.26835883e-01
 -1.56570470e+00 -1.99070759e-02  1.53925251e-02 -2.42500260e-01
 -1.44926086e-02 -1.04579970e-01 -4.11591539e-03  1.46091938e+00
 -1.00153893e-01 -1.05160892e-01  1.47724926e-01  1.39003560e-01
 -2.02273652e-01  4.05039825e-03 -1.21376312e+00 -5.63010395e-01
  1.74258277e-01 -2.12222636e-01 -1.55930710e+00 -3.12246621e-01
 -2.31014997e-01 -2.24844124e-02  1.15485698e-01 -3.96173224e-02
 -2.42421940e-01 -4.81853671e-02 -4.61554378e-02 -3.15840617e-02
 -6.54574037e-02 -2.57077105e-02 -4.74932306e-02 -1.50831416e-01
  9.06707868e-02 -4.01101679e-01 -3.23823363e-01 -1.07670598e-01
 -3.56626660e-01  1.92046672e-01 -2.59530365e-01  8.08917582e-02
 -2.15097114e-01  1.58582151e-01  2.16907755e-01  1.31391939e-02
 -1.58568427e-01  1.27034321e-01  1.42652929e-01  1.32853061e-01
 -9.74197686e-01 -9.30026472e-01  3.31523456e-02 -7.90916458e-02
  8.07371661e-02  6.74401671e-02 -1.31379426e-01 -2.62489527e-01
  1.14735946e-01 -2.21872315e-01 -1.41080546e+00  1.04784817e-01
 -9.85177010e-02 -1.86861325e-02 -2.06520423e-01 -2.65236348e-01
 -2.09437251e-01  4.23767865e-02 -1.73130766e-01 -1.72543108e+00
  1.09803088e-01 -7.85429925e-02 -7.75334388e-02  2.44666968e-04
  1.22449242e-01 -6.92500472e-02 -1.40550226e-01  9.93313640e-02
 -1.66698039e-01 -7.42188692e-02 -6.18319213e-03 -1.48480996e-01
  3.29469591e-02 -3.74087691e-01 -9.95552465e-02 -6.59092093e+00
  1.50535554e-01 -1.13965094e-01 -6.04916923e-02 -5.90684190e-02]
[-0.20228982 -0.1970451   0.21555528  0.22261801 -0.09977834 -0.06557825
  0.09972262 -0.16285174  0.14412552  0.02865335 -0.11642677  0.22293273
  0.00644259  0.07723963  0.01014069 -0.05376208  0.09445509  0.04875267
 -0.08326195 -0.17875065 -0.20432165 -0.19870326 -0.04909082  0.04276675
 -0.0992609   0.04306495 -0.2062436   0.03469929 -0.06157249 -0.02936426
  0.13862148  0.03947961  0.19564971 -0.16593184  0.05347356  0.13752484
 -0.08328696  0.0778437   0.07884437 -0.09399031  0.05224982 -0.05225819
 -0.00201988 -0.06786326  0.10551077 -0.16438866  0.0888547  -0.08246547
 -0.14084464 -0.05108613  0.11754045  0.04463559 -0.11934193 -0.05193055
 -0.20685163  0.08444554  0.04525661  0.18986273  0.14033246  0.21286896
 -0.0638382   0.06329668  0.22006097  0.2187359   0.05372646 -0.13126606
 -0.09137872 -0.15083216  0.09127396  0.03340206  0.01492742 -0.17785427
 -0.17160758  0.06478247  0.01188676 -0.04771127  0.07674259 -0.21199805
 -0.05099742  0.00871347 -0.21241048  0.22261637  0.2221857  -0.19898704
 -0.04582284 -0.09583762  0.20634308  0.19554955  0.18246368  0.16544414
 -0.02998316  0.13112766  0.16438872 -0.11488392 -0.02465531 -0.21676707
 -0.19920461 -0.09276408 -0.08154893  0.07021245]
[-4.1268542e-02 -2.3211297e-01 -4.9903825e-01 -5.8802389e-02
 -9.6581198e-02 -4.6032959e-01 -1.3367584e-01 -1.2763895e-01
 -7.5511783e-02 -3.5733342e-01 -7.2019841e-03 -1.8449825e-01
 -8.4710938e-01 -4.4886488e-02 -4.3193795e-02 -2.1182807e-01
 -1.8793935e+00 -1.1798887e-01 -2.4922124e-01 -1.9041184e+00
 -1.7447978e-01 -7.1795285e-02 -1.9674449e-01 -1.4554432e-01
 -6.0499944e-03 -2.0880292e-01 -5.4223251e-01 -1.7891838e-01
 -8.4286600e-02 -8.8291839e-02  2.2888786e-01 -2.3501335e-01
 -1.2011013e-01 -1.6912881e-01 -1.5947777e-01 -1.7608188e-01
 -3.7297946e-01 -1.1325167e-01 -1.1244988e-01 -1.7157750e-01
 -4.4200434e-03 -1.6706626e-01 -1.9828928e-01 -3.7860233e-02
 -1.6845006e-01 -1.1212994e-01 -2.7098474e-01 -2.5742579e-02
  1.7293052e-01 -3.7150720e-01 -9.0324268e-02 -8.9766145e-02
 -1.9194621e-01 -1.2589131e-01 -7.1251370e-02  1.8040234e-02
 -1.8256077e-01 -2.0917957e-01 -1.2328018e-01 -2.0973252e-01
 -1.3841867e-01  2.4123233e-02 -2.0091948e-01 -2.6300900e-02
 -1.6251078e-01 -2.1274470e-01 -1.8412618e-02 -2.3751277e-01
 -6.0516726e-02 -9.3428329e-02 -1.4200310e-01 -1.6430314e-01
 -7.5238928e-02 -2.4970393e-01 -7.3244259e-02  4.7528401e-01
 -1.7567214e-01 -1.2858026e-01 -1.3461868e-01 -1.7898238e+00
 -2.5944698e-01 -1.4313754e+00 -1.3303937e-01 -1.7992142e-01
 -7.2262838e-02 -8.0732234e-02 -1.2675986e-01 -1.9419070e-01
  3.0427946e-02 -2.3627670e-01 -1.2511811e-01 -6.2474143e-02
 -6.9386563e-03 -2.9593176e-01 -1.8609354e-02  6.7948125e-02
 -1.2988406e-01 -1.4343095e-01  7.0305052e-04 -2.1474873e-01]
layer 5 Activation
relu
layer 6 Dense
100 500
[ 5.7038561e-02 -6.7930020e-02  8.0306575e-02  9.4373792e-02
  1.6544806e-02 -4.4612028e-02 -2.4957061e-02  8.6457737e-02
 -2.9482149e-02  4.5902420e-02 -6.5717623e-02 -6.0412139e-03
 -3.9007507e-02  8.2400180e-02 -1.9993849e-02  6.1470278e-02
  9.3648374e-02  1.3815833e-02 -4.2324353e-02  7.6731101e-02
  4.6551235e-02 -6.5181777e-02  9.6287511e-02  4.3808617e-02
  7.5280592e-02 -1.2285830e-02 -4.4335607e-02  6.3831419e-02
 -6.8933405e-02 -6.1609402e-02  6.7370422e-02 -7.4118115e-02
 -1.0395795e-03  3.1641800e-02  4.2972047e-02 -6.9244549e-02
  3.9756629e-03 -9.8263286e-02  2.9120259e-02  7.2612613e-02
 -2.8054301e-02 -1.8062266e-02 -7.9470739e-02 -7.7701792e-02
  9.1179654e-02 -7.6588511e-02 -4.2168304e-02  9.0931274e-02
 -9.6871212e-02  4.3759238e-02  5.6912951e-02  5.3467449e-02
  9.0269051e-02  9.6142597e-02  4.1622929e-02 -1.2792349e-02
 -1.7419476e-02  7.9051629e-02 -2.3260145e-02 -9.2973702e-02
  7.3303349e-02  9.8434262e-02 -7.6204091e-03 -9.6477963e-02
 -1.0548769e-02  9.0424724e-02 -1.3345183e-02 -6.2147927e-02
 -3.8642306e-02 -7.7876538e-02 -5.4843854e-02 -5.9526414e-03
  1.0450147e-02  5.4561768e-02 -9.9090133e-03 -2.3275612e-02
  2.6154965e-03  4.3065649e-02 -2.8746866e-02  4.9713612e-02
  6.1781056e-02 -7.5458787e-02 -6.9565222e-02 -9.6993782e-02
  8.0837481e-02 -4.9411919e-02 -7.3884398e-02 -7.9299264e-02
  1.4784202e-02 -5.4305840e-02 -8.2689971e-02 -3.3028960e-02
 -6.9496669e-02  4.8887543e-02 -5.7590913e-02 -4.4996824e-02
  2.5317222e-03  9.0162553e-02 -4.1855033e-02  2.4491265e-02
  4.6490438e-02 -7.0050498e-03  7.0070885e-02 -5.2342513e-03
 -1.0107660e-01 -3.5972480e-02 -8.1004277e-02  6.4003214e-02
  2.2394158e-02 -3.9692041e-02 -2.1442436e-02  5.0389506e-02
  7.4779019e-03 -9.6226215e-02 -8.4627703e-02  3.5204664e-03
  5.4111321e-02 -8.5119799e-02  8.9559443e-02  1.6132768e-02
 -6.5498248e-02  8.1198722e-02 -2.5349103e-02 -7.5950839e-02
 -4.8221938e-02  4.0950306e-02 -1.1855389e-02  2.9035620e-02
 -2.9386105e-03 -8.8780604e-02 -2.5247462e-02  6.6549458e-02
 -9.9803403e-02  6.9945551e-02  5.1017478e-02  3.0279387e-02
 -4.2611338e-02 -1.4844190e-02  4.3349594e-02  3.3022415e-02
  4.7399346e-02 -8.4473290e-02 -3.5054330e-02 -4.8497017e-02
  7.1126103e-02  6.3092060e-02  9.6426502e-02 -9.3843035e-02
  1.6186446e-02 -3.7054326e-02  3.6609821e-02 -4.0420223e-02
 -7.9893664e-02  3.0854080e-02  8.6134493e-02  2.0405842e-02
 -7.6476887e-02 -9.5589362e-02  4.5370080e-02  1.6045593e-02
 -5.5538639e-03  6.1223742e-02  7.3977739e-02  6.3266322e-02
  9.7574063e-02  4.2556967e-03  8.3098829e-02  3.0184239e-03
 -6.3970983e-02 -3.9153505e-02  7.4460760e-02  5.8400828e-02
  4.8335399e-02  3.6823206e-02  4.5037039e-02 -5.4959610e-02
 -3.2261417e-03 -5.2375164e-02  9.5399581e-02  3.0526042e-02
 -3.4632348e-02 -5.3856999e-02 -9.4895065e-04  8.9084558e-02
  1.0093652e-01 -5.6219414e-02  3.1690728e-02  3.8045891e-02
  6.4028703e-02  2.5590913e-02 -4.6917178e-02 -8.9286774e-02
  6.9191389e-02  6.0094647e-02 -1.0045778e-01  2.6178980e-02
  9.7935744e-02 -5.2514363e-02 -3.7826993e-02 -5.8803897e-02
 -6.6342250e-02 -1.6253652e-02  9.4875760e-02  2.9796997e-02
  3.8909778e-02  9.7474657e-02 -6.3667536e-02  9.9785216e-02
 -2.6708983e-02  2.1037310e-03 -4.3889944e-02 -3.3708669e-02
  5.9861392e-03 -8.0091670e-02  5.7149645e-02 -5.7001330e-02
 -7.9463162e-03  5.6260444e-02 -6.0432296e-02 -9.2324346e-02
  8.9833103e-02 -2.1519901e-02  2.8919436e-02 -9.3155995e-02
 -1.3646439e-02 -1.6474217e-02 -7.5890437e-02 -8.8934161e-02
  3.9103676e-02 -4.2136936e-03 -5.8517188e-02  9.3309559e-02
  5.0869111e-02 -6.8763569e-02  8.6203344e-02  1.1527091e-03
  8.5414194e-02  1.1625286e-02 -3.5189651e-02  7.4751638e-02
  6.5511912e-02  6.3562065e-02 -4.4553827e-02 -5.6906886e-02
  6.0545247e-02  6.8626157e-03  7.3743993e-03  3.4244806e-03
 -9.0785995e-02 -9.2191085e-02  7.1304157e-02  4.7986455e-02
 -2.9303392e-02 -9.0227179e-02  4.2643234e-02  5.3904198e-02
  1.5219297e-02  9.0920307e-02 -3.2017987e-02  7.2734579e-03
  4.0135108e-02 -3.9289236e-02 -6.2054917e-02 -1.0086192e-01
 -5.2225057e-02 -6.7748604e-03 -8.0323629e-02  3.6185112e-02
 -7.6703504e-02 -7.4850246e-02  1.1567518e-02 -7.2332099e-02
 -4.4772714e-02  7.2684921e-02  8.7318778e-02 -1.1439702e-02
 -4.7198299e-02  6.6666536e-02 -3.4432292e-02 -4.2110562e-02
  1.1137962e-02  9.2076696e-02 -5.5916842e-02 -4.5455582e-02
 -6.5108582e-02  5.8448814e-02 -3.0850859e-02 -1.8535472e-02
 -7.6271504e-02 -9.3119144e-02 -2.1050430e-03  6.6573747e-02
 -5.1287826e-02 -8.4377766e-02  8.0156766e-02  8.1103342e-03
  3.0214868e-02 -4.9338415e-02 -4.0932823e-02  6.5164424e-02
 -8.1289962e-02 -8.8847749e-02  9.5484562e-02 -4.8756260e-02
  4.9207620e-02  3.7764005e-02 -5.2511636e-02 -2.9676396e-03
 -2.4878820e-02  5.3213324e-02  1.0417024e-02 -9.4710849e-02
  1.5326902e-02  3.6817342e-02 -7.4475214e-02  6.3428678e-02
  7.3388186e-03 -8.2139269e-02  4.7310200e-03  1.3973902e-02
 -2.0652078e-02 -1.3256961e-02 -4.3226816e-02 -5.1075935e-02
  9.2078790e-02  1.6997701e-02 -4.3705653e-02 -8.4899977e-02
 -1.1271728e-02 -3.6587615e-02 -3.0307136e-03 -4.6944108e-02
 -4.3310691e-02 -5.4823544e-02  2.2444811e-02 -7.3367134e-03
 -3.3870712e-03 -2.6760349e-02  3.2037549e-02  3.8710237e-02
 -5.3758435e-02 -8.7815166e-02  1.9595504e-02 -3.6965899e-02
 -8.6176015e-02 -2.5769800e-02 -4.6044130e-02 -8.2379267e-02
  8.6131781e-02  2.4039136e-02  2.8949155e-02  6.4477153e-02
  2.6560798e-03 -9.5325731e-02  9.4055392e-02 -6.7321517e-02
  4.0597734e-03  2.6458917e-02  3.2595877e-02  6.4658567e-02
 -3.2094486e-02 -6.6915706e-02 -1.9374251e-02 -4.8026841e-02
  6.0875606e-02 -2.8271865e-02 -5.4895684e-02 -5.7462014e-02
 -2.3422142e-02  4.5565661e-02 -3.0745270e-02  2.6417775e-02
 -8.4146716e-02 -3.9477278e-02  4.0474437e-02 -4.1786716e-03
 -6.4973101e-02 -7.2347715e-02  2.4779819e-02 -6.7677304e-02
 -3.6001161e-03 -5.6424659e-02  9.4960794e-02  9.0628751e-02
  3.2383029e-03 -3.2577626e-03  9.8256171e-03 -5.6536008e-02
 -4.1756619e-02 -5.2664910e-02 -7.1612470e-02  8.9102365e-02
 -4.3037761e-02  4.7699437e-03 -8.5268497e-02 -4.0828668e-02
 -4.8912778e-02  6.3118374e-04  1.4313772e-02  2.7774096e-02
  5.2926496e-02  9.8850913e-02 -5.7397414e-02 -2.1743795e-02
 -3.5522845e-02 -9.9110298e-02 -1.0910865e-02 -4.7862507e-02
  1.7385699e-02  4.5849133e-02  1.4220834e-02 -9.4005592e-02
 -7.4677393e-02  5.6330424e-02 -1.0107281e-01  7.9890691e-02
 -6.2568761e-02  8.5552357e-02 -2.5449265e-02  4.8334230e-02
  5.6033038e-02  4.4103459e-02 -6.0496468e-02 -4.4699337e-02
  9.1945060e-02  4.8229411e-02  8.5921206e-02 -3.1023179e-03
  8.6771280e-02 -1.1569663e-02 -4.9323995e-02  7.3626645e-02
 -3.8510282e-02 -4.9608972e-02 -1.2829639e-02  3.9753921e-02
 -5.6399822e-02  9.4503388e-02  3.2448728e-02  2.2606721e-02
  8.2509704e-02  5.4136675e-02 -5.2689005e-02  9.0255789e-02
  2.7952127e-02 -3.9405495e-02  3.7973870e-02 -4.0120304e-02
 -4.0175114e-02  5.9315622e-02  6.7055225e-07  2.7078398e-02
  8.7656640e-02  7.3139243e-02 -3.2551862e-02  1.9419409e-02
 -2.5066182e-02  5.0102089e-02 -8.5315377e-02  8.3310157e-02
 -7.6834135e-02 -5.6432039e-03  1.8715704e-02  2.0274118e-02
 -5.4700281e-02 -3.3554430e-03 -6.5321445e-02  5.0784953e-02
  6.5547712e-02  9.8305590e-02  6.8145819e-02  8.2446568e-02
 -5.4767724e-02  6.2235415e-02 -4.2550649e-02  7.8998856e-02
  1.5869141e-03  9.7948693e-02 -3.5101257e-02  9.9459320e-02
  2.5092794e-02  1.5129959e-02  5.3365827e-02  4.7736719e-02
  2.8102733e-02 -8.0008365e-02  3.0848200e-02  9.5434569e-02
 -1.7855428e-02 -3.2187507e-03 -8.7057978e-02 -7.2540067e-02
 -6.5210409e-02 -5.9382576e-03 -5.3618353e-02  6.2611356e-02
  3.1646714e-03 -2.0267552e-04 -9.7972438e-02 -7.3720381e-02]
[ 5.80424741e-02  9.05919969e-02  2.64847353e-02  9.24915299e-02
 -2.97814384e-02  6.28167912e-02 -2.94729024e-02  6.99518695e-02
 -5.98441921e-02 -5.18828584e-03 -8.47610682e-02 -9.82351825e-02
  6.81338087e-02  7.35238343e-02 -7.10766092e-02  3.88052985e-02
  7.37356916e-02  3.35667655e-02 -6.17976971e-02  2.64314674e-02
  8.77200887e-02 -5.38712256e-02  4.19466078e-01  1.85035318e-02
 -8.79603252e-02 -2.21915208e-02  8.99024159e-02  2.99782120e-02
 -1.34088546e-02 -7.43696764e-02 -8.20189491e-02  8.99917558e-02
  2.84605324e-01 -2.36093998e-03 -6.08526953e-02  6.60427138e-02
 -2.85869718e-01  8.90640542e-02  2.82857195e-02 -5.56104517e+00
  1.82284955e-02 -7.39824325e-02  2.07412466e-02  6.62986562e-02
  2.65535638e-02 -9.52011347e-02  4.09582630e-02 -9.69824791e-02
  3.85601148e-02 -4.32313941e-02 -6.29370660e-02  8.47247243e-03
  3.92098865e-03  1.20165288e+00 -1.04869814e+01 -4.64231744e-02
 -7.52956718e-02  7.37858042e-02 -2.16245814e-03 -5.45045175e-02
 -5.21812215e-02 -7.26587921e-02 -6.01659529e-02  1.09182775e-01
 -5.84043443e-01  3.90745848e-02  5.47171950e-01  3.39979306e-02
  5.58592640e-02 -8.22586194e-03 -7.53010362e-02 -6.36575669e-02
 -4.51942496e-02 -1.03583622e+00 -3.73112154e+00  1.14350021e+00
 -9.05690193e-02  4.68774438e-02 -3.26474041e-01 -5.51366396e-02
 -9.12147984e-02 -1.35993334e-02 -2.97783427e-02 -1.09425271e+00
 -1.66224241e-01  7.85495248e-03 -3.02284732e-02  6.27227649e-02
 -6.04243241e-02  7.19859451e-03 -2.52207629e-02 -1.35928476e+00
  1.10084256e-02  3.31243016e-02 -1.00124869e-02 -7.41069987e-02
 -2.07389109e-02 -7.57784307e-01  1.49566540e-02  2.88784921e-01
 -6.62011206e-02 -3.00492668e+00 -5.27761765e-02  9.82878450e-03
  5.30103929e-02 -2.51777530e+00  2.94764731e-02  7.32890144e-02
  3.11143920e-02 -2.15479750e-02  5.38241640e-02  5.09492047e-02
 -1.29970172e-02  9.46810246e-01 -3.78307104e-01  6.33112937e-02
 -9.67941284e-02  1.12616944e+00  1.85240060e-02  6.86361417e-02
  7.43839517e-02  2.66090226e+00 -3.03911954e-01  6.03144243e-02
 -5.13944142e-02  9.93548706e-02 -6.50339574e-02  6.04730904e-01
 -9.05523479e-01 -8.61706510e-02  3.26703691e+00  2.14273296e-02
 -8.24969038e-02  5.25586046e-02  7.15949759e-02  5.74534982e-02
 -7.31702596e-02 -6.34779111e-02 -8.58900696e-03  4.15388942e-01
  8.94428696e-03  7.35610947e-02 -4.30913493e-02 -1.53516084e-02
 -1.25258058e-01  3.80046591e-02 -7.18707219e-03  6.31213188e-03
  7.47011304e-02  7.24945217e-03  4.95767146e-02  1.27274515e-02
  3.62221897e-03  6.73602596e-02 -2.25933343e-02 -8.00133646e-02
 -3.80677283e-02 -6.92756400e-02 -5.44087142e-02 -7.42932335e-02
 -4.73674312e-02  5.21669015e-02  1.68020278e-02  1.01217818e+00
 -2.22848207e-02 -3.21089923e-02  3.99620742e-01 -4.89141010e-02
  9.43356529e-02 -9.17080864e-02  7.47035593e-02  1.23007059e-01
  1.04740918e-01  9.09865871e-02  7.57127330e-02 -3.82872932e-02
  3.40266526e-02  3.17377663e+00  5.84227517e-02  7.91390464e-02
  6.85633421e-02  5.86852580e-02  4.06645611e-02  8.36153030e-02
 -7.13403746e-02 -2.90546753e-03 -3.16196121e-02  4.02138978e-02
 -4.14104275e-02  1.21569866e-02 -4.55521017e-01  5.89265168e-01
  1.29843205e-02 -3.09448689e-02  6.46793693e-02  3.80555391e-02
 -4.90964167e-02 -6.16883487e-03  9.38321277e-02  7.03329640e-03
 -2.12679654e-02 -2.60254908e+00 -7.83629045e-02  2.16713082e-03
 -3.86953279e-02 -1.04971206e+00 -7.04670139e-03 -1.16598046e+00
 -1.03350133e-02 -9.94942784e-02  4.55320403e-02 -8.89727101e-02
 -6.43000081e-02 -2.12816167e+00  6.05155826e-01 -4.91065048e-02
 -8.81510153e-02 -6.40039891e-02 -2.41603199e-02 -7.59724230e-02
 -7.77089477e-01  7.52505735e-02 -3.07817531e+00 -5.55315278e-02
  3.92659009e-03 -8.86461064e-02 -9.17957798e-02 -6.07731342e-01
 -2.96875481e-02 -2.14080140e-02 -4.97291982e-02 -7.34047666e-02
  9.11100358e-02  5.10189310e-02  1.36490613e-02 -1.31351948e-02
  4.32911590e-02  1.27403891e+00  2.62861997e-02 -8.82799402e-02
 -5.79436123e-03 -2.57265605e-02  8.22461620e-02 -3.84180732e-02
  3.83021608e-02  8.99232402e-02  4.56440710e-02 -4.65886705e-02
  1.96364578e-02  3.74467261e-02 -7.14768097e-02  6.99980333e-02
  5.90819791e-02  7.09454119e-02  6.05250373e-02 -8.35428238e-02
 -1.39125550e+00 -5.02093807e-02  9.35950354e-02 -8.91752243e-02
  4.17160541e-02 -8.81515220e-02  2.13958547e-01 -4.14766580e-01
 -7.86093622e-02 -6.50709718e-02 -4.96454164e-03 -8.62479508e-02
  3.51334140e-02  6.56215996e-02 -9.62047577e-02 -7.24251941e-02
 -1.09355748e+00  9.11018178e-02 -3.48501801e-02 -7.10037723e-02
 -2.62890710e-03  5.65647846e-03 -5.65390289e-03 -1.05374984e-01
 -7.49288350e-02 -7.64922351e-02  6.03546500e-02 -2.54220295e+00
  5.14867902e-01 -6.67718723e-02  8.41434970e-02  4.23433557e-02
 -1.22711025e-02 -9.74255726e-02 -5.69931529e-02  8.50196835e-03
  2.12954078e-02  1.07272416e-02  8.24218616e-02 -9.74576995e-02
  4.04538959e-03  6.74774572e-02  6.72682896e-02 -9.95643020e-01
  4.20956686e-02  5.17406687e-02  2.55230777e-02  6.02672547e-02
 -7.09448680e-02  2.85628252e-02 -1.11361831e-01  5.50447218e-02
  9.65373442e-02  6.94673434e-02 -6.55928776e-02  1.42195225e-02
  1.15415049e+00  1.70289826e+00  8.26113522e-02  3.07108853e-02
  7.06809312e-02  3.29585597e-02  7.04178140e-02 -2.71064490e-02
  5.99185005e-02 -3.38482052e-01  3.51108052e-03 -1.33959830e-01
 -2.56695300e-02  2.65658814e-02  2.97543034e-02 -3.75904739e-02
 -8.55746865e-02  2.91365646e-02 -5.30368350e-02  4.35328707e-02
 -3.29254121e-02  2.45513630e+00 -1.54602835e-02 -9.27345008e-02
 -1.85967460e-02 -6.21746555e-02  6.20942190e-02 -2.51974016e-02
 -3.39367241e-01  5.91831515e-03 -2.33226255e-01 -9.16448981e-03
 -3.27106929e+00 -4.37245145e-02 -1.14812171e-02  3.05881232e-01
  6.66692331e-02  4.18219194e-02  7.60866925e-02  3.91636193e-01
  2.93268934e-02 -2.78416667e-02  7.60200992e-02  2.09833160e-02
 -8.46583992e-02  5.87002300e-02  1.82277784e-02  3.19084004e-02
 -5.94265610e-02  4.39375997e-01 -3.02951690e-02  1.43754613e-02
 -1.62310791e+00 -8.98573548e-02 -3.53310704e-02  2.67108157e-02
 -7.76438564e-02  6.80235699e-02  8.27145725e-02  9.63139534e-03
  9.53445956e-02 -8.13032836e-02  5.01497760e-02 -9.40154254e-01
  4.09500189e-02  4.82738242e-02 -1.24032795e-03  4.45120111e-02
 -3.81753296e-02 -5.30243181e-02  4.96691316e-01  8.80975008e-01
 -5.13148829e-02 -5.57531230e-02 -2.23662400e+00 -9.49778333e-02
 -8.11461806e-02 -3.93715017e-02 -4.78069559e-02 -6.67066127e-02
 -8.66427422e-02  7.06687793e-02  1.15895048e-02  5.80397919e-02
 -5.89103699e-02 -8.93738046e-02  5.82107380e-02  1.84003457e-01
 -4.82945517e-02  9.09222439e-02  5.73759601e-02 -4.53616604e-02
  8.25598091e-02  1.00913970e-02  2.80571848e-01 -8.24884996e-02
  1.20676011e-02  6.71982244e-02 -1.04793757e-02 -4.34747964e-01
  6.48833588e-02 -7.79183879e-02 -2.90633887e-02  7.43813207e-03
  2.29452900e-03 -4.92409803e-02  8.83859694e-02 -1.42522613e-02
 -9.56042707e-02 -5.19901253e-02  1.07976934e-02 -9.16275755e-02
  4.57090214e-02 -5.81215769e-02 -1.84729457e+00  5.15990406e-02
 -7.37306103e-02  7.69558474e-02 -4.70342450e-02  2.78297141e-02
 -2.40562916e-01 -5.85028455e-02 -3.64415683e-02  2.42103502e-01
  1.73369236e-02 -2.06675213e-02 -4.79858667e-02 -6.78960904e-02
 -4.91838455e-02  5.55457175e-02  8.54640231e-02  7.44819865e-02
  3.25108431e-02  9.67124641e-01 -3.13577175e+00 -3.02682966e-02
  1.46007538e-02  9.43566784e-02  5.11802793e-01  7.61812404e-02
  5.95172718e-02 -7.89809674e-02  7.87783340e-02 -1.65071711e-02
  8.80930871e-02  6.04765117e-03  4.82191518e-02 -2.10654661e-02
 -7.74454594e-01 -6.89970748e-03 -6.07774630e-02 -2.94607654e-02
 -2.43141055e+00  7.09908962e-01  4.87484746e-02 -1.10749811e-01
 -5.89588173e-02  8.19246471e-02 -8.27922970e-02 -8.64208564e-02
  3.58922444e-02  1.83646958e-02  5.56932911e-02 -2.04795282e-02
  1.15467105e-02 -2.81885397e-02 -5.05041853e-02 -1.19275423e-02
 -3.52589607e-01 -7.44767711e-02  1.21331420e-02  1.53223407e-02
 -2.02285759e-02  9.30431299e-03 -7.94684887e-03  7.22293675e-01
 -7.64091015e-02  4.31272276e-02  1.35210186e-01 -5.55369034e-02
  8.19359720e-03 -5.65609373e-02  1.01116788e+00  5.11443838e-02
  2.12657452e+00 -3.15340832e-02  2.74088204e-01 -1.64473802e-02]
[-9.01337489e-02 -1.90536827e-01 -3.63573372e-01 -9.46838558e-02
 -1.40365705e-01  3.62206027e-02 -4.30735089e-02  6.62407875e-02
 -1.07522244e-02 -9.03412253e-02  4.07846943e-02 -1.05567977e-01
 -6.79741055e-02 -4.27668393e-02  4.16056067e-02 -1.24098599e-01
 -1.21800937e-02 -1.98528871e-01  1.33722079e+00  7.12665468e-02
  4.19393778e-02 -1.09333634e-01 -2.65967703e+00 -1.65551022e-01
 -6.44813776e-02  1.09489322e-01 -4.39946726e-02 -4.54114079e-02
 -1.02954529e-01 -9.17062983e-02 -9.51091424e-02  4.36818376e-02
 -2.95279082e-02  2.76449416e-02 -1.75267503e-01 -3.74322641e-03
 -1.96784914e+00  8.02513659e-02 -1.30676910e-01  4.90421295e+00
  2.84999181e-02  2.12899655e-01  3.17145884e-02  6.26337305e-02
  1.08859606e-01 -2.94092894e-01 -9.07712281e-02 -8.80737752e-02
 -1.49915159e-01  8.34651440e-02 -9.19998661e-02 -7.35339243e-03
 -2.15044454e-01 -1.09741139e+00 -3.59428191e+00  5.76714836e-02
  1.75124288e-01 -4.45435792e-02 -9.04829651e-02  2.08623447e-02
 -5.65445982e-03 -1.52325600e-01 -4.01485302e-02  6.97164312e-02
 -1.03735268e+00  4.41716164e-01 -6.88784361e+00 -8.36010650e-02
 -5.52124716e-02 -1.22057430e-01 -5.64440992e-03 -1.23273451e-02
 -9.61509496e-02 -8.81970525e-01 -1.83225226e+00  1.07533462e-01
 -6.96438923e-02 -1.81114212e-01 -2.84805250e+00  2.66252279e-01
  6.14140145e-02 -2.69174743e-02 -3.97104472e-02 -2.07722679e-01
  3.54092479e-01  6.60845786e-02 -1.22273736e-01  1.54315326e-02
 -1.67522356e-01 -8.31492469e-02  5.38349859e-02 -7.94546083e-02
  8.41902271e-02 -1.06993079e-01 -5.86630218e-02 -8.24073553e-02
 -5.62875092e-01 -3.40830415e-01 -2.23941946e+00 -9.17829514e-01
 -4.48676646e-02 -9.25870419e-01 -1.11632809e-01  8.62454250e-02
 -2.33404152e-03 -1.52443552e+00 -8.71359557e-02 -6.99191447e-03
 -9.28474069e-02 -2.66073316e-01 -1.10586910e-02 -3.55081230e-01
  3.07700709e-02 -1.27546474e-01  7.09817946e-01  1.56106222e-02
 -1.64004654e-01 -8.11988652e-01 -5.35322614e-02 -6.77621737e-02
 -4.91993837e-02 -6.74878955e-01  5.87157756e-02  6.55337274e-01
  1.56943239e-02 -1.71321675e-01 -7.67871514e-02 -2.94595432e+00
 -2.70064330e+00 -7.68885091e-02  1.80817795e+00 -3.08369808e-02
 -2.23240559e-03  4.62817028e-03  1.32632256e-01 -5.33169545e-02
  5.29288128e-02 -1.64289605e-02 -1.38309014e+00  1.87778056e+00
 -2.03493401e-01 -1.95885941e-01 -1.00574888e-01 -1.01548046e-01
 -9.20857430e-01  6.74025491e-02 -5.93931265e-02 -5.67146726e-02
 -6.88195676e-02 -3.79105434e-02 -3.64729837e-02 -8.47687721e-02
 -8.78245384e-02 -6.19782023e-02 -1.33551955e-01 -1.90516207e-02
 -9.74335790e-01  8.65099803e-02 -2.07039267e-01  5.97955659e-02
 -6.60563111e-02 -1.32515371e-01 -6.60208426e-03 -1.74562120e+00
 -3.15965489e-02 -1.58702627e-01  1.01464856e+00 -1.26468744e-02
 -2.80359358e-01  4.75892946e-02 -1.36582494e-01  2.83242077e-01
 -8.27770829e-02  5.78104071e-02 -1.38408855e-01  9.07206535e-02
 -7.29054883e-02  5.64244032e-01 -8.59322548e-02 -2.51952291e-01
 -9.91120636e-02 -2.31440768e-01 -2.96896994e-02 -1.45162195e-01
 -6.05766214e-02  4.53180820e-02 -1.14944234e-01  6.21771999e-03
  9.36169028e-02  1.20371923e-01 -3.40960288e+00 -5.85681629e+00
  2.86748670e-02  1.08575821e-03 -1.55206382e-01 -2.86707848e-01
  3.76192741e-02  7.91864246e-02 -2.97073102e+00 -1.08556092e-01
 -1.26548046e-02 -4.04292457e-02 -4.17503268e-02 -8.26183055e-03
 -6.89699113e-01 -3.38654578e-01 -2.96539485e-01  3.55004460e-01
 -3.52520496e-02 -1.02341086e-01  6.18375791e-03 -8.10729489e-02
 -9.98797640e-02 -5.33802390e-01 -2.79474497e+00 -9.69213992e-02
 -2.50041813e-01  1.86528582e-02  5.55576012e-02  7.69673362e-02
 -5.40944755e-01 -1.27061561e-01 -1.55441511e+00 -1.18362091e-01
 -3.19658741e-02 -1.20681087e-02 -3.49903047e-01  3.81938308e-01
 -6.00881837e-02  3.11893672e-02 -2.71760494e-01 -1.10884709e-02
 -8.21384564e-02 -7.34286979e-02 -1.72202010e-02 -8.86091590e-03
 -1.25928875e-03  5.18802762e-01  8.66149589e-02 -9.76693344e+00
 -7.44009763e-02 -5.35139032e-02 -1.18266478e-01  9.25746262e-02
 -4.62784506e-02  1.60252471e-02  1.02433383e-01  4.12303470e-02
 -6.65163875e-01 -3.86890657e-02 -2.10027829e-01 -6.83021694e-02
  1.70631683e-03  6.68475926e-02  4.89360094e-02 -3.94067960e-04
 -6.43473685e-01 -5.68094179e-02 -3.36498082e-01 -4.26669344e-02
 -1.79876521e-01 -1.07024096e-01  7.65621960e-02 -2.72215307e-01
  9.57874134e-02 -1.62760556e-01 -4.71327901e-02  2.25642622e-02
 -6.60134494e-01 -5.23094758e-02 -4.30393480e-02 -4.76297438e-02
 -4.18800443e-01  6.24055080e-02 -9.15505737e-02 -1.10411741e-01
 -2.92942245e-02 -4.81538214e-02 -1.69625804e-02 -4.17447872e-02
  5.11864088e-02  3.30873672e-03 -3.95451933e-02 -9.67688620e-01
  2.10294342e+00  2.24963164e+00 -5.13467312e-01  3.27232331e-02
  9.81058627e-02  4.87832353e-02 -2.53473997e-01  2.86986548e-02
 -7.01904967e-02 -9.49765146e-02 -1.34378463e-01 -1.07737459e-01
 -2.25938946e-01 -3.17119455e+00  5.14112599e-02 -2.48315382e+00
 -1.11639155e-02 -1.33819401e-01 -1.99615479e+00 -3.31126712e-02
  1.08498745e-02 -8.41879174e-02 -8.52693319e-02 -2.36578852e-01
  4.95502830e-01 -1.79450274e-01  1.81551985e-02 -1.16183415e-01
  9.60180759e-01 -1.63075960e+00 -1.37130931e-01 -1.89670995e-01
 -1.01905480e-01 -3.75310034e-02 -1.77193487e+00 -1.87053129e-01
  8.90436955e-03 -1.42986655e+00  2.89444178e-02  2.53733993e-01
 -1.86439514e-01 -6.20297492e-01 -6.67282492e-02 -2.33094022e-01
  7.59953037e-02 -1.41196756e-03 -2.06690326e-01  3.54599506e-02
 -3.24377604e-02 -1.40751541e+00  5.87470569e-02 -5.31863496e-02
 -1.18706040e-01 -8.60516354e-02 -1.45975426e-01  3.93222366e-03
  1.14370859e+00 -4.69214981e-04 -1.02788103e+00  1.25286862e-01
 -3.62919480e-01 -2.25183994e-01 -1.75581828e-01 -1.88243318e+00
 -1.20898306e+00 -2.24994197e-02 -1.08997293e-01  4.83710229e-01
 -3.26642171e-02  7.27981776e-02  7.34801069e-02 -4.70528901e-02
  5.28823994e-02 -7.26783648e-02 -2.10559815e-01  7.71147460e-02
  4.62466059e-03 -1.11650574e+00  5.62015995e-02 -1.40996456e-01
 -9.08950716e-02 -1.72392264e-01  2.40699984e-02 -1.34826347e-01
  4.13557515e-03 -1.04103647e-01  5.81774209e-03 -3.43713939e-01
 -6.24856427e-02 -1.00667521e-01  8.36197510e-02 -1.59968078e+00
 -6.31628782e-02  2.29974445e-02 -4.01235372e-02 -7.15889633e-02
 -1.87982947e-01 -2.53672570e-01 -1.02092993e+00 -1.15858889e+00
 -1.37517348e-01 -1.44023836e-01  1.48035634e+00 -5.61959967e-02
 -6.62924647e-02  6.04258254e-02 -1.98354125e-02 -1.22590177e-02
 -6.69648945e-02 -3.49531114e-01 -1.87803302e-02 -6.06607646e-02
 -1.47052202e-03  2.80975420e-02 -7.54139721e-02  8.99876561e-03
  1.04312778e-01 -3.53114605e-02  9.39918216e-04 -1.08934753e-01
  6.87167346e-02  1.87264431e+00  7.22598553e-01 -8.08184147e-02
 -6.70128986e-02 -3.52230102e-01  6.12844564e-02 -1.97646630e+00
  1.37537837e-01 -2.96329129e-02 -8.67163688e-02  6.23311987e-03
 -2.54355185e-02 -5.15671313e-01 -2.82155633e-01 -1.17312700e-01
 -5.42454869e-02  8.81761760e-02  9.81459498e-01 -1.55274272e-02
  5.02213202e-02 -7.84732848e-02  4.33926404e-01  7.60089993e-01
 -1.83230974e-02 -1.82151604e+00  1.49985564e+00  2.18234193e-02
 -3.31067681e-01 -3.06300342e-01 -1.02810733e-01  8.31159115e-01
  3.77021171e-02 -1.84658825e-01 -9.33200121e-03  8.34347308e-02
  6.68854564e-02 -2.66293406e-01 -6.13538884e-02  4.53735963e-02
  3.63271758e-02  1.62877035e+00 -1.49011266e+00  1.65712200e-02
 -1.26903772e-01  4.00953228e-04 -3.84820342e+00  6.72988687e-03
 -8.44591856e-02 -9.47463438e-02 -7.63854533e-02 -3.25311907e-02
  3.39802988e-02  5.02732024e-02  7.06511065e-02  6.34780228e-02
  2.39900494e+00 -7.61257708e-02 -1.91877127e-01 -2.13961713e-02
  9.33439314e-01 -1.94827735e+00 -6.45398870e-02 -1.63073823e-01
  1.75515283e-02 -8.22744668e-02 -3.78933027e-02 -9.05653760e-02
 -9.85907614e-02  8.50902405e-04 -2.68417336e-02 -5.91321364e-02
  1.77962929e-02  6.20497651e-02 -6.00569993e-02 -7.85780791e-03
 -4.26499285e-02 -6.34777427e-01 -3.32563221e-02  8.84427577e-02
  7.01727159e-03  6.63695782e-02 -9.76678133e-02  7.05595553e-01
 -2.96048317e-02 -2.33594328e-01  2.45609120e-01 -5.35180941e-02
 -1.19944841e-01 -1.40261963e-01  9.54499900e-01 -9.73367468e-02
 -5.38091473e-02 -2.41016775e-01 -6.00187838e-01 -1.13387957e-01]
[-1.92319080e-01 -2.13259146e-01 -2.66862184e-01 -7.65067697e-01
 -1.18430667e-01 -1.13359399e-01 -1.15330070e-01 -1.08864620e-01
 -1.03584528e+00 -1.04428582e-01  5.17087765e-02  1.77852847e-02
 -5.14452159e-01 -1.83403933e+00 -4.98056203e-01 -8.27270374e-02
 -1.82939887e-01  6.02156110e-03 -3.75383472e+00 -1.34318423e+00
 -1.52618974e-01 -5.60158193e-02  4.10934806e-01 -2.17856139e-01
 -6.88546747e-02 -1.78045452e-01  9.99570131e-01 -4.64731529e-02
 -1.92032814e-01 -4.18516211e-02 -6.28153160e-02 -8.95481706e-01
  3.41617048e-01 -4.60109144e-01 -3.75558645e-01  6.65842220e-02
  9.68966067e-01 -1.70282841e-01 -5.60813211e-02 -1.46470284e+00
 -1.78664736e-02 -1.82818130e-01 -1.80433005e-01 -1.88615084e-01
 -3.33953768e-01 -1.81277096e-01 -2.65432298e-01  2.60897521e-02
 -9.87291336e-02 -2.59411454e-01 -8.70753452e-02 -7.86279440e-01
 -1.93003386e-01  2.07409143e+00 -4.23733807e+00 -1.25777692e-01
 -1.65022588e+00 -1.27127215e-01  2.54309535e-01 -3.00852716e-01
 -4.85887490e-02  2.15509590e-02  4.79514413e-02 -9.92138147e-01
 -9.33292449e-01  9.36011255e-01 -1.07353811e+01  2.46227775e-02
 -2.96020657e-01 -4.00254548e-01  4.84595984e-01 -1.35895059e-01
  3.84631693e-01 -4.43923521e+00 -3.22262239e+00  1.12650073e+00
 -7.98741952e-02 -1.40413359e-01 -9.02476255e-03 -1.02594757e+00
 -6.15230016e-03 -1.74390852e-01 -9.17575583e-02 -2.35766673e+00
 -6.31897116e+00 -1.51138590e-03 -1.38421074e-01  1.18712187e-01
 -2.20266089e-01  7.18930736e-02 -3.18545431e-01  6.44901812e-01
 -2.00908393e-01 -6.35207221e-02 -5.11553735e-02 -1.07743196e-01
 -9.23523521e+00 -1.34182703e+00 -4.58535624e+00  2.09864274e-01
 -1.17204767e-02 -6.16660500e+00 -3.53815675e-01 -6.10779226e-01
 -2.46014297e-01 -1.24326506e+01 -9.26544443e-02 -1.86978787e-01
 -7.26350024e-02 -8.47289264e-01  1.50125865e-02 -3.07078093e-01
  7.57246688e-02 -3.07465625e+00  4.80950594e-01 -4.53212783e-02
 -2.33956039e-01 -1.98285031e+00 -4.79549170e-04 -1.58545807e-01
 -2.36662954e-01  1.66360629e+00 -9.17588353e-01 -5.50090253e-01
 -3.18953365e-01 -1.50412083e-01 -2.03725189e-01  4.85297871e+00
  2.42118144e+00 -1.82296768e-01  6.61842227e-02 -1.13320875e+00
 -1.25600537e-02  6.72313571e-03 -1.90619409e-01 -3.03239495e-01
 -5.77452257e-02 -1.65669471e-02 -1.00093527e+01  5.07412195e-01
 -2.70408660e-01 -1.07101761e-01 -1.25398561e-01 -1.45307228e-01
 -4.39389735e-01 -3.84626836e-01 -1.71086699e-01 -3.75601277e-02
 -4.11058366e-01 -2.06171796e-01  1.34032577e-01 -4.26508188e-02
 -9.07040015e-02 -1.90182015e-01 -3.18293571e-01 -1.64298400e-01
 -6.48707342e+00 -2.50258565e-01 -1.25646740e-01 -3.20051610e-02
 -4.32942212e-02 -2.10064963e-01 -1.36915833e-01 -5.61997175e+00
 -1.11131169e-01 -2.03329742e-01 -6.04129505e+00  2.98914704e-02
  6.27102330e-02 -1.69148650e-02 -4.42990065e-01 -1.07400984e-01
 -8.54884207e-01  7.53038675e-02 -6.17908351e-02 -1.30502784e+00
 -5.25038004e-01 -3.11524963e+00 -4.69945781e-02 -2.73670167e-01
 -6.09536730e-02 -2.64401704e-01 -6.70532659e-02  1.61891133e-02
 -1.19603232e-01 -3.20002854e-01 -1.29191458e-01 -1.53309315e-01
 -8.58442128e-01 -1.28901720e-01  5.52226877e+00 -1.50275955e+01
 -1.12274311e-01 -9.71217602e-02 -1.99805215e-01 -1.33384615e-01
 -3.03019751e-02 -2.48829544e-01  3.69548529e-01 -2.74549097e-01
  2.10490495e-01  2.51379043e-01 -1.47864968e-01 -5.77486642e-02
 -1.77094057e-01  1.10403085e+00 -6.47445738e-01  8.84894133e-01
 -1.22757234e-01 -5.20344824e-02 -5.08273721e-01 -1.09527953e-01
  6.65938929e-02  4.12627161e-01 -9.51075315e-01 -3.10394093e-02
  4.71559912e-02  3.93355414e-02 -1.27698123e-01 -9.19201910e-01
  1.66358697e+00  3.29220928e-02 -5.75885057e-01 -1.20141357e-01
  2.63139196e-02 -3.21081787e-01 -4.75235194e-01 -1.50588202e+00
  1.67759669e+00 -8.04303467e-01 -1.59508020e-01 -4.98042881e-01
 -1.69232830e-01 -6.50261268e-02 -3.21270414e-02 -7.19903260e-02
 -3.13125640e-01  7.40579590e-02  2.20578965e-02 -3.03649402e+00
 -2.18882427e-01 -5.46545148e-01 -1.75909549e-01 -3.82197142e-01
  5.47614172e-02 -3.99861306e-01 -7.05500603e-01 -7.31371939e-02
 -1.39707088e+00 -3.18003185e-02 -1.70863733e-01 -9.82129648e-02
 -1.11760847e-01 -3.58326957e-02 -1.90933362e-01  4.97968942e-02
  3.87343240e+00 -1.43140420e-01 -1.92933500e-01 -2.55565364e-02
 -5.70024550e-01 -6.24315217e-02 -1.33314419e+00 -1.72355890e+00
 -9.58946869e-02 -2.71887779e-01 -3.66867818e-02 -1.54841289e-01
 -7.14869648e-02 -2.41210368e-02 -1.19877860e-01 -4.60683733e-01
  1.18961437e-02 -9.74922061e-01 -1.67468175e-01 -1.61098644e-01
 -2.05233008e-01 -3.82741213e-01  2.06478108e-02  1.25437367e+00
 -1.11333750e-01 -5.30703962e-02 -4.68388379e-01  1.71441042e+00
  1.68243468e+00  2.85479277e-01 -5.10372281e-01  5.69670163e-02
 -1.28616065e-01 -3.97780575e-02 -2.55496919e-01 -7.88450599e-01
 -7.60978162e-01 -8.47211182e-01 -1.53439283e-01 -1.99907366e-02
 -1.12441674e-01 -2.27786946e+00 -7.23435283e-02 -5.27806938e-01
  2.89527122e-02 -2.35234927e-02  1.00101924e+00 -5.03626578e-02
  8.66321325e-02  1.82768181e-02 -2.51170301e+00 -1.25373146e-02
  9.30992216e-02 -1.81115851e-01 -2.15481251e-01 -7.78239965e-02
  2.65224504e+00 -3.92049968e-01 -3.71427864e-01  1.08029926e-02
 -2.09561825e-01 -2.07035348e-01 -1.13731742e-01 -1.36593056e+00
 -9.96850058e-02 -1.42069244e+00 -3.38064954e-02  3.03177977e+00
 -4.00378138e-01  1.69942880e+00 -1.00032426e-02 -2.80395020e-02
 -4.92097765e-01 -7.24282116e-02 -8.19166839e-01 -1.72267094e-01
 -3.05166002e-02 -9.71357346e-01  2.88666964e-01  6.48259521e-02
 -8.90805665e-03 -2.62662917e-01 -5.13082266e-01 -2.72385925e-01
  2.95244980e+00  1.24178175e-02 -5.11262536e-01 -3.80324610e-02
  4.75983953e+00 -3.69888805e-02 -1.27722830e-01  1.77242303e+00
 -3.47325593e-01 -1.67054310e-01 -1.36989132e-01  1.06830370e+00
 -7.03674629e-02 -2.79583424e-01 -6.62042573e-02 -8.22401941e-02
 -1.35722741e-01 -1.13666683e-01 -7.48138353e-02 -3.43730718e-01
 -3.07092428e-01  8.81429136e-01 -3.94294746e-02 -4.33886707e-01
  9.74898756e-01 -4.27506268e-02 -5.16648412e-01 -2.71033555e-01
 -1.08695954e-01  6.87107682e-01 -4.12583411e-01  3.70047539e-02
 -4.63631451e-02 -2.88944598e-02  1.35922311e-02 -1.99272656e+00
 -1.42620444e-01 -1.24604151e-01 -4.29847613e-02 -2.50579923e-01
 -1.57431424e-01 -5.09826779e-01 -1.06199944e+00  3.36872077e+00
 -3.52551490e-01 -1.82618976e-01  3.91973257e+00  8.77718441e-03
 -2.49649584e-01 -4.11083788e-01 -1.85720071e-01 -1.11036591e-01
 -1.67315394e-01  2.57073784e+00  1.85420495e-02 -1.96346104e-01
 -6.43721759e-01 -3.60513330e-01  7.53725786e-03 -3.56135637e-01
 -2.20887542e-01  4.88794409e-02 -1.51851594e-01 -1.57538205e-01
 -6.06218651e-02 -2.84846187e-01 -4.52967845e-02  2.10427254e-01
  3.97895426e-02 -1.64962336e-01 -1.18764482e-01  1.04390740e+00
 -1.07209027e+00 -2.69352943e-01 -1.41064048e-01 -6.70144975e-01
  2.07041001e+00  2.90946871e-01 -1.58012822e-01 -3.36248696e-01
 -4.79579806e-01 -2.90019095e-01 -4.54558916e-02 -3.32546346e-02
 -9.96086374e-02 -6.08614683e-01  9.38364029e-01 -3.95131081e-01
  1.81665063e-01 -1.79064786e+00 -3.09598178e-01 -8.55025798e-02
  3.31705719e-01 -4.24049079e-01 -5.25735281e-02 -1.42089021e+00
 -3.94020259e-01 -5.09839952e-01 -8.86573792e-01 -2.23668262e-01
 -1.38037801e-01 -6.95886984e-02 -9.19742435e-02 -5.76866902e-02
 -6.23095268e-03 -1.31230044e+00  7.02983570e+00 -2.75187701e-01
 -2.00701222e-01 -1.16560288e-01 -4.62196112e-01 -1.11483008e-01
 -4.35345136e-02 -4.24808674e-02 -7.43633062e-02  1.48801254e-02
 -3.24478261e-02 -5.74850619e-01 -4.72282797e-01 -8.16947594e-02
 -3.72890544e+00  1.26519156e+00 -1.75505295e-01  8.66532512e-03
 -2.03013229e+00 -1.77810526e+00 -1.31851867e-01 -2.94097424e+00
 -9.76588428e-02  2.49021705e-02 -7.14288205e-02 -7.33021140e-01
 -1.89441428e-01 -2.25321531e+00 -2.69146860e-01 -2.75635332e-01
 -3.40801701e-02 -1.73316967e+00 -4.53044772e-02 -2.24091098e-01
 -7.10074544e-01 -6.89123496e-02 -1.19083926e-01 -4.64401580e-02
 -6.43409908e-01 -3.25537610e+00 -1.63332999e-01 -1.50382824e+01
 -7.82950670e-02  2.39915028e-02  2.46576285e+00 -2.60522574e-01
 -5.99647522e-01 -4.49032426e-01 -4.96420574e+00 -8.42284501e-01
 -4.70022058e+00  1.75991356e-01 -5.77551052e-02  1.88168772e-02]
[ 1.86070222e-02  5.60400523e-02 -2.64944471e-02 -4.70347814e-02
 -2.09868532e-02  6.73939511e-02 -4.14581820e-02 -1.65487453e-02
 -7.31414482e-02  9.07947868e-02 -6.27093837e-02 -5.77073582e-02
  6.33731410e-02  3.33842374e-02 -3.82610131e-03 -2.81980038e-02
  1.97082441e-02 -2.30313614e-02  6.44710362e-02 -1.92834269e-02
  4.59174290e-02 -1.22653246e-02 -4.91229557e-02  7.59324133e-02
 -5.64109767e-03 -6.57965094e-02 -5.93296662e-02  3.51277702e-02
 -6.74924105e-02  6.11741468e-02  7.89170116e-02 -4.62605916e-02
 -3.04192584e-02 -1.04573928e-01 -3.46860178e-02  1.32598775e-02
  2.94306353e-02  2.13547293e-02  5.42820022e-02 -1.11700617e-01
  3.52038741e-02 -2.74880379e-02 -1.05004035e-01  6.44694343e-02
 -7.43373111e-02  6.91594183e-02  6.89099282e-02  7.11194351e-02
  4.62724604e-02  5.49738877e-04  8.91204178e-03  5.38082719e-02
  5.11928797e-02 -1.23429395e-01  3.73298535e-03  7.01256767e-02
 -5.40065020e-02 -2.59521920e-02 -1.15007006e-01  1.00439368e-02
  4.87385355e-02  4.56402497e-03  1.27289295e-02 -9.82489903e-03
 -2.32662782e-02 -7.49089755e-04 -4.20834124e-01 -2.61759479e-02
 -5.74441925e-02  1.01545453e-01 -1.01398602e-01 -8.76948833e-02
  4.30718437e-02  1.34081300e-02 -4.23671380e-02 -5.20215869e-01
 -3.16586047e-02 -2.81585138e-02  4.40499932e-03  4.14096534e-01
 -2.10427791e-02 -2.31347326e-02 -7.66843557e-02 -8.54429007e-02
  3.10529061e-02  2.03235149e-02 -8.64179358e-02 -5.68342581e-03
  3.95790674e-02  9.06649902e-02  2.29493994e-02 -2.60822996e-02
 -2.54602358e-02 -1.73522010e-02 -2.35718712e-02 -4.10419516e-03
  1.41040757e-02 -3.97013947e-02 -1.95829868e-01 -2.35050619e-02
 -3.36058363e-02  8.28097239e-02 -2.54947934e-02  5.72981685e-02
  3.93930934e-02 -3.57018299e-02 -6.38639852e-02  1.03183754e-01
 -8.40738341e-02 -2.39861347e-02 -9.66892317e-02 -1.60617530e-01
  4.22722325e-02 -5.42943776e-02 -1.07614242e-01  6.27289116e-02
 -9.73381773e-02  2.30409242e-02 -2.68968358e-03  3.74166481e-02
  6.96298704e-02  2.17455346e-02 -2.82678425e-01  5.23525476e-02
  2.31537484e-02 -8.50756764e-02 -3.01270634e-02 -9.58310738e-02
 -4.26045358e-02  8.15294459e-02 -4.24100369e-01 -9.40360427e-02
  9.68112722e-02  3.74464616e-02 -2.70909723e-02  8.91812891e-02
 -8.57733935e-02 -4.97465953e-02 -2.12164283e-01  5.60509712e-02
  4.88888510e-02  1.03444137e-01 -8.51543471e-02 -1.91751141e-02
 -2.88258214e-02  2.99599487e-02  8.12692568e-02  9.08548683e-02
  2.86663640e-02 -5.53850047e-02  4.38388810e-02 -2.86746249e-02
  5.61924055e-02  8.51563141e-02 -2.27193683e-02 -8.19136500e-02
  5.97943738e-02 -1.36803249e-02  2.78676525e-02  3.57592180e-02
  2.23766118e-02  1.05086610e-01 -9.86634716e-02  2.72884108e-02
  5.74428067e-02  7.09582865e-02 -3.34437639e-01 -4.03780825e-02
  5.63307703e-02  1.52916042e-03  7.67721087e-02 -1.54885501e-01
 -7.34780580e-02 -3.81998122e-02 -7.05755278e-02 -9.06295106e-02
  8.05538967e-02  4.51241210e-02  7.39217401e-02 -1.47862709e-04
 -9.64767635e-02  1.04135305e-01 -3.84951346e-02  2.50848159e-02
 -1.65533100e-03  9.07038227e-02 -9.26479623e-02 -4.80917934e-03
  6.25692680e-02  7.99275786e-02  5.11252657e-02 -6.95277303e-02
  3.68134230e-02 -8.33009705e-02 -3.44068892e-02  6.14226833e-02
 -2.46533155e-02  5.31901717e-02 -9.37209874e-02  2.31663231e-02
  1.46286963e-02 -3.36662643e-02 -3.14887464e-02  7.21344203e-02
 -3.12986523e-02 -6.77110106e-02 -9.31195021e-02 -8.26753117e-03
 -2.09309831e-02  7.36344010e-02 -4.16155271e-02 -2.65946388e-02
  5.30833006e-02  4.06784788e-02 -5.83520643e-02  7.60706887e-02
  7.28489906e-02  5.79153327e-03 -1.81316268e-02  9.41046625e-02
  1.74085796e-03 -4.83199507e-02 -7.00929165e-02 -5.17837256e-02
 -7.54015148e-03  9.66253430e-02  5.62306233e-02  5.46621159e-02
 -9.04098898e-03  4.60216440e-02 -9.07657817e-02 -1.02448836e-01
 -3.41851339e-02 -8.34919959e-02 -8.38721544e-02 -7.76136890e-02
  1.66337453e-02  2.70204544e-02 -2.39830241e-02 -1.65358990e-01
  7.00269192e-02 -3.53128165e-02  4.19338560e-03 -5.96531108e-02
 -4.30240855e-02 -3.74172591e-02  1.07916687e-02 -4.01021447e-03
  2.61297561e-02 -7.43726566e-02  3.59655693e-02 -3.63919958e-02
 -1.49507979e-02  2.11923737e-02  3.16751562e-02  6.50272518e-02
  2.23099403e-02  4.57320623e-02  8.45216066e-02 -2.33753324e-02
 -7.38141164e-02  1.97887477e-02 -9.36819166e-02 -3.50973725e-01
 -6.23581707e-02  8.72509703e-02  5.37511222e-02  1.24761038e-01
 -3.72528046e-01 -9.92591754e-02  8.04326683e-02 -6.52087480e-02
  6.52848110e-02  5.49076274e-02 -8.40780977e-03 -1.09692244e-02
  9.68713835e-02 -6.44066110e-02 -4.98596765e-02  2.14655288e-02
  3.11693028e-02 -4.93394844e-02 -4.06159572e-02  3.08073256e-02
 -2.79732607e-02  8.41421038e-02  9.89196226e-02 -5.85828871e-02
 -6.70119673e-02  6.65613413e-02  1.91920064e-02  1.03112623e-01
 -4.07621190e-02  7.76180252e-02  1.81236379e-02 -2.23069713e-02
 -6.56367242e-02 -8.69967639e-02 -7.71195143e-02  3.03039476e-02
  1.05902404e-02  1.05184391e-02  3.64208743e-02  1.95338540e-02
  2.29801890e-02  2.09358484e-02 -1.53844878e-01  6.40548021e-02
 -8.47669244e-02  3.08261458e-02  5.19085638e-02  6.31695688e-02
 -5.00011742e-02  1.41930941e-03  3.64241526e-02 -5.43222055e-02
  7.63133029e-03  8.67928714e-02 -2.68090665e-01  4.34064167e-03
 -5.11805713e-03 -6.45640120e-02 -6.35505170e-02 -6.37605712e-02
  6.24897182e-02 -3.36180329e-01  3.54852825e-02  4.49001975e-02
  6.76743239e-02  5.51070943e-02  3.62467356e-02 -7.33936280e-02
 -2.02491879e-04  4.13683131e-02  1.04326256e-01 -7.50742257e-02
  8.28426406e-02  7.37047046e-02 -4.38071877e-01  9.35625136e-02
 -2.57493015e-02  3.24844792e-02  2.76452377e-02  1.31342243e-02
 -7.96759427e-02  4.42471765e-02 -9.48234051e-02 -8.29583257e-02
 -2.52546053e-02  5.24341799e-02 -1.12805963e-01 -5.31885996e-02
 -8.70673135e-02  1.34657207e-03  1.18979830e-02  5.63755110e-02
  4.36861105e-02 -8.85611624e-02  3.56262326e-02 -9.54782665e-02
  8.71720165e-02 -9.18538962e-03 -8.67895782e-03  1.37974229e-02
  8.17976296e-02  4.61077318e-02  9.59207863e-02 -2.73891520e-02
 -8.75740722e-02  4.15288478e-01 -7.31915161e-02  5.44038927e-03
 -9.33034942e-02 -3.23119164e-02 -7.50916302e-02  1.22474739e-02
 -9.67934728e-02  3.67107913e-02 -2.07122117e-02  5.40637299e-02
  8.26503895e-03  6.72916323e-02 -3.64544928e-01  7.37882927e-02
  8.41470286e-02  9.35070068e-02 -2.59695388e-02 -5.76608442e-02
  5.12821134e-06  6.12251088e-02 -1.73733402e-02 -7.25665540e-02
 -7.75323343e-03  4.41730097e-02 -2.37169415e-02  9.32149738e-02
  4.39888909e-02  6.25999272e-02  5.91354445e-02 -2.42124110e-01
  4.49343435e-02 -2.57383585e-02  5.43571860e-02  9.91760269e-02
 -6.69789091e-02 -6.19751699e-02 -1.60026252e-02 -2.53284071e-02
 -8.48900080e-02  3.24866176e-02  2.13442463e-03 -8.51366296e-02
 -1.10789381e-01  7.92924166e-02 -2.68482063e-02  9.07960832e-02
  8.53266716e-02 -4.98633645e-02 -7.95132108e-03 -7.55783450e-03
  7.07075149e-02  2.68736500e-02  5.89115620e-01  6.34015128e-02
  4.90213856e-02 -3.09787411e-02  3.80240083e-01  1.10126525e-01
 -7.84386843e-02  8.20750967e-02 -1.11033553e-02  2.12583691e-03
  1.84010845e-02  5.05860187e-02  9.62935016e-02  5.93424849e-02
  2.17626039e-02  6.71122149e-02 -1.14413030e-01 -5.46348095e-03
 -4.79622930e-03  4.49105091e-02  1.09813279e-02 -1.34129375e-02
 -4.04351950e-02 -8.05509835e-02 -5.09948917e-02 -7.09604695e-02
  9.25159901e-02 -1.86494868e-02 -2.81854905e-02 -3.52879018e-02
 -7.46476650e-02 -9.61585343e-03 -8.58467817e-02 -4.57965396e-02
 -3.91988643e-02  8.20620805e-02  3.85664664e-02 -1.21504672e-01
  1.44269973e-01  1.17602199e-03 -7.52483681e-02  2.42064148e-03
  5.58140278e-02 -4.21606958e-01 -8.42395723e-02 -6.87556714e-02
  9.68744606e-03  1.10270246e-03 -2.66468581e-02  7.34080225e-02
 -8.85804966e-02  8.07749555e-02 -6.77217916e-02 -1.01602316e-01
  2.76638940e-02  4.75805476e-02  1.45224286e-02 -5.37552424e-02
 -7.37947086e-03 -4.17789876e-01  3.74997500e-04 -4.65449244e-02
 -1.54246222e-02 -6.76086592e-03 -5.12809902e-02 -1.49339661e-02
 -3.48246545e-02  8.73386338e-02 -4.91896421e-02  5.65440916e-02
 -7.91688114e-02 -5.14887124e-02 -1.85784057e-01 -5.31757325e-02
  1.60550848e-02 -6.46785572e-02 -1.10152081e-01 -9.31852385e-02]
[-5.47581678e-03 -6.35143369e-02  4.81004789e-02 -4.11764495e-02
 -3.34053189e-02  2.20053941e-02  4.87455465e-02 -2.44334573e-03
  3.04812975e-02 -6.18156418e-02 -6.67607337e-02 -8.91984627e-02
 -2.63098124e-02  1.93805285e-02 -8.72758478e-02 -7.52306730e-02
  6.91363066e-02 -3.77459303e-02 -8.69036102e+00 -4.22021523e-02
  9.47619379e-02 -8.38376209e-02 -1.06443834e+00 -4.29789461e-02
  9.72457901e-02  8.88674147e-03  1.54850986e-02 -3.79294157e-02
  2.27736961e-02  5.55810295e-02 -9.74986106e-02 -6.13382421e-02
  1.11104427e-02  5.27951121e-02  1.03096686e-01 -1.31522072e-02
 -6.21836931e-02 -5.64510152e-02  6.59426078e-02 -1.22463912e-01
  6.29375577e-02 -6.84028165e-03  9.60438997e-02 -6.60480931e-02
  2.56243050e-02 -9.81078073e-02  8.86379704e-02  9.34067275e-03
 -8.21297467e-02  1.63503271e-02 -5.19404896e-02  1.37286363e-02
 -2.04716288e-02 -6.31594300e-01 -2.54620109e-02  2.89677898e-03
  2.65307482e-02 -5.31454422e-02 -5.76336049e-02  4.51704226e-02
  8.24907944e-02  5.24741299e-02  3.33009437e-02  7.27166086e-02
 -3.42212655e-02  4.01253909e-01 -5.99091768e-01 -6.56149536e-03
  8.56316462e-02 -8.58585238e-02 -8.09754133e-02  5.47705144e-02
  2.92657893e-02 -7.81504869e-01  3.93479645e-01 -8.33115935e-01
 -1.52300447e-02  8.93187076e-02  1.19118713e-01 -8.16908777e-01
 -3.78528126e-02 -1.37287341e-02  2.81008258e-02 -3.12121242e-01
 -2.50707030e-01  3.87940928e-02  2.78278235e-02  1.10648689e-04
  9.16053727e-03  4.53402475e-02  4.36086357e-02 -3.36743569e+00
  6.67837933e-02  4.82146963e-02  3.52153517e-02 -5.35461120e-02
 -2.19740486e+00 -1.91606864e-01 -2.18391681e+00 -4.17445040e+00
  5.28783351e-02 -1.49372768e+00 -5.34094982e-02 -2.73676831e-02
 -6.39988109e-02 -1.00223846e+01 -2.59366874e-02  8.27400088e-02
 -8.17427486e-02 -2.37989098e-01 -3.62139046e-02  6.53795898e-04
  6.48524566e-03 -3.47040206e-01  4.66699302e-01  8.78067538e-02
 -6.01652041e-02 -4.36378866e-01 -4.89090905e-02 -7.91285485e-02
  3.35822552e-02  2.66849041e+00 -2.25847960e-01  2.70765144e-02
  1.96149070e-02 -7.39311576e-02  8.75323340e-02  1.04995355e-01
  6.14363134e-01 -4.42105420e-02 -1.01878130e+00 -2.91548632e-02
 -1.00323580e-01  3.89400944e-02  7.34368488e-02  4.36865091e-02
  7.16179833e-02  3.46236899e-02 -2.57247742e-02 -2.19358015e+00
 -4.00762856e-02  4.62518856e-02 -3.76906283e-02 -8.27648342e-02
 -5.42868733e-01 -6.73018098e-02  2.56338790e-02  5.45697063e-02
 -3.39484625e-02 -1.96210481e-02  2.90851807e-03  4.48715538e-02
  3.74303088e-02  1.72979180e-02 -2.65481863e-02  4.04458717e-02
  6.73576117e-01 -1.87651455e+00 -3.50561514e-02 -9.18186381e-02
  2.50676107e-02 -1.01016322e-02 -1.02918036e-01 -3.17544103e+00
 -1.01778740e-02  9.36631858e-02  1.00161695e+00  6.69461042e-02
  9.36304107e-02 -3.11151296e-02 -8.87257606e-02 -2.68884540e-01
 -2.95990370e-02  6.49128184e-02 -1.09058134e-02  6.18523546e-02
 -5.99272083e-03 -1.18909553e-02  1.72898099e-02 -1.11861527e-02
 -2.50647571e-02 -5.50885648e-02 -4.06543761e-02  4.97137080e-04
  7.28718713e-02 -6.54603764e-02 -3.42545420e-01 -8.03798959e-02
 -8.88061598e-02 -2.28402931e-02  9.38124299e-01  2.48446525e-03
 -7.81994164e-02  3.92859709e-03  8.23018998e-02 -7.35851824e-02
 -5.34177311e-02 -1.37123736e-02  1.43918067e-01  3.99750210e-02
 -8.53108093e-02  8.43708277e-01 -3.25123146e-02  7.09955096e-02
 -2.22204790e-01 -4.28497754e-02  2.27060951e-02  8.24477613e-01
 -6.83973283e-02  3.44420746e-02  5.03325351e-02 -5.40136099e-02
  1.82523057e-02 -1.11612594e+00 -5.25889099e-01 -1.44872814e-03
  4.02247980e-02 -2.51943944e-04 -7.33457878e-02  4.69318360e-01
 -9.21888733e+00  3.69867794e-02  1.37430325e-01 -1.10465862e-01
  4.31192592e-02  4.00086679e-02 -2.03472197e-01  8.33929256e-02
 -2.93371272e+00 -4.52554598e-02  6.81745932e-02  5.45154847e-02
 -6.63864566e-03 -7.95428529e-02 -5.07691987e-02 -7.10753649e-02
  3.57906260e-02 -5.61705679e-02  7.91417137e-02 -7.42464423e-01
  9.76463407e-02  3.25224251e-02  1.90551877e-02  1.04156762e-01
  2.95259617e-02  5.47043309e-02  6.30570203e-03 -2.58606561e-02
  1.03643584e+00 -7.68967718e-02  4.17195559e-02 -9.77178589e-02
  9.33207050e-02 -4.66797352e-02  5.85164428e-02  3.58827040e-02
 -1.56732702e+00  1.29680140e-02  4.75342833e-02  1.42307905e-02
  3.12340651e-02 -9.37721059e-02 -1.29478145e+00 -2.75843620e-01
  1.76735278e-02  4.84290579e-03 -4.65062633e-02 -5.63639253e-02
 -7.33260512e-02 -5.86683676e-02  4.46479246e-02  4.84118573e-02
  6.15498796e-03 -5.18379398e-02 -7.31045082e-02  8.89848024e-02
 -7.39646554e-02 -5.71404062e-02  1.85560584e-02 -3.10450107e-01
 -3.33512127e-02 -5.60405068e-02  5.65239228e-02 -6.50773048e-01
 -7.03263342e-01 -1.15823674e+00  3.47305089e-02  5.73932019e-04
 -7.29949474e-02 -5.66508174e-02 -9.64876339e-02 -1.36348987e-02
  6.46035969e-02  3.45826626e-01  1.01213619e-01 -7.37022236e-02
 -1.03194065e-01  5.60784936e-01 -4.99501824e-02  1.77673936e-01
 -6.81167096e-02 -1.92226656e-02 -6.13834634e-02  1.13683939e-02
 -8.06660205e-02  3.16596106e-02  8.18249881e-01  1.08229265e-01
 -5.86311996e-01 -8.58739614e-02 -5.20874979e-04  7.06378371e-02
 -2.27773213e+00  2.36266896e-01  3.80741246e-02 -7.67568126e-02
  7.73685202e-02 -3.91679034e-02 -1.32098496e-01  7.42394030e-02
  6.43924326e-02 -3.22920537e+00 -4.77776490e-02  1.15641606e+00
 -9.21367705e-02  4.98948842e-01 -9.05731022e-02 -3.01674171e-03
  5.82190417e-02 -2.42563691e-02  3.33803939e-03 -8.32742006e-02
  7.10167736e-02  1.01955831e-02  2.21047662e-02 -2.87294611e-02
  1.59846209e-02 -2.69477554e-02 -9.19876546e-02 -7.04655470e-03
  4.12638783e-01 -4.57983054e-02  9.68773246e-01  1.16277836e-01
 -4.35069591e-01  4.79525402e-02 -1.05939964e-02 -2.56883264e-01
 -3.77477370e-02  2.67155506e-02 -2.68210471e-02  8.79927337e-01
 -5.14506772e-02  2.27780323e-02 -1.53601747e-02  2.53058616e-02
 -8.63953605e-02 -4.95111160e-02  4.13180403e-02  2.20614634e-02
  3.54409143e-02  2.64479667e-01  8.51141475e-03 -6.62764162e-02
 -1.86761394e-01  8.77569765e-02  4.46622111e-02 -8.06000605e-02
  1.00859404e-01  4.24721278e-02 -2.23411154e-02  8.92735049e-02
 -1.00405840e-03  6.35761395e-02  5.96869364e-02  1.11119084e-01
 -5.68536408e-02 -2.26116180e-02  1.43046342e-02  5.82027435e-02
 -1.01840626e-02 -5.96662350e-02 -3.31539559e+00  3.40028095e+00
 -4.95383665e-02  5.87992184e-02  1.47268152e+00  7.02129081e-02
  4.41484340e-02 -4.45238054e-02  8.26854929e-02  5.43743148e-02
  3.19182239e-02  1.21717918e+00 -9.22662765e-02  6.18394539e-02
  8.67532194e-02  4.19534743e-04 -6.47091568e-02 -7.44619891e-02
 -3.65867130e-02 -8.65799934e-02  2.77055949e-02  8.99990946e-02
  3.38591151e-02 -3.90642214e+00 -1.38527656e+00  1.43700421e-01
  2.23503746e-02 -6.86534792e-02  8.31223130e-02 -1.03155673e+00
 -1.28618884e+00  3.99492048e-02 -1.22071557e-01 -1.78918950e-02
  1.10234074e-01 -7.30691478e-03 -5.26401177e-02 -2.94775441e-02
  5.98795786e-02  7.17458874e-02 -6.35550976e-01  7.46236742e-02
 -1.01386867e-02 -4.33996767e-02  1.48515606e+00 -1.63944051e-01
 -2.35090569e-01 -4.44009155e-02 -5.22491373e-02 -9.11780596e-02
 -2.42910668e-01  5.26362211e-02 -1.20966420e-01 -8.19972038e-01
  8.29443112e-02 -5.27535267e-02 -1.99573599e-02 -2.28474047e-02
  2.63169557e-02 -8.10145736e-02 -1.40169887e-02 -1.15181550e-01
 -5.81135899e-02 -2.04135561e+00  5.73459744e-01 -6.55557662e-02
 -2.37931497e-02 -1.15101025e-01  4.25080240e-01 -1.63373630e-02
 -3.43438610e-02  9.68615711e-03 -7.55014345e-02 -3.42473239e-02
 -3.04271728e-02  4.91492189e-02 -8.76433551e-02  6.21963814e-02
 -1.61463571e+00  4.78557423e-02 -7.99780991e-03 -3.42779569e-02
 -1.46313131e-01 -9.90118608e-02 -5.49186766e-02 -1.09244078e-01
 -1.39622912e-02  6.91224560e-02  1.22590065e-02  5.49594406e-03
 -2.80665532e-02  4.48880270e-02  1.10509321e-02  9.96207818e-02
 -2.69669071e-02  6.23389371e-02 -1.37860067e-02  8.67044479e-02
  1.14168251e+00 -1.52494162e-01  2.80403551e-02 -7.84537867e-02
  5.97276576e-02 -7.34415948e-01 -3.32700610e-02 -3.10659260e-01
 -1.35360723e-02 -2.11599749e-03 -2.62233645e-01  9.07637924e-02
  4.92158458e-02  1.03824966e-01 -5.63414302e-03  6.40907064e-02
  4.96987462e-01 -5.14568277e-02  1.79718941e-01 -1.32400021e-02]
[-6.95918128e-02 -1.50965959e-01 -3.35721076e-02 -8.08109045e-02
 -4.11252491e-02  5.29154614e-02 -1.06189206e-01  7.49888197e-02
  6.18201867e-02 -5.32114320e-02 -1.95816159e-04 -8.37450773e-02
 -4.86668050e-02 -2.66487654e-02 -2.08789617e-01  6.48962334e-02
 -1.27088740e-01  6.22659782e-03 -1.94046050e-02 -1.98111143e-02
  2.78367288e-02  9.33079049e-02 -4.81728107e-01 -1.80848286e-01
 -1.79238524e-02  6.98256344e-02 -7.11273924e-02 -1.25719877e-02
  7.03478828e-02  1.16203632e-03 -1.64432963e-03  6.41587079e-02
  7.83552453e-02 -1.53120980e-01 -5.08125909e-02  5.37343994e-02
 -5.04296601e-01  2.51968876e-02 -1.34293735e-03  6.21044822e-02
 -5.24188764e-02 -1.78769544e-01 -7.93528333e-02  5.54841161e-02
  3.49246524e-02 -2.94574499e-02 -1.59848541e-01 -7.26639628e-02
 -1.36594534e-01  5.20999655e-02 -1.63356941e-02  8.06214809e-02
 -7.17104301e-02 -1.19312279e-01 -1.14365049e-01  4.54163961e-02
  6.61661848e-02 -1.77748024e-01  4.55021888e-01 -9.35211331e-02
  4.87162080e-03 -3.65676582e-02 -5.10172546e-03  4.27808613e-02
  3.20047177e-02 -1.50774598e-01 -4.60154116e-01 -7.04858601e-02
 -1.61773667e-01 -1.29802242e-01  5.08922562e-02 -6.43072426e-02
  4.89819676e-01 -1.58280611e-01  3.76770459e-02  1.69447020e-01
 -2.63392944e-02 -1.19091488e-01 -1.22326382e-01  4.01600637e-02
  4.19250503e-02  5.07266894e-02 -4.64635938e-02 -7.85050690e-02
 -2.09800959e-01  7.92952999e-02 -6.49129823e-02  5.49008977e-03
 -7.41232708e-02 -5.79432026e-02 -4.75817360e-02 -1.69451699e-01
 -5.40035218e-02  8.47004876e-02  8.55101570e-02 -1.01479784e-01
 -1.51973927e+00 -6.50717840e-02 -3.67419645e-02  8.66922289e-02
 -8.76599774e-02 -2.55533177e-02  1.17695378e-02  3.20094153e-02
 -4.42329198e-02 -1.67968333e-01 -2.04747751e-01 -1.15905516e-01
 -7.29844272e-02 -1.22839980e-01  8.44523907e-02  2.60594618e-02
 -9.13227126e-02  4.77959484e-01  5.35482243e-02 -8.47320333e-02
 -2.94921286e-02 -5.02309315e-02 -1.80978491e-03 -2.00014859e-01
  5.36787398e-02 -7.06884041e-02  3.72707695e-02  6.72739930e-03
 -1.01233318e-01  3.52745014e-03  5.44122122e-02 -2.67904133e-01
  4.07721668e-01  6.25916570e-02 -1.61559567e-01  2.89461780e-02
  8.50775652e-03  4.24018875e-02  3.40068378e-02 -9.60273296e-02
 -2.33343914e-02 -4.61797006e-02 -1.32369483e+00 -1.94612280e-01
 -8.04108158e-02 -1.47773698e-01 -1.60000384e-01 -1.10774860e-02
 -1.27199084e-01 -4.19325382e-02  8.46088752e-02 -7.54352883e-02
 -1.81207716e-01  5.81710152e-02 -9.14388895e-02  6.61353096e-02
 -3.07909250e-02 -8.02586824e-02 -9.87134725e-02 -1.58390000e-01
 -3.40497568e-02 -1.21669069e-01 -1.16641447e-01 -9.55602005e-02
 -8.99169222e-02  3.38776074e-02 -4.27991152e-02 -3.83923292e-01
  5.00988886e-02 -2.06816941e-01  1.79777876e-01  9.13391933e-02
 -1.84716824e-02  2.06110273e-02 -5.03800437e-02  8.16838592e-02
  1.49873672e-02  5.31489663e-02  6.00973405e-02 -7.24733248e-02
 -1.06035471e-01 -1.52312338e-01 -2.71132588e-02 -8.18909034e-02
  7.48680308e-02  3.00757401e-02 -8.72752219e-02 -1.63776074e-02
 -1.12243615e-01 -8.07442889e-02 -3.24304700e-01 -4.92165536e-02
  9.21518207e-02 -2.87612574e-03 -7.62850344e-02 -7.09222183e-02
 -2.40817647e-02 -9.77453217e-02  6.03877604e-02  7.69866779e-02
 -2.97292918e-02 -5.44776134e-02 -7.31961727e-02 -3.23560163e-02
 -4.69478182e-02  1.22278057e-01  1.79325044e-02 -1.07152097e-01
  1.38061047e-01  2.85797543e-03 -1.20892502e-01 -2.20564641e-02
  5.28810620e-02  1.51771754e-02 -1.94482043e-01  5.67249581e-02
 -4.39419523e-02  5.24829403e-02  5.10686100e-01  9.17681232e-02
 -1.12515397e-01 -2.85578631e-02 -8.30209479e-02  1.16054237e-01
 -5.96377105e-02 -3.19949865e-01 -8.45986456e-02 -4.95872684e-02
 -5.05822897e-02 -5.19045927e-02 -1.90387014e-03 -8.13799679e-01
 -1.44885303e-02 -6.36219531e-02 -1.29840925e-01 -2.80276269e-01
 -4.22835797e-02  6.06324449e-02 -7.36675039e-02 -8.36746246e-02
  4.93356846e-02 -3.00594699e-02 -3.91364805e-02 -1.67174220e-01
 -2.28902951e-01 -3.46381307e-01 -2.30223201e-02  8.26859102e-02
 -3.28367874e-02  8.56793858e-03 -6.96125329e-02  4.35645096e-02
 -7.31187761e-01 -8.10165033e-02 -1.08815588e-01  9.66713503e-02
  2.28782110e-02 -2.69922204e-02 -8.28541815e-02 -9.09279007e-03
 -9.88019183e-02 -1.27139306e-02 -8.83850753e-02 -3.31095941e-02
 -9.73954573e-02 -6.90345466e-03 -6.85295463e-02 -3.63258868e-02
 -9.78248641e-02 -1.12608038e-01 -1.34096295e-01 -2.07735933e-02
  1.03439547e-01 -6.64487332e-02 -5.02668060e-02  5.43394461e-02
 -8.88623819e-02  5.22403307e-02 -2.18400154e-02 -6.99570850e-02
 -1.47723928e-01 -7.11918920e-02  6.87046275e-02 -7.25409538e-02
  6.67279288e-02  5.35003170e-02  5.84795251e-02  3.78277123e-01
 -3.51644978e-02  8.36030468e-02 -4.97745648e-02  6.94715008e-02
 -5.11871204e-02  7.73095712e-02 -1.73168536e-02 -1.35992998e-02
 -5.73768578e-02 -3.28411907e-03 -1.57191202e-01  9.08804387e-02
 -4.82939869e-01  3.08979917e-02  2.90581062e-02  2.62093425e-01
  5.95474467e-02 -9.08706337e-03 -8.70675072e-02 -4.75526229e-02
 -5.12837432e-02  1.92948766e-02  7.16502666e-02 -1.10533990e-01
 -8.66518795e-01 -1.09212466e-01 -4.13590074e-02 -6.11290857e-02
 -2.21460424e-02 -4.79260117e-01 -4.73842919e-02 -1.49935067e-01
 -1.60080835e-01 -4.78383899e-02 -3.79689932e-02 -1.08930588e-01
  7.79316202e-02 -7.44681418e-01  7.32910633e-03  8.89958665e-02
 -3.95880677e-02 -4.42539275e-01  1.48185939e-02 -1.67769566e-01
  6.10848591e-02 -1.41807556e-01 -2.30787590e-01  2.85163540e-02
 -1.04490537e-02 -3.15879583e-02 -1.65862609e-02  5.11946008e-02
 -5.10358103e-02 -1.32924035e-01 -3.74276876e-01 -1.05536558e-01
  8.53690282e-02  9.22553316e-02 -9.75792930e-02  3.45205376e-03
  2.18986031e-02 -1.22783527e-01 -7.04129636e-02  7.66682029e-02
 -6.76372707e-01  2.83515286e-02 -3.17821428e-02  6.46756947e-01
  7.72628412e-02 -4.69449274e-02  4.05595377e-02  5.25709875e-02
 -1.94772810e-01 -1.74751043e-01 -1.43908858e-01 -3.09747029e-02
 -3.52313034e-02 -1.13123477e-01  8.28713700e-02 -9.20921713e-02
  4.84136567e-02 -1.33592203e-01 -2.45551951e-03 -1.15886733e-01
  1.06384419e-02  6.31847143e-01 -1.05017364e-01 -1.14693530e-01
 -8.98117572e-02  1.24181956e-02 -3.91200855e-02 -1.68985371e-02
 -9.06497911e-02  7.07866475e-02 -5.32845855e-02 -6.90293387e-02
  8.73289630e-03  3.15310173e-02  6.95959777e-02 -4.50009890e-02
  8.39505810e-03 -4.41566139e-01  2.00547967e-02  3.14370617e-02
 -1.74732804e-02 -2.81581916e-02  2.66795754e-02 -1.52061731e-02
 -2.01576024e-01 -3.09419893e-02  5.70352823e-02 -3.09279617e-02
 -1.51263610e-01 -1.61730751e-01  4.36881259e-02 -6.61467016e-02
 -7.06025660e-02  1.53701492e-02  4.42009270e-02 -7.16941711e-03
 -9.46331248e-02  4.77089167e-01 -3.00254196e-01 -8.65396783e-02
 -8.12208056e-02 -6.85647205e-02 -9.21379309e-03 -5.53930342e-01
 -1.70288652e-01 -2.16550961e-01  1.73837971e-02  3.17435004e-02
  8.80174518e-01 -1.12471608e-02 -1.71986371e-01 -6.07852489e-02
 -1.37764618e-01 -2.19629169e-01  1.98728338e-01 -2.53300220e-02
  2.40441784e-02 -9.92276222e-02  1.19416356e-01  4.06305939e-02
 -8.84932652e-03 -1.43628001e-01 -8.14059675e-01 -6.00006357e-02
 -5.21135509e-01 -7.05802231e-04 -7.68527016e-02  4.04922247e-01
 -6.34146631e-02 -1.50946453e-02  3.06580737e-02  4.70759496e-02
 -1.07414611e-01 -1.29503096e-02 -9.57965627e-02 -4.96945083e-02
 -1.44781917e-03 -8.34677815e-01 -1.48986876e-01 -7.50844926e-02
 -1.42588392e-01  7.53982216e-02 -5.89888990e-02 -1.96009893e-02
 -9.84057412e-02 -4.08890732e-02  5.80626726e-02  8.12424943e-02
  3.35208252e-02 -1.85450986e-01 -5.82285561e-02  8.40423778e-02
  7.09968358e-02  4.45720822e-01 -7.28247222e-03  5.38965780e-03
 -5.09807579e-02 -1.60576224e-01 -1.43928856e-01 -8.04704845e-01
  8.50699842e-04 -7.07452819e-02 -7.30689764e-02  4.65289988e-02
 -1.55159414e-01  3.02788988e-02 -1.68521658e-01 -2.41858214e-02
 -4.86760847e-02  4.43961509e-02 -2.56460849e-02 -5.69862723e-02
  1.04712456e-01  4.99396995e-02  7.41839260e-02 -1.08961854e-02
 -8.86765346e-02  2.73730303e-03  6.15884028e-02 -1.09690176e-02
  7.31587633e-02 -2.69728303e-02 -1.95837483e-01 -3.46217752e-02
 -1.77303199e-02 -1.12813108e-01 -6.54005527e-01  8.66125226e-02
  4.63995427e-01 -1.46474019e-01 -1.18149430e-01 -5.64836264e-02]
[-0.00301049  0.02512726 -0.04447824 -0.03870831 -0.08276436 -0.05506017
 -0.04300749 -0.0822495  -0.00488587  0.03829875 -0.09506615  0.08009584
  0.03240547 -0.08086876  0.00647278  0.02454283  0.083942    0.00326641
 -0.00360655 -0.01206139 -0.04861636  0.01056037  0.01948214  0.07342539
 -0.09037981  0.00344693  0.03297319 -0.04037823  0.00144342 -0.06959508
  0.03595879  0.01816344 -0.06278651  0.06496901 -0.02507228 -0.06302874
 -0.02267142  0.04458342 -0.08658121 -0.00884907  0.07697783  0.01040115
  0.04098243  0.02646317 -0.0641142   0.00831856  0.03481508 -0.00150836
  0.07700963  0.00167199  0.06020758  0.0054092  -0.01172205  0.06191986
 -0.01946203  0.05223463 -0.09161744 -0.04357438 -0.0235612   0.0226974
 -0.04989803 -0.03055774  0.02681304 -0.01086193 -0.07922053 -0.05423267
  0.02701825 -0.05625067 -0.02868461 -0.04776607 -0.01718776 -0.08517783
  0.06414451 -0.02493561 -0.02879279  0.09397667  0.07734587 -0.00038389
  0.03337554 -0.00829482 -0.07669947  0.03150995 -0.10118729 -0.09641052
  0.05474116  0.08368564 -0.08429944 -0.04254493 -0.07516221 -0.0050834
  0.07345705 -0.06656396  0.0821856  -0.00254752 -0.07714482  0.04189207
 -0.08114056  0.01590323 -0.00651245  0.05791207  0.04956795  0.08354215
  0.08109605 -0.07093739 -0.07517194  0.06262659  0.06495947  0.03454336
  0.08133788 -0.06210007 -0.08701374  0.07466586  0.03994391  0.04275187
  0.02598555 -0.03183286 -0.0887186  -0.0843797   0.04007054  0.05931519
 -0.07543125 -0.07626185 -0.03171692  0.04947653 -0.02392192  0.04360929
 -0.08484133  0.02322513  0.04105018  0.05646286  0.03652926  0.05701357
  0.06709407 -0.05465548  0.00941588 -0.06949157 -0.00333433  0.01601276
 -0.07796375 -0.03861063  0.02168385 -0.01567704  0.01347547  0.0888988
  0.09283947  0.09578373  0.05450851  0.01307593 -0.00198956 -0.02311685
 -0.01769922 -0.02157573 -0.01927567  0.00790017 -0.10187659 -0.01135061
 -0.09784263  0.00576182  0.0028733   0.0649218   0.08509722  0.04965701
  0.05757466 -0.03913992 -0.0594115   0.06926526 -0.04952407  0.0749428
  0.02615079  0.04356811  0.06824825 -0.04223842  0.05019267  0.05794244
  0.09136055 -0.05721949  0.0058756  -0.07556519 -0.09758464  0.06646226
  0.04487839 -0.08868979 -0.02830818 -0.06277193 -0.04779876  0.08724877
 -0.06647842 -0.05075176  0.07792646  0.03026485 -0.08248484  0.0216449
 -0.05261934 -0.0886086  -0.04906169 -0.02990057  0.05987849  0.01722199
  0.04182336 -0.07448507  0.03613353  0.07775678  0.06992653 -0.0344043
  0.08846247  0.05552911 -0.06238232  0.01706064 -0.09756785 -0.05941613
  0.03933051 -0.06611566  0.06665812 -0.00528254 -0.04506166 -0.01371386
  0.09777468 -0.07521489 -0.04004532  0.04176468  0.08122163  0.00263587
  0.08487392  0.06581242  0.09205044 -0.05557153 -0.05659483 -0.04984834
 -0.0805022   0.01674359 -0.08570217  0.04819314  0.01187053  0.07268224
  0.00801925 -0.09265828  0.0400074  -0.0321213   0.01324125  0.09457625
 -0.00864997  0.07031665  0.04986325 -0.03137771  0.01315043 -0.04532635
  0.08840542 -0.0093703   0.02831309 -0.03802539  0.0571395  -0.07270131
  0.02053581  0.02500088  0.06356528 -0.09834695  0.07650276 -0.03379712
  0.01120464  0.08520792  0.00477314  0.01478126 -0.05605512 -0.02165266
 -0.05436201 -0.08158118  0.05086104  0.09010989 -0.01306596  0.00029481
 -0.08546443 -0.01428167  0.02483962 -0.01741473 -0.08012213 -0.03813259
 -0.01676491  0.05547585 -0.0325253   0.05293653  0.03404003  0.06275604
  0.04902532 -0.01740422  0.01095277  0.0923451   0.05439923 -0.04293966
  0.09213317 -0.07563021 -0.00403096 -0.09343459  0.05363904 -0.04947427
  0.00714618 -0.0218661  -0.08187149  0.00444924  0.04005713  0.06884628
  0.02213116  0.01167247 -0.05977838  0.0895046  -0.05200694 -0.02827351
 -0.06421172  0.02195878  0.00209255 -0.06744073  0.03585811  0.0529334
 -0.03602373 -0.01164196 -0.03409214 -0.01680951  0.01925629 -0.09520793
 -0.03352244  0.09139686  0.00807657  0.01057029 -0.04137888  0.0856102
  0.00579486  0.05638032  0.03831447  0.03958861 -0.07799564  0.02603047
  0.00526249  0.09711545 -0.03643914 -0.05534723  0.07488934 -0.01067936
 -0.00221038 -0.07775879  0.06000691  0.0085988   0.10031748 -0.00197945
  0.04744878 -0.00378247  0.0964999   0.01955368  0.08196511  0.0841594
 -0.04492034  0.0330062   0.02101635  0.08554547 -0.0570863   0.0102507
 -0.06894891  0.05182093 -0.02851204 -0.05912371 -0.00242749  0.08135594
 -0.03826096  0.0585216   0.01248815 -0.02029202  0.08756773  0.01523553
  0.02610405  0.05081182 -0.01854177  0.1128904  -0.01430073  0.0792573
  0.05278356  0.06110897 -0.09716459 -0.05624785 -0.03962706  0.02320595
  0.01200292 -0.01610134  0.07953033 -0.06046789  0.00221069 -0.00768586
 -0.03684074 -0.07824514 -0.09047068  0.02889147  0.02120374  0.03201754
 -0.01996658  0.01391725  0.00276193 -0.06337146  0.00754287 -0.09448989
  0.01104969 -0.08406391 -0.02803151  0.06246015 -0.01743701 -0.05223179
  0.07365904 -0.05326809 -0.06151854  0.05783008 -0.06094276 -0.00856677
  0.07681782 -0.05652098  0.06086081  0.06940055 -0.08516333  0.02513419
  0.04388223  0.06874752 -0.08421232 -0.02268063  0.02742118 -0.01666235
  0.09465791 -0.02738707  0.04675285 -0.02721903  0.01032708  0.01847335
  0.06083173  0.02860846 -0.05284714  0.01177327  0.08199232 -0.04287532
 -0.02537218  0.01496534  0.00409998 -0.09663052  0.0308134   0.03933117
  0.05826806  0.08928651  0.06987119 -0.00375743 -0.02786805 -0.0421459
 -0.04130917 -0.02064597 -0.02543944  0.07298295 -0.09399511  0.02525153
  0.08293585  0.01098654  0.09800876 -0.05408609  0.06419808  0.06334651
 -0.06845317 -0.03880706 -0.05946859 -0.00073719  0.07658593  0.07528208
  0.07617018 -0.07180722 -0.00226705  0.06111087  0.06914562  0.06648298
  0.09518211  0.04020529 -0.06069381 -0.01288367 -0.07558674 -0.05094129
 -0.05931938  0.0755212   0.02533627  0.02282753 -0.02876125  0.01982391
  0.08395956  0.02255048  0.0296718   0.08825915  0.09864158  0.04075999
  0.00433481  0.02960116  0.00784471  0.04979754  0.03587192 -0.10228957
 -0.02387705 -0.08198269 -0.07885083 -0.00681915 -0.06576078 -0.10005374
 -0.06433031  0.07449871]
[-1.15231991e-01 -1.40762553e-01 -1.96738821e-02 -1.27299935e-01
 -6.46809042e-02 -9.50084999e-02 -7.03898594e-02  7.71685839e-02
  9.97289121e-02 -5.31094745e-02 -2.07185388e-01 -1.03612870e-01
 -8.32733791e-03 -4.93175723e-02  3.46365683e-02  3.68581600e-02
 -1.30937308e-01 -8.77436027e-02 -4.89818864e-04  1.05138943e-01
  2.08948143e-02 -4.30365466e-02 -4.32611376e-01 -1.20684594e-01
  2.98159216e-02  6.36418387e-02 -7.69670028e-03  4.35152650e-02
 -1.40842162e-02  7.80589953e-02 -7.86832273e-02  1.31430645e-02
 -3.42704616e-02 -5.58305793e-02  6.59245923e-02 -3.43807004e-02
 -9.77939248e-01 -6.92220852e-02 -6.49121106e-02 -4.05107625e-02
 -5.08649349e-02 -9.96000543e-02 -2.22136285e-02  2.20029298e-02
 -3.37012559e-02  3.67249339e-03 -2.03941707e-02 -1.03356978e-02
 -7.44586587e-02 -6.26624748e-02  6.38219938e-02  7.09015578e-02
  9.62781385e-02 -3.23245525e-01 -8.76271307e-01  8.20453912e-02
  3.22579108e-02 -1.15676843e-01 -2.08644420e-01  9.36343521e-02
  1.11322455e-01 -1.60536799e-03 -1.23944273e-02  4.99664173e-02
 -1.81692559e-02 -6.67376280e-01  5.08625209e-02  2.55198572e-02
 -4.46523353e-03  8.94036815e-02 -2.66531650e-02 -1.78602077e-02
 -3.20220858e-01  3.25947762e-01 -2.91889664e-02 -4.80325460e-01
  9.23083164e-03 -2.42747232e-01 -3.11824352e-01  3.42703789e-01
 -3.41558494e-02 -1.30012661e-01 -2.28420615e-01 -2.66135007e-01
 -2.26153702e-01 -8.50904733e-02  1.77608449e-02 -4.82328748e-03
 -1.72383594e-03  6.06291480e-02  9.91515368e-02  4.99583781e-04
 -5.06968349e-02  4.60486189e-02 -8.23548585e-02  6.66004494e-02
 -5.48723876e-01 -2.03856319e-01 -4.22699809e-01 -4.72838432e-01
  2.61791777e-02  3.19998674e-02  5.95599636e-02  1.46237304e-02
 -1.56561255e-01 -1.12660989e-01  2.87050642e-02 -1.37249097e-01
  4.17019539e-02  2.72231009e-02  7.53745809e-03 -9.59663615e-02
 -3.65134701e-02 -4.31482971e-01  2.49205139e-02  2.19718348e-02
  3.32766548e-02 -9.83795747e-02 -1.09284315e-02 -1.06475651e-01
 -8.84983689e-03  8.51088297e-03  3.58207822e-02 -2.26784721e-01
 -1.62660003e-01 -1.05683967e-01 -1.34249404e-02  1.63569003e-02
 -5.29899597e-01 -6.35414105e-03  5.69927692e-02  2.73183826e-02
 -4.89068516e-02 -4.34554666e-02 -4.85316589e-02  6.31149486e-03
 -1.05218001e-01  8.80384147e-02  2.01570749e-01 -2.02946663e-01
  9.01269615e-02 -1.32470936e-01 -7.63123706e-02  4.22098115e-02
 -1.37270778e-01 -8.26984048e-02  2.25120466e-02  9.61644351e-02
  1.12433031e-01 -2.30548717e-02 -1.99103594e-01 -1.87680498e-02
 -5.44401668e-02 -5.49865440e-02 -1.92907676e-01 -1.85834795e-01
 -9.21360627e-02 -9.49180648e-02 -1.01019815e-01 -7.06641525e-02
 -7.52535611e-02 -2.07703799e-01 -4.05228585e-02 -2.01123536e-01
 -6.83743460e-03 -3.46863642e-02 -1.53834343e-01 -1.17995376e-02
 -2.38736160e-02 -2.98527986e-01 -8.45861807e-02 -1.26001343e-01
 -4.99830917e-02  5.65322749e-02 -4.46899384e-02 -2.43674088e-02
 -3.53657566e-02 -1.22861698e-01 -1.10416986e-01 -1.42700121e-01
 -5.50655127e-02  3.32357511e-02 -8.12414661e-02 -4.79900315e-02
  2.00959742e-02  5.60914166e-02  3.89721960e-01 -1.46328986e-01
 -6.54338524e-02 -9.05744433e-02  2.92065218e-02  1.78796455e-01
 -2.38516815e-02 -9.66154337e-02 -1.94623858e-01 -1.57208983e-02
 -4.21122834e-02 -6.85799271e-02  3.91654521e-02 -8.18545371e-03
  2.09795177e-01 -1.43460810e-01  5.25166914e-02 -1.47742927e-01
 -4.98941034e-01 -1.62478656e-01 -2.20617011e-01  2.15680748e-02
  3.06519177e-02  9.61857475e-03 -5.96206635e-02  5.22558019e-02
 -4.30234484e-02 -1.69771090e-02 -6.27345026e-01 -1.30821690e-02
  6.79889135e-03 -5.94442040e-02  1.08393714e-01  9.18139890e-02
  3.28819156e-02  1.78576678e-01 -5.43842390e-02  5.92804849e-02
 -3.35427374e-02 -6.56706840e-02  1.69914961e-02  3.91070694e-01
  2.97524743e-02  9.89913717e-02 -1.89588115e-01 -7.03011174e-03
  2.54242141e-02 -5.25654815e-02  4.76070121e-02  4.33587506e-02
 -1.36331499e-01 -1.46090716e-01  1.81348305e-02  2.33821526e-01
 -6.17150553e-02 -2.48924661e-02 -4.51648943e-02  1.28471404e-01
 -1.37813270e-01 -1.20396525e-01  1.29755780e-01 -7.24473447e-02
 -4.97522131e-02 -6.47983328e-02 -1.42233104e-01 -5.66858761e-02
 -2.04694957e-01  3.85064706e-02  9.73065346e-02 -5.56091182e-02
 -2.24633411e-01 -5.76676391e-02 -7.91045800e-02  8.66979361e-03
 -4.00750265e-02  7.17300177e-02 -4.48614955e-01 -1.65744752e-01
  8.74232277e-02  1.05365783e-01 -2.04327479e-02 -2.11109277e-02
 -1.33843720e-01 -1.33915022e-01  1.04555534e-02  6.60870150e-02
  7.19301403e-02  4.61079106e-02  5.08869886e-02 -1.35133177e-01
 -2.59851739e-02  8.49941820e-02  1.15216356e-02  5.69616780e-02
 -4.63015474e-02  1.49231683e-02 -1.93833951e-02  2.31040105e-01
