layers 8
layer 0 Dense
4 4
[-0.00230573 -0.66569835  0.01327617 -2.1270285 ]
[ 1.0983266  -0.77306926  0.4733877  -3.1873517 ]
[-0.07254546 -0.12704813 -0.02121741  0.01711989]
[ 3.447362   -0.8027818   0.02274387  0.19374402]
[-0.16046232  0.         -0.00944731  0.9212377 ]
layer 1 Activation
relu
layer 2 Dense
4 20
[-0.07982755 -0.27572018 -0.22770216 -0.34831512 -0.4850881   1.2339795
 -0.27367416 -0.25997066  0.27982765 -0.21009012  0.16102092 -0.02244253
 -0.00860313 -0.48949397 -0.3667847  -0.03946369  1.4963586   1.0178828
 -0.85847896 -0.16314399]
[ 0.45328903 -0.33502173  0.11096954  0.44152546 -0.37287712  0.3615315
 -0.3104242   0.00275707 -0.39327443 -0.46699154 -0.39856184 -0.08681834
  0.06604981 -0.2821797  -0.14663732 -0.31031907  0.08986139 -0.06861711
  0.07598817 -0.30020094]
[ -0.0222007    3.707497     1.9407402   -0.07658696  -0.06371498
  -0.5413069    0.49133015  -0.44981825  -4.111528     1.7089502
  -0.5527765    0.29424933  -0.22225733  -0.15154696  -0.4506142
   1.8814164    0.6729824    0.4046612  -20.78086     -0.49191022]
[-0.28721678  3.1674988   0.9869283  -0.40509033 -0.05764818  0.6590079
 -0.18449949 -0.01764309  0.36013114  0.45863223  0.78946406  0.03123434
  0.47755364 -0.49323487 -0.24207652  0.85210943  0.5052819   0.49447015
  0.5806355  -0.34766793]
[ 0.         -0.5804427  -0.2896459   0.          0.         -0.5128362
  0.08502209  0.          0.05864333  0.18347113 -0.3956191  -0.03457764
  0.09139798  0.          0.         -0.7021745  -2.3188941  -2.9139583
  0.82563674  0.        ]
layer 3 Activation
relu
layer 4 Dense
20 100
[ 1.19697899e-01 -2.03552678e-01  1.60748094e-01 -7.53520578e-02
 -1.73589140e-01 -2.08644241e-01 -2.95929611e-02  4.58919406e-02
  9.00154710e-02  1.45482421e-01  3.00663710e-02  1.33891255e-01
 -9.71003175e-02 -1.32099926e-01  1.70678318e-01  1.66012973e-01
  3.58087122e-02 -1.45514235e-01  4.22471464e-02  2.45783329e-02
 -1.45581454e-01  6.00759089e-02 -2.46641636e-02 -2.14301452e-01
 -1.12850502e-01  3.00071537e-02  1.82324201e-01 -1.56650260e-01
  1.75159127e-01  7.49372244e-02  4.23406661e-02  4.22709286e-02
 -1.70595825e-01  1.86567307e-01 -2.06481278e-01 -2.29953974e-02
  1.87811524e-01  7.13898540e-02 -9.47734118e-02  1.72544658e-01
  2.21244544e-01 -9.65129733e-02  1.01501793e-02  1.03309780e-01
  1.59238130e-02 -4.66246605e-02  2.01895833e-04  1.26220554e-01
 -7.95796961e-02  1.15229130e-01  1.54720962e-01 -1.36461377e-01
 -8.86354297e-02  1.87635899e-01  1.86333060e-01  1.08148366e-01
  1.15625829e-01  2.22899497e-01 -9.22103226e-02 -6.81162775e-02
  2.08678216e-01  1.30797029e-01  5.20331562e-02 -9.67017561e-02
 -7.90648162e-02  1.56939328e-02 -1.00978978e-01 -1.31520569e-01
  5.95886409e-02 -2.13675201e-03  1.96245193e-01 -7.08298683e-02
  3.87624204e-02  2.16838956e-01 -9.98835787e-02  1.69058681e-01
 -2.10711315e-01 -1.68906897e-02 -9.06983465e-02  1.95374399e-01
  1.92353010e-01 -9.00724679e-02  1.47177637e-01 -1.50935173e-01
  6.61391616e-02 -1.61820471e-01  2.13844359e-01 -7.20144063e-02
  7.81038702e-02 -1.75385013e-01 -1.19207367e-01 -1.39981955e-02
 -7.40302354e-02  1.07884645e-01  1.48957700e-01  1.26060158e-01
  1.39881670e-01 -1.11379996e-01 -1.55517384e-01  1.81484222e-02]
[-8.42893124e-01 -1.43747749e-02 -2.09982201e-01 -1.32781997e-01
 -7.84515560e-01  8.47460568e-01 -2.71467865e-01  6.24771193e-02
  3.11157703e-02 -1.85805053e-01 -3.13122511e+00 -3.27002555e-02
 -1.60315886e-01 -1.28253520e-01  2.44004011e-01 -2.16588885e-01
 -2.01115116e-01  4.59141135e-02 -9.19334352e-01  1.27035454e-01
  3.53217602e-01 -4.42160696e-01 -8.31363052e-02  1.25632465e-01
  1.09277077e-01  5.48540592e-01 -9.15020555e-02 -1.77425712e-01
  3.82334441e-01 -6.82253540e-02 -1.03870921e-01 -1.52133062e-01
  6.29949749e-01 -1.57033727e-01  1.43196536e-02  4.92285013e-01
  1.09543949e-01  5.47426045e-01 -2.21835822e-01 -7.78358936e-01
 -1.51377499e-01  1.18406519e-01 -1.20413877e-01  4.29471545e-02
  1.19745088e+00 -1.37680709e-01  1.44879520e-01  1.08068861e-01
  1.80918556e-02 -8.89802119e-04  4.24736172e-01 -6.79504871e-03
 -4.25273836e-01 -5.58988489e-02 -1.85534999e-01  1.08197592e-01
  2.26067281e+00 -1.72704607e-01  3.58935714e-01  3.53967845e-01
  4.05284405e-01 -9.60776582e-02  7.09533751e-01  1.19454667e-01
  6.89629540e-02  1.34157443e+00 -7.65859559e-02 -7.21659288e-02
 -1.28823772e-01 -4.04998809e-01  8.87347460e-02 -2.13465512e-01
  3.33074741e-02 -1.37974963e-01 -2.93632889e+00 -4.09680903e-02
 -1.91082150e-01 -4.94178861e-01  8.25423300e-02  1.13670349e+00
 -1.36295095e-01 -3.57145905e-01  9.11696732e-01 -1.24048114e-01
  1.76672125e+00 -1.45935103e-01  6.31771609e-02 -1.02956347e-01
  9.05718654e-02  2.74559569e+00 -4.88517992e-02 -5.49664688e+00
  1.53707474e-01  4.26515983e-03 -8.12003985e-02 -9.15412903e-02
 -7.92355835e-01 -1.15756549e-01 -4.20487821e-01  1.24087453e+00]
[ 3.35191083e+00 -2.34096140e-01  1.19379497e+00 -9.76001501e-01
  2.31117249e+00  5.95656455e-01  2.79619358e-02 -6.60124496e-02
 -6.46870211e-02  1.20335138e+00 -3.62414742e+00  7.55269080e-02
  3.16449523e-01 -4.90538985e-01 -3.37838626e+00 -4.22496885e-01
 -3.99286121e-01 -1.12288028e-01 -6.02778971e-01 -3.37971270e-01
 -5.23468629e-02  1.67587504e-01 -1.80579424e-02 -4.61346239e-01
 -1.12023294e-01 -4.05088931e-01  5.32817662e-01 -2.94122577e-01
  4.23612259e-03 -1.09200977e-01 -1.34915218e-01 -1.03372678e-01
 -1.43800512e-01 -3.46801341e-01 -2.30436981e-01 -5.14820528e+00
 -3.14226151e+01 -1.45905256e+00 -5.82797229e-01  1.78902757e+00
 -1.18454181e-01 -2.47827068e-01 -1.65013865e-01 -2.41403818e-01
  7.08019376e-01 -1.43321529e-01 -4.58740264e-01 -1.36877537e-01
 -3.47442567e-01  1.43327206e-01 -3.03544450e+00  1.92218512e-01
  3.61894298e+00  3.89005542e-01 -1.38474226e-01 -3.11269999e-01
 -4.77592722e-02 -5.00664294e-01 -1.49535441e+00 -1.93929061e-01
  4.68923012e-03 -4.34055954e-01 -1.51017284e+00 -3.07961971e-01
  1.63043290e-01 -3.23294789e-01 -2.73411781e-01 -1.22721791e-02
 -4.07207847e-01 -3.35995167e-01 -4.30409580e-01 -9.71387029e-02
 -1.79107264e-01 -3.27343464e-01  1.24958887e+01  1.30027079e-03
 -1.18232869e-01  2.03778982e+00 -2.50709444e-01  3.37589550e+00
 -4.67149556e-01 -3.00496608e-01  3.40983361e-01 -2.87149996e-01
  6.29991472e-01 -3.36791068e-01 -2.67168969e-01 -6.53785646e-01
 -5.04863001e-02 -1.74429798e+00 -1.66656047e-01  6.59399652e+00
  5.42314425e-02 -4.24815089e-01  4.52450097e-01 -1.35081336e-01
  1.34004164e+00 -1.08512439e-01 -2.30012298e-01  1.70811474e+00]
[ 0.03847364  0.16748565  0.12578726 -0.16342126 -0.19672859  0.10010892
  0.09227717  0.13256076  0.05530924 -0.10249613  0.13780701 -0.0845802
  0.20155701  0.05832836 -0.03761472 -0.20531741 -0.09849085  0.17465198
  0.04712597  0.14350426  0.04123765  0.16937926 -0.02786203  0.18976703
  0.11603925 -0.2059224   0.05546647 -0.10973777  0.05094615 -0.13067159
 -0.00951678  0.08281034  0.16058719 -0.1980119   0.07910234 -0.20654413
 -0.05749413  0.03297892 -0.09073475  0.20211267 -0.13687971 -0.08376276
  0.11591387  0.08366218  0.18316531  0.09157822  0.15579385 -0.22098021
  0.22110236 -0.00201632  0.2164945  -0.02672169 -0.13154367  0.12230122
  0.06045818  0.00026986 -0.14167231  0.01410849 -0.07264295  0.01227349
 -0.08310144  0.15392971  0.19322261 -0.2031683  -0.0543765  -0.13061976
  0.0490557   0.09180671 -0.14334768  0.05046844  0.02022408 -0.18528436
 -0.0423485  -0.10346572  0.04433095 -0.18708065 -0.11688883 -0.17960843
  0.0312089  -0.13250062 -0.01532075 -0.08354691 -0.21471786 -0.01812038
 -0.10741694  0.114889   -0.00811228 -0.01476204 -0.11645663 -0.10361339
  0.06346762  0.05574742 -0.20721789  0.07874861  0.21368116 -0.080568
  0.21464556 -0.03197227  0.15296209  0.03990233]
[-1.02568373e-01  2.17788845e-01 -1.94388404e-01  2.03038752e-03
 -3.03641707e-02  1.75450951e-01  5.18227518e-02 -5.83671629e-02
  1.42104298e-01 -9.28983241e-02  1.49588555e-01 -1.66083083e-01
 -3.90464664e-02  3.31877470e-02  8.43405724e-05  7.42365122e-02
  2.18577296e-01 -7.94924200e-02  2.05870718e-02 -2.86021680e-02
 -1.32915318e-01 -6.23714775e-02 -1.22362532e-01 -1.99282169e-01
 -4.77545559e-02 -1.42234266e-01  1.58477366e-01  2.61303782e-03
  1.64448649e-01  7.96567202e-02  9.29343104e-02  1.42784446e-01
  2.31429040e-02 -1.42067239e-01  1.37582570e-01  2.12717772e-01
  3.02124918e-02 -3.19732875e-02  3.70175838e-02  7.45066404e-02
 -5.57725281e-02 -9.89644229e-02  1.53112650e-01  8.86636972e-02
  1.09335899e-01 -1.76452100e-02 -7.83380568e-02 -1.85337663e-02
  2.07637936e-01  1.85985506e-01 -1.67807996e-01  1.99017584e-01
 -3.04618925e-02  1.73536956e-01  3.38961482e-02  2.06194192e-01
 -1.42678306e-01 -1.82034299e-01 -1.40060842e-01 -8.20525140e-02
  1.10226274e-01 -2.18287483e-01  7.71042705e-02 -1.79482251e-01
  3.17213535e-02 -6.84814751e-02  1.33502930e-02 -4.46415544e-02
 -9.20884013e-02 -1.62758008e-01  1.19996935e-01  3.91778350e-02
  2.22117513e-01  1.24026924e-01  2.13869214e-02  1.57469362e-01
 -1.24325484e-01  2.61093974e-02 -5.59403002e-02 -1.50646806e-01
  2.08439410e-01 -2.22026899e-01  2.06400603e-01  1.69454098e-01
 -1.42730594e-01  2.15991020e-01 -7.11750090e-02 -7.08145052e-02
  2.37682611e-02 -1.89907521e-01  1.63505286e-01 -2.04424754e-01
 -4.96175438e-02 -9.35446173e-02  1.42495602e-01 -2.20913365e-01
  2.20684856e-01 -5.17606735e-03 -9.59010571e-02 -1.00506745e-01]
[ 4.07492936e-01  1.38284266e-01 -3.08436662e-01 -1.64524302e-01
  1.14730310e+00 -7.46751845e-01 -8.81605037e-03 -2.10760027e-01
 -1.08575061e-01 -1.08712125e+00 -7.40102386e+00  3.89884575e-03
 -5.19857693e+00  9.04739499e-02 -2.99405485e-01 -1.55114904e-01
 -4.48217019e-02 -1.32675231e-01 -4.03302759e-01  4.04176824e-02
  4.27400656e-02 -6.84471786e-01 -6.54284656e-02  1.83538347e-01
 -8.50566775e-02 -1.53978258e-01 -9.53024292e+00 -1.17828131e-01
 -1.52107790e-01 -1.33423701e-01 -1.25260964e-01 -8.66789818e-02
 -1.72643805e+00  1.19764961e-01 -9.12163481e-02 -1.50415573e+01
 -4.78380978e-01  6.10578835e-01  1.50481194e-01 -6.12224877e-01
 -1.17728338e-01  4.98178974e-02 -1.16316967e-01 -1.55140793e+00
 -2.40462989e-01  5.30504808e-02 -6.14669099e-02  1.79273039e-01
  1.06062010e-01 -2.22972584e+00 -1.18089211e+00  5.65499254e-03
  2.42967352e-01 -5.98211959e-02 -5.61223738e-02 -1.43151700e-01
 -3.72179342e-03  3.89444381e-02  7.52154663e-02  1.30443811e-01
 -1.25772581e-01 -9.13969576e-02  1.75236511e+00  1.09685726e-01
 -5.66355810e-02 -6.29257917e-01 -8.79324898e-02 -2.08325242e-03
 -1.20897945e-02  4.52136211e-02 -1.86666735e-02 -6.48513511e-02
  7.81391561e-01 -3.29417661e-02 -4.99000261e-03 -5.24294898e-02
  3.41034904e-02 -6.11072302e-01 -9.12280940e-03 -2.85716727e-02
 -1.21722504e-01 -5.68350106e-02 -3.41032743e-01  8.51946101e-02
 -2.25457621e+00  1.17228940e-01 -2.63109535e-01  1.01745129e+00
  6.34480640e-02 -5.96229255e-01  9.80750397e-02  1.65402561e-01
  1.45067513e-01  4.56770286e-02  8.20107996e-01  4.85458747e-02
  1.83755800e-01  8.69537890e-02 -6.24879487e-02 -3.14405084e-01]
[ 3.94821525e+00 -1.56741631e+00 -6.30924165e-01 -2.06840143e-01
 -1.16982956e+01  2.74639130e+00 -1.87403679e-01  1.86881810e-01
  9.26730856e-02  4.33866471e-01  4.56457424e+00  1.34742394e-01
 -9.17781830e+00 -1.13862514e+00  7.08698606e+00  1.03791021e-01
 -5.95466316e-01 -3.54581118e-01 -1.60560298e+00 -2.26532117e-01
 -3.93372369e+00 -4.40152359e+00  1.02142915e-01 -8.98694634e-01
 -2.50899911e-01 -1.85364366e+00  6.92215061e+00 -2.54281044e-01
 -1.43893147e+00  1.11730985e-01  8.78859609e-02 -9.64041948e-01
 -3.86604190e+00 -3.29110056e-01 -5.80872148e-02 -7.18992129e-02
 -5.19845247e+00  6.57152700e+00 -2.48408571e-01  6.31780386e+00
  3.11243534e-02  8.79509524e-02  1.00600153e-01  1.71776664e+00
  2.43101740e+00 -9.28466618e-01  8.41240436e-02 -1.06638977e-02
 -5.69348969e-02  1.62859693e-01 -3.00582504e+00 -1.08396731e-01
  1.59882152e+00  1.05131827e-01 -7.18383193e-01 -7.07194090e-01
 -1.63199708e-01  3.06157488e-02 -2.40611100e+00 -1.59272051e+00
 -2.31093913e-02 -1.51564017e-01  4.00768566e+00 -1.28117546e-01
  3.37912627e-02  5.42583585e-01 -5.33988953e-01 -1.60188198e-01
  6.26039179e-03 -1.01743031e+00 -6.53690994e-01  1.20560512e-01
  3.15582633e+00 -2.09330007e-01 -1.56279631e+01 -3.44061196e-01
 -1.28176004e-01  6.77747536e+00 -1.29430366e+00 -1.75355492e+01
 -3.71741116e-01 -1.26294255e+00  5.85362375e-01  1.55070536e-02
  1.72830200e+00 -4.30170655e-01 -2.61401325e-01 -3.16061521e+00
 -1.52871892e-01  1.16210670e+01  1.68367937e-01 -1.79879233e-01
 -3.61006498e-01 -9.96169150e-01  2.09113336e+00 -6.29418552e-01
 -5.00478888e+00  1.72898591e-01 -1.86628866e+00  9.34886694e-01]
[ 1.18769109e-02 -1.16902798e-01 -3.75413597e-02  1.06552601e-01
 -1.47934392e-01  1.91391945e-01  1.40030384e-02  1.78322077e-01
  1.59893781e-01 -5.20641357e-02  1.16444468e-01 -5.29724360e-03
  1.85403347e-01  7.17539787e-02  1.18828118e-01 -1.44287258e-01
 -3.68786901e-02 -2.15897664e-01 -8.83569866e-02 -1.54850453e-01
 -1.63378879e-01 -1.68097466e-01  1.61148787e-01  6.67850673e-03
 -1.20576955e-01 -1.72100216e-02 -1.28498912e-01  8.06686580e-02
  1.59851283e-01 -6.59299046e-02  1.18557662e-01  3.05157006e-02
 -1.64136291e-01 -2.21001759e-01  1.12295479e-01 -1.74055576e-01
 -1.47459328e-01  1.86897308e-01  1.11326903e-01 -1.30573392e-01
  1.97897494e-01  6.13460243e-02 -2.87657231e-02  8.05691779e-02
  2.13525653e-01 -8.70399177e-03  7.26751089e-02  1.67803258e-01
  2.10183084e-01  7.15914369e-02  1.81203872e-01 -2.17348605e-01
 -2.22670108e-01  3.01816463e-02  1.84769422e-01  1.42922431e-01
  6.18579388e-02  1.52310520e-01 -8.47719163e-02  4.10776138e-02
  7.25845098e-02 -1.12866014e-01  1.56073153e-01 -1.91270605e-01
 -7.57173449e-02 -1.69351101e-01 -9.18507576e-05  1.05315804e-01
  1.93215311e-01  1.61963612e-01 -3.06118131e-02 -4.56107706e-02
 -1.82010889e-01  1.92504197e-01 -1.58643126e-01  2.47298926e-02
 -2.20680237e-03 -1.72250688e-01 -1.45783991e-01 -7.35441297e-02
  5.28937280e-02  1.34666890e-01 -1.28399700e-01  2.10895091e-01
 -8.08565170e-02  1.10933185e-01  1.79960459e-01 -4.70166057e-02
 -1.50226489e-01 -1.66836753e-01  7.59647787e-02 -1.01730891e-01
  9.05501246e-02 -1.78100467e-02  2.19266564e-01 -1.39862522e-01
 -2.99255848e-02 -1.46266147e-01  1.23173892e-01 -2.10227370e-02]
[-1.17860484e+00  1.25344163e-02  9.59538221e-01  1.67302564e-01
 -2.61272937e-01 -6.50871277e+00 -7.24932328e-02 -5.45794517e-02
  4.62545119e-02  6.62583470e-01  1.65952146e+00 -1.40960783e-01
  2.71465373e+00 -1.28618449e-01  2.83620739e+00 -2.56446958e-01
 -5.95038272e-02  1.29162684e-01  1.45543540e+00 -4.24188942e-01
  4.66733336e-01 -9.97566059e-02  1.78257197e-01 -1.68184444e-01
 -1.12453319e-01  4.34733927e-03 -8.17166626e-01 -1.76617026e-01
 -6.67087889e+00  1.40576407e-01 -1.46621406e-01 -1.84227929e-01
  9.24201488e-01 -7.50033557e-02 -3.29437822e-01 -1.03093433e+00
  1.82522506e-01 -2.30453892e+01  5.07371873e-02  3.05924559e+00
  1.44660830e-01 -1.68634713e-01 -1.30069675e-03  8.56948644e-02
 -1.70205581e+00 -2.79386371e-01  9.61406454e-02 -1.90203786e-01
 -1.04666226e-01 -5.79824030e-01  2.82512021e+00 -2.35815644e-02
 -5.00821412e-01 -4.50523078e-01 -3.67121488e-01 -3.28743130e-01
  3.04601622e+00 -1.84400365e-01  2.36092225e-01 -1.52770936e-01
 -5.53098440e+00  1.74849167e-01 -5.83192825e-01 -9.83000845e-02
 -5.77996671e-02  6.75075114e-01  7.27180168e-02 -1.59503311e-01
 -3.76729146e-02 -1.20850697e-01  1.45557016e-01  1.02038700e-02
 -6.82280064e-01  1.94385368e-02  1.63965452e+00 -1.45987365e-02
 -5.40938005e-02 -4.48856354e+00 -3.41260076e-01  6.36839330e-01
 -2.50546541e-03  3.38348863e-03 -6.64167929e+00 -2.83453465e-01
 -2.63576746e-01 -1.54235780e-01 -1.29802927e-01 -5.21158040e-01
 -4.93841693e-02 -2.07403824e-01 -1.09055363e-01 -2.88768387e+01
 -1.88018513e+00 -1.15188919e-01 -5.66280037e-02 -2.66524553e-01
  2.09678531e+00 -2.20811859e-01 -1.54303864e-01 -3.40795779e+00]
[-5.74330950e+00 -2.12550387e-01 -5.35297275e-01 -1.79657832e-01
  6.53717399e-01  8.32126796e-01  1.18921138e-01 -1.23003483e-01
 -3.15457992e-02 -5.08999899e-02 -1.40500987e+00 -3.22871357e-01
 -2.65052449e-02 -1.44355074e-01  4.35891509e-01 -2.92621642e-01
 -3.60915661e-01 -2.24166691e-01 -1.02116629e-01  4.34643239e-01
 -9.42351282e-01 -6.98588312e-01 -1.23016864e-01 -1.68056890e-01
 -2.27304354e-01 -6.38377905e-01 -1.38910735e+00 -3.54441822e-01
  1.45864546e+00  7.02142436e-03 -2.00661123e-01 -4.04341817e-01
 -1.36470497e+00 -1.62557855e-01  3.42658423e-02 -5.71029425e-01
 -4.07995987e+00  7.64352202e-01 -1.17488110e+00  8.52586806e-01
 -7.53255039e-02 -3.72205645e-01 -2.82440841e-01 -6.48411274e-01
  8.78471673e-01 -1.75679460e-01 -5.97415447e-01 -3.70555878e-01
 -2.60359466e-01 -1.06175616e-01  1.61388302e+00 -2.19420180e-01
 -8.48244607e-01 -2.26903260e-01 -2.23887309e-01 -4.45706844e-01
 -1.95014262e+00 -2.98672199e-01 -5.16757071e-01 -3.47465664e-01
 -7.49068141e-01 -1.61696915e-02 -2.24015757e-01 -6.98904991e-02
 -4.72954176e-02  1.39170229e+00 -4.95732665e-01 -2.38911808e-02
 -3.74831259e-01 -2.21374586e-01 -6.02485240e-02 -1.88776627e-01
 -1.54186681e-01 -4.83526662e-02 -3.32561970e-01 -1.61945075e-01
 -1.73502460e-01  2.24155879e+00 -3.25208217e-01 -3.38373780e-02
 -5.31806685e-02 -1.81541413e-01  1.12530494e+00 -1.54780686e-01
  2.50348067e+00 -2.20497936e-01  9.15380493e-02  5.37092149e-01
 -4.08580415e-02 -1.21376717e+00  1.57800063e-01  2.83966589e+00
 -8.41393661e+00 -4.32094514e-01 -2.92928815e-01  2.33789552e-02
 -1.55967548e-01 -7.28341937e-02 -1.81685582e-01  1.21610618e+00]
[-3.07641435e+00 -2.61306494e-01 -1.05318394e+01 -3.08492064e+00
  9.06547308e-01 -4.69706154e+00  7.79214129e-02  1.36650622e-01
  5.90072237e-02  1.28348005e+00  4.26294692e-02 -9.71981212e-02
 -2.97324568e-01 -3.93313281e-02 -2.93329382e+00 -1.53343350e-01
  1.38173133e-01 -1.50029093e-01  1.15051723e+00 -2.79355794e-01
 -4.72311169e-01  2.03980827e+00 -4.28306684e-02  2.27519423e-02
  2.22415641e-01 -4.36730832e-01 -9.86797154e-01  6.61623031e-02
 -1.92985582e+00 -2.64051221e-02  1.52320296e-01  8.41911882e-02
 -2.90550876e+00 -2.94194371e-03  8.58827829e-02 -8.93883944e-01
 -1.05358422e+00 -1.33924973e+00 -1.01457417e-01 -2.56659722e+00
 -8.16164762e-02 -9.56964493e-02 -1.77184522e-01 -3.39253277e-01
 -5.70573270e-01 -2.45861948e-01 -1.73157692e-01  2.51186043e-02
 -5.91494143e-03 -9.16664004e-01 -1.36781204e+00  6.50187358e-02
 -3.27069163e+00 -1.38303459e-01 -1.00972854e-01  1.24897420e-01
 -6.40867949e-01  2.20508620e-01  1.22806382e+00 -3.00930709e-01
  2.68608737e+00 -1.38256118e-01 -8.89471817e+00  9.09908637e-02
 -4.54420736e-03 -3.87937963e-01 -5.88681325e-02  1.82757705e-01
 -6.49621636e-02 -1.71457738e-01  9.27279592e-02 -4.39419858e-02
 -3.20727944e-01  4.44328189e-02  2.88769674e+00 -1.14264585e-01
  3.92403640e-02 -2.21767426e+00 -1.57509148e-01 -7.13715374e-01
 -2.28836551e-01  2.99168527e-02 -4.24725533e+00  1.04001574e-01
  2.57614940e-01 -4.99235392e-02 -1.70007378e-01 -1.22888184e+00
  1.14827663e-01 -4.12555408e+00 -5.42361319e-01 -1.73871078e+01
 -2.04510167e-01  1.83466196e-01 -2.85383195e-01  4.50673737e-02
 -2.01885748e+00  1.24431409e-01 -9.09381732e-02 -6.23251581e+00]
[ 8.2231527e-03 -2.2893053e-01 -3.0038788e+01 -4.2992015e+00
 -2.2210975e+00  1.0095406e+00 -2.4563126e-01 -4.3628011e-02
  1.9911724e-01 -3.5429313e+00 -9.4519176e-02  1.3363074e-01
 -1.6094040e+00 -2.7837530e-02 -9.8525543e+00  2.5330344e-01
 -1.4487012e-01  1.0066974e-01 -6.7569357e-01 -4.3187934e-01
 -4.7915587e-01  2.9510987e+00 -8.2240641e-02  4.5319971e-02
  1.1607804e-01 -4.6244261e-01  4.0411824e-01 -3.3684224e-02
  1.6588923e-02  1.2561768e-01  5.1907595e-02 -2.0599028e-01
 -1.0207944e+01 -4.9585603e-02 -1.5201116e-01 -1.7407777e+00
 -1.3526597e+01  4.2587888e-01  5.9423581e-02  3.1184626e+00
  2.8094590e-02 -6.5757327e-02  1.1576317e-01 -5.2035987e-01
 -5.9695147e-02 -7.6596372e-02 -1.6070358e-01  1.5675882e-01
  1.9388068e-01  5.2281354e-02 -5.2803421e+00 -6.2168639e-02
 -8.0646420e+00 -1.4432534e+00  6.1065730e-02  7.0409097e-02
  4.1145267e+00  1.2043194e-01  4.5933661e+00 -1.3004696e-01
  8.0411172e-01  7.5622767e-02  9.2169499e-01 -2.0429769e-01
 -2.3026872e-01 -7.9366243e-01 -2.5000110e-01  1.0579111e-01
 -2.3442078e-01 -1.6052517e-01 -2.0609117e-01  2.6237634e-01
 -3.2278888e-02 -5.0520105e-03  3.5250587e+00  1.2981117e-01
 -3.7085865e-02  1.4297020e+00 -9.3563259e-02 -2.0869308e+01
 -8.8786706e-02  3.4415103e-03  3.2799989e-02  9.7521476e-02
  9.1645974e-01 -1.4747345e-01  4.4715270e-02  3.3932018e-01
  1.4329273e-01 -3.2602644e+00 -3.1252179e-01  4.0572133e+00
 -2.0200753e-01 -1.3578662e-02 -7.7340668e-01  1.5613249e-01
  2.1554999e+00 -1.9512136e-01 -3.7236714e-01 -3.3726183e-01]
[ 4.80310535e+00 -4.70866799e-01 -1.16659962e-01  1.38188809e-01
  5.69240212e-01  9.52171385e-01 -1.91912234e-01 -5.82537390e-02
 -1.99856125e-02  1.49503815e+00 -5.52231967e-01 -6.54614806e-01
  3.32006007e-01 -2.61606395e-01  4.42369074e-01 -1.77772069e+00
 -9.28167328e-02 -1.48800626e-01 -1.24622025e-02 -4.02299851e-01
 -1.07387912e+00  1.49414742e+00 -1.19063593e-02 -7.45564476e-02
 -4.32248376e-02 -8.41140866e-01  2.04322386e+00 -8.36822614e-02
  1.35917747e+00 -2.31552690e-01  4.80620228e-02 -5.46885967e-01
 -4.88012969e-01 -1.52370974e-01  1.59870591e-02  8.37765455e-01
  1.61809242e+00  3.36070085e+00 -1.09366620e+00  1.09744918e+00
 -7.56517798e-02 -3.15686911e-01 -1.03315845e-01  1.49612057e+00
 -2.93349892e-01 -1.20486856e-01 -6.17622733e-01  7.76513815e-02
 -1.53764784e-01 -2.36800432e-01  9.58211720e-01 -8.65366589e-03
  4.69804049e+00 -7.20580667e-02 -5.29669106e-01 -3.50257784e-01
 -9.94496250e+00 -3.51031691e-01 -2.39337063e+00 -3.91683906e-01
 -8.17708874e+00 -1.91114068e-01  4.34209853e-01 -1.89618081e-01
 -1.62334442e-01 -2.42957973e+00 -3.35614115e-01 -2.57210076e-01
 -8.86723995e-02 -2.43091822e-01 -3.13565880e-01 -2.06528217e-01
  1.73402369e-01 -9.13536102e-02 -1.62474785e+01 -1.71713740e-01
 -1.14129223e-01  2.18198013e+00 -4.14767563e-01 -7.79444277e-02
 -2.71624684e-01 -3.60596359e-01 -1.09387684e+00 -2.19418645e-01
 -5.40232372e+00 -2.51782000e-01 -1.54526472e-01  9.34586883e-01
 -8.26411247e-02  9.57384109e-01 -3.22860658e-01 -1.22703867e+01
  1.55015671e+00 -2.86520347e-02  1.38399231e+00 -2.11419940e-01
 -5.68839741e+00 -3.38070691e-01 -2.74520546e-01 -5.91704464e+00]
[-0.03629552  0.0218101  -0.08267297  0.19416624  0.18755662 -0.01658073
  0.11870229  0.06043577  0.11655894 -0.00206509 -0.01407319 -0.19715583
 -0.06103329  0.21838942  0.09764603  0.00783767 -0.17342404  0.18897787
  0.03687891 -0.14498442  0.16280723  0.15003783  0.17098245 -0.21156666
 -0.00963365 -0.15803707 -0.0866567  -0.03002527 -0.07693303  0.09058794
 -0.01735285  0.11958456  0.02851653  0.15130675  0.02841386  0.00229721
  0.06887913 -0.16190384  0.12976566 -0.10094657  0.00459784  0.00465067
 -0.19356547 -0.06672697  0.11854848  0.05028394  0.08557361 -0.11117975
 -0.20215538  0.07190809 -0.07701927  0.15988114 -0.06011783  0.17327642
 -0.18097638  0.10885385 -0.02890764  0.15923893 -0.0875684   0.12375036
  0.03162393  0.09030667  0.17473483  0.08794266  0.0587948  -0.13443147
 -0.18220831 -0.16045508 -0.09497589 -0.02757926  0.15560704  0.03954387
  0.21383935 -0.09287566  0.15051883 -0.10608973 -0.12443941 -0.21790795
  0.06241626 -0.03369266 -0.00294709  0.07195932 -0.1495329   0.22204092
  0.12129027 -0.18143332  0.12022376 -0.06123866  0.19155285  0.07571384
  0.01338094  0.02995047 -0.14810558 -0.19286229 -0.02164793 -0.09113364
 -0.02006648  0.07537204  0.1753914  -0.01998475]
[-0.16799308 -0.16942307 -0.1488012  -0.16055292 -0.1833793  -0.2189629
 -0.1568609  -0.09719229 -0.15805131 -0.19840465  0.18064484  0.03242677
  0.17253262 -0.07371128  0.02873543  0.06993908  0.06628245  0.04994029
  0.08016288 -0.08082592  0.07632986 -0.06557703  0.14049917  0.10846436
 -0.08445737  0.11134684  0.22136065  0.04918337 -0.01789914  0.09532866
  0.10693505  0.05110884  0.2065534   0.09243646  0.03012103 -0.213177
  0.10183033  0.21117583 -0.08962315 -0.078787    0.02023777 -0.04062088
 -0.03405327  0.04167193 -0.03942685 -0.20023043 -0.2178226  -0.14225298
  0.08980063  0.0052797  -0.02598678  0.21717322 -0.13741449 -0.13512181
  0.16061258 -0.0048186  -0.00641082  0.08380738  0.01770273  0.06778291
 -0.20287018  0.16754416  0.17654338 -0.20203617  0.14751008 -0.02472228
  0.20226905 -0.01167272 -0.02287538  0.16316453  0.20472884  0.03580424
  0.185833    0.1490075   0.11943841  0.03588149 -0.08321355  0.12746829
 -0.05752313  0.09701076  0.05340093  0.10134181  0.12769583  0.11053324
  0.02604052 -0.1056755   0.12266812  0.13860837 -0.16600472  0.09577593
 -0.14757074 -0.17224196 -0.21443367  0.17259449 -0.16368233  0.17474872
 -0.10136997  0.01517239 -0.00864027  0.12461177]
[-1.15584440e+01 -1.59048021e-01 -1.59971085e+01 -1.77468872e+00
  2.48504853e+00  3.69022584e+00 -7.50537142e-02 -1.14219345e-01
 -2.60617733e-02 -2.22565603e+00 -1.66784018e-01  2.26876646e-01
  1.49713933e-01  1.33019701e-01 -1.83674870e+01  5.08181974e-02
 -1.47308588e-01  2.37570435e-01 -6.08528090e+00 -5.01041710e-01
 -4.08640176e-01 -1.35873818e+00  2.72097826e-01 -1.18007630e-01
  1.11939251e-01  7.03484491e-02 -9.03842509e-01  1.87835500e-01
  9.63022232e-01 -6.55580312e-02  3.59245129e-02 -1.89027101e-01
 -4.45309830e+00 -6.60486426e-03 -1.46517351e-01  3.42669487e-01
  4.02171898e+00  2.52936316e+00 -1.65897623e-01 -4.42718357e-01
 -1.25618041e-01 -2.05810159e-01 -3.47767249e-02 -1.14889681e+00
  5.26994085e+00 -2.97514200e-01  4.90758307e-02 -2.08653226e-01
 -2.52289414e-01 -2.53806055e-01  7.69401741e+00 -2.17620015e-01
 -1.19802322e+01  1.45569574e-02 -2.32341059e-04 -1.72964096e-01
  1.67101920e+00 -1.61267355e-01  1.96945965e+00 -2.81494945e-01
  3.38774276e+00  3.78714278e-02 -1.43120635e+00  2.09371135e-01
 -2.16029197e-01 -1.63049436e+00  2.19027236e-01  3.60966893e-03
 -2.18718961e-01  1.63493142e-03  4.21605818e-02 -9.49404240e-02
 -4.47908700e-01  1.18730150e-01  9.24098492e+00  1.76149756e-01
  1.42937973e-01  1.96924174e+00 -1.39007680e-02  2.79905224e+00
  5.62706590e-03 -1.40263155e-01 -1.16939843e+00 -1.30992740e-01
  6.04902124e+00 -2.26676568e-01  9.44976658e-02 -1.40857482e+00
 -1.66182145e-01 -8.26359940e+00 -1.67167202e-01  5.97941971e+00
  3.46026442e-04  1.83317393e-01 -7.64667511e-01  2.18468904e-03
 -2.34624028e-01  1.88266546e-01  1.01687439e-01 -1.59441495e+00]
[-9.30355728e-01 -5.46488054e-02  3.14223826e-01 -2.03217473e-02
 -1.90121210e+00 -1.30503531e+01 -1.92822635e-01 -8.80324841e-02
  1.36222579e-02  2.73007095e-01 -8.50158408e-02 -7.76747167e-02
 -1.37906551e-01  3.33459750e-02 -6.94554225e-02  2.51537234e-01
  1.64596841e-01  2.99209123e-03  8.96549582e-01  1.04999699e-01
  1.84109375e-01 -1.47145271e+01 -6.74833059e-02 -1.70753986e-01
  1.21405885e-01  1.26763895e-01  9.45918337e-02  2.02533320e-01
 -1.75122559e+00  2.20567107e-01  1.36534572e-01  1.60481960e-01
 -2.01272488e+00 -1.48844987e-01  8.34360719e-02 -2.99130821e+00
 -4.20462620e-03 -1.42977934e+01 -4.54120822e-02 -2.92917341e-01
 -1.88107923e-01  2.10511833e-02  1.47905976e-01 -2.48498688e+01
 -1.89323580e+00  8.06117803e-02  1.76183820e-01 -2.32395977e-01
 -2.17465073e-01 -6.18982673e-01 -1.42869053e+01 -1.66605607e-01
 -2.24723768e+00 -1.48598462e-01  1.90191835e-01  1.86939165e-01
  8.84956658e-01  1.11805707e-01  1.40000439e+00 -3.46838236e-02
  5.83122611e-01  1.51049241e-01 -2.84793854e+00 -1.20340742e-01
  1.28874838e-01  4.09926772e-01  1.32163301e-01  8.90680179e-02
  8.08261558e-02  7.15679079e-02 -3.17117162e-02  9.32010114e-02
  1.78845501e+00  7.80662149e-02  5.05139709e-01  2.45530494e-02
 -1.86426118e-01 -3.19584087e-02  1.03267238e-01  1.02552688e+00
  1.46267965e-01  1.25602022e-01  2.17665002e-01 -1.60465762e-01
 -5.88049173e-01  1.85419209e-02  1.60798341e-01 -2.04635525e+00
 -6.93121925e-02  3.63021046e-01  2.10789740e-02  8.23807478e-01
 -1.70704985e+00 -5.93551733e-02  1.35598469e+00 -3.53853926e-02
 -1.57054842e-01  8.03874806e-03  1.96022451e-01  5.90156689e-02]
[ 8.19667697e-01 -3.56578715e-02 -1.34854479e+01 -6.92714393e-01
 -1.76221982e-01  1.98001429e-01  1.87143147e-01 -1.16333425e-01
  7.45999962e-02 -2.83511758e-01  8.85519385e-02  1.31061375e-01
 -1.13863908e-01 -2.83464104e-01 -8.00886095e-01 -4.18406427e-02
 -1.38211563e-01 -5.46709960e-03 -6.55580759e-01 -3.73733461e-01
 -5.00173151e-01 -5.18417239e-01 -2.38311775e-02 -2.29304895e-01
 -4.03260812e-02 -3.69271845e-01  5.43248914e-02 -7.04100654e-02
 -1.42845571e-01 -1.53007179e-01 -1.51246697e-01  8.62586051e-02
 -8.29590037e-02  1.80831552e-01 -5.46503067e-02 -9.98885214e-01
 -1.59368048e+01  4.14100707e-01  9.26962420e-02 -3.84420715e-02
 -1.16613418e-01  4.85380068e-02 -9.32161361e-02 -5.20279884e-01
 -4.02906477e-01 -1.08901262e-01  1.31638646e-02 -2.24412546e-01
 -2.71000206e-01 -3.83707672e-01 -1.83640152e-01  9.29840580e-02
 -7.99885333e-01 -7.22198412e-02 -1.35180786e-01  1.09514669e-01
  6.99550688e-01 -2.06790745e-01 -4.26513529e+00 -1.93145886e-01
  1.68524933e+00 -3.28927897e-02 -3.15835547e+00  6.00207318e-03
 -2.59267271e-01  6.27965391e-01  6.33924454e-02 -1.22968636e-01
  3.28950584e-02 -9.64855328e-02  1.86122656e-01 -7.79404417e-02
  7.05012739e-01 -1.51513629e-02  7.94469535e-01 -7.93953836e-02
 -1.15205884e-01 -2.28023663e-01  2.84238141e-02 -3.72881985e+00
  1.23520210e-01  6.66014180e-02  4.59331393e-01  1.79945882e-02
  3.49106610e-01 -2.60843337e-01 -2.30552912e-01 -8.49542916e-01
 -1.73837572e-01 -6.04011893e-01 -8.11460391e-02 -2.96471334e+00
 -1.53131783e-01  1.36383459e-01  7.40021229e-01 -2.07662042e-02
  2.92582363e-01 -8.27699378e-02 -9.89754423e-02  3.70711654e-01]
[-1.40206945e+00  2.56876294e-02  1.94890285e+00 -1.33972645e-01
 -7.94731331e+00 -1.41382948e-01  1.10402256e-02 -1.53023869e-01
  9.19472277e-02  3.70591998e-01  3.33899945e-01 -7.05239028e-02
 -4.30396110e-01  8.78668055e-02  3.29726785e-02 -1.90982878e-01
  1.58531472e-01  1.82641089e-01  9.97549891e-02 -3.50243568e-01
  7.33661115e-01 -4.12023425e-01  1.50944591e-01  1.77035511e-01
  3.78254056e-03  4.89134848e-01  1.29290715e-01 -1.69323593e-01
 -2.60719776e-01 -1.78222388e-01  1.14377141e-02 -2.85815299e-02
 -4.29597259e-01  7.19734728e-02  9.14084837e-02 -2.29112789e-01
 -3.88690233e-01  9.65333998e-01 -9.47797000e-02  2.40830630e-01
 -2.02435851e-01  1.13645703e-01 -2.59146541e-02  3.13206583e-01
 -1.02307999e+00 -2.21865147e-01  2.28720307e-02  8.47951602e-03
  2.07987964e-01  1.10360980e-03 -2.50010807e-02 -5.57371974e-03
 -1.36428624e-01 -4.97934185e-02  4.54496741e-02  1.66045547e-01
  7.85163939e-02 -1.77354217e-02  1.47818580e-01  2.85371155e-01
 -1.60823375e-01  8.85544717e-03  5.52556276e-01 -2.21117437e-02
 -1.93885833e-01 -1.41803932e+00  1.95361704e-01 -3.18747759e-02
  1.99773200e-02 -1.86720237e-01 -6.97651599e-03  1.79062843e-01
  2.52151072e-01  6.58129454e-02  2.19583005e-01  1.27637535e-02
 -1.74545884e-01  1.65165758e+00 -2.54767984e-02 -7.02852726e-01
  3.31504643e-03 -7.12892786e-02 -9.56524074e-01 -3.57502848e-02
 -6.59027174e-02  7.08149970e-02  4.42812406e-02  9.84076381e-01
  9.69427526e-02 -1.90378177e+00  1.33136436e-01 -1.50096881e+00
  1.42136884e+00  2.12426126e-01  7.89643079e-02 -1.67198434e-01
  3.38282847e+00 -4.57736999e-02  1.70781106e-01 -9.19353664e-01]
[ 0.19628891 -0.03461698 -0.21352977  0.16694552  0.05003983 -0.0258141
 -0.15394084 -0.10787542  0.10632005  0.05106598  0.02785298  0.15546796
 -0.1760013  -0.10789152  0.10249117 -0.18261178 -0.00306368 -0.01043381
 -0.03333163 -0.18479687 -0.1553163   0.20446342 -0.02542321  0.08787307
  0.11967951  0.20662484 -0.13655585  0.21896997 -0.11839335 -0.190023
 -0.17975004  0.20760328 -0.13552698  0.03293237 -0.2160503   0.01990318
 -0.05376256  0.0628289   0.05411851  0.03303468  0.08542407 -0.14922556
  0.1415121  -0.05227265 -0.07887118 -0.20389852 -0.09900563 -0.11725007
 -0.00564484 -0.17493623  0.09744892 -0.16735968  0.00534421  0.0272862
  0.06202468 -0.19571981 -0.05955859  0.17145655  0.17877156  0.19276738
  0.10837346 -0.14576523  0.05741027  0.06339583  0.17831323 -0.17919655
 -0.1889359  -0.03964213  0.08112723 -0.19866636 -0.01871763 -0.1842726
  0.11334187  0.02634366  0.14635417 -0.06156749 -0.11980174  0.02256767
 -0.2076762  -0.10797191 -0.01945654 -0.16151723 -0.19886555 -0.16233082
 -0.01693125 -0.02376591 -0.11648355  0.20901257 -0.05341011 -0.12230086
  0.12926346 -0.19665635  0.00973478 -0.19275844  0.21563068  0.09767118
 -0.0873784  -0.0517174  -0.15099749  0.03042996]
[ 1.0329182  -0.37632906  0.22329418 -0.07527503 -1.4415702  -1.2483758
 -0.05915759 -0.01227027 -0.15852967 -0.43565956 -0.1771266  -0.28864065
 -0.17630021 -0.3211959  -0.07931991 -0.34363085 -0.3135505  -0.19914505
 -1.8136905  -0.5521405  -0.78789616  0.48928386 -0.13406758 -0.33081195
 -0.25578466 -0.7239163   0.18012671 -0.25944573 -1.0398089  -0.16201963
 -0.03884709 -0.45943516  1.4254191  -0.2704534  -0.07241535 -0.42676875
  1.2345701  -1.3047193  -0.6310289  -1.1693705   0.         -0.4048378
 -0.04252186  1.9179726  -1.1503026  -0.42826143 -0.5017652  -0.25711146
 -0.11580572 -0.06677514 -0.1775401  -0.02156458 -0.3220793  -0.12081219
 -0.37634498 -0.37086153 -3.1916504  -0.37672648 -2.2135074  -0.55626976
 -3.9684906  -0.21778385 -1.2701663  -0.27233383 -0.11101449 -0.43341333
 -0.2954969  -0.21834351 -0.33798805 -0.36479685 -0.2670416  -0.16492872
 -0.23372956 -0.19629093 -2.4122293  -0.19514944 -0.03301064 -2.1104414
 -0.44806027 -1.8674759  -0.33035317 -0.4135881  -0.7772258  -0.08792381
 -2.7814374  -0.37507448 -0.08415128 -0.04281791 -0.2671912  -0.9655859
 -0.43405533 -1.5135865   0.350442   -0.2543235  -0.10070667 -0.20682491
 -1.3395604  -0.3274328  -0.4255334  -0.0750789 ]
layer 5 Activation
relu
layer 6 Dense
100 10
[-3.9653998e-02 -1.8236546e-02  9.2891008e-03 -2.7994854e-02
  1.4955425e-01  3.4527944e-03  4.3359503e-02 -3.2964505e-02
 -1.8568804e-02  1.0141508e-04]
[ 0.00093727 -0.18243876 -0.02292749  0.06192922 -0.02809195  0.2589344
  0.08465537  0.03531101 -0.05007553  0.02701351]
[ 0.0219957   0.03832137 -0.01795357 -0.0083354   0.05317893  0.00067451
 -0.02676125 -0.01619062 -0.01067136  0.00028368]
[ 0.31283018 -0.18520339  0.21294542 -0.3888996   0.1875559  -0.05568242
 -0.5491927   0.14936535  0.62818485  0.03074307]
[ 0.17196289 -0.11716228 -0.1842373  -0.11501154 -0.6940153  -0.04775806
 -0.07521769 -0.15407394 -0.04607863  0.10819026]
[ 0.10068496 -0.03229947 -0.0033555  -0.1208986   1.0324566  -0.00135643
 -0.16525088 -0.21775918  0.02380653 -0.00728217]
[ 0.01466034 -0.14369321  0.18053955  0.08683779  0.0486127  -0.21441327
 -0.1385935   0.17526974  0.14551081 -0.00131727]
[ 0.16701908  0.02959945 -0.19479486  0.04971946 -0.03969001  0.23097475
 -0.18917915 -0.22239378 -0.1928884  -0.18365006]
[ 0.25063792  0.12607388  0.19213739  0.1276255  -0.18647909 -0.07568461
 -0.01159963 -0.00978091  0.2014896   0.24114057]
[ 0.03325729 -0.03218627  0.14251524 -0.06575304 -0.2601691   0.0227764
  0.07295371 -0.12755801  0.00368281 -0.01664646]
[-0.0124201   0.00601253 -0.04001436  0.07799288 -0.8980836  -0.26996982
 -0.13228548 -0.01792519 -0.04771734  0.13140008]
[-0.04538585 -0.02007542 -0.28126937  0.07957912 -0.20309345  0.03600484
  0.14301613  0.12198015  0.11363623 -0.15698908]
[ 0.16265827 -0.13932881  0.05913852 -0.03234066 -1.7660478  -1.1750207
 -0.05224474  0.18663412 -0.1508734  -1.1438639 ]
[ 0.09297777 -0.14563614  0.14262232 -0.10129742 -0.02220649  0.16956556
 -0.1156033  -0.00769196 -0.03690676  0.02846713]
[-0.02379086  0.01086627  0.02764973  0.00690952  0.0946258  -0.02142912
 -0.0554157  -0.0478446   0.02485862 -0.06430114]
[ 0.1314536  -0.15233178  0.15816693  0.18095866 -0.02355974 -0.18249471
  0.08643106  0.1502018   0.27565518  0.05594734]
[ 0.276474    0.11037295  0.02666435 -0.25581953  0.00133375  0.22214831
 -0.24072048  0.12002087  0.18344632 -0.09153084]
[ 0.06606662  0.13163385  0.19818646 -0.00122908 -0.18206257  0.16438656
 -0.14064099 -0.06150234 -0.06411064  0.05110692]
[ 0.15248936  0.2198082   0.13398066 -0.00361922 -0.25675067 -0.0820006
  0.08303682 -0.27429503  0.05986413 -0.02891695]
[ 0.27042532  0.10802466 -0.21942315  0.1604528  -0.02313498  0.17310186
  0.15744816 -0.06972393  0.09701025  0.24091628]
[ 0.1608579   0.13530491 -0.09740694 -0.12078373 -0.00062103 -0.03013484
  0.11074698  0.02032388 -0.19232737  0.04138109]
[ 0.05154832 -0.04234363  0.10022145 -0.02068552  0.46296844 -0.12275104
  0.01789416 -0.1469056  -0.05381041 -0.01387571]
[-0.20164372  0.09862416 -0.10145847 -0.21368833 -0.00514473  0.07177141
  0.04918199 -0.00308608 -0.1638547   0.10703948]
[ 0.0801045  -0.10811236  0.0019145  -0.09831091  0.0834583  -0.10224207
 -0.23724587  0.06873298 -0.12111305 -0.25503424]
[-0.1601928  -0.13295762  0.15599495  0.17287718  0.16671848 -0.22579281
  0.18123071  0.19810967 -0.07734081 -0.0167917 ]
[ 0.17801702 -0.02242091  0.00350595 -0.05095125  0.02625928  0.09509319
 -0.01104145 -0.02980885  0.02525082  0.20556119]
[ 0.09058459 -0.01639922  0.06168743 -0.07257036  1.4222115  -0.0212552
  0.05811267  0.02765054  0.01550806  0.06276522]
[-0.01498653  0.12570432  0.02935095 -0.0919607  -0.00058968 -0.06692845
 -0.00899598 -0.1651622  -0.04486136 -0.04925914]
[ 0.19956617 -0.13920765 -0.07448819 -0.03937818  0.8020043   0.07026086
 -0.12624308 -0.21042202 -0.0696035   0.0054287 ]
[ 0.00050075  0.0914533  -0.19206063 -0.22820483  0.13267428 -0.14287113
  0.21569602  0.15988424  0.01928812  0.05135856]
[ 0.1341081   0.01475919  0.09616597 -0.13730879  0.10203045 -0.06926472
 -0.08017064 -0.12594144  0.19427858 -0.16634092]
[-0.15390274 -0.10526188 -0.01872233 -0.16058503 -0.00734913  0.23012999
 -0.27507177 -0.02204852 -0.1612693  -0.0405131 ]
[ 0.00280041  0.01571382 -0.03912699  0.04054657 -0.33242676  0.03974211
 -0.02189375  0.05679909  0.04132124  0.01780106]
[-0.07095207 -0.1804546   0.13790825 -0.06758797 -0.1085093   0.10418156
  0.02531817 -0.04396179  0.2907581  -0.03924375]
[ 0.06880569  0.00036693  0.06471473  0.16915141 -0.02515642  0.30134684
  0.15455417 -0.12025037 -0.0180509  -0.03139593]
[ 0.02615146 -0.7154013   0.13521776 -0.08246843  2.7991927   0.5271799
 -0.03771345 -0.25330025  0.09707668  1.8930178 ]
[ 0.05188421  0.06527367  0.03044721 -0.02596221  0.13481466 -0.01244957
 -0.05386637  0.05592951  0.03624692  0.00422309]
[-0.25211045 -0.12936701 -0.05238307 -0.09551816  0.2768396   0.08306041
 -0.04617789  0.13454366 -0.1670503   0.06598753]
[-0.24425848  0.10052206 -0.05235166 -0.02715101  0.00174181  0.15066762
 -0.05799823 -0.19148418  0.14213446 -0.15010986]
[ 0.26720598  0.09033941  0.07202493  0.10755596 -1.9458106  -0.02798956
  0.03709598 -0.03047321 -0.15500888  0.03584781]
[ 0.05870131  0.00575869 -0.03893009  0.03482494 -0.21602426 -0.21783373
 -0.01275833 -0.09561129  0.09033403 -0.1981197 ]
[-0.1318918   0.27264884  0.1298332  -0.00927808  0.00030026 -0.12314768
  0.03575259  0.07066107 -0.1184537  -0.2339368 ]
[ 0.05061669  0.04277558 -0.11387462  0.23162562  0.07107353  0.17130248
  0.01576019 -0.10637448 -0.14529319 -0.23350674]
[-0.07706924 -0.06021003 -0.0184401  -0.03934418  1.313351    0.01556106
  0.02483048  0.01097714 -0.02706296  0.01976015]
[-0.11332713  0.02923551  0.02118798  0.06723393  0.2581414  -0.04416305
 -0.01566994  0.13545167  0.0307438  -0.02738272]
[ 1.19994961e-01  4.95213158e-02  2.62838870e-01  2.02876747e-01
 -2.51384452e-04 -5.81718050e-02  1.91052270e-03  1.14810534e-01
  1.28608197e-01  3.71105336e-02]
[ 0.13690919 -0.15902674 -0.15571716  0.05529343  0.0017442   0.03415892
  0.07020141  0.20746793 -0.31723234 -0.00961258]
[ 0.04274904  0.08892127  0.19804165 -0.17152399 -0.00302772 -0.12743215
 -0.12334199  0.10004856 -0.11389142  0.02630753]
[ 0.15540463  0.02382361 -0.2184836   0.06393013  0.3219011  -0.0493407
  0.02961818 -0.0408953  -0.18437195  0.20752968]
[-1.0084882   0.8534901  -0.8338231   1.0619142  -0.91996455 -1.1054966
  0.8691293   1.0525589  -0.80534756 -0.7564304 ]
[ 0.18474331  0.08379108  0.07942448  0.00633472  0.26243886  0.01013225
  0.01784485 -0.11233403 -0.0954101  -0.07009867]
[-0.04820601  0.0250012  -0.12438914 -0.0529415   0.16659816  0.07675432
  0.02929144 -0.11229145 -0.02566363  0.13231556]
[-0.07877272 -0.01178648 -0.1020667   0.12400105  0.30345228 -0.02359983
  0.02356329  0.09136787  0.08647951 -0.0032018 ]
[-0.17282581  0.25730005 -0.03825055 -0.22207527 -0.66539305 -0.27352652
 -0.13153224  0.39395657 -0.07005299 -0.48910052]
[-0.09553654  0.12156505 -0.20719871  0.15500174  0.0620988   0.22181846
 -0.05832748  0.24169008 -0.04741131 -0.27081996]
[ 0.20810468  0.0571178   0.05115414  0.12457429 -0.03298052  0.13495633
 -0.08334535  0.21487486  0.01449296  0.10589117]
[ 0.00566142  0.04181963  0.02081957  0.01236549 -0.09890298 -0.03653729
 -0.00586244 -0.02025955  0.03279112  0.0279151 ]
[-0.09275118 -0.01592034 -0.1338656  -0.01636475 -0.0391757   0.13520876
 -0.21484768  0.15188572 -0.0259147  -0.00324502]
[ 0.01190753 -0.00903615  0.00625857 -0.00800073 -0.13063231 -0.00290865
  0.01276436 -0.04705097  0.04596033 -0.02231944]
[ 0.21901412 -0.399347    0.22446048  0.0293007   0.00095454  0.07146288
  0.02162242  0.03003204 -0.03762522 -0.05808561]
[-0.06416348 -0.07482753  0.07218394 -0.08691579 -0.14177188 -0.00019897
 -0.07257083  0.03099959  0.03594479 -0.0345546 ]
[ 0.24500987 -0.11979294 -0.04089479 -0.14050472 -0.11298497  0.05252748
  0.15847272 -0.04061329  0.06463545  0.01209217]
[ 0.06506827  0.01483788  0.01048212  0.04035557 -0.14174823  0.07014909
  0.01853879  0.00404184 -0.07077889  0.04408091]
[ 0.11497491  0.10109341 -0.03990205 -0.27350459  0.03793826 -0.15419546
 -0.1767807   0.00363948  0.08888983 -0.20503458]
[ 0.00500093 -0.07984125  0.00166968  0.10718703  0.04003066  0.06421944
  0.05953922 -0.01551793 -0.19331236  0.00632849]
[ 0.09442381  0.06327584  0.06350378  0.05244801  0.4561395  -0.05780227
 -0.02142832  0.05066342  0.11835842 -0.09299479]
[ 0.03450819  0.07128347 -0.09183125  0.15237439 -0.00106062  0.20307551
  0.10934292  0.16619359  0.00562522 -0.00768019]
[ 0.09504896 -0.08076423  0.12025186  0.09904418 -0.10658868 -0.03810943
 -0.18149103  0.0837214   0.04657278  0.10803388]
[-0.00225499  0.06733067 -0.07339724 -0.07093888  0.00262359 -0.1516857
  0.12351847 -0.08509038  0.13466251 -0.2560437 ]
[ 0.2109869  -0.03016625  0.00406841  0.17699052  0.00088381  0.27135915
 -0.00241085  0.09659541 -0.12534286 -0.09405048]
[ 0.23875907  0.01907982  0.14496668  0.09962808  0.00494852  0.22677489
  0.08316049  0.15831296  0.21750425 -0.05573391]
[-0.06923002  0.00317533  0.02011345 -0.15871571 -0.18170677 -0.0676815
 -0.02408864  0.21723995 -0.03938276 -0.16136634]
[ 0.0378613   0.05198823  0.04013757 -0.00271767 -0.8831466  -0.01355027
  0.01225944 -0.07608443  0.0568663  -0.02537304]
[ 0.03914562 -0.15170081 -0.12712967 -0.22839619  0.08138798 -0.11830724
 -0.22957966  0.11399344  0.22909623 -0.1648852 ]
[-0.000815    0.00186175 -0.0622662   0.0526371  -0.10670361  0.03470874
  0.00633122  0.07863346 -0.06007303 -0.00517541]
[-0.21515338 -0.20751922  0.0844305  -0.2102419  -0.16666451 -0.13963453
  0.13264647 -0.12601009  0.10502746  0.11165723]
[ 0.03365754  0.19656081  0.1064692   0.02986339  0.0771173  -0.08685941
 -0.0638631  -0.15601343  0.2061649   0.02982652]
[ 0.0436305  -0.00593473  0.15538141 -0.02612706  0.71974194  0.05830102
  0.02656104 -0.09203576  0.22491658 -0.08303227]
[ 0.20678762  0.1612405  -0.19878417 -0.02672786 -0.10732409  0.04940664
 -0.17847212 -0.14828609  0.06601574  0.12407583]
[ 0.03838954  0.03831601  0.05152731 -0.08624263 -0.08934024 -0.0149389
  0.02794322 -0.12540036  0.0226883  -0.02405063]
[ 0.0749981  -0.00854475  0.2530362  -0.16841808 -0.02558498 -0.00645764
  0.08329438 -0.04051404 -0.15281732  0.05703503]
[-0.16826178 -0.2924865   0.06712263 -0.06272276 -0.00165366  0.089533
  0.05668784 -0.11446091 -0.12321138 -0.17697741]
[ 0.0706935   0.02309793 -0.05675509  0.02064085  0.6979221   0.05733815
 -0.04426031 -0.09128308 -0.10311357  0.1318197 ]
[ 0.1362466  -0.02557865  0.08234947 -0.10729385 -0.00328353 -0.13553075
  0.01292114 -0.18019876  0.047422   -0.1506534 ]
[-0.05981658  0.05770959 -0.02898601  0.12542892 -0.58876604  0.03120184
  0.13471167  0.16373245 -0.02601845  0.102263  ]
[ 0.1543137  -0.08763973 -0.04558979 -0.1881917   0.06129067 -0.21135163
 -0.1803289  -0.01013509  0.11698795 -0.18576373]
[-0.07456488  0.24183783 -0.10698269  0.05118078  0.08127621  0.08971938
  0.19918355 -0.0877362   0.08646971 -0.09473232]
[-0.05291588 -0.03460827  0.02154422 -0.04007009 -0.16527207 -0.00099711
 -0.01656052 -0.00191271  0.02594973 -0.01189249]
[-0.10169903  0.00972259  0.15441419 -0.09274639  0.02516371  0.16591609
  0.08735935  0.02432974  0.2928067  -0.10717066]
[ 0.01420024 -0.13641612  0.00145451 -0.1045142  -0.4298324   0.01648166
  0.04320377 -0.276058   -0.13668643 -0.00566385]
[ 0.27681854 -0.11137336  0.08186546 -0.11283275  0.00076959  0.31987524
 -0.16991752 -0.38272896 -0.1995261   0.08232792]
[-0.01911177 -0.04546897 -0.0091881  -0.01791604 -0.08738121  0.04690262
 -0.0196943  -0.00758162  0.0209782   0.08558757]
[-0.12950191  0.07072169 -0.00102336  0.04554729 -0.30787438  0.00187057
 -0.04597275  0.04015281 -0.10772667 -0.04173607]
[ 0.0869908   0.10410861 -0.17063542 -0.18612044 -0.10749478  0.20567624
 -0.00669804 -0.24039103 -0.12390476 -0.08627699]
[-0.05116335 -0.06994907 -0.04892049 -0.00463222 -0.74462366  0.02045974
 -0.01539949  0.0823221  -0.06771066  0.0261119 ]
[ 0.11582642  0.01339824  0.04843709  0.17951243 -0.12702279  0.1292191
  0.00084511  0.05972844  0.13952415  0.13077895]
[-0.00140895  0.02861588  0.01629281  0.08560451  0.21748742  0.06128931
  0.05019333  0.12203629 -0.01506788  0.21838133]
[ 0.00932299  0.20165354 -0.21706705  0.10655782 -0.00185337 -0.08244608
  0.02556747 -0.00955301  0.20892522 -0.23593353]
[-2.1082121e-01  1.5718298e-01  2.0949484e-01  2.7140677e-01
  1.0853197e-04 -9.7134337e-02 -6.7234069e-02 -1.2661809e-01
  2.2793381e-01 -3.0754754e-01]
[-0.05363489 -0.04607543 -0.02515039 -0.06100842  0.38578883  0.02945619
  0.02422711 -0.03054088 -0.04615204  0.01369774]
[ 0.07595645  0.07540376  0.01005504  0.06408744  0.12995368 -0.03487318
 -0.00084049  0.01455238  0.02381921  0.0125731 ]
layer 7 Dense
10 1
[-0.00093807]
[-0.00024383]
[-0.0008143]
[-0.00046444]
[0.54394865]
[1.298359e-05]
[0.0007418]
[0.00113439]
[-0.00066284]
[0.00090334]
[-2.7136066]
