layers 8
layer 0 Dense
6 6
[-0.04588401  0.6413217  -0.42693767 -0.07420972  0.983081   -0.09851622]
[-0.05070058  0.42565534  0.00567472 -2.044635   -0.9302314   2.408334  ]
[-0.6390408  -0.18676728  0.00221471 -0.02913718  1.1847793  -0.09853558]
[-0.02350642 -0.968605   -0.09030665 -1.9566637  -0.13787319  2.4389658 ]
[ 0.06001782  0.05827986  0.10054874  0.15685277  0.3237464  -0.18799216]
[-1.5113689e-02 -1.7655050e-02 -6.7634280e-03 -1.8094984e-01
 -3.4144003e+00  1.0771680e+01]
[ 0.70046073  1.0565404   0.472294    4.03409     4.006346   -0.83901703]
layer 1 Activation
relu
layer 2 Dense
6 30
[-8.82372952e+00 -4.06485908e-02  1.27476847e+00  1.24138705e-01
  7.71022701e+00 -4.37413156e-02  2.09734058e+00  2.85864025e-01
 -4.42560017e-02 -5.76050639e-01 -1.34786934e-01  1.31214976e+00
 -6.10518396e-01  4.52612877e+00  7.35795125e-03 -3.73825699e-01
 -8.76362562e-01 -7.10362911e-01 -2.56688833e-01 -1.94775248e+00
 -2.95010686e+00 -2.73808813e+00  1.62800103e-01  4.36539426e-02
  8.70286465e-01  3.10285598e-01 -2.98635769e+00  9.16685677e+00
 -3.33537316e+00  7.52654934e+00]
[-4.0084224e+00  1.2516133e-01  3.0975223e-01 -4.5177363e-02
  5.4851832e+00 -2.8113469e-01  2.1379955e+00  1.2614509e-01
 -3.0092084e-01 -1.5105574e-01 -1.7824665e-01 -6.7151219e-02
  8.1174716e-02  9.9677458e+00 -3.5947936e-03  3.5930669e-01
 -7.5783210e+00 -2.0949037e-01  6.3395306e-02  6.9340721e-02
 -6.3659149e-01  1.2272376e+00 -1.6218953e-01 -1.8887348e-02
 -1.3973955e+01  1.2464268e-01 -5.7652801e-01 -2.7938769e+00
 -2.4557640e-01 -1.2026932e+00]
[-2.36688805e+01  2.28820369e-01  2.03319383e+00  3.33652981e-02
 -7.73379683e-01 -2.28458822e-01  1.86453626e-01 -3.84367891e-02
 -1.35945022e-01 -9.53191757e-01 -3.18138897e-02  1.85485959e+00
 -2.64095783e-01  1.44660485e+00  9.07308608e-03 -2.24520713e-01
  4.30383539e+00 -1.23707676e+00 -3.27491611e-01  6.36990547e+00
 -4.49254513e+00  7.93709803e+00  1.03202194e-01  4.28349823e-02
  1.36907017e+00  6.62635565e-01 -4.55230522e+00 -3.49061728e+00
  4.58922625e-01 -2.26457405e+00]
[-8.8313133e+01 -3.5578841e-01 -1.7909138e-01 -2.4010809e-01
  1.6170423e+00 -1.4361435e-01  5.4362732e-01 -4.3346253e-01
 -2.0550980e-01  4.0601451e-02 -3.2338601e-01 -4.0177131e+00
  7.3694639e-02  2.6432369e+00  1.1191342e-02 -4.3717787e-01
  3.3371973e+00  9.8934603e-01  1.2282267e+00 -1.2181219e+00
 -4.5276383e-01 -2.3592250e+00 -2.7105911e+00 -1.8931326e-02
  6.5650845e+00 -1.5254209e+00  2.2408442e-01 -1.9817666e+00
 -1.8684806e-01 -1.0886189e+00]
[-2.9292330e+01 -3.7197620e+01  7.5108951e-01 -2.0428606e+01
 -3.5407765e+00 -3.4974542e-01 -1.2147368e+00 -5.5417931e-01
 -3.8490498e-01 -3.5033229e-01 -1.8450572e-01  5.3265852e-01
 -3.2069027e+00 -5.6470323e+00  1.4978079e-02 -3.8667936e+00
 -1.6178434e+00 -5.3181851e-01 -6.5615520e-02 -1.1120924e+00
 -1.5486460e+00 -1.4019336e+00 -2.4642291e-02  1.1188485e-02
 -1.5823377e+00  3.5925692e-01 -1.5514456e+00  6.4518130e-01
 -8.3203602e-01  7.0265539e-02]
[ 1.1211135  -0.04228757  0.23711732 -0.21513124 -0.95940864 -0.19071572
 -0.37333062 -0.3315097  -0.24481687 -0.22782832 -0.15736842 -0.7928646
  0.0224479  -1.5926592   0.01771972 -0.15851502 -0.38222793 -1.7522602
  0.3494418  -0.67071575  1.5470856  -1.0546075   0.06915405 -0.05537871
 -0.3079259   2.5638409   1.5967628  -0.5120456  -0.16895081 -0.367626  ]
[ 1.0672053e+00  1.6378690e-01 -4.3941984e+00  4.1501421e-01
 -8.0052799e-01  0.0000000e+00 -5.9686895e-02 -8.5317772e-03
  0.0000000e+00  3.3400161e+00  0.0000000e+00  7.6490798e+00
 -7.8134641e-02  1.1619816e+00 -2.8214478e-01  6.8518236e-02
  2.1880162e+00  6.3527865e+00 -2.6241686e+00  6.4411764e+00
 -5.9919496e+00  9.2225180e+00  3.1154151e+00 -1.2614025e-01
 -1.6419851e+00 -6.5055904e+00 -1.3380959e+01  8.4759778e-01
 -1.7516024e-01  1.6861294e-01]
layer 3 Activation
relu
layer 4 Dense
30 150
[-4.46016379e-02  3.48729521e-01  1.80326268e-01 -3.29499066e-01
  1.78216666e-01 -2.04226419e-01  1.04636502e+00 -5.86088672e-02
 -2.62594402e-01 -1.79994538e-01  1.31036669e-01 -1.29645362e-01
  2.35505655e-01  4.16921126e-03  4.62827086e-01  5.18117547e-01
  9.20018733e-01  1.15711138e-01  1.70354044e+00 -4.37338531e-01
 -1.47190869e-01 -2.54716814e-01 -2.07212758e+00  3.08032572e-01
  3.99401858e-02  6.94385841e-02 -5.42491579e+00 -5.72602786e-02
 -3.44591069e+00 -2.28428030e+00 -2.59160906e-01 -3.73349488e-01
 -6.88623428e-01  6.05118573e-01  1.14095569e+00  1.97204560e-01
  1.24894224e-01 -1.34726897e-01  3.06473225e-01  4.35675859e-01
  1.91863373e-01 -1.01860024e-01 -1.71740636e-01  1.26804858e-02
  3.91035318e-01 -6.59787655e-01 -3.40349078e-02  1.60431337e+00
  7.79036283e-02  2.33805180e-02  1.85990855e-01  4.24020767e-01
  2.51616508e-01  7.43065596e-01  2.86328226e-01  3.45250756e-01
 -1.44521022e+00  1.80400336e+00  3.13285619e-01 -2.39449203e-01
  1.03171206e+00 -2.73141235e-01 -7.71214247e-01 -2.02167794e-01
  2.37378526e+00 -2.98020273e-01  1.08195588e-01  1.84525445e-01
 -2.17840254e-01 -7.51814783e-01 -2.22558951e+00  1.01362318e-01
  4.14821208e-01  4.10535187e-01 -7.36985654e-02  4.61430438e-02
  2.77016640e-01 -1.05910689e-01  5.29510379e-01  1.96400166e-01
 -8.16989362e-01  7.75254890e-03  3.18024218e-01  3.10447955e+00
  6.70080125e-01  7.06366226e-02  1.47150885e-02  1.39201730e-01
 -2.02871513e+00 -1.38668809e-02  3.08978468e-01  3.19290936e-01
  5.87882325e-02  1.38001919e-01  1.23674273e+00  3.45225543e-01
  2.88261980e-01  6.50929034e-01  1.63142931e+00  3.38156402e-01
  9.86443087e-02  4.33656991e-01 -4.62538823e-02  3.33948076e-01
  3.36094290e-01  1.31190464e-01 -7.61621833e-01  2.79637009e-01
 -4.51324606e+00  4.01664153e-02  6.51045799e-01  3.54842544e-01
  2.62647301e-01  6.07012689e-01  1.27780211e+00  1.64816952e+00
  1.68609515e-01 -1.54747084e-01 -2.90007759e-02  1.75905675e-02
  1.19249129e+00  3.20340902e-01  5.87968938e-02  2.44432354e+00
  2.28106594e+00 -3.36871481e+00  1.69736624e-01  3.42203903e+00
 -3.12324185e-02 -2.82328967e-02  2.46648952e-01 -3.16017240e-01
  3.37325186e-01  4.99821335e-01  2.04157442e-01  2.86108315e-01
  3.87076169e-01 -9.07696709e-02  2.07606498e-02  9.90261376e-01
 -2.57574394e-02  3.64495248e-01 -3.90783012e-01 -4.95241404e+00
  1.58409774e-02  6.19032502e-01  3.72589707e-01 -2.74648666e+00
 -1.19518965e-01 -9.08429548e-02]
[-0.353616    0.29410735  0.06782454 -0.03386951  0.0776895   0.01369426
  0.17836127  0.04169889 -0.3188505   0.01224936  0.48348412 -0.04658929
 -0.1796949  -0.1856164   0.08312036  0.08290082  0.53642416 -0.10577674
 -0.1520591  -0.01363862 -0.26501834 -0.04515475  0.01033581 -0.4271103
  0.2825923  -0.24589945 -5.235161   -0.18151641 -0.05631157  0.35659117
  0.05971721  0.8071424  -0.17557396 -0.06455833  0.17024401  0.18884283
 -0.01339275 -0.36881283  0.04317762  0.1588616   0.02468407 -0.19041829
 -0.4827558  -0.20595376 -0.12922657 -1.7152768  -0.17468576 -0.01976338
  0.49905062 -0.12596723 -0.536036    0.2272386  -0.15872963  0.5200316
 -0.2774074  -0.01155285  0.20039299 -0.42029375 -0.9667136  -0.28127554
 -0.10469389 -0.08587015 -0.36639813 -0.05066196 -0.13133456 -0.5781098
 -0.05529905  0.17981581  0.02392041 -0.08252732 -0.07198206 -0.00835266
 -0.5895521   0.18006161 -0.5229532  -0.29664996 -0.01680734  0.73366827
  0.12859504 -0.063219    0.01152102  0.05496705  0.17845292 -0.13653757
  0.05293772 -0.29107037 -0.35657632 -0.03155152 -0.72069407 -0.01709928
 -0.22594056  0.19376229  0.07165042 -0.07055783  0.09606245  0.13382007
  0.08926381 -0.29340765  0.04342232 -0.06988996  0.6988445   0.48353955
 -0.3402184  -0.04559634 -0.06960125 -0.10739901 -0.12034061  0.22962983
 -1.1726685   0.06307688  0.23337811 -0.17602372  1.1305808   0.0133031
  0.15568164 -0.24969727  0.01989238  0.41258553 -0.15357794 -0.05304141
 -0.2052648   0.04070929 -0.14813288 -0.07338344  3.9521165  -0.04761043
  0.12920466  0.16777809 -0.06772891 -0.3064977  -0.23407315 -0.41717565
 -0.28062123 -0.15497008 -1.0489409  -0.10422827 -0.28156984 -0.04478303
 -0.06636338  0.40961847 -0.3077105   0.16432394 -1.3838037  -2.045977
  0.1767362  -0.08145545 -0.18030487  0.03611624 -0.2121135   0.04760916]
[-1.1346031e+01 -7.6347500e-02 -2.9267904e-01 -1.0386269e+01
 -2.8475839e-01 -1.4816946e+01 -4.2565611e-01 -6.1692004e+00
  2.1381621e+00  4.0074107e-01 -9.4768405e-01 -7.7234924e-01
  5.5429274e-01 -2.3744574e-01 -4.2962962e-01  2.8059671e-03
 -1.1974729e+00 -2.5376098e-02 -2.6986570e+00 -1.0763040e+01
 -6.0652310e-01 -2.0985310e-01 -2.3898633e+00  1.1282574e+00
 -3.1196257e-01 -4.7889286e-01 -5.4701467e+00 -3.1395057e-01
 -1.6572902e+00 -3.7027125e+00 -4.1919999e+00 -2.7839466e+01
 -5.4507461e+00  1.2477462e-01 -4.1510320e+00 -1.9525130e-01
 -3.2433921e-01 -8.8764125e-01 -2.8907150e-01 -9.1362864e-01
 -1.5504162e-01 -1.6403028e+00 -2.8180587e+00 -3.6738971e-01
 -1.0480847e+01 -3.3301529e-02 -2.3584464e-01 -1.4566031e+00
 -3.9993116e-01 -2.3206394e+00  2.5095487e-02 -4.5507169e-01
 -1.9201095e-01 -3.0683692e+00 -1.7950889e-01 -4.8884690e-01
 -3.1593931e-01 -3.3119767e+00 -9.5856035e-01  1.3025950e-01
 -5.9926600e+00  1.1015531e-02  6.7413598e-01  2.6862761e-01
 -3.2796798e+00 -1.5262823e+00  9.0391673e-03 -1.0482065e-01
 -9.9244660e-01 -8.1768759e-02 -3.1520681e+01  5.4172575e-01
  3.0043833e+00 -1.3541980e-01  8.7161770e+00 -1.2103292e+01
  2.4813099e-01  1.4142947e+00 -3.5695428e-01 -5.1779227e+00
 -3.4529274e+00  2.7389703e+00 -3.1410867e-01 -1.4951800e+00
  3.8523448e-01  8.8732910e-01 -3.4655023e-01 -1.3492219e-01
  1.3047858e-01 -3.4835873e+00 -1.6049781e-01 -1.4984381e+00
 -1.0613443e+00 -1.8714645e+00 -6.0181564e-01  2.8161664e+00
 -1.4232981e-01  8.2708216e+00 -4.0767719e+01 -1.4807861e-01
  2.3382381e-01 -6.5279155e+00  2.0311402e-01 -2.2210023e+00
  8.9593038e-02 -1.3996275e-01 -4.1170278e+00 -1.2977464e-01
  8.9060545e-01  1.3063682e+00 -5.0891155e-01 -1.6543593e+00
 -1.7811133e+00 -3.0453697e+01 -8.5131044e+00  2.6987026e+00
  1.1201274e+00  2.1155794e+00 -8.6442590e-01 -2.7054982e+00
 -8.4132872e+00 -1.6954644e-01  1.8047110e+00  7.6191910e-02
 -1.2437826e+01 -2.0382383e+00  1.1633753e+00 -1.7608940e+01
 -1.8016334e+00  1.7083696e+00  1.2095716e+01  8.2457143e-01
 -1.9351498e+01 -2.0475040e-01 -9.6690416e-01 -8.3451614e-02
 -3.2093358e-01  6.9573963e-01  9.6237272e-01 -1.1555865e+00
  3.7968212e-01 -1.5210893e+01  1.8859729e-01  9.5151313e-02
 -8.7547678e-01 -7.1606045e+00 -4.1723061e-01 -1.3632317e+01
  2.5608466e+00 -6.3032635e-02]
[-9.52515960e-01 -8.90956223e-02  5.14839254e-02  1.44037873e-01
  5.88094443e-02 -9.82020050e-02  1.57302037e-01 -2.50837535e-01
 -1.17672384e-01  2.21247479e-01 -1.56719923e-01 -5.94661593e-01
  1.42753839e-01 -2.77533293e-01  1.05962763e-02 -6.13089502e-02
  3.65394443e-01  7.04909042e-02 -1.25544751e-02  6.07333817e-02
 -4.99875426e-01 -2.04746425e-02 -4.95608747e-01 -1.57272249e-01
 -2.26452082e-01 -3.85936238e-02 -6.20806217e-01 -7.39600360e-01
  4.04605679e-02  2.48583809e-01 -3.36347312e-01 -9.95540619e-01
 -5.40487058e-02 -1.88706815e-01  4.83669825e-02  9.75638330e-02
  2.00692676e-02  9.74500179e-02  8.64012763e-02 -8.19144323e-02
  1.74301550e-01  7.91578442e-02 -1.40638530e-01 -8.15095127e-01
  2.46675517e-02 -7.83499703e-02  1.18786007e-01 -5.45357391e-02
 -1.96136668e-01 -1.44148916e-01 -4.62982357e-02 -1.36368647e-01
 -1.24777503e-01  1.55201688e-01  3.51342093e-03 -1.68002427e-01
 -1.31484494e-01 -1.12910323e-01 -1.13250899e+00 -9.21091020e-01
  3.64148736e-01  1.92578748e-01 -2.29126617e-01  2.62985408e-01
  5.23776233e-01  1.14469481e+00 -6.42699525e-02 -8.72024707e-03
 -3.41945216e-02 -5.19003682e-02 -8.64411984e-03  3.99983227e-02
 -2.45382935e-01 -1.36209741e-01  1.59914106e-01 -3.38562936e-01
 -1.07720658e-01  1.75529480e+00  1.15830809e-01 -6.49972796e-01
 -2.44050827e-02  1.60006750e+00  1.08899385e-01  2.39313632e-01
  7.67507181e-02  2.18738019e-02 -1.70747228e-02  5.90332039e-02
 -5.79728745e-02  1.50968432e-02  1.91217065e-02 -2.76006073e-01
  1.82918936e-01  2.34487206e-01 -3.30128670e-02  2.29068622e-01
  2.83183763e-04 -2.34551709e-02 -8.87217298e-02  2.70145517e-02
  2.04689324e-01  7.97974244e-02 -2.46450812e-01  1.43774986e-01
  1.48530781e-01 -9.31943357e-02 -2.01890315e-03  2.51340479e-01
  1.37715209e+00  5.86062968e-02 -3.74751091e-01 -6.08484507e-01
  3.94962311e-01 -8.98358747e-02 -3.63544762e-01 -5.73291332e-02
  1.82000592e-01  2.06238818e+00 -1.02187078e-02  1.76287770e-01
 -1.76355982e+00 -7.39205554e-02 -2.14511171e-01  2.60241956e-01
 -4.66289818e-01  2.19729230e-01 -2.70497799e-03 -1.33329988e-01
 -2.46833060e-02 -6.44136593e-02 -1.82443261e-02 -1.85199484e-01
  5.35375476e-01  1.60858989e-01 -1.54178560e+00  2.05339435e-02
 -5.64618520e-02  1.72580391e-01  1.13797627e-01 -1.67298168e-01
 -6.44708812e-01  9.81097668e-02 -2.28686047e+00 -5.08467674e-01
 -5.79153970e-02  7.34998763e-01  1.70232102e-01  1.29838988e-01
 -1.14165711e+00  1.49372164e-02]
[-5.32312870e+00 -1.00825787e-01 -1.49530426e-01 -8.55460763e-02
  1.58556998e-02 -9.24765205e+00  1.25295115e+00  1.79587002e+01
 -2.75406194e+00  6.24454618e-01 -7.70539224e-01 -4.00326073e-01
 -9.56566143e+00 -6.06845021e-01 -1.18656658e-01 -6.03289068e-01
 -1.04591656e+01 -1.49976388e-01  1.70657241e+00  4.20051292e-02
 -1.84804313e-02  3.06982088e+00 -1.20686972e+00 -6.37165785e-01
 -1.13357916e-01  1.99032808e-03  1.13001652e+01 -4.96754855e-01
 -7.59810090e-01  6.08951747e-02 -1.84053421e+00  1.33060341e+01
 -1.37064433e+00  6.96681082e-01 -2.42627129e-01 -1.03839245e-02
 -4.52598706e-02 -1.46163777e-01 -2.52839833e-01  5.77658117e-01
 -1.52497619e-01 -1.11166036e+00 -3.89997363e-01 -6.51252687e-01
 -5.50620496e-01 -1.25465214e+00  6.90728948e-02 -1.95030093e+00
 -3.00319314e-01  1.98559535e+00 -7.55505502e-01 -1.38641924e-01
 -1.13216471e-02 -6.50682211e+00 -1.49494231e-01 -2.17230037e-01
 -3.18750143e+00 -1.98403373e-01 -1.27701938e-01 -4.43330097e+00
 -4.67723101e-01 -3.81097436e-01  3.95470214e+00 -5.50204217e-01
  1.39998329e+00 -2.51130867e+00 -1.88430041e-01 -2.38807172e-01
 -2.17762515e-02 -4.99398172e-01  3.15744495e+01  4.98918772e-01
 -1.30341423e+00 -5.06696939e-01 -6.77333307e+00 -3.39676046e+00
 -2.18316093e-01  2.65154457e+00  8.39887783e-02  8.95190597e-01
  2.33080912e+00  9.49045956e-01 -1.78879097e-01 -1.51037014e+00
  4.52824384e-01  1.67865314e+01 -8.06157514e-02 -2.95949429e-02
 -3.89843559e+01 -5.99506426e+00 -1.11085080e-01 -4.53179210e-01
 -3.93186331e+00 -2.90259385e+00  3.85484517e-01 -2.00195193e+00
 -2.37290412e-01 -7.06689978e+00 -3.12769489e+01 -1.11376774e-02
  6.29044473e-01 -5.56736422e+00 -3.50198835e-01 -2.75297666e+00
 -2.49109820e-01 -1.37659535e-01 -2.74354935e+00 -1.19657673e-01
  2.95409203e+00 -1.27547711e-01  3.08061391e-01 -5.87698877e-01
 -7.52833486e-01 -3.89500546e+00 -3.66583914e-01  4.29555607e+00
  1.06765568e+00  3.18254018e+00 -1.49948514e+00 -1.15617542e+01
 -1.78075731e+00  7.15513453e-02  1.07056153e+00 -3.91530842e-01
 -3.04814672e+00 -8.17877197e+00 -1.26763916e+01 -1.96538001e-01
 -5.94619637e+01 -4.44106817e+00  1.54857292e+01  2.04818416e+00
  7.87682962e+00 -2.08044335e-01 -3.62731099e-01 -1.64584652e-01
 -2.84887552e-01  6.09315157e-01 -2.68546152e+00 -2.94555008e-01
  3.29609823e+00  1.18254471e+00 -3.06660223e+00 -8.67078125e-01
 -6.17931366e-01 -2.78921247e-01 -7.79607287e-03 -1.39851615e-01
 -2.54061723e+00 -9.53471810e-02]
[-0.01368628  0.16662142 -0.07165805 -0.14876544 -0.07254834 -0.0463872
 -0.17103371 -0.09896005  0.06433806 -0.00628042 -0.00399832  0.15499699
 -0.16904038 -0.12539203 -0.10495339 -0.03017379  0.10216618  0.13483298
  0.1249187  -0.15308972  0.05926758  0.04079789  0.10090807  0.17514226
 -0.03663433 -0.10205031  0.0967811   0.10264671  0.06366123 -0.07615207
 -0.0262533  -0.05917317  0.04106978 -0.08177098 -0.05141872 -0.00408334
  0.09278715  0.1448386   0.06491417  0.16564313  0.0448326   0.11234534
 -0.1612977  -0.00093648 -0.1151738  -0.10255368  0.16182473 -0.07624357
 -0.17964837  0.07902461 -0.07520588  0.02948743  0.1394561   0.08825529
  0.01259597  0.1678854  -0.03363131  0.0446527   0.04890352  0.00142837
  0.14013085  0.16814339 -0.05781315  0.09712422 -0.04455458 -0.16442843
  0.04527682 -0.11274736 -0.15395285 -0.11341902  0.05966152 -0.11609118
  0.1457107  -0.13121179  0.14440179  0.10874838 -0.12239897 -0.16517247
  0.13333613 -0.1559897  -0.05345492  0.07045877  0.17086652 -0.12198663
 -0.1237428   0.0104969  -0.09462412 -0.16915582  0.15132523  0.11651546
 -0.00977106 -0.0204204   0.13756528 -0.09983825 -0.07819468 -0.11021018
  0.05865765  0.15398598 -0.02801871  0.05130859  0.04325977  0.17113152
 -0.02882865  0.08190736 -0.11796576 -0.18169059 -0.14743151  0.02663945
  0.11031821  0.07945424  0.10010251  0.12743738  0.02284715 -0.17369469
 -0.06007814 -0.02774395  0.03843474  0.18232563  0.10775581  0.03995717
  0.10056871 -0.05970465 -0.08267055  0.0803521   0.11573568 -0.1523761
  0.00534698 -0.15302752 -0.08057337  0.14901584 -0.00164065  0.10482672
  0.07774124 -0.07337039 -0.11063812 -0.08346666  0.1000132   0.06391244
 -0.15652342 -0.11917482  0.04400058 -0.15411592  0.14124924 -0.14563859
 -0.03840797 -0.01797628 -0.11632532  0.08627987 -0.08476204 -0.1731043 ]
[ 1.98979926e+00  1.57891229e-01  1.08542085e-01 -1.12098193e+00
 -4.64438081e-01  6.24222197e-02 -7.52061796e+00 -6.36341858e+00
  3.72482586e+00 -1.29759416e-01 -7.29032815e-01  1.06984470e-02
  1.31531501e+00 -1.94070265e-02 -8.77585709e-02 -4.15387094e-01
  1.61050072e+01  5.30402213e-02 -1.34754613e-01 -3.44040608e+00
 -1.57910347e-01 -8.69278371e-01  2.51818371e+00 -3.65532279e+00
  3.13775837e-01 -1.64617956e-01 -2.97871399e+00 -5.32533467e-01
  8.62772346e-01  3.98538977e-01  8.14681888e-01 -1.67861900e+01
 -1.77623749e+00 -1.78095222e-01 -4.32722139e+00 -1.45063713e-01
 -2.18655132e-02  2.86029160e-01 -8.92807823e-03 -1.67943916e+01
 -2.57247090e-01  6.54222548e-01 -4.36915159e-01 -6.83221519e-01
  1.85548544e-01  7.45527029e-01 -2.00603813e-01  1.82478333e+00
  2.32662991e-01 -1.83614182e+00 -8.35380077e+00  3.97129096e-02
 -4.03043590e-02  1.47795706e+01 -1.07571363e-01  1.07538544e-01
  8.87500191e+00 -1.74943209e+00 -2.72617728e-01 -6.27516556e+00
  1.27196562e+00 -2.47245371e-01 -2.94279790e+00  3.12967777e-01
  1.43965092e+01  7.12677479e+00 -3.25233638e-02  4.02185358e-02
  2.73756653e-01 -3.04595500e-01  1.50119984e+00  4.47710574e-01
 -2.80160141e+00 -1.86638272e+00 -1.55719733e+00 -3.29023323e+01
  6.60192370e-01 -4.64039469e+00  1.28104895e-01  1.14832366e+00
 -1.10949965e+01  1.54773035e+01  1.03364445e-01 -1.18184984e+00
 -3.09589982e-01 -4.52215729e+01  8.41443837e-02  6.09192848e-02
 -8.03590119e-01 -8.40497112e+00  2.97212917e-02 -1.16548610e+00
 -4.82116175e+00  1.91350949e+00  3.73691344e+00  1.24400342e+00
 -8.44390318e-03  8.39908981e+00 -8.76979446e+00 -1.58882812e-02
  3.71992886e-01 -7.46235371e+00  2.66046464e-01 -1.72831833e+00
 -1.01278946e-01 -2.21475869e-01 -1.25224781e+00 -3.67425475e-03
 -1.77001667e+00  1.81130040e+00 -7.39322782e-01 -6.66155815e-01
  1.84178096e-03 -2.46582241e+01  1.05568910e+00 -5.42137051e+00
  8.82362723e-01  2.39815331e+00 -5.31830788e-02  2.07350239e-01
 -1.79185116e+00  9.74141136e-02  3.40852290e-02  1.30282211e+00
  2.34883738e+00 -2.43056321e+00  3.69180512e+00  7.06835806e-01
 -1.01920252e+01  2.65760851e+00 -1.09133949e+01 -1.71947885e+00
 -4.80837822e+00 -2.02426910e-02 -9.37103331e-01  1.80604849e-02
 -1.26880273e-01 -2.23501578e-01  3.81839323e+00 -2.36196984e-02
 -2.22906113e+00  8.38881016e+00 -1.38961973e+01  9.00450647e-01
  1.07709455e+00 -3.14323395e-01  1.09585817e-03  1.66630995e+00
  9.45587363e-03  1.54491693e-01]
[-1.67119429e-01 -5.83240762e-02  9.07503590e-02 -7.18882829e-02
 -6.53148666e-02  1.49087384e-01 -1.74279794e-01  5.02625480e-02
  2.82670222e-02 -1.86761156e-01  7.33295530e-02 -2.97564082e-02
 -6.98032156e-02  1.05815195e-03  1.09996021e-01  7.73862526e-02
  4.27117152e-03 -1.29596785e-01 -1.59108117e-01  2.20870860e-02
 -1.61768347e-01 -4.42251563e-02  1.00592270e-01 -1.71519935e-01
  3.30113769e-02 -1.36585636e-02 -1.99890763e-01 -1.46609256e-02
  2.82885246e-02 -1.16917610e-01 -5.12987599e-02  8.72602016e-02
 -1.56158194e-01 -1.57543942e-01  9.57548618e-05  4.89265546e-02
 -1.05528757e-01 -7.31278677e-03 -1.02863498e-01  1.43673301e-01
 -7.83341471e-04 -6.11306615e-02  4.60040569e-02 -4.26781476e-02
 -6.17614575e-02 -2.62360107e-02 -1.18661627e-01 -1.50575548e-01
  3.91951688e-02  1.87293440e-02 -5.87691590e-02  5.86183071e-02
  2.66618840e-02 -3.89791727e-02  5.32927029e-02  1.57100931e-01
  8.79575610e-02 -1.41165078e-01 -6.92220777e-02 -2.23157123e-01
 -1.77487001e-01  1.15928918e-01  6.76288158e-02 -1.33391917e-01
 -9.09634829e-02 -1.82357002e-02  1.27585724e-01  6.80292919e-02
 -9.18578207e-02 -7.09681660e-02  8.15427862e-03  5.62519394e-02
  1.42954603e-01 -2.89703906e-02  2.70544738e-02 -4.02548090e-02
 -5.00720590e-02  5.15233651e-02 -3.01077664e-02 -2.10301131e-01
 -1.64162710e-01  5.27363159e-02  4.21669241e-03 -1.98767051e-01
 -9.74893048e-02 -2.07469314e-01  7.22433254e-02 -6.66284114e-02
 -2.37782560e-02 -7.48350658e-03  1.39702484e-01  1.02771677e-01
 -1.22727484e-01  1.29191160e-01  8.31272751e-02 -1.05300158e-01
 -1.03590153e-01 -3.67087215e-01  1.98328599e-01 -6.75515085e-02
  6.90917075e-02 -2.82479301e-02 -1.59180872e-02  8.92951619e-03
 -8.28038156e-02 -2.28775322e-01  1.26280054e-01 -4.89612035e-02
 -4.84755524e-02 -9.09995362e-02 -1.36433810e-01 -7.53007755e-02
 -3.65266316e-02  1.54167935e-01  4.34416607e-02 -1.73748955e-01
  1.43265709e-01 -6.84767365e-02 -7.87085679e-04  2.49055307e-03
 -1.29403785e-01 -5.09621836e-02  7.53738061e-02 -1.39059663e-01
 -1.49695650e-01 -9.03967842e-02  7.60216117e-02 -2.17227444e-01
 -2.19923601e-01  5.65302186e-02 -1.36558980e-01 -6.51112422e-02
 -2.01504901e-01 -1.52480334e-01 -6.35181591e-02 -3.49051021e-02
 -4.46909443e-02  1.31617904e-01 -1.41837150e-01  1.62237078e-01
  3.75084952e-02  7.95325413e-02  1.63197011e-01  1.85637362e-02
 -1.01771116e-01 -4.10905741e-02 -2.05669198e-02 -1.92316547e-01
 -7.75715634e-02  7.05369636e-02]
[ 0.03463461 -0.1551628   0.03382544  0.18155351  0.16297486  0.14028007
  0.04745123 -0.06882335 -0.09612574  0.10091072  0.06947672  0.01816764
 -0.11088784 -0.05110505  0.11059189  0.12805802 -0.04944137  0.14713773
 -0.05708508 -0.16494739  0.17790243  0.11838281  0.00343592 -0.10859939
 -0.04124784 -0.06869158  0.16644317  0.13495341  0.16970375 -0.182122
  0.0728043   0.17432308 -0.10460681  0.18192616  0.08598894 -0.15941815
  0.09018829  0.0767169  -0.14954206 -0.16695683  0.02421296 -0.10034414
 -0.03019638  0.04180311 -0.09592094  0.17876112 -0.15161517 -0.02184168
 -0.11700146 -0.1753453  -0.12237425  0.17596948  0.0750784  -0.03118119
  0.00999589 -0.01662733  0.01932143 -0.13295491 -0.15672427 -0.0510098
  0.11846861 -0.07073958 -0.0527589  -0.17479418  0.16114855  0.05606131
  0.05321008 -0.05501997 -0.17876539 -0.1340199  -0.09670363  0.08934873
 -0.16386482  0.16558799  0.10456935  0.0235292  -0.07685725 -0.02130488
 -0.01466903  0.10068035  0.06856409 -0.09194899 -0.05269922 -0.08721325
  0.08494559  0.16303271 -0.15290977 -0.12089257  0.01201408  0.05611521
  0.18187624 -0.1079424  -0.12861829  0.05918993 -0.17514482  0.07800066
 -0.17746125 -0.11163615  0.1142281  -0.13566707  0.1186932   0.03274056
  0.12168589 -0.01160525 -0.16358942 -0.05170149 -0.02002041  0.13282093
 -0.12278852 -0.0594454  -0.00113323  0.04857954 -0.02596971 -0.14969441
  0.15697968 -0.08052457  0.1576457   0.02816018 -0.12726331  0.03699841
  0.00812387  0.03605162 -0.05634339 -0.04347241 -0.1166601  -0.09548634
  0.07342908  0.02197887 -0.04662922 -0.150758   -0.0432063  -0.15865356
 -0.09440956 -0.05256145  0.17883581  0.182282   -0.03869621  0.1110715
 -0.04233181 -0.15350059 -0.14473936 -0.05261011  0.13331681  0.03411466
  0.02411523 -0.12695503 -0.10337894 -0.17775294 -0.05524889  0.06852278]
[ 5.83481900e-02 -5.44734336e-02 -1.12390168e-01 -1.14946461e+01
 -1.41378239e-01 -2.29952106e+01 -3.36053371e+00 -1.06839600e+01
  2.60836220e+00 -6.06346369e-01 -1.32922336e-01 -1.84189901e-01
 -2.00105000e+00 -3.50927740e-01 -1.88501589e-02 -2.61376798e-01
  2.20106316e+00 -9.66235325e-02 -2.60408230e+01 -9.27390766e+00
 -1.52487919e-01 -1.73064697e+00 -1.45249689e+00  2.95835114e+00
 -1.85126305e-01 -1.30258903e-01  9.65430558e-01  3.07641681e-02
 -1.94774175e+00 -3.89824009e+00 -9.77834511e+00 -3.27181206e+01
 -6.42733812e-01 -4.00352985e-01 -6.90594912e+00 -3.72581542e-01
 -1.81020930e-01 -2.27492213e+00 -2.85876632e-01 -8.86648536e-01
 -1.83671281e-01 -2.12713957e+00  2.57673597e+00 -9.44187716e-02
 -2.45853386e+01 -1.69122681e-01 -4.90564667e-02 -8.14975977e-01
 -3.90633374e-01  3.69891971e-01 -1.34352970e+00 -1.65440857e-01
 -2.96475291e-01  5.28317881e+00 -4.27993424e-02 -4.55006175e-02
 -1.52862817e-01 -1.82452178e+00 -1.21201053e-01 -9.73295689e+00
 -5.59679842e+00 -1.31876814e+00  3.77466631e+00 -1.19067475e-01
 -5.06048489e+00 -4.24579054e-01 -1.16351075e-01 -1.20542742e-01
  2.56057590e-01  6.82732239e-02 -3.59978752e+01 -6.71003997e-01
  5.30503416e+00 -5.69966197e-01  2.28152103e+01 -1.01953363e+01
  1.44968545e+00 -3.91270399e-01 -1.69651344e-01 -1.10298777e+01
 -1.10005836e+01 -4.52314168e-01 -6.52103797e-02 -6.99294376e+00
  4.27740999e-03 -3.26013031e+01  3.96761298e-02 -1.52580529e-01
 -7.14870393e-01 -2.41670933e+01 -2.72166103e-01 -2.96458960e-01
 -3.07903814e+00 -3.10823536e+00 -1.08504093e+00  8.90772915e+00
 -1.11243926e-01  1.08542719e+01 -6.35175552e+01 -1.64208114e-01
  3.41746449e-01 -2.08480263e+01  3.27980705e-02 -8.52659643e-01
  2.04248093e-02 -1.66254357e-01 -2.38907075e+00 -2.67828643e-01
  1.07053913e-01  1.42766488e+00  2.10094690e+00 -3.52187395e-01
 -1.78064078e-01 -3.47239304e+01 -2.12818298e+01  3.01796460e+00
  5.17918654e-02  5.16576958e+00 -3.70435381e+00 -6.06488037e+00
  2.51787722e-01 -3.69954631e-02  8.79245377e+00 -6.73329905e-02
  3.84955430e+00 -2.51466423e-01  1.82165360e+00 -1.71543274e+01
 -1.22570038e+00  4.27683496e+00  3.00185280e+01  2.15449262e+00
 -4.22146177e+00 -2.05079034e-01 -3.31239074e-01 -9.78773981e-02
 -7.31285587e-02  1.79624036e-01 -1.10512376e+00 -3.99736643e-01
  4.77910376e+00 -2.27851448e+01  3.72934198e+00 -6.19840145e-01
  2.41714191e+00 -1.22935963e+00 -2.68618375e-01 -1.74157944e+01
  1.79548681e+00 -1.95245191e-01]
[-0.10602068 -0.06434024  0.04813676 -0.04626727 -0.14374828 -0.11376233
  0.04506809 -0.05388595 -0.03024784  0.03313303 -0.16052592 -0.16863169
 -0.09406133  0.08228001  0.14892834  0.03991029 -0.02810887 -0.17909425
 -0.02798885 -0.13074115  0.08629182  0.17988583 -0.12368056  0.05207866
 -0.07693543 -0.1172181  -0.01633507  0.13692823  0.16012606  0.01870354
 -0.12837587  0.08219483 -0.07509767 -0.16274177 -0.05234011  0.1531665
 -0.09976678 -0.1278894   0.13048965  0.1247102  -0.11920172  0.16690093
  0.08071169  0.02278638  0.14787075  0.06395113 -0.12573305  0.06186335
  0.02182269  0.16959125 -0.02867395 -0.17124644  0.15266421 -0.01083986
  0.03313233  0.08148718 -0.11281005  0.00633988  0.04172009  0.14708436
  0.11200914  0.08423126 -0.04807042 -0.04034771 -0.14085522  0.02906929
 -0.01341471  0.00746493 -0.16195798 -0.01072304  0.00627954 -0.17205882
 -0.09458511 -0.04778239 -0.07561702  0.10905197 -0.15509546  0.16605121
  0.10509437  0.10381663  0.11100486 -0.10711291  0.17659512 -0.02901627
  0.04827096  0.11561006  0.06440048  0.14255115 -0.17314148  0.14477667
 -0.16112223 -0.06242753  0.04254192 -0.0917879   0.16433612 -0.16812588
 -0.14110743  0.01387672  0.13049683 -0.10015379  0.15165922  0.13386968
  0.08792126 -0.13061121 -0.01722018  0.17227948 -0.12919895 -0.05007088
  0.13591215  0.14483961 -0.05029054  0.05455264 -0.17612827 -0.01069501
 -0.08725099  0.14544585  0.14321372  0.15767238  0.11468789 -0.14459689
 -0.00511685 -0.11206513  0.13003585  0.16652966 -0.11476912 -0.08300839
 -0.05443951 -0.00634785  0.18117112  0.04003857  0.05470286  0.07589191
  0.05623974 -0.09744698  0.0046028  -0.03796493  0.03113121  0.1261521
  0.1482619   0.1071074  -0.00104845  0.03378418  0.09750879  0.12490147
  0.08923692 -0.13354328  0.02737574  0.17207977 -0.17616788  0.07322422]
[ 7.0202708e+00 -1.9164607e-01 -2.0013456e-01  1.9468175e+00
 -3.3955330e-01 -8.7103386e+00 -1.6129918e+00 -7.6915646e+00
 -7.8339182e-02 -2.4547766e-01 -1.7766289e-01 -3.0901158e-01
  4.8048339e+00 -6.9840578e-04 -1.7014919e-01 -2.9095128e-01
  4.6200570e-01 -1.2851416e-01  2.8823872e+00  7.0374279e+00
  2.4409123e-02 -1.8028026e+00  1.0079707e+00  2.5141056e+00
 -4.8881638e-01 -1.9020785e-01 -3.7725747e+00 -3.6553299e-01
 -6.9891179e-01 -5.3569447e-02  7.1980672e+00  2.9633527e+00
  3.9352137e-01 -1.6294354e-01  3.2136180e+00 -2.3624147e-01
  3.5698544e-02 -9.7904629e-01 -2.9948241e-01  1.3602806e+00
 -1.3517700e-01 -2.7204841e-02  2.5844927e+00 -4.5306039e-01
 -2.0350559e+01 -4.1665511e+00 -1.9293693e-01  1.8128233e+00
 -3.3175048e-01 -6.3755995e-01  5.0505698e-01 -5.2382457e-01
 -1.5267169e-01 -3.3147595e+00 -2.7893350e-01 -1.5224770e-01
  6.5594357e-01  6.2292290e-01 -1.2755202e+00 -1.5221573e+00
  3.2057090e+00  1.4730307e-01 -3.5288467e+01  1.6532220e-02
  3.8613992e+00 -1.6926739e+01 -1.1856659e-01 -2.9168165e-01
  3.2428160e-01  1.5665492e+00  1.0197075e+01 -3.2703376e+00
 -5.4610432e+01 -1.6043898e+00 -1.6118658e+00  4.2231007e+00
  1.2425436e-02 -1.6361648e-01 -1.9165654e-01 -2.0667064e+00
 -6.5413723e+00 -5.8100939e+00 -3.9583644e-01  8.0872363e-01
 -1.7828543e-01 -4.3769107e+00 -1.8646754e-01 -4.8064752e-03
 -2.9720986e+00 -8.8362461e-01 -1.3887297e-01 -1.0779442e+00
  1.8869033e-01  4.5338426e+00  3.1885712e+00  1.8228291e-01
 -2.7401596e-01 -1.8634472e+01  2.6407837e+01 -6.0336996e-02
 -2.1749496e+00  7.5216689e+00  1.0597020e-01  4.7329125e-01
 -5.7585068e-02 -1.1443356e-01  2.0486836e+00 -3.5704565e-01
  2.0750704e+00  8.0861455e-01  2.6647714e-01 -6.9375288e-01
 -5.4628018e-02  1.5813167e+01  7.2560220e+00  1.9084632e+00
 -7.4191422e+00 -6.3679688e+01  4.0376825e+00 -2.5036230e+00
 -6.4156383e-01 -1.4255461e-01 -1.5782639e+00  2.4956021e+00
 -3.3173940e-01  2.5199506e+00 -1.2368989e+00  5.6837964e+00
 -8.4467369e-01 -1.2456264e-02 -2.8919659e+01 -2.3710554e+00
 -3.8437021e+00 -5.1673508e-01 -1.2394021e+00 -3.3328703e-01
 -3.3506829e-01 -2.5480965e-01 -1.4572017e+00 -2.6879027e-01
  9.5497930e-01  4.4267883e+00 -4.5020998e-01 -3.1041203e+00
 -4.9294934e-01 -3.6570022e-01 -1.1158105e-01  4.9376874e+00
  1.8362443e+00 -1.8704550e-01]
[-2.7128327e-01 -2.3383144e-01 -3.4123948e-01 -2.0001306e-01
 -2.5556275e-01 -2.2660148e-01 -1.7559017e-01  1.7508518e-02
  1.5839857e-01  9.1877118e-02 -3.4374335e-01  9.1745093e-02
  1.0158726e-01  1.9598965e-01 -3.7966892e-01 -4.4127414e-01
 -6.8143916e-01 -2.7097347e-01 -1.3006777e-01  6.4524841e-01
  7.0019990e-02 -1.3003571e-01  2.8676373e-01 -4.0878303e-02
 -3.5856031e-02 -1.4994435e-01 -2.3663801e-01 -3.2578525e-01
 -1.6041540e-01  7.2245127e-01 -3.3341855e-01  3.2796633e-01
 -3.3852807e-04 -1.1752874e-02 -1.1353888e-02 -3.2002884e-01
  9.6382618e-02 -7.3268646e-01 -9.9144995e-02 -5.2641338e-01
  6.4185821e-02 -6.6603279e-01 -2.2066645e-01 -3.7321490e-01
 -2.5658372e-01 -8.6853452e-02 -9.1405593e-02  2.0887451e-01
 -2.5283751e-01 -1.9812463e-01 -5.2879535e-02 -4.2818946e-01
  3.0348329e-03 -1.7045002e-02 -1.0897275e-01  1.5543263e-02
 -1.4511059e-01  6.0117193e-02  6.7493752e-02  2.0919660e-01
 -3.3713627e-01 -2.3378786e-01 -1.5158389e+00 -4.8273164e-01
 -1.2888443e-01  1.7315624e-02  5.1033210e-02 -3.7377799e-01
 -1.9246444e-01 -3.6104488e-01 -1.8011266e-01 -2.0402122e-02
  2.1029046e-01 -3.2613444e-01 -1.6701719e-01  1.3783410e-01
 -1.4609718e-01  2.1178210e-01  1.5710336e-01 -7.3969847e-01
 -9.5264144e-02  3.3015752e-01 -2.0378469e-01  1.7025270e-01
  4.8478700e-02 -3.9811702e-03 -1.4733535e-02 -1.5898208e-01
 -2.9126769e-01 -2.1524633e-01  5.2779984e-02 -6.9829464e-02
 -1.0578907e-02  1.6118653e-01  1.3876313e-02 -5.0234582e-02
 -3.5377273e-01 -8.0018237e-02 -2.0515840e-01  3.1032866e-02
 -9.2141405e-02  1.7388294e-02 -4.0717423e-01 -9.6543640e-02
 -2.5228685e-01  6.1799027e-02  1.2995659e-02 -5.1167184e-01
 -8.3598113e-01 -1.8342635e-01 -6.4918375e-01 -5.7650734e-02
 -3.2811284e-01 -1.4586602e-01  1.1303868e-01 -6.5105486e-01
 -2.3798974e-01  3.3695963e-01 -4.5233086e-01 -1.1491467e-01
 -2.7989602e-01 -1.8807641e-01  6.7827545e-02  6.7920133e-02
 -1.3662738e-01 -1.2752089e-01 -3.5887107e-02 -2.5548401e-01
  1.0012556e-01 -3.0027586e-01  1.1919755e-01 -4.1499108e-01
 -3.8553491e-02  5.6433730e-02  1.1667492e-01 -8.7710030e-02
 -3.2739893e-01 -1.4274374e-01  4.8593497e-01 -4.3317214e-01
 -5.2929807e-02  4.4921944e-03  5.1250887e-01  6.3446946e-03
 -1.0157664e-01 -9.2146114e-02 -2.2058433e-01  5.0386079e-02
 -5.4077262e-01 -1.5454829e-01]
[ 1.82349384e+00  1.34808617e-03  9.61173624e-02 -7.87910521e-01
 -3.16785783e-01  1.87134373e+00  7.24301755e-01 -7.61970568e+00
 -1.06656277e+00 -5.56133807e-01 -6.84601605e-01  1.69635296e-01
  2.34889259e+01 -8.90000015e-02  1.61100492e-01 -4.00000900e-01
 -8.01411271e-02  1.56615019e-01 -5.15399158e-01 -2.00528598e+00
 -1.06251195e-01 -2.17187619e+00  4.32689726e-01 -8.96359444e-01
  1.04163118e-01  6.15241900e-02 -2.48288193e+01 -4.84286904e-01
  5.82886897e-02 -1.16308026e-01  9.30658877e-01 -2.71061063e+00
 -2.68907595e+00 -7.70478904e-01 -1.12539160e+00 -3.69960926e-02
 -1.43188238e-01  1.99454382e-01  7.20716566e-02  4.32436037e+00
  6.19892552e-02  2.72133112e-01  2.18421325e-01 -5.59735477e-01
 -8.23071384e+00  1.11569118e+00  2.10536476e-02  6.39282048e-01
  1.35966301e-01 -2.03373194e+00  8.43677372e-02  1.19671308e-01
  4.76862863e-02  1.66235435e+00  1.97228700e-01 -1.00558661e-02
  4.01245087e-01  2.58497536e-01 -2.49731526e-01  1.65333593e+00
 -5.71976542e-01 -4.10932839e-01 -7.41987824e-01 -1.63780704e-01
 -1.96365666e+00  1.19881861e-01  1.78101495e-01  1.09397419e-01
  5.09392440e-01 -2.69716710e-01 -3.10067425e+01  1.31530076e-01
  2.53012490e+00 -7.55095705e-02  1.93408823e+00  1.40238247e+01
  6.63346350e-02 -9.45813298e-01 -6.41465187e-02 -4.96348292e-01
  6.26680088e+00 -1.51750132e-01  1.49808690e-01 -2.14838862e+00
 -4.52474862e-01 -2.34652853e+00 -6.53478727e-02 -6.70778528e-02
 -8.90806794e-01  2.97163844e+00 -1.36736985e-02  4.66247112e-01
  1.91754818e+00  2.84068203e+00  1.16159809e+00 -1.96478460e-02
  5.13032004e-02  7.15359926e+00  1.71047153e+01  5.54867601e-03
  4.61119682e-01  4.63440746e-01  3.71140033e-01 -3.20560187e-01
  8.74967799e-02 -1.22105546e-01 -7.90719151e-01  9.17623714e-02
 -2.05618501e+00 -2.45654941e-01  2.91523308e-01  3.86029333e-01
  1.16583064e-01  2.15023327e+00 -2.18799090e+00 -2.02307224e+00
  6.56290129e-02 -2.21194100e+00 -4.28531677e-01  2.61203468e-01
 -2.93884587e+00 -5.99048920e-02 -4.39615339e-01 -1.62972522e+00
 -5.19064605e-01  6.29288733e-01  5.40439606e+00 -1.04199600e+00
  2.52508307e+00  3.32039893e-02 -8.60214520e+00 -1.31881988e+00
 -1.35888565e+00  7.59956092e-02 -2.87981778e-01  1.66152239e-01
 -1.49897831e-02 -4.85863477e-01 -2.19712982e+01  1.19203880e-01
 -9.37556386e-01 -3.84320354e+00  4.62157518e-01  9.25858855e-01
 -1.86050639e-01  3.16313118e-01  1.08153477e-01  1.49147123e-01
 -1.32108337e+02 -1.75685152e-01]
[ 6.57519197e+00 -4.09018934e-01 -4.81205523e-01 -1.02302485e+01
  1.98676750e-01 -2.48815727e+01 -1.87406483e+01 -7.61918879e+00
 -2.69796271e-02 -2.55333573e-01 -1.38081796e-02  4.06940989e-02
 -2.18382454e+01 -6.11287281e-02 -2.09288955e-01 -2.32814014e-01
 -1.19282408e+01 -2.00162679e-01 -2.30653739e+00  3.44406158e-01
 -1.28024757e-01 -7.76112199e-01  1.87727296e+00 -2.89853930e-01
 -2.75321305e-01 -1.33136943e-01  4.94920444e+00 -9.13684443e-02
  4.94066179e-01  2.08295822e+00 -1.48983479e-01  1.63321149e+00
 -8.99576902e-01 -7.91260183e-01 -3.95762730e+00 -1.57851785e-01
  7.89183080e-02 -1.07154140e+01 -3.27204853e-01 -5.04024565e-01
 -8.02101120e-02  1.70792236e+01 -8.01239371e-01 -1.70946211e-01
 -2.84950294e+01 -4.38633204e+00  5.98684698e-02 -1.06953878e+01
 -1.04068913e-01 -1.57761278e+01 -1.03918529e+00 -2.51913697e-01
 -3.94946560e-02  2.79911113e+00 -1.92682028e-01 -2.92474553e-02
 -2.96961761e+00 -1.25613670e+01  5.50486632e-02 -2.71187544e+00
 -7.88564384e-01  5.45157075e-01 -5.68927348e-01  1.21581578e+00
 -3.44461784e+01  8.78064728e+00  2.53070071e-02 -2.10328296e-01
  2.29088116e+00  2.27883458e-01 -4.74169779e+00 -1.04291260e+00
 -4.65737963e+00 -2.73177261e+01  8.60946560e+00 -4.79344130e+00
  1.86916858e-01  3.09778285e+00 -1.76018458e-02 -1.77558434e+00
 -2.48262659e-01  2.48991833e+01 -2.44140685e-01 -2.61441059e+01
  1.56439495e+00  1.82635441e+01 -9.13559347e-02 -4.75874469e-02
 -6.67432976e+00 -1.15558701e+01 -2.42627427e-01  4.72272485e-01
 -9.11818147e-02 -6.26727533e+00 -2.01705217e+00 -1.08919525e+01
 -4.48850781e-01 -1.11295185e+01 -3.82827830e+00 -1.04028761e-01
 -2.07584918e-01 -7.81882381e+00 -1.48372084e-01  1.43037930e-01
 -1.48613974e-01  1.33837581e-01  3.41392303e+00 -4.01819944e-01
  3.71692824e+00  6.37182379e+00 -4.13693285e+00 -4.84061688e-01
  1.71790719e-01 -5.52182236e+01 -2.46062870e+01 -2.37663689e+01
 -2.02674580e+01  3.71855927e+01  4.73784542e+00 -1.37061586e+01
 -6.76838495e-03 -8.44642818e-02 -9.00875282e+00 -3.32703781e+00
  3.99208975e+00 -9.04638672e+00 -9.34351540e+00 -2.19687653e+00
 -2.33905554e+00  1.86271896e+01 -5.17213297e+00  4.12726355e+00
 -5.92911797e+01 -2.45447114e-01 -7.08272219e-01 -7.94766620e-02
 -3.91144395e-01  3.22852165e-01  9.28368211e-01 -2.32519254e-01
  9.39771652e-01 -8.55111408e+00  2.22824931e+00 -4.31866837e+00
 -1.56484246e+00 -1.17929211e+01 -3.01762640e-01 -1.84694672e+01
  3.72461557e+00 -4.71778475e-02]
[ 1.16515599e-01  1.66163951e-01  6.49175048e-02  1.31844014e-01
 -5.91754578e-02 -7.79281855e-02  4.51705568e-02  8.95128250e-02
  3.33980709e-01 -2.25915790e-01  4.89689082e-01 -3.63979712e-02
 -1.24393463e-01 -1.73437551e-01 -4.37053591e-02  3.39592040e-01
  2.32753292e-01  1.32397041e-01 -1.74511112e-02  1.50835127e-01
 -1.10102616e-01  7.79925585e-02  4.48152602e-01 -2.58251932e-03
  8.96763131e-02 -1.13501787e-01 -8.51770192e-02 -2.02116206e-01
  1.28402621e-01 -4.31231201e-01 -7.38134831e-02 -3.26029330e-01
 -1.29561618e-01  2.02118903e-01 -1.87584311e-01 -2.17619434e-01
  5.36907166e-02  9.91968345e-03 -2.29161412e-01  1.93939000e-01
 -1.66344941e-01 -1.42872125e-01 -3.28375474e-02  3.53835374e-01
 -2.28971303e-01 -9.57821757e-02  5.81495985e-02 -1.77050591e-01
  2.94902861e-01  9.26630571e-02 -2.63588637e-01 -5.00227585e-02
  9.01253819e-02  2.54913956e-01 -2.41351902e-01 -2.48767389e-03
 -3.51869702e-01 -3.71960318e-03 -6.32912338e-01  5.10463212e-03
 -2.25059286e-01  5.98833151e-02 -1.84208691e-01 -8.28765035e-02
  7.61908144e-02  1.46769047e-01 -1.66296989e-01 -1.70182046e-02
 -1.99675173e-01 -9.39573944e-02 -5.33836663e-01 -1.61822334e-01
  7.41013363e-02  2.56239027e-01 -2.20296130e-01 -6.74107019e-03
  9.21771228e-02  1.86441652e-02  3.16237435e-02 -4.60022956e-01
 -3.01034395e-02  3.78090054e-01  3.11340868e-01 -7.77517334e-02
  1.23345479e-01  6.58389807e-01 -1.92505807e-01  3.71790640e-02
  3.38165164e-01 -5.97958788e-02  7.19170198e-02  2.02147335e-01
 -8.50316063e-02  9.30883214e-02 -8.71576294e-02  1.59270853e-01
 -2.53221188e-02 -3.99976850e-01  4.17113267e-02 -8.56018811e-02
  1.63818732e-01  4.50805239e-02 -6.73053786e-02 -9.33519378e-02
 -4.92419302e-02 -1.53989494e-01  6.77131414e-02  1.28932938e-01
  7.61845410e-02  1.62027270e-01 -1.03296712e-02 -1.62839711e-01
  6.17284290e-02  5.27602248e-03  2.03422174e-01 -9.67331946e-01
  1.04290374e-01  3.08665723e-01  4.88847159e-02 -4.18266952e-02
 -5.41297674e-01  3.19198929e-02 -1.11704156e-01 -6.67152405e-01
 -1.75643945e-04 -2.40182489e-01  1.70137316e-01 -6.30217418e-02
 -1.93789214e-01 -1.60591960e-01 -2.35518157e-01 -3.06349725e-01
 -9.72382352e-02 -2.20099557e-02 -8.17847371e-01  6.02846639e-03
  6.36762977e-02  2.82117575e-02  5.35294473e-01  2.73289710e-01
 -1.86318252e-02  1.54714808e-01 -8.79269958e-01 -1.48972914e-01
 -1.41471639e-01  7.42443651e-02  8.86476040e-02  1.79093018e-01
 -2.22462296e-01  6.73381984e-03]
[-7.34269857e+00 -2.88421899e-01 -9.78425294e-02  1.02794437e+01
 -2.64646918e-01 -8.98133278e+00 -4.60259390e+00 -1.48179646e+01
 -5.03000259e+00  6.96165681e-01 -1.38576746e+00 -3.58458638e-01
 -9.27488422e+00 -1.06894083e-01 -1.04426399e-01 -3.59554559e-01
 -4.34901714e-02 -3.01237941e-01 -8.01639333e-02 -1.28815925e+00
 -1.68415099e-01 -2.30448890e+00 -9.07305717e-01 -3.51896077e-01
 -1.23755291e-01 -1.65001348e-01 -8.75297451e+00 -4.82169926e-01
 -1.08529329e+00 -6.32654369e-01 -2.88570169e-02 -1.64464722e+01
 -4.68355000e-01  4.97352749e-01 -1.60121053e-01 -2.16026261e-01
 -1.82594433e-02 -2.93462455e-01 -2.10824758e-01 -1.07769716e+00
 -2.24068761e-01 -1.24086678e+00 -2.81582451e+00 -4.69310403e-01
 -9.32333946e+00 -1.59560239e+00 -1.55388236e-01  1.41077471e+00
 -1.44707173e-01  5.90096235e-01  1.46294996e-01 -1.85382009e-01
 -3.20774049e-01 -6.84927607e+00 -5.41942306e-02 -3.29147488e-01
  3.99513572e-01 -1.91328871e+00 -1.21401894e+00 -1.44833195e+00
  7.31471777e-01 -1.32414806e+00  6.11634541e+00 -9.69879448e-01
  4.37757158e+00 -3.56787968e+00 -1.83177784e-01 -3.20944130e-01
  8.04290891e-01 -6.78331733e-01 -2.09164190e+00  6.54723048e-01
 -2.50196233e-02 -3.62417483e+00  1.03322964e+01 -4.36701870e+00
 -8.65245983e-02 -3.10356331e+01 -3.43985140e-01 -1.60908985e+00
  2.58647108e+00  3.90891552e+00 -1.22770563e-01 -3.86295080e-01
  3.83071333e-01  2.17898350e+01 -2.80324042e-01  2.02143285e-02
 -8.65415812e-01 -3.59487867e+00 -3.22941750e-01 -2.75168568e-02
  1.01199043e+00 -6.18538380e+00  1.61030972e+00 -1.30013347e+00
 -3.08553725e-01 -1.61812611e+01  1.58926058e+01  1.07799424e-02
  8.47501695e-01  1.84738326e+00 -1.28091961e-01 -3.34810853e+00
 -2.37668440e-01 -5.48797622e-02 -1.79617822e-01 -2.14642122e-01
  3.43322134e+00 -3.92988682e+00 -4.19881248e+00 -2.07086176e-01
 -1.51106521e-01 -1.56267893e+00  3.97969103e+00  1.63822186e+00
  6.82496309e-01 -8.27194405e+00 -3.55553412e+00 -9.31498337e+00
 -1.20090747e+00  1.18185552e-02 -1.75067797e-01  2.33405972e+00
 -9.78777766e-01  3.67978394e-01 -1.36271992e+01 -1.78525507e-01
 -2.06084099e+01  9.80372143e+00  3.06748390e+01  2.27490592e+00
  4.43294954e+00 -2.92854518e-01 -1.08409953e+00 -3.21661055e-01
 -1.03155605e-01  7.03936636e-01  6.09139919e+00 -2.83328909e-02
 -1.17189980e+00  4.96702003e+00  6.13300037e+00 -1.43263936e+00
 -1.35472250e+00  6.81893051e-01 -9.12351161e-02 -5.11308163e-02
  4.83148003e+00  6.86971247e-02]
[ 1.75963926e+00 -3.87133598e-01 -4.17073131e-01 -2.66788888e+00
 -9.43996608e-02  5.35888243e+00 -8.52350426e+00  3.37332153e+00
  4.62592065e-01 -4.89916372e+00 -5.48027456e-01  3.40319425e-02
  1.09722052e+01 -3.80751193e-01 -5.62455654e-01 -8.54761362e-01
 -3.41136038e-01 -1.47537693e-01 -5.29825974e+00  3.36132431e+00
 -1.27122596e-01 -1.75138652e-01 -2.92064130e-01 -5.92784807e-02
 -2.82562286e-01 -2.31763229e-01 -1.44769204e+00 -2.35111967e-01
  3.76336575e-01 -2.69755630e+01 -4.46622610e+00  8.97041321e+00
 -1.80439491e+01 -5.53007650e+00  2.13743591e+00 -2.98780054e-01
 -1.43223843e-02 -1.39597631e+00 -3.34685057e-01  1.34044206e+00
 -2.62874484e-01  6.81951046e-01 -2.25700784e+00 -4.86366481e-01
  2.81353951e+00 -4.68275309e-01 -4.93682548e-02  1.66848135e+00
 -2.19849795e-01 -1.76683903e+01 -1.42834492e+01 -5.10012090e-01
  3.75025757e-02 -9.65678024e+00 -7.05640018e-02 -1.79679662e-01
 -5.00751352e+00 -1.27813244e+01 -3.14049453e-01  4.88767576e+00
  1.24534309e+00  1.43534577e+00 -8.97962987e-01  1.04018617e+00
 -1.31649017e-01  2.78195292e-01 -2.43443754e-02 -1.63460821e-01
 -8.89938951e-01 -2.42982197e+00  1.84817963e+01 -3.78248781e-01
 -1.18252516e+00 -3.52928549e-01 -1.88169444e+00 -6.44475031e+00
 -1.04476619e+00 -3.93256836e+01 -5.57459258e-02  2.02883148e+00
 -1.83665810e+01 -1.58847916e+00 -7.02575743e-01 -4.66381111e+01
 -8.72305870e+00 -6.46842599e-01 -4.15460356e-02 -1.65987425e-02
 -1.20421276e+01  1.22172365e+01  4.02036719e-02 -3.47688794e-01
 -2.51932181e-02  2.49768257e+00  7.45523512e-01  8.40520501e-01
 -7.08692849e-01 -8.17021942e+01  1.92307091e+01 -2.84003317e-01
  3.49201775e+00  6.63360023e+00  3.49016643e+00  1.89725012e-02
 -1.97579995e-01  2.13529989e-02 -4.62332821e+00 -5.22924364e-01
  3.62425178e-01  7.09084049e-02  1.11830734e-01  3.95919979e-02
 -3.85453612e-01 -9.20605373e+00  8.53034306e+00 -1.02811012e+01
 -6.36502624e-01 -4.98889178e-01  3.53123879e+00 -1.66769657e+01
  1.48890480e-01  1.05079152e-02 -1.26652849e+00  5.01090229e-01
 -7.45069563e-01 -1.93932921e-01 -1.97780073e-01 -6.89653516e-01
 -1.68908348e+01 -9.62458029e-02 -1.74853814e+00  2.12037683e-01
 -9.30664182e-01 -4.53098178e-01 -3.43469411e-01 -1.04830138e-01
 -1.05357192e-01 -5.46718264e+00 -1.62495213e+01 -9.98721778e-01
  1.39156595e-01  7.09373808e+00 -1.55864525e+00 -4.46971941e+00
 -1.05019703e+01 -3.42761248e-01  1.45349661e-02 -1.68483734e+01
  3.34727705e-01 -1.89562991e-01]
[ 8.73532009e+00 -1.89219609e-01 -3.93705890e-02 -1.20545750e+01
 -6.54834807e-02  9.80755234e+00 -1.37070620e+00 -5.09285569e-01
 -3.58241892e+00 -2.46465914e-02 -1.04804106e-01 -1.35419130e-01
 -7.36476746e+01 -4.04334441e-02 -3.58935863e-01 -3.00737798e-01
  3.35429519e-01 -1.39230445e-01 -1.81610146e+01 -5.65269041e+00
 -7.23241456e-03 -1.60823040e+01  2.05556098e-02  1.94989085e+00
 -1.47888631e-01 -3.87865961e-01 -1.99728981e-01 -5.14724016e-01
  1.53563905e+00  1.96595589e-04  2.68510604e+00  1.39669991e+00
 -2.13218269e+01  1.05002269e-01 -7.71220064e+00 -1.07863128e-01
 -1.70252010e-01 -1.76836932e+00 -2.02626571e-01 -1.95384011e-01
 -1.37050822e-01  2.30992770e+00  2.76722252e-01 -1.25093803e-01
 -5.35406075e+01 -4.46753550e+00 -1.62076950e-01 -5.44370890e-01
 -2.87663013e-01 -5.33264697e-01 -1.92484379e+01 -2.15615138e-01
 -2.54242420e-01  7.35471249e-01 -2.03401208e-01 -1.17615715e-01
  6.65934086e-01 -1.74385071e+01  6.87136352e-02 -2.53408718e+00
 -1.26973486e+01 -4.09671038e-01 -2.79729819e+00 -1.80343717e-01
 -2.61499386e+01  3.99809331e-02 -2.34440416e-01 -2.53109306e-01
  5.05629063e-01  2.21602559e-01 -1.12324352e+01 -5.09752321e+00
 -1.36777601e+01 -6.95621347e+00  2.34375405e+00  1.49582338e+00
  1.95208967e-01  3.39233685e+00 -3.41229975e-01 -7.94171143e+00
 -1.19118195e+01 -3.09885044e+01 -4.57084104e-02 -3.05785217e+01
  4.72561680e-02 -1.95109892e+00 -5.68403155e-02  1.77505575e-02
 -4.14643431e+00 -1.01397324e+01 -2.27045327e-01 -1.11338578e-01
 -1.02819097e+00  1.41938972e+00 -4.74470234e+00  4.99582720e+00
 -1.62641570e-01 -2.43245010e+01 -1.51752341e+00 -9.70598832e-02
 -2.70997554e-01 -1.95025826e+01  4.11960296e-02 -2.60336423e+00
 -1.59291580e-01 -3.01952362e-02 -1.19869509e+01 -1.63199157e-01
  4.13840055e+00  6.32209659e-01 -2.51783061e+00 -7.88635388e-02
 -7.86693573e-01 -2.72551203e+00 -1.45839090e+01 -2.75663147e+01
 -1.01810789e+01 -3.82206529e-01 -1.18887687e+00 -3.86856151e+00
 -1.39506304e+00 -3.45427990e-01 -4.74046087e+00 -3.62995863e+00
  9.69976723e-01 -7.62453413e+00 -2.52092266e+00 -1.01938848e+01
 -1.53113194e-02  5.41993380e-01  7.12498546e-01  3.75576282e+00
 -4.13804398e+01 -2.32904091e-01  1.09720074e-01 -2.99563706e-01
 -1.92538127e-01  9.35344398e-03 -1.01375656e+01 -8.83041322e-02
 -8.41885948e+00 -1.01880913e+01 -6.14869308e+00 -5.17667341e+00
  2.43777561e+00 -2.30175362e+01 -1.55524820e-01 -4.43789902e+01
  5.07533026e+00 -1.30942777e-01]
[-1.39152861e+01 -2.16933936e-01 -3.58717084e-01  7.76329231e+00
 -8.77284929e-02 -2.71875429e+00  1.01100905e-02 -8.75506496e+00
 -2.33104992e+00  9.77932960e-02 -2.12533891e-01 -1.37815475e-01
 -1.46366978e+01  5.01711061e-03 -2.34119281e-01  3.95800173e-02
 -5.37547302e+00 -1.20800525e-01 -2.14127588e+00  8.57398701e+00
 -2.33274981e-01  8.26625288e-01  1.61829084e-01  1.21906888e+00
 -2.79539436e-01 -2.02530056e-01 -1.85448503e+00  4.45624106e-02
  5.10027552e+00 -4.86025363e-01 -1.92974830e+00  2.00450063e+00
 -2.82300639e+00 -3.56562942e-01 -7.96100712e+00 -3.85131121e-01
 -1.73034832e-01  4.50129449e-01 -4.68670279e-01  3.37723303e+00
 -2.80737936e-01 -5.36989272e-01  5.90344620e+00 -1.24710843e-01
  1.33424606e+01  1.26039362e+00  3.00035737e-02 -2.91764545e+00
 -6.41093433e-01 -1.01381578e-01 -1.34698558e+00 -2.68234998e-01
 -2.61887044e-01  3.68696213e-01 -4.26318357e-03 -2.86665738e-01
  5.11645198e-01  1.05793893e+00 -2.99944907e-01 -2.05198693e+00
 -1.18782425e+00 -2.02074379e-01  6.27485454e-01 -2.33331159e-01
  3.26335311e+00 -8.22426891e+00 -2.82323360e-01 -9.82676446e-02
 -5.14611304e-01 -4.75232095e-01  1.98478794e+01  1.26572633e+00
 -4.11980009e+00  3.54872227e-01  1.32422581e+01 -2.93386364e+00
  1.13934018e-01 -1.96387303e+00 -8.40735994e-03  4.25427485e+00
  8.02671671e-01 -2.49216199e+00 -2.00289786e-01 -8.38690758e+00
 -6.02766760e-02 -1.85882819e+00 -3.26148927e-01 -2.95597427e-02
  1.09847689e+00 -9.75276947e+00 -1.26329288e-01 -3.11376005e-01
 -2.28724575e+00 -3.25452757e+00 -5.54935694e-01 -1.28931723e+01
 -2.99565107e-01  4.15408468e+00  3.71044445e+00 -1.85721800e-01
  6.73448920e-01  4.89489822e+01  4.59761620e-02 -6.08260453e-01
 -1.49880096e-01 -8.10667723e-02  1.34605474e+01 -2.04213206e-02
 -5.73404884e+00  6.12684965e-01  6.14058590e+00 -5.83500266e-01
 -1.40236402e-02 -1.63717365e+01 -1.34232740e+01 -3.08734455e+01
  4.07744378e-01 -4.93822217e-01 -1.40956068e+00  5.77137589e-01
 -5.12008816e-02 -1.34401083e-01 -2.04498813e-01 -7.13941634e-01
 -9.76040542e-01 -3.46735930e+00  3.90336323e+00 -6.16241169e+00
  3.94418478e+00  8.21992111e+00 -2.04345379e+01 -2.68693399e+00
 -9.50048542e+00 -3.58290106e-01  8.82149339e-02 -2.96296120e-01
 -2.53260612e-01  2.12976292e-01 -4.40626144e+00 -2.37265393e-01
  8.60756683e+00 -3.54743266e+00 -3.45446134e+00  1.89538991e+00
 -7.66000822e-02  3.65471840e+00 -2.18022913e-02  1.48943937e+00
 -5.47309542e+00  3.09293661e-02]
[-2.52009583e+01 -9.46686864e-02 -6.27358109e-02 -8.10949087e-01
 -1.87933341e-01 -1.12726402e+00 -4.36308479e+00 -1.23361659e+00
 -1.42338231e-01 -4.22275782e-01 -2.36596078e-01  7.10806251e-03
  3.67427111e+00 -6.93263113e-03 -2.30127797e-01 -3.79389405e-01
 -1.42378926e+00 -2.99132913e-01  9.70635831e-01 -9.62783396e-01
  6.18945900e-03  8.63384902e-02 -1.93304491e+00 -2.71325499e-01
 -8.05309042e-02 -3.44013631e-01  1.04969239e+00 -1.05992064e-01
 -3.46729469e+00 -2.59503961e+00 -4.71104026e-01 -1.38963282e+00
 -4.00133431e-01 -1.23330839e-01 -3.92315769e+00 -1.63504511e-01
  3.59447226e-02 -2.65421450e-01 -7.43619949e-02 -7.12487459e-01
 -2.48945177e-01 -1.17832828e+00 -1.88186049e+00 -2.15823233e-01
 -2.45484248e-01 -8.79449397e-02 -1.66357830e-01 -1.60056245e+00
 -3.53266835e-01 -1.91302884e+00 -4.65513229e+00 -2.98941731e-01
 -2.10831657e-01  6.07562214e-02  8.71230513e-02 -1.70389354e-01
 -2.22489834e-01 -7.49917626e-01 -6.87974170e-02  1.02756312e-02
  6.45687103e-01 -3.46798092e-01 -7.93512869e+00  6.00938313e-02
 -6.95080757e-01 -4.53813761e-01  1.21283732e-01 -4.58292961e-02
 -3.60361394e-03 -5.46990490e+00 -5.11707211e+00  6.58138767e-02
 -2.45919681e+00  9.18079093e-02 -1.80103798e+01 -1.13921754e-01
 -3.69059443e-02  1.58318654e-01 -3.29068810e-01 -7.50230700e-02
  3.77346611e+00 -2.32636526e-01 -1.97953004e-02 -1.17468476e+00
 -9.52142119e-01 -1.36508942e-01  3.34774032e-02 -1.01393647e-01
 -1.93768829e-01 -2.89629281e-01  4.41485792e-02 -8.65490809e-02
  8.31211433e-02 -1.27931729e-01  5.34919381e-01 -4.54423523e+00
 -6.36196062e-02 -8.63854313e+00 -4.19211245e+00  7.75530636e-02
  4.02488768e-01 -8.77110898e-01 -8.82126272e-01 -2.67817706e-01
 -1.20374873e-01 -1.93050861e-01 -1.48475170e+00 -1.52679831e-01
 -4.55279611e-02 -9.31306243e-01 -9.45631504e-01 -1.18281126e-01
 -2.30901003e-01 -2.23587990e-01 -1.26163018e+00  8.58894825e-01
  7.53813684e-02 -8.53547513e-01 -7.41448522e-01 -6.16602945e+00
 -1.71601862e-01  3.09834955e-04 -5.40132380e+00 -6.13667369e-01
 -1.79132390e+00 -4.14673001e-01  1.65846244e-01 -9.58781481e-01
 -1.21509862e+00 -1.09383726e+01 -2.59986067e+00 -5.93488514e-02
  6.00353062e-01 -3.84850830e-01 -3.67224449e-04 -1.29634857e-01
 -8.51165131e-02  3.35152656e-01 -9.28662494e-02 -8.75058472e-02
 -3.29403043e-01 -2.98405910e+00 -4.30552989e-01  1.30691230e-01
 -1.10329599e+01 -1.42955580e+01 -2.16837510e-01 -8.47461987e+00
  1.44017739e-02  6.48524538e-02]
[-6.4775987e+00 -1.1498772e-01 -2.5538798e-02 -3.9448631e+00
  5.7952508e-02 -1.3993197e+01 -9.1109123e+00 -4.0639240e+01
  1.9263142e+00  4.0251505e-01 -1.6731639e-01  8.2213804e-02
 -5.8397961e+00 -1.0536027e-01 -7.9370752e-02  2.5662309e-02
  3.6263330e+00 -2.0715438e-02  1.4382989e+00 -1.2885814e+00
 -3.4950441e-01  9.0840197e+00 -1.1460434e+00 -2.2994061e+00
 -8.3522834e-02 -1.3150965e-01 -5.5980215e+00  4.5109149e-02
 -1.3474997e+00 -4.1829438e+00 -6.6181846e+00 -6.6090379e+00
 -1.1446122e+00  6.4156383e-01  8.7296638e+00 -2.7014259e-01
 -4.7618028e-02  2.4540578e-01 -2.6014489e-01 -2.5012050e+00
 -5.1910721e-02 -1.7948515e+00 -8.3767450e-01 -2.5451357e-02
  3.3644241e+01 -1.0543067e-01 -1.3886403e-01 -1.9478960e-02
 -2.2365117e-01  1.8669349e+00  2.7462752e+00 -1.0232377e-01
 -1.8080278e-01 -4.5120096e-01  1.5932595e-02 -3.9531443e-02
 -2.6034436e-01 -2.7060061e+00 -4.1937947e-02 -1.5805510e+00
  1.0858228e+00  3.6761048e-01 -4.7040597e-01  4.6212435e-01
 -3.4168808e+00 -3.9744525e+00  3.4659058e-03 -1.5281448e-01
 -4.0436068e-01  1.4319713e-01 -1.2402027e+01  9.0641356e-01
  5.3905338e-01  8.8480592e-02 -7.6841488e+00  7.3056680e-01
 -3.7359333e-01  7.2064555e-01 -1.2985589e-02  6.3731146e+00
 -4.5003505e+00 -2.5195351e-01 -6.4985439e-02 -4.1090841e+00
  3.8275373e-01 -4.6150875e-01  7.1267108e-04 -1.2869638e-01
 -9.1830373e-01  1.8287729e+01  3.8015645e-02  1.4942645e-01
 -5.6828833e+00 -1.2273302e+00 -1.3941135e+00 -1.7193902e+00
 -1.4963925e-01 -3.1801028e+00 -1.7057934e+01 -1.9903405e-01
 -1.1549767e-01 -3.3097149e+01 -3.1625485e-01  7.3138781e-02
  4.8318412e-03 -1.4489560e-01 -3.6833003e+00  5.9890050e-02
  1.3918701e+00 -1.3557192e+00 -1.1350952e+00 -3.2525167e-01
 -3.4764087e-01 -8.3700151e+00  3.2611277e+00  1.3795601e+00
  7.9123968e-01 -4.3004200e-01 -3.0775912e+00 -3.5655272e-01
 -1.4959645e+00  2.9596629e-02  3.9458516e+00 -5.9670138e-01
 -4.1357918e+00  8.9906567e-01 -2.2390254e+00 -1.6599346e+00
 -2.8726635e+00 -3.8343966e+00 -3.4942942e+00 -1.7990613e+00
  2.3774345e+01 -7.3316306e-02  3.6539674e-02 -1.8498236e-01
 -2.2966167e-01  2.2671889e-01  3.5764799e+00 -1.1059985e-01
 -2.1014521e+00  1.2891574e+00  1.3899531e+00  2.3022416e-01
 -5.3480528e-02 -6.2335982e+00 -1.7845495e-01 -2.2370563e+00
 -7.7449471e-02 -7.6640382e-02]
[-5.95419550e+00 -1.68990314e-01  1.51928738e-02 -6.19598198e+00
 -1.77166834e-01  1.64942630e-02 -1.18032999e-01 -6.00520468e+00
 -1.20731938e+00  1.43580630e-01 -6.86285421e-02 -8.39943513e-02
 -6.31629801e+00 -1.75622240e-01 -7.79220760e-02 -1.90528128e-02
 -1.11097395e+00 -1.09322689e-01 -3.40239668e+00 -5.50871849e+00
 -3.47502500e-01  5.79548740e+00 -1.05189011e-01  4.42104429e-01
 -1.78801686e-01 -1.46749273e-01 -1.61780605e+01  1.46781681e-02
 -1.96153313e-01 -7.90867507e-02  2.44837475e+00 -1.11502528e+00
 -3.66968560e+00  1.27690360e-01 -7.04161644e-01 -1.93223476e-01
 -1.23736925e-01 -8.39869305e-02 -1.24377862e-01 -1.21283603e+00
  3.09961382e-02 -6.12935238e-02 -3.35065842e+00  4.62718271e-02
 -1.36312819e+01 -1.14523542e+00 -2.02929929e-01  2.89656937e-01
  1.34269241e-02  2.26013637e+00 -1.94736016e+00 -3.85872908e-02
 -1.05789341e-02  4.94027995e-02 -8.01281855e-02 -1.79883856e-02
 -2.78695703e+00 -4.69164848e+00  1.07413948e-01  2.62123257e-01
 -1.74858284e+00 -1.63315117e-01 -1.14787407e+01  1.73884451e+00
  4.46525216e-02 -9.55616283e+00  5.07382937e-02 -3.38752531e-02
 -4.68906939e-01  5.04256003e-02 -2.36714401e+01  2.06217670e+00
 -5.48109913e+00 -1.42729127e+00 -7.22249365e+00 -2.93728137e+00
 -7.04883277e-01 -2.98676133e+00 -6.33237734e-02  8.78727055e+00
 -4.74153566e+00 -3.64782643e+00  1.21714948e-02 -3.41487694e+00
  7.59285763e-02 -6.65248013e+00 -1.86314568e-01  7.25866258e-02
  5.89608908e-01  6.40005875e+00 -1.12936676e-01 -3.99119675e-01
  8.58360767e-01 -5.06854010e+00  1.70418501e-01 -8.14316452e-01
 -2.64780402e-01 -2.33230162e+00 -2.00085220e+01 -1.08231932e-01
 -1.59326717e-01  1.06459260e+00 -3.45924705e-01  1.30466080e+00
 -8.32649320e-02 -1.29763395e-01 -1.58578083e-01  7.45671662e-03
 -3.58712301e-02 -1.66807377e+00  1.58531934e-01 -2.65423417e-01
 -3.89287919e-01 -1.03499851e+01 -2.68497562e+00  4.94750082e-01
 -6.13926768e-01 -8.82563972e+00 -2.09893250e+00 -8.08099151e-01
 -3.16435665e-01  2.16628844e-03  5.26822686e-01  1.41843110e-01
 -6.49700165e+00 -2.66790652e+00  2.88776302e+00  2.00577641e+00
 -9.82006454e+00  1.28757298e+00 -2.15126109e+00 -6.74341249e+00
 -5.70496559e-01 -9.64278653e-02 -1.41009122e-01 -5.40066920e-02
 -1.55805305e-01  9.84970927e-02  1.55855566e-01 -2.30506659e-02
  8.14540777e-03  2.05487156e+00  4.66703773e-01 -6.50049388e-01
 -1.60190746e-01 -8.65983009e+00 -2.86214128e-02 -2.11124778e+00
  2.50900149e+00 -1.51223436e-01]
[-4.36176062e-01 -2.33608276e-01 -2.99643636e-01 -1.01755530e-01
 -3.13832700e-01 -1.15228646e-01  6.03874207e-01 -7.38905044e-03
  4.63317819e-02 -5.27713418e-01 -1.86606571e-01 -1.35365009e-01
  1.42143937e-02 -2.10445702e-01 -2.57507294e-01 -1.27132964e+00
 -1.59633851e+00 -2.62758762e-01 -4.89070127e-03 -1.35800928e-01
  8.18076432e-02 -5.37865758e-02 -5.34845304e+00 -2.18048707e-01
  9.06479955e-02 -8.60319063e-02 -1.85695991e-01 -1.23088613e-01
  1.72182858e+00 -6.71904659e+00 -1.92791119e-01 -2.10617989e-01
 -1.51243538e-01 -3.82293344e-01  1.45733535e-01  1.33700922e-01
  6.37226552e-02 -8.31298709e-01 -4.83553000e-02 -2.84743637e-01
 -3.78508240e-01  1.18918049e+00  7.30584681e-01 -3.14679742e-01
 -5.46423569e-02 -5.43959737e-02  6.75305426e-02 -8.60181570e-01
  2.45496016e-02 -4.97107089e-01  2.92056873e-02 -3.38884532e-01
 -9.18698497e-03 -5.72521426e-02 -2.17904001e-01 -4.31245193e-02
 -1.10137463e+01 -2.14239582e-01 -5.07192433e-01  1.61628708e-01
 -1.69183820e-01  7.60079443e-01 -5.49095333e-01  1.08408487e+00
 -8.22119066e-04  9.16589856e-01 -2.35879838e-01 -1.11336097e-01
 -9.80494097e-02  3.53819847e-01 -3.37733722e+00  4.53216210e-02
  3.05354930e-02 -2.96540827e-01  1.42092335e+00 -6.19047210e-02
 -1.40983179e-01  1.33714926e+00 -1.32869765e-01 -3.60594541e-01
 -4.32419069e-02  1.16280770e+00 -2.19363183e-01  2.38338947e-01
 -2.18841362e+00 -5.29145658e-01 -6.70199990e-02 -1.43932611e-01
 -6.43479943e-01 -4.33129519e-01 -1.35444049e-02 -8.04854333e-01
 -2.95487083e-02  8.63456205e-02 -1.85566843e-01 -3.50726433e-02
 -1.91079110e-01  2.32393050e+00  6.01921439e-01 -5.91155700e-02
 -2.39927828e-01  6.52815819e-01  5.96927464e-01 -1.38292670e-01
 -2.01334685e-01  2.15774812e-02 -1.48733497e-01 -7.67432094e-01
 -7.76816785e-01  1.54446614e+00  1.79982230e-01  1.25033751e-01
 -3.99181098e-01  4.16114414e-03 -2.73045927e-01 -2.49086693e-01
  6.83729872e-02 -3.98209906e+00  9.58710611e-02 -1.20501101e-01
  2.68889099e-01 -2.07618505e-01 -4.19611454e-01 -5.91443956e-01
  1.66206867e-01 -5.88408783e-02  6.10654708e-03  3.46210480e-01
 -1.97351247e-01 -4.77365553e-01 -3.75513956e-02 -8.61659408e-01
 -1.07314005e-01 -4.15147096e-01 -4.66728836e-01  5.86965382e-02
  1.24823019e-01 -1.34834155e-01 -1.58335194e-01  1.58379197e-01
 -3.48922044e-01  6.36306107e-01 -9.08566564e-02 -3.68804932e-01
 -7.02040195e-01 -4.51432467e-01 -4.80766734e-03 -1.17217712e-01
  1.94935709e-01 -6.81053102e-03]
[ 3.07568908e+00 -4.14480716e-01 -4.10774350e-01 -3.47783303e+00
 -5.08296549e-01  2.41000748e+00  2.33258414e+00  3.93328404e+00
  3.96798706e+00 -5.85060358e-01 -1.26620126e+00 -3.69254440e-01
  1.99115982e+01 -2.56924331e-01 -3.87843192e-01 -1.72060323e+00
 -2.81767081e-02 -3.95534068e-01 -2.86599565e+00 -5.01685667e+00
 -3.47669087e-02  3.72322273e+00  6.62308395e-01 -3.53795838e+00
 -4.11824137e-01 -1.79887757e-01  6.56772137e+00 -6.18498743e-01
  3.41711253e-01  4.61342007e-01 -4.88224554e+00  1.99111271e+00
 -9.07932997e-01 -7.32323706e-01 -3.48519707e+00 -3.16477418e-01
 -5.01198210e-02  3.37669015e-01 -1.76793277e-01  7.92895854e-01
 -5.23774385e-01  4.27235037e-01 -6.00532389e+00 -1.87085545e+00
 -1.42271528e+01  1.36152804e+00 -1.45783886e-01 -2.42870390e-01
 -4.74142790e-01 -1.64477825e+00  9.33271721e-02 -4.14617538e-01
 -1.89205647e-01 -7.87854970e-01 -1.06818058e-01 -3.61058712e-01
 -8.95913392e-02 -3.76376700e+00 -1.07175827e+00  3.05482984e-01
 -2.64957070e+00 -1.29525587e-01 -2.27498364e+00  2.87312344e-02
  7.32238352e-01  3.04866338e+00 -2.71097273e-01 -2.32845187e-01
  2.08512783e-01 -2.61079013e-01  1.88929510e+00  1.79437190e-01
 -1.48012142e+01  5.47120512e-01 -4.68867350e+00  6.37038469e+00
  1.56048626e-01 -7.16603546e+01 -1.77384377e-01 -2.00147176e+00
  2.74618268e+00  2.82335234e+00 -4.52559054e-01 -2.65997148e+00
 -5.22528648e-01 -1.31243773e+01 -1.92402944e-01 -1.39664516e-01
  9.21194911e-01  8.54544222e-01 -6.17773458e-02 -1.09399855e+00
 -2.21098042e+00  4.49411058e+00 -4.12483740e+00 -1.25723317e-01
 -3.05443704e-01 -2.30635414e+01 -3.96427417e+00 -4.23112214e-01
  4.47820157e-01 -3.49929124e-01  3.00709814e-01 -2.20091268e-01
 -9.37200040e-02 -2.58258492e-01 -2.89376783e+00 -6.44498050e-01
 -2.47738576e+00  2.53438139e+00 -2.02780132e+01 -4.44841325e-01
 -3.26519996e-01 -1.06039581e+01 -1.11350214e+00 -3.57420981e-01
  5.19665837e-01  2.99001145e+00  4.63234454e-01  3.34325099e+00
 -1.21244931e+00 -1.11619122e-01 -4.22803307e+00  3.47109050e-01
 -4.09409314e-01 -2.54793453e+01  6.02850151e+00 -5.67203617e+00
 -2.72297249e+01 -4.11595678e+00 -1.70705738e+01 -1.67452610e+00
 -1.10903883e+01 -1.17757820e-01 -1.81386483e+00 -2.52788365e-01
 -2.30787128e-01 -5.94315767e-01 -9.79269123e+00 -5.58763444e-01
 -3.57391566e-01 -5.04622726e+01 -1.19477215e+01  1.34964633e+00
  2.48988405e-01 -3.93113606e-02 -2.83570558e-01 -2.25591391e-01
 -3.43275332e+00 -7.61751905e-02]
[-2.18527600e-01 -4.95549217e-02 -2.66659185e-02 -2.88147521e+00
 -3.03813256e-02 -2.13326283e+01 -4.79639626e+00 -3.56279678e+01
 -1.33614435e+01 -1.09445831e+02  1.47470403e-02 -1.94073066e-01
  3.84046364e+00  5.19977044e-03 -1.36093693e-02 -3.13843191e-02
  1.67011529e-01  7.72374123e-03  9.97764349e-01 -9.19725132e+00
 -2.36193940e-01 -1.90141749e+00  7.74243355e-01 -4.89149272e-01
  1.43064186e-03  2.79200505e-02  1.14273620e+00 -1.30449310e-01
 -3.48225564e-01  1.00338018e+00 -2.28722072e+00 -1.81570661e+00
  4.86764759e-02 -8.05354118e-01 -1.09335423e+00  1.76830813e-02
 -1.15864038e-01 -1.77422695e+01  1.91305056e-02  5.87669551e-01
 -1.07738450e-02 -6.67045364e+01 -1.25877104e+01  6.20953925e-03
 -2.11317754e+00  3.02838743e-01 -3.66513804e-02 -7.11024106e-01
  3.18169780e-02 -1.48117432e+02  7.86285102e-01  2.17052512e-02
  3.70078720e-04  1.06831419e+00 -1.10040903e-01 -1.10270903e-02
 -5.13148308e-02  8.12807918e-01 -5.64196296e-02 -6.54815149e+00
  9.81336594e-01 -7.87528634e-01  3.36835057e-01 -5.91228783e-01
 -1.06270194e+00  5.99214017e-01 -8.57207403e-02 -3.64978015e-02
 -1.32365356e+02 -1.19172299e+00  6.76190853e+00 -4.77858696e+01
  1.29384436e-02  8.37041885e-02  2.52794266e-01 -1.24008842e+02
 -5.81183395e+01 -4.63884622e-01 -1.14360265e-02 -2.42931366e+00
 -1.07513703e-01  5.62836766e-01 -7.28315189e-02  3.77121031e-01
 -5.58425188e-01  4.94497508e-01  9.75662144e-04 -5.98514937e-02
  1.32824242e-01 -1.05331850e+01 -1.47011012e-01 -4.93271910e-02
 -6.88699067e-01 -2.27534885e+01 -5.34677386e-01 -4.87201363e-01
  1.45167345e-02  1.12094676e+00 -4.69233799e+00 -1.57074630e-01
  1.74276114e+00 -5.54863214e+00 -5.13567448e+00 -3.42040634e+00
 -7.73390308e-02 -1.82933211e-02 -7.43809283e-01 -1.08981952e-01
 -4.38536137e-01  1.41791785e-02 -1.22281536e-01 -6.43020729e-03
 -2.00912237e-01 -1.63536525e+00 -1.72071922e+00 -8.20515215e-01
  3.14888537e-01  1.30236298e-01 -1.49185181e+00 -1.22317828e-01
  2.70314422e-02 -8.70422125e-02  5.02993584e-01 -2.61875689e-01
  1.20535946e+00  1.75573552e+00 -5.37774801e-01  6.29878342e-01
 -1.16385892e-01 -5.76851010e-01  9.17217493e-01 -2.56120324e-01
 -2.87655568e+00 -4.01812466e-03 -3.16270106e-02 -5.81155298e-03
 -1.22444611e-02 -4.63708550e-01  5.26855648e-01 -2.11898163e-02
 -1.98959112e-01 -2.51528969e+01  4.32706717e-03  2.39552036e-01
 -3.88244539e-01 -3.48370612e-01 -2.82370262e-02  1.46850753e+00
 -5.41902840e-01 -1.02993883e-01]
[-3.72381657e-02 -5.34829088e-02 -7.24617392e-02 -3.01553220e-01
  1.64530337e-01 -4.91890460e-02 -2.79583478e+00 -8.19641650e-02
  1.46780461e-01 -1.45941412e+00  4.06414904e-02 -1.71998098e-01
 -2.15910683e+01  2.43141837e-02 -1.74351260e-01  7.32308403e-02
 -6.76340997e-01 -1.13733128e-01 -2.11635327e+00  7.26986676e-02
 -5.68248071e-02 -8.27398971e-02 -4.05757993e-01 -1.86252221e-01
 -2.60051310e-01 -6.02966957e-02 -4.39804983e+00 -6.15894049e-02
 -5.72741461e+00  3.32143426e+00 -1.02886105e+00 -6.46413803e-01
  5.31373397e-02 -6.23706467e-02 -1.17020488e+00 -4.37376872e-02
 -1.11395411e-01 -2.34764576e+00 -3.31515014e-01 -1.14784919e-01
  1.39022648e-01 -5.56517959e-01 -1.81192502e-01  7.88779110e-02
 -1.59846887e-01  2.11143240e-01 -5.51970564e-02  1.32642597e-01
 -3.62501740e-01  9.17835012e-02 -1.68501168e-01 -1.84442803e-01
  2.56294049e-02 -3.12748051e+00 -2.06085220e-01 -1.73761487e-01
 -3.30220985e+00 -2.92863441e+00 -1.71238989e-01 -2.80640293e-02
 -1.68135333e+00  4.63214740e-02 -8.00716341e-01 -1.58210590e-01
 -2.14581180e+00 -7.80533493e-01 -5.16307764e-02  1.59261767e-02
  2.22508572e-02 -5.34087181e-01 -5.35421610e+00  7.14675291e-04
 -1.28908500e-01 -4.17313874e-01 -1.01663876e+01 -6.22124448e-02
 -1.77909344e-01  9.06220257e-01 -1.04485355e-01  1.09913245e-01
  6.52921736e-01 -4.20529842e-01 -1.85170591e-01 -1.26866782e+00
 -1.84454069e-01  1.43284094e+00 -1.40891105e-01  3.44262533e-02
 -1.18927173e-01  6.57298267e-02  2.62716319e-02 -8.25866818e-01
  1.44834504e-01  6.08418621e-02 -7.14925826e-01  1.85331106e-01
 -2.36385018e-01 -2.96404791e+00 -4.97400522e-01  7.26906657e-02
  2.95309991e-01 -5.52852154e-01 -1.08860207e+00  1.47749290e-01
  8.35308880e-02  1.96049586e-01  1.71642005e-01  2.45797217e-01
  2.53994554e-01 -3.43837380e+00 -3.42813909e-01 -1.68667078e-01
  1.85108870e-01 -2.01076180e-01 -1.23656176e-01 -1.83543026e+00
 -2.01697141e-01 -1.15548527e+00 -6.30984128e-01  9.53760892e-02
 -3.72609913e-01 -5.67349941e-02  1.12323023e-01 -1.06094790e+00
 -1.84341311e+00 -4.29261065e+00 -1.44029036e-01 -1.89399779e+00
  7.27399737e-02 -1.27801561e+00  5.50395370e-01  4.53289151e-01
  1.46445796e-01 -2.03443244e-02 -2.53991514e-01 -1.30809531e-01
 -2.89088458e-01 -1.04741871e-01 -1.16583323e+00  8.23928788e-03
  2.49179639e-02 -1.48440397e+00  3.14391792e-01 -7.86170959e-02
  4.56234952e-03 -6.86794639e-01 -5.61609939e-02  2.66391076e-02
 -5.60874224e+00  6.51312470e-02]
[ 1.1950059e+01 -4.9181962e-01 -2.2808670e-01  1.9800350e-01
 -5.4352012e-02  3.5105805e+00 -3.7092581e-01 -3.9800335e-02
 -2.7968964e-01  4.5507979e-01  2.1894707e-01 -2.6775953e-01
 -2.3162565e+00 -3.4317613e-01 -3.9271164e-01 -1.6840899e-01
 -2.8536756e+00 -1.2822479e-01 -1.2314076e+01 -1.4230539e+00
 -2.6986426e-01 -5.5088067e+00 -9.3291903e-01 -1.1697447e+00
 -2.8446782e-01 -3.4882540e-01 -7.9833043e-01 -4.8702970e-01
 -1.9878509e+00  1.7337033e+00 -3.9891055e+00 -6.1058003e-01
 -1.4069238e+00  5.3492939e-01 -2.2062521e+00 -1.0044331e-01
 -1.4464970e-01  3.1362176e-01 -3.6877418e-01  3.9474308e+00
 -3.1443980e-02 -1.4988005e+00 -2.3856268e+00 -6.8524432e-01
 -6.8068452e-02  1.6432294e-01 -2.0817306e-02 -1.3063453e+00
 -4.7825781e-01  1.8122518e+00  2.5073185e+00 -2.1478882e-01
  2.3545176e-02 -3.0459085e+00  2.6861051e-02 -7.9524465e-02
 -3.6891382e+00 -2.7371892e-01 -7.7517474e-01 -2.9396932e+00
  1.4465073e+00  2.2608173e-01 -2.2373409e+00  4.1188326e-01
 -1.2902559e+00 -3.3126504e+00  5.7466134e-02 -2.8203890e-01
 -1.8335289e-01  7.2338931e-02  2.0317419e+01  1.1732025e+00
 -1.4296506e-01 -1.5748898e-02 -3.7180495e+00 -6.9964643e+00
 -2.9066947e-01 -7.4274316e+00  9.5248282e-02 -4.9289808e+00
  9.8386168e-01  1.5286011e-01 -5.4417557e-01 -2.2624800e+00
  2.8574067e-01 -7.3335185e+00 -2.6809132e-01 -8.1223004e-02
 -7.6248670e-01 -2.0608292e+01 -1.0505416e-01 -1.6265236e-01
 -4.4101337e-01 -1.2418137e+01 -1.0586137e+00  1.6548810e+00
 -3.6457226e-01 -3.6825335e+00  2.2077152e+01 -1.0473919e-01
 -1.4532745e-01 -2.6677445e-02 -3.0274686e-01 -2.7908585e-03
 -1.7962676e-01 -2.1288130e-02  5.6483829e-01 -2.7647167e-02
 -2.5643747e+00 -1.6045859e+00 -3.0601788e-01 -7.4983883e-01
 -1.1504507e-01 -2.4767805e+01 -3.2992935e+00 -1.4049759e+00
  5.8554667e-01 -2.6137373e+00  8.2861781e-02 -2.1098806e-01
 -1.0608473e-01 -2.8495640e-01 -1.3878599e+00 -5.1698560e-01
 -6.9025934e-02  3.1051608e-02 -1.5842644e+00  2.0930312e+00
  1.6725532e+00 -5.6393141e-01 -8.9839762e-01 -4.8822501e-01
 -2.0519638e+00 -1.9409777e-01 -6.5641129e-01  8.3299661e-03
 -3.7725830e-01  3.2652026e-01  2.9427576e+00 -5.8585808e-02
 -3.6108047e-01 -1.1049479e+00 -4.2374349e+00  3.3001748e-01
 -1.2042079e+00  6.2417746e+00 -4.0678915e-02 -1.0197190e+00
  1.8678925e+00  1.3882759e-01]
[-1.38920248e+00 -2.28069387e-02  4.28339802e-02 -5.55281416e-02
  5.42766526e-02 -2.01211438e-01 -5.37749119e-02 -1.01229981e-01
  6.35823235e-02  3.68807733e-01 -4.15098995e-01 -1.73988976e-02
 -1.62622690e-01 -1.85246527e-01 -9.85217560e-03 -2.16307431e-01
 -4.66623694e-01  3.67903337e-02  2.91681159e-02 -1.46167642e-02
 -1.43057674e-01 -9.49601606e-02 -8.36798325e-02 -2.30340481e-01
  5.51673695e-02  4.06456031e-02 -1.64132690e+00  3.37075651e-01
 -1.34201422e-01 -1.47156864e-01 -2.45036781e-01 -1.41742930e-01
  1.23830095e-01 -9.58201215e-02  2.28343591e-01 -5.11267632e-02
  9.86859798e-02 -1.82200924e-01  8.23699310e-03  5.88070415e-02
  6.67066276e-02 -2.96208411e-01 -1.65468648e-01 -4.16397303e-02
  3.72881368e-02 -1.97147489e-01  4.44476753e-02 -2.48683384e-04
 -1.65557429e-01 -1.31974533e-01 -4.33231145e-02  3.18442844e-02
 -2.81644583e-01 -8.74235183e-02  7.56521821e-02 -3.06790411e-01
 -1.47108853e-01 -1.10723495e-01 -8.90316367e-01 -1.88881859e-01
  9.02086645e-02  7.77914152e-02 -1.11661696e+00  3.38584930e-02
  2.27246076e-01 -3.14986743e-02 -5.32194152e-02  5.57486117e-02
 -1.29026175e-01 -2.14384720e-02 -9.75883842e-01 -2.08420709e-01
 -2.53821820e-01 -1.93688534e-02  1.55590758e-01 -3.14148456e-01
 -1.56917244e-01 -1.81256667e-01  2.52769053e-01  2.44744256e-01
 -9.09290090e-02 -1.28260314e-01 -1.90256104e-01  1.20548524e-01
  3.10265808e-03  4.68951426e-02 -5.71945757e-02  7.12372139e-02
 -2.82415245e-02  4.32465635e-02 -9.59426761e-02 -1.24222435e-01
 -1.58062816e-01  3.00287101e-02  3.88235569e-01  1.46495610e-01
 -2.06139892e-01  6.57488126e-03  1.36996850e-01  4.61311750e-02
  6.21505976e-02  1.82758570e-01 -8.64279345e-02 -6.68303370e-02
 -1.87394872e-01  1.39925882e-01  1.97183624e-01  8.62447247e-02
 -2.19605118e-01 -1.96033388e-01 -1.29661918e-01  3.15705203e-02
 -1.16283692e-01 -1.26009777e-01 -2.80583687e-02  4.83391434e-01
 -1.00512311e-01 -1.19355433e-01 -1.34861231e-01 -2.18428761e-01
 -1.26132369e+00 -6.56219050e-02 -3.13943893e-01  3.04225445e-01
 -1.77777648e-01  6.49107099e-02 -7.73580074e-02 -3.85720313e-01
  4.64907400e-02  1.95191018e-02 -6.36015952e-01 -8.68617594e-01
 -3.31573226e-02 -4.34569642e-02 -6.88725829e-01 -9.54236016e-02
  6.88780323e-02  6.55977130e-02 -2.55487766e-02 -2.33163089e-01
 -1.31403655e-01 -1.26955733e-01 -6.04384005e-01 -3.97614539e-01
 -1.21041045e-01 -7.00284541e-02 -6.85238391e-02  2.47043855e-02
 -1.46382704e-01 -3.90224010e-02]
[-1.12884960e+01 -3.46342027e-01 -1.19376451e-01 -6.72266340e+00
 -5.63663580e-02  1.10280609e+01 -3.75694335e-01 -6.56294048e-01
  5.13405621e-01  6.41395710e-03  5.13813794e-02 -3.01344246e-01
 -1.02004528e+01 -3.15846413e-01 -1.64623499e-01 -2.67879874e-01
 -6.70425987e+00 -2.63406873e-01 -3.85485917e-01 -7.08900452e+00
  1.79983243e-01 -2.46592975e+00  3.30200404e-01 -6.10587358e-01
 -2.73541003e-01 -2.74503082e-01 -5.64008117e-01 -6.76444843e-02
 -6.46488237e+00 -2.97172022e+00 -1.59218187e+01 -1.37029827e+00
  1.28003979e+00 -1.21009976e-01 -3.57873845e+00 -1.80943787e-01
 -4.78168949e-03  2.41128504e-01 -8.04798156e-02 -1.59760952e+01
 -2.20861107e-01 -1.27814746e+00 -1.00517426e+02 -3.46145988e-01
 -8.23958302e+00  1.12419116e+00  8.16534460e-02  8.69061279e+00
 -2.78794557e-01 -4.57218498e-01 -1.72050869e+00 -2.70553738e-01
 -7.52982199e-02  3.15064168e+00 -2.60165453e-01 -1.76235855e-01
  4.68390083e+00  7.26558920e-03 -1.15365160e+00  1.39814627e+00
 -1.95794272e+00 -7.00290918e-01  1.93356204e+00 -4.13256258e-01
 -9.94381905e-01  5.15635014e+00 -1.17459759e-01 -1.06156990e-01
 -3.31374645e-01 -3.95990491e-01  6.53017044e+00  5.31537950e-01
 -5.28369606e-01  5.92312157e-01 -7.43355930e-01 -5.47820807e+00
  1.72910348e-01 -3.01188618e-01 -2.43151456e-01 -1.25029385e+00
 -1.75804098e-03 -3.94353479e-01 -1.81887686e-01 -1.49799609e+00
  8.77166986e-02  2.82450747e+00 -1.13144979e-01 -1.59222901e-01
  7.22492754e-01  2.73343110e+00 -1.83818981e-01 -1.21540761e+00
 -1.87702930e+00  1.83641834e+01 -7.89608419e-01 -2.67448306e+00
 -1.49040505e-01  1.29060149e-01 -2.24240284e+01 -2.87899941e-01
  6.24219835e-01 -6.69197035e+00  6.82287738e-02 -1.06758475e-01
 -2.17067480e-01 -2.14126617e-01  1.41871348e-02 -1.78409830e-01
  3.54062557e+00  1.56369078e+00 -2.74302459e+00 -1.22255909e+00
  5.63511908e-01  3.98366547e+01  1.61277485e+01  2.23435187e+00
  6.94571733e-01 -5.08590266e-02 -2.38753963e+00  3.15543592e-01
 -1.90880322e+00  5.65849058e-03  1.72922349e+00 -7.56000161e-01
 -1.13024890e+00 -2.38370824e+00  3.14007521e+00 -5.55909824e+00
 -7.49494731e-02  1.85868883e+00 -5.31448460e+00  5.15839481e+00
  3.75039005e+00 -2.48053297e-03 -1.41429436e+00 -1.93092197e-01
 -3.14537376e-01  9.63198766e-02 -4.48160076e+00 -1.30670846e-01
  9.72152352e-01 -1.05268586e+00  1.09054003e+01  1.77085519e+00
  9.15142596e-02 -3.17250562e+00 -1.98847532e-01  5.91943324e-01
 -3.72301636e+01 -1.20412208e-01]
[-2.8205439e+01 -2.5409609e-01 -2.2824879e-01 -1.0997001e+01
 -1.9824290e-01 -1.9548828e+01 -1.5984920e+00 -7.7095942e+00
 -6.4597268e+00  2.9818614e+00 -2.5759083e-01 -3.7755629e-01
 -5.7209164e+01 -1.4356376e-01 -3.1458518e-01 -3.8634950e-01
 -2.5987918e+00 -2.8478041e-01 -2.6520760e+01 -2.0542009e+01
 -1.3179344e-01 -1.6647591e+01 -7.3228898e+00 -1.0854566e+01
 -3.2887346e-01 -3.7152851e-01 -2.6673767e+01 -3.3846235e-01
 -9.6295106e-01 -1.0906008e+01 -2.7743847e+01 -2.8676855e+01
 -2.4930611e+00  1.6519563e+00 -9.7221966e+00 -3.4588894e-01
 -1.6079521e-01  3.7851782e+00 -3.4512800e-01 -9.2388582e+00
 -2.8603354e-01 -3.3634498e+00 -1.3424955e+01 -3.5694841e-01
 -3.7927780e+01  6.2261524e+00 -1.2339188e-01 -7.7634768e+00
 -4.8187870e-01  5.8605437e+00 -4.8707852e+00 -4.2629671e-01
 -3.1884187e-01 -2.2095104e+01 -2.5820717e-01 -2.7220371e-01
 -2.0903306e+00 -6.0432873e+00 -7.9971021e-01 -1.6598934e+01
 -1.3882913e+01 -3.5155525e+00 -1.6690961e+00 -2.4076622e+00
 -9.9162722e+00 -9.5924578e+00 -1.6591623e-01 -2.1946421e-01
 -4.0994424e-01  1.0173474e+01 -6.8253090e+01  5.8383598e+00
 -6.6181598e+00  4.8173466e+00 -2.3351192e+01 -1.0786885e+00
  1.7985065e-01 -8.6581125e+00 -3.1410068e-01 -1.0804679e+01
 -1.8897095e+01  1.0891789e+01 -2.4179916e-01 -3.0392048e+00
  2.1251700e+00 -4.6464276e+00 -2.2051670e-01 -1.6103049e-01
  4.4110088e+00 -3.6991810e+01 -2.1751952e-01 -9.2949659e-01
 -4.6488959e-01 -1.3256078e+01 -8.1439924e+00 -1.9759434e+01
 -2.9608333e-01  6.3246531e+00 -6.8912506e+01 -1.9805069e-01
 -1.5125888e+01 -1.0681050e+01 -1.0761658e+00  9.0165573e-01
 -2.1481639e-01 -1.0089708e-01 -9.9082394e+00 -2.1344161e-01
 -8.2384253e+00 -3.2297199e+00 -2.6599956e+00 -5.7046866e-01
 -5.0559998e-01 -2.6693008e+01 -2.0473680e+01 -1.1558521e+01
  8.3134785e+00 -3.5160792e+00 -1.2934739e+01  8.4079113e+00
 -1.6166326e+00 -1.9064015e-01 -7.1818085e+00 -6.1798668e+00
 -2.2667475e+01 -1.8996721e+01 -1.3105294e-01 -2.6363972e+01
  1.5233959e+00 -5.8415627e+00 -2.5224442e+01 -7.5310349e+00
 -1.6393309e+01 -3.2903519e-01 -9.0395826e-01 -2.4124455e-01
 -3.2605839e-01  2.6934254e+00  3.0869117e-01 -5.0460505e-01
 -8.9550161e+00 -1.6315605e+01 -2.8536987e+00  6.2342792e+00
 -6.4950347e+00 -1.1630587e+01 -3.0994090e-01 -1.7676867e+01
 -1.3424364e+01 -6.5767623e-02]
layer 5 Activation
relu
layer 6 Dense
150 15
[-0.0061997  -0.00743792 -0.03919298  0.00150976 -0.09258119  0.03388775
 -0.02198141  0.01864697  0.01518449 -0.0141019  -0.00249593 -0.0411041
  0.00972728 -0.02951756 -0.00661144]
[-0.08680979 -0.2500593   0.30504557  0.07161395  0.23710854  0.00509299
 -0.04504694 -0.15566692 -0.14209567  0.01260976 -0.06487187  0.12804317
  0.05051946 -0.08860782 -0.0376839 ]
[-5.8612119e-02 -2.4330023e-01  4.0681050e-03 -8.0673665e-02
 -5.1284809e-02  2.5140843e-01 -4.1032579e-02  7.2551973e-02
  2.1198127e-01 -3.7558293e-01 -3.0249072e-04  1.8044263e-01
  1.2142441e-02 -2.2968811e-01 -2.7370316e-01]
[-0.14719068 -0.09143653 -0.14937618  0.36707738 -0.2387649  -0.13101257
  0.08781783 -0.00305978 -0.23104194  0.02801159 -0.11098561 -0.11989447
  0.06713156 -0.07341875 -0.27613324]
[ 0.17331882 -0.07210962 -0.13319574  0.03962958 -0.05951733 -0.13818568
 -0.1397828   0.0918772  -0.07777172  0.12487812 -0.10018748  0.05633713
 -0.00080571 -0.11249907 -0.11377781]
[ 0.07002848  0.02466997  0.0203846  -0.08532017  0.07047344  0.09621287
  0.0064932  -0.02168027  0.06098219  0.01383824 -0.10751215 -0.06166858
 -0.0284095  -0.03480631 -0.05317693]
[ 0.0582844   0.02193487  0.01037986  0.10083593  0.30028757  0.17458035
  0.12756003  0.09658309 -0.0588777  -0.03163658  0.17334908  0.25096667
  0.00042629 -0.20858565 -0.2948436 ]
[-0.12175765 -0.00314651 -0.06005809  0.11074711 -0.04752343  0.0503929
  0.13746512 -0.0099791   0.01855054 -0.04200559 -0.02977616 -0.00430754
  0.02092577  0.06645647 -0.00243372]
[-0.06588329  0.04340265 -0.01706977 -0.04604188 -0.15304679  0.17343399
 -0.02292443  0.02568956  0.01371392 -0.00513923  0.02970798 -0.17405152
  0.03478463  0.02103123  0.04778071]
[ 0.05581132 -0.02456667 -0.00174347 -0.00810642  0.02205781  0.05274151
 -0.00949114 -0.00975904  0.04225635 -0.01223192  0.0246145  -0.12721016
 -0.18630154  0.04744112  0.02010618]
[-1.38686925e-01  9.18428898e-02 -1.42463539e-02  7.82373026e-02
  3.35072138e-04 -2.13750169e-01 -3.15058917e-01 -2.31193945e-01
 -8.26353952e-02  1.99591115e-01 -3.52820486e-01 -3.08036804e-01
  2.36756608e-01  2.55065769e-01  1.01583794e-01]
[-0.02660818 -0.00740945  0.0574553  -0.03762367 -0.00214865 -0.10287403
  0.05421818  0.00186798  0.01358143  0.13608272 -0.19438058 -0.14251839
 -0.01196858 -0.15474242  0.12232121]
[ 0.00366121  0.00345354 -0.04839814  0.0153838   0.04044515 -0.04858201
  0.04107068 -0.02661311 -0.00691053 -0.02294314  0.00412584 -0.00644254
  0.01051779  0.02658213 -0.00830344]
[ 0.12832941  0.06515801  0.16760753 -0.00337264  0.02611656 -0.06690055
  0.11419187  0.04693578 -0.07529702  0.12559575 -0.2047075  -0.10536043
 -0.08447934 -0.14094779 -0.10222562]
[ 0.00185652  0.0303458   0.06369735 -0.19252971  0.01807319 -0.03198799
  0.06705333  0.14465627  0.09699923  0.06552516  0.1557668  -0.10617052
  0.04476089 -0.00960818  0.05816047]
[-0.16185139 -0.14316952  0.17303163  0.18825096  0.11826419  0.03185784
  0.108316   -0.11497834 -0.1563385  -0.03039472 -0.03705443 -0.01084248
 -0.00631014 -0.15467902  0.08967409]
[ 0.02403027  0.04865856  0.01845333 -0.05718171  0.03570499 -0.03073954
 -0.01484302 -0.04035515 -0.01624141  0.01955645 -0.01179175 -0.03491518
  0.02321921  0.0444178  -0.04190275]
[ 0.09363416  0.05112962  0.18337668  0.01199737 -0.14701031  0.11799344
  0.13151951  0.21346928  0.10138299  0.07820475 -0.10033565  0.11559464
  0.01595275 -0.0434109   0.09718207]
[ 0.18342243  0.09666937 -0.05181796  0.02700206  0.01177287 -0.1429636
 -0.02692809  0.04521449  0.09179915  0.13510686 -0.08431125 -0.12720922
 -0.03312818  0.14108267 -0.09671555]
[-0.13275336  0.15878062  0.02940973  0.0607991   0.11479404  0.18205759
 -0.14016062  0.12246903  0.06858501  0.33155966 -0.04826705  0.13247879
  0.03119766  0.27787533  0.14225948]
[ 0.22072828 -0.0077389   0.18501528 -0.03088931 -0.04807743  0.25607365
  0.11354535  0.12556088 -0.1219517   0.07289488 -0.14610982  0.17105927
 -0.13797665  0.02433772 -0.17758632]
[-0.08452355  0.22738308 -0.13084397 -0.24268883  0.16541442 -0.00254148
 -0.2246363  -0.15905052 -0.22284587 -0.07164224  0.08576938  0.01779779
  0.0750309   0.11285821 -0.03055527]
[-1.7013507e-02 -7.8361146e-03 -1.6234534e-02 -5.6164130e-03
 -5.7529053e-03 -1.1428076e-02  1.0047158e-02 -1.3671682e-02
 -3.3846274e-02  1.0177679e-02 -1.3297492e-02  4.9533621e-05
  6.4600706e-02 -4.9660690e-03  2.4637748e-02]
[-0.06027273  0.0238709   0.0520057   0.00558477 -0.08911902 -0.04744552
 -0.0057066  -0.00299926  0.03480851 -0.01039873  0.00387603  0.06154029
 -0.11764234  0.04587354 -0.05030831]
[ 0.0008556  -0.01375981  0.11193499 -0.1327918   0.0945012   0.03657836
 -0.00038613  0.19984543  0.1916363   0.03535357  0.22685337 -0.06061487
  0.04073963 -0.13983849  0.04153415]
[ 0.0106342   0.00748092  0.24064739  0.11245789 -0.05159291  0.20707762
 -0.13740648  0.00641315  0.11611669  0.02288798  0.1415396  -0.12539878
  0.00793555  0.03764204 -0.22586663]
[ 0.00613477  0.01357964  0.03550166 -0.02071735 -0.03973355  0.04019629
  0.02688925  0.01185604  0.03797761 -0.00477685  0.00272062 -0.03453909
  0.02499094 -0.0102322   0.01799109]
[ 0.10741109 -0.04971589  0.19993252 -0.02682112  0.03660705 -0.10778282
 -0.03328939  0.12955807  0.05898996 -0.06379975 -0.17432    -0.06108453
  0.06706608 -0.13281383  0.05411717]
[-0.04807341  0.00813557  0.00019379  0.04447726 -0.03976419 -0.05499653
 -0.03320993  0.04425307  0.00428138  0.06133892  0.02772116 -0.00859697
 -0.07790746 -0.05873841 -0.0238615 ]
[ 0.00991761  0.03417741  0.02222202  0.00302523  0.00375167  0.05403819
 -0.01769592  0.00190863  0.03282308 -0.00354478  0.04072719  0.01126412
  0.04129041 -0.04573537 -0.0020679 ]
[-0.10370775 -0.13323101  0.03421389 -0.02336824 -0.00953409  0.05862793
  0.0507761   0.02081893 -0.03207244 -0.20840392  0.04633914  0.09450769
 -0.02717288  0.05985553  0.11256958]
[-0.17549172 -0.10898852  0.08807421  0.0062214  -0.16337287  0.05255009
 -0.00506357  0.20139676 -0.08696858  0.33940223  0.00345518 -0.11871216
  0.01366241 -0.26022503 -0.0792484 ]
[ 0.02179988 -0.0428966  -0.02943926  0.0774921  -0.01213044 -0.01509342
  0.1311123   0.03785856  0.13551235  0.00500058 -0.1285651  -0.1702858
 -0.00108384  0.1173895  -0.0999987 ]
[-0.00332331  0.00090821 -0.00562474 -0.02860123  0.01646911 -0.02964102
  0.02243046  0.0278969   0.00664042 -0.00113304  0.00476476  0.0163052
  0.1021921   0.00371317 -0.02468426]
[ 0.00336569  0.04058762 -0.06670336  0.00084775 -0.06809761  0.00279051
  0.04200216 -0.00033021  0.03652137 -0.0428187   0.02010588 -0.05331817
  0.02624677 -0.00399524  0.01654468]
[-0.15960094  0.02396945  0.06471383 -0.01662731  0.11134733 -0.07337511
 -0.14296946  0.16298246 -0.06924497  0.02648829 -0.14165226 -0.08038259
 -0.01254305 -0.09662615  0.077309  ]
[ 0.18151996  0.0904915  -0.05154275  0.10569987 -0.08605908 -0.0814077
  0.15019888  0.1107052  -0.13613762 -0.04046778 -0.01599556  0.11084003
 -0.00112284  0.05790183 -0.04445833]
[ 0.04606953  0.14459392  0.01573349 -0.07473104 -0.13528393 -0.08964369
 -0.1416459   0.07918514  0.09373852 -0.13143776 -0.07095032 -0.07467175
  0.3177901   0.02961219 -0.07946679]
[ 0.0425695   0.12291513  0.17666706 -0.21458626 -0.05134465 -0.0249313
  0.08288354 -0.12326567 -0.17068166 -0.15283187 -0.11103906  0.11958802
  0.05611436  0.02131854  0.07697003]
[ 0.01488924  0.00349951 -0.03670996 -0.01027788  0.01845856  0.04348367
 -0.0149555   0.00789446 -0.00576672 -0.00810754  0.01581455 -0.03622101
  0.04935492 -0.02133852 -0.03728795]
[-0.01836384  0.1099909  -0.16766955  0.14756903 -0.10631137 -0.10403623
  0.15028794  0.16049172 -0.06872309 -0.01333553 -0.02966901  0.14438803
  0.00417848 -0.19138217  0.01205555]
[-0.02924942  0.05359278  0.01465128 -0.04851777  0.02802493  0.04917187
  0.04756057 -0.01678062  0.08866837 -0.02969031 -0.03804415  0.03213621
 -0.09737232  0.01577882 -0.0206544 ]
[-0.08589447  0.00372711  0.05692131 -0.35413888  0.12210625 -0.290553
 -0.11418435  0.05067638  0.19849764 -0.07658038 -0.26125413 -0.02009727
 -0.04688795  0.02866598  0.09026302]
[-0.06931716 -0.01387171 -0.11348604  0.00490257  0.03226119  0.1088111
  0.08137976  0.02885342 -0.01650542 -0.04366355  0.00921752 -0.14310631
 -0.00064251  0.04849225  0.0826285 ]
[-0.10804742 -0.02570115 -0.03074845 -0.1196685   0.16402829  0.06627534
 -0.06459939 -0.02893388 -0.20455444 -0.00239977  0.0431556   0.04153551
 -0.00933138 -0.1409055   0.04061209]
[ 0.00329258  0.00187906  0.00886491  0.00722559 -0.013357   -0.01008563
  0.00467144 -0.00402488 -0.00165437  0.00406641 -0.00632695 -0.01198645
 -0.09222642  0.01150068 -0.01624162]
[ 0.04704038 -0.01606557 -0.06038205  0.09816469  0.1070279  -0.17285597
 -0.0555546  -0.08209288  0.06515628 -0.00651661 -0.08758406 -0.07583249
 -0.10501172  0.15258725 -0.15564442]
[ 0.03134611  0.02144635  0.00194524  0.00767487  0.03193662 -0.02899628
  0.01527339 -0.00129731 -0.02148665 -0.03204838  0.02050921  0.04419668
  0.04303216  0.03400237  0.02548074]
[ 0.07104687  0.11078613  0.11604054 -0.07356629  0.00459408  0.04399506
 -0.05873546  0.20511283  0.18394737  0.09399335  0.1349399   0.05847423
  0.00502042 -0.04893488  0.03423971]
[-0.08209188 -0.01180643 -0.03648802  0.14113998 -0.04697815 -0.05730889
  0.02168023  0.06336795  0.0649915  -0.02567745 -0.00042922  0.02838064
  0.09832489 -0.0193901  -0.00082449]
[-0.04925408 -0.03024463  0.0170911  -0.01040821 -0.03070798  0.07106669
  0.01259084 -0.01105244 -0.0177536  -0.02792559  0.01591386  0.01233735
 -0.04730815 -0.00666258 -0.0280387 ]
[ 0.06173515 -0.1035913   0.15155083  0.00239372  0.02636166 -0.1303025
 -0.07585616  0.07203744 -0.06029376  0.00811654 -0.01916893  0.04641677
  0.00809715 -0.04563504  0.01704613]
[ 0.106736    0.04140742 -0.18742219  0.16415207  0.1314208  -0.08100948
 -0.21978255 -0.19256774  0.00098856  0.01765491  0.06882125 -0.01263848
 -0.00111259 -0.02252912  0.09290408]
[ 0.028864    0.00839357  0.00170137 -0.04945421 -0.00120206 -0.02861907
 -0.00990446 -0.00863071  0.02258245  0.00235672  0.01088422  0.02489215
  0.04207549 -0.0106768   0.01921329]
[-0.11283235 -0.00773463  0.10672537  0.11083797  0.16468935  0.15501826
 -0.0392592  -0.03058576 -0.06705517 -0.08393761 -0.05904569 -0.04861721
 -0.05317015 -0.01277803 -0.12708397]
[ 0.03809126  0.07722584 -0.04307657  0.06551025 -0.16849466  0.14455113
  0.13128951  0.06909353 -0.0964052   0.07042232 -0.04476324 -0.09888784
 -0.0012233  -0.22526409 -0.12658624]
[ 0.02990301  0.02764744  0.07601553  0.01045022 -0.06745947  0.01520589
  0.04600016 -0.03920572 -0.00302583 -0.01303017  0.04479385  0.0150506
 -0.03735125  0.00861889 -0.00756607]
[ 0.05263138  0.08462742 -0.14331235  0.07530266  0.08539359 -0.08187497
  0.03386022  0.09541959  0.05688269 -0.04013413  0.06412897  0.03576369
  0.00241859  0.0371554  -0.0341035 ]
[-0.00191193 -0.09876813 -0.03006335  0.02016782 -0.15099561 -0.07059701
  0.04016228 -0.19408478  0.06465436  0.07456682  0.05543752 -0.19102699
 -0.00277106 -0.04093854  0.10091662]
[ 0.156171    0.28319058  0.05375067  0.11328667 -0.2550317  -0.03769491
  0.18203445  0.00867696  0.0088578   0.21370804 -0.06190396  0.02324404
 -0.09745734  0.00079233 -0.02685473]
[-0.02496008  0.11458607  0.05670992  0.09466303 -0.01459058 -0.09359042
 -0.0230236   0.11551452 -0.02852565  0.02054638 -0.03824616 -0.04191072
 -0.03380521 -0.0226527   0.05246364]
[ 1.9510394e-02  4.9946114e-02  2.7938476e-03  2.6464019e-02
 -5.8576232e-05 -1.3351297e-03  5.7333197e-02 -3.8859457e-02
 -3.9694849e-02  2.2368249e-02 -4.1381806e-02  5.3383388e-02
  1.0135971e-01 -1.5023520e-02  4.0190589e-02]
[-0.01617752 -0.01551226 -0.08720351  0.04236345 -0.10091507  0.08325256
 -0.0208017   0.03883731 -0.00731558  0.02861265  0.04649542 -0.09660459
  0.02721532 -0.14553855  0.01215206]
[-0.02917276 -0.00593279  0.02890485 -0.00117143  0.00020613 -0.00739094
 -0.02154476  0.02952056 -0.0335932  -0.00177457  0.00036074 -0.02341302
  0.13738859  0.02687928  0.02305451]
[ 0.0608418   0.1349736   0.05949059  0.08111751 -0.12830243 -0.02933563
 -0.10018646  0.0205777   0.02712464  0.13047546  0.07678279 -0.01143482
 -0.08943477 -0.09533285 -0.00530752]
[ 0.03093433 -0.02952474  0.00070308  0.01145117 -0.00461669 -0.03952695
  0.02434757  0.00997732  0.02403179  0.02311428  0.01600243 -0.00148078
  0.04860922  0.02752049 -0.04399534]
[-0.11644141  0.1255406   0.16243634  0.17208892 -0.12044488  0.06712877
  0.16581143 -0.08539052 -0.10180076 -0.1590568  -0.03119296  0.13153595
 -0.04769371 -0.0853213   0.10171609]
[-1.07825963e-05  8.55782703e-02  2.47113511e-01  1.24857835e-01
  2.09395304e-01 -1.42563647e-02 -1.48403838e-01  2.17822179e-01
  9.93321091e-02  8.96352679e-02  1.23529159e-01 -1.14458241e-02
  1.24396989e-04  5.71228415e-02  2.77818944e-02]
[-0.01155431 -0.03159126  0.05790122  0.11319052  0.1771551  -0.021056
 -0.01338387 -0.03764254 -0.07686885  0.01616316  0.05952238 -0.05118328
  0.07718404  0.03643826 -0.0396958 ]
[ 2.4370670e-03  2.3147452e-03 -2.5575510e-03 -4.2414190e-03
 -8.5516265e-03 -3.8655307e-03  2.1937445e-03 -4.2236396e-03
 -4.7486867e-03 -1.9688494e-05  3.0269106e-03  5.1971273e-03
 -9.4356591e-01 -2.7705929e-03  7.6846923e-03]
[ 0.1044675  -0.04895534 -0.07614928 -0.03691584 -0.00550524 -0.07758248
  0.0707697  -0.00376785  0.04510265 -0.08876955  0.09741236  0.03708128
 -0.00494549  0.03490138 -0.08712621]
[ 0.02515599  0.03810812  0.0148984   0.01716745  0.00726543  0.00384166
  0.02405471 -0.0119101  -0.00340193 -0.00793098 -0.03756471 -0.00893419
 -0.12798719 -0.02306533 -0.04326896]
[ 0.05121988  0.15964289 -0.07258871 -0.14808637 -0.02078869  0.07618593
 -0.06536379 -0.12689503 -0.10856368  0.26607454 -0.02619213  0.04251195
  0.12383906 -0.0039622   0.07510225]
[-0.03642057 -0.03407935  0.02883553  0.04514244  0.02771442 -0.03139224
  0.02652068  0.04096167 -0.00319349  0.04191867 -0.05696541  0.01885976
  0.07827277 -0.0561368  -0.0168032 ]
[-0.00790055  0.00406358 -0.04277666  0.10285458  0.10843338  0.04472868
 -0.03923481 -0.04754915  0.09642167 -0.00741444  0.07701784 -0.02106604
 -0.03009858  0.0403933  -0.07545211]
[ 0.02539517  0.0460006  -0.0247037   0.01614668 -0.08677909 -0.00955137
 -0.01143255  0.02250776  0.04011773 -0.00515024 -0.07259267  0.0257171
  0.01822678 -0.00246774 -0.00666128]
[-0.01826802 -0.00540295 -0.00183193 -0.00134635  0.03584605  0.02419793
  0.03039535  0.00861166 -0.00202077 -0.01563987  0.00213796  0.01196255
  0.12125058 -0.02797942  0.01546974]
[-0.00253887 -0.0471452  -0.08151836 -0.01979274 -0.01847241 -0.0400582
  0.02500826 -0.05631922 -0.01154034 -0.00477545  0.09372227 -0.03431379
 -0.03713081  0.05394449 -0.06655826]
[-0.01448805  0.1423362   0.14653756  0.00482749 -0.00061701 -0.08604132
  0.11404066 -0.14368604 -0.05896761  0.05481114  0.09740724  0.11703917
 -0.00218922 -0.06958531  0.00985624]
[ 0.32282305 -0.06460664  0.31751955 -0.24993166 -0.21555474 -0.29974493
 -0.452696   -0.03740167  0.03858585 -0.39771903  0.13693702 -0.22768772
 -0.0132155   0.16328117 -0.2279757 ]
[-0.00662081 -0.05467537 -0.04487931 -0.06178625 -0.05514117  0.0308516
  0.08561087  0.14924638 -0.02596296  0.04622783  0.02809071  0.03089842
  0.07601684  0.00063416  0.04667567]
[ 0.00640308  0.00909156  0.04741868 -0.02921557 -0.00665607 -0.03061371
 -0.0131623   0.04365496 -0.02509919  0.00397024  0.06650744  0.01958707
 -0.03057869 -0.02481302 -0.01649836]
[-0.025267   -0.21865101  0.08228077  0.02229212  0.19186142  0.19231056
 -0.00267864  0.17203395  0.23525316 -0.12120114 -0.00554088 -0.04773901
  0.00295537 -0.07213175  0.04649867]
[ 0.03556078 -0.0280552  -0.00603833 -0.01613975 -0.06230794 -0.0519385
 -0.03179653 -0.01290795  0.04732176  0.06608023  0.08784922 -0.03865607
 -0.00117696 -0.02992696  0.01303655]
[-0.00372565  0.01993414  0.01378561  0.0045835   0.00868851  0.00585658
 -0.01128593  0.01706004 -0.01272438 -0.01435917 -0.00696297 -0.0285399
  0.14061432 -0.02635674  0.0027188 ]
[-0.02791512  0.01190852  0.0043958   0.00477826 -0.00766286 -0.00089497
  0.04419963 -0.00662556  0.00593306  0.00033531  0.01860456 -0.02612271
 -0.02561474  0.02174662  0.00545427]
[ 0.09640004 -0.08914843 -0.10322087 -0.06583185  0.04037379 -0.12626168
 -0.16099079  0.16087236 -0.19475807 -0.05441054 -0.00338473 -0.06906547
  0.02317202 -0.11644424  0.08088583]
[-0.0038475   0.12655848  0.16198234  0.08354794 -0.02689075  0.02151254
  0.1866892   0.1042302   0.02609708 -0.02485259 -0.1914281  -0.17519566
 -0.09067743  0.02224126 -0.18387091]
[-0.01095859  0.01835305 -0.01621084  0.01370437  0.01476855 -0.01102064
 -0.00455554  0.04010636  0.05531401  0.0051788   0.02130822  0.01795699
 -0.06854253 -0.03463879 -0.02230699]
[-0.14326015  0.00688562  0.05074253  0.20304525 -0.0056956  -0.05887728
 -0.21272555 -0.05620507 -0.03024209 -0.21677189  0.07216857 -0.1419254
  0.03684657 -0.15501182  0.05612582]
[-0.12100929  0.02273269 -0.08692966  0.11578757  0.17886057 -0.06893689
  0.18810916  0.08069194 -0.09943515 -0.05111349 -0.04432296 -0.14312203
 -0.0154556   0.05171639  0.02397837]
[ 0.16741858  0.28743    -0.19795357  0.07759903  0.11003112 -0.05062424
  0.24850072  0.15419792 -0.26144397  0.11994778  0.02789753 -0.10165677
  0.00111637  0.24554336 -0.06334159]
[ 2.2354750e-01  8.4383599e-02 -2.1434363e-02 -2.8813126e-02
 -2.8118839e-02 -3.6954233e-01  1.4676115e-01  6.2423572e-02
  1.6153043e-02 -1.4805333e-01 -1.9786333e-01  2.0574717e-01
  3.0916953e-04 -1.9856894e-02 -8.2839914e-02]
[ 0.00873885 -0.04079618  0.04566335  0.04549987 -0.00592937  0.03845284
 -0.01627953  0.00220145  0.05988167  0.08241674  0.04425006  0.04774712
 -0.0254379  -0.07291687  0.08087275]
[ 0.01755195 -0.05803684 -0.05839358 -0.00377384  0.00763741  0.03814786
  0.01422566  0.00846187 -0.01835388  0.0134796  -0.01261653 -0.06049675
 -0.11563608 -0.01892322  0.00286448]
[-0.01115649 -0.09209768 -0.10756255  0.10170629 -0.01867503 -0.01038772
 -0.0082348  -0.0895678  -0.01773888 -0.00086103  0.09786882  0.01630645
 -0.06043629  0.01563151  0.04934485]
[-0.13218641  0.03741065  0.09583343 -0.12271463  0.06407085 -0.1304242
  0.11531242  0.13030086  0.09690225 -0.17131045  0.14860395  0.11667939
  0.04772166 -0.06994122 -0.05498746]
[-0.03710069 -0.01839635 -0.01082985 -0.00592381 -0.00403501 -0.02421071
  0.01957775  0.00398114  0.01137402  0.01582317 -0.0428801  -0.03255496
 -0.01561394 -0.01342238  0.02475621]
[-0.07670826 -0.03984046  0.0859037   0.01043592  0.05558763 -0.10862537
 -0.02615627 -0.12708831 -0.01007446 -0.07014041  0.00382278  0.0368407
  0.01143171 -0.18472813 -0.16273952]
[-0.07758705  0.07055972  0.3292142   0.13251017 -0.03309973 -0.04189439
  0.04091771 -0.01743361 -0.03948963 -0.2779753  -0.06913166  0.07593302
  0.0108959  -0.1838702   0.10812398]
[ 2.6028554e-04 -1.0274216e-03  3.7567029e-04 -1.1134668e-03
 -2.7322473e-03 -1.9414755e-04 -1.0949275e-03  1.4181108e-03
 -2.3266624e-03 -2.4692658e-03 -1.3294250e-03 -7.6920679e-04
  6.8834347e-01  1.2525845e-04 -4.5729676e-04]
[-0.01129573 -0.02004423 -0.05501727  0.01941158  0.17245899 -0.02851939
  0.09639125 -0.05262083 -0.02694175  0.08412649  0.06007643  0.0468835
 -0.01406127 -0.01667456 -0.04217212]
[ 0.00783122 -0.0074696   0.00393321 -0.01095026 -0.00314726 -0.00145936
 -0.00571983  0.00670544  0.00125043 -0.00540717 -0.00585628 -0.00397777
 -0.9730168   0.00702107 -0.01026274]
[-0.04878019 -0.00880937  0.00753517  0.05795004 -0.06204474 -0.09133276
 -0.01593547  0.0065895  -0.03600705  0.00751328 -0.05195917 -0.04351118
  0.07471932 -0.01800217 -0.01037143]
[ 0.05191403  0.12661502 -0.00935419  0.21013011  0.05079805 -0.06683844
  0.18374665 -0.01993924 -0.08340411  0.07375888  0.1784573   0.01101428
 -0.00088329  0.03023803 -0.01842662]
[ 0.02049936  0.07669531 -0.02635144  0.10240523 -0.11371102 -0.10821866
 -0.00279924  0.1180094  -0.03937839  0.13185471 -0.02662417  0.12211609
 -0.12597488 -0.0405338  -0.00218815]
[-0.00735663 -0.16588189 -0.03489672 -0.01966486  0.0941046   0.0822202
  0.14516668 -0.11721843 -0.05310443  0.03183287  0.04079155 -0.01196959
  0.02788431  0.03903998  0.0298935 ]
[ 0.02977682 -0.08329617  0.17777897  0.12763199  0.14311665  0.07582644
 -0.16925576 -0.09786177  0.06193316  0.05118475 -0.02280929  0.07085914
  0.00589943 -0.17272045  0.02154578]
[ 0.02234784  0.00085613  0.00228623 -0.02938748  0.01529571  0.02799858
 -0.02003134 -0.00425767 -0.00676472  0.02691128 -0.02771697 -0.00288711
 -0.0622693   0.02824039  0.01445881]
[-0.02576493  0.0222415  -0.03791119  0.00797514  0.0256683  -0.01809947
 -0.02404569 -0.03319186 -0.06519698 -0.01997967  0.0102132   0.00141212
 -0.04098194  0.01339828  0.02624506]
[-0.00038879  0.07231358 -0.02859348  0.07259444 -0.10178503  0.01065138
 -0.08982633  0.03085181 -0.02547252 -0.01166647  0.03533867  0.01945591
  0.08035321 -0.03767743 -0.04597574]
[ 0.19004005 -0.13089377  0.1163421   0.01243434  0.00372903 -0.01179246
  0.00617846 -0.04134031  0.1402855   0.06038664 -0.19563265  0.05257289
  0.00169185 -0.17103237  0.01646281]
[-1.10177     1.1177977  -1.104932    1.1648121  -1.0353473  -0.6804686
 -0.9178723  -1.1113291  -1.0007331   1.0452522  -0.99340737 -1.2305934
  0.63738036  0.70884585  0.88432366]
[ 0.03503409 -0.01034084 -0.02939775 -0.05053118  0.07613233 -0.09733737
  0.15082489  0.1141516  -0.02610633 -0.04628532 -0.05557001 -0.18233721
 -0.01249687  0.04881911 -0.08545312]
[-0.02348735  0.0462882  -0.06093287  0.02157562  0.04019982 -0.01114293
 -0.0385469  -0.00349244  0.01947823  0.06676779 -0.07140863 -0.03803225
  0.01618616 -0.00313037  0.0733498 ]
[ 0.09893648 -0.3192114  -0.1763737  -0.20191081 -0.02417749 -0.02275423
 -0.05875136  0.08145656  0.04939692 -0.33590275 -0.13342005  0.12223134
 -0.03198825 -0.10954934 -0.21022709]
[-0.0189654  -0.03318802 -0.02589375 -0.062192   -0.00971526 -0.0222141
 -0.01655354 -0.02416019 -0.02382189  0.01094114  0.02645675  0.00294825
 -0.0571666   0.00937157  0.01270136]
[-0.04583311  0.0265116   0.02048513 -0.0143473  -0.03401439 -0.08873469
 -0.03097533 -0.03441613 -0.02370239  0.01292703 -0.06745026  0.00514865
  0.02827461  0.01870424 -0.09221185]
[-0.0293937   0.00375284 -0.01387847 -0.04171083  0.0656683  -0.08240956
  0.01252719 -0.0274833  -0.06855462 -0.06780891 -0.02026602 -0.01032801
  0.04952201  0.08994243 -0.09056223]
[-2.3800340e-02 -7.4447475e-02  4.0897541e-02 -2.0382021e-02
  5.4004617e-02 -4.4503964e-02  5.5222481e-02 -1.4066794e-02
  1.9160630e-02  1.2551386e-02 -3.4213394e-02 -4.5041095e-05
  4.6550013e-02 -1.6397789e-02 -9.8445021e-02]
[-0.11604778  0.11872422 -0.05202638 -0.04132199  0.02639501  0.03710397
 -0.09867757 -0.17290603 -0.00969861  0.03560105 -0.04810153  0.05847013
  0.00182751 -0.00857783 -0.23317571]
[ 0.1499524  -0.10715043 -0.08938154 -0.05895305 -0.08646782 -0.15918672
 -0.08403236 -0.01021001  0.00017942  0.11520524  0.0085456   0.03296847
  0.02344981 -0.14892912  0.16062802]
[-0.09059647  0.01307977  0.07548826  0.12831251  0.03078033  0.04223725
 -0.00474693  0.0639425   0.05642202 -0.08920362  0.01485965 -0.1057191
 -0.02569876  0.1544972  -0.09868915]
[-0.00587099  0.01237424  0.03639377  0.0159224   0.04018668  0.02538297
 -0.01834703  0.00553416  0.02497801  0.0102889   0.00758454  0.00478509
 -0.15991838  0.00043939 -0.0145867 ]
[-0.07303482  0.01801514 -0.01713573 -0.16688369 -0.27774882 -0.03773649
  0.10093682 -0.15727533  0.00559012 -0.10420509  0.04488036  0.01030364
  0.00112551  0.03182827  0.13802266]
[ 0.03870185 -0.03114496  0.00435585  0.03719421  0.00532759 -0.04709363
  0.05910096 -0.03308663  0.03487048 -0.0186592   0.02954155  0.08178657
  0.04728127 -0.00363422  0.00431042]
[-0.00404138  0.00217196 -0.00809491  0.05877833  0.00856913 -0.00292533
 -0.02579522  0.00503577  0.01326202 -0.02438777 -0.02741442  0.00578924
  0.03302055  0.02151662  0.05280275]
[-0.14104897 -0.17175977  0.16262268 -0.02150636  0.02479751 -0.0396605
