layers 10
layer 0 Dense
9 9
[-0.19313766  0.67796266  0.0256573  -0.00246672 -0.01245978 -0.01910042
  0.00667801  0.00485408 -0.01574668]
[-0.09126153  0.21099073 -0.08270906  0.00935688 -0.2797849  -0.29664958
  1.2866433  -0.02243082 -0.09138488]
[-7.9647017e-01  2.2429155e-02  2.6112676e-01 -7.0844340e-04
  8.5762888e-02 -4.4550348e-02  7.1045998e-03 -1.7102044e-02
  4.0507941e-03]
[ 1.15447819e-01  8.83226618e-02 -2.18871045e+00  4.91551880e-04
  1.05148174e-01  3.71688157e-02  7.10855350e-02 -5.35157509e-02
 -1.10760126e-02]
[ 0.00242724  0.00139504  0.00374755 -0.00101546  0.00439122 -0.01271846
  0.00334139 -0.04700578  0.0009972 ]
[-0.01281549 -0.03168201 -0.05449985  0.01912126  0.11173411  0.05432045
 -0.09215432  1.31377    -0.8992408 ]
[-0.05958518 -0.05009815 -0.02284406  9.079079   -0.20010012  3.1923316
 -0.062649   -0.07623509 -0.11025379]
[  0.544306     0.16001888   0.2378066  -10.207883     2.3038259
   0.05275427   0.29860947   1.4184754    0.9825823 ]
[ 0.04410101  0.03143401  0.06967046 -0.03586132  0.2145694  -0.08817557
  0.09506161 -1.5101011  -1.036093  ]
[ 0.5623481  -0.31855193  0.6744911  -8.622094    0.06295139 -2.9794052
 -0.80978864  0.3363086   1.2312312 ]
layer 1 Activation
elu
layer 2 Dropout
layer 3 Dense
9 30
[-0.59007585  1.6198996  -0.9533894   0.145793   -0.3490639  -0.4697017
  4.054342   -0.24745755  0.13928923  0.01048324 -0.0047702  -0.07894178
 -0.34474456  0.8082395  -0.32733893 -0.00832464 -0.26587513  0.271729
 -0.07878385  0.05481222 -0.37975886  0.03588067  2.3947403  -0.02242564
  0.01735103  0.16024056 -0.4995178  -0.1764482  -0.18272208 -0.06283952]
[-1.3080655e-01  3.3817402e-01 -1.5867202e-01  1.9152300e-02
 -7.9172826e+00  2.3926045e-01  1.0602832e+00 -6.3555516e-02
 -8.4741011e-02 -9.9267401e-03 -5.4907683e-02 -1.2512890e+01
 -2.9689316e-02  1.3514322e-01 -1.3871861e-02  2.3154864e-02
 -7.5885467e-02 -6.0424492e-02  2.2552172e-03  1.0311322e-01
 -1.0258514e+01  2.7428010e-02  8.7978703e-01  3.0373601e-02
 -1.7033280e-01 -1.6921431e-02  4.3459877e-02  4.2035785e-02
 -2.7831905e+00  2.5529440e-02]
[-1.2637753   2.9525843  -1.8252347   0.714315   -0.1989696  -0.5307423
  1.9113027  -0.09108111  0.35010362  0.03843023  0.03940027 -0.16579424
 -0.12217671  1.2732989  -0.03963372 -0.01373934  0.06165407  0.08465527
 -0.05838715 -0.03512639 -0.7070406   0.01720659 -3.667449   -0.03209843
 -0.04070129 -0.03335578 -2.717666   -0.40315044 -0.17660297  0.06186171]
[-1.0005602  -0.7759978   0.17439589 -1.1524547  -2.114356    0.44076908
  0.19886328  1.3097097   1.1158293   4.923345   15.071766    6.60055
  1.7514842   2.6975822  -2.4457357   6.0984726   1.0362533   1.145955
 -0.01774643 -0.3019784  -0.5499647   8.040263   -0.10971877  8.0473175
 -1.1403266  -0.07806193 -0.4038772  -0.66618854 -0.54360074 10.778017  ]
[ 0.0677148  -0.5535629  -1.753897   -0.03431894 -0.8127556  -2.4398978
 -1.3089129  -0.76878685  0.5032011  -0.12682334 -0.01150859  2.3348107
 -2.9481633  -0.13159995 -2.301761    0.00895857 -1.1492672   0.57461584
 -0.8165616  -0.17435959  0.15473361  0.28712273  0.04246411  0.02185736
 -0.48339504  0.10680003  0.66653043  0.2261195  -0.13259897 -1.1755848 ]
[ 8.4392720e-01  1.5373115e-01 -1.1325974e+00  3.2712338e+00
  3.5897347e-01 -1.2527074e+00  2.0377985e-01  1.6677611e+00
  2.6700509e-01 -3.7204381e-02 -1.8205690e-01 -1.5063294e+01
  2.3748634e+00 -5.5585575e+00  1.8636985e+00  1.0681456e-02
  2.9266894e+00  3.3638695e-01  6.4509951e-02  2.3193659e-01
  5.0811225e-01 -5.6785405e-02  2.2029983e-01  9.1840468e-02
  2.3602238e-01  1.3461033e-01 -5.3003490e-02  8.4983528e-01
  2.0393835e-01 -2.0987722e+01]
[  2.3831394    0.11423343  -0.60446304  -0.42624268  11.776148
  -0.03850004  -0.10326725   0.23146416  -0.3573196   -0.01653378
  -0.10048355 -12.092605     0.04355062  -1.1450664   -0.21033001
  -0.05799007  -0.07209438   0.36511377  -0.02978748   0.91225606
   5.367659    -0.05834026  -0.07263785  -0.08991796   4.1521397
   1.6833175    0.13840337  -0.51913315   2.5891309    0.08673033]
[-0.12977476  0.02701424 -0.10513988 -0.04022527  0.3089189  -0.01710426
  0.21221069  1.1401453  -0.57837176  0.21112505 -0.3015886  -0.7986966
 -0.13864619  0.00861221 -0.5899034   0.19845372 -0.03079696  0.63496417
 -0.09682071 -0.15817136 -0.10235348  0.4171038  -0.24060053 -0.57624006
  0.10515223  0.20804013 -0.22167584 -0.284129   -0.01861728 -0.18293463]
[-2.24340968e-02 -5.74559867e-02 -3.18580329e-01 -1.97341181e-02
 -1.93529293e-01 -4.22005981e-01 -1.64124116e-01 -2.44041458e-01
 -2.76723176e-01  2.88746864e-01 -1.01466484e-01  4.46761847e-01
  3.20157814e+00  2.04576701e-02 -4.01063561e-01 -4.80875075e-02
 -5.93865776e+00  6.27227500e-02  2.10619974e+00 -1.23996608e-01
  2.70115696e-02 -5.82101494e-02  5.61390165e-03 -3.36695947e-02
 -1.34784043e-01 -3.03286929e-02  7.22791255e-02  7.99763054e-02
 -4.55650911e-02 -1.46576390e-01]
[ 1.4336284e-01 -1.4039096e+00 -1.2768729e+00 -5.7589747e-03
 -6.1292034e-01 -2.7029330e-01 -9.4462729e-01 -1.1149317e+00
  2.1713648e+00  4.8805523e+00 -4.8625631e+00 -1.2349795e+01
 -4.1163564e+00 -3.4306946e+00 -1.2102523e+00  2.7026947e+00
 -3.5459011e+00 -3.7212941e-01 -7.9410237e-01  4.1974455e-01
 -3.3381614e-01 -1.4865836e+00 -2.0600498e+00 -1.5640395e+00
 -3.7616548e-01 -9.3253717e-02 -1.2308152e+00 -3.8100398e-01
  3.6065377e-02 -1.0182150e+01]
layer 4 Activation
elu
layer 5 Dropout
layer 6 Dense
30 100
[-4.2634931e+00 -7.8547752e-01  3.1518400e+00  4.8385062e+00
  5.3867143e-01  6.4369935e-01 -4.4075119e-01  1.5517652e+00
 -1.2511230e+00  6.5159005e-01 -4.9839382e+00 -5.5173855e+00
 -2.0208912e+00  1.9359854e+00 -6.9718772e-01 -2.3097603e+00
  1.7545484e+00  2.0343845e+00 -1.8710550e+00  5.3660238e-01
 -2.2418365e+00  3.2583897e+00  3.3656669e-01 -2.4746320e+00
  1.9100263e-03  2.1768244e-01 -1.9063101e+00 -4.5063481e+00
 -1.1175367e+00 -1.4989560e+00 -4.0029216e-01 -2.7431848e+00
 -8.4882679e+00 -1.3351326e+00 -3.4336624e-01  1.5984788e+00
  3.5121870e-01 -1.1694545e+00  3.0029583e-01  1.3528239e+00
 -1.4131738e+00  6.8714261e-02  1.5617597e+00  8.3185440e-01
 -4.3384328e+00  9.8047924e-01 -3.2912667e+00  8.6840558e-01
  8.9828616e-01  1.0069096e+00 -9.7577743e-02 -8.5457487e+00
 -3.4165621e-01 -1.4795178e-01 -3.8805063e+00 -1.0345084e+01
 -4.4103962e-01 -3.5707850e+00 -5.2965512e+00 -1.7158239e+01
 -1.0978783e+01 -1.0706980e+00  6.9820654e-01 -4.8985634e+00
  1.4241824e-01  8.3528906e-01  1.7746037e+00 -1.4079111e+00
  9.2791128e-01  9.8836368e-01 -3.1682887e+00 -6.9283662e+00
  8.3108282e+00 -6.7230618e-01  5.0702393e-01 -5.4337068e+00
  3.1329763e-01 -4.2805243e-01 -1.8205911e+00  5.0776470e-01
 -1.1212975e+00 -1.1785886e+00 -3.9325655e+00  9.2494863e-01
  6.1514992e-01 -1.4627850e-01 -1.3950666e+00 -3.4980199e+00
 -3.1653016e+00 -2.7408340e+00  6.6488111e-01 -5.9483290e+00
 -3.9110103e-01 -7.3272157e-01  2.2296500e+00 -1.8095218e+00
 -1.6155363e+00 -1.2790318e+00  1.0542769e+00  2.6431704e+00]
[-1.3322697e+00 -4.0074444e-01  1.7403899e+00  8.6555707e-01
  2.9715502e-01  2.7984887e-02 -4.7941127e-01 -2.6787511e-01
 -1.5879659e-01 -1.2349643e+00  2.3056778e-01 -4.7134373e-01
  3.4501842e-01 -9.5252442e-01 -4.1593823e-01 -6.4089203e-01
 -3.7253590e+00  2.3305216e-01 -4.2877685e-02 -7.7420063e+00
 -5.9649243e+00  1.6860780e+00 -5.4554409e-01 -2.5361986e+00
  1.2868996e-01 -2.9546055e-01  7.6568621e-01 -1.0032367e+00
  1.1214643e+00 -1.3653928e-01 -1.8431026e-01 -4.2480340e+00
 -9.5639855e-02  7.5873220e-01 -5.8443673e-02  1.0703729e+00
 -2.4561563e+00 -7.1492648e+00 -1.9507909e+00 -1.5944858e+00
  3.0355172e+00 -1.2356333e-01 -3.2149742e+00  3.1045380e-03
 -1.3411723e+00  6.8498039e-01 -2.9377608e+00  7.1225989e-01
  1.2580957e-01  1.1819555e-01  1.4989706e+00 -2.3186693e+00
 -3.5167921e-01 -1.3104238e-01 -2.4226599e+00 -7.0757258e-01
 -5.4884696e-01  6.8487310e-01  1.0622135e+00 -6.6880995e-01
 -3.9904759e+00 -1.0864369e-02  5.2597599e+00 -3.7895660e+00
  3.7131160e-01  1.2020308e+00  1.5805902e+00  2.5079894e+00
  3.3191809e-01 -5.5772753e+00  8.8586909e-01  5.6804645e-01
  2.1713808e-01 -1.3895294e-01 -1.7516425e-01 -2.9636862e+00
  3.6581019e-01  1.8216672e+00  5.4164066e+00 -1.2494417e+00
 -7.5585043e-01  3.1462401e-01 -2.5772977e+00 -1.4369477e-01
 -3.1357145e+00  2.5416827e-01 -2.0629269e-01  2.2740734e-01
 -7.3373812e-01 -5.1865590e-01 -2.0115542e+00 -3.8569483e-01
 -5.0069815e-01 -5.5651242e-01 -1.0768669e+00 -1.4923334e+00
  3.9895368e-01 -8.9350897e-01  7.6960659e-01  2.1922190e+00]
[ 1.510072    0.28780723  4.991538   -2.3543174   0.15325339  0.01418755
  0.6538816  -0.3271926   0.341294    1.4785513  -2.565508    0.89180124
  8.046515   -2.0482554  -0.72996396  2.0322244  -1.685774    0.7207644
 -1.4163392  -8.0465145   7.82005    -0.28143102 -1.2749153  -1.9241134
  0.59366417 -0.19007985  1.5895636  -8.130608    0.22708344 -0.29258853
 -0.5186653  -5.36858     3.5180755  -0.2437473  -0.40923074  0.2154399
 -1.7480259  -1.3593364  -4.248561   -1.261484   -3.5934021  -1.6518658
  2.1340227  -0.09259246  2.9392076  -0.6104148  -1.2848036   1.1562884
  0.22309397 -1.3934695  -2.0272932   1.0732524  -0.02783302  0.12167801
 -0.5567245   1.1326145  -0.88271445  0.34050685 -3.1463237  -3.0170863
 -0.26204744  2.846296    5.480715    0.77670395  2.465709   -1.298926
  1.0426004   1.3200363   6.471401    3.1247654   1.2979436   2.6627154
  0.7795804   0.3940655  -0.0536111  -2.0441594  -0.4605141  -4.415051
  6.101445   -0.3873763  -0.18900122  3.8737218   1.1200639   0.4913874
 -8.398115   -6.2366033   0.05154864  2.9745305   7.765275   -6.359353
  2.391378    2.937013   -6.1367135   1.4857572  -3.2100832   4.375585
  1.7861428   0.4659494   1.5109078  -1.7593039 ]
[ 1.0925709e+00  8.6126149e-01 -8.0779344e-01 -1.7501378e+00
 -1.3434050e-02 -2.3823744e-01  2.9991066e-01  1.8032060e+00
 -2.3511896e+00 -6.5346017e-02 -3.0093625e+00 -1.2916010e+01
 -1.5714200e+00  7.3162186e-01 -8.9318454e-02  7.4382848e-01
  2.2435425e-01 -2.7464870e-01 -1.7015392e-01 -1.5521449e-01
  1.8400056e-02 -9.2373289e-02 -1.5546823e-01  3.6318109e+00
 -3.9656091e-01  3.7379986e-01 -1.1880674e+00 -1.1777092e+01
 -9.0060225e+00 -6.5017425e-02  5.6922144e-01 -1.0020381e+01
 -8.8121939e+00 -4.6324593e-01  1.0151461e+00 -4.0063241e-01
  6.2768626e-01 -7.9030854e-01 -5.0530891e+00  4.8580137e-01
 -3.4242980e+00 -1.8597314e-03  2.6651604e+00 -1.4195307e+00
 -2.5043547e-01  1.5099198e-01 -8.1332474e+00  6.1531257e-02
  1.1668228e+00 -3.2493706e+00  6.7295152e-01  1.2085670e+00
 -2.2034866e-01  7.2533029e-01  2.0593293e+00 -2.7492125e+00
  9.0827867e-02 -2.2883842e+00 -4.3608564e-01 -1.2941917e+00
 -2.3154484e+01 -1.7564720e+00 -6.6609043e-01  9.6603113e-01
 -1.2771461e+00  2.6707745e-01 -6.9215679e+00 -4.8661327e+00
  1.4573909e-01  1.3852012e+00 -3.1175439e+00 -3.8652899e+00
 -1.1675997e+00  6.0664642e-01 -7.8865778e-01 -3.9647772e+00
 -1.7598953e+00 -3.7046974e+00  3.9927475e-02  2.0030110e+00
 -7.1336728e-01 -1.6176937e+00 -1.9822334e+00  2.4610275e-01
 -1.3910525e+01  1.2373424e+00  8.8323206e-01 -1.7044499e+00
  3.5891960e+00 -9.1221094e+00  6.7898971e-01 -1.4055283e+00
  2.5045478e-01  4.6395397e-01  2.2570257e+00  6.2411064e-01
  2.6968081e+00 -4.0712517e-01  4.4104618e-01 -8.9204729e-01]
[  0.6045784   -0.09270848   1.0653864   -1.2432743    0.01403903
  -0.01804688  -1.0912198   -0.11977495  -1.1369168   -6.796192
   2.5179486    0.2500946    1.0296423    0.20623922  -0.06441724
   0.88887286  -4.2344565   -0.01437706   0.67808086   0.08288438
   0.52995896   0.0488035   -0.7511102   -6.7383895    0.09015515
  -0.03521117   0.58046263   1.6294256    1.8771727    1.1654433
   1.1200238    4.0304008    1.1096617   -2.1864371    0.27632308
   0.14917502  -0.04399167  -0.6336446    0.36841914   0.01434908
  -2.5247266   -0.21118408   1.1797482   -0.643487    -1.6008197
   1.022599     1.2136832    0.85588855  -0.03669401   0.16104022
   0.04778086   0.40437096  -0.1233864    1.3491076   -3.1793218
   0.8848136   -1.8033068    0.30380535  -2.5662544    3.357813
  -0.28506145   0.8064574    0.19028008  -3.8960288   -0.8688489
   0.40600395   0.78035617  -0.387513     0.6209486   -0.370652
  -1.5733001    1.4443258    3.209059     0.05580529   0.34921253
   0.57688266  -0.33909103   0.38964516   0.20043695  -0.8869795
  -2.4153159   -3.6765833   -1.3372047   -0.03700617  -0.09036903
  -0.1052035   -0.02717382   1.5656914   -0.09295566  -0.16501683
  -0.8753259   -0.7518626    0.04253302  -0.6727992    0.4001888
 -12.790395     1.5563414   -1.8075763   -0.2070587    1.6292275 ]
[ -2.1588788   -2.3068476   -4.0904393   -0.67341816  -0.54770774
  -0.08671156  -5.2460938    0.45439863   3.843669   -13.239218
   1.1135532    0.43075088  -9.673967    -0.557668     1.8968533
   0.74275833   0.91436976  -4.020198     1.3230867    2.7644854
 -14.373893    -1.1856151   -0.09912515  -1.6361879   -0.07452897
  -0.5573767    1.0620997    0.6651289    0.12285502  -3.2630825
  -3.4081547    4.640288    -2.0427039   -0.55442786  -0.85621625
  -0.7204742   -0.2526907   -2.5043201    3.0585556   -2.4084387
   8.056834    -0.5233162    3.433066     0.6434405   -4.250392
   0.14195274   1.4376984    0.5820343   -1.0859059    1.9899026
  -0.7580911    0.71346503  -0.2077282   -2.6586976   -0.3718237
  -2.4037204   -3.049525     0.31649598  -0.38030767  -0.79132134
  -5.1379166    2.0298376   -0.32844773  -1.3238326   -0.8498616
  -2.2127097   -1.0892466   -2.0004876   -1.5257916   -3.3764095
   2.4922836    1.2899599   -5.335782     0.5191252    1.2031493
   2.8396423   -0.13910685  -0.24026777  -2.1939569   -1.4026821
   1.7642045   -1.5296559    3.71494     -1.2607847   -1.4315321
   0.43971688  -0.26766258   2.404234     1.1986613    2.4470892
  -0.49824122   1.4689857   -4.1213202   -7.8853517   -2.8195798
 -12.372144     1.7691637   -4.9454865   -2.2621126   -0.14280853]
[-5.55628538e-02  2.66150967e-03  4.99487519e-02  1.16705358e-01
 -3.78200859e-02  7.19785765e-02  6.10772632e-02  2.21667022e-01
  5.47813892e-01  4.44155633e-01 -7.42248073e-02 -1.14087617e+00
 -3.11331093e-01  2.00967383e+00  1.20544009e-01  1.19436526e+00
  8.67763638e-01 -1.00200780e-01 -1.55594632e-01  6.45901203e+00
  2.90104938e+00 -2.98492849e-01  3.25200009e+00 -1.10096085e+00
 -5.73250018e-02  1.00058615e-01 -6.50614500e-01 -1.66873193e+00
 -1.82576358e-01 -7.06591457e-02  1.21983707e-01  2.16603684e+00
 -1.40748203e+00 -4.14839029e-01  7.90608376e-02 -5.95548637e-02
  2.43839169e+00  5.56606770e+00  4.58105516e+00  5.14056683e-01
 -7.13726461e-01  1.37364700e-01  7.15401232e-01  6.58085287e-01
  1.58497065e-01 -3.50062442e+00 -1.48151255e+00  2.14048338e+00
  2.99699575e-01 -6.39233828e-01 -2.65332431e-01 -2.35629424e-01
  8.99165869e-02  1.49869293e-01 -2.78278780e+00  2.42473818e-02
  8.83470103e-02 -7.26265609e-01 -1.84464693e-01 -1.55123010e-01
  2.89920688e+00  4.86433879e-03 -1.71013212e+00 -1.28386068e+00
 -3.24074507e-01 -1.41605377e-01 -1.57954335e-01 -4.50379193e-01
 -1.93412244e+00  2.33187675e+00 -3.88742924e-01 -1.34810579e+00
  1.04361987e+00 -5.28051257e-01  4.82261866e-01  9.66764212e-01
  1.67939872e-01  1.16817206e-01 -5.22794151e+00  2.88819492e-01
  8.03147778e-02  2.27630019e-01  3.39525104e+00  5.62474020e-02
  7.70638704e+00 -2.08646607e+00 -1.43529519e-01 -4.59166348e-01
  3.96877602e-02 -5.44863796e+00 -2.85805464e-01 -3.63540620e-01
  5.21753766e-02 -2.33292710e-02 -3.29224372e+00  1.35640383e-01
 -7.39230454e-01  1.14128485e-01 -8.81547388e-03 -1.26731247e-01]
[ -1.0933973    4.161667     1.1108705    1.3627123   -1.1898444
   4.5312276    1.994435    -2.2045503   -4.7393904   -4.139101
   2.8069878    3.5028846    5.32806      8.584495   -10.430041
   6.2321134    0.1545649   14.438678    -3.1011596    2.865335
  -2.2832189    3.136043     2.088153    14.6608      -1.8155147
   1.370017    -4.5751467    0.36804628   2.2135684    0.88425916
   0.3719819    2.1187818    4.270384    -0.34437713  -1.2251663
  -4.151164     2.8992164   -9.5026655    2.7026334   -1.3417753
 -10.297476     8.467905    12.515767     3.3974903    0.92919767
  -0.7023258    0.10486822   7.251625     1.0309979   -5.048453
  -4.2347755    0.6628893   -2.613383     1.0536762   -0.03870677
   0.93082434   2.072052    14.490533     8.36174     -0.4303536
  -7.6702476    5.293466    -4.8273215    0.41137838   1.9972248
 -12.070866     6.420367     0.03614827  -1.2965322    3.3778691
   2.0579448   -1.0449667    2.5683618    4.639161     0.81518763
  -3.824031    -7.5273066   -6.3993835   -5.2036195   -0.09330773
   0.1640897    0.9493885    9.80145      0.8002789  -14.692467
  -1.1702408   -2.7593126    7.79137     -9.384938     7.5161977
   1.672317    -2.9287846    1.3426167    2.8129947   -1.5847144
   5.1229324   15.622996    -4.403252     3.7255812    0.55077535]
[ 0.63996905 -0.8665621  -0.17591166  1.5070163  -1.3566911  -0.32485294
  1.8830761   1.5529526  -2.7699757  -0.33721122 -0.01112959  1.3095373
  1.9115356  -2.2692504   0.9478574  -4.092937   -2.712239    0.6656706
  0.82922286  1.2093844  -0.9045707   0.7592135  -0.91503143 -7.647288
  0.8354771  -0.681328   -1.6494753   2.390155    0.07591043 -0.4175395
 -0.22811195 -0.25737903  3.091696   -1.6114731  -2.960646   -1.0409214
  1.1404766  -2.6523125   0.92079586 -1.9498249  -4.944732   -1.271546
 -3.67336    -0.19226204  1.3342657   0.76061773 -0.9277087  -2.783124
 -5.599149   -4.1407995  -0.79808044  0.87773156  1.3258613   0.81387115
 -1.1571294   0.10813446  1.1131953   0.13925907  1.6451296  -0.879289
  1.2768333  -4.1170306  -1.4373503  -1.9055299  -1.3447583  -3.7056708
 -1.4221323  -4.1373367   2.2501004   2.1953654  -1.1479038   1.0017288
 -1.4299784   1.1262902   0.8499115  -0.8124862  -6.231526   -3.0043185
 -1.2604824   0.25057596 -2.924657    1.7317151  -2.8293366   0.13042364
 -1.3504529   0.5546152  -1.1103482   3.100105   -1.3480241   1.5178213
 -5.9205117  -1.6244739   1.8776163   2.0418503  -1.5845387   0.9893891
 -4.664383   -0.22172795  0.3716554  -1.9692152 ]
[ -1.7786772   -2.7585323   -6.366928     0.4823828    1.8466488
   8.40439     -0.32913983   0.3309152    1.901644    -7.7739997
  -0.8945105    1.8181833   -7.2424073   -1.0195252    1.0072559
  -3.641112    -2.8458343   -2.1505573   -3.8377743   -0.73071545
 -12.861047     1.571459    -0.19835985  -1.8372065    2.213128
   5.533596    -0.26926816   2.8872256    0.9689321  -13.305237
  -0.5869847   -0.5727564    3.9165397    0.9045116    6.843499
  -8.877978    -0.79987824  -1.4974903    0.36118653  -1.1592276
   2.7040355    3.0567553   -2.516969     0.56979626   0.7045096
   0.44343176  -3.817996    -1.2894546   10.802346    -0.53512746
  -0.02500038  -1.0708451    3.9310741   -1.1746268   -0.5074451
   1.1374333   -2.891806    -1.5304857   -8.522052    -6.7269964
  -1.6066983   -2.6747816    1.5406628   -3.202832     0.2979968
  -1.8133014    1.4008118    2.1547356    0.1710197   -0.5251296
   1.1801875    2.7234125   -1.0334972    1.9361123    0.37108222
   0.18223605 -10.262936    -5.7646627    0.2315755   -1.032016
   0.70612746   0.35459572  -5.9051604    0.28345475  -7.1377616
  -0.44571182   0.08584438  -0.5918232   -0.11298703   3.2375462
   0.5719509   -0.16514045  -6.835214    -0.4319359   -2.0299516
  -0.51018435  -0.75478244  -3.6106114   -0.5731807    0.77509725]
[-4.8570412e-01  1.8006506e+00  3.9649165e+00  1.6004574e+00
  6.3242011e+00  5.6839859e-01  6.6233307e-01 -3.4664348e-01
  1.1161394e+00  6.5615230e+00  3.3739042e+00  2.5919454e+00
  5.3254189e+00  1.3797286e+01 -1.9530696e+00  7.6010509e+00
  3.5463161e+00 -2.6722741e+00 -1.0180688e+00  1.6077000e+00
  2.4899487e+00  3.7509265e+00 -1.1029195e+00  5.8429179e+00
  5.4222422e+00 -7.6584947e-01 -1.0011576e+00  2.3327200e+00
  2.2072418e+00 -1.2230906e+00  1.5845627e+00  2.3715804e+00
  4.7270851e+00  8.7460393e-01 -2.2007784e-01 -5.4486170e+00
  4.5582455e-01  9.6352911e-01 -1.0908557e+00 -3.0681011e-01
 -6.9751275e-01  2.8088644e+00  1.4726492e+01 -3.7337615e+00
  1.9900568e+00 -1.3371438e-01  3.2531734e+00  3.9129577e+00
  9.1017179e+00  4.4470859e+00 -1.0113982e+00  4.2292824e+00
  4.1207304e+00  1.4333693e+00  2.9488678e+00  2.7559886e+00
  1.8385022e+00  1.0222156e+00 -4.6330032e+00  5.6560478e+00
  4.5975499e+00  6.2655602e+00  8.0938637e-03  2.2199195e-02
  3.4829357e-01  1.8770741e+00  4.2534280e+00  5.1652735e-01
 -2.5210109e-01  1.3871205e+00  2.3102958e+00  3.2711616e+00
  1.2985369e+00 -7.1747029e-01  8.5778707e-01  2.2016251e+00
  5.3460008e-01 -2.9819733e-01 -2.1452990e+00  2.7177623e-01
  6.5225822e-01 -1.2387785e+00  1.2500268e+01  1.4791702e-01
  5.0143194e+00  5.3800380e-01 -3.2764152e-01  4.1157131e+00
  3.4662184e-01  4.1137385e+00 -7.5578988e-01 -9.2559808e-01
  1.4418983e+00  9.5275551e-01  1.7570097e+01  2.4515448e+00
 -9.2559099e+00 -1.4530607e+01  5.9084809e-01  1.3634058e+00]
[-1.5944539e+00  1.2892204e-02 -2.5129476e-01 -9.9028565e-02
  1.5820210e+00  4.9883252e-01  1.8956376e-02  3.9134598e-01
 -2.4208648e+00 -6.8676357e+00 -7.1116999e-02 -7.7036035e-01
 -8.6886817e-01  2.7273760e+00  3.1508097e-01 -2.5141731e-01
 -8.3382416e+00  3.2968384e-01  2.7101412e-02 -1.2220225e-02
  3.5580315e-02  1.2677746e-01 -1.8403623e-01  2.4228036e+00
  6.0643023e-01  2.1897511e-01  4.8168052e-02 -6.9686705e-01
 -2.3478344e-01  3.7922755e-02  3.2898143e-02 -1.7658174e-01
 -4.1064394e-01  9.2813462e-01  9.8000401e-01 -1.1987920e-01
 -2.9719274e-03 -1.6117802e-02 -1.7419071e-01 -3.1908387e-01
  2.3681128e-01  7.0439629e-02  1.3174547e+00  2.5320945e+00
 -2.3953607e+00  6.2072519e-02 -2.4696338e+00  3.4083326e+00
  3.6624885e-01 -1.5641525e+00 -3.3911145e+00 -5.2531400e+00
  6.4873733e-02 -1.1569265e-01 -3.4436679e+00 -4.2687717e-01
 -2.8842282e-02 -2.2511755e-01  2.0855582e-01  9.0792902e-02
 -3.4184265e+00 -1.2916652e+00 -4.8063770e-02 -3.8596150e-01
  7.9119098e-01 -2.8809312e-01 -1.3813924e+00 -2.6029384e-01
 -5.4239172e-02 -5.4616842e-02  2.3007695e-02 -4.6094313e-01
  2.6584722e-02  6.8381831e-02 -3.5253263e-01 -1.1616604e-01
 -1.4368321e-01 -3.7655696e-02  4.5065288e-02  2.4804373e-01
  5.4581944e-02  2.7390712e-01 -2.5412195e+00  6.4884883e-01
 -2.0662321e-01 -2.7434805e-01  2.0551173e-02 -3.5613321e-02
  3.6837351e-01  6.3330740e-02 -4.3451631e-01  2.8826758e-01
 -4.4639114e-02  9.0345796e-03  1.4889284e+00  2.3479001e-01
  1.7170196e+00  2.7932924e-01 -3.7520390e-02 -8.0882204e-01]
[ 0.34465036  1.791207    5.037628    3.2865133   3.0455377   3.7654011
  1.776325    0.9471214   0.20923492  7.3452497   5.112569    4.49656
  7.373069    4.5950265  -0.6833936   8.0364485   4.236012    0.8262995
 18.81969     2.0634181   5.6832566   1.2679995  -2.4694338   2.341975
  0.05972598  0.28085983  3.4304233   9.098255    4.94232     1.5886261
  2.192714    5.935254    6.6776805   2.7078602  -1.2421567  -1.815631
  1.5871909   6.996308    0.13350922 -0.97808117  4.8140264   2.535012
 10.7435      6.231471    6.188698    2.4511929   4.1576557   5.639864
 10.887615    3.264869    2.9634514   4.7465515   4.519115    0.7896589
  4.835013    3.7067885   1.1708155   3.66887    -1.600558    6.127233
  6.113866    4.134054   -2.0152159   2.3826663  -1.019009    6.2514567
  4.0717163   1.7377948   2.239765    4.1872115   3.543902    4.5423
  8.036479   -3.8681366   2.5622923   2.63788     0.6318386   2.1883152
 -1.7399426   3.0170162   0.4385773  -1.1831894   6.6017323   0.0564223
  7.0794873   1.6596899   0.47803992  5.0234466  -1.1554966   6.168311
  1.3289461   1.4619651   2.5624588   2.7249258   5.402539    3.4427419
 -0.9843806   0.14752835  0.16178243  4.6020947 ]
[  2.5078251   -2.5814102   -1.1598151   -1.406981     2.2138703
  -0.23096739   0.11525727  -3.378284    -1.8599969   -0.17672886
  -0.6489063    2.898877    -1.0163918    3.713667    -1.8036917
   2.0974522    8.769146    -8.153447    -0.34116796   0.32910484
  -0.32418507   0.17380656   4.6438146    0.51291704  -0.11873409
  -1.1099966   -1.0490216    0.4833135   -4.9155216    0.122874
  -0.21302654   0.51146215   0.7441041   -1.8290647    3.1300395
  -1.853607    -0.5961409   -1.8335192    0.7834394   -0.9719426
  -0.40042102  -1.1971301    4.188075     3.0125642   -0.49424547
  -2.7409184   10.071174     4.515026    -1.4159243   -2.4737446
 -11.5601      -3.7000697   -0.93531686   0.9791628    5.7976027
   0.969076     0.3525957  -15.501037    -1.2165571   -1.4911479
   1.8318928    2.0462942    0.7777022    7.91061      1.2965901
  -1.1761831  -10.919533    -2.1544626   -1.9620821    1.6204971
  -1.4622471    0.06343535  -3.7600436   -1.2463924    4.0594177
  -0.76480263   0.52517086   0.675117    -0.8292998   -0.8116585
  -1.297256    -1.0148433   -0.04541862   1.9096282    3.2931561
  -4.067943    -1.187863    -1.0798616    1.5214099    2.425053
   0.65185434  -4.679842     0.05263255   0.19940372   3.827532
  -1.0821015    2.0009859   -1.2146782   -1.3190639  -12.651725  ]
[  0.7468775    1.4315232  -11.283597     4.002341     2.9179385
   0.4346937   -2.4319475    0.14331059   3.3243444   -4.603299
  -1.4137199   -1.7385635   -8.685913     1.7365391    2.8918047
  -2.9041746    1.3716244    3.2242992   -2.84872     -1.0336558
  -4.278519     0.5304989   -0.31408435  -4.1390023   -1.4145333
   1.6672213    3.7187214    1.001996    -1.2215381    2.8936322
   0.05945527  -6.769188    -3.5834749    2.4117124   10.129078
   3.3971217   -0.7140095    4.965204    -0.82907724   5.969549
  -3.0064962   -6.8589215   -0.82942986   0.9603161   -4.1728516
   0.30564758  -3.004208     1.4680926    5.2310805    0.6738656
  -1.4803299    1.0149459    1.6564066   -0.75338554  -0.86099094
   3.4098115   -1.9649673   -0.64318395   3.628194   -13.719549
   6.5424447   -0.33797592   1.3038565    3.94215      0.18258137
   3.5835168    2.0480134   -0.1484315   -3.2051578   -4.0505095
  -2.5005379   -6.149969    -3.6952305   -0.80386025  -1.3552026
  -3.6384223    5.0934596    1.1219918    2.304304    -0.12616876
   1.125412     2.292744    -4.7094345    0.47735694   8.268509
   1.1561387    0.6371123   -2.2271216    4.9005475   -2.7150807
   2.4312086    1.9225018    0.9732411   -2.9803777    3.856229
  -2.0388143   -0.6133669   -2.95508     -1.2282143   -2.0313337 ]
[  1.3752491   -0.7332305   -3.6218421   -0.60651904   5.2360206
 -10.279877    -0.4985108   -1.0279596   -0.20405744   0.25537583
  -3.776409    -5.048184    -1.0179427   -1.2958285   -1.6113172
  -3.0716972   -3.1555853    1.828256     3.9608223   -0.29189184
   0.11592458 -11.099273     0.5686909   -1.3438675    3.3452456
  -5.7407703    2.3004818   -4.118573    -2.3295524   -3.7911198
  -5.3240137   -0.33657753  -9.16397     -4.4250236   -2.5008378
   1.7042844    0.17597544   3.4358792   -2.062623     2.1256807
  -1.6330409  -18.313608    -2.9496567    2.5862713   -1.0386292
  -1.094019    -4.8219934   -0.32011533 -28.324272    -6.484784
   0.41827786 -12.28596    -16.983383     0.3693503   -3.0447135
  -0.42229748  -2.9130833   -0.869404    -0.27814198  -0.30444318
  -1.2013264   -2.8615785   -0.4872898   -3.696074     0.1022682
   6.9951224   -7.975571    -0.5678568   -1.0705105   -0.93010515
  -6.341327    -9.643556     0.61790586   8.845085    -1.5967323
  -2.0119905   -0.8439009    4.93642      0.66879827   1.9845843
  -0.25740215  -0.49798092  -4.5579324   -0.17045517  -2.5208511
   0.06090755   1.1669934    1.0684729    2.0640588   -8.972616
   0.81852794   1.5978318   -2.3140705   -0.5073247   -1.3674681
  -4.6357946   -1.0351589    3.6007826   -0.12215295  -1.0823776 ]
[ 1.54823136e+00 -1.41624427e+00  6.68114519e+00  3.75623822e+00
  3.51687360e+00 -3.17861587e-01  2.65404749e+00  1.44218326e+00
  1.17008388e+00  8.08497620e+00  6.52894378e-01  2.94847965e+00
  6.19663572e+00  4.87602806e+00  3.05348730e+00  1.21646583e+00
  3.13926864e+00 -2.81692290e+00 -3.53589320e+00  1.76473629e+00
  3.85880566e+00  7.91504383e-01 -2.47966981e+00  3.65360880e+00
 -1.00660853e-01  1.33149612e+00  1.87218177e+00  8.09382248e+00
  4.01428843e+00  4.32425070e+00  3.60411596e+00  6.70547867e+00
  3.64890885e+00 -5.23469687e-01  4.43653297e+00  3.14933825e+00
  1.90487564e+00  3.87858915e+00  4.33261347e+00 -8.26714218e-01
  3.80010724e+00  3.92165256e+00  2.03807473e+00  5.36846399e+00
  7.76847792e+00  3.25147414e+00  3.28667188e+00  5.43920612e+00
 -1.53662121e+00  2.94242430e+00  1.92992821e+01  3.38957787e+00
  4.91454363e+00  5.93490303e-01  2.22587720e-01  3.97769332e+00
  2.39935565e+00  2.61608791e+00 -1.10747917e-02  3.69081020e+00
  5.97218800e+00  9.24882412e-01 -3.47626734e+00  2.09727359e+00
 -2.01578593e+00  8.04083443e+00  1.52145910e+00  9.84717846e-01
  2.99618411e+00  1.46614110e+00  5.03117621e-01  3.50956941e+00
  9.46426010e+00 -5.75909281e+00  1.18295364e-01  3.09418201e+00
  4.45286959e-01  3.75532126e+00 -2.04995203e+00  3.86219764e+00
 -3.25122057e-03 -9.52816233e-02 -5.93207538e-01 -5.40752351e-01
  6.01275492e+00  2.32898760e+00  2.35903358e+00  4.77437449e+00
 -1.79466081e+00  4.42224455e+00  1.00379562e+00  1.34604537e+00
  3.92423582e+00  2.27602053e+00  1.36946166e+00  3.16757822e+00
  5.90127373e+00  3.28556991e+00 -1.07549119e+00  1.98210049e+00]
[-2.46861264e-01  1.97895622e+00 -6.17945576e+00 -2.56307602e+00
 -2.56914645e-01  6.09695494e-01 -8.99834275e-01  7.68839359e-01
 -7.31684687e-03 -1.21270716e+00  6.29689097e-01  1.96029916e-01
 -4.51753426e+00  2.66249031e-01 -4.33386803e-01  6.32693291e-01
 -4.02259618e-01  1.97228277e+00  1.33523986e-01 -2.53614807e+00
  7.22824752e-01  1.20126355e+00 -2.28918716e-03  9.50215626e+00
  1.17213392e+00 -1.33244228e+00  4.77364302e-01 -1.05272698e+00
 -7.39423335e-02  2.16945124e+00 -3.58726978e-01 -7.83497870e-01
 -1.04073897e-01 -1.99783516e+00 -6.17863131e+00  2.55958050e-01
 -1.93510807e+00 -1.79096699e+01 -3.60940129e-01  1.59582901e+00
  2.54961789e-01 -6.63569272e-01  2.92441797e+00  1.27707624e+00
 -3.68507385e-01  8.61231565e-01  3.85391980e-01  7.66862273e-01
 -4.51052427e+00  1.43106270e+00  2.55426884e+00 -1.16899061e+00
 -8.30183744e-01 -8.36442783e-02 -5.18143058e-01 -1.09383678e+00
 -5.56182086e-01  1.94382712e-01  6.64241314e-02 -3.99321580e+00
  5.17204344e-01  4.55142617e-01  2.35703850e+00 -5.20643771e-01
 -1.14621806e+00 -1.34896982e+00 -8.03905725e-01  3.46835017e-01
  8.02010059e-01 -2.28127646e+00  1.36549664e+00 -7.40875304e-01
  3.04370332e+00 -3.08942758e-02 -4.88916874e-01 -1.30635381e+00
 -1.43305749e-01  1.11366618e+00  3.32527494e+00 -1.18199274e-01
  4.20771074e+00  2.06406489e-01  3.55607772e+00 -5.59084833e-01
  5.01969099e-01  6.22419789e-02  8.94841790e-01 -9.32705116e+00
 -1.99275506e+00 -4.88056034e-01 -1.19073343e+00 -6.21071160e-01
 -3.59182239e-01 -1.39048970e+00 -4.82072735e+00 -1.63524747e+00
  6.50302505e+00 -4.44528848e-01 -2.05593467e+00  1.77445900e+00]
[ 4.1778794e-01 -1.0158665e+01  1.0791786e+00 -3.3910677e-01
 -1.0514787e+00 -2.2616961e+00  6.7146921e-01  2.6362368e-01
 -1.4798605e+00  1.7813610e+00  2.7853385e-01 -2.5972202e-01
  2.5479722e+00 -2.2222688e+00 -5.8901068e-02 -4.2127371e+00
 -3.5926574e-01  9.7130936e-01  4.2667708e+00  3.1705141e-01
  3.2445266e+00 -3.6284512e-01 -1.0218395e-01 -6.6795385e-01
 -3.7951863e-01 -1.4768573e+00 -4.2180350e-01  3.4867999e-01
 -5.6577180e-02  2.7366223e+00  8.5615538e-02  6.1848671e-03
 -2.6048678e-01 -7.3264617e-01  3.7271683e+00  1.4046133e+00
  6.3153237e-01 -3.6250943e-01 -1.7157759e-01  2.0150191e-01
 -2.2222667e+00 -1.0637139e+00 -4.0526276e+00 -8.8172615e-01
  3.0250826e-01 -2.5932996e-02  1.6996527e-01 -3.0938468e+00
 -4.6684880e+00 -6.4601529e-01 -2.4612717e-01  4.2906976e-01
 -4.9632338e-01  4.4980404e-01  3.3514317e-02 -4.3296006e-01
  1.1038456e+00  2.8011671e-01  2.3329048e+00  1.8907564e+00
  8.7731361e-01 -5.7056470e+00 -1.0608530e+00  9.7050615e-02
 -6.6222429e-02 -5.8218914e-01 -8.8378710e-01 -1.6957911e+00
  6.7645609e-01  9.7757810e-01 -7.6165187e-01 -8.3034551e-01
  4.0661794e-01 -6.6908076e-02 -1.6283180e-01 -5.3603750e-01
  3.8900694e-01  3.6183766e-01 -1.3768032e-01  6.5392780e-01
 -2.8457925e-01 -2.4774416e-01 -9.1407547e+00 -2.7464788e-02
  6.0351998e-01  3.8451928e-01  3.5052457e+00  6.5564823e-01
 -4.4091880e-01 -1.1107136e-01 -1.1541319e+00 -1.9118051e-01
  2.1136115e+00  8.8912421e-01 -1.9224201e+00  1.1809592e+00
 -8.6506134e-01  1.0943559e+00  3.3277056e-01 -8.6338502e-01]
[ -1.9799697    5.44765     -6.7359505  -12.244356    -1.1813494
  -0.3026241   -1.0127999   -2.431832    -4.6323566   -0.16553634
   2.263608    -1.2189931    3.0155158    1.2870458   -3.55746
  -2.557344    -1.3283184    5.591836     1.5230863   -4.406792
   6.6469336   -4.0533085    1.4641762   -5.494289     1.2334639
  -1.5004219    0.4283155    6.6514573    3.0789506    2.1421075
   0.6405681    1.9582914   -1.3967452   -2.9988112   -4.436529
  -3.9684396   -0.22241332  -0.6763195   -4.593119     7.2865324
  -2.3300545    0.3236999    2.7454216   -0.58604866  -0.27227288
  -1.6053207   -1.6644802   -1.9561545    1.6581234    7.2395015
   2.1847458   -0.40848747  -0.6381451   -0.3287229    4.876032
  -2.7163534    1.6748445   -0.5651741   -2.4392588    9.012061
   2.3876097   -4.0153      -1.5763152   -1.1781385    4.479435
  -1.5436176   -1.9617724    2.5771954    1.3810878    1.6617091
  -1.1122148   -3.7716868   11.535376     0.39569682  -4.4214163
  -2.271225    -2.5206943   -0.11006303   5.8602405    4.162486
  10.44618    -11.5532675   -1.5703461   -1.9394114   -7.522659
   0.3597323    5.2002554   -3.3048313   -2.594394     4.294961
  12.399837     4.587159     0.48627555   0.59465045   0.46825132
   4.394986    -0.3811094    3.4672332   -0.16411874   1.5554434 ]
[-9.9997175e-01  2.2289732e-02 -1.6983792e+00  1.0333214e+00
 -2.7504388e-02  4.7196499e-03  1.4844453e+00 -7.7542120e-01
 -2.7685997e+00 -3.5759604e+00 -3.1228657e+00  3.6020163e-01
 -6.0773516e-01  9.0819485e-03  7.0565999e-01 -1.4916594e+00
 -1.0206981e+00  4.2816171e-01 -3.2930008e-01 -2.2258474e-02
 -3.4137222e-01 -1.3495138e-01  2.7239072e-01  1.8116014e+00
 -2.9251760e-02  8.3381645e-02 -4.1651177e-01 -1.7914010e+00
 -1.2179914e+00 -5.4374999e-01 -2.9327866e-02 -2.9666142e+00
  5.9456611e-01 -6.3500738e-01  1.4209919e-01 -1.2515989e-01
  6.0391303e-02  4.4635287e-01  2.3099495e-01 -2.9099058e-02
 -2.3131180e+00  8.6678460e-02  3.5032680e+00  3.1125465e-01
 -6.0541487e+00 -4.5375282e-01 -1.0276539e+00 -3.9282665e-01
 -1.3230939e-01  5.2136534e-01  9.5576398e-02 -8.7654123e+00
 -1.7010359e-02 -7.1056545e-01 -9.8960418e-01 -2.0812254e+00
  2.0732363e-01 -7.1790189e-01  2.3366112e-01 -6.1970129e+00
 -4.5099503e-01  1.8167480e+00 -1.0135074e-01 -2.5474491e+00
  4.3128771e-01 -4.8796612e-01 -4.8704758e-01 -2.1102834e+00
  1.2981771e-01  4.5938072e-01 -2.0139258e+00 -3.8270015e-02
 -1.6494217e+00  1.4491695e-02  6.0142475e-01  1.0904461e-01
  1.9116916e-01 -3.8006616e-01 -2.2458662e-01  4.1138348e-01
 -3.2171915e+00  3.4214163e+00 -1.5935954e+00  6.9408906e-01
 -4.2651159e-01  3.6834452e-02 -6.1997347e-02 -8.2183594e-01
 -1.1800318e+00  9.8067182e-01 -1.9899268e+00 -7.8543788e-01
 -1.7147353e-01  1.5646394e+00  2.4848924e+00 -2.1472819e+00
 -1.1636292e+00  1.9057896e+00  2.7148670e-01 -9.5524210e-01]
[  0.49983162   1.5640705    5.8573647   -1.4395986   -4.7574744
   3.0991883   -0.12842365   2.2081459    0.63446146   5.024459
   2.3612664    1.5010729    3.9538674    9.391344     2.6861386
   3.9627373    2.2546582   -4.624305    -2.5971365   -1.1683725
   2.4929547    2.5944395   -1.3522667    7.374677     6.245065
   5.099468    -5.846423    -1.505139    -0.66442007  -1.1841005
   1.4803847   -1.9675808    0.8335654    0.33358565  -2.2490733
  -3.1843672   -0.14662221  -8.406934    -1.187846    -0.74112195
   0.4964841    2.2624438    6.5049887    7.746832    -2.0083268
   1.0320252    2.3144498    8.221122     7.1382875    1.9156486
   2.0022588    3.7617166    0.5370635   -0.42718342   2.2448673
  -2.6662192    1.488354    -6.2259817   -0.34686944   5.3738956
   3.1215653    3.50387      0.5561979   -0.23715678  -1.8007911
 -11.807227     3.644937    -0.7760008    1.7534283   -1.145832
   1.7863387    2.536104    -8.401814     2.5586805   -2.886209
   1.4139128   -1.4606227    3.777392     2.6242583   -7.148007
  -3.2212505   -1.0290604    4.893725    -0.56527865   3.8834505
   0.71020585  -2.026181   -13.617458     5.286348     1.1197301
  -2.6639178   -5.030052     3.05074     -0.311563     8.3499155
   3.4721339   11.680671     4.293724    -1.2782975   -0.7869238 ]
[-8.90068591e-01 -3.30362260e-01 -3.43311119e+00  1.67153537e+00
  7.45464936e-02  3.43156420e-02 -2.88805425e-01 -1.89475060e+00
  6.73789263e-01 -1.90291321e-03  4.92951214e-01 -6.67002872e-02
 -6.85284185e+00  1.55931711e+00  1.04362202e+00  5.12497537e-02
 -1.23122108e+00  1.16522260e-01  1.15454845e-01  3.42338967e+00
 -2.90398788e+00 -7.85326600e-01  1.94029820e+00 -7.99823821e-01
 -1.12819495e-02 -9.75709930e-02 -7.45197058e-01  1.20809793e+00
  7.71536112e-01  2.07613274e-01 -3.00720274e-01  1.36820924e+00
  1.37854263e-01  5.33939838e-01  1.89826399e-01  4.55045938e-01
  8.33472073e-01 -1.87468159e+00  2.71254706e+00 -4.40166831e-01
  7.36783683e-01 -4.79949005e-02  4.09469414e+00 -1.16987288e-01
 -3.47814649e-01 -6.03433609e-01 -5.63798308e-01  1.68875313e+00
  1.76088661e-01  1.58547342e+00  7.81178176e-01 -3.26836729e+00
 -1.55244976e-01 -2.94640720e-01 -7.52438605e-01 -3.39884973e+00
 -2.53682762e-01  6.95563078e-01 -2.33699274e+00 -3.93194675e+00
 -6.48473918e-01 -3.66791105e+00 -3.62336636e+00 -4.66142714e-01
 -1.25210853e-02  8.96252990e-01  7.38346279e-01 -2.12490499e-01
 -3.77712154e+00 -1.07428622e+00 -1.30841351e+00 -2.21126032e+00
  5.65469074e+00  3.04830242e-02  3.77916002e+00  1.36933541e+00
 -1.49640754e-01 -5.86019039e+00 -1.52850890e+00  4.48811918e-01
 -3.90016168e-01  8.61088753e-01 -3.59912491e+00  2.53681332e-01
 -7.73243475e+00  2.17923269e-01 -3.72708589e-01  2.00962886e-01
  1.21491678e-01  6.07725096e+00  1.87453359e-01 -3.44981343e-01
 -1.21863961e-01 -3.76201689e-01 -1.43070948e+00 -6.44251168e-01
 -3.06431530e-03 -5.07084012e-01  2.23322797e+00  3.10652471e+00]
[-0.6857221   1.5645837   4.521542   -1.0081502  -0.7384633  -0.68497247
  0.7231239  -1.2125413  -1.6678185   5.946347    2.565403    1.7046965
  4.3603897   9.853686   -0.20529683  4.1502285   2.69584     5.2046804
 -1.1192935   0.6470579   2.4699082   2.3392873   1.1877137   4.9864106
  6.536779   -2.8538942  -7.1302433  -0.9759769  -0.20355284 -1.3142204
  1.562086   -0.6165117   3.0114021   0.29938167  1.6037115   3.5233636
 -0.7550316   9.183818    1.8483956  -0.10544863 -1.811591    2.0768304
  8.689655    0.5828557  -0.1187843  -0.6726322   2.8591921   3.126931
  8.249436    2.512761   -1.9187776   4.091906    3.5649624   0.37031457
  2.5173006  -2.852342    3.0908775  -0.97645366  4.0187016   5.269107
  3.014395    3.4996877   0.8170367   0.03855497  0.63377726 -9.368628
  4.1515117   0.05063306 -1.4628614   0.6196405   1.6753356   2.4566405
 -4.4062624   2.3036542  -1.2639046   1.4617699  -0.7195411   2.657827
 -1.9777372  -5.456427    1.9597504   1.609675    7.4022007   0.64199996
  4.1077495  -0.14741854  0.7920479  -7.4967527  -6.3381343   3.5042064
 -3.7056756  -3.9251616   1.661777    0.83127624 10.984915    3.4796028
  6.4602914  12.271502    1.1705711   0.35192192]
[ 2.4657650e+00 -4.8265468e-02 -6.6712337e+00 -7.8258481e+00
  3.7870187e-01  3.6278704e-01  2.3375692e+00  3.9788337e+00
  4.0514789e+00 -5.4153639e-01 -8.5897589e+00 -4.1648521e+00
 -5.8284287e+00 -2.4724107e+00 -1.7190246e-02 -2.5596468e+00
 -1.2122149e+01 -1.1265832e+00 -9.6489179e-01 -5.9820414e-01
 -3.7181039e+00  2.0163598e+00  5.3033429e-01  4.7073641e+00
 -1.1055497e-01 -3.2819009e-01 -8.9658368e-01 -7.7824574e+00
 -5.3484354e+00 -2.1889329e+00 -4.9678216e+00 -1.1023117e+01
  1.2481866e+00 -7.3173888e-02 -1.7562691e+00 -1.5559630e-01
 -1.2435348e+00 -3.1205744e-01 -1.7668106e-01 -3.5652089e+00
  2.1993916e+00 -4.0489789e-02  6.2733603e+00 -5.8424348e-01
  3.4373078e+00 -9.9265641e-01 -1.9388643e+01  1.3446590e+00
  7.7502251e-01 -5.1614323e+00  1.7903696e+00  2.2818847e+00
  1.3055186e-01 -1.0891267e+00 -6.2615066e+00 -3.1260111e+00
 -3.5891187e+00  1.2076204e+00  3.1889713e+00 -1.3314610e+01
  5.7147551e+00 -2.1745262e+00  1.3713037e+00  4.7770076e+00
 -2.9634590e+00 -4.2776921e-01 -2.0653880e+00 -2.4787753e+00
 -1.2227674e+00 -1.9900619e+00  2.7772074e+00  1.2096055e+00
 -1.3498822e+01  3.7910479e-01 -6.8691999e-01  9.2005390e-01
 -1.0260841e+00 -1.2806720e+00  5.5854499e-01 -3.2258730e-02
  2.1778331e+00  6.6030059e+00  1.9994832e+00  7.3509337e-03
  9.6202958e-01  5.3440762e-01 -3.5350868e-01 -3.0428696e+00
  1.9060127e+00 -1.5342008e+00 -1.6556699e+00 -8.4911853e-02
 -7.9330319e-01  2.0764025e-01 -8.7518084e-01  1.6694209e-01
 -1.3010787e+00  5.7419026e-01 -1.4976208e+00 -3.3093932e+00]
[-0.5683339  -2.4436097  10.669234   -2.6533005  -0.92400944 -1.2933551
  2.0465393  -2.6003861  -1.5145645   4.286484   -1.5257947  -2.2234607
 11.525934    3.3021946  -1.5193901  -0.99629205 -0.3878223  -2.7997618
  0.8956107   3.3578613   5.368314   -7.229544    1.1973783   2.9413693
 -0.49374422  1.4167533   0.53863996  5.5010257   1.006225   -0.30970076
 -0.8404586   4.591935   -2.4483879   5.529312    6.895389   -0.22565915
  2.9037275   3.9861317   0.22847378  0.11424112 -0.82272965 -0.19446772
  0.95051235 -0.0808769   1.9056672  -3.2876697  -1.3773885   1.9534476
 -4.432401    1.2013634  -5.6415586   4.96941     1.0930583  -0.849116
  1.4701355  -2.802813    2.6298606  -0.4048876   2.5601606  13.481187
  0.42442477 -1.344275   -4.7224364  -0.24117354  5.363821   -2.7806437
  1.0665876   0.14313464 -2.0668392   5.260112   -2.6802452  -1.3128937
 -0.5843163  -0.36059237 -0.8230913   2.9700954   3.3018796  -0.91084266
 -3.7423215   1.9007792  -7.275131   -2.986018    1.243376    0.9091911
  0.22622667 -0.6887266  -0.6546572   6.7584653   5.017203    1.4905391
 -8.96131     2.8620806   2.5394623   3.9260263   2.592023    8.981043
  1.9548004   3.2837887   2.9100556  -3.5843163 ]
[ 8.30247521e-01  1.01483655e+00 -8.14105511e+00 -1.78384137e+00
 -6.02574289e-01 -2.01758906e-01  5.19730389e-01  3.07963181e+00
 -1.27227056e+00 -8.74112368e-01 -8.55041370e-02 -1.03839195e+00
 -6.00239944e+00 -7.77746975e-01 -3.38259250e-01 -1.95252037e+00
 -1.34470314e-01 -9.11578894e-01  2.74861276e-01  5.79975784e-01
  1.53164017e+00  1.83061934e+00 -9.49561596e-01 -8.75518143e-01
 -3.30737859e-01  3.39551926e-01 -1.72005713e+00 -2.66315794e+00
 -1.39005780e+00 -1.22947164e-01  6.85416937e-01 -2.75775170e+00
 -1.68076873e-01 -5.11431813e-01  8.15833330e-01 -1.41172314e+00
  2.24587822e+00  1.78736806e+00 -3.50629306e+00  2.85229176e-01
 -1.58460367e+00 -1.97502431e-02  5.47725618e-01 -3.27489376e-01
 -3.50456047e+00  4.78497520e-03  1.13629112e-02 -2.69202858e-01
 -6.84637129e-01 -3.05524540e+00 -3.08819592e-01  1.27672994e+00
  5.83672762e-01  7.15467215e-01  1.09835541e+00  3.52481651e+00
  4.85486120e-01  3.04699868e-01  3.64361262e+00  2.40551043e+00
  1.59577739e+00 -1.41460156e+00 -3.06144416e-01  2.22894812e+00
 -7.39829838e-01 -1.23841476e+00 -2.17036462e+00 -2.76951385e+00
  1.21363640e+00  8.67686391e-01  2.48769633e-02  3.30426395e-01
 -1.08939600e+01  1.68158054e-01 -6.12858152e+00 -6.25942826e-01
 -7.61132956e-01 -7.12700176e+00 -1.46915841e+00  8.31189156e-01
  4.59468126e-01 -1.29052389e+00 -3.04340672e+00 -6.98090076e-01
 -9.87793624e-01  4.86351430e-01  1.18515301e+00  6.74669892e-02
 -1.25616515e+00 -9.03889179e+00 -3.62814784e+00  6.41252220e-01
 -2.09711933e+00  7.74432719e-01  7.94419408e-01  9.90232527e-01
 -1.73546469e+00  5.21038711e-01 -1.14481986e+00 -5.06134176e+00]
[-0.7717906  -2.0335424  -6.595195   -2.6123164   0.58504295  0.67646223
 -1.1586105  -0.6716575   2.4679782  -0.8085823  -0.8582487  -0.17940614
 -2.9745312  -2.4496741  -4.1425447  -2.79677     4.1070886  -0.32840213
  0.79349315  0.04314453 -0.11182103 -2.9331245   3.872416   -2.610238
  0.6235971  -0.7543245   0.7316138  -0.9158678  -0.4327783  -0.47468778
 -0.20050013  4.9832897  -2.047456    1.8594886  -0.1784816   0.6174034
 -1.5409102  -1.1963965   3.3546042  -4.95138     9.751851   -0.36853248
  0.6626063  -0.32716566  2.8988054  -5.1813016   2.248757   -0.30110353
  1.4286993  -4.5824957   1.7242398   2.3012772  -0.78112084  0.11001764
 -2.2603693  -0.10335641 -0.36730918  0.7427264   3.7772064   5.637372
  1.5236192  -1.3407705   1.1072106   0.621476    0.61602753 -3.6326094
  2.5681994  11.334712   -5.199755   -2.3590164  -0.7205618   0.2501261
  2.791642   -0.8219798  -1.5978432   3.9084253   1.9238079   3.6250772
 -0.2923462  -1.8140513  -1.1585491  -2.5879412  -6.5243363  -2.3748498
  4.9304843  -3.5495396  -0.20476076 -0.8084208   0.38124853 -3.0735726
 -3.6433432   3.2543082  -1.9603122  -1.9870807   1.1976283  -4.648659
 -1.9777998   0.61329013 -2.237462    5.480102  ]
[-7.2904152e-01  2.7880192e-01  2.1147585e+00 -9.9525511e-01
 -3.2822449e-02 -2.0195320e-01  4.4562912e+00 -3.6912194e-01
  3.6404653e+00  2.8203208e+00  9.9015254e-01  1.0799121e+00
 -4.6029529e-01 -7.5571495e-01 -2.2287934e-01  3.1496194e-01
  2.4499521e+00 -5.1187855e-01 -2.0836323e-01 -1.1767893e-01
  8.9063540e-02 -4.2248452e-01  8.4048724e-01  1.1675584e+00
 -1.4182018e-01 -1.4510213e-01  5.4726511e-01  1.0139022e+00
  1.1396129e+00 -9.1893196e-02  1.9932841e-01  2.0926797e+00
 -1.9549325e+00  9.8811092e+00 -4.0931302e-01  1.3172678e-03
 -2.9023770e-02  6.9374305e-01 -3.7813804e-01  6.9396943e-01
  3.0410321e+00  2.4176316e-01 -1.4407333e+00 -6.0022259e-01
  4.5481801e+00 -9.3387878e-01  1.3044175e+01  4.3357834e-01
  2.4623135e-01  6.5807915e-01  3.3978671e-02  3.5874882e+00
  9.4079196e-02 -1.1602880e+00  9.1307479e-01  3.4158483e+00
  3.9281377e-01  9.2569262e-01 -1.2742150e+00  4.8626976e+00
  6.0878861e-01 -8.3399361e-01 -3.4863722e-02  7.8020066e-01
  1.8963351e+00  1.1491677e+00 -7.2764836e-02  2.5384033e+00
 -1.2994406e+00 -3.9063704e-01  2.0489459e+00 -1.3673702e+00
  1.1570886e+00 -1.5122905e-01 -3.4909639e-01 -2.4978161e-01
  4.8797098e-01  8.4308439e-01  5.4185979e-02  1.1859482e-01
  2.6077518e+00  6.1626811e+00 -1.1800000e-01  4.1636200e+00
  8.0853373e-01 -3.2674494e-01  3.3510488e-01 -1.0364965e-01
  1.0322353e+00 -5.6619668e-01  4.3407202e+00  1.2408895e+00
  9.6022293e-02  6.8212099e+00 -1.9862390e+00  2.2596373e+01
  6.9511496e-02 -7.8540432e-01 -8.9447059e-02  9.1858143e-01]
[-0.5038728   1.6914593  -5.4865093   4.4903784   1.1340234   3.8385048
 -1.7546474  -1.784325    4.2517242  -4.1782207  -1.6545672   0.35000402
 -6.084334    3.865513    5.006728    0.05887272 -1.421442   -2.7640104
 -1.3200402  -3.0432315  -5.1850615   0.13919435  1.3092899   3.0384696
 -1.1672188   4.47994     1.6513175   2.7125714  -2.2239134   1.3639387
 -1.053877   -1.8131759  -4.2317686  -0.21400468  2.9815953  -0.82750076
 -1.3760412   2.4086077   0.03256735  3.6558955   0.00640596  3.685428
  2.0063937   3.3449292  -0.59270465 -3.165783   -1.2108083   4.5350347
 -1.7922164  -0.9750876  -2.7533977   1.7927995  -2.2188473  -2.434787
  2.7040243   1.7947342  -0.8155961  -0.4020945   0.52926356  0.7889976
  4.148953    1.9214544   3.1396904  -1.9793619   1.7885032  -0.98167247
 -4.119508    1.8136181  -2.3595183  -2.9497411   0.2155006  -2.1287215
  2.3842046  -0.32757834 -0.5525217  -1.1490885  -0.45486856 -0.60765785
  2.9558444   0.17646126  3.7805223   2.1328368  -1.0568659  -1.5892711
  2.2427075   2.6258886  -1.5368456  -0.25539118  2.9150946   0.12723699
  2.1560044   4.120587   -0.46943033 -1.9154105   2.1677518  -0.21622035
  3.2342412   0.23853387  0.79172814  3.0636845 ]
[ -0.730606    -1.4442956   -7.758396    -1.5957625   -0.18420194
  -5.0095286   -2.0300827   -1.0897061   -0.02776859  -7.673453
  -4.327636    -6.211175    -7.493549    -4.6654053   -4.384964
  -0.77817047  -4.094019    -3.3451486    2.5387073   -4.6397924
  -3.9146295   -1.5856346    1.2202895   -3.5732663    4.180051
  -1.3766185   -4.99434    -11.96697     -6.396778     0.10829819
  -3.1046627   -9.986841    -7.288478    -0.11693329  -5.7335796
  -2.8942053   -1.5094286   -4.718964    -2.7318306    1.6224035
  -4.2778215   -3.6187823   -3.0196552   -2.9174306   -5.344294
  -3.4130163   -5.3625703   -4.5319395   -3.8302338   -3.1725981
  -4.944271    -5.5922003   -5.9601674   -0.67940027  -1.50392
  -4.6725106   -2.6719968   -2.7426353   -0.12426846  -6.9731307
  -5.299021    -0.9869822    4.7097917   -0.7807363    2.658801
 -11.905667    -3.0322492   -1.0335122   -4.6159635   -3.3037016
  -1.6886026   -7.549792    -5.6844206    5.4902787   -2.9478774
  -3.9151332   -0.21278127  -5.379674    -0.22920763  -5.0524573
   1.8408916    1.9259183    0.6193208    0.29503676  -5.803404
  -2.683809    -5.0185466   -9.5000925    0.4585112   -6.476781
  -2.5797524   -3.5406182   -2.6451454   -3.3920615   -3.3901978
  -3.4533195   -5.0869827   -4.6772614   -0.18944247  -6.379933  ]
layer 7 Activation
elu
layer 8 Dropout
layer 9 Dense
100 1
[-0.13501365]
[0.09659683]
[0.03151117]
[0.09148172]
[-0.38716704]
[-0.31255707]
[0.31663144]
[0.1704378]
[-0.06969233]
[0.38493493]
[0.7308085]
[0.15908636]
[0.10094239]
[-0.09358931]
[0.06420872]
[-0.02756384]
[0.10571568]
[0.0767324]
[-0.08330268]
[-0.23268454]
[0.20294364]
[0.09573369]
[-0.12596476]
[-0.02714186]
[-0.6166442]
[-0.40904024]
[0.1053848]
[0.29490665]
[0.24173221]
[-0.6453075]
[-0.9154547]
[0.43629518]
[0.12754972]
[0.04349589]
[0.07747556]
[-0.14253291]
[0.31395733]
[-0.06543755]
[-0.20999354]
[-0.07579501]
[0.04890839]
[0.19596979]
[0.2523282]
[-0.14395094]
[-0.2238572]
[0.06439921]
[0.10126133]
[-0.01253091]
[0.08327223]
[0.06789541]
[-0.15411682]
[0.03950657]
[0.22804677]
[-0.13211219]
[0.19761117]
[0.1343048]
[-0.84356964]
[0.07882416]
[-0.05955123]
[0.06416158]
[0.09141335]
[-0.04611152]
[-0.18850553]
[-0.28252754]
[-0.07197904]
[0.0624592]
[0.10031522]
[-0.08565432]
[0.04954919]
[0.09037808]
[0.15812565]
[0.07139349]
[0.03214658]
[-1.7248942]
[0.10155639]
[0.1152534]
[-0.16633931]
[0.19949095]
[0.12776801]
[0.16173874]
[-0.06779961]
[-0.11016983]
[0.01366076]
[-0.07018479]
[0.08761317]
[0.07511989]
[0.04929635]
[0.08010822]
[-0.08270272]
[0.2604078]
[0.03818658]
[0.05991251]
[-0.541714]
[-0.2724594]
[-0.06007138]
[0.08763691]
[-0.09713031]
[0.09019696]
[-0.12760769]
[-0.08595379]
[-0.12375548]
