layers 10
layer 0 Dense
7 7
[-5.8422893e-02  7.2632455e-03 -6.6978019e-04  1.8149958e+00
 -2.5383182e-04 -3.0529320e-03 -8.3987065e-02]
[ 1.9228326e+00 -4.0494937e-02 -2.4036339e-03 -1.8807549e-02
 -1.5893023e-03  1.3466869e-02  5.4859793e-01]
[-0.14267519  0.6443868   0.05567054  0.01631036  0.01191519 -0.02581131
 -0.12205256]
[-0.14253837 -0.09533497  0.3958027  -0.044897    1.2152392   0.3241452
  4.16015   ]
[ 2.3695542e-01 -2.9050049e-01  1.7694324e+00 -1.0795572e-02
  7.1288323e+00  3.5150002e-03  7.8397506e-01]
[ 3.0925977e-03 -3.3131629e-02 -6.6460824e+00 -1.8192932e-04
  3.0244053e-03  1.9548857e-03  8.7215621e-03]
[ 3.9628791e-04  3.9839535e-03  4.0659140e-04 -6.4923316e-03
  1.8706315e-04 -8.1964607e+00 -3.5601869e-02]
[-1.64178774e-01  1.06372416e-01 -1.36833560e+00 -1.59914163e-03
 -5.24147511e+00  7.77479410e+00 -5.11804104e-01]
layer 1 Activation
elu
layer 2 Dropout
layer 3 Dense
7 26
[ 2.4249787e+00 -2.1269690e-02 -2.9707307e-03 -6.6643678e-02
 -4.6022100e+00  8.7370539e-01  1.7281959e+00 -1.3497707e+00
 -4.5134792e-01 -9.7333535e-04  2.1059578e-03  6.2801486e-01
 -3.5798186e-01 -2.5120571e-01  2.8640011e-04 -9.9059202e-02
  2.2450733e+00 -6.5111279e-02  9.0701491e-02  1.5181576e-01
  1.1494713e+00  2.5217389e-03  1.7423275e-01 -5.9491522e-03
 -3.5662156e-02  7.3860794e-01]
[ 0.5373183   0.0693276  -0.00349366  0.2043836  -0.88268876  0.14725123
  0.33716127 -0.17678455  0.14368574 -0.00286185 -0.00697766  0.5657181
  0.12617938  0.5046858   0.00235782 -0.02513536 -0.92976665  0.16435447
  2.1032352  -0.06239804  0.37948063  0.00677462 -0.12469091  0.05022518
  0.10926029 -0.27672413]
[-1.71914011e-01 -6.64063501e+00  2.01760232e-02  1.99130192e-01
  4.18095104e-02  1.22405159e+00 -3.87762338e-02  2.27064356e-01
  1.07712150e-01 -8.22982844e-03  4.05660045e-04 -2.01676106e+00
  1.02911092e-01  1.78311765e-01 -8.34006642e-04  1.13060385e-01
 -3.26655716e-01  1.47154376e-01 -3.15785855e-01 -6.75721541e-02
 -2.79351901e-02 -2.69052899e-03 -1.94949403e-01  3.95697498e+00
  3.97843448e-03 -3.48120123e-01]
[ 2.7364261e-02  7.0234607e-03 -2.8934351e-01  6.9534746e-03
 -1.3780031e-01  8.7230138e-02  5.6087274e-02 -4.9211271e-02
  5.3411745e-02 -2.3133129e-02 -4.7390214e-03 -6.4307503e-02
  4.7058340e-02  5.2573498e-02 -2.9264691e-03  1.1134003e-02
 -2.9517254e-01  8.0597457e-03  2.0886394e-03 -2.0254740e-02
 -5.5760574e+00 -5.7841162e-04 -2.1873221e-02 -7.9019582e-03
 -5.1013255e+00 -9.5482603e-02]
[ 4.39455211e-01  9.52006578e-01  2.10729409e-02 -7.52532244e+00
 -6.46552369e-02  8.02744865e+00  5.42494893e-01 -8.22290897e+00
  2.83737153e-01 -4.89643179e-02  3.75429634e-03 -2.32440144e-01
  3.09474301e+00 -2.34414744e+00 -3.12684191e-04  4.95421886e-02
  2.22915864e+00 -2.02504349e+01  4.15124565e-01  7.32741165e+00
 -1.47152007e-01  2.88318377e-03  1.42953134e+00 -2.01915607e-01
  1.04950555e-02  8.77486825e-01]
[-3.9698943e-03 -4.7292648e-04  3.8517821e-03  6.9339975e-04
 -2.4187765e-03 -5.0299615e-03 -4.9287645e-04  8.7515364e-04
 -1.0068234e-02 -3.3612266e-02  1.6252464e-03  7.7742161e-03
 -5.2398532e-03 -7.5254766e-03 -1.1021544e-03 -2.1007330e+00
  3.3203874e-02 -1.7840115e-04  8.6454331e-04  2.3663116e-03
  7.4953302e-03 -2.3416264e-04  1.1862261e-03  6.2498549e-04
  3.0897476e-03  1.2705947e-02]
[-1.8634237e-01  1.4395377e-01 -2.1920720e-02  2.1601544e-01
 -2.1353851e-01  1.3557053e+00  1.4636671e-02  3.0631614e-01
  1.5070750e+00 -7.1963496e-03 -1.3922076e-03 -1.6790086e+00
  1.2876308e+00  9.9316782e-01  8.5052231e-04  3.9007482e-01
 -7.8651085e+00  2.5643256e-01  1.1234041e-01 -5.3308207e-01
  1.0766242e-01 -5.2443764e-05 -5.6529272e-01 -1.2625350e-01
 -4.7599699e-02 -2.6004479e+00]
[-2.2910764e+00 -5.9986720e+00  2.8882518e-01 -6.9825144e+00
  1.9036193e+00  8.6680861e+00 -9.1475463e-01 -7.9002705e+00
 -4.2129111e+00  1.1443705e-01  2.3447156e-03  5.6779642e+00
 -9.5293659e-01 -5.0809145e+00 -3.0034133e-03 -1.2109915e+00
  8.5208207e-01 -2.0104139e+01 -3.5525569e-01  5.5094045e-02
 -3.9693180e-01  7.6612486e-03  1.5188713e+00  3.0416558e+00
 -2.2067217e-02  1.0927706e+00]
layer 4 Activation
elu
layer 5 Dropout
layer 6 Dense
26 100
[-2.71436572e-01  5.97326756e-01  1.93332362e+00  3.02432515e-02
 -1.60646159e-03  2.53739452e+00 -3.27188879e-01  9.32400860e-03
  5.45287365e-03 -5.16403746e-03  6.45707303e-04  3.46199393e+00
  1.74488938e+00  5.89160490e+00 -2.33020671e-02  9.38764286e+00
  1.24398375e+00 -3.48293819e-02 -1.83661818e-03  3.04094863e+00
  2.92479336e-01  4.45568383e-01 -1.68848131e-02  6.39088871e-03
  5.15294112e-02 -1.46222086e+01  3.74562025e+00 -4.59086627e-01
  3.76822472e-01  4.60385345e-02 -2.91718602e+00  2.00084791e-01
  6.51943564e-01  9.88012832e-03 -9.62975919e-02  1.25688568e-01
 -6.01179957e-01  5.71542084e-01  1.21214902e-02  1.22864798e-01
 -2.94207800e-02  7.98841059e-01 -8.71034920e-01  1.93049520e-01
 -1.71514060e-02 -1.76559109e-02  1.22588668e-02 -3.25200021e-01
 -5.70187904e-02 -1.00548761e-02 -1.31720891e-02 -1.88934058e-03
  5.34576297e-01 -1.29424834e+00  1.88353739e-03 -1.54054359e-01
 -2.12938696e-01  1.12042546e-01  3.73042421e-03 -2.96339631e+00
  5.46948910e-01 -3.80208552e-01  1.47577643e-01  3.76353525e-02
  1.20197892e+00  2.58476865e-02  5.72704617e-03 -2.09984973e-01
 -5.58388114e-01 -3.26431561e+00  1.92633665e+00  8.55164453e-02
  1.20993913e-03 -2.55818125e-02  1.44988805e-01 -1.22184258e+01
 -3.49679530e-01  7.74408728e-02 -1.18251836e+00 -1.42665524e-02
  2.21322942e+00 -1.36188336e-03  2.33304024e-01 -1.67859459e+00
 -1.91020723e-02 -6.42555282e-02 -2.28255149e-02  2.94636548e-01
 -4.92028967e-02 -2.92064925e-03 -1.01728044e-01  9.82376002e-03
 -5.38076162e-01 -1.56347062e-02  5.88374538e-03 -5.72304904e-01
 -9.20571136e+00  5.33951893e-02 -5.80476582e-01  3.63473059e-03]
[ 5.22251844e-01  2.38975614e-01 -1.34414984e-02 -3.70429933e-01
 -3.14796111e-03  5.17898835e-02  8.18405300e-02 -1.95627334e-03
  3.86928350e-01  9.45461169e-03 -6.84312219e-03 -7.08690464e-01
 -1.51475176e-01 -2.00858846e-01  1.55643210e-01  1.11356938e+00
  1.80484998e+00 -3.01964968e-01 -1.22621013e-02  1.03894746e+00
  4.52698797e-01  3.17421257e-02 -4.72328305e-01 -6.68167556e-03
 -2.92405356e-02  4.29739237e-01 -7.12977231e-01  6.65955693e-02
 -1.03798783e+00 -2.98816592e-01  3.83939713e-01  2.69835621e-01
  2.09357095e+00 -7.69802602e-03 -1.12576637e+01  1.32772341e-01
  2.13891789e-01 -5.10424793e-01  1.53470069e-01  1.15630999e-01
 -5.26789010e-01  7.16554999e-01 -1.56871662e-01 -2.89122844e+00
 -9.58169345e-03 -4.05063123e-01 -7.62219858e+00 -6.79299653e-01
 -2.69214213e-01 -1.97427005e-01 -2.54158722e-03 -8.14114697e-03
 -1.26554012e-01  2.48767257e-01 -9.94203263e-04  1.12940706e-01
  2.44712587e-02 -6.44493484e+00 -4.44805056e-01  1.10375155e-02
 -1.01150475e+01 -6.47049546e-01  7.05150068e-01 -3.53850186e-01
  2.88311452e-01 -2.59649545e-01 -1.82794869e-01  4.65758651e-01
  6.19834721e-01  5.75889573e-02  3.60188298e-02 -3.10120344e-01
 -4.89541003e-03 -4.14671838e-01  3.14082384e-01  3.99110693e-04
  4.05738592e-01 -2.05745935e-01 -1.16680302e-01 -1.28042335e-02
 -1.30173326e-01 -1.09458026e-02  8.23753119e-01 -2.10815892e-01
 -9.88680962e-03  6.38161600e-01 -2.82909125e-01  2.16708854e-01
 -1.58222735e-01 -5.67938713e-03  1.03612816e+00 -4.53959644e-01
 -4.78611529e-01 -1.67996004e-01 -6.24292374e-01  2.40826488e+00
  3.86664048e-02 -1.13664448e+00  3.63600820e-01 -1.16655072e-02]
[ 1.0107104e+00  2.1295215e-01  6.6121161e-01  6.0865702e-04
  2.2060487e-02 -7.5857961e-01  2.6614783e-02  6.3632041e-02
 -1.2879401e-01  1.0500832e-02 -6.5072037e-02 -1.0253251e+00
  2.7949223e-01 -2.0698581e+00 -1.5960695e-02 -3.5019152e+00
 -2.3912020e+00  3.1447724e-02 -3.6516119e-02  1.1027119e+00
  7.9680794e-01 -5.8563113e-02 -3.2814693e-02 -3.7705187e-02
 -1.1090670e-01 -3.1251988e+00 -1.0110182e+00  2.8192654e-02
  4.9740493e-02  2.9906559e-01  2.7513156e+00  5.8733717e-02
 -3.1871181e-02  3.1132057e-02  1.7402548e-02 -5.3748474e-02
 -2.6164246e-03  5.8243513e-01  3.3426348e-02 -1.8974678e-01
  6.1918260e-03 -4.0315998e-01 -1.6956842e-01 -7.6671571e-02
 -5.1097047e-02  2.1238049e-02 -2.1505740e-02  1.4309601e-01
  6.3685672e-03  3.9464537e-02 -4.6994235e-02 -5.9870571e-02
 -1.6358263e+00  2.0226109e+00 -4.6375948e-03  2.2820707e-01
  1.6198775e-01  4.2780168e-02  5.5616748e-02  1.2208251e+00
  9.0586716e-01 -2.8469527e-02  3.2553843e-03  1.2066379e-01
  2.4956455e+00  2.5027458e-02 -3.4233291e-02 -1.7306164e-01
  1.2413477e+00 -9.8164719e-01  5.9484936e-02  8.9821843e-03
 -8.0512851e-02  3.6270882e-03  1.3134179e-01 -8.1868160e-01
  1.3074997e-01 -3.4241732e-02  3.8872114e-01  3.9080605e-02
 -1.3327140e+00 -4.9905986e-02 -6.7774497e-02  1.3727975e-01
 -2.6174013e-03 -6.8348169e-01  6.4532766e-03  1.5655730e-02
  1.5251465e-01 -3.3422033e-03  4.6865951e-02 -7.9894466e-03
 -3.1366378e-01 -2.7308326e-02 -5.8446292e-02  5.0683349e-01
  1.4736551e-01 -7.3293120e-02  1.0484930e+00 -5.4829825e-02]
[ 9.1119852e+00 -2.9399990e+01  1.0341221e+01 -1.8619784e+00
 -1.0374640e-02 -1.4639710e+00  2.7824509e+00  5.1910602e-03
  6.6465607e+00 -6.9879740e-03  8.1591000e-04  5.1960711e+00
 -1.9240585e-01  5.1018510e+00 -4.1233459e+00  4.8122856e+01
 -4.5348401e+00 -1.2759652e+00 -1.8399362e-03 -3.4638929e+00
 -9.6980991e+00 -2.3104166e+01 -2.2878525e+00  5.3640222e-03
 -5.7790689e+00 -7.5088352e-01 -8.5140422e-02  1.9935893e+00
 -2.7553762e+01 -5.7425389e+00  3.5526605e+00  2.1857216e+00
  2.8651631e+00 -9.0660537e-03  5.8020639e-01  3.1682847e-03
  5.6657248e+00 -1.9502409e+01  1.6531104e+00  5.5520329e+00
 -3.3602669e+00  1.3962027e+01 -1.4034462e+00  3.7896767e-01
 -5.3773271e-03 -1.4785124e+00 -2.2021899e-01  8.0249958e+00
 -1.8469405e+00 -4.5018783e-01  4.1713719e-03  2.9815661e-03
 -1.1853646e+00 -8.6350527e+00 -8.6369468e-03  7.3221326e+00
 -7.3448668e+00 -1.2682410e+00 -5.9495158e+00  1.6432977e+00
  1.0778920e+01 -6.2413752e-02 -7.2506195e-01 -2.6577860e-01
  7.6052445e-01 -7.2327292e-01  2.2136183e-01  3.1423962e+00
  2.0043232e+01  1.1197025e+00  4.4039588e+00  2.9593596e-01
 -5.0934977e-03 -2.1751723e+00  1.8421097e+00 -4.2311874e-01
 -5.1654582e+00 -2.4979107e+00  2.4772863e+00 -1.0086555e-03
 -4.7501698e+00 -2.9582237e-03 -2.6311556e-01  1.2577102e+00
 -6.8297582e-03  1.4015618e+01 -7.1912009e-01 -3.9942378e-01
 -1.6385231e+00 -2.4832741e-03 -1.8390612e+01 -2.5631645e+00
  7.1037202e+00 -1.7412068e-01 -2.4494452e+00  3.1193814e+00
  1.4278080e+00 -7.1310277e+00 -4.0821242e+00  3.9172173e-03]
[ 1.2226519e-01 -2.4910565e-01  1.6588315e+00  2.7514245e-02
 -9.0296520e-03 -2.6364639e+00  2.4739313e-01 -5.2764355e-03
  2.4359685e-01 -3.7088031e-03 -2.7993645e-03 -6.3658941e-01
  3.2669851e-01  4.6305737e-01  1.9665647e-01 -1.0003857e+01
 -9.9729335e-01  2.6748607e-02  4.4821925e-03 -1.7005621e-01
 -8.4296715e-01 -8.0308735e-01  5.5864993e-03 -1.5292757e-03
  1.2686098e-01 -2.0103710e+00  5.1135331e-01  1.9833347e-01
 -4.3883494e-01 -2.2586463e-01  1.3648708e+00  2.6432958e-01
 -5.7888436e-01 -2.0133592e-03  1.3585152e-01 -2.5907561e-01
  1.9279642e-01 -8.4210193e-01  8.1402436e-02  1.5510716e+00
 -1.7008150e-02 -5.3037601e+00 -2.2968131e-01 -1.4016639e-01
 -7.9681445e-03  4.1632574e-02 -5.0868191e-02 -5.4234064e-01
 -2.0037059e-01  2.5786579e-02 -6.8872981e-04 -6.1953221e-03
 -3.0466020e+00  8.7597829e-01  5.1232260e-03 -9.3823993e-01
 -3.1649676e-01 -3.3742952e-01  3.8370956e-02  5.3521099e+00
  1.5153136e-03  5.3880137e-01  7.5508212e-04  1.9041985e-02
 -6.2565953e-01  4.0598590e-02  2.2467593e-02  1.8776350e-01
  2.9526322e+00 -1.3166922e+00 -7.9106307e+00 -7.2534643e-02
 -6.4519889e-05 -3.0305560e-03 -1.1015375e-01  1.7081150e+00
  2.4824722e-01 -1.7180291e-01 -1.2452359e-02 -8.9049600e-03
 -1.4303023e+00 -1.2000575e-02 -2.3510368e-01 -2.3930187e+00
 -1.6325142e-02  2.3663206e-01  5.6688860e-02  1.6278343e-02
 -8.4571704e-02 -2.5697629e-04 -3.4683821e-01  1.7016865e-02
  2.8998488e-01  6.3875072e-02  3.2605987e-02  7.1744090e-01
 -1.0632395e-01 -1.0006500e-01 -1.0013053e+01  2.4411730e-03]
[ 1.5305388e-01 -1.0424187e+00  5.5517060e-01  5.5896735e-01
 -6.4562628e-04  8.1936711e-01  2.8510457e-01 -2.1433157e-03
  1.7096893e+00 -2.8946984e-03  1.4156370e-03 -1.0585334e+00
 -2.9346251e+00  5.3649759e-01  7.9698227e-02 -8.6836803e-01
 -6.5386491e+00  4.8806939e-01  9.8172307e-04 -9.8693269e-01
 -3.0285761e+00 -4.7875233e+00  4.1926059e-01 -1.2933806e-03
  5.4958850e-01 -5.8354312e-01 -1.1752483e+00  8.8750279e-01
 -2.2000437e+00  1.4918374e-01 -1.4596145e+00  1.1323048e+00
 -1.5961912e+00 -2.6588507e-03  9.8488134e-01 -1.2198850e+00
  7.1726662e-01 -2.0730097e+00  1.1699851e-02 -1.3378475e+00
  2.7781764e-01 -3.4117486e+00 -9.3161049e+00 -4.3612611e-01
 -1.3290863e-03  4.9935362e-01 -2.0579740e-01 -1.0397627e+00
 -7.0303077e-01  4.1747084e-01  6.3387712e-04  5.4204965e-04
  4.4760460e-01 -9.5219564e+00 -2.0684390e-03 -5.1378779e+00
  1.6018333e-01 -1.7110258e+00  5.0741208e-01 -4.4625071e-01
 -2.2225578e+00  1.0782601e+00  2.1385880e-01  5.7394314e-01
 -1.3035599e+00  6.3933629e-01  4.2708848e-02  6.4053237e-01
 -2.6006122e+00 -8.2420260e-01 -1.4646431e+00  1.3166367e-01
 -2.8334116e-03  3.8946635e-01 -1.4318706e+00 -3.4946412e-01
  1.8496009e+00 -3.7967178e-01 -3.0480403e-01 -2.4744307e-03
  7.9151481e-01 -8.1035239e-04 -1.5348046e+00  1.3108476e-01
 -1.0461395e-03 -9.2522375e-02  4.9940327e-01 -1.6718560e-01
 -7.8675663e-01 -1.9029017e-04 -3.4552939e+00  5.0332421e-01
  7.7980298e-01  4.6572751e-01  5.7894224e-01  4.1372905e+00
  3.9099294e-01 -4.4675615e-01 -4.6861043e+00  3.1249942e-03]
[-3.98028105e-01  2.74305403e-01 -6.47155285e+00 -2.63875544e-01
 -4.43908200e-03 -4.48203850e+00  3.38783711e-01 -9.79898404e-03
 -1.06796062e+00  3.03801545e-03 -8.19968618e-03 -1.35455620e+00
 -1.09917915e+00 -8.71477604e+00  7.32351691e-02 -1.65159464e+00
  3.80276227e+00 -1.69108883e-01  7.89771136e-03 -4.32626438e+00
  1.93529236e+00  3.16170526e+00 -9.41956267e-02 -6.60504075e-03
 -4.57253993e-01  1.56832695e+00 -2.05996251e+00 -7.12747946e-02
  9.15409446e-01 -3.52051169e-01 -3.27257693e-01 -9.62476075e-01
  1.04175162e+00 -6.78938627e-03 -5.55527210e-01  7.80460179e-01
  9.68941376e-02  6.32901430e-01  3.32105234e-02 -3.59612823e+00
  2.33308617e-02 -1.15591831e+01  2.75558901e+00  7.62498453e-02
  3.40633630e-03 -1.62639603e-01  1.99475333e-01  2.01514506e+00
  5.33884168e-01 -1.72435105e-01  1.06726233e-02 -8.20587296e-03
 -5.28141260e-01  8.65937996e+00  8.49599298e-03  3.36176205e+00
 -4.98837568e-02  1.20328307e+00 -1.16842024e-01  2.48839927e+00
  2.65454197e+00 -3.29649985e-01 -2.28332549e-01 -3.95714402e-01
 -6.67996120e+00 -3.38047683e-01 -1.79763272e-01 -1.77630689e-02
  1.28058159e+00 -1.32480383e+01 -2.81672072e+00 -1.93235889e-01
 -3.73992953e-04 -6.88211024e-02  8.59182656e-01  2.61446804e-01
 -8.24355125e-01  3.41841020e-03  6.18590355e-01  8.76369979e-03
 -3.07353306e+00 -1.26978885e-02  8.42220306e-01  1.16319549e+00
  5.63648203e-03 -1.99276488e-02 -1.89095572e-01 -5.14996201e-02
  6.35782778e-01  4.56624944e-03  2.78230262e+00 -1.75713658e-01
  2.12288737e-01 -1.92277431e-01 -2.62298644e-01  2.69929719e+00
 -6.45676231e+00  2.41920546e-01  3.13904810e+00 -2.06569373e-03]
[ 5.5768242e+00 -1.3552219e+00 -5.7076850e+00  7.5886637e-02
  8.8228111e-04  8.6582594e+00 -4.6728858e-01 -1.1964771e-02
  4.3002343e+00  9.8746258e-04  4.4466197e-03  7.8196347e-01
 -1.0557310e+01 -7.0890012e+00 -2.8171235e-01  3.5512900e+00
 -1.1374144e-01  6.5155454e-02  5.2545238e-03 -2.9087372e+00
  7.0752734e-01 -6.5766335e+00  8.2263507e-02  4.2710840e-04
  1.1358245e-01  5.8330808e+00 -9.5605154e+00  5.1237983e-01
  6.6764045e+00  4.8687601e+00 -1.4781750e+01 -2.4315043e-01
 -3.1478003e-01  1.5007128e-03  2.5066203e-01 -6.7649610e-02
  9.2690687e+00  9.8020992e+00 -3.0274922e-01 -1.2201473e+01
  9.9151082e-02  1.0816683e+01 -3.4441695e-01 -7.4185002e-01
 -6.1988819e-04  3.1381525e-02  4.8983069e-03  1.7512043e+00
  4.1411236e-01 -1.1126083e-01  3.3739035e-03  1.6831991e-03
  1.0410715e+01 -6.0425115e+00  9.1203284e-03 -5.7679230e-01
  7.1600423e+00 -1.4898305e-01  5.8062637e-01 -1.8583765e+01
  6.9866438e+00 -1.0545098e-01 -3.1310007e-01  1.1612945e-01
 -5.6428490e+00 -2.6248425e-02 -2.1037437e-02 -2.2956904e-02
 -1.8036346e+01 -1.6041479e+00 -1.3657737e+01  3.0243838e-01
  6.8861893e-03  5.3434409e-02 -6.2021196e-01  2.3142052e-01
  5.6976515e-01  1.1929647e+00 -2.3066169e-01 -8.2457560e-04
  9.7261257e+00  7.7552933e-05 -7.4315429e-01  1.1925293e+01
 -3.2926768e-03 -6.5657282e-01 -8.1964813e-02 -4.5252937e-01
 -3.8782433e-01 -4.6453038e-03 -3.8768476e-01  5.2845720e-02
  4.2216620e-01 -4.9425006e-02  3.3280709e-01 -4.5951552e+00
 -5.7782273e+00 -1.0735374e+01 -7.6677060e+00  5.5201780e-03]
[-9.02173424e+00  1.22950706e+01  2.40661907e+00  4.92448449e-01
  1.90157294e-02 -2.10094064e-01 -3.21902418e+00  1.04572056e-02
 -4.24897051e+00  5.27575752e-03 -1.83679275e-02  4.39001369e+00
 -1.04310834e+00  6.74973130e-02 -5.17106724e+00  2.23516674e+01
  1.68353577e+01  4.11066532e-01 -2.34082583e-02  6.39122581e+00
 -7.66467428e+00 -2.21251512e+00  4.73941356e-01 -1.00606782e-02
 -1.90043736e+00 -2.50582457e-01 -4.99122366e-02  4.06980371e+00
  1.61847472e+00  2.26444006e+00 -2.03001666e+00  4.25187063e+00
 -5.85542011e+00  4.91240015e-03  2.96717763e-01 -2.51241064e+00
 -6.32719326e+00  8.91710758e+00 -1.79203737e+00 -1.68811679e-01
  1.98882908e-01 -1.06246023e+01 -6.99879026e+00  3.59471202e-01
 -1.40959015e-02  5.75914323e-01  1.59818619e-01  1.25511885e+00
  2.79169488e+00  2.84594327e-01 -1.64321177e-02 -2.54697185e-02
  2.06916243e-01 -3.33840871e+00  7.84643833e-03 -1.37312794e+00
  6.60569286e+00 -2.29570675e+00 -7.69426525e-01 -1.29108858e+00
 -1.17034588e+01 -7.71782041e-01 -8.82732987e-01 -1.30697703e+00
  5.97190380e-01  8.28699350e-01 -3.83988202e-01  5.37490082e+00
 -5.61416292e+00  1.56652927e+00 -1.94611251e+00 -7.63090849e+00
 -6.05048705e-03  4.87728894e-01 -3.80087805e+00 -2.08224505e-01
 -2.19161820e+00  3.58078241e+00 -1.25666964e+00 -1.81921548e-03
 -2.32992470e-02 -2.19918657e-02  3.19746041e+00  1.69851482e+00
 -1.21490052e-02 -8.07767010e+00  3.38018805e-01 -3.72975707e+00
 -7.73457766e+00 -1.99954156e-02 -6.02712774e+00  3.90831292e-01
  6.01560402e+00 -1.71237677e-01  1.34337276e-01 -4.88527346e+00
  1.11731134e-01  8.55413628e+00  1.03784597e+00 -2.66541559e-02]
[ 6.82779670e-01 -6.93992674e-01  1.70847654e-01 -2.62138136e-02
  3.81349027e-02 -3.08584780e-01 -2.28784040e-01  1.41231832e-03
 -4.12164688e-01 -5.79133769e-03 -2.03561820e-02 -3.78961056e-01
  3.25472713e-01 -5.71339965e-01  3.19058061e-01  8.60523582e-01
  1.56455827e+00  1.63941383e-02  1.60967950e-02 -1.04826665e+00
  6.86002791e-01  2.65688777e-01 -2.24156193e-02 -1.18192453e-02
 -8.19761902e-02 -7.74340749e-01 -1.84027955e-01 -1.98389038e-01
 -5.27554810e-01  1.94894865e-01  6.05188161e-02 -3.90325695e-01
 -2.28991464e-01  1.92610137e-02 -1.18838236e-01  1.68101769e-03
 -1.90488294e-01 -1.55075058e-01 -2.97190668e-03  2.69183755e-01
 -3.29106972e-02 -2.31682062e+00 -1.60937428e-01  3.26391339e-01
 -3.65695842e-02 -1.91999134e-02 -5.76354787e-02  1.08611727e+00
  1.71781585e-01  9.39715728e-02 -1.37908699e-03 -7.65619706e-03
  4.54148054e-01  4.99658287e-01  2.82113850e-02  2.37151951e-01
 -6.45468459e-02  3.94733064e-03 -6.56248853e-02 -4.07153875e-01
  5.04389000e+00  1.01342924e-01  3.22997808e-01  5.30542552e-01
 -3.61032635e-01  1.53900478e-02  2.23366097e-01  1.87469915e-01
  3.91788512e-01  8.33341777e-01 -2.19248548e-01 -1.62969623e-02
 -1.76189654e-02 -8.38430002e-02  6.18042722e-02  1.30321393e-02
 -6.86259493e-02  1.44343287e-01  1.26513213e-01  2.83377189e-02
 -1.23421304e-01 -1.89587642e-02 -1.57822043e-01 -2.70406544e-01
  2.22486537e-02  7.54850090e-01  8.27011243e-02 -7.54273906e-02
  6.58525527e-02  2.13720705e-02 -3.88612896e-02  3.04038264e-02
 -6.47896707e-01  1.14465535e-01  1.39235836e-02 -2.14793608e-01
  1.59522220e-01  4.37099546e-01 -1.08575106e+00  1.33703218e-03]
[ 5.01992479e-02  9.33109522e-02 -1.78452116e-02 -2.02927529e-03
 -1.34158889e-02  9.61247180e-03 -3.28064449e-02 -1.34190470e-02
  4.05967608e-02  9.29704029e-03 -1.06801623e-02 -3.38003486e-02
  4.54109684e-02 -2.20502317e-02 -2.45746709e-02  5.40628582e-02
 -6.83928505e-02 -8.09347536e-03 -8.76829028e-04  4.14983854e-02
  1.23284245e-02 -6.01475462e-02  1.71906082e-03  5.88645041e-03
  1.75514966e-02  1.51492264e-02 -3.11493352e-02  9.08181537e-04
 -7.09793195e-02 -1.10896612e-02  3.63021344e-02  8.63201078e-03
  1.52492188e-02 -2.15467345e-03 -1.83629012e-03  7.78729049e-03
 -5.71950264e-02  1.64922513e-02 -5.08445315e-04 -2.46751681e-02
  1.84484187e-03  2.51391798e-01 -1.16951568e-02 -6.99865352e-03
  2.16137990e-02  1.27037056e-02 -1.60487019e-03 -8.09031725e-03
 -1.51767731e-02  2.80778925e-03  1.06252255e-02  7.90955033e-03
  1.63470600e-02 -7.99132213e-02  4.12969626e-02 -1.67536363e-02
 -1.99005231e-02  4.97231409e-02  1.36148389e-02  5.58532849e-02
  3.23380142e-01  3.57120074e-02  9.12896916e-03 -8.81261099e-03
 -3.20546125e-04 -3.23745026e-03 -1.81327537e-02  2.67929938e-02
 -9.27663781e-03 -3.29099894e-02 -7.27443630e-03 -8.10892042e-03
 -7.21435668e-03  1.03756385e-02 -1.51515882e-02 -6.23714877e-03
 -7.52397627e-03  3.55272591e-02 -3.29848006e-03  8.65850039e-03
  8.00203532e-03  7.21571152e-04 -5.59780076e-02  1.36939129e-02
 -1.74833275e-02 -3.43997288e-03 -1.49011717e-03 -1.00480570e-02
 -7.98638910e-03  2.68589258e-02  6.40249848e-02 -3.49870673e-03
 -3.26124113e-03 -7.46460771e-03  7.63141364e-03  6.34614436e-04
 -6.15837192e-03 -1.82299782e-03 -5.12135439e-02 -5.16394014e-03]
[-8.41356516e-01 -3.71139979e+00  1.10689604e+00 -1.67196333e+00
 -1.77421921e-03  1.92021120e+00  3.99829626e-01 -4.74599050e-03
 -1.45464456e+00 -9.40854719e-04 -3.72224092e-03  3.90993625e-01
 -1.38764381e+00 -1.93666235e-01  3.06404471e-01  3.08744860e+00
 -6.59642649e+00 -1.61864674e+00 -7.75129348e-03 -1.49415445e+00
 -3.94932771e+00 -2.27181649e+00 -2.00372744e+00 -7.25880219e-03
  9.26710606e-01 -5.52296460e-01  4.80664611e-01 -7.36737192e-01
 -8.02131295e-01  7.87654519e-01 -3.10409856e+00 -2.63524145e-01
 -1.16100159e+01 -5.60648507e-03 -1.24641016e-01 -1.92781818e+00
 -5.17227769e-01 -8.24786007e-01  8.62783939e-02 -2.84068394e+00
 -2.31992221e+00 -1.56104982e+00 -2.03649536e-01 -3.13454747e-01
 -3.38734244e-03 -1.72233820e+00 -4.91362035e-01  1.91809881e+00
  6.96514666e-01 -1.54810047e+00 -5.51711395e-03 -6.95161382e-03
  1.08941603e+00 -3.35122633e+00 -3.64980497e-03 -3.46981812e+00
  1.72817361e+00 -1.69854808e+00 -2.08597684e+00 -8.22048336e-02
 -3.02041247e-02  5.16222334e+00 -3.18050170e+00 -1.19104147e+00
 -3.77146149e+00 -1.58944726e+00  2.12703991e+00 -6.45608425e-01
 -2.16014743e+00 -1.11651075e+00 -1.72660482e+00  1.69902779e-02
 -9.11538210e-03 -2.09352279e+00 -2.32433367e+00  4.87868004e-02
 -1.34612834e+00  9.90272284e-01 -8.44375134e-01 -1.04441466e-02
  2.40084577e+00 -4.17963648e-03  4.65226136e-02  1.87719059e+00
 -8.42265505e-03 -3.27420163e+00 -1.60951638e+00 -4.29588288e-01
 -2.16639423e+00 -3.34876077e-03 -5.38947439e+00 -1.99774027e+00
 -1.16104543e+00 -1.17187786e+00 -6.58732295e-01  2.14214340e-01
  2.39143819e-01  1.07495403e+00 -4.69325876e+00 -3.13435495e-03]
[ 2.02407384e+00 -2.40072327e+01 -2.22465301e+00 -3.89738590e-01
 -1.32289743e-02  3.42798203e-01  2.73842430e+00 -3.25292884e-03
 -1.51577818e+00 -4.14770562e-03  3.72397527e-03 -4.33921242e+00
  5.37682950e-01 -2.58767962e-01 -7.02468678e-02 -4.90351067e+01
  6.56265688e+00 -2.54981279e-01 -2.01818720e-03 -7.11685085e+00
 -6.58415318e+00  1.21973400e+01 -2.05959439e-01  3.25547159e-03
  1.59462917e+00  4.35000360e-01  1.29614067e+00 -3.57578945e+00
 -1.20141115e+01 -1.06926247e-01 -4.35624737e-03 -2.25097609e+00
  2.88304687e+00 -2.45389878e-03 -4.17340882e-02  2.52739501e+00
  1.24500978e+00 -9.78468513e+00  2.18723679e+00 -1.32251874e-01
 -1.32246718e-01  4.40067387e+00  7.26660681e+00 -3.55915189e-01
  3.89812537e-03 -2.12991804e-01 -2.16543064e-01  2.18658328e+00
  8.63993108e-01 -1.62977189e-01  9.04430344e-04  1.64447189e-03
  4.02338952e-01  5.17297173e+00 -6.32677227e-03  1.10767436e+00
 -5.95237589e+00  1.94946909e+00 -3.20927016e-02  3.67933750e-01
  7.85828114e+00 -3.14033687e-01 -4.06694978e-01  5.79792440e-01
 -5.42758405e-01 -5.45064569e-01 -2.12278470e-01 -1.07320633e+01
  7.67462826e+00 -8.45516324e-02  1.63230348e+00 -2.72771144e+00
  4.42543998e-03 -2.16043591e-01  1.70763206e+00  7.58611739e-01
 -3.55945945e+00 -7.83389568e+00 -5.33570111e-01 -4.41091834e-03
  2.19742253e-01  6.34636451e-03 -2.33311966e-01 -6.03787804e+00
 -3.58874071e-03  4.14221716e+00 -2.33578131e-01  7.37026632e-01
 -1.10321188e+00  3.77373933e-03  2.05542755e+00 -3.06635946e-01
 -4.85985374e+00 -7.12899715e-02  4.10057187e-01  3.08573318e+00
 -2.87573516e-01 -3.74776214e-01 -1.35441875e+00  2.32723751e-03]
[ 9.44062805e+00  1.34327774e+01  7.86677957e-01 -3.57647151e-01
 -4.77455556e-03 -1.81248561e-01 -1.75321043e+00 -7.74574699e-03
 -1.96265316e+00  7.67871970e-03 -6.81743305e-03  6.11906588e-01
  2.54390025e+00 -7.85934806e-01  6.12320280e+00  5.37805843e+00
 -3.04482250e+01  1.75615903e-02 -3.31274862e-03  4.58268344e-01
 -1.79486618e+01  2.54480410e+00 -1.05869198e+00 -8.11053999e-03
 -3.97641921e+00 -2.51868081e+00  2.12547874e+00 -4.02341032e+00
  5.37386274e+00 -2.70649815e+00  2.47966146e+00 -1.17701101e+00
 -2.22455730e+01 -3.50146438e-03 -5.26404321e-01 -1.87377775e+00
  2.74135399e+00  1.21401482e+01 -1.85449898e+00 -5.62358677e-01
 -1.37055516e+00  8.57784081e+00 -2.27754712e+00 -1.00188141e+01
  9.82140098e-03 -4.06406403e-01 -3.92895430e-01 -4.94822741e-01
 -1.57326984e+00  4.93023634e-01 -5.61028486e-03 -3.62555031e-03
 -1.90451697e-01  2.87437630e+00 -5.88719733e-03  9.91480827e-01
  7.40841436e+00  6.46694064e-01  5.80882013e-01  1.34033576e-01
  6.56460619e+00  2.76039028e+00 -1.62047207e+00  1.51326430e+00
 -8.32949257e+00 -9.67771411e-02 -7.21371770e-02 -1.16927795e+01
 -4.88346720e+00 -4.88690042e+00  2.11867881e+00  2.16531682e+00
 -1.43670775e-02 -1.01174963e+00  2.68742061e+00 -1.43057391e-01
 -2.58999968e+00  3.79621696e+00  1.91992474e+00 -1.41727058e-02
  4.26645547e-01  7.38204271e-03 -5.87949848e+00  6.71770287e+00
 -4.04834165e-04 -5.12147141e+00  4.16029692e-01  1.57703924e+00
 -2.37067556e+00  5.99065889e-03 -6.71190786e+00 -1.14931250e+00
 -4.84000206e+00  1.12376165e+00 -8.31659794e-01  8.85385036e-01
 -1.48237109e+00 -3.55289245e+00 -1.77566722e-01  2.86823162e-03]
[ 1.45773113e-01  1.77855089e-01  6.02188185e-02  2.49486882e-03
  3.95783298e-02 -7.68366549e-03  2.34020613e-02 -5.37040411e-03
  3.61449644e-02  2.51091179e-02 -2.82712225e-02  7.76734203e-02
 -5.76690584e-03 -3.32614779e-02 -8.48891586e-03  1.28111035e-01
  1.61487311e-01 -5.02780499e-03 -3.30173261e-02  7.32451072e-03
  3.71772200e-02 -1.31754637e-01  9.51395649e-03 -1.73223279e-02
  1.91335508e-03  6.86447173e-02 -4.31878213e-03  1.12831024e-02
 -5.13097011e-02  8.86927638e-03 -2.90770177e-02 -1.23149622e-02
  1.38711780e-02 -4.49576793e-04 -4.26275050e-03  4.86839144e-03
  3.46742594e-03 -7.45545793e-03  5.62395900e-04 -1.19607151e-03
  2.00163517e-02 -7.09967539e-02 -1.49416616e-02 -3.13744247e-02
  8.09568539e-03 -2.24385387e-03 -2.30641337e-03 -2.05634739e-02
  1.04168374e-02  1.40506141e-02  4.79112659e-03 -4.12801877e-02
 -1.00581478e-02  1.33443354e-02 -5.55007439e-03 -1.93817429e-02
 -4.48129736e-02 -1.86670609e-02 -7.36577390e-03 -4.91765002e-03
 -1.60773650e-01  3.40846218e-02 -7.76044000e-03  9.81520425e-05
  4.00163233e-02  6.73249364e-03  2.43398338e-03 -5.67635149e-03
  3.72813642e-02 -2.52548158e-02 -2.78571132e-03  3.56968754e-04
 -5.52008068e-03 -1.65740785e-04 -6.20969059e-03  7.09074223e-03
  7.01156072e-03  9.02023073e-03 -2.66305022e-02 -5.45664923e-03
  6.41364139e-03  5.50027704e-03  3.95749183e-03 -8.85718614e-02
 -3.91958430e-02  2.12239083e-02 -1.00401975e-02  8.56020767e-03
  2.18429118e-02 -3.56857888e-02 -7.91948140e-02 -9.58468579e-03
 -2.07040012e-02 -6.13080524e-03 -2.32006740e-02 -8.00173380e-04
 -1.53378746e-03  2.14333162e-02  1.73807163e-02 -1.01861143e-02]
[ 2.04283309e+00 -5.27768493e-01 -4.84932870e-01 -1.43009758e+01
 -3.10727092e-03  6.69739151e+00  9.07563305e+00 -1.83181441e-03
  4.29296225e-01  2.40899785e-03  2.77535361e-03 -5.43037415e+00
  3.71057534e+00 -1.15401542e+00  1.98000765e+00 -1.61523491e-01
  3.99754562e+01 -1.38325539e+01  2.01288611e-03 -4.46200281e-01
 -8.55613899e+00  3.23502426e+01 -1.49549294e+01 -1.74966129e-03
  6.98498264e-02  1.30316758e+00 -4.62876081e+00 -1.52663875e+00
 -1.12310486e+01  3.54402256e+00 -2.16199803e+00  2.63292909e+00
  1.25262654e+00 -6.08000730e-04  2.41844201e+00  7.39481592e+00
  1.72310814e-01  1.44214857e+00  8.45905495e+00 -6.70098543e+00
 -1.54701796e+01  3.44218707e+00 -5.91019154e-01  4.57165289e+00
  1.08916750e-02 -1.45814285e+01 -2.03102350e+00 -5.57153177e+00
 -1.60575256e-01 -1.29717436e+01  3.32181342e-03  3.56858736e-03
 -3.25253814e-01  6.70138264e+00 -3.56015377e-03 -2.78758526e+00
 -2.10528135e+00 -4.76610041e+00 -1.59572620e+01 -2.47497463e+00
 -3.61511850e+00  2.36177940e+01  2.36964846e+00 -1.23426313e+01
  6.22737050e-01 -1.43652687e+01  1.69985237e+01 -4.25900507e+00
  1.05822913e-01 -3.22634363e+00 -2.04109049e+00 -5.14850426e+00
 -3.52131575e-03 -1.51951914e+01  2.63387871e+00  1.25359833e+00
 -2.22212970e-01 -3.61444473e+00 -3.96658111e+00  1.60410549e-04
  3.60900831e+00  5.01071382e-03  3.96687889e+01  5.00393486e+00
  4.12725471e-03 -8.45564365e+00 -1.39899426e+01  3.33539534e+00
 -1.56090403e+01  2.26876023e-03  4.28314686e+00 -1.51533098e+01
  8.67414236e-01 -1.17079525e+01 -1.25740862e+01 -6.78415298e+00
  5.07559240e-01 -4.87241602e+00  2.52142978e+00  3.16011463e-03]
[-4.10770607e+00 -9.02163219e+00 -1.50442468e-02  4.43650335e-01
  9.85945691e-04  3.21473135e-03  2.17854428e+00 -1.41890850e-02
 -2.95183492e+00  1.17728172e-03 -4.15761024e-04 -2.48093888e-01
 -5.56004477e+00  5.69676936e-01 -7.12547660e-01  2.11911869e+00
  7.03835773e+00 -4.36834127e-01 -2.70139705e-03 -4.56161547e+00
  1.98336148e+00  3.41493869e+00  2.96579909e+00 -3.00395139e-03
 -2.54239202e+00  1.04909158e+00  4.08259302e-01 -4.34719467e+00
 -6.50981617e+00 -1.59710765e+00 -1.26709819e-01  1.88675666e+00
 -7.02008200e+00 -2.24118284e-03 -6.52019978e-02 -5.52062988e+00
 -3.16502786e+00  1.16361809e+00 -1.56798077e+00  2.54558604e-02
  9.54718876e+00 -6.89745092e+00  2.25774199e-02 -1.19898878e-01
 -1.81172264e-03  1.67991626e+00 -1.91638604e-01 -1.05698772e-01
  1.17029357e+00 -5.21570444e-01 -4.08576848e-03 -4.01080539e-03
  5.49328327e-02  3.36250603e-01  1.03338109e-02 -3.27385235e+00
  3.65471172e+00 -6.22933197e+00  1.03712597e+01 -3.67198706e-01
 -7.38591433e+00  9.85960102e+00 -1.17870498e+00 -3.42077911e-01
 -2.72396277e-03 -4.99913990e-02  6.25005960e-02  1.40769827e+00
 -7.25718141e-02  1.18855715e+00 -8.66482109e-02  2.29945827e+00
  2.40942580e-03  2.59325194e+00 -1.40444279e-01  3.16718400e-01
 -2.25967240e+00 -5.71448267e-01  7.59417489e-02  4.16712603e-03
 -2.40124822e-01 -1.39118405e-03 -4.50121164e+00 -5.66891193e-01
  6.54793577e-03  1.79364586e+00 -6.15220666e-01 -2.59216964e-01
 -4.50302482e-01 -1.16576785e-02 -5.60687780e+00  4.74181461e+00
 -4.03107071e+00 -9.57452834e-01 -9.01020527e-01  2.30849192e-01
  8.75211284e-02 -2.27458596e-01  2.46875048e-01  2.50447053e-03]
[ 1.23694668e+01 -5.72781706e+00  2.79853880e-01 -2.22607946e+00
  6.51839422e-03 -6.82235861e+00 -2.84213471e+00 -4.55418834e-03
  9.97121811e+00 -5.41881984e-03  3.99837410e-03  8.64919949e+00
  2.28310704e+00 -2.52989113e-01  4.37398720e+00  1.69842300e+01
  2.63986373e+00 -1.96383452e+00  3.34746973e-03  5.56689358e+00
 -1.12525117e+00  2.23978353e+00 -2.83453107e+00 -2.97078653e-03
  2.12426319e+01 -3.46916103e+00  3.56415534e+00 -1.89514577e+00
  1.91625633e+01  3.75570774e+00  5.46755219e+00  1.20215571e+00
 -8.47133064e+00  9.99843981e-03  5.02823852e-02 -8.29480708e-01
  9.55403900e+00 -1.55934095e+00 -1.83012283e+00  4.99763155e+00
 -1.99328387e+00  1.63064938e+01 -1.07903451e-01  7.97067046e-01
  3.45082051e-04 -2.13037252e+00  7.66034946e-02  1.68072376e+01
  1.65216660e+00 -1.09799993e+00 -3.59863113e-03 -1.15107046e-03
 -5.63737345e+00 -2.86855578e+00  6.11636369e-03  2.69528389e+00
 -4.85177851e+00  9.03277457e-01  5.95153999e+00  1.17058487e+01
  1.44050894e+01  1.96714520e+00 -2.52290654e+00 -4.02326107e-01
 -1.68950236e+00 -1.88467860e+00  2.76025027e-01 -5.02988291e+00
 -8.47478962e+00 -3.63254714e+00  5.50279474e+00 -1.68984222e+00
  7.06821214e-03 -2.35568142e+00 -1.61539876e+00  1.09912395e-01
  1.92987499e+01 -3.66332221e+00  6.76521444e+00  3.75065277e-03
 -4.18883562e+00  7.07803934e-04  2.02492857e+00 -1.19510021e+01
  6.62810775e-03 -3.59188348e-01 -1.48672128e+00  1.19522667e+00
  2.90539813e+00  5.64902974e-03  6.13673162e+00 -3.07449675e+00
 -5.20618582e+00 -1.07838607e+00  1.00496340e+00  1.64093959e+00
 -2.91947627e+00  1.60560703e+01  3.41250682e+00 -1.66689267e-03]
[-5.26726484e-01  1.09613085e+00 -1.24232447e+00 -1.41600683e-01
  1.23678856e-02 -1.19991899e-01 -2.89372414e-01  5.09353355e-03
  4.08022523e-01  1.62507631e-02 -1.35297189e-03 -1.72048426e+00
 -2.20408857e-01 -3.65351915e-01 -1.68163121e+00 -6.51628304e+00
 -4.69897413e+00  3.53975478e-03  4.95142397e-03 -6.16501607e-02
  1.21877372e+00 -6.09210253e-01 -2.41272300e-01  3.41380876e-03
 -5.98206222e-01  5.02665877e-01 -1.38441706e+00  5.60222387e-01
  5.36106050e-01  5.91066539e-01  7.30632484e-01  6.33700192e-02
  3.92326856e+00 -2.38168970e-04  5.69732785e-01  8.11519563e-01
 -3.67205948e-01  5.56493588e-02  1.37762904e-01  1.00543872e-01
 -3.36014122e-01 -8.37163985e-01  6.77487329e-02  1.32582694e-01
  6.84444513e-03 -6.45960271e-02  2.77336035e-02 -2.65427923e+00
 -5.24020672e-01  1.51608020e-01 -1.87815924e-03  4.20504902e-03
 -1.00639813e-01  5.15147388e-01  7.44089950e-04 -3.08307469e-01
 -6.96246743e-01  3.91718447e-01 -8.30932438e-01 -6.49919927e-01
  1.94981050e+00 -2.04734206e+00  1.36142528e+00  1.49315342e-01
  1.54107785e+00  4.27612010e-03 -6.78286910e-01  3.77302468e-01
 -5.26566505e-01  6.97934926e-01 -1.96861163e-01  1.92335788e-02
  1.74361514e-03 -7.89886788e-02  9.71904576e-01  8.20075154e-01
  4.56237763e-01 -3.65193576e-01 -9.17482853e-01  1.00143556e-03
 -3.19101602e-01  3.97622539e-03  7.37360418e-01 -6.64810240e-01
 -6.26878696e-04  8.30424309e-01  1.15647666e-01 -1.07508934e+00
  4.77120668e-01 -1.43548967e-02  1.44919527e+00 -2.97090262e-01
  2.63869315e-01  1.68701708e-01 -8.56710732e-01  1.28996775e-01
  5.34444749e-02 -1.13799858e+00  1.67360044e+00  3.11298325e-04]
[ 1.4525841e+01 -8.9872628e-01 -8.2411492e-01  4.8052007e-01
  4.2253584e-03  2.5841657e-02 -7.0938033e-01  4.5643011e-03
  6.9055538e+00  1.1974726e-05 -1.6608901e-03  2.4536531e-01
  6.1192174e+00 -4.7525665e-01 -1.1886488e+00  2.7517796e+01
  6.0052576e+00  4.6890205e-01 -3.7914377e-03 -8.7075415e+00
  6.0565190e+00  1.5349748e+00 -9.8161690e-02  1.1116815e-03
  3.0221536e+00 -6.1432809e-01  6.3074450e+00  4.0765692e-02
  5.2016811e+00  2.6340461e-01 -2.6026505e-01 -7.9337497e+00
 -3.8045940e+00  9.7095338e-04  5.5079362e-03 -4.9912030e-01
  1.0213658e+01  2.4410298e+00 -8.1383455e-01  1.1694783e+00
 -9.8741758e-01  2.7620346e+01 -2.0788379e+00  1.7138442e-01
 -3.3541967e-03 -4.0983880e-01 -2.7780647e+00  4.9955420e+00
 -1.0868298e+00 -3.6307313e-02 -4.0277932e-03 -1.6061028e-03
 -2.8568327e-02 -1.1737489e+01  2.8653380e-03 -1.4738155e+01
 -2.0575126e-01 -4.6906203e-01 -2.4571960e+00  7.5816974e-02
  2.0405041e+01 -1.0267181e-01 -8.0731434e-01 -8.6024028e-01
  2.2231291e-01 -3.9047563e-01  6.7294486e-02  5.6541800e-01
 -5.2804604e+00 -7.5619364e-01  3.5068338e+00  1.3636693e+00
 -1.3977546e-03 -9.9549368e-02 -2.3898565e+01  3.8121355e-01
  5.5019159e+00  3.2238538e+00 -7.2525948e-01 -1.0624031e-03
 -2.4994099e-01 -9.5069699e-04  2.8377035e-01  1.7321315e+00
 -1.4847653e-03 -7.3483281e+00  4.6451017e-02 -6.4667554e+00
  4.3242371e-01  5.2512242e-03  9.8011142e-01 -2.2323903e-01
 -8.6887950e-01 -6.0739446e-02  7.4876481e-01  2.7024796e+00
  1.7696114e-02  4.0787455e-01 -3.3723340e+00 -5.1919888e-03]
[-6.3842201e-01 -8.3844349e-02 -1.2372925e+00 -1.4928271e-03
  4.6919938e-03  5.0135236e-02 -3.2919693e-01 -1.4301723e-02
  1.5753654e-01 -2.1571964e-03  1.5880173e-02  4.5053691e-01
  7.0916003e-01 -7.5496775e-01  4.4623580e-02 -4.1618090e+00
 -8.3118170e-01 -6.6679181e-03  8.5870549e-03  6.7943019e-01
 -1.4691471e-01  2.0821552e-01  1.3268369e-02  5.4768431e-03
 -3.1048458e-02 -4.8715801e+00  8.0508673e-01  7.2423480e-02
  3.4193803e-02  8.8364840e-02 -4.2601892e-01 -2.8976608e-02
  1.1259155e-01 -2.5957150e-03  1.5805747e-02  4.1971475e-02
  4.7305983e-01 -1.6656315e-01 -4.4471014e-02  7.0414346e-01
  2.2553828e-02  7.0830905e-01 -2.6374611e-01 -1.3744503e-01
  7.0185647e-03 -3.9060626e-03  8.9757824e-03 -7.9153553e-02
 -7.2615407e-02 -3.2812469e-02  7.0538507e-03  1.1199208e-02
 -2.1212378e+00  4.4651356e+00 -1.7805310e-03  2.7107990e-01
  4.9588881e-02  6.3735887e-02  1.7641764e-02  3.2490342e+00
 -1.8748528e-01 -2.9598692e-01  1.2538570e-01 -3.9666191e-02
 -1.6753628e+01 -2.2489918e-02 -2.5598854e-02 -2.3741043e-01
  2.6319242e-01 -1.0381147e+01  1.8310845e+00 -5.0836727e-02
  2.0745298e-02 -9.0209907e-03 -1.7427845e-02 -7.3148036e-01
  7.4557908e-02 -6.7817546e-02  7.0940740e-02 -1.0641554e-03
  1.0021449e+00  1.0531224e-02 -3.8019207e-01  1.5620247e+00
  9.4066514e-03  3.0645075e-01 -6.5291892e-03 -7.1024690e-03
  1.1367937e-01 -4.0814793e-03  7.5374901e-02  7.7726454e-03
  1.7714973e-01  8.5854874e-04  8.9613497e-03  1.1946524e-01
 -1.1566598e+01 -5.1746015e-02  4.4755206e+00  1.2413146e-02]
[-0.03718667 -0.02688573  0.03665271  0.01136782  0.01657921  0.00692154
  0.01161322 -0.0122583   0.01690779  0.01294851  0.02662229  0.0092829
 -0.04370557 -0.00683414  0.02259178  0.15518521 -0.06428647  0.00648967
  0.0352667  -0.0168102  -0.01188152  0.14184043 -0.02072694 -0.01110463
 -0.00586525  0.0047682   0.03323415  0.00614191  0.04992897  0.00792582
 -0.03948412 -0.03319518 -0.06115145  0.03628306  0.01895781 -0.0146869
 -0.04648215  0.03960426  0.00872905  0.00535425 -0.00560405  0.36221895
  0.00601746  0.00664595 -0.00243907  0.00087062  0.00589304 -0.00711337
  0.0072625  -0.00466695  0.02025135  0.01842666  0.01036014  0.13219261
  0.02398145  0.00182063 -0.00617904 -0.0248982  -0.02486044  0.04291115
  0.46397564  0.04577281  0.02289278 -0.00670938  0.0245711   0.00622441
 -0.01130506  0.01014393  0.01384471 -0.03564393 -0.02245944 -0.00895244
  0.00602406 -0.00794773  0.01423917  0.00129833  0.00832862 -0.01982423
 -0.00544473  0.03125621  0.01251607  0.00122617  0.02203935 -0.03176375
  0.05159985  0.04351182  0.00615937  0.02273125  0.02120943  0.01218046
 -0.03121222  0.00613048 -0.04024131 -0.00768536 -0.00066739  0.00249781
  0.00516781 -0.0088628  -0.04402922  0.04223211]
[ 9.3469507e-01  9.6662502e+00  9.8538029e-01 -1.3951738e+00
  1.0197422e-02 -4.2491326e+00 -7.1061869e+00  9.1369683e-03
  3.5668232e+00  3.0869041e-03 -6.7916405e-03  2.8507905e+00
 -4.8039908e+00 -3.2506290e-01 -2.1497936e+00  1.3561002e+01
 -8.0942373e+00 -1.2870493e+00 -3.9235875e-04  1.0252982e+00
  1.7154778e+00 -3.2886891e+00 -3.2768890e-01  7.3927818e-03
  2.1554329e+00  3.6842890e+00 -1.2684217e+01  2.5386131e+00
  2.2983116e+01 -2.9685252e+00  6.1590643e+00  6.7144094e+00
  1.0312962e+01  2.0277897e-02  1.5236605e+00  1.6922909e+00
  1.8431385e+00  1.1103643e+01 -3.6521938e+00  5.2157588e+00
  8.8896370e-01  1.8919080e+00  1.3627793e+00  2.8699675e+00
  5.7350132e-03 -1.0152481e+00 -1.6291417e-01 -3.0364788e-01
 -3.0972612e+00 -4.4300961e-01 -2.3203020e-03 -3.8405114e-03
 -3.4195433e+00 -2.2605518e+01  1.4415453e-02  5.1778620e-01
  6.1217771e+00 -7.0712465e-01  8.6843097e-01  8.3063775e-01
 -1.1156490e+00 -2.1784806e+00  3.5569067e+00  6.5838046e-02
  8.6988869e+00 -1.2114290e+00  2.8582522e-01  7.7882630e-01
  5.2529635e+00  1.2270656e+00 -1.1211789e+00  2.2985637e+00
  1.3479053e-02 -3.7125391e-01  9.0302811e+00 -1.5562662e+00
 -5.1614106e-01  5.5822787e+00  6.2478609e+00  2.2679739e-02
 -4.6957574e+00  6.5864238e-05  5.3613505e+00  2.3869171e+00
  6.9232984e-03  1.0849216e+01 -1.0244539e+00  8.1804506e-02
  5.8594480e+00 -8.3643058e-03  8.0008249e+00 -2.8838640e-01
  3.9859023e+00 -5.9552592e-01 -2.1634839e+00  5.6165524e+00
  2.3380527e+00  3.7376502e+00  2.6588576e+00 -9.4038881e-03]
[-1.3637685e+00 -1.7708115e-01  5.2612372e-02  3.2486847e-01
  2.7104577e-03  4.2212781e-01 -5.4183710e-02 -7.8529408e-03
 -9.2960685e-01  5.6759566e-03 -9.9080838e-03 -7.1040690e-02
 -4.1232510e-03 -5.7411231e-02  9.1424972e-02 -7.9159909e-01
  7.7631350e+00  1.7388669e-01 -1.3785109e-02 -4.8266415e-02
 -1.8307129e-01  1.1329327e+00  3.3203200e-01 -3.4978704e-03
  3.8798246e-01  2.3669726e-01  4.1624096e-01 -6.8838042e-01
  6.3438421e-01  2.8191203e-01 -5.7969779e-01 -4.1499510e-01
 -3.6134326e+00 -7.4542551e-03 -4.9017310e+00 -6.1747807e-01
 -5.9351683e-01  2.2002044e+00 -1.0046889e-01 -5.3188878e-01
  3.2345739e-01 -6.2713671e-01  7.2639745e-01  5.0892967e-01
 -3.0044783e-03  1.6174120e-01  6.1294335e-01 -3.6327672e-01
  5.2329600e-01  1.1169642e-01 -2.1306155e-03 -1.0159229e-02
  2.6791403e-01  1.1130860e+00 -2.0455054e-03 -3.0937719e-01
  1.2773176e+00  9.2847422e-02  3.5446796e-01  1.4751442e-01
 -5.3222072e-01 -1.3061954e-01 -1.4665592e+00  3.9459106e-02
 -1.0127701e+00  1.8257821e-01  7.2928089e-01 -1.0948964e-01
 -3.5243714e-01 -8.5891336e-02 -3.3939806e-01  7.0378833e-02
 -5.9147137e-03  2.5378647e-01 -6.4671737e-01 -9.9377912e-03
 -9.9095505e-01  8.0292273e-01 -4.3435147e-01 -1.9163195e-02
  5.3854740e-01 -7.2976495e-03  1.1160536e+00  4.4296294e-01
 -1.3253340e-02 -1.6043900e+00  4.9316213e-02 -4.1949356e-01
 -2.9991192e-01 -7.1750870e-03 -6.7411762e-01  3.9651400e-01
 -9.8902893e-01  8.6677864e-02  7.6979870e-01 -1.4802511e-02
 -6.9971703e-02  2.7458129e+00 -5.0572681e-01 -8.2296031e-03]
[ 1.52095616e-01  2.28909284e-01 -8.17622280e+00  1.74386478e-05
 -1.29969390e-02  8.25161839e+00  9.32259142e-01  1.93947263e-03
 -3.86807084e-01  7.73577252e-03 -1.11908130e-02 -2.97792363e+00
 -8.48834038e+00 -3.12106895e+00 -3.42750549e-01  1.42243643e+01
  2.16422677e+00 -4.11292771e-03  4.49825078e-03 -4.04168576e-01
 -2.94452757e-02  3.69318388e-02 -2.33239047e-02 -4.60920483e-03
  2.17827231e-01  7.58986950e+00 -6.50089979e+00 -5.85255064e-02
  3.02609019e-02 -5.22107705e-02 -8.04955292e+00 -5.65246865e-02
  4.03687730e-02 -8.24184995e-03 -7.01216757e-02  3.06391567e-02
 -1.23044872e+00  4.06194180e-01  9.30530056e-02 -8.43529987e+00
 -6.66563138e-02 -9.55693817e+00  2.78662682e-01  2.82899439e-01
  1.18199857e-02 -3.44146863e-02 -2.83888122e-03 -4.73165154e-01
  1.23994745e-01  1.86734106e-02  1.69718359e-02 -5.28497854e-04
  1.31936436e+01 -2.69234390e+01  1.04152448e-02 -1.37099832e-01
 -7.10936710e-02 -1.60909012e-01 -1.32860839e-02 -1.66244793e+01
  2.48349285e+00  4.51714516e-01 -2.94275373e-01  2.99923625e-02
  7.70388365e+00  1.11825960e-02  5.58441877e-02  4.35185492e-01
 -1.32943621e+01  7.51587534e+00 -2.35028553e+01  1.09250896e-01
 -9.31449234e-03 -2.03669723e-02  1.20280422e-01  6.13619089e-01
 -3.85047764e-01  2.40041047e-01  3.23943108e-01 -2.73000309e-03
  1.43731813e+01 -4.51598316e-06  1.16974986e+00 -2.21448779e+00
 -4.72725322e-03 -4.98758882e-01 -3.12013235e-02 -8.77134353e-02
 -2.49854028e-01  2.92604882e-03 -1.50024131e-01 -1.91486198e-02
 -1.79102242e-01 -2.14318875e-02  1.50380461e-02  1.46800411e+00
 -4.75179386e+00  2.18282521e-01 -2.62428856e+01  6.31027250e-03]
[-3.56793404e+00  1.26621675e+01  2.48972058e-01 -2.47513461e+00
 -5.70125645e-03  4.10789847e-01 -5.46879959e+00  1.99057069e-03
 -2.53013778e+00  1.76657899e-03  1.24544511e-02 -3.10666943e+00
 -2.97485471e+00  8.36136103e-01  1.78831124e+00 -7.61769915e+00
 -1.80080998e+00 -1.80657339e+00  1.63008794e-02  4.41895038e-01
 -2.36328197e+00 -6.58222854e-01 -3.99491930e+00  4.05451097e-03
 -1.41822886e+00 -4.94007528e-01 -1.11864698e+00 -3.10659385e+00
 -9.94132137e+00  2.91763639e+00 -3.26711953e-01 -9.19751227e-01
 -1.65211844e+00 -7.75880460e-03  5.02062798e-01 -2.01434731e+00
 -3.30120325e+00  2.22767963e+01 -3.41030931e+00 -1.07713568e+00
 -9.21941948e+00 -6.96273661e+00 -1.60387504e+00 -4.73530829e-01
  8.53835884e-03 -2.58453822e+00 -2.47487292e-01  3.45642984e-01
  1.16352248e+00 -1.39750159e+00  2.10842602e-02  2.05349419e-02
  5.40166721e-02  2.14215255e+00 -1.25897592e-02 -1.30313337e+00
  2.15322763e-01 -2.58241296e-01 -1.09886255e+01  2.75383770e-01
 -5.76773357e+00 -1.53844700e+01 -7.31420612e+00 -4.72942084e-01
  6.06550127e-02 -1.88949275e+00 -6.32286012e-01 -1.18435219e-01
 -3.00984085e-01 -1.94210052e-01  1.83201015e-01 -1.07096739e-01
  3.20711685e-03 -3.67252970e+00 -2.48282743e+00  1.98638327e-02
 -2.13014960e+00  1.42969823e+00 -3.07225227e-01  1.72489113e-03
  5.61326623e-01  1.38228359e-02 -1.09024515e+01 -1.54740465e+00
  1.11573972e-02 -1.41854510e-01 -1.47197020e+00 -4.16380674e-01
 -1.66278827e+00  1.47317145e-02 -1.47072678e+01 -5.41425896e+00
  1.86387646e+00 -7.82151699e-01 -3.36120278e-01 -1.41114199e+00
  1.03884056e-01 -1.56526518e+00 -5.77313542e-01  1.78122427e-02]
[-2.30570049e+01 -2.22654572e+01 -2.70160275e+01 -1.31082563e+01
  3.26675409e-03  4.14790630e+00 -1.03324108e+01  7.65092717e-03
 -1.92089424e+01  2.36042403e-02  9.11742821e-03 -1.26525211e+01
  1.54487324e+00 -7.43867636e+00  1.78015721e+00 -3.71059494e+01
 -8.23447323e+00 -9.63680172e+00  2.94079985e-02  6.77126110e-01
 -1.76010549e+00 -5.41292429e+00 -1.48756027e+01  3.08431573e-02
 -1.05949736e+01 -2.31526303e+00 -1.16877480e+01 -1.00867662e+01
 -1.84370975e+01  1.81631577e+00  3.73016620e+00 -7.77517748e+00
  1.24467015e+00  3.48811559e-02 -2.87229395e+00  1.06569395e+01
 -2.11573982e+01 -1.74190674e+01 -4.91295671e+00 -1.31874716e+00
 -1.57882700e+01 -2.26976833e+01 -4.89046431e+00 -8.79520035e+00
  3.37786525e-02 -1.09579601e+01 -1.14012604e+01 -1.41029053e+01
 -5.35151362e-01 -3.79099917e+00  3.54899615e-02  2.62182355e-02
  4.96716166e+00  9.87079048e+00  4.37797233e-02  5.63266993e+00
 -1.74752064e+01 -2.25943756e+00 -1.73703499e+01 -2.39767532e+01
 -2.67912273e+01 -2.82428265e+01 -6.11737633e+00 -2.21884394e+00
  5.27486610e+00 -9.76080894e+00 -8.31905079e+00 -1.80726681e+01
 -2.07125034e+01 -1.28398495e+01 -1.79665241e+01 -1.12995148e+01
  6.10695258e-02 -1.26375551e+01 -5.90892553e+00 -1.40084887e+01
 -1.09179268e+01 -1.57273359e+01 -3.17569613e+00  4.08772007e-02
  7.69125175e+00  2.98305321e-02 -3.25818872e+00 -7.71284437e+00
  4.04808298e-02 -8.08222580e+00 -6.66006041e+00  7.33591244e-02
 -1.07930746e+01  1.75933223e-02  1.14687681e+01 -1.73890514e+01
 -4.30578756e+00 -3.56900597e+00 -1.88883896e+01 -2.82044560e-01
 -3.55516205e+01 -1.62680149e+01  3.37846971e+00  1.22711575e-02]
layer 7 Activation
elu
layer 8 Dropout
layer 9 Dense
100 1
[-0.05898993]
[0.09608833]
[0.27751493]
[-0.48998636]
[-0.00016939]
[-0.14292216]
[0.1949136]
[-0.00096209]
[-0.14891542]
[0.00032799]
[-0.00011582]
[-0.21461967]
[0.5566328]
[-0.0391967]
[0.07702524]
[0.035464]
[0.22260906]
[-0.48771456]
[-0.00071875]
[0.04831607]
[0.04810793]
[0.10092095]
[-0.52695024]
[-3.964847e-05]
[-0.2596629]
[0.03500028]
[-0.15199229]
[-0.28991398]
[0.07545743]
[0.05598713]
[0.08870018]
[-0.10208087]
[0.11753647]
[-0.00016872]
[-0.1626833]
[0.32758918]
[-0.10046576]
[0.09724534]
[0.3258004]
[0.17785166]
[-0.545678]
[-0.02136649]
[1.8001028]
[1.4793174]
[6.260075e-05]
[-0.45234618]
[2.6232364]
[-0.13010317]
[-0.5270481]
[-0.5276734]
[-0.00051523]
[-0.00069219]
[-0.12691721]
[-0.09754486]
[0.00057726]
[0.2964385]
[0.13502337]
[0.13818124]
[-1.0642718]
[-0.07583724]
[-0.02960387]
[-0.183283]
[0.372045]
[-0.40279737]
[0.06408252]
[-0.46147168]
[-1.4714384]
[0.1781829]
[0.19057134]
[0.06380014]
[-0.2370147]
[0.2923624]
[0.00052415]
[-0.497538]
[0.33407146]
[0.2756253]
[-0.23575681]
[0.23888496]
[-0.93082374]
[-0.00074744]
[-0.18452479]
[-0.0005838]
[0.10671632]
[0.02389228]
[-0.00048138]
[0.07264136]
[-0.5312397]
[0.12890981]
[0.20393728]
[-0.00145235]
[0.08594537]
[-0.5665601]
[-0.08737162]
[-0.53126585]
[-0.7887334]
[-1.0025834]
[-0.37195486]
[-0.6807566]
[0.15571932]
[-0.00031423]
[3.2655113]
