layers 10
layer 0 Dense
7 7
[-1.7002406e-02  9.1398554e-03  9.0025336e-04  1.8033470e+00
  1.4409673e-03 -1.1930350e-02 -9.5124349e-02]
[ 1.8373126  -0.01635718 -0.01452834 -0.0117735  -0.0187079   0.06739814
  0.65114015]
[-0.12222451  0.520436    0.03602929  0.01641824  0.0109822  -0.02733547
 -0.1156946 ]
[-0.19693363 -0.47408143  0.55218726 -0.05456481  1.0114307   0.14121737
  3.821745  ]
[ 0.40849826 -1.5711293   1.9490489  -0.05229788  5.864384   -0.05364821
  0.8577994 ]
[ 4.4873133e-03 -2.7798116e-02 -6.6287327e+00 -1.4252947e-03
  1.6776993e-03  2.8319776e-03  7.6535768e-03]
[-9.4543602e-03 -7.8781717e-02 -4.1311989e-03 -1.0619325e-02
 -1.8451844e-03 -5.8374686e+00 -7.7112645e-02]
[-0.31388378  1.155922   -1.7911596   0.00802524 -3.9639537   5.6362395
 -0.4956717 ]
layer 1 Activation
elu
layer 2 Dropout
layer 3 Dense
7 26
[ 1.5352151e+00  3.0206749e-02 -1.4726533e-01 -1.3447967e-01
 -2.0830252e+00  1.4488974e-01  2.4794447e+00 -1.7348046e+00
 -4.4069159e-01 -1.2901103e-02  6.7391000e-03  1.5370858e-01
 -3.7197858e-01 -3.2088014e-01 -1.8949368e-03 -4.2886976e-03
  1.1762077e+00 -1.2354818e-01 -1.0122344e-01  1.3511094e-01
  7.0980877e-01 -6.8436298e-03  3.7581870e-01  8.9765511e-02
 -3.2238048e-02  5.7103366e-01]
[ 0.28459075  0.03654431  0.3571984   0.53612214 -0.39047086 -0.11365522
  0.54177886 -0.23462035  0.12650296 -0.02518426 -0.00279062  0.3423856
  0.07678915 -0.10455849  0.00216074 -0.11745533 -0.45923305  0.15241124
  1.138237   -0.03216648  0.29918078 -0.00313712  0.6876446  -0.07144027
  0.14312549 -0.39689353]
[-1.5847398e-02 -6.7862291e+00 -2.0815252e-01  1.5610160e-01
 -4.6485033e-02  1.5577465e+00 -3.0543411e-02  3.8899028e-01
 -7.1115535e-01 -2.1800177e-02 -1.9122057e-03 -1.8837624e+00
  1.6450502e-01  7.2449791e-01  4.5197416e-04  1.3304959e-01
 -1.3961555e-01  4.9658924e-01 -4.2092311e-01 -5.6269985e-02
  6.5929726e-02 -2.6050610e-03 -1.8959579e+00  4.0963578e+00
 -5.7762894e-03 -7.5127614e-01]
[ 2.9560497e-02 -1.8103393e-03 -3.2250080e-03  1.4311821e-02
 -3.3069171e-02  7.0501484e-02  2.1817425e-02 -4.3083187e-02
  5.1811013e-02  1.4752488e-01  5.5162865e-03 -6.5259553e-02
  5.5849161e-02  3.8548522e-02  3.0806456e-03 -4.3731350e-03
 -1.5518780e-01  2.0098122e-02  8.1528332e-03 -1.2416004e-02
 -4.5323668e+00  9.4465213e-03 -2.4866538e-02 -1.1233297e-02
 -5.2830734e+00 -7.3785201e-02]
[ 7.9574651e-01  6.2123668e-01 -6.6953808e-01 -4.2817373e+00
  2.9281268e-01  4.1561460e+00 -5.6108814e-02 -5.2442174e+00
  3.3851561e-01 -3.6420714e-02 -1.6488859e-03 -2.0824583e+00
  2.3098221e+00 -1.5437156e+00  2.0501094e-03 -5.9002548e-02
  1.3785838e-01 -1.0992535e+01  4.3536538e-01  5.3687458e+00
 -1.5450405e-01  4.3332577e-03  2.4530885e+00  1.3208079e-01
 -1.5280118e-02  1.2145247e-02]
[-1.2934172e-02 -3.9606000e-04 -1.8943354e-01 -1.4653632e-02
  5.3519844e-03  4.9096087e-01 -1.4983725e-02  1.4065862e-02
 -2.4875948e-02  8.6374721e-03 -4.9296371e-03  2.8513604e-01
 -1.8666429e-02 -1.2699829e-02  1.9383446e-04 -3.1100471e+00
  5.0964776e-02 -1.6060192e-03 -1.2462943e-02  2.1760552e-03
  3.1668840e-03 -5.7728979e-04 -9.6708499e-02  7.6578208e-03
  9.0016918e-03  3.3539046e-02]
[-1.3172507e-01  1.2653662e-02 -2.0540060e-02  3.3717477e-01
 -2.4109614e-01  1.2662269e+00  2.0157401e-01  3.2933789e-01
  1.2024193e+00 -2.9062391e-03  2.3886254e-03 -1.3133031e+00
  1.1429089e+00  7.7011639e-01  4.2652700e-04  3.2760963e-01
 -3.3057377e+00  4.8988751e-01  1.9808428e-01 -2.4704260e-01
  1.7138915e-01  2.7560969e-03 -3.9874977e-01 -2.5062844e-01
 -5.9759311e-02 -1.6593916e+00]
[-8.8577449e-01 -6.1600475e+00  1.2147713e+00 -4.2482734e+00
  8.7711817e-01  4.3245840e+00 -1.8345304e+00 -4.3484998e+00
 -3.9059238e+00 -1.6100626e-01 -2.7841536e-04  3.4800546e+00
 -5.3525412e-01 -2.3454797e+00  2.9711286e-05 -8.9114118e-01
  5.1184577e-01 -1.0699064e+01 -1.0473986e+00  8.6291648e-02
  1.2165017e-01  3.2962379e-03  1.8289173e+00  3.8965039e+00
 -1.2026389e-01  7.5069952e-01]
layer 4 Activation
elu
layer 5 Dropout
layer 6 Dense
26 100
[-1.18712202e-01  9.92816567e-01  5.33401871e+00  1.29528297e-03
 -3.56438512e-04  1.64776057e-01 -2.35432729e-01 -2.40126923e-02
  3.11089754e-01 -2.61497814e-02 -3.17842476e-02 -1.66783661e-01
 -9.92470169e+00  2.62106508e-02  1.75997219e-03  2.51694441e+00
 -1.15306485e+00  5.08047454e-02 -1.18985670e-02  1.57096088e+00
  7.82022476e-01 -3.85686874e-01  4.91266474e-02 -4.97450586e-03
  2.68244714e-01 -2.25720978e+00  1.01286149e+00 -4.30855807e-03
  1.22448301e+00  1.21896923e+00 -5.96679735e+00 -1.03315604e+00
  1.79530665e-01 -8.17723339e-05 -7.41992369e-02  3.19960713e-02
 -8.18875507e-02  1.69044659e-01  5.17463423e-02 -1.20965958e+00
 -1.13852024e-01  6.41366720e-01 -3.03582311e-01  7.51333117e-01
  1.39223654e-02 -8.66084024e-02  2.08061770e-01  3.21567088e-01
  2.14500189e-01 -4.76416647e-02  5.94239170e-03 -1.48027185e-02
  1.44954967e+00 -1.24789134e-01 -2.56540580e-03 -2.51219749e-01
  6.35405362e-01 -1.30320266e-01  1.77128732e-01  2.11909100e-01
  3.10924470e-01 -9.50914741e-01  3.62685919e-01 -1.33737758e-01
 -1.51373947e+00 -8.78280327e-02 -3.73733354e+00 -1.02742767e+00
 -2.15416756e-02  2.33203840e+00  7.51608133e-01  6.69385567e-02
 -1.78316713e-03 -1.97556660e-01  8.95569324e-02 -4.19871712e+00
 -1.57171950e-01 -2.06597790e-01 -3.05052376e+00  1.83995534e-03
  3.39840889e+00 -1.14826905e-02  3.44327122e-01  1.14722416e-01
  2.99569871e-03 -1.65593788e-01  7.60514364e-02  2.86541190e-02
 -1.46831498e-01 -2.08026115e-02  3.14834028e-01  2.74720863e-02
 -2.35695457e+00  3.71192038e-01 -1.06673665e-01 -3.07984382e-01
 -6.50140524e+00  1.32119763e+00  1.45867574e+00 -1.08979959e-02]
[ 1.43387720e-01  3.98937613e-01 -1.15536340e-01 -2.86251664e-01
 -6.80893566e-03  1.28123894e-01  2.11964279e-01  4.20793472e-03
  2.71840543e-01  1.49694365e-02  7.50781829e-03  2.45401621e-01
  1.08901396e-01  6.08023144e-02 -1.10897655e-02 -4.43282038e-01
  8.08092058e-01 -1.76278412e-01  3.64260259e-03  9.58970115e-02
 -4.20598805e-01  1.10313189e+00 -4.32492018e-01  5.91902249e-03
  3.23534131e-01 -6.48794472e-02 -2.40615848e-03 -7.52413511e-01
 -8.91722858e-01 -8.76475871e-02  2.07185805e-01  2.44100064e-01
 -7.57947922e-01 -2.22301623e-03 -1.58437138e+01 -1.05342142e-01
  1.69595942e-01 -2.72763342e-01 -1.94602266e-01 -1.42376661e-01
 -1.96728811e-01  3.57008666e-01 -3.99718732e-01 -1.07835169e+01
 -7.25972233e-03 -1.34988829e-01 -6.34320641e+00 -7.78010041e-02
 -1.11863077e-01 -1.68012679e-01  8.34680814e-03  8.04547593e-03
  5.09480536e-02 -5.28884113e-01 -1.15992622e-02  8.17717239e-03
 -2.27200940e-01 -6.04476261e+00 -8.65655184e-01  1.81919008e-01
  4.52977926e-01 -4.76305693e-01 -4.07819480e-01 -6.83868825e-02
 -6.11277334e-02 -2.65599310e-01 -2.94923878e+00 -1.33763254e-01
  2.56016552e-01  2.28450835e-01  3.48151535e-01 -3.34542185e-01
 -2.55222945e-03 -7.03695863e-02 -5.18382609e-01  9.05207731e-03
  1.11557864e-01 -2.36326098e-01 -2.55771220e-01 -7.22386176e-03
 -1.09833613e-01 -1.25727581e-03  1.32995641e+00 -4.37843657e+00
 -2.31026672e-03 -3.30444193e+00 -1.27812296e-01  3.53538305e-01
 -5.98900437e-01 -6.78803166e-03 -4.99236077e-01 -4.30203080e-01
  2.01157004e-01 -1.05292685e-01 -5.83203733e-01  2.31531358e+00
 -1.07581526e-01 -1.19482791e+00 -5.28933525e-01  1.66768543e-02]
[-2.6984820e+00 -1.4724085e+00  1.3158416e+00 -8.1819791e-01
  1.8225120e-02  1.0092728e+00 -2.7389019e+00  1.1216522e-02
 -1.3992105e+00  9.1894651e-03  5.2045756e-03 -3.3394210e+00
  1.7225037e+01 -1.3665431e+00  3.6310995e-01 -2.3681083e+00
 -7.5941581e-01 -2.5411142e-02  2.0734681e-02  1.3581685e+00
 -1.2926773e+01 -1.8661990e+00 -1.2416033e+00  6.0156152e-02
 -3.2946324e-01  1.7585915e-02 -9.9163824e-01 -4.4732279e-01
 -9.5700893e+00  2.2146184e+00 -2.0042543e+00 -1.4501476e+00
  1.2973504e+00  1.1817618e-02 -1.6935037e+00  1.4952155e+00
 -2.1036618e+00 -6.7252131e+00  4.1171914e-01 -1.3115711e+00
 -5.6395447e-01 -7.1203055e+00 -1.4241835e+00  5.8228841e+00
  1.2360166e-02  5.6707096e-01 -1.6710917e+00 -2.1054151e+00
 -8.9412618e-01 -4.4218311e-01  4.3453928e-02  1.5685130e-02
  1.8756542e+00 -1.2317288e+01 -4.6023831e-02 -1.3111002e+00
 -4.3951058e+00 -6.8724759e-02 -2.3979115e+00 -2.4687257e+00
 -4.4238420e+00 -2.5611063e+01  4.5984167e-01  2.3604536e-01
 -3.3599026e+00 -3.5691062e-01 -9.3458738e+00  2.7596421e+00
 -2.7247095e+00  2.1290736e-01 -2.7703950e+00  2.9876513e-02
  4.2975545e-02  7.1358663e-01  1.7339727e-01  2.2689347e-01
 -8.6873519e-01  1.2161983e+00 -1.5092112e+00  1.0800136e-02
  1.1603169e-01  7.0046200e-03 -3.2743337e+00 -6.2662941e-01
  2.2598045e-02 -6.2553782e+00 -6.3896693e-02 -2.5512416e+00
 -2.7922935e+00 -1.7202992e-03  2.0992146e+00 -1.0940036e+00
  1.4124253e-01 -4.7476038e-02 -9.9774522e-01  1.0083721e+00
 -5.2012172e+00 -4.3852839e+00  3.7403476e+00  3.5198424e-02]
[ 4.4321795e+00 -2.5210136e-01 -1.4211341e+00 -6.3477069e-01
 -1.1313637e-02 -1.9115846e+00 -6.7747492e-01 -4.8356801e-03
  3.9835320e+00 -1.7954571e-02 -3.0199965e-03  5.2667556e+00
 -4.6904187e+00  3.9687462e+00 -4.9322524e+00  3.2368202e+00
 -3.0654678e+00 -2.0771569e-01 -5.7711746e-03  3.1792378e+00
 -2.0467372e+00 -1.9187225e+01 -1.2023088e+00  4.8254845e-03
  5.2693182e-01 -9.0385735e-01  6.0979098e-01 -2.8443831e-01
 -3.9699223e+00 -1.4172331e+00  3.5919032e+00  2.1141400e+00
  1.0799725e+00 -2.0616865e-03  3.1204399e-01  2.5977480e-01
  3.6128423e+00 -3.4619837e+00  3.9679870e-01  3.7354906e+00
 -2.6908927e+00  6.8413033e+00  7.3853314e-01 -1.1834083e+00
  1.7640595e-03 -8.6900914e-01 -3.8665470e-01  3.3067994e+00
  1.4763801e+00 -3.8933471e-01  6.2594311e-03  8.0732619e-03
  3.0584112e-01  6.5049791e+00 -9.3709407e-03  3.9838917e+00
 -5.0806427e+00 -1.5334345e+00 -4.3412709e+00  1.9221135e+00
  6.3236966e+00  4.3398404e+00  1.4174123e+00 -1.9547442e-01
  1.6306875e+00 -1.4505079e-01  5.0656962e+00  1.6520532e+00
  7.1336164e+00  4.1844344e+00  2.3146398e+00  4.1902003e-01
 -1.8616810e-03 -1.7470618e+00 -2.8785806e-02  4.2431417e-01
 -3.0312693e+00  2.8636744e+00 -2.0937886e+00 -2.1426789e-03
 -3.8571627e+00 -1.8769898e-03 -6.0414591e+00  7.9762465e-01
  1.8375696e-03  5.0122151e+00 -9.2696272e-02  2.2136979e+00
 -1.0061296e+00 -1.7616431e-03  1.0490377e+00 -1.8189012e+00
  4.2650552e+00  6.1969703e-01 -4.0926180e+00  1.6456487e+00
  3.2059431e+00 -4.1969395e+00  5.3435531e+00 -8.4025348e-03]
[ 3.02528024e-01  4.85924065e-01 -1.16315222e+00  3.74097824e-02
  6.57931715e-03 -4.17482615e+00  3.52610834e-02 -1.19799618e-02
  4.02956605e-01 -1.12940054e-02 -1.86297316e-02  2.98414379e-01
 -4.15578985e+00  5.62067461e+00 -1.65434420e-01 -2.59840941e+00
 -9.09802318e-01  1.16008051e-01 -2.62446213e-03  3.72854733e+00
  6.87898993e-01 -5.94795585e-01 -5.98433539e-02  2.53668032e-03
  4.51839119e-01  2.90971875e+00  5.10707617e-01  7.02080503e-03
  4.37929749e-01  4.42495912e-01  5.14370918e+00  6.22312486e-01
 -5.31391680e-01 -8.72170180e-03  2.80948699e-01 -7.63943940e-02
  2.21750289e-01  2.78868657e-02 -6.87591657e-02  3.01986504e+00
  3.48202109e-01 -4.96355861e-01 -3.29779148e-01 -1.51902556e-01
  9.11337230e-03  1.39435321e-01 -5.56426011e-02 -1.32420099e+00
 -6.24735177e-01 -1.58751234e-02 -1.01882464e-03 -8.94720107e-03
 -5.57327557e+00  2.27052927e+00  1.82767352e-03 -9.03372169e-01
 -7.19827935e-02 -4.94849890e-01 -3.31596822e-01  8.24977112e+00
  3.01732689e-01  2.52583742e-01 -2.01181337e-01 -1.21258907e-01
  1.53219998e-01  9.05955434e-02 -1.42028403e+00  2.69465446e-01
  4.89493221e-01  3.06273532e+00 -2.52901173e+00  5.85803837e-02
 -1.22206926e-03  3.46952498e-01 -7.03908270e-03  2.96227094e-02
  3.09688777e-01 -9.61701125e-02 -2.90598941e+00 -5.21815429e-03
 -4.09987497e+00 -1.72137719e-04 -1.16899855e-01 -9.52101201e-02
  2.54038721e-03  3.01436543e-01  9.47153866e-02  1.58016101e-01
  2.44835481e-01 -6.62410958e-03  1.90679152e-02  6.24017082e-02
 -6.38402283e-01  1.15190946e-01 -1.55055806e-01  2.13596749e+00
  1.39571524e+00  2.84344703e-01  2.68939793e-01 -6.45240257e-03]
[ 3.07598021e-02  2.42346272e-01 -1.48386240e-01 -9.21818064e-05
 -2.42473616e-04  7.13012397e-01 -2.67644095e+00  3.03514604e-03
  3.78720015e-01  4.02484613e-04 -5.15453052e-04 -2.06980452e-01
 -1.06300459e+01 -1.17207594e-01 -4.67041969e-01 -1.28335512e+00
 -3.44709897e+00  4.63691950e-01  3.23289493e-03 -9.74864811e-02
 -3.68120599e+00 -6.23249245e+00 -4.48482364e-01  1.94789115e-02
  8.83248389e-01  1.23729128e-02 -1.08206131e-01  7.14344561e-01
 -2.34728479e+00  3.95624191e-01 -8.94169390e-01  1.12509167e+00
 -5.26234627e+00  4.97956621e-03  2.72963732e-01 -1.92785203e+00
 -6.88332096e-02 -1.52538538e+00 -3.05240107e+00 -1.43251634e+00
  9.70384181e-01 -1.47918808e+00 -6.76676559e+00 -4.90787983e+00
  3.97111056e-03  8.92761409e-01 -7.16561496e-01 -2.40554333e+00
 -1.48191285e+00  1.39176920e-01  9.29841213e-03  5.82728628e-03
  6.15544379e-01 -2.66939950e+00 -9.04186629e-03 -1.64731598e+00
 -1.23665822e+00 -8.34674835e-01 -1.45144689e+00 -1.35804498e+00
 -6.48306191e-01 -3.67210627e+00 -4.06650114e+00  3.07187498e-01
 -7.58352280e-01  3.87233615e-01 -3.75199914e+00  1.67759120e+00
 -1.33671808e+00 -3.81761283e-01 -5.24336934e-01  1.46762103e-01
  1.44523242e-02  1.54431129e+00 -2.03441596e+00 -7.99004920e-03
  7.20689893e-01  5.87443054e-01 -2.73321450e-01  2.54026940e-03
  7.54884601e-01  2.31219688e-03 -5.68052173e-01 -2.69765407e-01
  4.95685125e-03 -1.88253474e+00  3.75382781e-01 -8.54054630e-01
 -4.22557086e-01  2.30121450e-03 -2.23990417e+00  6.09568320e-02
  5.01477659e-01  3.28496993e-01 -5.23938775e-01  1.55712008e+00
 -1.06237113e+00 -2.21727157e+00 -2.97842216e+00  4.96905344e-03]
[-2.76190072e-01 -9.15068865e-01 -1.17353477e+01 -4.93679009e-02
  5.03025390e-03 -1.51759362e+00  2.06259996e-01  7.03812437e-03
 -4.27599102e-01  8.77462607e-03  6.07519783e-03 -1.66181907e-01
  8.95897388e+00 -5.19782484e-01  2.91049361e-01 -1.02884102e+00
  2.32968187e+00 -1.72384918e-01  4.94882045e-03 -2.67831302e+00
 -7.13234961e-01  8.52725029e-01  4.19376045e-02  3.97881027e-03
 -4.92109984e-01 -2.91539359e+00  1.25841093e+00 -2.73414612e-01
 -9.84163165e-01 -3.25915009e-01  6.39814198e-01 -1.83218375e-01
  3.15529287e-01 -2.51663197e-03 -2.18108341e-01  5.52541465e-02
 -1.82265341e-01 -4.66007799e-01  8.13146830e-02 -1.58022356e+00
 -3.73149604e-01 -1.49046838e+00 -1.03205122e-01  3.35165188e-02
 -7.34141096e-04 -1.67569339e-01  4.47866283e-02  9.68643606e-01
  3.46243262e-01 -7.17045441e-02 -6.21009571e-03  2.88173673e-03
 -1.73501158e+00 -2.01905060e+00  6.50559552e-03  2.01403797e-01
 -5.06010652e-01  5.10302186e-01  2.25301772e-01  1.02582026e+00
 -5.07087529e-01 -1.25481546e-01  2.03638282e-02 -6.58193827e-02
 -2.97567749e+00 -9.60326791e-02  1.67993510e+00  1.73251420e-01
  7.67129660e-01 -5.73689270e+00 -7.95516670e-01 -1.88248858e-01
  1.01934676e-03 -3.53172719e-01 -7.04526389e-03 -9.92920685e+00
 -3.30480158e-01 -1.05700664e-01 -1.88595259e+00 -4.38097166e-03
 -2.40456772e+00  6.62870705e-03  3.63861799e-01 -1.33197442e-01
 -6.96039526e-04 -2.05342695e-01 -1.45579606e-01 -1.89932752e-02
 -3.00104916e-01  6.73540449e-03 -2.17020720e-01 -1.09950028e-01
  4.99096662e-01 -3.61154616e-01  1.78687036e-01  3.47462440e+00
 -5.05773973e+00  1.36125877e-01 -4.77946728e-01  1.18993304e-03]
[ 3.05820704e+00 -1.77128613e+00  9.96745586e-01 -3.00194100e-02
 -3.90864164e-03  3.95605302e+00 -2.58699321e-04  1.18820919e-02
  1.61117113e+00  1.72780044e-02  1.17813321e-02  3.60961580e+00
  1.83504641e+00 -6.00189638e+00 -2.66686320e-01 -2.44888186e+00
  4.68334943e-01 -1.11190118e-01  7.37605244e-03 -4.91246700e+00
 -1.02644777e+00  1.96253216e+00 -5.24769276e-02 -2.14788527e-03
 -1.57198593e-01  2.37743330e+00  1.44200099e+00  1.43093675e-01
  1.05011272e+00  5.84335518e+00 -1.00597200e+01  2.42421508e-01
  1.04463983e+00  1.14643760e-02  7.66828135e-02  1.35446675e-02
  2.98572588e+00  2.46943116e+00 -5.51573858e-02 -8.53705311e+00
  9.14531946e-02  4.38188505e+00  2.16397852e-01 -1.22482491e+00
 -4.78525879e-03 -1.57325547e-02 -6.09356090e-02  7.60796845e-01
  3.44915450e-01 -7.77718872e-02 -2.01004520e-02  6.39001373e-03
  5.03239393e+00  3.33438277e+00  3.49034555e-03  5.48557332e-03
 -4.60020304e-01 -6.99073598e-02  2.80421913e-01 -1.17028627e+01
  4.75607920e+00 -2.01096106e+00 -1.28039524e-01  7.46578053e-02
 -9.55027282e-01 -6.09844215e-02  7.06269801e-01  3.47827047e-01
 -5.64239264e+00 -6.46718216e+00 -9.42781639e+00  6.14026263e-02
  4.82169306e-03  9.27315280e-02 -2.42241040e-01  1.97962075e-01
  7.68424034e-01  4.30856049e-01 -2.01564455e+00 -9.76417505e-05
  6.92814255e+00  4.33356874e-03 -9.05258209e-02 -4.52748328e-01
 -7.28476839e-03  2.15986133e+00 -1.96191579e-01 -3.22691649e-01
 -2.61299610e-02  7.12818839e-03 -1.81618869e-01 -2.07708385e-02
  3.45932871e-01 -2.03712776e-01  1.15948461e-01 -2.31295371e+00
 -5.16867495e+00 -1.55121636e+00 -4.84860039e+00  7.38430535e-03]
[-2.31011844e+00  5.85207844e+00 -3.78700703e-01 -2.64009178e-01
  1.16571505e-02 -4.71869886e-01 -3.14854121e+00  1.15779685e-02
 -1.78297055e+00  9.65642650e-03  1.68603454e-02 -2.69755387e+00
  1.14593111e-01  2.21256062e-01  1.31205153e+00  7.20404863e+00
  2.07080436e+00  6.07442081e-01 -1.05959056e-02  1.62931633e+00
 -8.88405514e+00 -9.58736300e-01 -2.83581316e-01 -1.83326527e-02
 -1.01976550e+00  4.74881157e-02 -2.80004770e-01 -1.25584292e+00
 -4.04087782e+00 -1.37293324e-01 -1.57334030e-01  2.18675280e+00
 -1.33211100e+00  7.47292209e-03 -2.21436262e-01 -1.92287192e-01
 -2.13237667e+00 -1.49149239e+00 -9.20623600e-01  8.55302274e-01
  4.48557407e-01 -2.28426027e+00 -4.97257042e+00 -9.16610432e+00
 -3.87653662e-03  6.92881107e-01  3.12212855e-01  1.10535693e+00
 -1.00101852e+00  6.15837157e-01  8.00717244e-05 -3.58407060e-03
 -4.95706677e-01 -2.78748488e+00 -2.17087334e-03  6.90864801e-01
 -7.96482921e-01  3.21962833e-01  4.94104892e-01 -3.44572484e-01
 -2.32906437e+00 -3.92762375e+00 -7.43390918e-01  5.14766157e-01
  8.27244595e-02  6.44072711e-01 -3.52324367e+00  4.99789000e+00
 -4.91556644e+00  2.41749510e-02  2.50518531e-01 -5.96790910e-01
 -1.11593669e-02  1.01172757e+00 -1.69499040e-01 -1.19256876e-01
 -1.54228950e+00  5.60828066e+00  7.24898875e-01  4.11381526e-03
 -5.63093245e-01  4.69993101e-03 -1.90034211e+00  3.39006066e+00
 -1.59793217e-02  4.91282558e+00  3.22049826e-01 -4.39884996e+00
 -6.31799042e-01 -6.70068245e-03  7.24322498e-01  2.18648553e-01
 -1.60964954e+00  2.92270720e-01  7.58307874e-02 -3.46313095e+00
 -2.41854563e-01  8.84949493e+00  3.58109400e-02  6.61823153e-03]
[-1.01827212e-01 -3.34230155e-01  8.42649996e-01  2.75362916e-02
 -6.29301965e-02  6.64480984e-01  2.44357213e-01  3.98625135e-02
 -1.86201364e-01  6.44063950e-02  1.50394822e-02  1.01748973e-01
  5.33953786e-01  1.81216645e+00 -3.17486286e-01  1.22730481e-02
  1.23040192e-01 -4.69558947e-02  2.32708696e-02  8.40801001e-02
  3.33338737e-01 -5.61554849e-01  3.46588120e-02  1.89843103e-02
 -7.35156238e-02 -4.77831513e-01  1.28878224e+00 -5.97972870e-02
  3.11939716e-01 -4.84160632e-01 -9.45480227e-01  4.06586409e-01
 -1.80011496e-01  6.87299147e-02 -3.60918343e-02 -7.36124907e-03
  1.14158444e-01 -2.89108837e-04  6.23648390e-02  2.38270909e-02
  1.16535313e-02 -2.17957914e-01  2.08801299e-01  5.37610203e-02
 -6.43696636e-02 -5.07096872e-02  7.73956329e-02  9.46523622e-02
 -5.08578598e-01 -3.08739413e-02 -6.56832606e-02 -6.72418904e-03
  3.85857150e-02 -4.19644266e-01  1.87480841e-02  6.15415335e-01
  2.40514591e-01 -1.09955885e-01  4.31380756e-02 -2.63471425e-01
  3.69696826e-01 -4.62906718e-01 -1.08531721e-01 -8.76130685e-02
 -1.95513153e+00  1.92787182e-02 -1.18147659e+00  8.42439607e-02
 -2.04518601e-01  1.03314459e+00  5.52490890e-01  6.17052335e-03
  6.85262531e-02 -3.98862027e-02 -5.88376634e-02 -2.21389793e-02
  3.01451117e-01 -2.15503108e-02 -3.81521553e-01 -2.09579375e-02
  2.67248750e-01 -9.68022272e-03  6.73580945e-01 -1.08061425e-01
 -1.17510125e-01  2.96075523e-01  1.67405535e-03  2.03555729e-02
 -5.48090599e-02  2.68948302e-02  4.51805145e-02  5.43432720e-02
 -7.56384552e-01 -2.61974502e-02  5.58406599e-02 -1.11513555e-01
 -1.35287869e+00 -6.22594506e-02  3.14159185e-01  5.11215115e-03]
[ 0.02024977 -0.02416241  0.02015635  0.00028287 -0.00319282 -0.01749321
 -0.03537153 -0.03492948  0.03712386  0.00730473 -0.02013946 -0.02135341
 -0.0423886   0.00750204  0.00444758 -0.02896642  0.10568469  0.0044138
  0.02374045 -0.00639512 -0.02865526 -0.01621167  0.00361035  0.07573873
 -0.02070017 -0.03954581  0.0684568   0.01933785 -0.08522423 -0.00443495
 -0.05931769  0.0104419  -0.04605916 -0.01707485  0.00035798  0.00653828
 -0.01727485  0.03929035 -0.00708873 -0.03000319  0.00579832  0.155519
 -0.00038426 -0.028626    0.01126607 -0.00313754 -0.01067352  0.00250079
  0.01272619 -0.00395197 -0.02660591  0.01230589  0.01919336 -0.09166137
 -0.02870553  0.01518398  0.0121122  -0.024308   -0.00343793 -0.0883287
 -0.01754634 -0.10981337  0.01608565  0.0027573   0.05519916 -0.00241156
  0.12909156 -0.0205204   0.01646419 -0.05629152 -0.00220778  0.00247129
  0.0360316  -0.00843545 -0.01625234  0.01636968  0.02507061  0.00932593
 -0.04624133  0.02470907  0.00047832  0.02133866  0.06177306  0.00634465
  0.00474142  0.04131063 -0.00562124 -0.011477   -0.06960302  0.03097665
  0.02621474  0.01475268  0.00416028 -0.00090803 -0.01281422 -0.00457985
  0.02051064 -0.0076583   0.0205082   0.03159517]
[-1.57835627e+00 -7.51407921e-01  7.23184288e-01 -9.04522955e-01
  1.09236920e-02  3.06900311e-02 -2.62686682e+00  9.08000302e-03
 -1.56805360e+00  9.36503988e-03  1.13843679e-02 -1.68166769e+00
 -7.27089405e+00 -6.72861397e-01  1.48326027e+00  9.58405077e-01
 -1.43962212e+01 -1.13701129e+00  7.33317109e-03  1.03185856e+00
 -1.50288713e+00 -2.13769855e+01 -3.66397828e-01  2.73782108e-03
 -1.68973804e+00  8.85322914e-02  1.97869092e-01 -1.81500387e+00
 -1.33969092e+00  5.01491785e-01 -3.80413324e-01 -1.63182163e+00
 -5.33567238e+00  6.16474869e-03 -6.01624370e-01 -2.71072078e+00
 -1.24780893e+00 -1.58151495e+00 -3.84376907e+00  3.58858168e-01
 -2.34742284e+00 -1.85808635e+00  8.44187498e-01 -6.47356939e+00
 -2.84806988e-03 -1.74343204e+00 -3.97493355e-02  1.57380903e+00
  8.55706275e-01 -7.72101283e-01  6.74530491e-03  3.25075863e-03
  6.88684955e-02 -2.27588606e+00 -1.10324230e-02  4.98691887e-01
 -4.73919153e-01  5.29080033e-01  8.28035176e-01 -1.09037720e-01
 -1.62922847e+00 -4.40203047e+00 -4.58975506e+00 -1.29315853e+00
 -6.88433409e-01 -1.25873935e+00 -2.40542221e+00 -8.11969221e-01
 -3.10215890e-01  1.00926518e-01 -9.17765796e-01  4.45185721e-01
  6.78737229e-03 -2.67769933e+00 -1.98780346e+00  9.00163203e-02
 -1.57716870e+00  1.85213611e-01 -2.50720829e-01  4.09277668e-03
 -1.71122327e-01  3.50295752e-03  3.27065039e+00  1.01592779e+00
  1.74369791e-03  2.20957309e-01 -1.07556880e+00  4.23305571e-01
  1.21523224e-01 -3.30759707e-04 -3.64560461e+00 -1.33646023e+00
 -1.85732856e-01 -1.13568318e+00 -1.98756099e-01 -2.07868770e-01
 -1.02330554e+00  1.32597625e+00 -3.76543331e+00  1.19541176e-02]
[-1.4672860e+00 -2.0917942e+01  1.1664448e+00  1.5169482e+00
 -2.0643207e-03 -5.9103304e-01  2.3087156e+00  2.9041474e-03
 -1.6882296e+00  3.1710337e-03  4.2753802e-03 -1.3365908e+00
  7.5671911e-01 -5.8328199e-01 -3.0538340e+00  4.6286252e-01
  5.4862242e+00 -4.0643474e-01  6.9812154e-03 -4.8555967e-01
 -5.4792228e+00  6.0641813e+00  2.7153451e+00 -6.1884493e-05
 -2.2746656e+00  2.6264897e-01  8.3386433e-01 -1.8105197e+00
 -8.7353544e+00  5.8051962e-01  1.0937976e-01 -3.4762204e+00
  6.9739747e+00  1.9013698e-03 -5.9449214e-01  3.8682556e-01
 -8.9563048e-01 -4.1784005e+00  1.1697423e+00  1.0634205e+00
 -2.5762746e+00 -9.1602451e-01  8.2465115e+00  5.4782219e-02
 -5.1930272e-03 -1.2675700e+00  3.5243893e-01 -2.4021669e-01
  4.6150270e+00  4.1606468e-01 -1.1776420e-03  2.5234090e-03
  3.2941130e-01 -4.8271683e-01 -9.7449617e-03  5.9958708e-01
 -1.5292621e+01 -6.1412361e-02  4.4135432e+00  1.0263504e+00
 -9.9537563e-01 -1.3102338e+00  2.9713922e+00  2.4656765e-01
 -4.5521948e-02 -3.5927106e-02  1.3602357e-01 -1.3027266e+01
  3.7578285e+00  3.3952513e-01 -7.7349359e-01 -3.5158327e+00
  2.1177114e-03 -3.8887887e+00  7.2686291e-01  3.0813098e-01
 -1.9116075e+00 -4.6453981e+00 -1.0713059e+00 -2.0351404e-04
 -4.0418127e-01 -3.2061834e-03  4.7147222e+00 -2.9008870e+00
  3.0562445e-03  9.1177869e-01  1.7653924e-01  2.3857648e+00
 -1.0188092e+00  2.9044461e-03 -1.0434965e+00  1.0647457e+00
 -1.0478904e+00  2.8628302e-01  3.2915044e+00  3.2101278e+00
 -4.7192773e-01  3.2310956e+00  2.0446982e+00  6.9621778e-03]
[ 1.8349667e-01  4.5566773e+00 -9.1648370e-02 -8.3532535e-02
  1.6960213e-02  1.9215986e-01  2.4894743e+00  9.9143768e-03
 -3.2063074e+00  1.5373760e-02  1.6398244e-02  1.3377072e+00
  4.1258698e+00  1.2369152e+00  5.1291404e+00 -6.6731491e+00
 -1.9307950e+00 -6.1738446e-02  1.5670393e-02  2.3058953e+00
 -3.5300624e+00  2.1175225e+00 -3.4485412e-01 -3.8982418e-03
 -2.6602547e+00 -1.3033576e+00  7.3427296e-01 -3.1579964e+00
 -1.7285874e+00 -1.3587945e+00  3.7525728e-01  3.8888261e+00
 -2.6750824e+00  5.9304247e-03  3.2036078e-01 -3.2581067e-01
 -2.0366232e+00  4.8602104e-01  6.6290565e-02  6.3610446e-01
  7.2480625e-01  8.7614298e-01  3.5077524e-01 -4.9173055e+00
 -6.4757159e-03 -7.1311176e-02  1.4717093e-01  8.3074993e-01
 -3.5036571e+00  7.6963848e-01  5.4084631e-03  9.5826527e-03
 -2.3212333e-01 -1.0832461e+00 -7.7210478e-03 -1.8297852e+00
 -2.5858104e+00  3.4740445e-01 -6.9234610e-01 -3.5108571e+00
  1.2165284e+00 -5.8588967e+00 -1.0948321e+00  1.5449258e+00
 -1.3060769e+00  3.3635873e-01 -1.8698171e+00  1.2207807e+00
 -6.5636029e+00  9.0135574e-01  7.1283060e-01 -1.2122644e+00
  5.1065208e-03  6.4687294e-01 -5.1643187e-01 -4.8611203e-01
 -6.7036092e-01 -4.6136564e-01  1.8099815e+00  6.2211403e-03
 -7.3068164e-02  2.9502162e-03  9.7477503e-02 -7.6322937e+00
  2.9357297e-03 -1.0848325e+01  5.1290560e-01  3.8048487e+00
 -3.2821310e+00  3.7990039e-04  6.3448405e-01 -7.0671296e-01
  3.6521823e+00  2.9184088e-01 -1.1301308e+00 -9.4534475e-01
 -4.8724633e-01 -1.2956349e+00 -2.8790233e+00  1.1833757e-02]
[-0.01720334  0.03007114 -0.03294716 -0.01834143  0.08953308  0.01606451
 -0.01459639 -0.01746092  0.01318301  0.0238032  -0.00514417  0.00516295
  0.01991469  0.00092823  0.02045075 -0.00048413  0.05722293  0.00737622
 -0.00791267 -0.04734395  0.05250792 -0.04646272 -0.00901894  0.00104165
  0.0118571   0.03731238  0.02907935 -0.01553524  0.045317   -0.01273564
 -0.04954397  0.01869161 -0.01636371 -0.05460893  0.01522006 -0.00091094
  0.04776607 -0.00779087  0.01766595 -0.0031188  -0.01276848 -0.14931166
  0.00842626  0.10314412  0.00970817  0.00312313  0.01154399 -0.00500258
  0.00341294  0.0039372   0.03598937  0.00526623  0.00994982 -0.00025777
 -0.04079228 -0.00105451 -0.00403748  0.00112089 -0.00416701  0.01934201
  0.00130535  0.04897199  0.0083306  -0.00508843 -0.03875537 -0.00122684
  0.08920632  0.01668905 -0.02348529  0.02549442 -0.00154678 -0.00779743
 -0.01799171  0.01951955 -0.01226741  0.01702592 -0.03475654 -0.00146944
  0.00258921  0.02416472  0.00454564 -0.03723495  0.0059974  -0.00506832
  0.02287978 -0.03819905  0.0019355   0.0008603   0.03570117 -0.0164663
 -0.01739352 -0.00339666 -0.02307092  0.00415574  0.02289258 -0.00535723
  0.0116515  -0.11977287  0.00437585  0.05093188]
[-5.00787161e-02 -1.19914973e+00 -1.58666682e+00 -1.00912189e+01
 -6.74172537e-03  6.79139757e+00  4.98218107e+00  2.30394420e-03
 -8.47638845e-02  3.49287526e-03  2.16744724e-03 -1.02433689e-01
  8.56911600e-01 -9.73469257e-01  6.73643947e-01 -3.40829539e+00
  3.26606445e+01 -8.29003620e+00  3.49741452e-03 -2.27757382e+00
 -9.91610146e+00  2.90714169e+01 -9.75190449e+00 -1.18184043e-03
 -1.15884364e-01  1.05906534e+00  6.98030770e-01 -4.24174500e+00
 -3.61031508e+00 -4.84934807e-01 -1.05834579e+00  1.15110457e+00
 -1.44894576e+00  7.03758420e-03  2.63288927e+00  9.67333853e-01
 -2.23173633e-01 -6.09148932e+00  2.60155201e+00 -9.19187927e+00
 -1.07403069e+01  9.57331583e-02 -7.53664017e-01  2.32559514e+00
 -1.98579649e-03 -1.05120888e+01 -2.00193930e+00 -5.07452726e+00
 -5.62394810e+00 -1.03718987e+01 -6.76256791e-03  2.51706049e-04
  5.39324760e-01  8.17034952e-03  1.00901900e-02 -5.07787848e+00
  6.75691068e-01 -3.08196449e+00 -8.91712093e+00 -3.11116338e+00
 -6.45710528e-01  7.36778498e+00 -6.17385745e-01 -1.64628201e+01
 -1.05314292e-01 -1.10172482e+01  4.81090593e+00 -8.95789385e-01
 -1.90223956e+00 -3.05789566e+00  1.07060477e-01 -2.03826237e+00
  4.65513626e-03 -1.00391235e+01  3.51915210e-01  9.38990891e-01
 -4.46154356e-01 -2.90872359e+00  6.36204541e-01 -5.17833862e-04
  3.85426974e+00 -2.98901869e-04  1.51876078e+01  4.40460587e+00
 -2.26154388e-03 -3.51715541e+00 -1.04369869e+01  1.08632779e+00
 -4.32619715e+00  3.36086866e-03 -4.33241367e+00 -1.19605875e+01
  4.29922628e+00 -1.13812809e+01 -9.11392307e+00  2.14497209e+00
  9.66348946e-01 -9.89097691e+00 -9.55849215e-02 -5.86237013e-03]
[-4.8574028e+00  1.2820116e+00  3.3813250e-01 -5.4310960e-01
  1.0430823e-02 -3.4027398e-01 -8.5272760e+00 -4.7688973e-03
 -4.0549979e+00  5.7058195e-03 -8.5111847e-03 -5.4999356e+00
 -4.2992473e+00 -1.2664834e-01 -5.0033313e-01 -1.0585654e+00
  6.7464247e+00 -6.2796670e-01  2.8567507e-03 -2.3006663e-01
 -2.5147953e+00  2.0643721e+00  8.9719820e-01 -2.5108788e-02
 -3.1880696e+00 -1.0390508e-01 -9.7200972e-01 -7.8866887e+00
 -1.3221999e+01 -6.3137352e-02  1.7761301e-01  3.0181849e+00
 -6.2873125e+00  3.3502367e-03  2.7583292e-01 -4.3161387e+00
 -4.5262270e+00  4.1897020e+00 -1.0727545e+01  9.9925882e-01
  5.2122564e+00 -6.4677343e+00 -2.5571206e-01 -2.6332241e-01
 -5.0988994e-03  8.0242997e-01  1.3271964e-01 -2.9531953e-01
  1.3229028e+00 -1.0235944e+00 -1.5774408e-02 -6.0321195e-03
 -4.9998760e-01 -7.2645373e+00  9.7662965e-03 -2.3214755e+00
  8.6444557e-01 -5.0534997e-02  5.4801712e+00 -3.0961075e-01
 -6.2490001e+00 -1.2827060e+01 -1.0028303e+01 -2.4885033e-01
  2.4515802e-01 -9.8914737e-01 -1.0120659e+01  4.2825371e-01
  3.5877058e-01  3.2594877e-01  6.7110144e-02  2.9868860e+00
  3.6845522e-04  1.0065693e+00 -5.6486303e-01 -3.6740653e-02
 -3.6311529e+00 -2.3531823e-01  2.2592317e-01  6.0659309e-05
 -1.0344847e-02 -2.0950192e-03  1.7263021e+00 -5.6200331e-01
 -1.2419273e-02  3.3810027e+00 -9.2512643e-01 -1.7529410e+00
  7.3257241e+00 -6.2633506e-03 -5.5737357e+00  2.3506291e+00
  1.0907817e+00 -1.2400007e+00  2.7001119e+00  8.4830016e-01
  1.3892370e-01 -4.3082076e-01 -1.4850368e-01  3.3166963e-03]
[ 4.4623957e+00 -7.6483541e+00  3.3934242e-01 -7.5775975e-01
 -6.6295732e-03 -2.5734766e+00 -6.0070145e-01  6.1292425e-03
  3.2284269e+00  1.4377606e-02  2.9695111e-03  5.0596156e+00
 -9.1052550e-01  1.5829568e+00  1.9514275e+00  5.6783953e+00
  2.6346772e+00 -7.8038204e-01  4.6677361e-03  4.8316741e+00
 -2.0436413e+00  1.1691032e-01 -4.4788715e-01 -4.3428037e-03
  5.3822994e+00 -1.1709385e+00  1.5580415e+00  2.7650696e-01
  1.5958420e+00 -1.4833585e+00  2.6394041e+00 -6.1370540e-01
 -7.6508436e+00  4.2882971e-03  2.2433262e-01 -2.3948002e-01
  3.6426117e+00 -1.5578501e-01 -3.7528437e-01  2.6598036e+00
  4.1374114e-01  6.9111133e+00 -4.4388375e-01  5.1062000e-01
 -1.0735566e-02 -8.9347345e-01  4.8399991e-01  4.8160763e+00
 -4.5869083e+00 -3.5826737e-01 -2.1222453e-03  8.1786485e-03
 -4.7394609e+00  6.1828213e+00 -9.6291546e-03  5.0322690e+00
 -2.7263803e+00  1.3933811e-01  4.1033177e+00  7.6597905e+00
  6.1787901e+00  3.7939413e+00 -2.2750125e+00 -1.2010834e+00
 -5.4755650e+00 -9.3984962e-01  4.6198025e+00 -8.5325527e-01
 -5.4174623e+00  2.4215569e+00  5.1130867e+00  2.4869224e-01
  4.0623047e-03 -3.9101285e-01 -1.7353406e+00 -9.6136950e-02
  1.0880317e+01 -5.3214092e+00  3.7537138e+00  7.3874881e-03
 -1.5679801e+00 -1.0916450e-02  9.1861024e-02  4.2502010e-01
 -1.2575209e-03 -6.9553647e+00 -7.4181461e-01 -1.0724841e+00
  3.8893180e+00  8.5586021e-03 -5.8995124e-02 -5.6298071e-01
 -9.5512104e+00 -8.7467390e-01  2.7032475e+00  3.3549242e+00
 -5.3872285e+00  3.5606701e+00  5.0736302e-01  1.6613988e-02]
[ 2.56249905e-01  4.06520426e-01  3.60766709e-01  1.51200861e-01
 -1.75762195e-02 -2.85182863e-01  2.25867987e+00 -3.27530652e-02
  4.99368101e-01 -3.04048229e-02 -3.97697538e-02  5.82766771e-01
 -3.18356180e+00 -9.15913820e-01 -1.47586119e+00 -2.54654384e+00
  3.39369029e-02  2.73656547e-01 -2.24553198e-02 -4.07278013e+00
  1.74567521e+00  1.79279625e-01 -2.56840914e-01 -6.86779572e-03
  2.99566001e-01  1.43989652e-01 -1.37990725e+00  1.10228336e+00
  1.92067361e+00 -6.06798768e-01  1.03736579e+00 -1.98859394e+00
  4.58015241e-02 -1.19598033e-02 -7.26674736e-01 -9.41786110e-01
  4.12417620e-01  2.50873041e+00 -4.97118801e-01  1.81586295e-01
  1.82451248e-01  7.39738345e-01 -2.01941967e+00 -4.00597954e+00
  2.76008844e-02  8.15570533e-01  5.96322358e-01 -3.03643614e-01
  9.62700605e-01  4.56121325e-01 -1.26301059e-02 -3.37109193e-02
 -1.17210634e-01  1.00865042e+00  2.30922364e-02 -2.96315759e-01
  1.20209217e-01  1.76237917e+00 -1.57901955e+00  6.22419357e-01
  4.06946331e-01  4.34325409e+00 -9.72064197e-01  7.49776065e-01
  7.07966626e-01  4.43837821e-01  1.99955344e+00 -1.59349430e+00
 -1.31720334e-01 -8.65127861e-01  1.50945807e+00 -1.77452600e+00
 -3.19634527e-02  9.25082564e-01 -1.46241975e+00  4.23918843e-01
  5.00120372e-02 -1.95865762e+00  7.05679357e-01 -2.28321701e-02
 -2.71056145e-01 -7.95930903e-03  2.15385866e+00 -2.11183739e+00
 -4.91673173e-03 -1.89983964e+00  4.74958241e-01 -1.41227305e+00
 -2.78979421e+00 -2.33900305e-02 -2.91798306e+00  4.23037224e-02
 -8.42563748e-01  6.96236968e-01 -1.26707470e+00 -3.51734710e+00
  2.71831691e-01 -3.07028246e+00 -4.94179821e+00 -2.89963428e-02]
[ 6.38910198e+00  1.52564204e+00 -1.05994260e+00 -1.53418764e-01
 -1.35492312e-03 -1.76056314e+00 -6.77343071e-01  4.51955013e-03
  5.18600988e+00  5.64156054e-03  1.31840107e-03  7.58746815e+00
  1.64230690e+01 -4.03811038e-02  1.58443296e+00  6.70652211e-01
  3.40123296e+00  1.00972995e-01  1.02999166e-03  2.49738723e-01
  2.05597258e+00 -3.66775960e-01 -1.30194649e-01 -4.30301717e-03
  3.20341182e+00  5.93676865e-02 -1.66783106e+00 -2.73701936e-01
  3.00342774e+00 -1.27691448e-01  1.77455974e+00 -6.77775145e+00
 -2.55250126e-01  1.56104506e-03  1.19569875e-01 -4.86046560e-02
  6.01554585e+00  7.20255077e-01 -3.39588583e-01  3.59256268e+00
 -3.73050690e-01  1.01194592e+01  4.20154572e-01  6.74863636e-01
 -5.79809491e-03 -2.68154889e-01 -4.07133758e-01 -1.50097263e+00
  1.43929601e+00 -1.90998048e-01 -2.45681987e-03 -1.77745731e-03
 -6.37145281e-01  1.07476063e+01  4.91350051e-03 -3.74535131e+00
  5.63565540e+00  3.60332894e+00  2.45804012e-01  2.01620007e+00
  8.68404007e+00  9.52016735e+00 -2.79105335e-01 -3.39916468e-01
  6.44148514e-02 -5.27374089e-01  1.14270163e+01  3.52645308e-01
  1.02066720e+00  8.78700495e-01  3.41219641e-02  1.24399924e+00
  1.55338203e-03 -1.99757025e-01 -9.09983349e+00  2.05922835e-02
  3.84568119e+00  1.36732733e+00 -8.99633467e-02  5.56100043e-04
 -2.99234080e+00  1.86210184e-03  6.30644858e-01  1.05668092e+00
 -6.77755242e-03 -1.24577582e+00 -2.29188517e-01 -7.50175858e+00
 -5.38657248e-01  4.25242679e-03 -2.22959265e-01 -1.09989956e-01
 -3.03716540e-01 -4.41478938e-01  1.70345590e-01  4.97747898e+00
  1.26713052e-01  2.69783020e+00 -2.58396673e+00  3.77006218e-04]
[-5.30792475e-02  3.41197774e-02 -6.26034594e+00  7.66297744e-04
 -1.11185377e-02 -2.34920532e-01  1.02897614e-01 -4.14475333e-03
 -5.88640161e-02  4.04824084e-03 -1.97934429e-03 -2.66249515e-02
 -3.60494614e-01 -1.11486340e+00  1.55489836e-02 -7.38451838e-01
  6.35250509e-02 -9.71722789e-03 -6.69610733e-03  1.14922380e+00
 -1.98766202e-01 -4.30731803e-01 -3.05450382e-03 -7.70567101e-04
 -7.39806443e-02  6.27116486e-02 -1.43072116e+00 -7.96346515e-02
 -2.76903268e-02  1.73651171e+00  6.93389416e-01 -5.53593338e-02
  5.53061962e-02  1.95338554e-03 -1.78296696e-02  2.02688240e-02
 -7.89888855e-03 -2.03132376e-01  1.29190655e-02  5.25974333e-01
 -2.35068351e-02 -1.39574349e-01 -1.36534378e-01 -5.24859577e-02
 -5.18820668e-03 -2.19983421e-02 -4.93338238e-03 -9.95314345e-02
 -8.61204490e-02 -3.15043069e-02 -6.92743622e-03 -2.75845849e-03
 -1.75401819e+00 -5.00078015e-02  6.66801212e-03  2.39879608e-01
  5.66084236e-02 -5.53572364e-03  2.01283880e-02  1.69073188e+00
 -7.73808882e-02 -1.05053556e+00  3.28103341e-02  2.93208603e-02
 -5.79594469e+00 -5.50071057e-03  2.34602198e-01 -1.42004900e-02
  1.28066158e+00 -3.00030780e+00 -9.81576562e-01  2.29087770e-02
 -3.97722179e-04 -9.04517435e-03  6.28968403e-02 -1.19987555e-01
  1.59942452e-02  2.43518855e-02  7.44522810e-01 -1.96442776e-03
  1.49743962e+00 -3.53471027e-03  3.36373359e-01 -5.45129813e-02
 -1.16429543e-02 -2.46701449e-01 -1.90896299e-02  6.81827590e-02
  1.00828424e-01  4.93258645e-04  8.12733360e-03 -9.40656476e-03
 -8.48278344e-01  8.52883980e-03  1.54515021e-02  6.35465801e-01
 -6.78308487e+00 -4.79343869e-02  7.67552376e-01 -2.65459414e-03]
[-0.01746939  0.01453358 -0.0075508   0.00688685 -0.02907459 -0.01111223
  0.01688392 -0.01370508  0.00869264  0.00077365  0.01682494  0.00408685
  0.16680335  0.03667983  0.02453464 -0.00348216  0.17473161 -0.00239125
  0.06085084  0.0421856   0.01950251 -0.12035435 -0.00812069  0.00851028
  0.00646139  0.00507385 -0.01405318  0.01290186  0.09277591 -0.01468982
  0.02566239 -0.01193886 -0.01656102  0.0376879   0.01176598  0.02222262
  0.05442593  0.0033308  -0.03319004  0.01225335 -0.00285273 -0.01070874
  0.0196306   0.01583496  0.01196015  0.00364983  0.00574996 -0.00214188
 -0.0167469  -0.00273164 -0.02658898  0.03860307 -0.00849955 -0.08696566
  0.00552563  0.03133241 -0.01924006  0.02374097 -0.00565267  0.02654109
  0.00238509  0.05771081  0.02777243  0.00301535 -0.02731062  0.00419165
  0.01515543  0.0055764  -0.01669715  0.02513465 -0.00664457  0.00342418
  0.00560406 -0.0064364   0.0003405  -0.00114322 -0.04241123 -0.00804684
  0.05529142  0.01726662 -0.00482228 -0.01747726  0.00390643  0.06221486
  0.0162755  -0.0755567   0.00406777  0.01251605  0.06776043 -0.00053152
 -0.01534417 -0.00487402  0.01038263  0.0009662   0.00890654  0.00697097
 -0.01678299 -0.05626141 -0.03801699 -0.00822307]
[ 8.5265905e-01  1.5211993e+00 -6.1570376e-01 -1.1328827e+00
  1.3332552e-02  1.9572842e+00  8.6269623e-01  1.2815072e-02
  2.8121719e-01  9.1368696e-03  2.0587243e-02  5.3331286e-01
 -9.8731792e-01 -2.6115909e-01  1.0772721e+00  9.5239460e-01
 -4.0827098e+00 -8.9594978e-01  3.3461564e-04 -2.6873883e-02
  3.0241802e+00  2.4679465e+00 -1.1327720e+00 -5.1116943e-03
  5.2473384e-01 -9.1710754e-02  1.6318995e+00 -7.5604588e-01
  2.8079870e+00 -3.8565812e-01 -1.9984727e+00  4.2580390e+00
  7.7452523e-01  5.4534669e-03  2.9804237e+00  1.4284568e+00
  2.9498267e-01  2.0444665e+00  1.8997797e+00 -3.6906235e+00
 -1.7620833e-01  8.5232604e-01  1.9990616e+00  3.8670123e+00
 -3.1106046e-03 -1.3168744e+00 -7.3666841e-01 -4.0407991e+00
 -3.2191303e+00 -7.0829707e-01 -8.0518238e-04  5.7332967e-03
 -2.0672725e-01  1.8910868e+00 -3.1696490e-03 -4.6105175e+00
  9.7258931e-01 -2.8290970e+00 -9.1198868e-01 -3.0050721e+00
  6.1086029e-01  3.3277521e+00  1.8956066e+00 -9.1824216e-01
  2.7963346e-01 -9.7351784e-01  2.2971332e+00  1.6317769e+00
 -3.3509970e+00 -2.2434328e+00 -7.0735699e-01  1.9110430e+00
 -6.4969296e-04 -6.4684153e-01  2.1026022e+00 -9.0867564e-02
  1.1589227e+00  1.4668723e+00  1.2140750e+00  3.9750580e-03
  3.4444821e+00  9.7070429e-03 -3.2849538e+00  2.1347511e+00
 -2.1713478e-03  3.7062788e+00 -1.0446321e+00  1.6085118e+00
  2.7526381e+00  3.2036074e-03  3.2681723e+00 -1.4739754e+00
  7.7187169e-01 -8.5747552e-01 -1.7340913e+00  4.7142453e+00
  1.5199214e+00 -1.5138981e+00  3.0901108e+00  4.5471909e-03]
[-4.07235622e-01 -1.21711306e-02  2.51742313e-03  1.51888385e-01
  7.37697072e-03  4.84632283e-01 -1.49286181e-01  5.54847997e-03
 -4.76555973e-01  1.68475285e-02  1.65410042e-02 -4.64806139e-01
  1.69869506e+00 -2.74716884e-01  1.45726681e+00 -1.35243785e+00
  1.58268499e+00 -1.57738924e-01 -1.24395461e-04 -4.78109241e-01
  7.79820502e-01  1.92408943e+00  5.10509968e-01  3.58864875e-03
 -4.93276507e-01  1.00637861e-01  9.19725597e-01 -1.41683364e+00
  1.31303215e+00 -9.81098786e-02 -3.71094376e-01  5.46577811e-01
  9.34894502e-01 -3.92932771e-03 -8.10266590e+00  2.45085150e-01
 -3.83328289e-01  2.06974983e+00  2.51462877e-01 -7.56472051e-01
 -3.38794500e-01 -4.73261416e-01  7.06357241e-01  1.41790473e+00
  6.29457005e-04 -4.76633906e-01  8.09543967e-01 -1.17926526e+00
 -2.67874330e-01  5.99969923e-02  1.03733921e-02  2.13704910e-03
 -1.89695328e-01 -5.53921282e-01 -1.13969846e-02 -1.38672793e+00
  3.16784859e-01 -1.42345941e+00  1.28382683e+00 -6.34397805e-01
 -1.81138963e-01  9.80004489e-01  5.36898851e-01 -6.76657677e-01
  5.95433041e-02 -1.81591704e-01 -1.78465378e+00 -3.06072593e-01
 -7.09758639e-01 -6.79739714e-01 -2.92029738e-01  6.23804390e-01
 -9.24077258e-03 -8.42401862e-01  1.95555598e-01 -5.53279463e-03
 -3.10731798e-01  4.26666409e-01  2.49239668e-01 -8.17581732e-03
  7.43825734e-01  9.11762752e-03  2.08392277e-01  4.53731656e-01
  3.79902730e-03  1.53331339e+00 -7.47549534e-02  6.98594093e-01
 -3.10837984e-01 -1.34407543e-02  4.25832868e-01  1.23882964e-01
  4.47232425e-01 -1.04628943e-01  7.51259744e-01  2.53650641e+00
  3.23220849e-01  4.16469669e+00  4.77630906e-02  1.63931828e-02]
[ 1.31677061e-01 -1.62244290e-02  6.04627180e+00  8.19676090e-03
  9.12746415e-03  7.45121479e+00 -2.36181468e-01  1.27898073e-02
  1.31983891e-01 -4.00602631e-03  7.25303369e-04  7.47544393e-02
 -4.32850981e+00 -8.76366615e+00 -1.31044015e-01  2.44282079e+00
  1.84119835e-01  4.45746593e-02  1.13019021e-02  1.47277683e-01
  2.73143649e-01  7.14449763e-01  2.49607349e-03  2.15913802e-02
  2.27226138e-01  1.66515663e-01  7.78588343e+00  2.08553985e-01
 -1.43270537e-01  1.21414745e+00 -9.28894138e+00  9.73574445e-02
 -2.20727801e-01 -2.64872651e-04  9.08772647e-02 -4.18747663e-02
  7.30670542e-02  2.47237191e-01 -6.21374696e-02 -7.42641926e+00
  7.54503235e-02 -2.91439921e-01  1.57785907e-01  3.81626070e-01
  1.04077939e-04  3.57160605e-02 -5.15736581e-04  4.03534085e-01
  2.30232432e-01  8.50223973e-02  1.06098112e-02  3.89367994e-03
  1.27518997e+01 -4.82157856e-01 -2.29867990e-03  2.71193564e-01
 -3.38759929e-01  5.34813404e-02  2.48824898e-02 -1.15043278e+01
  1.10019863e-01  1.42128634e+00 -5.17863370e-02 -1.53530028e-03
  5.96806049e+00  7.53898546e-03 -4.12172467e-01  3.39316316e-02
 -1.18677235e+01 -1.52325141e+00 -1.03768034e+01 -4.22577038e-02
  2.04697791e-02  7.14071654e-03 -3.14043611e-02  3.42602581e-01
  1.12117223e-01 -1.40157137e-02 -3.86036634e-01 -6.76041516e-03
  7.64187574e+00  1.12141948e-02 -6.45940542e-01  7.55967647e-02
  4.76246979e-03  6.77249014e-01  1.04012545e-02 -1.39333263e-01
 -2.36197442e-01  1.17469337e-02 -1.66161820e-01  4.71746214e-02
  3.71479702e+00 -4.83378507e-02 -3.99144366e-02  6.13316372e-02
 -6.37411118e+00 -3.98017436e-01 -6.92840242e+00 -7.20028440e-03]
[-1.42539740e+00 -1.66519582e+00 -3.30676109e-01 -1.47831881e+00
 -2.41000280e-02  3.06542605e-01 -1.25889826e+01 -9.00880154e-03
 -8.83192539e-01 -1.36079742e-02 -1.37320375e-02 -1.62142503e+00
 -1.89298382e+01  4.30660278e-01 -3.61886382e+00 -5.47076762e-01
 -1.52419257e+00 -1.51448131e+00  1.73078536e-03 -7.34858334e-01
 -3.63638520e+00 -2.07448792e+00 -1.74166012e+00  2.77395360e-02
 -3.32728475e-01 -7.12262243e-02 -1.86357245e-01  1.61102486e+00
  3.80935931e+00 -1.66988969e-02 -2.26978764e-01  4.24255639e-01
 -5.59899187e+00  4.18892567e-04  1.18216896e+00 -2.99419451e+00
 -1.07651818e+00  6.50806141e+00 -7.32286978e+00 -1.34072459e+00
 -4.82779694e+00 -2.61566138e+00 -1.74660933e+00  1.35292459e+00
  1.00270920e-02 -1.55753708e+00 -1.28156984e+00 -6.77750856e-02
 -1.67486584e+00 -1.22939312e+00  3.21693579e-03  6.50422648e-03
  3.86782974e-01 -3.58861184e+00 -5.41403331e-03  1.27655184e+00
 -1.33034694e+00 -8.74027908e-01 -5.34959078e+00  8.76223505e-01
 -1.90300655e+00 -6.20949984e+00 -8.04777718e+00 -9.53919441e-02
  1.79530889e-01 -1.47537947e+00 -4.57278252e+00  5.94969153e-01
 -1.91194966e-01 -8.54944050e-01  2.16044888e-01 -2.11512947e+00
  5.39377751e-03 -2.97400522e+00 -1.17030585e+00  9.22097117e-02
 -5.55066705e-01  1.08692467e+00  7.15020418e-01 -2.04219506e-03
  1.12080075e-01 -1.31826783e-02 -9.54504251e-01 -1.56553340e+00
  9.29668266e-03 -6.04759026e+00 -1.23771489e+00 -8.18827868e-01
 -7.98183155e+00  4.72144736e-03 -6.28244817e-01 -2.25568938e+00
 -4.71706301e-01 -1.68396145e-01 -1.91963756e+00 -1.00669265e+00
  3.11116129e-01 -4.36953402e+00 -1.66458762e+00 -6.95389649e-03]
[ -5.821911   -11.449523   -14.336124    -5.5277133   -0.09628875
   4.984814     0.51625645  -0.08699917  -3.3262906   -0.06000594
  -0.10049699  -6.2857804   -2.8490305   -2.4002335   -3.3227017
  -6.9192195   -7.626986    -3.1692653   -0.06229078  -6.5514455
   0.34879184  -3.2555351   -6.325091    -0.18293895  -0.7036689
  -1.4284503    2.1367788   -1.9036535   -1.8099391   -2.4220872
  -1.8206611   -0.3876471    0.5061993   -0.0578863    2.7729216
   6.319064    -4.7106013   -4.569508     4.5694146   -6.2508016
  -5.620515    -8.670824    -7.282693    -3.6532886   -0.02447718
  -4.4752617   -3.5459158   -7.079924    -3.2706075   -0.9431088
  -0.14371288  -0.07074511   3.5884268   -9.17938      0.16476421
  -5.2315183   -6.100706    -1.4232997   -6.045404    -2.5384188
  -8.012494    -7.053214     2.7895446    2.1251688    3.957016
  -3.4608922   -8.505969   -10.7091675  -12.204426    -3.5804563
  -2.6724553   -8.489638    -0.13449027  -5.807058    -2.7760892
 -12.603369    -1.9079671  -12.047226     1.5115854   -0.0533793
   6.206785    -0.06162543  -6.5754943  -13.857223    -0.07592717
  -4.376239    -2.248556    -6.1897297   -3.000469    -0.01445253
   5.606349    -6.5264053    2.9335468    0.46079046  -7.4647565
   4.2560782  -10.251989    -6.9890523   -3.9816413   -0.12936994]
layer 7 Activation
elu
layer 8 Dropout
layer 9 Dense
100 1
[-0.30844983]
[0.27626085]
[0.77517533]
[-0.58518696]
[-0.00047066]
[-0.21368647]
[0.24663933]
[8.6228785e-05]
[-0.34309366]
[0.00039805]
[0.00055969]
[-0.27086437]
[0.18562824]
[-0.08492152]
[0.16290255]
[0.26053223]
[0.313376]
[-0.81176096]
[0.00043363]
[0.04420503]
[0.19858585]
[0.17423083]
[-0.6864406]
[-0.00064772]
[-0.42843637]
[0.11349386]
[-0.04167683]
[-0.18031502]
[0.11046278]
[0.17521043]
[0.06990197]
[-0.11994109]
[0.3003646]
[0.00040593]
[-0.16045924]
[0.45887017]
[-0.32775655]
[0.20045218]
[0.41059178]
[0.1949885]
[-0.9195435]
[-0.12433319]
[0.9098701]
[0.57503885]
[-0.00059531]
[-0.64612466]
[1.2173964]
[-0.76120293]
[-0.24776267]
[-0.65707463]
[-0.00030004]
[0.00042921]
[-0.15175644]
[-0.06921989]
[-0.00126936]
[0.21192089]
[0.26014063]
[0.20702955]
[-1.8148227]
[-0.06501566]
[-0.2212404]
[-0.09582242]
[0.46435022]
[-0.6855486]
[0.12536132]
[-0.56057996]
[-0.0728698]
[0.31991836]
[0.40792823]
[0.06385297]
[-0.1604526]
[0.48718244]
[-0.00029322]
[-0.6418418]
[0.8094594]
[0.92056495]
[-0.40197983]
[0.58870417]
[-0.08400171]
[0.00023379]
[-0.25756955]
[-0.00047655]
[0.23993884]
[0.19015886]
[0.00023518]
[0.07056444]
[-0.6635015]
[0.31280273]
[0.08091104]
[-0.00017351]
[0.07751224]
[-0.5965955]
[-0.17234135]
[-0.53042793]
[-0.49978393]
[-1.0010515]
[-0.28710192]
[-0.1681668]
[0.5303762]
[0.0011835]
[0.85300857]
