layers 10
layer 0 Dense
9 9
[-4.1603129e-03  7.3772385e-03 -5.5146022e-03  1.0732201e-01
  5.0499868e-02  6.5560505e-02 -3.1360317e-02 -1.7424133e-04
  4.2651266e-01]
[ 0.12348632 -0.0031467  -0.09574421  1.3286492  -0.16865309 -0.09866689
  0.05223536  0.04005251 -0.58672684]
[ 0.339573    0.01341968  0.0595184  -0.00127062  0.24388678  0.1723675
 -0.12287205  0.08500794 -0.00611106]
[ 1.0665054  -0.00427874 -0.14427786  0.02012497 -0.3805959  -0.19205306
  0.13405563 -0.04802051  0.06654216]
[-0.02897623  0.01279637  0.09198739  0.0101909   0.00077817  0.06858461
 -0.01684006 -0.36511466 -0.00790491]
[ 0.10145117 -0.10877527 -0.22597083  0.1116951   1.2491753  -2.3532865
 -0.69860375 -0.04360912 -0.07721057]
[-0.2490597  -0.48364034 -2.887792   -0.68018013  0.503667   -1.3166465
 -2.461952   -0.06346875  0.30053997]
[-0.01645553  0.04005656 -0.0074429  -0.00358942  1.8293455   0.07966345
  2.8178484   0.00899883  0.01080919]
[ 3.3247732e-03  7.6035843e+00 -1.2431333e-03 -2.9311366e-03
 -1.1841968e-03 -2.2540197e-03  2.2611641e-03  8.9057572e-03
  3.4134884e-03]
[-0.651474   -6.4869394   2.9335694  -0.4870209  -0.2970686   2.8971756
  2.351758    0.19414712 -0.10272852]
layer 1 Activation
elu
layer 2 Dropout
layer 3 Dense
9 30
[ 1.03002628e-02  3.31374347e-01  1.12454522e+00 -1.23659160e-03
  1.94641724e-02  4.42292402e-03 -1.49656031e-02 -4.08629626e-01
 -1.21750161e-01  1.01314735e+00  2.44943571e+00 -1.08981097e+00
 -3.65976721e-01  1.54746190e-01 -7.53246021e+00 -3.90842818e-02
  3.81598681e-01 -1.11750282e-01  4.37089145e-01 -1.14282303e-01
 -7.68558681e-03  8.43750894e-01 -2.11303324e-01  5.61496735e-01
 -7.77254179e-02 -2.88594589e-02 -1.08253276e+00 -7.24943817e-01
 -1.09429136e-01 -1.91144422e-02]
[-3.0226958   1.3581314   0.1793546  -0.13699165 -0.09136774  4.44458
 -1.8265235   0.04053884 -0.04790458 -0.05094375 -0.08813734 -0.0606221
  1.9020525  -0.04086145 -0.12485189 -0.05149603  0.06940147 -1.3978074
 -0.43863425  0.01666543  0.02963521 -0.23575115  0.03404396 -0.6174252
  0.16806579 -0.0411115  -0.07033558  0.05141494 -0.01849238  7.3466473 ]
[ 0.16773525  1.6334038   0.38951007  1.0315596   0.43046543 -0.1079791
  0.25792944 -1.0417458  -0.33261344  1.6458278  -0.03456402  1.6176645
  0.5227533   0.06751473  0.9337808  -1.046738   -1.0436454   0.7223314
  1.125937    0.35140225  1.9186472   4.434222   -1.7853994   0.04102049
  0.2853962   0.8127552   1.506571   -0.02145247 -1.4699157  -0.76287425]
[ 1.0129316e-02  6.3933718e-01  5.9405476e-01 -5.4316513e-02
 -7.1072364e-01  1.6246798e-02 -2.3719589e-03 -1.3932310e+00
 -7.0899338e-02  1.3038492e-01 -4.3834269e-01  9.2381045e-02
 -7.1595299e-01 -2.2378519e+00  5.0889736e-01 -2.1406494e-02
  1.7584193e+00 -2.4655344e-02  1.0564688e-01  3.2393112e+00
 -7.2806373e-02 -2.1187593e+01 -5.7451206e-01  6.5003341e-01
 -1.3146622e-01  1.7855829e-02 -1.5871962e+00  7.3905505e-02
  2.2633135e-01 -4.4648323e-02]
[-0.10457988 -1.5385611  -1.1171883   0.77946174 -0.2193723  -0.03929556
 -0.16633186  0.2665056  -1.1198772   1.5512466  -0.28535637  1.0039482
 -0.5733065  -0.07447184 -0.00420281 -0.774005   -0.11367983  0.9013879
 -3.4277174   0.27338365 -0.05483958 -1.0078743  -3.462067   -0.13205956
  0.43333012 -0.9388477   0.62965107  1.7325011  -0.11000202  0.13220245]
[ 0.26398888  0.24817458 -0.38154435 -1.0617456  -0.37243295 -0.39337748
  0.5155926   0.29598126  0.0436325   0.08213244 -0.31521538  0.22394487
  2.7938015   0.05863373 -0.39200118  1.7390219   0.30036885 -0.8547512
 -0.7457489   0.11920372 -0.68760544 -1.9396144  -2.3549843  -0.84747624
  0.47724447 -0.17296943  0.03761385  1.3031869   0.08791327 -0.5616255 ]
[ 7.6891683e-02  9.3413544e-01  7.8344119e-01 -4.4767496e-01
  1.6118357e-01 -2.3669472e-02  1.4831518e-01 -1.9910774e-01
 -2.6135650e+00 -9.8579133e-01  1.9017847e-01 -6.6534734e-01
  2.5579733e-01  7.2099641e-02  1.6868306e-02  4.3951720e-01
  9.7412735e-02 -5.2624488e-01 -6.4803600e+00 -1.9045366e-01
  8.9178734e-02  6.8096155e-01  2.3446629e+00  1.5592620e-01
 -2.5151378e-01 -1.6081276e+00 -4.1848740e-01 -1.1599321e+00
  5.4715136e-03 -1.8460061e-01]
[-0.05878536  0.18397689 -0.27414548 -0.67324764  0.00943395  0.1050504
 -0.00448061 -0.33627364  0.08815359  0.5177543  -0.24319866  0.46018675
 -0.27471593  0.02477844  0.5637115   0.18331766 -0.19646598  0.07202081
  0.93208516  0.1254189  -0.54867923  0.75924975 -1.242866    0.14058118
 -2.3397617   0.2580738   0.41840684  0.3842649  -0.42166868  0.01457005]
[-4.0648743e-03 -2.2006445e-01 -3.9222818e-02  4.2391576e-02
  4.3103504e+00 -1.8728539e-02  4.8939302e-03  3.7221628e-01
 -4.8997235e-02 -4.2748004e-01  2.2855222e-01 -2.5385156e-01
  1.0688684e-01 -4.0491052e+00 -4.9351171e-01 -1.1542393e-01
 -6.9753867e-01 -8.1006549e-02 -2.4082601e-02  5.1172581e+00
  1.8317567e-01 -1.0970462e+01  1.0226629e+00  2.5387579e-01
 -2.1393046e-01  3.1231893e-02  4.2011657e-01 -5.8866763e-01
 -5.8018482e-01 -7.5943857e-02]
[ -2.9883997    3.049998    -1.9471935   -1.6173637   -0.72576404
  -2.0065444   -1.5121876   -0.78026795   0.9599776   -0.70953065
   0.52614313  -3.940907     1.9786994    0.22937468  -3.5408936
  -2.73752      0.40536293   1.74396      1.2934396   -0.4735894
  -3.978064   -11.167697     3.6744885    0.17163213  -0.9267958
   2.4200094   -2.7105355   -2.2092595    0.43464848  -4.5490117 ]
layer 4 Activation
elu
layer 5 Dropout
layer 6 Dense
30 100
[-1.4697005e-01 -6.3679117e-01  2.9679006e-01 -2.7367765e-01
 -1.2455223e-01 -6.7867443e-02 -3.0392620e-01 -6.4529449e-01
 -2.4666373e-01 -1.9799527e-02 -5.2672017e-02 -3.5577424e-02
  2.3405030e-02  2.9963560e-02 -4.7133226e-02 -2.5279036e+00
 -1.2166008e-01  4.1216455e+00  3.0687296e-01 -6.2830639e-01
  9.6619003e-02 -3.2413146e-01  3.2677826e-01 -3.0351413e-02
 -3.6246186e-01 -3.1327050e-02 -4.1409064e-02 -3.7079516e-01
  8.4029706e-03 -1.3564345e-01  2.8466797e-01  3.5784473e-03
  2.4647427e-01 -8.8761044e+00 -4.1040391e-02  5.3161913e-01
  1.9601770e-02 -3.1842366e-02 -5.0971735e-01  8.7387271e-02
 -1.8016306e-01 -5.8363891e-01  1.7351627e+00  3.8033995e-01
 -2.4780831e-01  5.0731529e-02 -1.3634084e-01  8.6662896e-02
 -8.1540620e-01 -6.3504076e-01 -1.7049040e-01  7.5303302e-03
 -2.6984511e-02 -3.7956718e-01  3.0740255e-03  3.2761890e-01
 -4.3672717e-01 -2.6377827e-01  7.8570813e-01  5.7817113e-01
 -3.4866074e-01 -2.3384112e-01 -2.6349965e-02 -4.4058788e-01
 -5.0597286e-01  2.2252199e-01  9.1771007e-01  3.1873996e-03
  1.0512012e+00 -6.7089987e-01  1.3958605e-02 -3.0318278e-01
 -6.5705121e-01 -1.1173837e-01  1.7882356e-01 -1.0720186e+01
  1.8960148e-01  5.4649699e-01  5.1569110e-01 -1.3669905e-01
 -1.4660537e+00 -7.1224982e-01  1.4541835e+00  6.5534398e-02
  3.0645460e-01  2.9270519e-02 -1.0400264e-02 -5.4628181e+00
 -5.8819102e-03  2.0882015e+00  1.8021725e-02 -3.3543119e-01
 -1.1568052e+00  2.2155117e-02 -4.3744206e-01  5.2899128e-01
  7.4541587e-01 -2.6143798e-01 -9.3392424e-02 -9.2068644e+00]
[-4.35439616e-01 -1.97822928e+00  6.63619339e-01  1.29972994e+00
  1.09641969e+00 -1.38568878e-01  1.16376877e+00 -1.14231861e+00
  1.29066837e+00 -1.46191809e-02 -2.54111998e-02 -1.17473828e-03
 -3.06054298e-02 -9.46580060e-03  1.85017645e-01  4.30653304e-01
 -3.95186335e-01  1.73653767e-01 -7.20239758e-01 -1.17574823e+00
 -3.11450332e-01 -1.81350201e-01 -1.03402376e+00 -2.78367419e-02
  1.27986383e+00 -2.32688319e-02 -1.77032316e+00  8.82656753e-01
 -2.37289425e-02 -6.56700730e-01  2.02130586e-01 -1.99409965e-02
 -5.04070902e+00  4.93870616e-01 -4.44542849e-03  4.02512133e-01
 -1.25554428e-02 -1.73804518e-02  3.30779925e-02 -3.93585593e-01
 -2.80435652e-01 -8.82366538e-01  1.35924518e+00 -2.38194972e-01
  2.16619253e+00  7.33066082e-01  2.25061059e+00 -8.84214699e-01
 -2.52327442e+00 -1.57939589e+00 -1.04916938e-01 -1.80807401e-04
 -1.35545600e-02  5.15550911e-01 -1.39035210e-02 -1.34118438e+00
  6.26308620e-01 -9.49642599e-01 -7.60564625e-01 -3.20770240e+00
 -2.56710351e-01 -7.89123952e-01 -1.95371155e-02 -2.09849668e+00
 -1.27630487e-01  1.71387285e-01 -2.77330923e+00  3.13416630e-01
 -2.65837193e+00 -1.57363284e+00 -2.05987856e-01 -1.01598668e+00
 -1.45053852e+00 -1.88641362e-02  1.00817144e-01  5.86650848e-01
  5.72365999e-01 -4.21404094e-01 -4.14055443e+00 -7.93895125e-02
 -8.52667809e-01 -1.94146919e+00 -3.36148286e+00 -1.86601520e-01
 -9.93254900e-01 -1.24515928e-02 -1.27729811e-02  1.81540281e-01
 -1.98239740e-02  6.43313706e-01 -2.44637243e-02 -7.86167145e-01
 -5.97926188e+00 -1.90654600e+00 -6.36008322e-01 -3.76695633e-01
 -2.54743671e+00  1.79020393e+00  6.43766999e-01 -6.25249982e-01]
[-3.31127048e-01 -8.06543380e-02 -1.96943784e+00 -1.00868511e+00
 -1.64811397e+00 -1.82123399e+00 -9.69739631e-02  2.34369352e-01
 -7.07596302e-01 -1.63984615e-02 -4.39963723e-03 -2.39072088e-02
 -2.98585016e-02 -2.32728068e-02 -1.01088786e+00  5.07166028e-01
 -8.71284664e-01  2.10897326e+00  1.27987635e+00  2.04859719e-01
  5.22105277e-01 -3.04232168e+00  1.91473210e+00  7.13382522e-03
 -1.36593616e+00 -9.61437076e-03  1.13717270e+00 -1.50862366e-01
 -7.15558138e-03 -3.79012637e-02  1.35353640e-01 -2.74131633e-02
 -5.74401557e-01 -1.00662339e+00 -3.09410170e-02  8.30572188e-01
 -1.59755871e-02 -1.73364896e-02  2.11245441e+00  7.44642198e-01
  1.15750325e+00  2.63968259e-01 -2.35160089e+00  2.65598774e+00
 -2.55494976e+00 -1.74179614e+00 -1.28440952e+00  7.80477703e-01
  9.23650801e-01 -1.68389782e-01  8.93462002e-02 -2.26881988e-02
 -5.44509012e-03  7.07666576e-01 -3.76250818e-02 -6.17084980e-01
  8.96163762e-01 -9.59041834e-01  2.47024703e+00 -6.81097567e-01
  3.07427168e-01 -4.77939136e-02 -6.66554365e-03  2.12076235e+00
  2.54471660e-01 -1.17425764e+00 -1.76939404e+00 -1.46169141e-01
  1.95032370e+00  1.09026656e-01  2.84940863e+00 -1.11904156e+00
  1.38085380e-01  1.12932036e-02 -8.77032757e-01  1.47754610e-01
  1.06012917e+00  5.49167275e-01  6.09881818e-01  1.27987549e-01
  2.75976419e+00  3.65552276e-01 -1.45765340e+00 -3.24735075e-01
  2.79190056e-02 -1.12948585e-02 -1.04001071e-03  8.85392785e-01
 -2.19519213e-02 -1.29540479e+00 -3.38429362e-02  1.78273588e-01
  1.40934968e+00 -1.84914911e+00  5.08956909e-01  2.84817994e-01
  1.26499891e+00 -1.33727098e+00 -5.11324741e-02  1.75532246e+00]
[-2.21134380e-01 -7.29256094e-01  6.88787282e-01 -3.04004550e-01
 -1.08857572e-01  1.65033907e-01 -8.29240382e-01 -2.18192518e-01
 -5.59136808e-01  4.40954231e-02  4.84956019e-02  1.85654834e-02
  2.42905822e-02  3.20524238e-02  3.95098299e-01 -6.34199306e-02
  2.75512516e-01 -1.44391203e+01 -3.19150150e-01 -2.71004468e-01
 -2.66954803e+00  2.91192621e-01 -2.80175716e-01  5.47482558e-02
 -6.87784791e-01  3.14559117e-02 -6.64908588e-01 -7.60549009e-01
  6.66459128e-02 -7.76275061e-04  8.78951192e-01  1.77916158e-02
  6.28358889e+00  1.49559045e+00  6.12864159e-02 -1.13504267e+00
  4.33089100e-02  2.43189614e-02 -8.41953456e-02  1.16014056e-01
  1.00069642e+00 -1.01141259e-01  6.16925335e+00  2.11891204e-01
 -1.03181124e+00  4.38042432e-01 -4.90943007e-02  4.97780234e-01
 -3.58986163e+00 -4.95428503e-01  9.84503686e-01 -4.63534659e-03
  7.54132867e-02  4.46623147e-01 -1.13520469e-03  1.35708153e+00
 -7.16761351e-01  2.68878055e+00 -1.53925586e+00  1.00409117e+01
  2.09493965e-01  1.60509789e+00  8.05671886e-02  1.02072217e-01
  2.95608997e+00 -1.05008841e+00  4.15828466e+00 -2.57420808e-01
 -8.47965050e+00 -6.24226809e-01  7.24139094e-01  2.91326737e+00
 -5.62624931e-01 -1.29941642e-01 -1.87585801e-01  2.04821157e+00
  2.38502455e+00 -1.71884668e+00 -3.21220636e-01  1.91458833e+00
  1.64524984e+00 -5.13041258e-01  4.70085287e+00 -5.12918472e-01
 -3.04391146e+00  3.25671956e-02  5.73717952e-02  5.42878322e-02
  5.23461215e-02 -1.02085316e+00  2.14140713e-02  1.29709989e-01
 -2.22535014e+00  1.01881456e+00  3.82391930e-01 -6.62806183e-02
 -2.57900906e+00 -2.27492914e-01  1.79164052e-01 -3.04742515e-01]
[-7.2969878e-01 -3.6243651e-02 -1.0085509e+00 -1.0017063e-01
  5.4306522e-02  1.8842527e+00 -1.2983431e-02  3.4446880e-02
 -1.2428538e-01 -2.9902965e-02 -3.9538190e-02  2.1410853e-02
 -3.4835335e-02 -9.4577139e-03 -3.0024305e-02 -5.4680903e-02
  1.2748739e-01  9.3067718e-01 -5.1999407e+00  2.7241679e-02
  1.4976098e-01  5.3514332e-01 -1.2876254e+00 -1.6868530e-02
 -3.2074255e-01 -1.2560207e-02  7.1798220e-02 -2.1594900e-01
 -2.3591472e-03 -2.3533542e+00 -2.6445198e-01 -1.1352917e-02
 -1.1867293e+00  1.9424990e+00 -6.5133814e-03  8.0085152e-01
 -2.6352290e-02 -2.4506883e-03 -1.3792826e+00 -8.4627874e-02
 -7.0611274e-01  6.4098440e-02  4.8113549e-01 -6.1996198e-01
  1.4386471e-01 -1.6788452e+00 -9.0578206e-02 -9.8249114e-01
 -1.1818157e-01  4.6768603e-03 -5.0192571e-01  1.0289776e-02
 -1.0227369e-02 -7.6523572e-02 -8.0132373e-03  6.1297487e-04
  2.3573719e-02 -3.3414800e-02 -9.1619909e-01  5.5719143e-01
  9.6752144e-02 -6.2349111e-01 -6.3082515e-03 -3.7433004e-01
 -1.6802348e-01  7.7622205e-01 -1.7249143e-01  1.0447177e-01
 -2.7376926e-01  1.6949594e-02 -4.0981394e-01 -1.9655936e+00
  1.0996447e-02  7.5834244e-02 -3.5227713e-01  1.3856605e-01
 -4.6723852e-01 -8.9485893e+00 -3.4905021e+00  1.1060666e+00
  1.5200962e-01  6.9290735e-02 -9.1181540e-01  7.9268014e-01
 -1.6320379e+00 -4.2355284e-03 -1.5524921e-02 -2.0558822e-01
 -9.9312635e-03  9.0482944e-01 -1.3089567e-02  1.5780112e-02
 -1.5109117e-01 -2.1491177e+00  5.9221234e-02 -5.4579520e-01
 -1.3829017e-01  1.1158596e-01 -5.1320964e-01  1.3142344e-01]
[-1.2484854e+00 -8.5413017e+00 -1.9811764e+00 -5.9307694e-01
 -9.2757320e-01 -2.3878758e-01 -1.8515892e+00 -4.4653764e+00
 -1.6060389e+00 -2.6822772e-02 -5.0940099e-03 -3.6766343e-02
 -5.5833068e-03 -6.4106561e-02  1.4490873e-01 -5.1996827e+00
  4.6370644e-02  1.9956255e+01  9.5076126e-01 -4.7912798e+00
  1.0946993e+00 -7.6638854e-01  1.0096505e+00 -4.0270939e-02
  3.5757539e-01 -1.6102565e-02  4.8507524e-01 -2.3798883e+00
 -1.2706664e-02  1.8481688e-01 -5.4989915e-02 -5.7843525e-02
  2.3452618e+00  1.7972542e+01 -1.0441294e-02  1.1787136e+00
 -1.8565280e-02 -3.6635276e-02  2.5831538e-01  1.1818937e+00
 -3.3596516e-01 -3.5498226e+00  3.0151069e+00  8.3731335e-01
  3.5135880e-01 -1.4807163e+00 -1.4069347e-01  1.2075152e+00
 -9.2920485e+00 -7.6788278e+00 -3.3346948e-01 -6.2777132e-02
 -1.6619589e-02 -3.0186422e+00 -5.5574078e-02  1.8881828e+00
 -3.0823326e+00  1.1064353e+01  8.6003560e-01  6.8018260e+00
 -1.7777531e+00  1.7001092e+00 -1.7752096e-02  2.8906901e+00
 -1.2734411e+00  7.3781937e-01  2.0711818e+00 -1.1845872e+00
  1.3568384e+01 -6.7234459e+00  1.4200773e+00 -1.4489938e+00
 -5.9160194e+00 -1.3584681e+00 -2.0583843e-01 -7.6978302e+00
 -2.6777086e+00  1.0421726e+00 -2.5373770e-02 -1.5513945e+00
  6.4610515e+00 -9.2520065e+00  1.7146039e+00 -3.0244294e-01
  1.8904483e+00 -5.7231408e-02 -3.1560071e-02 -1.6654307e+00
  2.2712404e-02  3.1880555e-01 -1.1232719e-02 -5.4778701e-01
 -1.7837337e+01  2.0101002e-01 -2.4971886e+00  3.1032306e-01
  7.1171087e-01  2.7462536e-01 -2.9120126e-01  4.7217479e+00]
[ 2.65841872e-01 -1.01821566e+00  1.24684012e+00  1.85836658e-01
  1.83689862e-01 -7.50816464e-01  4.04916227e-01 -1.03268063e+00
  7.74863958e-01  5.43203903e-03  3.66120823e-02  1.15068508e-02
 -2.25907215e-03 -3.33107896e-02  1.67583693e-02 -6.62472773e+00
 -1.04929172e-01  2.23736882e+00 -5.23951232e-01 -7.25604951e-01
 -1.98800719e+00  1.12652838e+00 -9.09805223e-02  1.18012065e-02
  4.86506313e-01  3.27601866e-03 -3.89813073e-02 -1.52188763e-01
  3.66317574e-03 -2.19506526e+00  1.07213521e+00 -2.66640522e-02
  1.89573132e-03  2.46940823e+01  2.56185606e-02 -6.10386670e-01
 -1.48354284e-02  1.41792316e-02 -7.27409497e-03  8.95382836e-02
 -2.76261300e-01 -8.74595106e-01  1.00040138e+00 -2.92985916e-01
  8.38574052e-01  8.65008116e-01 -2.93245256e-01 -2.53966212e-01
 -1.49224377e+00 -9.07249510e-01  5.80793560e-01 -3.27653959e-02
  2.46662311e-02 -3.66392165e-01 -3.35354097e-02 -8.90620232e-01
 -3.09779704e-01 -9.68167603e-01 -8.64352047e-01  1.24346055e-01
 -9.08213615e-01  1.19875264e+00  2.22591795e-02 -1.79710460e+00
  5.95456541e-01  2.55928278e-01 -4.17436218e+00 -5.77312410e-01
 -1.41048908e-01 -1.03397703e+00 -1.48064315e+00  3.86413813e-01
 -9.02534664e-01  2.05560535e-01 -2.42583349e-01 -1.54594460e+01
 -1.30687785e+00 -4.39980865e-01  4.79312330e-01  3.38272840e-01
 -2.06498170e+00 -9.49082911e-01 -1.16025114e+00 -3.05477437e-02
  4.42538679e-01 -4.14841697e-02 -1.57827092e-03  1.32630372e+00
  2.04989556e-02 -2.38361168e+00 -8.87743663e-03  3.37283403e-01
 -5.04245567e+00 -7.40276814e-01 -6.58763885e-01 -4.26702112e-01
 -2.74311638e+00 -2.25092724e-01  6.90377772e-01  3.18504548e+00]
[-9.2452317e-01 -1.3754407e-01  1.6481097e+00  2.2894971e+00
 -2.1022046e+00 -3.2591155e+00  6.6537702e-01 -3.2206386e-01
 -7.0193748e+00  2.5348975e-03  4.5646285e-03  2.1481806e-02
  1.4563648e-02  1.0414183e-02 -3.0853841e+00  5.5723798e-01
  8.7682569e-01  9.5167122e+00 -1.9539022e+00 -2.2047341e-01
 -2.6069019e+00  5.6482882e+00 -1.3617059e+00 -1.9493824e-03
  7.3318589e-01  1.3884669e-02 -1.1790041e+00  7.9884642e-01
  2.2168113e-03  7.0309287e-01  1.2197791e+00  1.6246470e-02
  9.1240412e-01  1.2028092e+00  2.4540355e-02 -3.6327004e+00
 -5.8180913e-03  2.9189300e-02  2.7267020e+00  1.8066750e+00
  3.5288846e+00 -2.8339985e-01  1.7957749e+00  2.4489279e+00
  3.1838050e+00 -2.7926185e+00 -1.2328491e-01  1.4464871e+00
  4.3678325e-02 -7.0095487e-02  1.0634015e+00  6.5676554e-04
  2.1756776e-02  7.0954841e-01  2.2527523e-02  1.7066151e-01
  1.9615494e-01  6.0334671e-01  2.9057443e+00  4.7384491e+00
  1.2150766e+00  7.0497060e-01 -2.1371845e-02  8.2114631e-01
  8.6209297e-01 -3.6078904e+00  1.0877742e-01 -1.9144084e+00
  2.9674265e+00 -2.0046730e-01 -8.0021602e-01 -3.5502630e-01
 -2.2646074e-01  1.8626964e-01  9.3089932e-01  6.6496456e-01
  2.9567268e-01  7.6010299e-01 -1.8496537e+00 -2.2931828e+00
 -3.1795353e-01  1.4370389e-03  3.5616200e+00  2.1263625e-01
  8.8301504e-01 -1.7238898e-02 -1.2693904e-02  8.2778370e-01
  2.9541555e-04 -4.2906784e-02  3.5070393e-02  1.4994812e-01
 -2.1827090e+00 -3.3314087e+00 -2.2480080e-01  4.8605117e-01
 -3.1307718e-01  1.8187630e+00  3.6081421e+00 -1.0086256e+00]
[-3.85392219e-01  5.37230396e+00  4.56099510e+00  8.30009270e+00
  2.83764625e+00  2.08798718e+00  3.79315948e+00  6.63921928e+00
  7.53835392e+00  4.00227830e-02  7.65753724e-03  1.48536870e-02
 -1.52451443e-02  5.46623440e-03  3.18294215e+00  1.74346626e-01
 -6.69300139e-01  1.08617735e+01 -2.23637891e+00  6.01423883e+00
 -2.78963590e+00 -9.62198853e-01 -1.01128185e+00  1.74963439e-03
  5.84966660e+00 -3.32285534e-03 -3.00706124e+00  6.35837126e+00
 -1.12259071e-02  1.03660524e+00 -3.04231858e+00  2.01947615e-02
 -3.90373635e+00  8.88922572e-01 -1.57945091e-03 -1.38085711e+00
  3.31369881e-03 -1.72012839e-02  2.08366275e+00 -5.52251863e+00
 -1.52518535e+00  6.90126514e+00  5.97219586e-01 -1.29599917e+00
  2.91560364e+00  6.41339064e+00  2.73613334e+00 -9.73301947e-01
  5.97017813e+00  5.59202242e+00  8.22333813e-01  8.76914617e-03
 -2.19871453e-03  3.77922940e+00  3.14510427e-02  4.71563721e+00
  2.45163751e+00 -1.96013689e+00 -1.60386658e+00 -5.17815447e+00
  6.33389330e+00 -3.90748906e+00  1.42115233e-02  2.61041307e+00
 -5.04271030e-01  5.14539433e+00  2.11425991e+01  5.35397053e+00
  8.97129250e+00  5.84482861e+00  6.93794918e+00  2.58234239e+00
  5.91683960e+00  2.31188822e+00  1.57229877e+00  5.19042552e-01
  3.87242270e+00 -1.23903477e+00  2.76639843e+00  4.58551264e+00
  3.94398898e-01  5.18513155e+00  1.28717251e+01  2.07270527e+00
  3.71811223e+00  7.82712083e-03  4.70738858e-03 -8.76076400e-01
  1.59650594e-02  2.27185941e+00 -1.08879330e-02 -5.46657705e+00
  5.93327665e+00  5.68100251e-03  7.26850176e+00 -5.52149653e-01
  1.03426104e+01  5.51998091e+00  1.01500534e-01  2.49840841e-01]
[ 0.75815326  0.09448808 -1.3594333  -0.14132059 -0.53493243 -2.0497057
 -0.06736768 -0.14588064  0.8653834   0.04604253  0.04916535  0.02806334
  0.09646244  0.07135943  0.22733231 -0.57833767 -1.496129   -0.38730434
 -0.13236818  0.0452171   0.9650929   2.3665059  -1.510526    0.05093911
  0.71957546  0.02645655  0.3600356   0.53067803  0.05119296 -1.9625875
  1.1247679   0.08109278 -1.5063516  -1.7956634   0.02988439 -1.2902296
  0.05862895  0.0645866  -0.3088747  -0.6772797  -1.6478342  -0.02203976
 -4.9577208  -2.221222    1.2199874   0.28424373 -4.400668   -1.2581347
 -0.09365369 -0.01586728 -0.20766984  0.03371773  0.03695141  1.249314
  0.07888312 -0.66019046  1.1901134  -4.627928   -1.5769925  -1.6921227
 -0.22013131 -0.5441524   0.04192207 -0.15531164 -0.8626116  -0.44292864
 -1.6819631   0.75962365 -0.364536   -0.02052577 -1.7311445   0.5721371
  0.00628411  1.3624582   1.1679069   2.4933915   0.6186602  -0.9701685
 -1.127515    1.4304532   0.4699432  -0.1890066   0.90633917  0.7899106
  0.89351     0.05479523  0.02902306 -0.96117824  0.05877625 -1.7737039
  0.08370737  0.17574741 -0.14936084 -0.74860835 -0.10815398 -1.3473606
  2.8029704  -0.8707817  -0.04612524 -0.7232758 ]
[-8.30076873e-01 -7.89846480e-02  1.41351593e+00  7.93153286e-01
 -1.06480331e+01  1.48473012e+00  6.94428265e-01 -1.08687775e-02
 -3.44414823e-02  4.47511300e-03 -1.33191831e-02 -2.26010475e-02
 -1.05614876e-02 -1.27871847e-02 -7.42719948e-01  5.89522064e-01
  1.84259427e+00  1.29625618e+00  1.48114428e-01 -8.25326890e-02
 -3.30877095e-01 -1.35444745e-01  1.76640821e+00 -4.33237152e-03
 -9.85163808e-01 -1.92671642e-02 -1.56891644e-01  4.07297790e-01
 -1.45636778e-02  1.70669949e+00 -1.05056179e+00 -2.05125753e-02
  5.79260290e-01  3.76773596e+00 -8.48139916e-03  2.04893187e-01
  3.50935338e-03 -1.96530707e-02 -2.36068666e-01  1.22249389e+00
 -3.21222097e-01 -7.22470805e-02  3.95215964e+00 -2.83695197e+00
  5.80773652e-01 -7.03514740e-03 -1.70904026e+01 -1.97511387e+00
  4.31397595e-02  2.42815539e-03  6.36075020e-01 -5.14571648e-03
 -2.00733468e-02 -2.21956655e-01 -1.87886190e-02  2.14749664e-01
 -2.61050880e-01  1.66838193e+00 -6.65706694e-01 -3.90181541e-01
  1.72294080e-01  1.86118090e+00 -3.69720918e-04  1.52563512e-01
  4.02654529e-01 -1.85670710e+00  1.14815617e+00 -1.39442980e+00
  5.28503716e-01 -3.07037011e-02  1.09307170e+00 -1.58539578e-01
 -5.09450324e-02 -2.24294758e+00 -1.79530489e+00 -9.53613400e-01
 -1.11684941e-01  7.28769720e-01  1.61247030e-01 -2.44253826e+00
 -6.96801066e-01  6.28161281e-02  1.30748764e-01 -2.45657429e-01
 -2.81730086e-01 -3.59571073e-03  1.36003857e-02  5.71633756e-01
  1.03442129e-02  1.84220433e+00 -7.31919799e-03 -1.64078206e-01
  4.42227796e-02  8.13645720e-01 -2.18896456e-02  1.30956745e+00
  3.81882817e-01  1.20461941e+00  6.12674415e-01  3.04215550e-01]
[-1.40057743e+00 -2.73396671e-01  4.25313264e-01 -1.03665948e+00
 -1.65746665e+00 -1.97707427e+00  2.31560506e-02 -4.67956960e-02
  6.81027353e-01 -8.27763602e-02 -1.08650677e-01 -5.41493520e-02
 -1.94579259e-01 -1.14342012e-01 -2.22931623e+00  1.20444012e+00
  8.29910100e-01  3.53444672e+00 -1.21176541e+00 -1.57360002e-01
 -5.28673291e-01 -6.83037233e+00 -6.45247412e+00 -6.18984774e-02
 -6.80558205e-01 -1.25389665e-01 -2.18575168e+00 -7.17919171e-01
 -1.19615875e-01  3.37605786e+00 -5.21823025e+00 -1.87086418e-01
  6.90304160e-01 -9.29971278e-01 -1.15732431e-01  2.64537930e+00
 -5.52108809e-02 -1.23822108e-01 -6.74910927e+00  5.85012555e-01
  2.03905538e-01 -1.54731885e-01  7.96550035e-01 -4.67432165e+00
  1.16683424e-01 -2.78511739e+00  5.07054949e+00 -2.08698320e+00
  1.09080780e+00 -1.26317618e-02 -3.65779901e+00 -3.94500755e-02
 -7.44936764e-02 -1.35508108e+00 -1.51986435e-01 -2.93198556e-01
 -8.84062469e-01 -3.79478216e-01 -2.38778734e+00  2.92094611e-02
  3.72438282e-02  4.08691168e+00 -6.72546327e-02 -2.73201223e-02
  2.34381586e-01  1.37127161e+00  4.34585363e-02  2.59860069e-01
 -8.10250580e-01 -6.27411297e-03  5.81291199e-01  1.67166734e+00
 -9.22707319e-02 -2.86083198e+00 -8.24692428e-01 -2.92259663e-01
 -1.21273315e+00 -1.28693894e-01  1.41135430e+00 -2.06314802e+00
  2.57774174e-01  8.66199136e-01 -1.48622990e+00  1.13839149e+00
 -2.52258444e+00 -5.77320047e-02 -3.39787789e-02  1.03172076e+00
 -8.96170139e-02  1.14541364e+00 -1.76244512e-01 -2.21871957e-01
  7.57707417e-01 -1.06749368e+00  9.62654948e-02 -1.86904943e+00
  3.57706285e+00  2.12149560e-01  8.97020221e-01  8.95809889e-01]
[ 1.6766421e-03 -1.1810465e+00 -4.0972996e-01 -7.2600698e-01
 -6.3053846e-01 -1.0201573e+00 -2.0886693e+00 -7.8418851e-01
 -1.0305520e+00  4.9549907e-02  5.1530421e-02  3.4701277e-02
  5.7394285e-02  5.0964680e-02  2.2051699e-01 -3.3681804e-01
 -3.3460295e-01 -2.1969156e+00  8.3624649e-01 -9.6723670e-01
 -8.4812284e-01  7.2819376e-01  1.3386106e-02  5.5721208e-02
 -1.0451764e+00  5.2828595e-02  4.3439615e-01 -1.6194661e+00
  5.2827124e-02  3.3841532e-01  3.8700885e-01  6.0666624e-02
 -3.7875214e-01 -5.7521448e+00  4.9624179e-02 -1.2610548e+00
  4.8670281e-02  5.9745487e-02 -7.7272725e-01  5.4340828e-02
  3.8286000e-01 -7.0675206e-01 -1.4815019e+00 -1.1146681e+00
 -1.3065860e+00 -1.1298004e+00 -2.7392542e+00  6.4466351e-01
 -1.5001441e+00 -1.2456512e+00 -6.8663317e-01  3.0851142e-02
  5.1273622e-02 -1.4396338e+00  5.7482600e-02  7.9573566e-01
 -1.9740775e+00 -2.7575948e+00 -2.7599892e-01 -5.1335669e+00
 -3.3623064e-01  1.4552025e-01  4.6958823e-02 -2.7152123e-02
  4.5340267e-01 -9.6263552e-01  5.7073283e-01  3.7618676e-01
 -1.6105983e+00 -1.1060975e+00  6.6122860e-01  1.1220855e+00
 -1.0544187e+00  1.4204611e-01  4.3196636e-01 -2.5090470e+00
 -9.3258059e-01 -2.6074272e-01 -1.7375166e+00  2.7629054e-01
 -3.7779737e+00 -1.2512230e+00  1.8217962e+00  5.8597624e-01
 -1.7018756e-02  5.5389870e-02  5.3594586e-02 -2.4876550e-01
  4.7992263e-02 -7.3533839e-01  5.2049436e-02 -4.9426502e-01
 -2.5411606e+00  1.3651201e+00 -5.8256632e-01  5.1003957e-01
 -4.0705121e-01 -1.8608071e-01 -1.0888867e+00 -9.8529184e-01]
[ 1.83938897e+00  2.45030783e-02 -5.28174996e-01 -5.34256279e-01
  1.17724249e-02  1.35410280e+01 -4.78502214e-01  7.45126903e-02
 -1.49284035e-01 -2.83854101e-02 -4.28991653e-02 -3.98586597e-03
 -4.63119075e-02 -2.19007637e-02  7.84729794e-02  1.07078791e-01
  4.61219215e+00 -1.04630435e+00 -3.56844878e+00  4.55521345e-02
 -2.65052080e-01 -8.87884557e-01  2.03165579e+00 -2.29347292e-02
  1.37401378e+00 -1.80068053e-02  8.59313726e-01 -2.54591912e-01
 -2.18236782e-02 -3.98058474e-01 -8.38205934e-01 -2.06406154e-02
 -6.02592647e-01  2.53843098e+01 -3.43098156e-02  9.78893089e+00
 -2.67872643e-02 -5.92871420e-02  5.37316144e-01 -1.43880010e-01
 -4.89018112e-01  7.89728463e-02  9.00488377e+00 -6.29490137e-01
 -7.63328001e-02 -6.31206942e+00  1.00406274e-01 -6.57223701e-01
 -2.91398391e-02  1.99137945e-02 -1.46134174e+00 -4.63180098e-04
 -2.32185237e-02  2.90257275e-01 -1.78456139e-02  3.01057547e-01
 -1.70660570e-01  1.49562895e+00 -8.58857334e-01  4.47822928e-01
 -1.64488032e-01 -4.14482927e+00 -6.52786810e-03 -1.51104897e-01
  1.16907187e-01  6.72662079e-01  2.99184561e-01  3.14238891e-02
 -8.54354441e-01  3.06390356e-02  4.03249897e-02 -2.72331285e+00
  4.36697192e-02  1.10937393e+00  2.35155129e+00 -4.72294986e-01
  4.90768731e-01  6.21209383e+00  3.78803253e-01  1.60951936e+00
  4.08897579e-01  8.88351575e-02 -3.54768157e-01 -3.56648445e+00
 -1.83798385e+00 -1.08244931e-02 -1.25093460e-02 -1.05056446e-02
 -2.70110350e-02  5.44647789e+00 -1.77721325e-02  7.45784938e-02
 -3.31551954e-02  2.74422407e+00  7.39744902e-02 -1.77496821e-01
 -8.11758757e-01 -7.99590170e-01  9.39067155e-02  1.83270246e-01]
[ 0.11344865  0.00970231 -1.0618366   0.8169088   0.1387941  -0.6752542
  0.71119726 -0.10646672 -0.15333118  0.03664714  0.0258742   0.00889977
  0.03405821  0.03874056 -0.35763636 -0.30874357 -0.11679275  1.1859403
 -0.21215525 -0.06049917  0.15748595  0.20303968 -3.2057822   0.03287385
 -3.1367073   0.0367271  -4.141032    0.7407107   0.03058808 -2.8435242
 -1.5917987   0.05383731 -0.1908876   0.98674357  0.03347039 -0.48838645
  0.02565928  0.03666698  0.6768156  -0.19772513  0.94780296 -0.10800833
  0.8180438   1.7531025  -2.318645   -0.7771024   1.587573    0.8887178
 -0.04339698 -0.04015792 -0.5567357   0.02174444  0.0184474   0.7064181
  0.04321019  0.27779615  0.7267386  -0.39704385 -3.986415   -0.0392353
 -0.22796233 -0.4575352   0.02997943 -0.03114187 -0.12775739 -1.5631263
  0.086344    1.1948426   0.30542985 -0.04854481  0.02173126 -0.98029214
 -0.06335426 -0.37207544 -0.6480125   0.50729936  0.23861955 -0.96232253
  0.74098283  2.1272018  -0.00619013 -0.07432251  0.94586784 -0.13100131
  1.7194976   0.03478966  0.03164534 -0.59343034  0.0217695   1.5519887
  0.03407544  0.01780304  0.05491218 -1.5998962  -0.1683533   0.3001571
 -0.72683966 -0.35137647  0.4225314  -0.36079255]
[-2.23844266e+00 -6.06298018e+00 -1.15655975e+01 -1.69974518e+00
 -1.46226358e+00 -9.98463511e-01 -1.55025268e+00 -4.42267275e+00
  1.10688783e-01 -4.12178971e-02 -4.04879041e-02 -2.79905088e-02
 -2.60313898e-02 -1.38170365e-02 -3.64581496e-01  7.65463114e-02
 -9.60344374e-01 -2.98877501e+00  1.74356663e+00 -4.35044289e+00
  3.87915993e+00 -1.71525156e+00  1.40490353e+00 -4.54701744e-02
  6.46835625e-01 -1.98463462e-02  9.70856845e-01 -1.43723512e+00
 -6.46740496e-02 -1.02879226e-01  4.36146647e-01  7.90012814e-03
  1.10293984e+00 -1.03108387e+01 -5.05594090e-02  2.27968240e+00
 -2.07239911e-02 -4.23401073e-02 -1.15557802e+00  1.44668102e+00
 -9.34281051e-01 -3.70903277e+00  1.68150961e+00  1.47319603e+00
  9.06519294e-01 -5.79727769e-01 -7.79130459e-01 -6.23727143e-01
 -7.17175913e+00 -5.64709473e+00 -1.33712232e+00  8.82262830e-03
 -7.77015015e-02 -3.07054543e+00  2.62373108e-02  2.93824375e-01
 -2.12808752e+00  1.00994921e+00  2.12506008e+00  1.86806464e+00
 -1.87849426e+00  5.18815994e-01 -5.52768372e-02 -1.16987648e+01
  3.45747256e+00  1.79863632e+00  1.76699114e+00 -1.16060472e+00
 -9.33341789e+00 -5.17090082e+00  2.19210595e-01 -3.62845826e+00
 -4.99464893e+00 -1.96633899e+00  2.60116428e-01 -2.87934685e+00
 -3.45449018e+00  2.16430163e+00  1.40327883e+00 -2.77747703e+00
  2.16509557e+00 -6.41004229e+00  1.35865295e+00  1.25885800e-01
  3.73747420e+00 -1.57800484e-02 -6.10640384e-02 -1.53677821e+00
 -4.33209687e-02  1.69947696e+00 -1.43821100e-02 -2.88183403e+00
 -1.10052032e+01 -1.18839848e+00 -2.88256407e+00  5.02237141e-01
  2.38992238e+00  6.51942074e-01 -3.22213316e+00  2.30896664e+00]
[-5.2562313   0.08808448  0.19869262  0.10792027 -1.0175226  -2.7179217
 -0.01344155 -0.03527306 -1.0187052   0.02782295  0.01216614  0.06316026
  0.0343789   0.03098344  2.5977232   0.41887367 -5.0466723   2.0134902
 -3.6001942  -0.07649289 -0.08074329 -1.1072805  -0.1263132   0.02941108
  1.3421773   0.03178694 -0.15664996 -0.29652125  0.04946937 -1.2107207
 -0.90438926  0.0495322   1.5954816   2.0334325   0.05183876  1.4924238
  0.0195676   0.07356066 -1.0896629   1.3364123  -1.757722   -0.09691372
 -1.4493196  -1.3111616   1.2486085  -1.2874303  -2.6493335  -0.83104724
  0.27187705  0.01562113 -0.954243    0.03335393  0.03673118 -0.7717124
  0.05127339  1.0985065  -0.930392   -0.59360516 -0.22910106 -1.8472544
  0.5186981   3.626474    0.01240547  1.0421528   0.1761611  -1.7678833
  1.2812812  -1.5598813  -0.06210859 -0.01507596  1.2662804  -1.3074191
  0.00767556 -2.8447077  -4.7774806  -0.99433863 -1.0761863   0.02073273
 -0.32768133 -1.518099   -1.1099896   0.24492735  2.3307436  -1.9657702
 -0.6965026   0.0192272   0.02088501  0.26917848  0.0436142  -5.026671
  0.07302745 -0.00958165  0.64640844 -0.637397    0.01914447 -3.9987392
 -0.7011477   0.03129437  0.26914653 -0.21290594]
[-6.0098517e-01 -7.2031081e-01 -1.4428464e+00  1.1824107e-01
  1.8593380e-01 -1.0882250e+00 -1.0093423e+00  6.0419756e-01
 -9.3148059e-01  5.6301720e-02  4.6983395e-02  3.6355246e-02
  3.3528194e-02  4.9823847e-02  5.0120002e-01  3.6647967e-01
 -7.8292453e-01  2.3080652e+00  9.2006826e-01 -9.3593054e-02
  1.2588195e+00 -7.2487229e-01 -1.5261651e+00  3.9768387e-02
  7.5089164e-02  5.7653353e-02 -1.3289307e+00 -2.1617524e-01
  2.8749218e-02 -1.1733072e+00 -9.8932886e-01  7.0366144e-02
 -1.1625692e+00 -6.4455385e+00  6.4863868e-02 -1.5042976e+00
  5.5832803e-02  4.3104440e-02  3.5458401e-01 -5.9804231e-01
  6.7055213e-01  6.0705543e-01 -8.7840116e-01 -1.6292685e+00
 -3.5563710e-01 -1.5790979e+00 -5.6201679e-01  7.8697526e-01
 -6.8044806e-01 -5.1312220e-01 -9.4113177e-01  4.8432101e-02
  3.4607023e-02 -2.0610242e-01  8.2161315e-02  5.4962235e-03
 -7.4845171e-01 -1.4383817e+00 -9.7446233e-01 -7.7097470e-01
  1.1725458e+00 -1.8925532e+00  3.6118496e-02 -2.1693039e+00
  5.5203557e-01 -1.5465064e+00 -2.0757864e+00  1.6493711e+00
 -7.5917166e-01 -1.6807260e-01  3.9007587e+00  4.2970759e-01
 -1.4848942e-01 -5.3847004e-02  5.3398520e-01 -7.9452691e+00
  9.2677182e-01 -1.2299050e+00 -2.5220649e+00  1.1494680e-01
 -5.2170932e-01 -7.1682626e-01 -2.1884363e+00  4.7752723e-01
 -2.2689118e+00  6.5269038e-02  5.8760948e-02  9.3109167e-01
  5.5496804e-02 -2.5700751e-01  4.2469844e-02 -1.2432991e+00
  3.5430694e-01  6.8405843e-01  4.7160476e-01  2.7507731e-01
  2.2700779e+00  1.1806734e+00 -1.3369585e+00  9.5632684e-01]
[ 6.3591709e+00  1.7986268e-01  1.6318222e+00  8.8677651e-01
  1.7054867e+00  2.0535700e+00 -8.1389683e-01 -1.0828325e+00
  6.6271429e+00 -1.4009640e-01 -3.1326514e-02 -9.9833578e-02
 -1.6566765e-03 -9.9200420e-03  2.9177101e+00  4.0831909e+00
  1.2130933e+00 -4.5470538e+00  1.6853344e+00 -1.0827730e+00
  2.7849252e+00  6.8701868e+00 -1.5337654e+00 -5.9237061e-03
  1.4227931e+00  1.7227379e-03 -5.5190682e-01 -4.8953041e-01
 -2.0960836e-02  1.2935225e+00  8.3545297e-01 -9.1931038e-02
  1.0953983e+00  3.3076773e+00  2.8069580e-03 -3.8598375e+00
 -2.5099657e-02  3.2564837e-02 -1.1310352e+00 -1.9531599e+00
 -2.9975300e+00 -1.7901831e+00  3.7898725e-01 -3.9850686e+00
  2.6963058e+00  5.2845651e-01 -5.2340460e-01  2.5276554e+00
  7.1098232e-01  4.0791866e-01 -9.4743896e-01 -5.5784661e-02
 -1.5539305e-02 -1.1061367e+00 -8.8903427e-02  1.1503444e+00
 -1.3024905e+00 -7.1760708e-01 -1.7350842e+00 -3.1654549e+00
 -2.1669998e+00 -4.4135075e+00 -9.2993714e-03  6.7656469e-01
 -1.6580795e+00 -3.0764976e+00 -1.1285415e+00  1.6298598e+00
 -9.4082725e-01  2.4213938e-01  6.2670698e+00  1.9427572e+00
 -6.8420440e-01  5.3849182e+00  6.4224610e+00  1.2963168e-01
 -1.0648191e+00 -1.9526020e+00  1.8959192e+00  1.8237890e+00
 -1.1223165e+00 -1.1657675e-01  6.6548133e+00 -5.4270327e-01
 -3.3816872e+00  1.0946630e-02  2.0023821e-02  4.2894192e+00
 -5.4483745e-02  2.1613894e+00 -1.6961358e-02  1.8886483e+00
  7.6395364e+00  1.4015813e+00 -2.7229214e+00  3.0874403e+00
  1.6276143e+00  3.3903604e+00  1.4641820e+00  3.9942584e+00]
[ 1.77676725e+00 -4.38227691e-03  3.03649217e-01 -2.70715624e-01
  1.05241977e-01  7.21899509e+00 -1.57748133e-01  2.42898129e-02
 -2.39575515e-04 -1.70958899e-02 -1.72066260e-02 -9.84161068e-03
 -3.32402401e-02 -9.62727331e-03  5.86312450e-02  1.32803664e-01
  3.50895905e+00 -1.16774750e+00  7.80939758e-01  1.88444201e-02
 -1.85249850e-01 -1.95784044e+00  2.16896439e+00 -4.35878709e-03
  1.34265363e+00 -1.15317525e-02  7.97146678e-01  7.43160695e-02
 -3.47235128e-02  8.04354191e-01 -3.20607960e-01 -8.44404288e-03
 -3.30985039e-01  1.89646873e+01 -2.72115022e-02  3.80251241e+00
 -1.48990480e-02 -6.00175746e-02  1.31396568e+00  1.20818596e-02
 -1.47374213e-01  3.75142507e-02  7.40367365e+00 -1.26211509e-01
 -1.97534755e-01 -4.58158159e+00  3.09455454e-01  3.00476909e-01
  1.70755884e-04  3.15156416e-04 -1.45847058e+00  3.12173646e-03
 -1.74365863e-02  5.64844072e-01 -1.40222546e-03  1.18009215e-02
  7.86808133e-02  1.21352637e+00 -2.22399682e-01 -1.46101701e+00
 -1.65513083e-01 -2.75968456e+00  4.05131513e-03  6.19419999e-02
  1.11753553e-01 -5.08215904e-01  1.23625994e-01 -7.63251930e-02
 -2.92182356e-01 -1.00932904e-02  3.96810681e-01 -1.15607560e+00
  3.24290432e-03  8.08305383e-01  2.13382936e+00 -2.53492594e-01
  7.09453225e-01  4.83164072e+00  9.25202191e-01  6.40938222e-01
  2.01469660e-03 -4.86844173e-03  2.61139244e-01 -3.80113602e+00
 -7.09949911e-01  5.48029566e-05 -2.79491139e-03  1.22336350e-01
 -2.96579804e-02  3.65048409e+00 -2.52691582e-02  7.29771936e-03
 -1.27203539e-01  2.41101623e+00  4.24078628e-02  3.77139449e-02
  1.95038155e-01 -5.11039674e-01  1.90243214e-01  1.41584903e-01]
[ 9.0537077e-01 -2.7239087e+00 -3.5389478e+00  1.8264063e-01
  9.7590756e-01  1.5282948e+00  3.3862600e-01 -7.6742947e-01
  1.9910181e+00  1.9018702e-02  3.6987834e-02  2.6745205e-03
  5.4228567e-02  4.5584561e-03  8.8152468e-01 -4.3506277e-01
  8.3168201e-02  1.9797328e+00  9.0397638e-01 -8.4991795e-01
  2.9607329e-01  1.7776917e+00  1.2958546e+00  9.8331543e-03
  3.3540568e-01  6.3208342e-02  2.9419036e+00  3.3428681e-01
  3.8266603e-02 -6.9311982e-01  1.3042499e+00  5.3572316e-02
  1.8761161e-01  8.7533075e-01  2.5241252e-02 -1.0376358e+00
  3.8776486e-03  4.0608168e-02  2.8377469e+00 -1.5242517e+00
 -1.5352397e+00 -5.4225856e-01 -3.0744389e-01  1.0163841e+00
 -7.4524872e-02 -1.2975695e+00 -1.1615815e+00  1.3091881e+00
  2.8703359e-01 -3.0161977e+00 -1.5578134e+00  6.0481937e-03
 -9.5292171e-03  5.8844280e-01  3.9570518e-02 -2.8511801e+00
  1.7111135e-01 -1.0478493e+00  5.7137698e-01 -9.9742603e-01
 -3.7492311e-01 -6.6698886e-02  5.1250926e-04 -1.7052268e+00
 -2.7935712e+00  3.7857133e-01 -2.3982285e-01  6.9395798e-01
  1.1372143e-01 -1.9204307e+00 -8.7614620e-01  7.9514802e-01
 -8.8747263e-01  1.5617080e+00 -3.7709591e-01 -2.0133543e-01
  4.2279452e-01 -8.6996931e-01  4.7786829e-01 -3.0202832e+00
 -1.6343988e+00 -2.2551103e+00 -2.4531293e+00 -4.8403862e-01
  2.0330417e+00 -5.2429195e-03 -1.3933460e-02 -1.6485524e-01
  2.2936516e-02  5.3414349e-02  5.9114009e-02  5.4789037e-01
 -2.6900039e+00  1.0717046e+00 -3.8433465e-01  2.2519328e-01
  6.6354589e+00 -4.2638846e-02 -1.4846347e-01 -1.3424025e+00]
[ 1.54730380e-01 -5.28285885e-03 -2.83030242e-01  2.83326834e-01
 -1.56671368e-02  2.06855941e+00  3.53286833e-01 -1.89657845e-02
 -4.24824320e-02 -1.59645616e-03  1.73927343e-03  2.96290033e-03
 -5.29260933e-03  2.97040422e-03 -3.33905458e-01 -5.56639582e-02
  1.10561955e+00  2.35939431e+00  1.22783995e+00 -1.27639230e-02
 -3.09850299e-03  7.94373155e-01 -1.61730632e-01  5.68619557e-03
  3.51317413e-02  8.42022710e-03 -2.15959001e+00  3.09876889e-01
 -4.64239623e-03 -9.17842925e-01  5.54292738e-01  3.09326919e-04
  1.95354551e-01 -4.36414385e+00  2.41590105e-03 -6.79745257e-01
 -8.18810984e-03 -1.37779396e-03 -1.35412976e-01  4.34732258e-01
  1.05285615e-01 -2.14737598e-02 -9.76852775e-01  2.50158757e-02
  1.97162535e-02 -5.07870913e+00 -5.95439225e-02 -2.09466983e-02
  4.11769636e-02 -6.06504362e-03 -2.65485704e-01  2.41820887e-03
  2.78342422e-03  2.47481376e-01  3.03302705e-03 -1.77095816e-01
  3.21425468e-01  4.79177237e-01  2.04841718e-01  1.59954682e-01
 -5.48139773e-02 -4.57470715e-01  2.27615517e-03  4.23412234e-01
 -3.82557474e-02 -4.57897782e-01 -1.15187418e+00 -2.67736465e-01
  7.69911885e-01 -4.46280278e-03  2.91226078e-02  1.64249778e+00
 -1.31557342e-02 -2.50304759e-01 -5.71932316e-01  1.72616184e-01
  9.94800553e-02  6.22721426e-02  9.91198540e-01 -4.49663728e-01
 -2.35923100e-02 -1.77045316e-02 -1.05799818e+00 -7.08410978e-01
  5.18727303e-01  4.65560239e-03 -5.33348706e-04 -6.62321746e-02
 -8.52182787e-03 -4.34626520e-01 -1.01958439e-02 -4.97640297e-03
  7.13299364e-02 -8.31912458e-01 -3.08881756e-02 -7.54102599e-03
  7.00899735e-02  4.05964255e-01 -1.37721434e-01 -2.42951419e-02]
[ 3.2962495e-01  4.6284746e-02 -4.5572391e-01 -1.1085898e-01
  4.2133021e+00 -2.9125002e-01 -6.5669477e-01  3.3890568e-02
 -4.0112250e-03  6.6901982e-02  5.8168381e-02  4.2138577e-02
  6.1933223e-02  7.4086636e-02 -1.9485815e-01 -1.8713214e-01
 -9.2749171e-02  1.0484904e+00 -7.4168399e-02  4.0859811e-02
  6.6971463e-01  1.4774721e+00 -9.8422426e-01  6.1438777e-02
 -3.4325254e-01  2.8459458e-02 -2.9787794e-01 -1.1892726e-01
  3.3540867e-02 -4.9310822e+00 -2.2665088e-01  6.2052045e-02
  8.8730490e-01  1.4000785e+00  4.5755148e-02 -8.8329524e-01
  7.1639419e-02  5.7787202e-02  3.3179279e-03  6.2169056e-02
 -1.4831684e+00  8.0108859e-02 -2.7538800e+00  8.6931020e-01
  1.7155085e+00 -5.1321834e-01  5.9171257e+00 -1.2574335e+00
 -4.4476777e-02  8.3804997e-03  1.4921260e-01  4.1059125e-02
  4.8620746e-02 -9.2138417e-02  7.0913084e-02  1.6589524e-01
 -2.3117347e-01 -4.9610214e+00  2.5213790e-01 -1.2855810e+00
  1.7800456e-01 -2.1393394e-01  5.5899933e-02  2.1392672e-01
 -5.8518685e-02  1.2708514e+00 -3.1286788e-01 -8.9390211e-02
 -1.8393381e-01  3.2139018e-02 -4.3608183e-01  8.9312708e-01
  4.7735188e-02 -3.5416308e-01  1.1988971e+00 -1.5221256e-01
  6.0927117e-01 -3.3551028e-01 -1.0024010e+00  2.5732186e-01
  1.1111960e+00  1.7551532e-02  3.4476298e-01  1.6280240e-01
 -2.0699208e+00  7.1132086e-02  6.5748036e-02 -2.8962961e-01
  5.2740008e-02 -4.4074020e+00  4.8205502e-02 -4.2714916e-02
  2.0983087e-01  4.8317850e-01  2.4260428e-02  1.4907597e-01
 -3.4553945e+00 -2.7240047e-01  9.7798621e-03 -1.6018045e-01]
[-6.0804691e-02 -8.9342624e-02 -2.3228636e+00  1.0522285e+00
  5.8512342e-01 -8.6477935e-01 -1.9480264e+00  1.8663289e-01
  4.2083433e-01 -5.6541640e-02 -3.5812005e-02  2.7647937e-02
 -1.0212269e-02 -2.7411079e-02 -1.6385816e-01 -2.2533209e+00
 -3.9696917e-01  1.5048462e-01  9.2723268e-01 -2.7498091e-02
 -2.5313279e-01  1.0612228e+00  1.5148962e-01 -1.9077430e-02
 -3.0326331e-01  9.9892020e-03  8.7543093e-02 -1.0911760e+00
 -3.5121918e-03  6.7055476e-01 -2.4266787e-01 -3.5181645e-02
  2.9056457e-01 -1.2817006e+01 -3.6319025e-02 -1.0841622e+00
 -6.3472301e-02  2.9432500e-02 -5.6043476e-01  1.8445188e-01
  7.7595361e-02  1.9856784e-01 -3.7750983e+00 -6.5407431e-01
  7.9561287e-01 -7.0314133e-01  1.3077515e-01 -1.6646121e+00
 -2.3010395e-01 -2.4337932e-01 -1.8031032e+00 -1.8435929e-02
 -4.2515011e-03  8.4018362e-01 -3.8988773e-02  1.7829970e+00
  8.0548632e-01 -1.1445848e+00 -5.6903970e-01  9.3018329e-01
  2.7757171e-01  5.7552212e-01 -3.5979059e-02 -1.0255113e+00
  2.6385295e-01 -3.3090718e+00  7.1765894e-01 -1.3261367e-01
  1.3861786e+00 -2.4799425e-03 -3.1808314e+00  4.1944575e-01
 -5.3105123e-02  3.5855126e-01  5.3033328e-01 -1.7307400e+00
  1.1506537e+00 -4.2880249e-01 -8.7815464e-01  5.1631832e-01
  2.9584861e-01 -4.0200573e-01 -1.0186371e+00  4.7384259e-01
  3.3539954e-01 -3.2216046e-02 -3.5429038e-02 -1.3178290e+00
 -6.2178601e-02 -6.0015068e+00 -1.7461646e-02  1.1871831e-01
  1.2855557e+00  1.0576248e-01 -2.0915639e-02 -1.2825983e+00
 -3.4272869e+00  2.5844960e+00 -6.5425003e-01 -2.6436615e-01]
[-3.1956494e-01  1.7659174e-01 -1.0702027e+00 -8.4443741e-02
  1.2129061e-01  3.2678396e-02  1.2500530e-01 -5.3543512e-02
 -7.2969329e-01 -7.1493186e-02 -6.8364583e-02 -1.4136328e-02
 -1.2049665e-02 -4.9676884e-02 -2.7198264e-01  3.8367543e-02
 -5.9347413e-02 -1.5057802e-01 -3.1846650e-02  6.7915462e-02
  2.2216883e+00 -3.8406402e-01  6.0242344e-02 -4.7732569e-02
  5.1112309e-02 -3.4027118e-02  2.8816336e-01  1.1307631e-01
 -1.6277816e-02  1.5895257e-02  5.4572668e-02 -4.8918221e-02
 -4.1115336e+00 -4.2960700e-01 -7.3441297e-02  6.0871005e-01
 -6.5837115e-02 -5.1237457e-02  1.4506774e-02  7.9539195e-02
  1.6933498e-01 -2.3071636e-02 -1.2172182e+00  2.1235833e-01
  4.1357177e-01  2.3249540e-01  5.4794288e-01 -4.2518106e-01
  4.4615290e-01  1.8252012e-01 -1.3671148e-01 -3.2734275e-02
 -5.8834426e-02  5.4354288e-02 -4.0987317e-02  1.2928590e-01
  3.4001687e-01 -1.1894478e+00  3.3247551e-01 -1.3608819e+00
 -8.3971592e-03 -5.1135328e-02 -4.3541245e-02 -7.5780374e-01
 -2.2327974e-02  2.6619446e-01  2.6743019e-01 -1.8912993e-01
  8.3321267e-01  1.4324503e-01 -5.2782774e-01 -9.4961637e-01
  5.5362064e-02 -1.8415360e-01 -1.8080287e-01  6.7185485e-01
 -2.9110846e-01  3.4638569e-01 -1.1285197e+00  2.9214488e-02
 -4.8009884e-01  1.2745515e-01 -8.7450936e-02 -1.3876972e-01
  1.8370055e-01 -4.9186945e-02 -6.8760023e-02 -3.4413077e-02
 -1.3100830e-02  9.8335976e-03 -2.0039354e-03  4.9104478e-02
  5.5628729e-01 -8.5662603e-01 -5.3301536e-02 -3.7432110e-01
  1.2465936e+00 -2.3477602e-01  4.9971253e-02 -1.5273172e-01]
[ 4.53807056e-01  6.55398130e-01  4.47462052e-01  1.42152952e-02
  2.68413305e-01  1.56534895e-01  1.82495296e-01  5.87137341e-01
  2.99029887e-01  8.60417727e-03  4.78790468e-03  3.71916615e-03
  6.52184803e-03  4.51895688e-03  1.12814412e-01 -2.27269754e-01
  1.33696124e-01  4.11390424e-01  6.72717299e-03  5.26455522e-01
  1.90155640e-01  2.34362483e-01 -1.63042641e+00  3.78817366e-03
 -8.63330439e-02  1.66926382e-03  1.36444569e-01  3.47193062e-01
  4.46231291e-03 -1.77017605e+00 -7.75424719e-01  3.87708744e-04
  8.53256702e+00  1.20565426e+00  2.86039012e-03 -1.22156012e+00
  1.61367953e-02  8.91240779e-03  2.16396117e+00 -4.95532781e-01
 -1.10920310e-01  4.79447335e-01 -1.13575888e+00 -6.37000620e-01
 -5.88150024e-02 -3.32404196e-01  2.05245212e-01 -4.43232745e-01
  6.65181041e-01  5.96081018e-01  1.47502003e-02 -4.91943909e-04
  8.37824214e-03  7.53337681e-01  3.07149137e-04 -7.29862094e-01
  6.08556747e-01  4.08465654e-01 -1.01856554e+00  1.26007633e+01
  2.06511945e-01 -3.65983516e-01  3.67899891e-03  2.00484514e+00
  3.69850159e-01 -5.66444099e-01  1.20452546e-01  5.71890235e-01
  3.30285621e+00  6.19614244e-01  6.15327549e+00  1.00396729e+00
  6.11478209e-01  5.28007150e-01  1.55291587e-01 -3.74976337e-01
  9.88764405e-01 -1.60191536e+00 -9.06250060e-01  9.37227964e-01
  9.83879805e-01  6.71922266e-01  2.70785189e+00  8.31021890e-02
 -1.72248149e+00  3.20631848e-03  7.37271225e-03  3.09138503e-02
  4.52021696e-03 -1.21334755e+00  7.31826946e-03  3.18322706e+00
  1.85359895e+00  1.95204794e+00  3.54302555e-01 -8.44050348e-01
  3.47259593e+00  1.28269464e-01 -1.04977526e-01  4.78232861e-01]
[-1.04150631e-01  6.11037575e-02 -6.98275268e-01 -1.25046575e+00
  1.56591117e+00  3.33164668e+00 -1.43440580e+00  1.95859447e-01
  1.21779799e+00 -1.67837851e-02 -6.81683002e-03 -6.39104797e-03
  7.38878129e-03 -2.42619682e-02  4.86086130e+00  2.29425937e-01
  2.13651800e+00 -1.65671706e+00  9.18628573e-01  2.04054326e-01
  7.57867157e-01  2.04200268e+00  2.17555091e-01 -2.28743367e-02
  3.08302760e-01 -2.04909649e-02 -3.15518975e+00 -1.26050735e+00
 -1.84682440e-02 -1.87297165e+00 -3.89611506e+00 -1.14209764e-02
  7.62616575e-01 -1.00125480e+00 -1.68686751e-02 -2.72751069e+00
 -2.90663969e-02  4.71057789e-03  4.01814651e+00 -3.60239005e+00
  1.57570231e+00  2.34922752e-01 -2.74690580e+00  1.23349237e+00
 -1.17129540e+00  3.44271088e+00  3.24523759e+00 -2.14973760e+00
  7.39739165e-02  1.42162845e-01  3.54141498e+00 -1.99419130e-02
 -1.58045311e-02 -1.19495094e+00 -2.43590288e-02 -1.07311398e-01
 -1.24943244e+00 -5.59845746e-01  1.03624070e+00 -1.46232641e+00
  6.24233842e-01  3.28239560e+00 -3.87749970e-02 -9.17775556e-02
 -2.30703890e-01  1.44886041e+00  1.49188626e+00  4.31653023e+00
 -9.88478243e-01  1.21135451e-01 -5.02864957e-01  2.53050590e+00
  1.49241641e-01  7.53704607e-01  4.39127398e+00  5.14424264e-01
 -4.02643323e-01 -1.79001141e+00  1.50413966e+00  1.92164063e+00
  5.35714686e-01 -1.10120475e-01 -8.31687450e-01  4.87616569e-01
 -2.91102719e+00 -4.62401584e-02 -2.56781559e-02  1.00448184e-01
 -2.68953294e-02 -3.92925406e+00  9.33654234e-03  8.64708703e-03
 -7.15338066e-03  2.83082080e+00  3.87575597e-01  1.35946479e-02
 -2.43272319e-01 -2.53392506e+00 -1.06143749e+00  7.72126913e-02]
[-2.50466681e+00 -1.03831224e-01  1.74492955e+00  1.22238982e+00
  4.26113784e-01  8.99429798e-01 -4.81400251e-01  6.89800605e-02
 -1.26489544e+00  2.06378065e-02 -1.21893054e-02  2.30322741e-02
 -1.12529248e-02  2.84196213e-02  6.33481145e-01  2.67653286e-01
 -5.38650081e-02  1.67033076e+00 -1.68318248e+00  3.63674834e-02
 -1.13323009e+00 -5.12542009e-01 -1.63833141e+00  1.79731939e-02
 -1.59974897e+00 -5.32678626e-02 -6.31362319e-01 -1.02889013e+00
 -1.49278343e-02 -3.99645066e+00 -1.75744212e+00 -2.25240160e-02
 -2.22008991e+00  5.52195549e+00  5.63227106e-04  1.30580282e+00
  5.39210401e-02  1.88228525e-02  2.65363753e-01  8.58100355e-02
  2.39923501e+00  1.25698045e-01  3.34091830e+00 -1.54903383e+01
  9.15864229e-01 -4.21840131e-01 -8.49455833e+00 -9.20378494e+00
 -1.98153675e-01  8.45043212e-02  2.47117376e+00  2.07885168e-02
  8.15362495e-04 -1.51716864e+00 -6.86742598e-03 -1.65273547e-01
 -1.44295251e+00  2.51336638e-02 -1.50304165e+01 -1.52551961e+00
  1.22641492e+00  1.36368290e-01  1.31343622e-02  3.70750517e-01
  4.59535420e-01  1.52408969e+00  3.44782174e-01 -8.85524988e-01
  1.33109295e+00  8.91360920e-03 -1.01162064e+00 -5.38016260e-01
  3.75886969e-02 -1.53772748e+00 -9.85258162e-01  4.69853550e-01
 -8.13581228e-01 -5.13642907e-01 -9.68270078e-02  1.47945076e-01
 -1.21803033e+00  1.37779385e-01 -1.21287692e+00 -2.11271071e+00
 -8.56519413e+00  3.18907276e-02  4.65268940e-02  2.99636453e-01
 -6.45699864e-03 -7.03990221e+00 -1.41599178e-02  3.20674777e-02
 -1.19627213e+00 -1.71509480e+00  2.96045125e-01  6.87436998e-01
  5.53258285e-02  1.88144565e+00  1.06358063e+00  6.31055832e-02]
[-2.08896017e+00  5.56907654e-02 -9.05280784e-02  9.11684334e-02
 -2.48652411e+00  1.88242853e+00 -3.31035900e+00  2.93457985e-01
 -5.08242083e+00 -6.28398964e-03  8.15095566e-03 -3.98547016e-03
  1.34500256e-02  2.23514494e-02  1.93963990e-01  2.35691369e-01
 -2.29532218e+00  9.83073139e+00 -8.00922036e-01  1.79077774e-01
 -2.39515185e+00  6.78431213e-01  9.81641591e-01 -1.84432988e-03
 -5.51423550e-01  1.16820456e-02  2.17735454e-01 -2.30224180e+00
  7.21610896e-03 -8.99399698e-01  4.74385595e+00  3.06723174e-02
  3.61676788e+00  6.53624010e+00 -4.80826304e-04  6.44855404e+00
  5.13268029e-03 -9.98729933e-03 -3.11614704e+00  2.63125253e+00
  4.99275541e+00  4.55208570e-01  1.17402720e+00  3.31938386e+00
 -1.25706303e+00 -1.52540898e+00 -1.87588704e+00  1.80323851e+00
 -1.13295771e-01  2.27855742e-01 -6.94469810e-01  1.76634248e-02
  1.19599104e-02 -9.04751003e-01  1.15307299e-02 -7.04805434e-01
 -1.61919224e+00  2.08661652e+00  3.04392004e+00  9.96808052e+00
 -1.36039123e-01 -1.93474257e+00  2.55637895e-02  7.83092856e-01
  7.33857512e-01 -3.19495010e+00  9.79237080e-01 -1.52932465e+00
  2.38163304e+00  2.11827055e-01 -1.12483752e+00 -4.97508144e+00
  4.80220020e-02 -1.85625398e+00  2.75975347e+00 -1.01436234e+00
 -6.46355748e-01  3.40775466e+00 -1.42958749e-03 -2.54112124e+00
  1.18391383e+00  3.81258167e-02  4.06970119e+00 -2.79905939e+00
  1.62242651e+00  3.28900702e-02  6.80740876e-03  9.86547023e-02
  3.81153100e-03  2.01330328e+00 -1.06706675e-02 -5.67796588e-01
 -1.49765885e+00 -3.96196723e-01  3.17471504e-01  8.78832638e-01
  2.70684409e+00  1.08724892e+00 -3.72480822e+00  2.14945853e-01]
[-5.26917934e-01 -3.27727914e+00  6.96639013e+00 -3.10354757e+00
 -1.04162014e+00 -2.14313793e+00 -3.33526015e+00 -6.49885988e+00
  1.40649486e+00  9.33627971e-03 -1.98088679e-02  3.03355604e-02
  2.82307807e-02  4.37476747e-02 -2.28175163e+00 -6.39237309e+00
 -1.31536782e+00 -3.93135142e+00  4.94118303e-01 -5.58116722e+00
 -3.29252791e+00 -2.97802687e+00  3.62430906e+00 -2.26718490e-03
 -1.56137824e+00  2.25087479e-02  8.68414581e-01 -4.46729755e+00
  3.00358888e-02  4.45868731e+00  4.70538235e+00  3.14062163e-02
  3.75191498e+00 -3.33590221e+00 -4.87251411e-04  4.01455832e+00
  4.08525765e-02  1.63684655e-02 -5.16462421e+00  2.17318463e+00
  6.43306971e-01 -6.36069155e+00  9.29858589e+00  2.49138021e+00
 -1.39177692e+00 -2.19154716e-01 -2.70617700e+00  1.18603528e+00
 -5.96581316e+00 -4.04292870e+00 -3.30636549e+00  6.05169982e-02
 -1.52105354e-02 -7.92277384e+00  2.91215777e-02 -4.10822392e+00
 -7.38587713e+00 -7.05809498e+00  4.82769203e+00  8.85785484e+00
 -5.21110868e+00 -1.70861208e+00 -1.97097883e-02  1.67646623e+00
  4.38385516e-01  2.17716575e-01 -3.77546120e+00 -1.29972446e+00
 -2.51396871e+00 -5.10426331e+00 -4.16224098e+00 -4.96294928e+00
 -5.26756525e+00 -1.45104659e+00 -6.96655214e-01  4.79357576e+00
 -9.95103264e+00  5.76865721e+00  1.93009317e+00 -9.89726126e-01
 -1.65453320e+01 -3.94971728e+00 -2.36338973e+00  8.01339805e-01
 -6.90215731e+00  3.62806432e-02  1.51121477e-02 -6.88011885e+00
 -1.17852315e-02  4.89582157e+00  5.15181273e-02 -3.53000879e+00
 -9.43199825e+00 -3.26028609e+00 -5.69872046e+00  3.12600088e+00
 -4.43301916e+00  4.60765660e-01 -3.46462917e+00 -9.28793144e+00]
[-5.9591017  -3.2166095  -2.2384608   0.9518445  -6.2164917  -3.1585014
  0.2545146   1.358094   -6.979175   -0.48377037 -0.37490147 -0.3640271
 -0.37255442 -0.3912733  -4.200351   -8.340329   -2.4319983  -6.5562615
 -2.2116306   1.6668551  -3.9433296  -8.478996   -3.9902515  -0.31731296
  0.48276484 -0.30950928 -6.5316257   1.1262053  -0.31041932 -4.568614
 -6.505313   -0.5492541  -1.8432128  -9.417815   -0.44277158 -2.9518764
 -0.34168875 -0.354712    2.4956336   1.7395128   5.61077     2.4090831
 -3.434042    2.8400314  -1.8638377   1.3841046   1.406569   -5.8110538
 -4.6349506  -2.1809273   1.8128119  -0.30971333 -0.37331364  2.0607655
 -0.5693321  -0.7677166   0.8405741  -1.6457154  -0.12220443 -2.12267
  4.023837    2.2020144  -0.33055937 -1.2885758  -7.8750505  -2.8612776
 -1.1603905  -2.131276   -2.5555027  -0.66155833 -2.835575   -1.8627081
  0.7675976  -5.6361904  -7.18004    -3.293969    2.1573634  -5.1977763
 -1.9986582  -2.2030163  -3.5915437  -4.6029215   0.75967467 -8.643595
 -8.37424    -0.37788135 -0.34904018 -6.82922    -0.42673758 -9.423752
 -0.3617529  -5.5100784  -6.9332037  -1.5297687   4.291283   -1.4005909
 -3.2872782  -1.7877163  -2.6635537  -2.8985152 ]
layer 7 Activation
elu
layer 8 Dropout
layer 9 Dense
100 1
[0.49429777]
[-1.5989132]
[0.25265607]
[-0.43491533]
[0.2856069]
[-0.37596866]
[-0.36760628]
[-0.89530456]
[-1.9586412]
[-0.00075991]
[-0.00036223]
[-0.0004277]
[0.00152797]
[-0.00086828]
[0.27998775]
[0.15540026]
[0.33487704]
[0.3203613]
[0.06455595]
[-1.1924604]
[0.24230106]
[-0.16103175]
[0.37505582]
[-0.00039021]
[-0.16761638]
[-2.3752036e-05]
[1.8315629]
[-0.3775731]
[0.00156169]
[1.1338779]
[0.48060519]
[-0.0002589]
[1.3583444]
[4.2291107]
[-0.00037561]
[-0.85064274]
[0.00017059]
[-0.00020672]
[-0.2188862]
[0.31538835]
[-0.19654797]
[-0.9376472]
[4.7327437]
[-0.9574849]
[-0.16357738]
[-0.11955249]
[-0.55941916]
[4.0251393]
[-3.265931]
[-1.4475098]
[-0.1711981]
[-0.00061842]
[-0.0006175]
[-0.53436035]
[-0.00029978]
[-2.650995]
[-0.38374475]
[2.9463415]
[0.24899086]
[0.1336372]
[-0.7004386]
[0.23383065]
[-0.00054697]
[0.47986537]
[3.2056484]
[3.257685]
[-2.674892]
[0.32647002]
[0.43590024]
[-1.2509881]
[-0.1814029]
[0.20826383]
[-1.1859844]
[0.3031615]
[0.25160375]
[0.2752473]
[-0.5579688]
[0.4071587]
[4.8197646]
[0.20614327]
[-0.6985386]
[-1.9578083]
[-1.1534103]
[1.5385206]
[0.60357845]
[-0.0010137]
[-0.00140539]
[0.07569692]
[0.00044223]
[0.59585106]
[0.00200644]
[-1.5665604]
[-0.60275996]
[0.17576018]
[-1.0322973]
[-1.4999375]
[-1.5499797]
[-0.36282483]
[-2.5786192]
[-0.7771384]
[-1.9301383]
