layers 10
layer 0 Dense
9 9
[-1.6015075e-02 -2.9012004e-02  3.4637162e-01  1.1712982e-01
 -1.6756965e-02 -5.0083581e-02  3.8305244e-01  1.1025371e-04
  4.7160229e-01]
[-0.02459609  0.01485322 -1.4808173   0.1022651  -0.01164691 -0.04863175
  0.17517951  0.01058404  0.1933681 ]
[ 0.002209   -0.59609866  0.01884719  0.01526642 -0.00462666 -0.02601013
  0.26063213 -0.00174148 -0.10885448]
[-0.0492365   0.9937844  -0.25775042  0.35661435 -0.05456265 -0.12682056
  0.8049235   0.01694533 -0.16816348]
[ 0.00205731  0.00035636  0.00102776 -0.00841214  0.00657639 -0.0302967
 -0.00064199 -0.00192845 -0.00016902]
[ 0.52059335 -0.01298064  0.00157916  0.10708979 -0.4558779   0.76558536
 -0.00600076  0.04788902 -0.00377947]
[ 1.3851746  -0.05690123  0.02931799 -2.1626616   1.5605562   2.224232
 -0.16734569  7.343458   -0.05892842]
[ 1.6049504e-05  5.4628770e-03 -3.3375975e-03  3.0168873e-01
 -1.2662236e-03  3.7727386e-02 -2.9939155e-03 -8.2709026e+00
 -1.6705482e-03]
[ 1.2222279e+00  1.6026797e-02  2.7533283e-03 -9.6392289e-02
  4.9026952e-05 -6.9877988e-01  2.7177238e-03 -5.9858982e-02
  4.9267719e-03]
[-2.3536298  -0.25787368  0.62916285 -5.7386174  -1.2196114  -2.0532458
 -0.5332092  -4.637677   -0.10405561]
layer 1 Activation
elu
layer 2 Dropout
layer 3 Dense
9 30
[ 0.13245846  0.68037033  0.3091553  -1.3488209  -0.5278581  -5.916653
  0.16499224 -0.8848782  -0.44757733 -0.17293577 -1.530269    0.1173196
  0.28839552 -0.16785438  0.13801883  0.10754842 -5.6704125   0.00635927
 -0.10804526 -0.05391575 -0.35402945 -0.05933888 -1.1921018  -0.72166395
 -0.26200658  1.0355859  -0.07824738 -0.9056588   3.2094016  -0.16688077]
[-0.04544969  0.03836973 -0.35564885 -0.2534587  -0.08626012 -0.03555715
  3.7874486  -1.8817441   0.049521   -0.14226376 -0.2457809   1.2564083
 -0.12061132  0.07525782 -0.68663156 -0.05086462  0.07651286 -0.01844484
 -5.0219975   0.14877498 -3.4210324   0.72090876 -0.13821563 -0.03520874
  0.52064306  0.02683472 -0.0415133  -0.07585743 -0.08368943 -1.7409741 ]
[ 4.35306542e-02  1.17738634e-01 -4.69974466e-02  1.90920476e-03
  1.39850438e+00  2.78837010e-02 -7.69678876e-02  9.74667490e-01
 -2.46919300e-02 -1.28188312e-01  2.26325076e-03 -5.39935865e-02
 -2.02701554e-01  8.82668555e-01 -5.39415121e+00  2.70888638e-02
 -3.75656150e-02  3.96324992e-02 -2.29796976e-01  4.95704683e-03
  4.17777348e+00  4.44962406e+00  3.24785519e+00 -2.62506809e-02
  1.82847047e+00  3.48184526e-01  7.56681804e-03  1.61329880e-02
  1.03834178e-02 -8.14004466e-02]
[ 9.548912    0.18913972 -0.24349307 16.519623    5.4303737   2.2439737
  1.11176     2.7822201   0.71033716  4.151204    2.628033   -0.3028765
  4.5402126   0.6137107   2.160228    7.680422    4.1432695   6.0512667
  0.8955923   0.9468635   6.156925   -0.466693    2.768453    4.1780405
  1.5053161   2.251336    1.4493946   0.4049529   0.6648268  -0.20117447]
[ 0.27660784  2.172593    1.1122656  -5.572829   -2.1602283   2.6169934
  0.59779066 -3.5283248  -0.64541054 -0.6694243  -6.225615    0.41592333
 -0.50751114 -0.531599    0.4348997   0.2381487   3.9093966   0.13793242
 -0.25430146 -0.1977745  -1.3106692  -0.05919815 -4.0229897  -0.9767912
 -0.73512375  1.5551444  -0.10264367 -2.4388094  -5.2601895  -0.7626551 ]
[-0.26356164  0.50027007  0.4996406  -3.6339483  -2.1198008  -1.0597038
  0.14355361 -2.309648    1.7692826  -1.4040084  -3.640514    0.02505358
 -6.361457   -0.09429786 -0.1420766  -0.11030025  0.3398195   0.09948123
 -0.12536086 -0.01841522 -0.9308699   0.14183116 -1.1588422   4.2206907
  0.02587228 -6.7426147   0.25105733  0.31754863  0.22058344 -0.6824132 ]
[-0.07398022 -0.10379349  0.07583032  0.08745901 -0.09994216  0.06995854
 -1.4205772  -1.6547577   0.15855104  0.18747962  0.11576161  2.0817256
  0.28825456 -1.864423   -0.47973    -0.03689871  0.07408018 -0.06230464
 -3.9325392  -0.635686   -4.2808013   0.60243875 -6.1701455   0.5143674
  0.16193311 -0.8033065   0.01207343  0.07467041  0.11397426  0.9713248 ]
[ 7.7886014e+00 -1.7635970e-01 -3.3527645e-01 -2.3818605e+01
 -3.6468363e+00  5.5879998e-01 -1.9597992e-01  4.3008399e-01
  5.6231982e-01 -4.0641017e+00  1.7971483e+00 -2.1062244e-01
  5.6113315e-01  7.0120804e-02 -2.1753719e-01  7.0148053e+00
  1.2644675e+00  6.2595258e+00 -4.9071670e-02  7.1626636e-03
 -6.8779082e+00  2.3973839e-02 -3.9955981e+00  2.6673896e+00
  1.7345963e-01  7.4451160e-01  2.6010380e+00  3.7752464e-01
  3.0516985e-01  3.7055290e-01]
[ 1.6237106e-02 -8.1875002e-01  3.7844884e-01  9.4360039e-02
  3.7269640e-01  1.1687017e-01  1.7247120e+00  5.2537578e-01
  3.9586931e-02  5.5518993e-03  9.3972482e-02 -1.0499057e+00
  1.2418549e-01 -3.1108656e+00 -5.4167306e-01  1.6478565e-02
 -7.1915291e-02  5.0810084e-02  3.2390623e+00 -1.8980390e+00
  7.4218267e-01 -1.5850570e+00  3.0160773e+00  6.3869298e-02
 -4.3610625e+00  2.0986666e-01 -4.1146353e-03 -1.4677618e-02
  7.0305765e-02 -9.2102623e-01]
[ -9.678974     0.9523162    0.3774254  -15.932761    -2.8216012
  -1.3307546    1.0274826   -4.0802717   -0.9450206   -2.0677638
  -4.808868    -0.31972432  -1.1903667   -0.54015285   0.6009597
  -8.533601    -4.0883512   -6.304964    -0.3358338    1.2964412
  -4.2033453   -0.8372002   -6.68573     -4.2675734    0.14295776
  -2.4331677   -2.3465536   -1.3515012   -0.67713493  -1.1248643 ]
layer 4 Activation
elu
layer 5 Dropout
layer 6 Dense
30 100
[-1.97249860e-01  3.32635474e+00  7.46658683e-01 -3.73250782e-01
  2.41843009e+00  2.09935331e+00  1.94320083e+00 -5.36971211e-01
  2.63628650e+00  1.30760804e-01  1.29555035e+01 -1.39429617e+00
  1.34621394e+00  2.13532662e+00  9.41009521e-02  5.52714348e+00
 -3.53404689e+00  6.20178021e-02  4.55603790e+00  1.70579433e-01
 -9.36618626e-01  8.71181774e+00  1.38104111e-01 -2.73230255e-01
  2.36313076e+01 -4.63204049e-02  1.99859142e-02  2.17694998e+00
  4.48175281e-01  2.50880152e-01 -2.70821124e-01  1.53319150e-01
 -1.26732573e-01  2.61302304e+00 -5.37552452e+00  6.62738755e-02
  2.28015685e+00  2.82136083e+00 -1.59750962e+00  2.22697353e+00
  3.04877758e+00  3.24233866e+00  5.62956524e+00  5.18858023e-02
  1.15495539e+00 -1.12009335e+00 -4.66115415e-01  2.31315684e+00
  1.18322527e+00  1.20362008e+00  4.50359201e+00  8.61486346e-02
  2.03848934e+00  4.59725523e+00  2.73406076e+00  4.93824542e-01
  1.17582214e+00  2.68103886e+00 -2.64281106e+00  7.42125463e+00
  4.91378498e+00 -1.51454687e+00 -7.64878798e+00  6.58448786e-02
  3.98661762e-01 -4.58533652e-02  1.29790440e+01  2.59226394e+00
 -5.51991796e+00 -2.69825488e-01 -3.65677267e-01  1.30193233e-01
  4.29197162e-01  1.44111872e+00  2.90385580e+00  4.07633829e+00
  2.59833431e+00  2.06643701e+00 -7.56327152e-01  1.17628584e+01
  3.92601824e+00  4.68795156e+00  1.21568784e-01  1.11177540e+00
  4.26821756e+00  1.79138064e-01  4.91581631e+00  7.66807720e-02
 -4.17043507e-01 -1.01092339e+00  1.79030180e+00  6.24108171e+00
  1.03536792e-01 -1.15975499e+00 -2.47197342e+00  1.28919259e-01
  4.12552500e+00  9.34303224e-01  5.26469238e-02  1.58289913e-02]
[ 2.45572805e+00 -1.86027694e+00 -5.29774427e+00  6.11604869e-01
 -1.12581462e-01 -3.24161410e-01 -3.90307951e+00  2.56918240e+00
 -2.02724743e+00 -3.94670439e+00  2.89112121e-01 -4.04992819e-01
 -1.24013972e+00 -6.36504269e+00  1.86822694e-02 -2.13454509e+00
 -4.21119356e+00 -4.48547639e-02 -4.19787455e+00 -4.48203087e-02
  3.27314591e+00  8.39858949e-01  9.69933867e-02 -1.22933900e+00
  3.83589089e-01  1.87384188e-01 -1.66660905e+00  7.38001168e-01
 -4.41666424e-01  9.75535989e-01  2.23161280e-01  1.43358827e+00
  2.79607534e-01 -7.94733238e+00 -1.90436399e+00  1.29925773e-01
  5.38854456e+00 -1.37036943e+00 -4.42742634e+00 -1.95933461e+00
 -9.13747311e-01  1.10363007e+00 -3.16573668e+00  1.03988123e+00
  7.48160362e-01  3.57714367e+00 -1.05020273e+00 -7.61626577e+00
 -2.26774842e-01  9.02773142e-01  6.81004167e-01 -1.72861330e-02
 -3.62659007e-01  2.06056309e+00 -3.24282622e+00  4.05559748e-01
  7.56317675e-01 -2.04026961e+00  7.15825939e+00 -5.92568922e+00
  4.38149810e-01 -2.63175154e+00 -2.27709079e+00  1.08091170e-02
  1.33636403e+00  2.24857088e-02  5.75773895e-01 -1.03945756e+00
  6.63307667e+00 -7.11640120e-01  1.04769850e+00 -1.44902599e+00
  4.87218857e-01 -6.99930668e+00 -1.54801655e+01 -1.89536428e+00
 -2.49367976e+00 -3.79147148e+00 -3.75113428e-01  1.24779372e-02
 -2.72493553e+00 -4.30600792e-01 -4.45766933e-02 -2.99449229e+00
 -2.15966433e-01  4.43647712e-01  2.19753051e+00  1.01042974e+00
  2.64625597e+00  4.18800980e-01 -1.33073997e+01  2.34079456e+00
  6.92741247e-03  1.55655074e+00 -4.39926356e-01  1.94936562e-02
 -2.78928256e+00 -1.29118805e+01 -9.03514959e-03 -5.03735319e-02]
[ 7.6600480e-01  2.9172105e-01 -1.4184939e+01 -4.8205481e+00
  6.3679850e-01 -1.2684103e+00 -2.5380380e+00  6.1153769e-02
 -4.7688427e+00  8.8035631e-01 -4.1548055e-01  3.0318038e+00
  2.9899857e+00  1.7538548e+01  2.9358942e-02  2.7913756e+00
 -8.1254864e+00 -9.0618040e-03 -3.8732948e+00  3.2592859e-02
  2.3920240e+00 -7.5027806e-01 -7.5826682e-02 -5.2347341e+00
 -3.9538453e+00  1.5151566e+00 -1.6091173e+00 -3.0361192e+00
 -2.4284270e+00 -1.0586885e+00 -1.8672842e-01  4.1880852e-01
  7.8478590e-02  4.0602336e+00  1.1423699e+00  9.9406439e-01
 -1.1881786e+01  1.7502728e+00  4.3416238e+00  2.7535968e+00
  1.3765386e+00 -6.1181831e-01  2.1664886e+00  2.1709409e+00
 -2.9124317e-01 -5.5334558e+00  2.5812321e+00  6.2240219e+00
 -9.8333216e+00 -1.2931037e-01 -2.0135307e+00  4.3237850e-02
  1.8888781e+00  6.3662356e-01 -1.5197760e+00 -3.2451329e+00
 -5.7582750e+00  4.9286494e+00  4.2459459e+00  1.1016172e+01
 -8.9341807e-01 -4.0437369e+00  2.1088444e-01  1.4376179e-02
  3.4909227e-01 -5.2588142e-02 -1.6093018e+01  3.0753751e+00
 -9.8883879e-01  1.5303086e+00 -1.2458960e+00 -2.6558289e-01
  4.9601108e-01  3.0105531e+00 -1.4298225e+01  2.3626773e+00
  6.1641331e+00 -4.5283117e+00 -2.6415043e+00  7.4522644e-01
  4.6563063e+00  3.2523015e+00 -2.8792992e-02  5.9064736e+00
  9.7969103e-01 -1.8115656e+00 -8.8086166e+00 -7.8761375e-01
 -4.8192592e+00  1.4427218e+00  3.7881253e+00 -4.3637862e+00
 -1.0413154e-02 -8.0214185e-01  1.1731426e-01 -5.3977322e-02
  1.1666241e+00  5.2158933e+00  1.1855011e-02  1.5980152e-03]
[ 3.99324441e+00  1.50944014e+01 -6.15737343e+00  1.85172176e+01
  7.57178688e+00  2.59442568e+00  6.89034879e-01  4.49157953e+00
  1.72000265e+00  6.47345924e+00  6.28033638e+00  1.20675778e+00
  1.71440268e+00  2.97852015e+00  9.24832895e-02  2.00989723e+01
 -1.41079974e+00  4.48243544e-02 -2.42573547e+01  1.97395891e-01
  1.41142282e+01 -1.97323787e+00  3.03096175e+00 -1.54486001e+00
  8.78912926e+00  2.02482719e+01 -4.39830589e+00  4.93983841e+00
 -1.30197010e+01  3.02311635e+00  2.03761158e+01 -1.85340595e+00
  1.67331104e+01  6.85507822e+00 -1.06348343e+01  1.54818811e+01
  1.09432995e+00 -4.61103535e+00 -1.88996494e-01 -3.76851964e+00
  1.12443523e+01  1.82137299e+01 -2.05415039e+01  7.74259508e-01
 -6.06272638e-01  3.56995106e+00  2.70812964e+00  7.95113862e-01
  2.13207650e+00  7.52527356e-01  1.81554470e+01  1.97781008e-02
  3.02670097e+01  2.88576756e+01 -4.85307217e+00  1.13302720e+00
 -2.31881380e+00  2.66416492e+01  3.74882865e+00  5.85317910e-01
  2.48704481e+00 -3.60809237e-01 -1.04845679e+00  5.66929504e-02
  1.14552050e+01  4.86750044e-02 -1.26651371e+00  3.11061783e+01
  4.95502138e+00  2.64913158e+01  1.36595392e+01 -2.12081003e+00
  2.01983337e+01 -8.04336929e+00  5.11614037e+00 -1.84623871e+01
  2.00821495e+01 -8.18924427e+00  3.20727587e+00 -5.21894169e+00
  1.84388116e-01  3.14236679e+01  2.08622649e-01 -4.39741182e+00
  4.27848196e+00  1.61168194e+00 -2.70685673e+00  3.90404415e+00
  4.17473869e+01  5.18834591e+00  9.43197131e-01 -9.53662336e-01
  1.12027153e-01 -1.31913292e+00 -2.06605768e+00  1.06855705e-01
 -1.47844470e+00 -1.01896296e+01  4.30025384e-02  9.61369053e-02]
[ 3.2453752e+00  1.1092396e+00  5.9310617e+00 -4.5196919e+00
 -9.7157097e-01  4.2968864e+00  1.2367592e+01 -2.5445516e+00
  7.9109831e+00 -4.2624168e+00  6.3857069e+00 -1.7684746e+00
  4.3997121e+00  3.3712080e+00  3.0890087e-02 -7.0488253e+00
 -5.0974841e+00 -4.9898550e-02 -1.0862067e+00 -1.8908607e-02
  5.0511889e+00 -1.3303943e+00  1.2392090e-01 -4.3601352e-01
  8.6038666e+00  3.9000227e+00  2.6305634e-01 -3.7603176e+00
 -1.8268312e+00  2.4488540e+00  6.1083490e-01  2.4542451e+00
  2.8215063e-01  9.3789091e+00  1.5528502e+00  2.3814006e+00
  9.7716480e-01  5.8075798e-01  7.2553263e+00  2.7148569e+00
  2.0698724e-02  1.8201202e-01  1.1324346e+00  2.5601470e-01
  9.4711866e+00  4.6295490e+00 -1.0187831e+00  2.5987072e+00
 -6.3268614e-01  4.1768661e-01 -3.2781298e+00 -5.3135643e-04
 -8.4306651e-01  8.4676981e+00  5.5451035e+00 -3.6031780e+00
 -6.9483891e-03  2.1767452e+00  3.5302155e+00  6.0097218e-01
 -3.6482999e-01  7.0028353e-01  6.6012800e-02 -2.1623829e-02
  6.1680037e-01  4.3660882e-03 -7.8634601e+00 -9.4895655e-01
  4.5860624e+00  1.0779412e+00  3.5018435e-01  1.7604507e+00
 -7.1308267e-01 -5.1743379e+00  1.2255962e+01 -7.9934651e-01
 -2.0844955e+00 -7.1309127e-02 -2.1505976e+00  1.7180906e+01
  1.2348703e+00  2.1877291e+00 -1.5070082e-02 -9.4386369e-01
  4.9151449e+00  1.0783363e+01 -5.1399641e-02 -2.3961930e+00
  1.0898913e+00 -1.9130370e-01  6.1730056e+00 -3.1937814e+00
 -8.3240289e-03 -6.9123709e-01  2.0904562e+00  1.7847722e-02
  1.4634929e+00  5.9564004e+00 -2.2347562e-02 -1.7140169e-02]
[-2.8275812e+00  9.0537369e-02 -3.8575596e-01 -1.1127683e-01
  1.8514445e-01  6.1603135e-01  5.6158841e-01  3.7490612e-01
  3.9461097e-01  3.1631333e-01 -3.0925784e-01  2.1043974e-01
 -5.4202318e-01  6.1433125e-01 -2.0365842e-02 -5.2446413e-01
 -6.6214480e-02  1.8301951e-02  8.3139855e-01  1.0145479e-02
 -2.2246447e-01 -3.0339953e-01  5.0940383e-02  1.9919293e-01
 -1.5737954e+00 -5.6596033e-02  7.8413355e-01 -2.5052199e-01
  3.0258068e-01 -4.7122691e-02 -1.4353322e-02 -7.1413651e-02
  4.5101061e-02 -1.4283191e-01  1.0089030e+00 -5.9783529e-04
 -6.2629241e-01 -5.9990561e-01  1.1100736e+00 -5.2252408e-02
  2.5980946e-01 -3.0714163e-01  1.2760376e+00 -4.6643689e-01
 -9.9708849e-01 -1.6211349e+01 -3.2318273e-01  1.1514043e+00
  1.3042074e-01  9.6659505e-01  6.5195364e-01  3.1343549e-02
  7.2355002e-01  1.2640878e+00 -2.3292726e-01  1.6517480e-01
 -1.4268073e-01  6.1695904e-01  1.5878341e+00 -5.3628556e-02
 -8.0714822e-02  3.5672829e-01  4.0346179e+00 -1.0145265e-02
  1.6942801e-01 -1.3135370e-02  8.9203876e-01  9.9648529e-01
  1.8709480e+00  5.8364004e-01 -4.7393396e-02  4.9703032e-01
  8.5001618e-02  1.8163214e+00  3.9228324e-02  6.3162792e-01
 -4.1169548e-01  5.1506555e-01  3.8437253e-01  8.3866447e-02
 -5.7078242e-01  7.4194658e-01  1.9828124e-02  1.8275064e-01
 -5.6138217e-01 -3.6902502e-02 -1.8039057e-01 -1.8596899e-02
 -1.0646529e+00  9.7053814e-01  6.6012770e-02 -7.7288812e-01
 -2.1184694e-02 -7.6597273e-02  2.6093791e+00  4.8869633e-04
  7.2510087e-01  3.4191099e-01 -7.6217833e-03 -1.4597803e-02]
[ 1.2962556e+00 -2.6525421e+00  8.4026327e+00 -2.1347673e+00
 -1.5252712e+00 -4.0381959e-01 -3.5400647e-01  1.9006348e+00
 -1.0459099e+00  9.8900175e+00  5.1435750e-02 -9.5130420e-01
 -3.5049648e+00  1.8125807e+00 -1.7263727e-02 -3.5220270e+00
  1.4764429e+00  1.6957482e-02  1.3972794e+00  8.0705909e-03
 -3.3957291e-01  2.7802246e-02 -5.0673876e-02  5.2444239e+00
 -2.8075585e-01  5.9806421e-02 -1.3009815e+00 -5.6887736e+00
 -5.0181103e-01 -9.1409606e-01  2.3943186e+00 -1.3447928e-01
  1.5550555e+00 -1.1160411e+00  6.7298073e-01  2.6335701e-02
  2.1067510e+00 -4.1454616e+00  4.5009594e+00 -6.4506698e-01
 -5.4046454e+00 -1.9858341e+00 -5.5954056e+00  1.8016647e-01
  1.1842613e+00  2.3281030e-02  2.9508227e-01 -5.6344943e+00
 -4.5367150e+00  9.9345058e-02  1.1434692e-01  2.1947591e-02
 -2.6710970e-02 -7.5652972e-02 -2.7063506e+00  2.2764435e+00
  2.1516494e-01 -8.6967343e-01  2.6751149e-01  7.1769081e-02
  1.2483058e-01  6.4986092e-01 -3.4292063e-01  9.1547286e-03
 -1.6978361e-02  5.0998323e-02  4.7626352e-01  5.0484496e-01
  6.9678122e-01 -4.6950877e-01 -2.5023192e-01 -4.5183223e-02
 -2.9341623e-01 -3.0505910e+00 -2.9514148e+00 -1.2647809e+00
 -7.2602916e-01 -4.9678059e+00  4.7243829e+00 -4.6372838e+00
  1.6500775e-02 -3.7814844e+00  5.2700676e-03  6.4846730e-01
  2.2601888e-01 -2.1293639e-01  2.0876721e-01  8.4038186e-01
  2.3181140e-01 -2.3974328e-01  1.3613852e+00  6.4386940e-01
 -1.9722201e-02 -1.2509964e+00  3.7263760e-01 -3.1148970e-02
 -5.2372813e+00 -9.4388205e-01  2.9906534e-02  1.8604377e-02]
[ 4.1653738e+00  2.1227047e+00 -7.1907039e+00  5.8639631e+00
  3.6686847e+00 -1.6639096e+00 -2.9580154e+00  7.1052547e+00
 -2.9142597e+00  1.0477424e+01  6.3395138e+00  1.3729221e+01
  1.2273968e+01  3.7328753e+00 -9.3813844e-02  5.3649211e-01
  4.7734342e+00 -5.0766326e-02  1.5083513e+01 -9.2635393e-02
 -4.6348805e+00 -8.3552599e+00  1.7402636e+00  8.3093290e+00
  8.6257944e+00 -6.0706949e-01  7.1486135e+00  6.4106150e+00
  4.0670810e+00  3.0747824e+00  6.1812291e+00 -4.8674464e+00
  6.0058802e-01  6.9221050e-01 -1.1443586e+01 -9.7510350e-01
 -2.8717954e+00 -2.0657814e+00 -2.6880937e+00  9.4522601e-01
  7.0752850e+00 -1.4646794e-01  1.1397616e+01  1.3729515e+00
 -1.3211298e+00  6.6582699e+00  4.7481754e-01  7.4047637e-01
  1.6672102e+01  7.3122674e-01  7.3620862e-01 -2.3637297e-02
 -3.3132041e-01  2.1978128e+00  1.7881176e+01  5.6850362e+00
 -4.5043266e-01 -1.7525191e+00  4.0780516e+00 -1.1638973e+00
 -4.7619610e+00 -4.9853630e+00  9.4576464e+00 -1.5292204e-02
 -8.2353663e-01 -2.8746344e-02  7.3457515e-01 -5.6060958e-01
  5.4889321e+00  1.2572793e+00 -1.0106618e+00  1.6896360e+00
  2.7682545e+00  2.2432523e+00 -1.4606824e+01  9.2898458e-02
  3.3950915e+00  4.9408927e+00  1.1754675e+01  5.8422537e+00
  1.5765361e-01 -7.9532995e+00 -7.1017884e-02  3.3546762e+00
  4.2351160e+00 -5.1127434e+00 -1.6705893e+01  6.7473164e+00
 -2.5731840e+00  2.1089027e+00  7.9490952e+00  7.8901501e+00
 -6.2825054e-02 -3.0070639e+00 -1.3448392e+00 -8.1244901e-02
 -5.0107112e+00  3.3421218e+00 -4.1484814e-02 -4.7354303e-02]
[ 1.9415241e+01 -6.0358709e-01 -5.5072117e+00  1.7449414e+00
 -2.1264109e-01 -7.7348024e-01  3.0354438e+00 -2.1883087e+00
  4.4270988e+00  1.5052912e+00 -1.3090321e+00 -2.5097817e-01
 -1.9478260e+00 -4.9702969e+00 -7.7846348e-02 -5.8790088e+00
  8.4267864e+00  5.1880658e-02 -7.2008553e+00  1.1864362e-03
  1.6628706e+00 -1.2490305e+00  1.4205189e-01 -5.6974036e-01
 -1.8644930e+00  1.3898628e+00 -6.0678232e-01  1.1362760e+00
 -1.3459011e+00 -6.8573016e-01  1.1754349e+00  1.0490262e-01
  1.0388343e+00  2.5204358e+00 -7.4487609e-01  1.1194978e+00
  7.8332049e-01 -1.5750402e+00 -1.4801738e+00 -1.0239227e+01
 -1.7363220e+00  3.3106339e+00 -2.6662359e+01  8.0128586e-01
  4.0768394e+00  3.7179542e+00  1.5089046e+00 -3.1626155e+00
 -4.8881921e-01 -1.2333377e+01 -5.8728971e+00  1.7780961e-02
 -5.0207644e+00 -6.1738381e+00 -2.0156002e+00 -1.2698776e-01
 -6.8901358e+00 -5.6223798e+00 -3.0580943e+00 -2.6602962e+00
  3.2786040e+00 -5.4648495e+00  9.4364214e-01 -3.3653833e-02
  1.7533673e+00 -1.8393132e-04 -2.7051169e-01 -4.5802903e+00
  2.3411372e+00 -7.0539293e+00 -4.0635443e+00 -3.0262246e+00
  4.3685725e-01 -3.7674012e+00  1.5212163e+00 -2.6443236e+00
  9.7285378e-01  2.9133515e+00 -2.3608054e-01 -2.0837788e-01
 -1.2355369e+00 -8.1356096e+00  4.0946952e-03 -1.6024604e+00
 -2.2396922e+00  3.1802619e+00 -8.3627377e+00 -1.8096266e+00
 -4.9731189e-01 -1.2568791e+01  8.9350206e-01  9.8164189e-01
 -2.4878575e-02 -7.1120846e-01 -5.2258199e-01 -1.1169705e-02
  4.2628498e+00  7.8837671e+00  4.9939357e-02 -4.9628794e-02]
[ 2.54682541e+00  3.96194482e+00 -9.22972107e+00  6.43082476e+00
  3.34078074e+00  1.73167694e+00 -9.58569527e+00  1.21883452e+00
 -3.77210712e+00 -4.35047567e-01  7.11997128e+00  4.47054148e+00
  3.68801284e+00  2.59480476e+01 -1.48003339e-03  3.34840107e+00
  7.71524668e+00 -3.93484570e-02 -2.96386280e+01 -6.83730170e-02
  5.76785088e+00 -2.06675553e+00  7.94583440e-01 -2.50884414e+00
  8.53179455e+00  7.68914700e+00 -4.62873602e+00 -2.08142400e+00
 -9.16132164e+00  1.19172466e+00  8.01271152e+00 -8.83980393e-01
  5.84552526e+00  5.69116414e-01 -1.11538057e+01  5.49255133e+00
  8.92019939e+00 -1.69993377e+00 -2.08666873e+00  2.19163275e+00
  1.85524225e+00  2.62945175e+01 -2.16757774e+01  4.34581947e+00
 -5.53466511e+00  1.55940628e+00 -1.62368155e+00 -3.82946825e+00
  1.93568695e+00  3.54347277e+00  2.45802116e+00  1.45195173e-02
  9.13418674e+00  1.07221680e+01 -1.58275950e+00  1.24018157e+00
 -7.95147467e+00  8.00691509e+00  2.14713764e+00 -9.49940801e-01
 -8.09062064e-01 -1.29625568e+01  1.52479613e+00 -2.20978744e-02
  4.87153006e+00 -1.39394579e-02  1.06641078e+00  1.12599611e+01
  3.19755411e+00  7.59555101e+00 -2.94093418e+00 -1.30224085e+01
  7.91687298e+00  8.79023170e+00  2.84219956e+00 -1.51667366e+01
  2.19942112e+01 -6.32325029e+00  3.80731678e+00  1.30583453e+00
 -2.33678356e-01  6.74353266e+00 -5.77836111e-02 -3.32731390e+00
  4.63546848e+00 -1.69594318e-01 -5.86329079e+00  1.58060539e+00
  2.86613483e+01  4.81958866e+00 -9.12379742e+00  2.38886809e+00
 -6.71156589e-03  2.94274926e-01  9.86176968e-01 -1.49046965e-02
  1.54760685e-02 -2.62167549e+00 -4.46780398e-02 -4.57622632e-02]
[ 1.56271434e+00 -1.46047564e+01  7.98613071e+00 -1.66537209e+01
 -8.60610485e+00 -6.71126747e+00 -3.51354575e+00 -5.91903448e+00
 -3.30559778e+00 -5.70052099e+00  6.91816854e+00 -4.25395727e+00
 -3.36717415e+00 -1.90264881e+00 -1.33743018e-01 -1.75572834e+01
 -3.93450332e+00 -7.65827522e-02  2.27179470e+01 -1.12983815e-01
 -1.68331451e+01  3.22798324e+00 -2.84130573e+00  1.11954343e+00
  9.65528297e+00 -1.99718857e+01  6.14051008e+00 -7.27765989e+00
  1.30327482e+01 -4.11091185e+00 -1.98148365e+01  8.70228767e-01
 -1.60509357e+01 -5.99066877e+00  1.39295959e+01 -1.51531115e+01
  6.36383832e-01  4.35106897e+00 -8.06916952e-01  2.12109590e+00
 -1.01425600e+01 -1.73049965e+01  2.36967144e+01  1.43488193e+00
  9.56702650e-01 -4.40927833e-01 -1.31239891e+00 -2.61857510e+00
 -4.36223477e-01 -1.35548079e+00 -1.46559258e+01 -4.46528569e-02
 -2.84444523e+01 -2.64318638e+01  2.42626977e+00  2.72300869e-01
  5.46882296e+00 -2.55618839e+01  1.92021811e+00 -7.86786433e-04
 -1.37279224e+00  1.11233830e+00 -1.90309465e+00 -1.10620566e-01
 -1.12611856e+01 -1.11348130e-01 -2.68965340e+00 -2.85057144e+01
  9.04321313e-01 -2.50213661e+01 -1.13300638e+01  1.40833247e+00
 -1.95675507e+01  1.10434742e+01 -6.47702789e+00  2.15586929e+01
 -1.79998093e+01  1.83267422e+01 -2.98398757e+00 -6.51946688e+00
  4.63403165e-01 -2.93657589e+01 -1.48171917e-01  3.26136327e+00
  5.30609751e+00 -2.09456611e+00 -2.01159787e+00 -5.38565779e+00
 -3.90797691e+01 -3.83865952e+00 -7.13241756e-01 -3.64031911e-01
 -1.03380881e-01  1.71449208e+00  1.68590999e+00 -1.11811481e-01
  3.42265904e-01  1.22167616e+01 -7.85230845e-02 -5.49146421e-02]
[ 3.69704545e-01  1.73335862e+00 -2.25726357e+01 -1.05965126e+00
  1.44456184e+00 -5.21042585e+00  2.13284039e+00 -1.01174212e+00
 -2.39528760e-01 -1.06341295e+01 -2.27179021e-01 -5.28196859e+00
 -2.30043221e+00 -1.86966743e+01  9.69370268e-03 -1.32916868e+00
 -4.34388876e+00 -4.36714292e-03 -2.50748324e+00  3.80454585e-05
  3.35250080e-01  4.36886959e-02  6.13667779e-02 -7.04994345e+00
 -3.17429990e-01  5.67816556e-01  3.40018034e-01 -4.75764215e-01
 -5.53349316e-01  5.59794903e-01  4.87989396e-01  4.04231668e-01
  9.01028991e-01 -1.14886818e+01 -2.55466771e+00  3.45693678e-01
 -4.51655102e+00 -2.33950520e+00  1.12699723e+00  1.09519351e+00
  3.19411278e-01 -8.54268491e-01 -1.78409219e+00 -4.17799920e-01
 -4.43578035e-01 -6.60778701e-01  3.70647430e-01 -9.07000446e+00
  3.91395867e-01 -7.65437866e-03 -1.45232886e-01 -3.26964296e-02
  5.48577785e-01  2.10038710e+00 -3.47361016e+00 -2.86870527e+00
 -5.70124328e-01 -1.92791355e+00  5.51021397e-01  9.60778296e-01
 -2.23887235e-01 -1.93069053e+00 -3.51296276e-01  2.54955757e-02
  2.47785524e-01 -2.42403969e-02 -2.50339699e+00 -7.69089031e+00
 -1.74796864e-01  5.88672400e-01  1.09982781e-01 -5.03162965e-02
  6.14171624e-01 -8.96835995e+00  1.55229950e+00  3.97564530e-01
  1.72930026e+00  9.94933128e-01 -6.51255035e+00  4.60525894e+00
  4.75561649e-01 -3.38201523e+00 -1.57530047e-02 -6.32002497e+00
  1.47534028e-01  7.30947733e-01 -9.57578957e-01 -5.10562325e+00
 -1.62111151e+00 -3.29527402e+00 -6.99716866e-01 -9.47194815e-01
  1.48192365e-02  9.19036031e-01 -1.07969344e-01  3.72771621e-02
 -8.51798058e+00  2.18140650e+00 -4.65202238e-03  1.18165584e-02]
[ 2.9490340e+00  6.5311551e-01 -1.2369559e+00 -8.2246554e-01
 -7.4046844e-01  3.6188011e+00  3.5403511e-01  1.5274830e+00
  4.0537372e-01  1.4458498e+00  5.6832595e+00 -3.6967781e-01
 -4.5907207e+00 -7.1713476e+00 -4.1760609e-02 -4.8181825e+00
  3.6781728e+00  1.0438052e-01  1.5134190e+01 -7.1224347e-03
  3.8749177e+00 -1.3796840e+00 -2.6859206e-01  3.8763338e-01
  7.3004456e+00 -3.2076809e+00 -2.1659288e+00  3.5032320e+00
  4.8559833e+00  1.5799320e+00 -3.3336585e+00  2.6910255e+00
 -2.1029639e+00 -3.7299566e+00  8.3896446e+00 -1.9636643e+00
 -4.6994810e+00 -1.0321064e+00  3.1174269e+00 -2.3167295e+00
 -1.5250959e-01 -1.1527971e+01  3.5285134e+00 -5.3555498e+00
 -4.2572899e+00 -8.2515049e+00 -3.0588017e+00  9.4673181e-01
 -7.1984749e+00  6.9795424e-01 -1.0185980e+00 -7.1152188e-03
 -1.6892164e+00 -4.3365645e+00 -6.9882846e+00  5.5761909e-01
 -1.5894196e+00 -4.1688399e+00  2.8697610e+00  2.8440568e+00
  9.1235179e-01  3.8617878e+00  3.4858832e+00  2.0103974e-02
  4.4152364e-01  4.8776451e-02  6.7905903e+00 -2.7418118e+00
  3.3004987e+00 -1.6633188e+00 -5.5351478e-01  5.1335363e+00
 -2.6539149e+00 -1.3857968e+00  4.0714192e+00  7.6573262e+00
 -9.1261826e+00  2.2389138e+00 -5.4026866e-01 -6.0458355e+00
  4.8650374e+00 -1.9265156e+00 -1.9429529e-02  6.1182055e+00
  5.7042284e+00 -2.3161253e-01  1.3080267e+00  2.0749242e+00
 -9.6314840e+00  1.4475253e-01  2.7938154e-01  1.8321488e-02
 -3.7006348e-02  2.2211759e+00  3.6468017e+00 -3.9927613e-02
  8.5281658e-01 -3.7557664e+00  3.9443947e-02  3.6402516e-02]
[-7.84774125e-01 -4.13928986e+00  5.80978489e+00 -1.70954871e+00
  6.60990775e-01  2.00658798e+00  2.25141525e+00  1.23678291e+00
 -1.03323376e+00  4.35184121e-01 -3.53838563e-01  3.03391457e+00
 -3.05584669e-02  3.21129632e+00 -2.89123468e-02 -6.13738203e+00
 -1.12272768e+01 -4.26906124e-02  1.30667341e+00 -6.37193769e-02
  1.21928740e+01  1.26113951e-01  3.53102875e+00  5.19271326e+00
 -7.47555971e-01 -2.38568664e-01 -9.27401185e-01 -1.90831459e+00
  1.35614204e+00 -9.78047609e-01  1.48552358e-01  7.49576473e+00
  3.27197969e-01  3.23628688e+00  3.63051705e-02  1.01735997e+00
  4.39255381e+00 -7.49512434e-01  5.91757774e+00  1.96177840e+00
  8.31224322e-01  3.90236884e-01 -5.09263659e+00  2.76383090e+00
 -1.70495939e+00 -3.58866125e-01  1.81850612e-01 -1.78556180e+00
 -8.02987874e-01  2.98390933e-03 -7.09798813e+00 -1.01817055e-02
 -4.59030008e+00  1.85781753e+00 -8.68532658e-01  3.34531546e-01
 -3.21682580e-02 -3.51005018e-01 -6.65638626e-01 -3.37435693e-01
 -1.65596202e-01 -1.14700973e+00 -1.43022573e+00 -2.22561602e-02
  6.32950544e+00 -1.83903389e-02 -7.36176825e+00 -4.54196483e-01
 -1.10733354e+00  3.50282431e-01  1.78461820e-01  1.55410302e+00
  4.09380138e-01 -3.98663998e+00  7.48951197e+00  4.25193012e-01
  1.88005507e-01 -1.08748233e+00  9.59215701e-01  3.44106865e+00
 -1.75727814e-01  3.44279379e-01 -4.45760004e-02  1.81885397e+00
  1.45391390e-01  7.10791969e+00 -1.43180266e-01 -1.12195623e+00
 -1.20657742e+00  1.54498291e+00 -1.27522480e+00 -4.65103000e-01
 -2.98929177e-02 -4.33957428e-01  5.75142562e-01 -6.58238903e-02
  3.09203959e+00 -2.34292889e+00  1.24027207e-02 -4.63363482e-03]
[-8.2827610e-01 -1.8268042e+01  4.3992981e-01  1.1740693e-01
 -5.2601513e-02 -8.2455158e-01 -5.8761392e+00 -2.9523262e-01
 -3.7851861e+00 -1.4370000e+01 -2.8230479e-01 -1.7870684e-01
 -2.8545049e-01  1.8982680e-01  1.0995068e-02 -2.0425942e+00
 -1.8427577e+00 -1.3589838e-02 -3.7564664e+00 -3.6082892e-03
  1.6941761e+00  2.7021473e-02 -3.3461103e-01 -1.5260454e-01
 -5.8323014e-01  1.1418414e+00  1.6072029e-01  3.0917665e-01
 -2.6699648e+00 -5.5330589e-02 -8.6136200e-02  1.5107991e+00
 -1.1408954e-01  3.3512828e-01  1.6252607e-01  8.4527022e-01
 -1.0027038e+01  4.8931751e-01  7.3668081e-01 -2.5471063e-02
 -1.6579373e-01 -7.9503860e+00 -2.6132828e-01 -6.3202351e-01
 -8.2315010e-01  2.4561699e-01  1.6631225e-01 -2.9574056e+00
 -5.0304632e+00 -2.0530908e+00 -4.1636887e+00  7.6342644e-03
 -7.9428134e+00 -2.1467886e+01 -2.7096674e+00  1.4989106e-01
  2.4295545e-01 -3.2536421e+00  7.5299609e-01 -5.0334907e-01
 -2.3409611e-02 -1.8771617e+00 -4.9077204e-01  1.6011336e-03
  1.3169343e+00 -9.7949558e-04 -6.4407754e+00 -3.4250930e-01
  4.0339267e-01 -4.6454582e+00  7.1643062e-02  2.7659586e-02
  4.5899877e-01 -1.4653319e+00  8.3312824e-02  9.5265761e-02
  7.8918779e-01  2.0790121e-01 -6.4623106e-01  8.8030094e-01
 -2.3643357e-01  5.6838505e-02  5.8580153e-03  1.0355942e-01
 -1.7751659e-01  2.4794273e+00  7.9199187e-02  3.5919645e-01
 -4.4121370e-01  1.1062921e-01  5.5885869e-01  2.6533061e-01
  3.6885384e-03  2.8154537e-01 -4.1000304e-01 -3.6811098e-03
 -4.7149267e+00 -3.0176902e+00  2.0266464e-02 -7.8572715e-03]
[ 1.71997190e+00  1.49582636e+00  3.33713084e-01 -1.63256168e+00
  1.76702166e+00 -3.40548062e+00  3.20023507e-01  3.88270229e-01
  2.80717659e+00 -3.04400139e-02  9.00904560e+00 -1.50795013e-01
  3.11506462e+00  1.69756675e+00 -1.37607560e-01  3.91363716e+00
  8.13320923e+00 -1.07658580e-01  3.86189771e+00 -2.37265185e-01
 -9.45060492e-01  6.32151747e+00 -5.29599845e-01 -2.21033633e-01
  1.39006281e+01 -1.05896458e-01  3.52507114e-01 -3.93898416e+00
  2.33616933e-01 -5.76446295e-01 -4.34803516e-01 -4.23742503e-01
 -6.20078921e-01  8.60417128e-01  5.39063215e+00 -2.04055622e-01
  1.47256076e+00 -5.28632283e-01  2.72819662e+00  2.23594785e+00
 -2.71055984e+00  2.98527265e+00  9.77982616e+00 -2.51542091e-01
 -1.92245615e+00  2.07086515e+00 -5.95556259e-01  9.57218826e-01
  5.56457460e-01  9.94939089e-01  2.94761872e+00 -1.13482617e-01
  3.09542388e-01  3.93049455e+00  3.47047925e+00 -2.34998196e-01
  2.73172885e-01  2.49882293e+00  3.13785148e+00  1.70385385e+00
  3.78842139e+00 -2.57923102e+00  8.79298401e+00 -1.47145435e-01
 -9.91162300e-01 -1.31382830e-02  5.54988623e+00  1.30308819e+00
  5.08919048e+00  3.69727239e-02  1.74002695e+00 -3.35214466e-01
 -4.18244004e-01  1.24289763e+00  1.72108614e+00  4.22746754e+00
  3.06708169e+00  1.90944207e+00 -8.04830551e-01  4.99148321e+00
 -1.02155504e+01  5.74918091e-01 -1.42718747e-01  7.78779209e-01
  7.43892431e+00 -2.15997410e+00  3.57530856e+00 -1.57409146e-01
  1.38260913e+00 -2.58652776e-01  1.37386608e+00  3.96129560e+00
 -1.53296351e-01  1.01988721e+00  1.76403213e+00 -1.73410252e-01
  1.34351182e+00 -1.00612962e+00 -1.11342676e-01 -1.02269746e-01]
[ 3.21286440e+00  1.02358561e+01  1.13176746e+01  2.47070408e+00
  6.12825513e-01  2.33175921e+00  8.93819618e+00 -8.32082272e-01
  7.09324121e+00  1.50504851e+00 -6.21491551e-01 -4.09700423e-01
  3.34689784e+00  4.72502947e+00 -6.19732477e-02  1.01251135e+01
  4.60224009e+00 -1.13984141e-02  5.81374884e+00 -7.72360265e-02
 -2.05484414e+00 -2.91632247e+00  1.49867535e-01 -1.35108900e+00
  8.04034805e+00 -3.98572497e-02  5.03066397e+00  4.36667633e+00
  1.82123435e+00 -4.53238040e-01 -2.71827042e-01 -1.23312318e+00
 -4.81447518e-01  2.72624755e+00  3.77339035e-01 -6.09761178e-01
  8.58484936e+00  1.47188187e+00 -4.75015074e-01  4.19152832e+00
  1.24677694e+00  6.40830612e+00  1.27181177e+01 -1.11157537e+00
  3.52547479e+00  5.82213593e+00  5.15276337e+00  5.72549105e+00
  5.45573902e+00  4.82304955e+00  6.63515186e+00 -5.70618138e-02
  5.00200605e+00  4.76700497e+00  3.19449568e+00  7.80295670e-01
  3.42518520e+00  3.98143744e+00  5.92240810e+00  1.12867451e+01
 -5.73304558e+00  4.73265076e+00 -5.86207008e+00 -2.97939777e-02
 -1.27213991e+00 -2.50962805e-02  1.45188770e+01  1.61854351e+00
  2.98126030e+00  3.22756290e+00  3.71343684e+00  3.74609256e+00
 -6.94605470e-01  4.37165833e+00  9.37861156e+00  4.78964996e+00
  5.99115896e+00  3.69913673e+00 -1.47754884e+00  3.88282633e+00
  3.79119444e+00  5.68054199e+00 -3.64930220e-02  2.49990392e+00
  1.22565699e+00 -1.31720531e+00  1.28706865e+01  2.49815479e-01
  4.60311174e+00  5.78977060e+00  6.95796156e+00  3.82130742e-01
 -5.90137281e-02  1.00803304e+00  1.26764739e+00 -7.21211657e-02
  6.90267277e+00  3.19356275e+00 -1.21402722e-02  6.91477582e-03]
[ 8.3594990e-01 -6.0188162e-01  4.3399839e+00  6.6761279e-01
 -8.4563103e+00  9.0319449e-01 -1.0975029e+00 -3.4184210e+00
 -1.8906081e-01 -1.6131479e-01  6.7691569e+00 -6.4848399e-01
  1.7664113e+00  6.5891314e-01  4.3752715e-02  1.9187385e+00
 -8.4710020e-01  4.3818586e-02  3.2787397e+00  7.3603407e-02
  4.4816232e-01  8.6626348e+00  4.0134898e-01  3.2287362e-01
  5.8790264e+00 -6.5556891e-02 -6.6709656e-01 -7.2518158e-01
 -4.6706954e-01  9.7248989e-01  1.4657234e-01  3.5418710e-01
  3.0573401e-01  8.0992013e-01 -1.8048340e+00  1.6644640e-01
 -1.4017063e-01 -8.8878918e-01 -1.7128491e+00  9.4253033e-01
  1.7142566e-01  2.6178682e+00  9.7687263e+00  1.7196122e-01
  1.2337607e+00 -3.9500940e-01  7.1422651e-02  4.8792258e-01
  1.8039505e+00  5.0718206e-01  3.1002113e-01  3.1905293e-02
 -8.5363311e-01  8.4247339e-01  2.7782435e+00 -2.0299566e-01
 -4.4153581e+00  2.0483861e+00  2.7486062e+00 -1.6810228e+01
  5.0769460e-01 -3.1756186e-01 -1.0235324e+00  9.2967235e-02
  6.3173431e-01  1.3984224e-02 -2.6162145e+00  1.4546341e+00
 -1.7105401e+00 -4.1940015e-02 -9.8327327e-01 -2.6176107e-01
  3.5614747e-01  1.8126054e-01 -1.1431648e-01  5.3697104e+00
  2.6195455e+00 -3.3845494e+00  2.1672168e+00 -1.2584966e+00
  9.2593412e+00  2.7295923e+00  2.6069622e-02 -4.7299090e-01
  7.7920303e+00 -1.1492875e+00 -3.8853815e+00  2.2826688e-01
  2.0336832e-01  2.2224410e+00  4.7643040e-03 -2.4070141e+01
  5.4134581e-02 -7.7583030e-02 -8.2856035e-01  5.2163880e-02
  1.8827173e-01 -1.5706995e+00  7.3693857e-02  4.7519151e-02]
[-5.89240849e-01  1.36810958e-01 -6.92942560e-01 -3.75568700e+00
  1.10603645e-01  9.74178672e-01 -9.51643229e-01 -7.32120633e-01
 -7.51017392e-01 -1.50959933e+00  2.32660457e-01 -7.41259158e-01
 -6.80023551e-01 -2.24654293e+00 -2.51836237e-02 -3.35370660e+00
 -1.02527845e+00  1.46283507e-02 -5.48881948e-01 -1.29694715e-02
 -1.37474823e+00  6.07753545e-02 -6.67966977e-02 -9.92181599e-01
  3.55895072e-01  4.80127707e-02 -1.56378940e-01 -5.70861769e+00
 -8.66676450e-01 -7.10179031e-01 -7.34028912e+00 -1.76845670e-01
 -4.98816681e+00 -1.33545518e+00 -7.12099791e-01 -7.50763193e-02
  1.82008073e-01 -1.33386791e+00 -2.81341386e+00 -1.29992211e+00
 -6.64985037e+00 -7.58668041e+00 -1.44063652e+00  6.63480759e-01
  1.42836428e+00  6.94529787e-02  4.56905574e-01 -1.35501337e+00
 -2.70947099e+00  2.04411447e-01 -5.49607538e-02  1.27722882e-02
  5.59812076e-02  1.21877581e-01 -6.36091605e-02 -4.55606222e+00
  6.82115376e-01 -1.41565466e+00 -2.75037169e-01 -2.83608794e-01
  1.76058695e-01 -6.24924839e-01 -3.86425197e-01 -6.00129180e-03
 -5.11787117e-01 -7.12461770e-03 -3.31225276e-01 -1.55731797e+00
 -9.10727829e-02 -3.10059369e-01 -1.96346059e-01 -1.80906773e+00
  9.79110479e-01 -1.93859172e+00  4.18027782e+00 -2.30986968e-01
  1.71679175e+00 -9.55736756e-01 -3.64785492e-01 -2.25983715e+00
 -1.39442533e-01 -4.84285450e+00  2.19664946e-02 -1.22431731e+00
  1.79875404e-01 -2.25483537e-01  6.98422730e-01  9.23978761e-02
  1.32592452e+00 -3.31924498e-01 -8.32332253e-01 -6.02374487e-02
 -1.89210996e-02 -6.80068016e-01 -3.17962497e-01  1.90006625e-02
 -1.26200342e+00  1.72227335e+00 -2.84475796e-02 -6.74521411e-03]
[ 7.8630457e-03  7.0226035e+00 -2.9485016e+00 -1.3412887e+00
 -8.7596707e-02  3.2466862e+00  2.1534739e+01 -1.2118806e+00
  1.5826189e+01  2.2185664e+00  9.9305612e-01 -4.9472314e-01
  2.1979394e+00  4.4461923e+00  8.4468182e-03 -2.8907880e-01
  8.0894327e+00  3.0568862e-02 -1.9918748e+00  5.5149075e-02
 -3.5998943e-01 -3.2670179e-01 -4.0846257e+00 -1.7955797e+00
  3.0482525e-01  4.5829515e+00 -2.0507483e-01 -1.2775404e+00
 -5.4250512e+00 -1.5112830e+00 -1.4071180e-01 -6.1015165e-01
  4.1149061e-02  1.6253300e+00  3.5635998e+00  1.2867388e+00
  1.4989836e+00 -8.0881482e-01  3.2719305e+00 -5.8890682e-01
  6.3684672e-01  2.2450171e+00  8.8269514e-01 -1.0817113e+00
  1.7184132e+00 -2.4074349e+00  1.2415473e+00  3.8713062e+00
 -1.2637048e+00  1.8860929e-01 -9.4124269e-01 -4.4472456e-02
  2.1671104e+00  3.8722503e+00 -8.3697397e-01 -1.5186338e+00
 -6.2710369e-01  1.3318113e+00  2.4025834e-01  4.8865924e+00
  5.3707887e-03 -9.4301090e-02  9.8855448e-01  2.1695949e-02
  1.4895277e+00 -5.1432638e-03  4.1480379e+00 -6.0529560e-01
 -1.9248964e+00  1.7098213e+00 -9.3529940e-01 -6.2873375e-01
  3.0606790e-03 -2.8257616e+00 -4.1254835e+00 -1.5552788e+00
  3.6230314e+00  1.0763615e-01 -3.7055257e-01  1.7644506e+01
  1.8674479e+00 -5.8246311e-04 -6.2675565e-02  4.2418095e-01
  2.2771503e-01 -8.2543981e-01 -1.7078743e+00  2.8894663e+00
  3.6156113e+00 -5.4780257e-01  1.2926112e+01 -1.7578082e+00
  1.6090281e-02 -2.0652690e+00  2.2626419e-01  2.8102305e-02
  1.9757935e-01  3.4350653e+00 -2.5980310e-03  5.4727793e-02]
[ 3.21021557e+00  2.44966835e-01  2.35415554e+00 -2.60575980e-01
 -2.27434421e+00  7.06617713e-01  6.67280912e-01 -6.83055043e-01
 -1.07346988e+00  3.89924683e-02  3.48612547e+00 -4.69119453e+00
 -5.21792322e-02 -5.58313191e-01  1.94046684e-02 -1.75446999e+00
 -1.45129883e+00 -8.62380117e-03 -3.28306055e+00  1.52636394e-02
 -1.61425829e+00 -1.75274348e+00 -5.51592302e+00  9.02374327e-01
  5.82780075e+00 -1.39461911e+00 -3.51811671e+00 -2.88379002e+00
 -1.27982652e+00 -2.04390454e+00 -3.02592814e-01  8.95867199e-02
 -6.94241047e-01  8.05517808e-02  1.03474069e+00 -1.40126550e+00
  1.22846566e-01  2.52090812e+00  3.65723896e+00 -2.02849793e+00
 -4.96678638e+00  3.08774292e-01 -6.94848347e+00 -1.58345354e+00
 -4.97843623e-02  1.23571539e-02 -8.44992995e-02 -1.39286959e+00
 -1.37035918e+00 -4.02392298e-02 -2.84253883e+00 -3.67829353e-02
 -1.54067206e+00 -3.26406670e+00  8.15303504e-01 -9.35585022e-01
 -8.75223160e-01 -4.18505096e+00  1.56309319e+00  6.16845846e-01
  1.54668987e-01  2.51412821e+00 -2.38294888e+00  1.73385087e-02
 -2.62819242e+00 -3.04391189e-03  9.13309395e-01 -8.81536543e-01
 -9.56940711e-01 -6.44015610e-01 -2.10927105e+00  1.73626840e+00
 -1.68709862e+00 -2.89222765e+00  5.41926718e+00 -1.51943338e+00
 -2.07062888e+00 -4.91827774e+00 -2.23947310e+00  6.27335310e-01
  3.43949646e-01 -1.87068331e+00 -2.05997489e-02 -1.83916557e+00
  2.61364126e+00  1.74615419e+00 -8.80861938e-01  4.38689813e-02
 -7.94572055e-01 -3.79353791e-01  3.36888880e-01  2.24779272e+00
  2.61416417e-02 -5.70983469e-01  3.73484135e-01 -1.87954982e-03
  1.09228873e+00 -7.31588781e-01  2.40996294e-02  6.43806159e-03]
[ 5.73742390e-01 -8.18548918e-01  4.39472079e-01 -9.70167339e-01
 -2.30566412e-01  2.08337069e+00  1.45024037e+00 -5.15992463e-01
  1.31431460e+00  8.47726822e-01  9.90205929e-02 -4.24600571e-01
  6.15367115e-01 -5.62095463e-01 -1.53552350e-02 -2.77068853e+00
  3.93042064e+00  3.64589989e-02 -1.01329350e+00  2.57556699e-03
 -1.33280592e+01 -5.79918101e-02 -5.75271845e+00 -2.78293341e-01
  1.46938145e-01 -7.95199490e+00 -2.75182396e-01 -4.80396859e-03
 -2.10072756e+00 -1.27151012e+00 -8.51685330e-02 -7.67610407e+00
 -6.49580434e-02 -8.10597420e+00 -5.25398135e-01 -6.03851938e+00
  1.88656402e+00  1.64107848e-02  2.27738507e-02 -1.09032714e+00
 -1.88431680e-01  1.65342605e+00 -1.01557255e+00  5.74648440e-01
  1.11719012e+00 -1.20697647e-01  5.14074922e-01 -2.17147803e+00
  1.03659570e-01  3.03740114e-01 -4.72147512e+00  3.37243080e-02
 -1.44310868e+00 -1.74674091e+01  3.91691118e-01 -9.00571048e-02
  6.78764999e-01 -5.56165576e-01  9.55583081e-02  4.40861434e-01
  1.79643333e-01 -4.50353146e-01 -1.80817500e-01  3.34672513e-03
 -1.09136629e+01  1.64652206e-02  2.00008154e+00 -6.10048413e-01
 -4.30144995e-01  1.47033483e-01 -3.36994827e-01 -1.95123911e+00
  7.33897328e-01 -2.41762280e+00 -1.06627789e+01 -1.28286064e+00
  1.54419434e+00 -2.51956433e-01  2.93841451e-01  1.67946625e+00
 -2.23748684e-02 -2.02961490e-01  3.42967287e-02 -2.18177482e-01
  4.66895886e-02 -3.22954464e+00  5.16160429e-01  2.88655348e-02
  2.07733727e+00 -3.75680059e-01  1.87040353e+00 -1.50362462e-01
 -1.21571785e-02 -1.05157757e+00 -8.10347140e-01  2.03995835e-02
 -2.84357131e-01 -1.93873203e+00  1.57853495e-02  1.48220938e-02]
[ 3.2688944e+00 -1.3588388e-01 -2.6179988e+00  1.2485427e+00
 -5.1046624e+00 -1.4654371e+00 -5.0687832e-01  3.0605917e+00
 -1.9612596e+00  4.9320051e-01  3.4492488e+00  6.8576059e+00
  1.2393068e+00  1.4607517e+00  2.9570205e-02 -2.1072552e+00
  2.0559139e+00 -2.4705574e-02 -2.6941471e+00  9.2362817e-03
  7.1139526e-01  2.9803655e-01 -5.1079273e-01  6.0633057e-01
  5.8230801e+00  1.3314132e-01  2.3090221e-01  4.5103426e+00
 -1.7670132e+00 -2.0691862e+00 -1.0917006e+00 -2.3195843e-01
 -2.4936964e-01 -1.9129503e+00 -9.7654027e-01  1.0364924e-01
 -1.2074318e+00 -3.8749080e+00  9.3438290e-02  3.3656361e+00
  8.5088003e-01 -1.4116554e+00  9.7102028e-01  1.5121211e-02
 -3.8918704e-01 -1.4107333e+00  3.1860277e-01  4.2856064e+00
  1.1792493e+00 -2.8045544e-01  2.8352618e-01  1.0701644e-03
  3.8010722e-01 -5.4768562e-01 -3.8213110e+00  1.2737131e+00
  2.4602553e-01 -1.2727607e+00  1.9360751e+00  4.0035300e-02
 -3.2739472e-02 -1.1861179e+00 -3.0160048e+00 -4.3690302e-03
  1.1687931e-01  1.4033334e-03  8.4371006e-01  4.8560822e-01
  1.0143316e+00 -2.1857008e-01 -2.7084889e+00 -2.1147123e-01
 -4.6784419e-01  3.4408245e+00 -6.9449444e+00  2.6844046e-01
 -1.3362867e+00 -4.7214370e+00  7.2763503e-02  2.8762612e-01
  4.1919592e-01 -1.7025164e+00 -1.1990169e-02  2.2922108e+00
  2.7361145e+00 -1.3895366e+00  1.5109727e+00  1.1486466e-01
 -6.1552298e-01  8.2489300e-01 -7.7472746e-01 -2.2029767e+00
  1.3228968e-02 -6.8193918e-01  1.8718624e-01 -1.3672359e-02
 -2.6234126e-01  1.1003647e+00  1.2695638e-02 -2.0928939e-03]
[ 6.3358493e+00  3.4502046e+00  7.3168111e+00 -2.8137255e+00
  3.9488202e-01 -6.6226268e-01  3.5841401e+00 -3.1278667e+00
  2.5921223e+00 -7.4936873e-01  1.6125508e-01 -2.2130585e+00
  1.7253703e+00  1.9416460e+00  2.9302780e-02  4.3602657e+00
 -3.4662797e+00  1.3529610e-02  4.9218688e+00  5.3815991e-02
 -6.6170126e-01  2.2012084e+00  2.8785983e-01 -3.3306408e-01
  3.0290306e-01  2.8106567e-01  9.9061078e-01  6.5822487e+00
  3.3822575e-01  1.1495498e+00  1.4311598e-01 -4.6057850e-01
  2.3895301e-01  1.8474625e+00  2.2712691e-01  1.8068600e-01
  4.2472992e+00  3.2160106e-01 -3.3271613e+00  1.6909320e+00
  1.3312452e+00  2.8927350e+00  9.7761221e+00 -2.8899699e-01
 -9.9672604e-01 -3.3297508e+00  7.4645750e-02  7.1268306e+00
  2.6475041e+00  2.8082414e+00  5.6148648e+00 -2.2691468e-02
  4.2474241e+00  5.0156693e+00  2.7128549e+00 -3.7308729e-01
  4.2632957e+00  2.4956014e+00  2.2519479e+00  5.6133831e-01
 -1.6839425e-01  5.3459644e+00 -2.1785789e+00  4.3378547e-02
  9.1286726e-02  3.2343090e-02 -1.1031733e+00  4.3189427e-01
 -9.3342791e+00  2.2315514e+00  1.9922656e+00 -2.1447098e+00
 -3.0455413e-01  1.2675445e+00  2.2708573e+00  2.8767955e+00
  2.6924770e+00 -4.2725415e+00 -1.3053192e+00 -1.0777462e+00
  3.4551060e-01  6.1632838e+00 -3.4013361e-04  1.1678498e+00
 -5.4094095e-02 -4.9466414e+00  6.2619553e+00  3.7361035e-01
 -2.2624618e-01  1.3788785e+00  1.8818482e+00 -1.1031745e+01
  3.7960112e-02  1.1966918e+00 -4.0902650e-01  6.3037828e-02
 -4.5124814e-01 -2.6474714e-01 -5.3264812e-02  7.5245872e-02]
[-4.99645650e-01 -3.35966849e+00 -5.26535749e+00  3.65308046e-01
 -3.39738786e-01 -3.80290937e+00 -7.37369871e+00 -1.82377005e+00
 -4.37772322e+00 -1.08255565e+00 -3.68367583e-01 -6.94977331e+00
 -1.18471670e+00 -6.28203106e+00  1.36889080e-02  3.55729699e+00
 -5.41724586e+00 -2.11567394e-02 -1.13453507e+00  4.16432595e-04
  1.50028934e+01 -1.32066309e-01  1.81384969e+00 -6.38573837e+00
 -1.10063350e+00  1.66482711e+00  6.01896822e-01  7.20582128e-01
  3.13990831e+00  1.10499358e+00  1.26601502e-01  8.74214649e+00
 -1.00912519e-01  4.02353287e+00  1.15133047e+00  1.75520504e+00
 -7.85226822e+00  1.19262612e+00 -5.61753750e+00 -7.00262606e-01
 -7.28469253e-01 -1.34203744e+00  3.97159863e+00 -3.77002656e-01
  2.40955085e-01  3.67880851e-01 -8.20783302e-02 -7.70979500e+00
  4.07748222e-02 -2.27760762e-01  6.55137300e-01 -1.93591341e-02
 -2.11782932e+00  6.65685940e+00  1.39483988e+00 -1.66114077e-01
 -3.13576847e-01 -6.13864660e-01 -1.93049908e-01 -4.46873605e-01
 -1.11704886e-01  7.66646504e-01  7.33378604e-02  4.12630057e-03
  6.99212456e+00 -2.87944861e-02 -1.19149864e+00  5.18097460e-01
  4.04397368e-01 -5.98031640e-01 -8.42366889e-02  1.11670780e+00
  4.24686998e-01  1.04670238e+01  1.01068888e+01  2.62444830e+00
 -5.89845240e-01  1.05306029e+00 -3.94470406e+00 -1.48731260e+01
 -1.35789337e-02 -5.44129610e-01  1.50080612e-02 -8.51095915e-01
 -1.52148336e-01  8.74592662e-01 -3.15601975e-01  6.25409305e-01
 -1.56899393e+00 -2.22337198e+00 -5.35425329e+00  2.98899442e-01
  3.86756030e-03  9.60261106e-01  2.01855704e-01 -1.38560832e-02
 -4.21355295e+00  3.15401292e+00 -4.44584414e-02 -2.55474616e-02]
[-4.69091147e-01  3.03895354e-01  2.76334476e+00  2.75233674e+00
  4.51838493e-01  1.47086725e-01  2.70917797e+00 -1.27737927e+00
  1.77700758e+00  8.75116885e-01  2.12471962e-01  7.90169418e-01
 -4.33611202e+00  1.11934447e+00  1.27442360e-01  1.39249623e-01
  1.40340662e+00  4.47442336e-03 -1.30818880e+00  7.80124813e-02
 -2.93260694e+00  8.77353013e-01 -8.50915983e-02  1.56464422e+00
  9.70502436e-01  2.54186660e-01 -6.89972496e+00 -1.82961321e+00
  5.62945724e-01 -1.76137650e+00  1.48870289e-01 -3.20802629e-01
  5.51639087e-02  7.10358679e-01  9.21063364e-01  1.46147981e-01
  1.97682059e+00  7.51467943e-02 -2.08169055e+00  1.36192679e+00
 -3.03496528e+00 -1.61689207e-01 -6.09204483e+00  6.54031694e-01
 -3.76518273e+00  6.26846075e-01 -1.32115230e-01  9.46650505e+00
  3.99103260e+00  8.47237766e-01 -2.37838578e+00  1.81467514e-02
  1.28192401e+00  1.26168597e+00  9.74287450e-01  5.23661435e-01
  3.43691039e+00  3.84885883e+00  3.42476749e+00  1.58508050e+00
  3.62378024e-02  3.17528605e+00 -3.99462986e+00  5.95395938e-02
 -7.15204358e-01 -2.76925904e-03 -7.71762848e+00  2.21424103e+00
 -1.25633311e+00  1.41271710e+00  1.20103228e+00  1.37592530e+00
  7.56992519e-01  6.16170883e+00 -7.17559004e+00  4.24128145e-01
 -7.83778954e+00  2.35962462e+00  1.06965816e+00  1.70387864e+00
  5.20621352e-02  1.31840897e+00 -7.28523359e-03 -1.84595555e-01
  7.53202498e-01 -1.22869551e+00  1.85810059e-01 -2.58882165e-01
 -1.84424341e-01  3.73979300e-01 -1.63416767e+00  1.34016824e+00
  9.58751664e-02 -1.22889984e+00  2.85882568e+00  1.11490704e-01
  3.32806683e+00  3.14776587e+00  5.49845807e-02 -2.86805704e-02]
[ 4.3702286e-01 -2.9683561e+00 -8.2926054e+00 -2.0575638e-01
  2.9794106e+00  1.2042511e+00 -2.7431030e+00  5.2757472e-01
 -7.3546667e+00  1.3486122e-01 -1.4769987e+00  5.1956958e-01
 -1.4336284e+01 -2.3208380e+00  3.2661599e-03 -9.9594450e+00
 -4.3950248e+00 -1.5344057e-02 -1.4571124e+01 -2.1091225e-02
 -9.2611134e-01  5.6243128e-01 -4.2015523e-01 -7.6379918e-02
 -3.6833050e+00 -2.2719844e-01 -1.9813244e-01 -3.3275318e+00
 -1.4585317e-03 -1.5827913e+00 -3.6892548e-01 -3.7125313e-01
 -4.1189790e-01 -5.5219789e+00  3.9002213e-01 -3.2011482e-01
 -1.0831545e+01  1.1281142e+00  5.9253473e+00 -6.1633248e+00
  6.0101473e-01 -1.0508533e+01 -2.1915451e+01 -3.6447868e-01
 -1.2959019e+00 -3.3532608e-01  3.8511974e-01 -4.1175485e+00
 -1.3042001e+01 -1.4739771e+00 -6.5376940e+00  2.0693964e-03
  3.5448772e-01 -7.3963881e+00 -2.0280554e+01  1.0685678e-01
 -5.0623232e-01 -5.9716196e+00  1.5790994e+00  1.8118931e+01
  6.5563149e+00  8.8397092e-01 -6.3024551e-01 -4.4320580e-02
 -1.1282871e+00 -2.1750061e-02 -1.0967879e+01 -4.6744690e+00
  4.4940977e+00  1.1855601e+00 -3.0806317e+00  4.9328038e-01
 -9.7456193e-01 -6.7345490e+00 -1.6862811e+00 -1.9191055e+01
 -1.4600752e+01  1.4299182e+00 -2.2552485e+00 -8.7700872e+00
 -1.0115881e+00 -6.3862576e+00  9.4957845e-03 -3.0568883e+00
  2.1520615e-01 -6.2607743e-02 -2.8661528e+00  3.1858736e-01
 -1.9502355e+00 -1.2563477e+00 -5.2651873e+00  7.9688110e+00
 -1.7075125e-02 -1.0225533e+00 -4.1480560e+00 -2.0289965e-02
 -5.6912494e+00 -5.8470588e+00 -5.5065975e-02 -6.8362447e-04]
[-2.5114436e+00 -4.9460430e+00  4.1817312e+00 -2.2228749e+00
 -6.7144018e-01  7.3359246e+00  1.6975737e+00  1.6817220e-01
 -7.9753464e-01 -4.9980533e-01 -2.2725444e-02 -3.2885838e+00
 -2.0471914e+00 -1.0230275e+01  5.7732474e-02  2.1074286e+00
  5.9425492e+00  6.0781527e-02  1.9440908e+01  1.3054294e-03
 -3.2203164e+00  2.7576215e+00 -7.6197588e-01  1.0319719e+00
 -7.7431485e-02 -3.8073089e+00  1.6442989e+00 -4.8414078e+00
  1.9334986e+00 -3.5902960e+00 -3.4961872e+00 -1.1255697e+00
 -2.9749885e+00 -4.1139617e+00  2.6475844e-01 -2.9709570e+00
  1.2678862e+00  2.4420919e+00  3.9199555e+00 -3.0074136e+00
 -2.1845324e+00 -2.7077506e+00  9.6931381e+00  1.0786186e+00
 -5.4609718e+00 -5.2058110e+00 -5.2070360e+00  4.9428101e+00
 -3.1647100e+00 -3.9596446e+00 -4.6272550e+00  1.2208786e-01
 -5.2998333e+00 -1.2634528e+01 -4.8515955e-01 -1.4242761e-01
 -2.3173776e+00 -2.3673844e+00 -3.3429127e+00 -3.2586255e+00
 -1.3481706e+00  3.3876719e+00 -1.3620261e+00  1.3658097e-02
 -3.9190326e+00  3.6921974e-02  2.2213538e+00 -7.6259966e+00
 -9.1069860e+00 -5.2924404e+00  5.2140195e-02  3.7356472e+00
 -1.9913785e+00 -1.0958062e+01 -4.8660707e+00  6.3238740e+00
 -2.0095494e+00 -9.3368835e+00 -2.2214086e+00  2.8619905e+00
 -5.0306773e-01 -5.3763714e+00  1.6206417e-02 -1.6517559e+00
  1.4050578e+00 -9.5576596e-01 -3.8686714e+00  3.7528634e-01
 -9.4888287e+00 -6.1167088e+00 -8.8032240e-01  4.0808845e+00
  3.5155555e-03 -2.0636861e+00 -4.8738713e+00  9.5702469e-02
  4.1066213e+00 -1.2394749e+00  2.9777363e-02 -3.8979698e-02]
[-1.32624459e+00 -5.20491861e-02 -2.36781985e-01  1.65706575e-02
  1.77042007e-01  6.92894816e-01  2.85526931e-01  2.48820588e-01
  1.51684240e-01  3.25346366e-02 -1.55005395e-01  5.03377579e-02
 -3.70087594e-01  4.94046420e-01 -1.15607129e-02 -1.21431768e-01
  4.37318265e-01 -1.85909178e-02  8.21997821e-01 -1.75273921e-02
 -1.50305405e-01 -3.68248045e-01  4.63323034e-02  8.14408213e-02
 -9.21545029e-01 -1.85078215e-02  6.40422225e-01 -1.21102318e-01
  1.05334289e-01 -1.19806990e-01  1.55151794e-02 -9.38924178e-02
  4.10628393e-02 -1.82212025e-01  7.01316714e-01  1.74432509e-02
 -4.76244181e-01 -4.34616178e-01  9.17545259e-01 -8.92235264e-02
  7.82112852e-02  1.18441522e-01  9.62566257e-01 -2.45335743e-01
 -7.29141712e-01  2.11171913e+00 -6.54524267e-02  1.05049360e+00
  1.16313234e-01  5.33857405e-01  1.74697697e-01  1.76469737e-03
  3.72228563e-01  4.59719628e-01 -1.41777784e-01  1.46429375e-01
 -3.03100795e-01  3.52970749e-01  1.27777023e+01  5.87058783e-01
 -8.52640867e-02  1.94561690e-01  1.99372971e+00  3.29970419e-02
  8.07834938e-02 -4.58046645e-02  1.10096943e+00  4.06874895e-01
  7.45492649e+00  2.32110426e-01 -8.78977105e-02  3.45680952e-01
  1.27049714e-01  9.50526595e-01  1.33675737e-02  7.11619735e-01
 -1.08130500e-01  1.22466832e-01  1.75934985e-01 -2.23121401e-02
 -4.04100806e-01  3.05498958e-01 -9.20781866e-03 -1.26815766e-01
 -4.41760927e-01 -2.98885144e-02 -2.58669794e-01 -8.86872225e-03
 -6.94364250e-01  4.82076973e-01 -1.89673796e-01 -6.65697098e-01
 -2.60916725e-02 -1.37770265e-01  1.35888720e+00 -3.09547540e-02
  6.74010158e-01  1.18122317e-01 -5.66673325e-03 -2.49843616e-02]
[ 2.36331391e+00 -4.04326469e-01 -7.47331238e+00 -1.65631924e+01
 -2.93112546e-01 -1.37026048e+00  3.28546572e+00  1.92462778e+00
  1.41153228e+00  4.62103701e+00  2.28348091e-01  8.83801162e-01
  2.77293563e-01  2.75991154e+00 -1.15270782e-02 -1.98624039e+00
  4.33137274e+00  5.21491282e-02  5.29787183e-01  4.90342043e-02
 -6.20223522e-01  7.24400878e-02 -7.69770965e-02 -4.15816879e+00
  3.23795170e-01 -1.69143930e-01 -8.83123994e-01 -4.01308680e+00
  1.17596388e-01 -1.83972210e-01 -1.87409317e+00 -6.53748930e-01
 -4.48382914e-01  3.12546462e-01 -1.97588303e-03 -1.43009350e-01
  1.22460401e+00 -2.90588200e-01  5.34409475e+00  3.39442253e-01
  1.18165225e-01 -9.64203262e+00 -3.66398048e+00  1.00612521e+00
  1.30042762e-01  1.65257469e-01 -1.36249036e-01 -1.03982484e+00
 -2.34190865e+01 -5.76403856e-01  1.30865246e-01 -9.22497921e-03
 -6.33326769e-01  1.12084830e+00 -2.38515449e+00 -8.73332691e+00
  8.64053428e-01  1.98050439e-01 -2.22143129e-01 -9.63568985e-01
  5.89715876e-02  1.31184053e+00 -4.34599429e-01  3.76179665e-02
  8.16018879e-02  9.81168151e-02  2.17010808e+00  1.25388908e+00
  3.54949990e-03 -5.25959551e-01  1.97576165e-01  1.42792821e+00
 -1.49218690e+00  4.10907209e-01 -6.92558241e+00 -2.00961018e+00
 -4.97637320e+00 -1.60240250e+01 -8.04553866e-01  4.77189732e+00
 -6.64240867e-02  9.01654065e-01  5.74219925e-03  3.79514843e-01
  2.30362505e-01  7.56870024e-04  1.10317504e+00 -4.34608841e+00
 -1.88590026e+00  7.08178759e-01  1.50184190e+00  6.15137815e-01
  1.95724834e-02 -2.97018379e-01  1.13040471e+00 -4.36362810e-02
  2.80763578e+00 -6.05902314e-01  4.24439348e-02  3.65796909e-02]
[ -4.492428    -8.407288    -9.248093    -2.627127    -5.7233105
  -3.8755481   -9.755672    -1.9752705   -9.505182    -6.905082
  -7.291961     0.7122971   -3.1302044   -1.9343041   -0.09180243
  -9.977538   -11.401338    -0.06629069  -6.116367    -0.08910277
   3.038785    10.232083    -5.6541348    0.6038949   -9.753088
  -1.450713    -3.4003694   -5.1433845   -0.02565022  -1.6819376
   0.72561073   0.55194926  -2.5428731   -3.612164   -12.211258
  -0.5146087   -7.35538     -3.626729    -7.5755672   -4.32876
  -8.1265545   -6.4109426  -14.686189     0.8134158   -8.977657
  -8.715883    -5.644971    -4.3481874   -7.6410193   -4.5156584
  -9.019439    -0.03232493  -6.5676203   -7.515699    -3.66882
  -0.24357985  -4.73724     -4.6658645   -4.235095    -0.01569808
   8.191075    -6.356313    -9.403664    -0.06087322  -0.030146
  -0.09701101  -7.582834    -2.9488142   -6.0773315   -3.6994333
  -5.4503775   -0.28325418   1.9981861   -1.2567954   -7.3823295
  -4.2750115   -4.7666416   -6.943273    -0.53474534 -10.177786
  -0.5744349   -8.113449    -0.11948639  -2.443889    -4.9352307
  -3.1617434  -13.019332    -0.7175055   -1.344015    -5.0530376
  -5.372404   -13.205362    -0.08068129  -1.8925916   -2.201689
  -0.09252615  -7.400544    -2.9756794   -0.06456449  -0.12480798]
layer 7 Activation
elu
layer 8 Dropout
layer 9 Dense
100 1
[-0.11140554]
[0.08219513]
[-0.0609762]
[0.09877777]
[0.19397159]
[0.08444188]
[-0.1654124]
[0.07681672]
[0.27203]
[-0.0669118]
[-0.29853478]
[-0.06554994]
[0.09322364]
[0.1327272]
[0.00164727]
[0.18333642]
[0.105147]
[0.00014654]
[0.04568361]
[0.00077775]
[0.0560778]
[-1.0561703]
[0.55266815]
[-0.12148961]
[-0.1647487]
[-0.46950224]
[-0.20740022]
[0.18295394]
[-0.08618758]
[0.17948696]
[-0.6245355]
[-0.13312426]
[0.76192236]
[0.29498073]
[0.06794748]
[0.70693475]
[0.1479913]
[-0.06943922]
[0.03762276]
[0.10419248]
[0.35234794]
[0.08495159]
[0.06867927]
[-0.08811591]
[-0.07121339]
[0.14944276]
[-0.90593755]
[-0.05510602]
[0.19365115]
[-0.7162036]
[0.27930886]
[0.00126458]
[0.92788917]
[0.09086328]
[0.05197512]
[-0.10326959]
[0.1092902]
[0.28731838]
[0.03189053]
[-0.13667582]
[-1.4220288]
[0.08399168]
[0.07458944]
[0.00074701]
[-0.16937393]
[-0.00038401]
[0.06726608]
[-0.6744653]
[0.09312207]
[-1.0175301]
[0.31603926]
[-0.11210776]
[-0.19764724]
[0.07093206]
[0.02860154]
[-0.12923081]
[0.05441301]
[0.05390106]
[0.20922561]
[0.05120972]
[-0.3492284]
[0.7984635]
[0.00103083]
[0.5187737]
[-0.40732622]
[-0.0830868]
[0.1609637]
[-0.22960922]
[0.23803693]
[-0.6259331]
[0.08644561]
[0.15511677]
[0.00113913]
[0.22244215]
[-0.28839162]
[0.00138392]
[0.25677672]
[0.0353016]
[0.00034859]
[-0.00041986]
[-0.7918605]
