layers 10
layer 0 Dense
9 9
[-0.00457016  0.00809916 -0.00278159  0.10384057  0.03841637  0.06567705
 -0.0276387   0.00748033  0.42387512]
[ 1.38677925e-01 -7.00944394e-04 -9.10251886e-02  1.30635905e+00
 -1.46929994e-01 -1.05025016e-01  5.00436984e-02  4.08234484e-02
 -5.99257231e-01]
[ 0.339497    0.01236507  0.07185069 -0.00266695  0.22258793  0.18855429
 -0.11960146  0.08744712 -0.00586443]
[ 1.0876808  -0.00313434 -0.14487559  0.01429852 -0.32838315 -0.19320609
  0.12469047 -0.0425772   0.06521434]
[-0.02979509  0.01441559  0.09394457  0.00940963 -0.00720586  0.06652375
 -0.01368743 -0.36046025 -0.00757138]
[ 0.10982615 -0.14568268 -0.2360104   0.11312177  1.3551638  -2.284897
 -0.77568644 -0.04403123 -0.07760446]
[-0.26544312 -0.5142437  -2.8559806  -0.6750597   0.4926762  -1.2171911
 -2.4184775  -0.06795656  0.3045382 ]
[-0.0156252   0.05213575 -0.01770964 -0.00429161  1.9350855   0.09505832
  2.6539338   0.01765977  0.0127743 ]
[ 2.4779725e-03  7.3438659e+00 -1.0680836e-03 -2.7607679e-03
 -3.8598317e-03 -3.6072412e-03  1.6180916e-04  1.1803611e-02
  3.1461623e-03]
[-0.66417116 -6.19253     2.9115155  -0.47919062 -0.34092703  2.7897785
  2.3747091   0.18649691 -0.10198458]
layer 1 Activation
elu
layer 2 Dropout
layer 3 Dense
9 30
[ 8.1922477e-03  3.1349885e-01  1.1700062e+00  3.4412783e-02
  4.2018327e-03 -3.3973737e-04 -2.2827459e-02 -4.4852710e-01
 -1.1178540e-01  8.3457989e-01  2.4786429e+00 -1.0803567e+00
 -4.0083241e-01  1.4890631e-01 -7.4457121e+00 -3.9681178e-02
  4.5453122e-01 -1.1231833e-01  5.3617644e-01 -1.0025079e-01
 -2.4694346e-02  7.9156399e-01  8.2379263e-03  5.7157069e-01
 -7.4968696e-02 -3.3913679e-02 -1.0889025e+00 -7.4482900e-01
 -9.2437975e-02 -2.5361206e-02]
[-2.918761    1.4187273   0.17648965 -0.0789075  -0.08586589  4.4515705
 -1.755007    0.02540216 -0.04237509 -0.07441357 -0.08349726 -0.06695026
  1.7216018  -0.03327255 -0.11209496 -0.04488515  0.06883146 -1.3584558
 -0.3791576   0.02380706  0.0365278  -0.2274478   0.03324117 -0.646038
  0.11514869 -0.03696994 -0.07428242  0.04800192 -0.01184535  7.483085  ]
[ 0.14240643  1.5972792   0.3620947   1.0093281   0.36710572 -0.11607033
  0.24733964 -1.0191514  -0.34911442  1.4232187  -0.03620052  1.625212
  0.4980116   0.06857333  0.9343963  -1.0322694  -1.0921297   0.74951595
  1.128713    0.338343    1.8721651   4.4490952  -1.7840047   0.07485573
  0.29558587  0.8032551   1.5531743   0.02513977 -1.5232453  -0.74927765]
[ 1.0167425e-02  5.8799136e-01  6.0439211e-01 -4.0252943e-02
 -7.9445851e-01 -2.4873675e-03 -6.2711556e-03 -1.3189461e+00
 -7.1244523e-02  2.1023108e-01 -4.6996710e-01  1.0627348e-01
 -7.4525189e-01 -2.4765606e+00  5.4426903e-01 -1.8248176e-02
  1.8172630e+00  1.2467352e-03  8.3213605e-02  3.2635736e+00
 -9.4212353e-02 -2.1339897e+01 -5.2042192e-01  7.0748168e-01
 -1.3942556e-01  1.4168700e-02 -1.6270913e+00  1.0810898e-01
  2.8612614e-01 -5.3527899e-02]
[-1.18756756e-01 -1.54550946e+00 -1.13305449e+00  7.76497543e-01
 -2.53737509e-01  1.03293648e-02 -1.81505829e-01  2.71870583e-01
 -1.22619498e+00  1.30869567e+00 -2.50112474e-01  9.75571036e-01
 -6.13195419e-01 -4.67378087e-02 -2.98319804e-03 -8.14394951e-01
 -1.46900997e-01  8.98754597e-01 -3.72869563e+00  2.49085099e-01
 -2.73083374e-02 -9.17988002e-01 -3.12133694e+00 -1.44958287e-01
  3.95938218e-01 -1.03290248e+00  5.91305554e-01  1.66872263e+00
 -1.25502646e-01  2.15348750e-01]
[ 0.2400998   0.24201666 -0.48948    -0.9669385  -0.39946303 -0.42924035
  0.4943692   0.31453976  0.05198422  0.12006338 -0.30716875  0.29448217
  2.6855996   0.07510298 -0.40652063  1.6503153   0.3098806  -0.8825095
 -0.673081    0.13507035 -0.74051243 -2.0574312  -2.4285948  -0.8818911
  0.49513808 -0.20767476  0.04837557  1.4456505   0.12224328 -0.6185264 ]
[ 0.10304547  1.0548304   0.89739126 -0.47994685  0.21235959 -0.07458749
  0.18716836 -0.23080525 -2.654202   -0.9311873   0.18637834 -0.7308983
  0.30730653  0.06101538  0.02300709  0.51342595  0.12181529 -0.57895947
 -6.6134906  -0.20077217  0.08792332  0.7335536   2.3921535   0.19277264
 -0.2658843  -1.5985287  -0.43220565 -1.2596624   0.02458053 -0.29560333]
[-5.9064597e-02  1.7083549e-01 -2.3282292e-01 -6.7036134e-01
  3.0278691e-04  1.0707748e-01 -3.0372014e-02 -3.0632433e-01
  9.7748585e-02  5.4999185e-01 -2.5883985e-01  4.8015934e-01
 -2.5978413e-01 -3.0622732e-02  5.8388788e-01  1.7611720e-01
 -2.8968847e-01  5.2657861e-02  9.7676373e-01  1.4900398e-01
 -6.3700861e-01  7.2420156e-01 -1.1612570e+00  9.7556174e-02
 -2.3411875e+00  2.4861906e-01  4.4527385e-01  3.6381039e-01
 -3.7725183e-01 -2.1805290e-02]
[ 1.42521737e-02 -2.03917071e-01 -6.42265752e-02  5.33187725e-02
  4.12808943e+00 -2.20039766e-02  9.21300799e-03  3.26939076e-01
 -5.41034155e-02 -3.47546697e-01  2.13416710e-01 -2.94001907e-01
  1.09862976e-01 -4.45110941e+00 -5.07086635e-01 -1.16326094e-01
 -6.38178825e-01 -3.92112136e-02 -5.64652868e-02  5.08004904e+00
  2.03237355e-01 -1.08591318e+01  8.67459476e-01  1.88271284e-01
 -9.25747603e-02  2.38229055e-02  4.21836287e-01 -5.56580961e-01
 -5.41845918e-01 -8.83207470e-02]
[ -2.8078315    3.1531525   -1.8990276   -1.472184    -0.63311607
  -1.9906119   -1.4455819   -0.7675203    1.0955582   -0.6727712
   0.5109448   -3.936885     1.9492767    0.25565046  -3.533001
  -2.5986595    0.471634     1.7646291    1.6236559   -0.40762845
  -3.8174582  -11.169159     3.6110234    0.01880269  -0.9594119
   2.523893    -2.769908    -2.2773578    0.40891472  -4.5815    ]
layer 4 Activation
elu
layer 5 Dropout
layer 6 Dense
30 100
[-1.8241237e-01 -6.4096349e-01  4.6749130e-01 -2.2798108e-01
 -1.1605094e-01 -4.1691750e-02 -2.2974592e-01 -6.1848444e-01
 -2.2906530e-01 -1.0941687e-02  4.5491438e-03 -1.3417759e-02
 -2.5733570e-02 -1.0549308e-02 -7.1094401e-02 -2.5202236e+00
 -1.2838942e-01  4.1425929e+00  2.6829085e-01 -6.0596061e-01
  9.9960250e-01 -2.8183210e-01  2.9254627e-01 -1.8140603e-02
 -3.0030474e-01 -5.3470704e-04 -3.3037378e-03 -3.4468335e-01
 -5.6804258e-02 -2.8555334e-01  2.5234452e-01  1.5409930e-02
  2.7856588e-01 -6.5437341e+00  1.7100317e-02  5.5026102e-01
 -4.4882201e-02 -2.5817081e-02 -4.9249142e-01  5.2061521e-02
 -1.8940084e-01 -5.4978287e-01  8.9071470e-01  3.7876663e-01
 -2.6612699e-01  8.3127350e-02 -1.3186012e-01  1.9152118e-01
 -8.0589396e-01 -6.3510156e-01 -1.0800582e-01  1.3093347e-02
 -2.8934084e-02 -4.4529900e-01  1.0726991e-02  3.0112576e-01
 -4.3618289e-01 -1.3276152e-01  8.2845157e-01  7.0446539e-01
 -3.3801740e-01 -3.4562036e-01  2.0749267e-02 -5.6256402e-01
 -5.4547489e-01  3.8456616e-01  9.7609508e-01  2.7822737e-02
  7.8102738e-01 -6.6327369e-01 -1.1011823e-01 -2.1962748e-01
 -6.3837099e-01 -1.0783921e-01  1.0901041e-01 -1.0570131e+01
  2.7664316e-01  6.0910302e-01  5.1569110e-01 -8.6017624e-02
 -7.8968120e-01 -6.9833893e-01  1.2871572e+00  3.3236295e-02
  2.5387219e-01 -1.3766029e-02 -2.7299259e-02 -5.1321297e+00
 -3.5593830e-02  2.2546418e+00  1.2024256e-02 -3.4996653e-01
 -1.1139737e+00 -6.7413293e-02 -4.0945062e-01  5.7078338e-01
  8.9188880e-01 -3.1741297e-01 -8.2235791e-02 -8.1799097e+00]
[-0.47617134 -2.049576    0.5315145   1.3209628   1.009742   -0.20072314
  1.0522482  -1.1838444   1.3266964  -0.01041689 -0.02864953 -0.0195292
 -0.02305    -0.01638893  0.11349329  0.39438468 -0.41997603  0.28626966
 -0.7902582  -1.229379   -0.41150612 -0.4035664  -1.0822765  -0.03155592
  1.1592402  -0.01994661 -1.6610596   0.7330151  -0.0138931  -0.6071411
  0.24171592 -0.01403548 -5.5444674   0.18046194 -0.02045361  0.5747515
 -0.03772747 -0.03051997  0.11606456 -0.2655948  -0.27420372 -0.9393762
  0.9357011  -0.3140897   2.1091866   0.66104615  2.1803977  -0.95267665
 -2.6889071  -1.6347926  -0.17854595 -0.01665954 -0.01584835  0.46544668
 -0.00981595 -1.3152286   0.5045121  -1.3364354  -0.9055035  -3.2705576
 -0.25156406 -0.7639199  -0.01884527 -2.2812996  -0.23844202  0.2204729
 -2.4015162   0.31851423 -2.6176038  -1.6688368  -0.17422764 -1.0473025
 -1.4857984  -0.04994258  0.11645705  0.42004582  0.5266943  -0.27541324
 -4.1405544  -0.0734896  -1.5182536  -1.9857601  -3.1738906  -0.1449589
 -0.95598763 -0.01930478 -0.01703673  0.20351033 -0.02135634  0.80170655
 -0.0205385  -0.87900835 -6.0983143  -1.8398567  -0.6724139  -0.38101277
 -2.8426375   1.8231043   0.6139936  -1.025595  ]
[-0.2785253  -0.1026094  -1.6127571  -0.93477815 -1.5416008  -1.6113617
 -0.03369793  0.16445604 -0.6268937  -0.04863228 -0.02153532 -0.03453238
 -0.03579668 -0.05332446 -0.91455567  0.52230656 -0.8410242   2.2220333
  1.3352904   0.17984477  0.5826252  -2.9496489   1.7968181  -0.03203956
 -1.2956662  -0.02272991  0.96467525 -0.04095787 -0.03491545 -0.04568746
  0.1676069  -0.04756359 -0.51440763 -1.0567232  -0.02681521  0.861271
 -0.03253117 -0.021609    2.13217     0.66739047  1.0523757   0.27672818
 -1.2161968   2.5695524  -2.4637725  -1.5949035  -1.2859851   0.9532229
  0.73874956 -0.11350548  0.14382322 -0.03487686 -0.03676509  0.63891625
 -0.05183581 -0.9023609   0.81277007 -0.73172146  2.427859   -0.51447344
  0.14183724 -0.2851203  -0.01902868  1.8545811   0.3176698  -1.022354
 -1.7090646  -0.12585045  1.6855487   0.12326999  2.5453558  -1.0801675
  0.08943594 -0.01481377 -0.8466254   0.43605334  1.0342066   0.37531474
  0.6098818   0.19305944  2.5477057   0.32260984 -1.4665675  -0.21771906
  0.18762995 -0.03181011 -0.03504141  0.6862894  -0.033216   -1.208853
 -0.01337156  0.20251422  1.109555   -1.846908    0.47927323  0.37219277
  0.91802573 -1.3186998   0.02472484  1.6452786 ]
[-2.0636396e-01 -6.3395554e-01  5.9488875e-01 -1.9078468e-01
 -1.3511784e-01  3.2994300e-03 -6.9584143e-01 -2.1252163e-01
 -6.6376919e-01  3.9615963e-02  4.1557651e-02  5.6836873e-02
  9.6423589e-03  8.9028636e-03  5.7733893e-01  5.2757847e-01
  4.1710335e-01 -1.4662637e+01 -3.9318299e-01 -3.0922705e-01
 -5.9231931e-01 -5.0615598e-02  2.7394230e-03  3.6946800e-02
 -7.1777254e-01  6.8623669e-02 -8.1665903e-01 -7.4860340e-01
  6.8889819e-02 -2.6073536e-01  7.8999048e-01  5.3192332e-02
  4.6442289e+00  9.5154345e-01  3.6623701e-02 -1.1819936e+00
  6.6323489e-02  5.7276346e-02  4.9876997e-01 -5.5032592e-02
  9.5233572e-01 -6.8379469e-02  4.2316551e+00  6.1091478e-03
 -8.4639752e-01  4.4539133e-01 -5.0376479e-02  5.6469810e-01
 -2.8739595e+00 -3.8410750e-01  1.1593150e+00  1.9984273e-02
  6.8460278e-02  5.5927068e-01  5.3239293e-02  1.3940794e+00
 -5.2725327e-01  1.8745365e+00 -1.4937381e+00  7.4699926e+00
  2.3859702e-01  1.7516906e+00  8.5733958e-02  6.8706557e-02
  2.6319883e+00 -7.6959199e-01  3.7073064e+00 -1.4048919e-01
 -9.1082602e+00 -6.0073686e-01  6.0033786e-01  2.8126423e+00
 -4.6849564e-01  1.4123380e-01  2.2932975e-01  2.3542702e+00
  2.4995580e+00 -1.7529155e+00 -3.2122064e-01  1.9495302e+00
  2.3399355e-02 -3.6995643e-01  4.7015567e+00 -3.0750820e-01
 -3.0253849e+00  6.4610720e-02  5.9489846e-02  2.6574078e-01
  4.5981739e-02 -1.7817551e-01  4.6702817e-02  1.9290604e-01
 -2.1788745e+00  1.0124222e+00  4.0662959e-01 -2.1321608e-01
 -2.2460752e+00 -4.0125933e-01  1.4515655e-01 -8.2359350e-01]
[-7.9232103e-01 -1.8841252e-02 -8.6293447e-01 -1.1843709e-01
  4.3947075e-02  1.9595397e+00 -6.5843403e-02  3.1516697e-02
 -1.1472086e-01  8.2058143e-03 -1.5978502e-03 -7.8725321e-03
 -9.7942946e-04  9.4151925e-03  2.7489658e-02 -4.4019215e-02
  8.6120240e-02  1.0391572e+00 -4.9815555e+00  3.5076153e-02
  4.5765437e-02  5.2941149e-01 -1.4256381e+00  5.8339220e-03
 -3.5759279e-01 -4.2045801e-03 -1.4562569e-02 -2.5575119e-01
  1.8373353e-02 -2.4496202e+00 -3.1048310e-01 -1.3757585e-02
 -1.0992997e+00  1.3581157e+00 -2.3025256e-02  6.4681852e-01
  2.0838082e-04 -3.7334834e-03 -1.2796929e+00 -4.2508744e-02
 -7.5182647e-01  5.7700437e-02  4.4213122e-01 -6.5045446e-01
  2.0162715e-01 -1.7144512e+00 -1.3547851e-01 -1.1430467e+00
 -1.2020961e-01  1.1560057e-02 -5.7274115e-01  1.0174370e-02
  1.7254286e-02 -9.1496289e-02  1.0059702e-02  3.4868114e-02
 -5.5969793e-02  7.3942155e-02 -9.7779197e-01  9.8047519e-01
  1.1764728e-01 -6.0754389e-01 -7.9710921e-03 -2.5466451e-01
 -1.6931845e-01  7.9235584e-01 -3.6156375e-02  1.3330290e-01
 -9.7272880e-02  2.1597471e-02 -4.3859926e-01 -2.0593605e+00
  1.2368241e-02 -3.8139445e-03 -3.1868267e-01  1.2731200e-01
 -4.9550202e-01 -8.8798466e+00 -3.4905021e+00  1.0752641e+00
  1.5774998e-01  6.9491223e-02 -5.6979543e-01  7.0932680e-01
 -1.2882774e+00 -1.0659240e-02  3.4087778e-03 -1.4660178e-01
  1.0274018e-02  1.2354245e+00  1.0226233e-02 -3.5825777e-03
 -1.1138718e-01 -2.2684920e+00  7.3227301e-02 -5.2407354e-01
 -2.5095296e-01  1.4931236e-01 -5.6909788e-01  2.3359388e-01]
[-1.28911602e+00 -8.17710781e+00 -2.30024862e+00 -8.16815078e-01
 -9.55239713e-01 -3.24604064e-01 -1.85096252e+00 -4.50984097e+00
 -1.56461561e+00 -3.58443186e-02 -2.28234008e-03 -2.89125424e-02
 -4.21302579e-02 -9.89668444e-03  9.83611643e-02 -5.37991714e+00
  9.61675681e-03  1.79549923e+01  1.21112764e+00 -4.63040352e+00
  6.14007294e-01 -5.37354112e-01  1.07295561e+00 -1.80909690e-02
  2.81746089e-01 -1.59508865e-02  5.41625082e-01 -2.45682311e+00
 -2.63387356e-02  4.01240326e-02  7.26508498e-02 -2.08989922e-02
  2.24882078e+00  1.98950882e+01  1.30639775e-02  1.16724396e+00
 -2.57098526e-02 -1.55433156e-02  2.21106037e-01  1.25527167e+00
 -2.69390374e-01 -3.54055429e+00  3.30467772e+00  8.20859969e-01
  3.32313418e-01 -1.41815114e+00 -1.94417372e-01  9.93135929e-01
 -8.99644947e+00 -7.37383795e+00 -3.02359134e-01 -4.05800603e-02
  5.34722256e-03 -3.04340148e+00 -3.41843553e-02  1.91326082e+00
 -3.08090329e+00  1.16977596e+01  7.76662409e-01  5.80380535e+00
 -1.83040929e+00  1.73001015e+00 -1.80990109e-03  2.90595031e+00
 -9.59530890e-01  7.09047914e-01  1.79744017e+00 -1.22249794e+00
  1.24185286e+01 -6.50254631e+00  1.32932925e+00 -1.49944949e+00
 -5.75520611e+00 -1.33354616e+00 -3.11690092e-01 -7.58059072e+00
 -2.64001107e+00  9.86442506e-01 -2.53737699e-02 -1.55140877e+00
  8.11469555e+00 -8.88411999e+00  1.78482211e+00 -2.68139452e-01
  1.55225945e+00 -2.21531112e-02 -2.02271491e-02 -1.73706532e+00
  2.30277628e-02  9.43575352e-02 -1.30606219e-02 -5.87676227e-01
 -1.67825489e+01  2.68299952e-02 -2.50326896e+00  2.11626276e-01
  7.16832638e-01  4.76057529e-01 -3.67190242e-01  4.99977970e+00]
[ 3.6308184e-01 -1.0254731e+00  1.3499423e+00  1.6754331e-01
  1.7926595e-01 -7.0240539e-01  3.9255258e-01 -1.0433319e+00
  7.8494585e-01 -2.3499027e-02  2.9350221e-02 -5.6972322e-03
  5.4024491e-03 -2.2487087e-02  1.4948438e-01 -6.4140315e+00
 -9.5276339e-03  2.3166256e+00 -6.1328024e-01 -7.4695462e-01
 -2.5787449e+00  8.9816260e-01  2.2651099e-03 -1.2966150e-02
  4.5179325e-01  4.1407328e-02 -1.4092480e-01 -2.0145097e-01
  2.0000244e-02 -2.6924248e+00  1.0919428e+00 -3.7606452e-02
  3.3825222e-02  2.5012163e+01 -6.7618447e-03 -6.0391182e-01
  1.0598610e-02  3.8032727e-03 -3.1519633e-02  8.1425093e-02
 -3.0215889e-01 -8.7257749e-01  2.2423658e-01 -3.3089787e-01
  9.4121230e-01  6.9391328e-01 -2.1603292e-01 -3.0356660e-01
 -1.4529394e+00 -8.7655175e-01  6.0084265e-01 -2.2405598e-02
  1.1640389e-02 -2.8733784e-01 -4.1691590e-02 -8.6047465e-01
 -2.4826105e-01 -8.3669597e-01 -9.7008896e-01  2.7247387e-01
 -8.7843889e-01  1.3362470e+00  3.7135240e-02 -1.9604388e+00
  1.1306939e+00  1.0799231e-01 -4.0481195e+00 -5.7339054e-01
 -3.4584811e-01 -1.0499836e+00 -1.3264514e+00  3.0005142e-01
 -8.7121326e-01  2.3510340e-01 -3.3929326e-02 -1.4786168e+01
 -1.2751983e+00 -5.1891595e-01  4.7931233e-01  3.2248953e-01
 -1.0755523e+00 -8.6367279e-01 -1.0524282e+00 -1.7130489e-02
 -2.0194799e-01 -5.5669332e-03  2.4132079e-02  1.3420142e+00
  1.3374879e-02 -2.3517792e+00  4.5051379e-03  3.2722929e-01
 -4.9545588e+00 -6.7906725e-01 -6.4177364e-01 -4.7052142e-01
 -2.3683717e+00 -1.3410677e-01  7.4056000e-01  2.2391798e+00]
[-8.41448724e-01 -1.49750262e-01  1.55241764e+00  2.40700030e+00
 -2.29388618e+00 -3.14371204e+00  6.10209346e-01 -2.91361541e-01
 -6.91039181e+00  4.89454530e-02  9.54736490e-03  4.18540910e-02
  6.21659458e-02  4.20887209e-02 -2.76169133e+00  5.81939101e-01
  1.02509713e+00  8.63102531e+00 -1.89783657e+00 -2.84476191e-01
 -2.95213938e+00  5.35610962e+00 -9.91267681e-01  4.65591401e-02
  8.30287337e-01  1.78130642e-02 -1.10793984e+00  7.08326459e-01
  5.81101961e-02  7.50183165e-01  1.35513079e+00  4.26537693e-02
  1.42160416e+00  2.65883851e+00  1.89622901e-02 -3.21585846e+00
  3.53026912e-02  2.86793318e-02  2.52548790e+00  1.58188128e+00
  3.69105172e+00 -2.97037870e-01  8.88034523e-01  2.58723760e+00
  3.06095719e+00 -2.71254492e+00 -1.11315228e-01  1.69969606e+00
  2.21919524e-03 -5.65950647e-02  1.01121950e+00  3.87968346e-02
  3.37669738e-02  6.96044445e-01  3.84915471e-02  1.12853125e-01
  2.61419773e-01  5.11119664e-01  3.17371702e+00  4.44541121e+00
  1.56180298e+00  8.62966299e-01  5.31316688e-03  7.60666549e-01
  8.95911694e-01 -3.67859769e+00  2.88012207e-01 -1.95724452e+00
  2.92031193e+00 -2.59203196e-01 -5.75007141e-01 -1.61876783e-01
 -1.95435464e-01 -3.45213227e-02  1.24767244e+00  3.21689308e-01
  2.45216936e-01  1.87850189e+00 -1.84965372e+00 -2.47641706e+00
 -1.07481742e+00  1.64629705e-02  3.61323833e+00  3.13456982e-01
  1.04623795e+00  4.54463214e-02  4.54789773e-02  7.84495413e-01
  3.37889828e-02  7.06400454e-01  3.01557090e-02  1.26580894e-01
 -2.42820406e+00 -3.18935966e+00 -2.06047595e-01  7.52368331e-01
 -4.63215888e-01  1.54805553e+00  3.40490389e+00 -1.83642697e+00]
[-4.8392597e-01  5.2280378e+00  3.9619389e+00  8.0439806e+00
  2.6612051e+00  2.2959592e+00  3.6981971e+00  6.5053115e+00
  7.5256186e+00  2.5555080e-02  1.4103050e-03  9.3455780e-03
  2.8444852e-03  7.2756452e-03  3.3853996e+00  2.1861199e-01
 -5.5161744e-01  8.6900692e+00 -2.2174933e+00  5.7865634e+00
 -2.7438247e+00 -4.6886203e-01 -1.0285976e+00  4.0535922e-03
  5.6755309e+00  5.3049335e-03 -2.9747014e+00  6.1315622e+00
 -4.4263690e-03  1.0421083e+00 -2.7280560e+00  1.7773498e-02
 -4.7402453e+00  2.1432137e+00 -1.1623645e-03 -1.2656616e+00
 -5.2997763e-03 -1.4483304e-02  1.9830050e+00 -5.2764797e+00
 -1.4411763e+00  6.7750435e+00  5.8364391e-01 -1.2417448e+00
  2.8297989e+00  6.1624861e+00  2.6804140e+00 -9.5629340e-01
  5.8497334e+00  5.4442382e+00  8.8402247e-01  6.4257067e-03
 -5.0818841e-03  3.5735216e+00  2.8453743e-02  4.6089344e+00
  2.3577182e+00 -2.5561883e+00 -1.6373485e+00 -6.2770295e+00
  6.1895933e+00 -4.0275140e+00  2.6422997e-03  1.9701167e+00
 -7.1869314e-01  5.2258759e+00  2.0540922e+01  5.2398915e+00
  8.3962536e+00  5.6291308e+00  6.9043489e+00  2.5952094e+00
  5.6968112e+00  1.9359574e+00  1.7386068e+00  3.5525611e-01
  3.7421906e+00 -1.0352695e+00  2.7663984e+00  4.2141442e+00
  8.6802852e-01  5.0275617e+00  1.2259159e+01  2.0892370e+00
  3.8391807e+00 -1.7488254e-02 -1.3330806e-03 -9.5489377e-01
  7.3840152e-03  2.7993641e+00  1.0922875e-02 -5.5028090e+00
  5.4965787e+00  1.1754833e-01  7.1428256e+00 -5.4220921e-01
  9.9450474e+00  5.4005203e+00 -5.9165619e-02 -1.1627819e-01]
[ 0.7578357   0.10160153 -1.3085558  -0.2888864  -0.5184545  -2.5002925
 -0.06221706 -0.17350423  1.0284435   0.09935492  0.06045834  0.0856021
  0.0720721   0.08405387  0.45484135 -0.7333393  -1.7201543  -0.17133804
 -0.23716196  0.0640898   0.7368694   2.84716    -1.5327421   0.10069057
  0.89840096  0.02111691  0.25931263  0.5843769   0.05111095 -2.502251
  1.2263368   0.09378386 -1.5126196  -2.6863387   0.06758793 -1.7868758
  0.08581972  0.05933887 -0.38276634 -0.9452759  -2.0042777  -0.0303374
 -4.257904   -2.319564    1.517769    0.0428018  -4.7869473  -1.439906
 -0.08814561 -0.01217698 -0.36167055  0.03033831  0.05733308  1.2462662
  0.0814526  -0.76787806  1.2661037  -4.1350684  -1.3303294  -1.7368834
 -0.07383721 -0.38723487  0.03851292 -0.5727124  -1.0233843  -0.6101863
 -2.0246332   0.8184811  -0.3373691   0.00493205 -2.038133    0.62546325
  0.02692893  1.3319991   1.1466235   2.5362496   0.4991484  -1.2916586
 -1.127515    1.3112752   0.28048047 -0.14301184  0.6997346   0.88362706
  0.9879843   0.08865369  0.02746633 -1.1333073   0.07916798 -1.8860109
  0.05443051  0.2498187  -0.0434144  -0.9728664  -0.10085452 -1.4296765
  2.8295264  -0.92017746 -0.0868907  -0.6931067 ]
[-7.66102493e-01 -6.48659989e-02  1.17288220e+00  8.26469243e-01
 -1.05163355e+01  1.51745999e+00  6.34368718e-01  1.62442550e-02
 -2.12351512e-02 -1.69680715e-02  6.91644661e-03 -5.71068935e-03
 -3.29200625e-02 -2.27864832e-02 -9.49275970e-01  5.08056462e-01
  1.86539078e+00  8.59410822e-01  1.49776777e-02 -8.65444094e-02
 -8.81119817e-02  1.05691373e-01  1.57230222e+00 -2.82374155e-02
 -1.02733636e+00  2.47479603e-02 -6.17214739e-02  3.83820146e-01
 -1.57506298e-02  1.90441549e+00 -9.65355158e-01  4.78552002e-03
  1.03398031e-02  3.43042970e+00  5.82509208e-03  2.34838083e-01
 -1.96564607e-02 -9.72137600e-03 -2.66554475e-01  1.30604887e+00
 -3.16407114e-01 -5.99695556e-02  2.35137105e+00 -2.78661752e+00
  5.00991464e-01  8.08897018e-02 -1.70159264e+01 -1.93129146e+00
  4.79121879e-02  1.07078636e-02  5.92131674e-01 -4.00213934e-02
 -5.37643302e-03 -1.12013459e-01 -7.39061099e-04  1.74406663e-01
 -1.62926748e-01  1.13128591e+00 -8.14809322e-01 -5.79313159e-01
  1.20956130e-01  1.61270654e+00  9.28767119e-03  2.42931321e-01
  3.69351327e-01 -1.70404828e+00  1.11885798e+00 -1.36888039e+00
  5.17851233e-01 -4.20431867e-02  9.89261746e-01 -1.00828305e-01
 -4.78646085e-02 -2.00844431e+00 -1.76983225e+00 -8.22542667e-01
 -4.86486331e-02  7.07701325e-01  1.61247030e-01 -2.22998357e+00
 -5.19195318e-01  4.33551744e-02  1.94299698e-01 -1.77305892e-01
 -1.96585953e-01 -3.81787196e-02  2.71943049e-03  4.90652710e-01
  5.13392966e-04  1.63455617e+00 -7.14285625e-03 -1.69988856e-01
  3.69291194e-02  7.80266821e-01 -3.32376696e-02  1.22716618e+00
  1.06941664e+00  1.18758464e+00  5.90629041e-01  2.08506174e-02]
[-1.33885849e+00 -2.87846923e-01  1.13541242e-02 -9.60704565e-01
 -1.56627214e+00 -2.01030946e+00 -8.55596438e-02  5.19852899e-03
  6.95821464e-01 -1.47915617e-01 -6.57171085e-02 -1.39411703e-01
 -1.74583003e-01 -1.63446277e-01 -2.30899620e+00  1.07636750e+00
  5.37857234e-01  3.69527149e+00 -1.17304850e+00 -1.03000902e-01
  7.70905793e-01 -6.50161982e+00 -6.56193876e+00 -1.77989781e-01
 -1.38798252e-01 -4.17158045e-02 -2.12348795e+00 -6.47148609e-01
 -9.18220505e-02  3.57093287e+00 -4.83417511e+00 -1.98017493e-01
  7.18319654e-01 -3.04681480e-01 -8.53186473e-02  2.96043587e+00
 -1.51956066e-01 -1.36008084e-01 -6.57446432e+00  5.65752745e-01
  3.93725127e-01 -7.78615475e-02  1.28131366e+00 -4.71491051e+00
  7.67113417e-02 -2.24742866e+00  4.78917170e+00 -2.05042052e+00
  9.80198264e-01 -3.28032188e-02 -3.43337369e+00 -1.16599992e-01
 -1.02679074e-01 -1.21854615e+00 -1.73628524e-01 -4.63402838e-01
 -8.70574832e-01 -2.87007391e-01 -2.96493387e+00  1.80796951e-01
 -1.20528534e-01  3.50374627e+00 -7.21379966e-02 -3.48073483e-01
  3.03962380e-01  1.75233674e+00 -5.75073808e-02  2.24520817e-01
 -9.66544986e-01 -1.72054768e-02  6.80083513e-01  1.73043716e+00
 -7.61596188e-02 -2.35007977e+00 -1.07220316e+00 -2.59585559e-01
 -1.02178264e+00 -7.23132342e-02  1.41135430e+00 -1.83478677e+00
  3.21334660e-01  7.35034168e-01 -1.51961553e+00  1.29201329e+00
 -2.01176667e+00 -1.66590422e-01 -8.72632563e-02  1.02834713e+00
 -1.16880864e-01  1.40275061e+00 -9.76266637e-02 -2.25452602e-01
  6.59401834e-01 -9.72239256e-01  1.01511687e-01 -2.05419087e+00
  3.26502347e+00  2.39921764e-01  1.01013410e+00  8.75679910e-01]
[ 9.4158780e-03 -1.0518184e+00 -3.4789199e-01 -8.5022455e-01
 -6.0696912e-01 -1.0782100e+00 -2.0445247e+00 -6.9097012e-01
 -1.1892332e+00  6.9610909e-02  4.8545629e-02  5.6398772e-02
  4.8663344e-02  5.6947727e-02  3.5494551e-01 -3.9665216e-01
 -2.3886004e-01 -1.9925091e+00  9.5066112e-01 -8.6931676e-01
 -3.0516699e-01  9.2784965e-01  2.1582170e-01  6.5187536e-02
 -1.0140566e+00  4.2010698e-02  3.3381331e-01 -1.5553751e+00
  5.7934415e-02  2.0148166e-01  3.4711486e-01  7.3432073e-02
 -1.6065554e-01 -4.8440156e+00  5.6545582e-02 -1.5356600e+00
  7.4416243e-02  6.3020632e-02 -8.0983514e-01 -8.4058054e-02
  3.5403034e-01 -6.0776150e-01 -1.3666098e+00 -1.1306607e+00
 -1.3899782e+00 -1.1264772e+00 -2.8787918e+00  6.8344182e-01
 -1.2962518e+00 -1.1299500e+00 -5.8579636e-01  5.2987136e-02
  5.9720136e-02 -1.4238410e+00  6.8246588e-02  8.0656707e-01
 -1.9178486e+00 -2.7400360e+00 -1.3552313e-01 -4.7545896e+00
 -3.1314638e-01  2.4246842e-01  4.1350570e-02  4.7106212e-03
  4.3495372e-01 -1.0328822e+00  4.7736403e-01  3.8916939e-01
 -1.4672278e+00 -9.8144180e-01  7.2925520e-01  1.3001684e+00
 -9.4123656e-01  2.0762341e-01  4.8449638e-01 -2.4152987e+00
 -8.9675671e-01 -4.0122154e-01 -1.7375166e+00  2.6032853e-01
 -1.9140469e+00 -1.1201756e+00  1.7351810e+00  6.2265319e-01
 -5.5766553e-02  7.4440368e-02  4.9890652e-02 -2.4128644e-01
  6.0391963e-02 -9.1145957e-01  5.2840032e-02 -4.2847371e-01
 -2.1048613e+00  1.4301234e+00 -5.1986593e-01  5.5894506e-01
 -5.6962293e-01 -4.3014070e-01 -1.2354547e+00 -6.1573768e-01]
[ 1.76858842e+00  2.67127026e-02 -4.05596375e-01 -5.38190603e-01
 -9.64395143e-03  1.27943516e+01 -4.38238204e-01  5.88484518e-02
 -1.60513893e-01 -4.26088972e-03  2.41777301e-02  1.29881129e-02
  4.36593853e-02  9.85422824e-03  1.83357269e-01  1.52039573e-01
  4.09557724e+00 -6.49822235e-01 -2.86878896e+00  4.72222343e-02
 -2.96353191e-01 -1.22965777e+00  1.58610773e+00  1.41487904e-02
  1.28192067e+00  3.29809152e-02  8.28790307e-01 -2.55592167e-01
  2.67729722e-03 -3.27760577e-01 -7.95456946e-01  1.54135972e-02
 -5.49722433e-01  2.16390076e+01  5.49209863e-03  9.43108273e+00
  2.30809469e-02  3.22314352e-02  5.11088729e-01 -1.35384753e-01
 -4.07098800e-01  6.01236336e-02  4.19837284e+00 -5.68317115e-01
 -7.75056481e-02 -5.67989826e+00  8.92480016e-02 -6.71368539e-01
 -5.83941210e-03  1.86182521e-02 -1.57372963e+00  4.66352478e-02
  1.56444646e-02  3.10725540e-01  2.32037287e-02  2.61732042e-01
 -1.62267029e-01  1.19608247e+00 -7.98594236e-01 -7.24839885e-03
 -1.69403866e-01 -3.99453473e+00  1.42889945e-02 -1.06927454e-01
  1.17098160e-01  5.50509572e-01  2.99049467e-01  1.28323108e-01
 -7.71204054e-01  2.69319285e-02  7.85707384e-02 -2.54713583e+00
  2.64255293e-02  9.18818235e-01  2.29730415e+00 -3.31594765e-01
  4.74980384e-01  5.95295334e+00  3.78803253e-01  1.41919255e+00
  3.45958054e-01  8.53294954e-02 -2.63336599e-01 -3.42967558e+00
 -1.40720189e+00 -6.83164224e-03  4.30225916e-02 -7.49023333e-02
  2.22118441e-02  5.93968010e+00  1.14749158e-02  3.82076986e-02
 -6.87408522e-02  2.55002522e+00  7.79910833e-02 -1.61682889e-01
 -7.45624185e-01 -8.07128787e-01  1.48455128e-01  3.57985437e-01]
[ 8.90310258e-02  1.92448206e-03 -8.33407223e-01  7.71784604e-01
  1.60148382e-01 -6.51431441e-01  7.31472075e-01 -1.15404546e-01
 -1.62587956e-01  5.14588356e-02  2.78116018e-02  3.81349660e-02
  4.12674695e-02  3.13484482e-02 -3.52543771e-01 -2.23929688e-01
 -7.94791505e-02  1.33034217e+00 -2.48793945e-01 -6.60794750e-02
 -3.71988453e-02  1.65387437e-01 -2.71381760e+00  5.16488291e-02
 -3.16292477e+00  2.91281138e-02 -4.32944918e+00  7.63444006e-01
  3.56393196e-02 -2.68625355e+00 -1.63143981e+00  4.80230264e-02
  5.86021505e-02  1.51697481e+00  2.14656070e-02 -4.88369167e-01
  4.66468558e-02  2.80216895e-02  6.11042261e-01 -3.17145616e-01
  9.08040285e-01 -1.15931042e-01 -2.91986436e-01  1.56553495e+00
 -2.24964213e+00 -7.63377070e-01  1.56721854e+00  8.87355387e-01
 -3.85180712e-02 -4.37651463e-02 -6.19790077e-01  2.12759990e-02
  3.37845609e-02  6.55252159e-01  4.94927689e-02  2.79031396e-01
  7.15555310e-01 -1.28138319e-01 -3.86014318e+00  3.06824837e-02
 -2.03590348e-01 -3.88210118e-01  3.37786563e-02 -1.62460610e-01
 -1.75790504e-01 -1.39535403e+00  8.77313912e-02  1.26585674e+00
  3.30712616e-01 -5.28993122e-02  2.06274781e-02 -9.13733304e-01
 -6.72351420e-02 -4.35342103e-01 -7.18545437e-01  5.17847776e-01
  2.19735861e-01 -8.83026302e-01  7.40982831e-01  2.00903583e+00
 -2.31281251e-01 -5.75665124e-02  7.87527382e-01 -1.56060994e-01
  1.61271131e+00  4.72699590e-02  2.70034596e-02 -5.70511520e-01
  3.91262099e-02  1.29295874e+00  4.19991054e-02  3.53390090e-02
  6.53299987e-02 -1.62694407e+00 -1.62898332e-01  3.35070133e-01
 -6.57567561e-01 -2.84170717e-01  3.84930789e-01 -3.46538991e-01]
[ -2.4200218   -5.9130125  -11.262221    -1.940467    -1.4316456
  -0.9508153   -1.6622326   -4.3724623    0.21695606  -0.02521729
  -0.04158155  -0.02779368   0.02386677   0.01132149  -0.6292505
  -0.47454718  -1.1456696   -2.6667206    1.7031407   -4.1211257
   3.443069    -1.3379476    1.2777219   -0.01393782   0.6260712
  -0.08797128   1.0857224   -1.5383337   -0.06748898   0.2425129
   0.41358313  -0.02505091   1.134714    -8.755647    -0.02685083
   2.4193163   -0.04953742  -0.04937363  -1.1050822    1.5194399
  -0.85808945  -3.6417012    1.2277082    1.5554947    0.88637364
  -0.64312994  -0.74619246  -0.5008597   -7.0502143   -5.52526
  -1.6559935   -0.03655651  -0.06406227  -3.1500378   -0.01625291
   0.27357802  -2.3194811    1.1358197    2.1609776    1.9891472
  -1.8262486    0.22676703  -0.02233931 -10.890983     2.9613981
   1.8714428    1.5821081   -1.179772    -8.918187    -4.9463677
   0.20053518  -3.6770115   -4.8955507   -2.1277747   -0.24653547
  -3.2584782   -3.6195135    2.3338914    1.4032788   -2.8505769
   1.9568257   -6.273804     1.1752279   -0.0786213    4.850359
  -0.03332872  -0.05817815  -1.6396096   -0.04660686   1.4618556
  -0.02570668  -2.990886   -10.556609    -1.3194816   -2.8260636
   0.45272294   2.4269786    0.873462    -3.3453267    2.2666314 ]
[-4.93723679e+00  8.94377157e-02  2.02564120e-01  1.73177168e-01
 -9.44907486e-01 -2.73134160e+00 -3.94571945e-02 -2.42663315e-03
 -1.10700500e+00  3.76104563e-02  1.73654817e-02  2.18437165e-02
  3.64637189e-02  1.43119814e-02  1.89557219e+00  4.98383641e-01
 -4.16412115e+00  2.01988792e+00 -3.53015780e+00 -9.65870693e-02
  4.27390456e-01 -2.22203779e+00  2.71866471e-02  3.04432791e-02
  1.33173287e+00  5.69615187e-03 -1.57644361e-01 -3.00565630e-01
  4.78004403e-02 -1.00727630e+00 -9.83676910e-01  2.89826263e-02
  1.87092137e+00  2.36714840e+00  3.61261927e-02  1.40939510e+00
  3.24082635e-02 -8.85039009e-03 -1.22544909e+00  1.37302828e+00
 -1.70870924e+00 -5.13013378e-02  6.42763227e-02 -1.19763219e+00
  1.22204053e+00 -1.22918904e+00 -2.40948415e+00 -7.80397058e-01
  2.99425244e-01  3.29605825e-02 -8.76049161e-01  3.66582312e-02
  1.52528845e-02 -8.01400483e-01  3.65783907e-02  1.05127466e+00
 -8.74809563e-01 -6.27988815e-01 -1.17144458e-01 -1.56634533e+00
  6.10743999e-01  3.69441581e+00  9.89395566e-03  1.05718851e+00
  2.88823575e-01 -2.01269507e+00  1.14788222e+00 -1.55235267e+00
 -1.28996894e-01 -4.53259889e-03  1.34221470e+00 -1.24454820e+00
  1.14381760e-02 -2.81906247e+00 -4.35935116e+00 -9.50033844e-01
 -1.08917975e+00  9.49896872e-02 -3.27681333e-01 -1.39295316e+00
 -6.80702090e-01  2.50706226e-01  1.96665478e+00 -1.62577105e+00
 -6.62271440e-01  9.06366184e-02  2.95721013e-02  3.08553785e-01
  1.99273750e-02 -4.94648933e+00  4.00973223e-02  3.14692478e-03
  6.48564041e-01 -7.00205445e-01  3.49157266e-02 -3.37152290e+00
 -8.10162723e-01  1.46926567e-02  2.35430747e-01 -5.00450850e-01]
[-0.6797483  -0.7005724  -1.701441    0.15863045  0.26055145 -1.053089
 -0.98971015  0.62391746 -0.95606583  0.04958592  0.04015981  0.02964459
  0.03965577  0.04350695  0.4579153  -0.08822804 -0.69601667  1.9730984
  0.88945997 -0.06988036  1.0818027  -0.5666081  -1.3849089   0.02121016
  0.0922607   0.0283594  -1.4048831  -0.14153042  0.01914387 -1.2451276
 -1.0115528   0.07332052 -1.2459184  -5.7391853   0.07565719 -1.4280671
  0.02018888  0.02447081  0.44976857 -0.57389694  0.6074993   0.6073313
 -1.0985403  -1.6098717  -0.3023467  -1.4940562  -0.46069658  0.5301891
 -0.7260473  -0.5077058  -0.92962706  0.03899654  0.02838951 -0.1571717
  0.07014352 -0.12069494 -0.6985578  -1.7027291  -0.95953876 -0.9338609
  1.134127   -1.9406676   0.06571076 -2.2135372  -0.1433776  -1.4888232
 -2.2205105   1.584187   -0.7207577  -0.15164661  3.7795558   0.3921029
 -0.15830569 -0.07809617  0.46438032 -7.707374    0.8683358  -1.0725769
 -2.522065    0.03605077 -0.46707037 -0.7686684  -2.2749717   0.45336103
 -1.4271877   0.03472083  0.0371742   0.75926     0.02595966 -0.49466455
  0.05400768 -1.2703303   0.26856935  0.578162    0.43336818  0.25090674
  2.4740007   1.0947436  -1.4708554   0.9567052 ]
[ 6.05739975e+00  1.93078727e-01  1.09773159e+00  8.71951163e-01
  1.73708010e+00  2.15872955e+00 -8.02879632e-01 -9.91973519e-01
  6.56924534e+00 -8.55716765e-02 -2.93644201e-02 -4.15254682e-02
 -1.91273913e-02 -1.06869163e-02  3.08775640e+00  3.54297638e+00
  1.31840861e+00 -3.74825692e+00  1.54091954e+00 -1.06014419e+00
  2.26976562e+00  6.93918753e+00 -1.07485569e+00 -1.86997803e-03
  1.38710439e+00 -6.22563530e-04 -6.25999391e-01 -5.08648515e-01
  2.93016452e-02  1.03722179e+00  6.44209862e-01 -3.87842990e-02
  6.74351156e-01  5.02946281e+00  7.52343156e-04 -3.74487019e+00
 -1.05097545e-02  4.48034070e-02 -1.19736338e+00 -1.87595999e+00
 -3.01802230e+00 -1.72813523e+00 -6.76406175e-02 -4.00982428e+00
  2.63535690e+00  2.32544452e-01 -3.88500035e-01  1.88241565e+00
  4.59699482e-01  4.03750032e-01 -8.64731669e-01 -1.33280205e-02
  8.44668318e-03 -1.07619190e+00 -9.51281041e-02  1.15075099e+00
 -1.24841988e+00 -6.63599730e-01 -1.45351207e+00 -3.46953034e+00
 -2.03155541e+00 -3.95779920e+00  8.81849974e-03  3.90652299e-01
 -1.61310387e+00 -2.92105079e+00 -9.28836226e-01  1.53593338e+00
 -1.05585372e+00  2.06846967e-01  6.31016636e+00  1.96780467e+00
 -6.53525412e-01  5.17026091e+00  6.23266888e+00 -7.30082998e-03
 -1.03943253e+00 -1.94812787e+00  1.89591920e+00  1.76394188e+00
 -7.13537633e-01 -1.91034064e-01  6.18404293e+00 -6.53166831e-01
 -3.90190601e+00  2.61644423e-02  3.27865630e-02  4.14264774e+00
 -5.93403652e-02  2.32110667e+00 -1.05049564e-02  1.96431553e+00
  7.17934990e+00  1.44677532e+00 -2.64097452e+00  3.08333421e+00
  1.04685783e+00  3.25729299e+00  1.26609838e+00  3.87439704e+00]
[ 1.89229548e+00 -4.35340509e-04  2.91851729e-01 -2.97897220e-01
  1.00958712e-01  7.55798483e+00 -1.62775785e-01  3.27890664e-02
 -3.00986203e-03 -5.29291034e-02 -9.50972661e-02 -4.67046127e-02
 -2.43658647e-02 -1.72991659e-02  1.29209936e-01  1.51014149e-01
  3.45983410e+00 -9.39367414e-01  7.64956772e-01  2.84226425e-02
 -1.77578568e-01 -2.25478435e+00  1.90912855e+00 -2.44273320e-02
  1.34124684e+00 -5.64973392e-02  8.46465170e-01  3.84938791e-02
 -4.88578118e-02  9.06546295e-01 -3.47485304e-01 -3.20031345e-02
 -4.00915831e-01  1.79906006e+01  1.47530129e-02  4.16779041e+00
 -5.80841722e-03  1.68354041e-03  1.34292090e+00  3.75206489e-03
 -1.28530666e-01  3.45361903e-02  4.01932669e+00 -1.41806796e-01
 -2.21630946e-01 -4.52577591e+00  3.36515069e-01  2.73844361e-01
 -7.38960737e-03  7.11339433e-03 -1.65534055e+00  2.58412864e-02
 -3.97876389e-02  5.96000254e-01 -1.18162716e-02 -1.52798146e-02
  1.12249166e-01  1.05901158e+00 -2.13885859e-01 -1.24173999e+00
 -1.92568943e-01 -3.01370597e+00 -6.07972965e-02  1.36740744e-01
  1.09023646e-01 -4.58086014e-01  1.83480993e-01  7.20936898e-03
 -4.16493565e-01  1.84600602e-03  3.97935748e-01 -1.18667436e+00
  5.19256433e-03  7.70669580e-01  2.20347571e+00 -2.23316610e-01
  7.05772102e-01  5.09801292e+00  9.25202191e-01  6.54106259e-01
  3.38842869e-02  6.66779885e-03  6.67317733e-02 -3.80935478e+00
 -5.45784533e-01 -1.96468197e-02 -3.10826730e-02 -6.54385891e-03
 -3.92025001e-02  4.49581814e+00 -8.83397460e-02 -3.05116037e-03
 -1.30964562e-01  2.49498510e+00  5.41568398e-02  1.30726183e-02
  2.31128633e-01 -5.66686273e-01  2.46408358e-01  1.75234511e-01]
[ 1.0041256e+00 -2.7810760e+00 -3.0977328e+00  1.1285664e-01
  9.9557114e-01  1.7736546e+00  4.3670473e-01 -8.0699193e-01
  1.9929572e+00  2.0091506e-02  1.7514277e-03  6.5685734e-03
  4.7648918e-02  6.3224226e-02  9.5401663e-01 -2.1293901e-01
  2.1858761e-01  1.9146881e+00  8.0143762e-01 -8.6706519e-01
 -7.7501011e-01  1.8211955e+00  1.3130468e+00  6.2106967e-02
  1.6388388e-01 -1.6008431e-02  3.1607544e+00  4.6792054e-01
 -5.3476649e-03 -6.0276610e-01  1.0865579e+00  3.3979047e-02
  2.1427479e-01  3.1115968e+00  9.5799780e-03 -1.2107673e+00
  3.9017212e-02  3.6040559e-02  2.4591777e+00 -1.7641501e+00
 -1.6615053e+00 -5.6755710e-01 -2.4790435e-01  1.0835956e+00
 -2.4982698e-03 -1.4773487e+00 -9.0091300e-01  1.3630236e+00
  7.8879215e-02 -2.9845080e+00 -1.5708864e+00  4.7824360e-02
  1.2932780e-03  5.8220989e-01  4.4465788e-02 -2.7869368e+00
  2.1423720e-01 -9.2772442e-01  5.9616226e-01 -8.7674344e-01
 -4.4416913e-01  8.6137973e-02  7.8380136e-03 -1.9901813e+00
 -2.6813107e+00  2.2853702e-01 -1.7630132e-01  6.2088192e-01
 -1.8879630e-01 -1.8479290e+00 -7.6608664e-01  7.8595310e-01
 -9.4226432e-01  1.5988536e+00 -2.6125619e-01 -2.0284306e-01
  3.3938035e-01 -9.6329969e-01  4.7786829e-01 -3.2831097e+00
 -1.7484713e+00 -2.3258765e+00 -2.3201544e+00 -7.8871721e-01
  1.9125457e+00  4.1169684e-02  2.7630513e-04 -7.5163640e-02
  1.4796595e-02 -3.0683717e-01  1.9873001e-02  5.9089172e-01
 -2.2921412e+00  8.5649878e-01 -4.5288759e-01  1.6707674e-01
  6.2335248e+00 -8.7571345e-02 -1.0261588e-01 -1.4158357e+00]
[ 1.56553075e-01 -1.26434732e-02 -6.86467737e-02  2.82293677e-01
 -9.46201757e-03  2.13371086e+00  3.53235543e-01 -1.98599603e-02
 -3.48207876e-02 -1.60784516e-02 -4.29710932e-03 -1.30341640e-02
 -1.91103551e-03 -1.06100515e-02 -3.49395156e-01 -5.09883352e-02
  1.15960884e+00  1.94748700e+00  1.17652297e+00 -1.33434711e-02
  5.84080257e-02  8.88348222e-01 -1.66627511e-01 -1.23734195e-02
  6.71159402e-02 -5.81672601e-03 -2.52719498e+00  3.19071472e-01
 -1.72744598e-02 -9.40414608e-01  5.34446239e-01 -1.27529167e-02
  2.41659552e-01 -3.31604004e+00 -1.53786624e-02 -5.66119909e-01
 -1.96570214e-02 -8.86944868e-03 -1.04145281e-01  4.47240651e-01
  1.11524783e-01 -2.49260217e-02 -8.88400912e-01  2.85738260e-02
  2.75650807e-02 -5.08456564e+00 -5.98097183e-02  1.43532574e-01
  2.29557585e-02 -5.55450283e-03 -2.35201001e-01  1.28028076e-02
 -1.38752460e-02  2.39731029e-01 -1.68610308e-02 -1.92586422e-01
  3.24302793e-01  7.70811379e-01  2.27423608e-01  1.37074903e-01
 -5.99449724e-02 -4.85152185e-01 -8.06267094e-03  5.29267132e-01
 -2.10363735e-02 -4.12428528e-01 -9.62848544e-01 -2.97968835e-01
  9.63150024e-01 -7.83218537e-03  3.21270674e-02  1.63673794e+00
 -1.62498709e-02 -2.51961440e-01 -5.57283103e-01  1.69583291e-01
  9.44036469e-02  1.92573518e-01  9.91198540e-01 -4.24080044e-01
 -1.39611691e-01 -9.34822857e-03 -9.63193357e-01 -6.98993564e-01
  5.45757711e-01  9.65695269e-03 -9.21025686e-03 -4.82039750e-02
 -1.07823731e-02 -3.32056344e-01 -1.63394725e-03  1.36057287e-03
  5.94678074e-02 -8.10449481e-01 -3.65513861e-02 -3.92258465e-02
 -1.46335989e-01  4.17097718e-01 -1.52801841e-01 -5.64687215e-02]
[ 3.2610747e-01  3.9869312e-02 -3.9649382e-01 -1.6537698e-01
  4.4881744e+00 -2.6138785e-01 -6.5023690e-01  3.5339028e-02
  5.8462019e-03  1.2663026e-01  6.3355371e-02  1.0667709e-01
  7.5789265e-02  8.6052418e-02 -1.0524258e-01 -2.9594764e-01
  5.2761868e-02  1.1309155e+00 -1.7851986e-01  3.3768192e-02
  8.2396358e-01  1.6605639e+00 -8.4449500e-01  9.3435638e-02
 -2.6083478e-01  4.6785116e-02 -4.2834321e-01 -1.0885075e-01
  7.1286455e-02 -5.0088348e+00 -2.2489832e-01  1.2631136e-01
  4.5528933e-01  1.8320069e+00  5.7045944e-02 -1.0321500e+00
  7.9766221e-02  6.7205966e-02 -2.7439795e-03  2.9301078e-03
 -1.6877652e+00  7.3726930e-02 -2.6181548e+00  9.4323033e-01
  1.8811052e+00 -7.5093162e-01  6.4433002e+00 -1.3784691e+00
 -7.6825298e-02  1.0186352e-02  5.3211149e-02  3.3262294e-02
  8.4276587e-02 -1.9566187e-01  1.0685410e-01  1.7866954e-01
 -2.5420010e-01 -4.4052296e+00  3.7941045e-01 -3.5652775e-01
  3.0939206e-01 -1.2831198e-01  5.9920929e-02  2.1479754e-01
 -6.2481314e-02  1.1272310e+00 -2.9393271e-01 -1.6279596e-01
 -2.4033988e-01  3.7270516e-02 -5.0569808e-01  9.5446014e-01
  5.0491046e-02 -4.3058237e-01  1.1673841e+00 -2.2962686e-01
  4.9584040e-01 -3.7319613e-01 -1.0024010e+00  1.2455544e-01
  5.5114865e-01  2.0230837e-02  4.4689459e-01  8.6983696e-02
 -1.8159697e+00  6.7117527e-02  5.1919550e-02 -3.1882873e-01
  9.5521413e-02 -3.7454960e+00  6.1792906e-02 -1.3360678e-02
  1.9833528e-01  4.7921643e-01  2.3187120e-02  2.4697985e-01
 -3.3927894e+00 -2.3309280e-01 -2.0334078e-02 -1.9351605e-01]
[-1.62330180e-01 -5.36478907e-02 -1.83041441e+00  7.92657733e-01
  5.03762484e-01 -7.73226738e-01 -1.71067429e+00  1.51581585e-01
  4.30226296e-01 -2.71523818e-02  3.32516641e-03 -2.41509713e-02
  1.58331376e-02 -4.26837690e-02 -1.53001174e-01 -2.19706750e+00
 -4.68575537e-01  1.05710536e-01  1.23626053e+00  3.31115164e-02
 -3.11479777e-01  1.07516325e+00  3.69312108e-01 -2.48705111e-02
 -2.02070847e-01  2.68324316e-02 -7.54190534e-02 -8.83168817e-01
  1.28154662e-02  4.55615014e-01 -1.05228536e-01 -7.82883838e-02
  1.20995224e+00 -8.90676594e+00 -3.70086469e-02 -1.05335009e+00
 -2.75699818e-03 -1.55386738e-02 -4.11325216e-01  1.19925633e-01
  2.18753934e-01  9.06097665e-02 -2.07427120e+00 -5.68513989e-01
  5.29736936e-01 -4.15059179e-01  1.03382625e-01 -1.82510304e+00
 -1.42089918e-01 -2.29322836e-01 -1.63139462e+00 -1.42106507e-02
 -1.06777111e-02  7.44453788e-01 -9.08140391e-02  1.92731297e+00
  6.54474795e-01 -9.17776287e-01 -5.06355047e-01  1.66852570e+00
  2.18066081e-01  6.13035679e-01  3.64933349e-03 -4.64149863e-01
  1.71632003e-02 -3.53742981e+00  1.35253513e+00 -1.59248039e-01
  1.57939029e+00  6.17169542e-03 -2.79839396e+00  3.98680121e-01
 -6.04166277e-02  2.95258075e-01  3.17042917e-01 -1.41061020e+00
  1.25667131e+00 -4.60384399e-01 -8.78154635e-01  3.54316711e-01
  8.32340658e-01 -4.32226628e-01 -7.63717651e-01  5.02506495e-01
  2.92109877e-01 -4.27065045e-03  7.14051211e-03 -1.03690088e+00
 -1.31944902e-02 -4.85043144e+00 -2.88201328e-02  1.77587047e-01
  1.30189490e+00  1.73742801e-01 -5.93371056e-02 -1.10871530e+00
 -3.63175464e+00  2.40915465e+00 -6.41858220e-01  1.14311016e+00]
[-4.12093669e-01  1.89896330e-01 -1.12180471e+00 -1.49028853e-01
  1.02150448e-01 -1.24542661e-01  3.87749448e-02 -8.39766487e-02
 -6.98334932e-01 -2.65960526e-02 -5.01115620e-02 -2.48529930e-02
 -4.36227722e-03 -3.09159998e-02 -3.76942515e-01 -9.59441289e-02
 -2.01683298e-01  1.19742000e+00  1.30730763e-01  6.92108274e-02
  1.91382885e+00 -1.64744660e-01 -4.33091931e-02 -2.23476123e-02
  5.26601188e-02 -6.08685464e-02  4.06365007e-01  1.03824429e-01
 -2.35355552e-02 -2.94384193e-02  1.43593207e-01 -3.19830850e-02
 -4.94152021e+00 -1.61961579e+00 -3.00707109e-02  5.95938504e-01
 -1.68605857e-02 -4.23173085e-02  6.01494201e-02  8.01701397e-02
  1.21144384e-01 -3.09947375e-02 -9.79898036e-01  2.34565854e-01
  4.52514708e-01  2.41676152e-01  4.13459659e-01 -4.98003036e-01
  4.24907148e-01  1.74869552e-01 -3.19269150e-01 -5.88750616e-02
 -3.13254036e-02 -3.53320874e-03 -3.54111753e-02  8.86798576e-02
  2.62546241e-01 -1.22887278e+00  3.49937350e-01 -2.24245000e+00
 -8.00960977e-03 -1.00089908e-01 -5.33481501e-02 -8.34745765e-01
 -1.66530848e-01  2.52998292e-01  4.32267040e-01 -1.59845784e-01
  9.27290857e-01  1.43954173e-01 -5.35203159e-01 -9.81582224e-01
  3.35508063e-02 -1.72460154e-01 -3.02724749e-01  7.84941077e-01
 -2.92706311e-01  3.84858638e-01 -1.12851965e+00  4.43220846e-02
  3.89911920e-01  1.28379256e-01  2.65186507e-04 -1.81695700e-01
  3.51938218e-01 -6.81530079e-03 -3.37032527e-02 -8.60079825e-02
 -1.89661272e-02 -3.41616310e-02 -4.95269708e-02  6.47465959e-02
  5.82172394e-01 -9.78652656e-01 -6.13100380e-02 -3.52122307e-01
  1.47893715e+00 -2.61754096e-01  5.35671711e-02  9.33954418e-02]
[ 4.42263633e-01  6.65044963e-01  3.68064731e-01  4.11242014e-03
  2.57301837e-01  1.26028419e-01  1.66082487e-01  5.79332411e-01
  3.00997943e-01 -1.87532231e-02 -2.30969563e-02 -2.32810415e-02
 -1.19226296e-02 -9.88691486e-03  1.15957178e-01 -2.43547738e-01
  1.22065224e-01  4.63108897e-01  4.37431373e-02  5.20888805e-01
  1.53856069e-01  1.91025510e-01 -1.54379952e+00 -1.87512282e-02
 -6.65368438e-02 -2.01197937e-02  1.47968069e-01  3.52262855e-01
 -2.23041028e-02 -1.86225605e+00 -7.38827884e-01 -2.58715786e-02
  8.28096962e+00 -3.21695238e-01  5.29746851e-03 -1.21726251e+00
 -1.41149750e-02 -1.59566253e-02  2.25073719e+00 -5.29671431e-01
 -1.10330567e-01  4.64106917e-01 -4.83194917e-01 -6.19758487e-01
 -5.17581664e-02 -3.41528177e-01  2.05996886e-01 -4.35634971e-01
  6.70070112e-01  5.97064078e-01  3.47055197e-02  1.29181650e-02
 -1.73596479e-02  7.23175585e-01 -1.57107171e-02 -6.96103871e-01
  5.95040381e-01  4.66763049e-01 -1.03635848e+00  1.18553267e+01
  2.00780362e-01 -2.90740043e-01 -3.07410564e-02  2.26659107e+00
  4.82840419e-01 -5.92195690e-01  4.45431806e-02  5.62253773e-01
  3.14542246e+00  6.24867082e-01  5.93348026e+00  9.57867026e-01
  6.01393223e-01  5.07367432e-01  1.80031061e-01 -3.26621234e-01
  9.69364524e-01 -1.62392151e+00 -9.06250060e-01  9.14671719e-01
  9.71724451e-01  6.72018588e-01  2.47845411e+00  1.01799957e-01
 -1.51821744e+00  3.36391777e-02 -1.27774794e-02  5.65748215e-02
 -2.28316188e-02 -9.41800475e-01 -1.59288049e-02  3.18720937e+00
  1.77950692e+00  1.99277914e+00  3.52685124e-01 -7.85161912e-01
  3.61999345e+00  1.15280345e-01 -1.04127064e-01  7.09328532e-01]
[-7.65544549e-03  4.68794405e-02 -6.90626860e-01 -1.20935512e+00
  1.52918983e+00  3.42757344e+00 -1.36208093e+00  2.04750806e-01
  1.35043418e+00 -3.47322337e-02 -3.80181372e-02 -3.09182126e-02
  1.19166961e-02 -2.98668016e-02  4.77518797e+00  1.85808003e-01
  2.32479048e+00 -9.66669559e-01  7.13514745e-01  1.87663674e-01
  1.51304924e+00  2.20912695e+00  2.22782090e-01 -3.16228494e-02
  2.32091129e-01 -2.51810588e-02 -2.86022449e+00 -1.23993492e+00
 -1.10057872e-02 -1.82224655e+00 -3.76309204e+00 -3.00715081e-02
  1.34501088e+00 -1.66996825e+00 -2.82247104e-02 -2.66230226e+00
 -2.31832322e-02 -3.05130295e-02  3.82042098e+00 -3.44554400e+00
  1.45277238e+00  2.12496519e-01 -1.28760612e+00  1.05528033e+00
 -1.13447773e+00  3.27761531e+00  3.08775520e+00 -1.98120832e+00
  1.55041553e-02  1.37180358e-01  3.39923716e+00  8.92682746e-03
 -4.09418344e-02 -1.10198784e+00 -3.49486694e-02 -1.54578224e-01
 -1.15375566e+00 -5.20241499e-01  7.60987759e-01 -6.81022823e-01
  6.08315527e-01  3.20147252e+00 -2.41765846e-02  9.91850868e-02
 -2.94139266e-01  1.29666305e+00  1.14373803e+00  4.16168404e+00
 -5.39694548e-01  1.12173200e-01 -5.76729417e-01  2.39286900e+00
  1.37739182e-01  8.09534073e-01  4.40623331e+00  5.74935436e-01
 -3.52625191e-01 -1.73623157e+00  1.50413966e+00  2.06580687e+00
  1.07803896e-01 -8.56719464e-02 -8.01798463e-01  4.14732873e-01
 -2.91488433e+00 -4.61105723e-03 -1.60811376e-02  3.20125148e-02
 -4.40822169e-02 -3.87933898e+00 -4.26480174e-02 -2.47035231e-02
 -3.13282572e-02  2.69585538e+00  3.63274366e-01  9.35949683e-02
  3.64009887e-02 -2.41965890e+00 -9.07530189e-01  3.00768852e-01]
[-2.57872224e+00 -6.23703562e-02  1.39239979e+00  1.14520705e+00
  3.71596158e-01  7.54688621e-01 -6.55957341e-01  1.29822567e-01
 -1.40036523e+00  1.46679347e-02 -1.13313913e-03  1.05028665e-02
 -5.51561080e-02 -1.90211684e-02  5.52138984e-01  3.29080075e-01
 -2.10587874e-01  1.79932117e+00 -1.75954294e+00  5.67423999e-02
 -1.40488660e+00 -5.11487424e-01 -1.73200202e+00 -4.36029360e-02
 -1.57802546e+00  2.65927818e-02 -5.46938777e-01 -1.26736033e+00
 -2.43849289e-02 -4.14614820e+00 -1.60631812e+00  2.84295622e-02
 -2.85690069e+00  2.62207651e+00  1.27278659e-02  1.33842087e+00
 -5.70092760e-02 -2.08594333e-02  5.85281134e-01  3.44802529e-01
  1.89691138e+00  1.59973964e-01  2.17504406e+00 -1.51754951e+01
  9.11111414e-01 -4.80291963e-01 -8.44898129e+00 -9.28995991e+00
 -2.04365358e-01  1.12366907e-01  2.39199018e+00 -2.74955053e-02
 -5.64067683e-04 -1.52365005e+00 -2.79143872e-03 -9.58842337e-02
 -1.63294804e+00 -4.13024604e-01 -1.48866291e+01 -4.55125988e-01
  1.41047513e+00  7.02191815e-02  2.67991908e-02  5.88738501e-01
  6.05217338e-01  1.58365190e+00  4.37618464e-01 -9.01243448e-01
  1.37231028e+00  1.06099043e-02 -9.37321723e-01 -6.63288534e-01
  7.39782974e-02 -1.36006761e+00 -8.16705108e-01  2.62571633e-01
 -8.58607054e-01 -6.34885967e-01 -9.68270078e-02  4.47253473e-02
 -5.25723100e-01  1.53859153e-01 -9.40574944e-01 -2.09087610e+00
 -8.11245537e+00 -3.33357267e-02 -2.66754720e-02  4.42422181e-01
  1.70374401e-02 -5.63439274e+00 -2.13150382e-02 -1.78749654e-02
 -1.12994981e+00 -1.52563679e+00  3.41553986e-01  6.09395146e-01
  3.92654508e-01  1.74918318e+00  9.03722644e-01  1.19928382e-02]
[-2.0522194e+00  4.3431707e-02 -8.6734377e-02 -5.9807304e-02
 -2.4244943e+00  1.5455681e+00 -3.0706689e+00  2.9751414e-01
 -5.0340838e+00 -1.0869654e-02  1.2299590e-02 -6.8136980e-03
 -1.2776373e-02 -5.4283640e-03  8.6256444e-01  9.2049457e-02
 -2.2254922e+00  7.6090264e+00 -8.9658201e-01  1.9401272e-01
 -2.0668261e+00  1.2830646e+00  9.3963659e-01 -1.6800346e-02
 -8.4700537e-01 -5.5424636e-03  1.6277958e-01 -2.3060882e+00
 -1.8093480e-02 -1.0276347e+00  4.4480395e+00  1.4922305e-03
  3.1224985e+00  6.7617750e+00  1.0603158e-02  6.1923733e+00
 -1.0660379e-03  9.0545276e-03 -2.6077237e+00  2.7443056e+00
  4.8094134e+00  4.1817614e-01  1.3103951e+00  3.1291809e+00
 -1.3207716e+00 -1.5220897e+00 -1.8231326e+00  1.5757700e+00
 -1.9784744e-01  2.2238767e-01 -8.3172727e-01 -1.2241123e-02
  1.0506909e-02 -9.4162261e-01  4.8719607e-03 -6.7393243e-01
 -1.6780941e+00  1.7370956e+00  2.8252897e+00  1.0112324e+01
 -1.8454662e-01 -1.7036419e+00  6.7188330e-03  3.7065664e-01
  6.1650521e-01 -3.2455831e+00  7.3689502e-01 -1.4064796e+00
  2.6321580e+00  1.6057697e-01 -1.2453129e+00 -4.6865253e+00
  8.0350049e-02 -1.6619300e+00  2.7084017e+00 -1.0230263e+00
 -5.4455274e-01  2.7945316e+00 -1.4295875e-03 -2.4511945e+00
  3.7411699e-01  6.7022629e-02  3.7804859e+00 -2.5574713e+00
  1.1149006e+00 -2.9808830e-03 -1.0493264e-02  1.2728672e-01
  1.6061515e-03  7.2849238e-01 -4.1906382e-03 -5.8552921e-01
 -1.4882996e+00 -3.1993037e-01  3.7132567e-01  6.3767308e-01
  2.6621563e+00  1.0938809e+00 -3.8105438e+00  4.5696151e-01]
[-5.8927816e-01 -3.3327315e+00  7.0091944e+00 -2.8235991e+00
 -9.0134138e-01 -1.9684711e+00 -3.1903365e+00 -6.3027759e+00
  1.1532967e+00  3.6204480e-02  5.9192446e-03  2.9675292e-02
  2.0619553e-02  1.5489805e-02 -2.2559993e+00 -5.9191909e+00
 -1.2599561e+00 -3.1930611e+00  6.5989894e-01 -5.4502559e+00
 -3.3972538e+00 -3.9213428e+00  3.0465541e+00  2.2126384e-02
 -1.6063017e+00  4.5056008e-03  9.0414321e-01 -4.3380017e+00
  1.0043712e-02  4.6872582e+00  4.3832464e+00  2.3867993e-02
  4.6044612e+00 -5.2565706e-01  1.0848766e-02  4.0562263e+00
  3.4448817e-02 -1.7775517e-02 -5.1795645e+00  1.9438440e+00
  5.5403799e-01 -6.2150373e+00  7.8624697e+00  2.4625108e+00
 -1.4191496e+00 -1.3595270e-01 -2.5890195e+00  1.2773640e+00
 -6.0064769e+00 -4.0631242e+00 -3.3950391e+00  2.0632526e-02
 -7.8546526e-03 -7.7091341e+00  4.7007479e-02 -4.1076379e+00
 -7.2447348e+00 -7.4856482e+00  4.9217248e+00  7.8946390e+00
 -5.3034196e+00 -1.6118518e+00  1.3541303e-03  1.7988507e+00
  1.4366484e-01  3.9486244e-01 -3.7073631e+00 -1.1327097e+00
 -1.2834818e+00 -5.0582938e+00 -3.8658168e+00 -4.7643595e+00
 -5.0700736e+00 -1.5401974e+00 -6.4436144e-01  4.4261317e+00
 -9.7675781e+00  5.7109299e+00  1.9300932e+00 -9.5634592e-01
 -1.6797394e+01 -3.8638887e+00 -2.6490116e+00  6.8728882e-01
 -6.7498317e+00  3.6491483e-02 -9.6273702e-03 -6.6877236e+00
 -1.2542858e-02  4.0571427e+00  6.8255598e-03 -3.5882661e+00
 -9.6131210e+00 -3.2212234e+00 -5.6625447e+00  3.1786251e+00
 -4.8075018e+00 -3.8008979e-03 -3.3605616e+00 -9.2391872e+00]
[-5.657307   -2.9547873  -1.9553992   0.9781079  -6.2316375  -3.0774674
  0.39347413  1.3071333  -6.813264   -0.5436588  -0.3503475  -0.40040478
 -0.35736284 -0.40313455 -4.171636   -7.6473656  -2.4570677  -6.569324
 -2.0531728   1.685719   -3.4173627  -8.402719   -4.2792387  -0.3215181
  0.49217635 -0.2986819  -6.2403636   1.1696811  -0.33524832 -4.173787
 -6.1312404  -0.60169506 -1.8752503  -8.200479   -0.43661955 -2.8772168
 -0.3799363  -0.3451779   2.518135    1.6142871   5.5048046   2.3594308
 -2.599357    2.776131   -1.8400326   1.71765     1.4339677  -5.2280393
 -4.378508   -1.9183286   1.682257   -0.3646712  -0.386937    2.0044088
 -0.594179   -0.74499786  0.8741825  -1.7771639  -0.2400935  -2.2457705
  3.8440096   1.7470889  -0.34843644 -1.1833061  -7.4648094  -2.5775461
 -1.2213417  -2.0015447  -2.2791407  -0.4633649  -2.9863358  -1.9034019
  0.81924385 -5.428531   -6.978563   -2.8928497   2.0887825  -4.9257193
 -1.9986582  -2.191352   -3.3353815  -4.4130187   0.6279076  -8.09715
 -7.760169   -0.3918898  -0.35854214 -6.6817026  -0.4166279  -9.262699
 -0.36640427 -5.4575977  -6.4933276  -1.5313493   4.1786785  -1.408771
 -2.9741104  -1.6120652  -2.4600258  -2.459789  ]
layer 7 Activation
elu
layer 8 Dropout
layer 9 Dense
100 1
[0.47389048]
[-1.6322764]
[0.2981531]
[-0.46178937]
[0.29247168]
[-0.36708283]
[-0.38255468]
[-0.90346444]
[-1.9485067]
[-7.229456e-05]
[0.00098868]
[-0.00016858]
[-0.00013479]
[-0.00036404]
[0.266206]
[0.15550156]
[0.32112935]
[0.39610595]
[0.0634893]
[-1.2216502]
[0.14361413]
[-0.14334232]
[0.40869972]
[-0.00015345]
[-0.1640587]
[0.00108982]
[1.8212842]
[-0.37667403]
[2.0363592e-05]
[1.0883384]
[0.5029373]
[-0.00050094]
[1.5804677]
[4.227137]
[-0.00052533]
[-0.84178585]
[-0.00015245]
[-0.00046173]
[-0.21550944]
[0.31011257]
[-0.19915411]
[-0.98020303]
[4.7689075]
[-0.98747027]
[-0.16636768]
[-0.12126923]
[-0.5637983]
[4.057442]
[-3.425805]
[-1.4974451]
[-0.17091335]
[-0.00063874]
[0.00017575]
[-0.54605085]
[-0.00067833]
[-2.6613345]
[-0.38322264]
[3.0016816]
[0.2563313]
[0.13426861]
[-0.6764178]
[0.22672223]
[0.00026738]
[0.43751353]
[3.1921966]
[3.2423902]
[-2.7872424]
[0.32473427]
[0.435024]
[-1.2760327]
[-0.1911555]
[0.21862759]
[-1.2234321]
[0.3000909]
[0.2609947]
[0.28484002]
[-0.56757313]
[0.42148992]
[4.798389]
[0.20590882]
[-0.82351243]
[-2.0177083]
[-1.2217716]
[1.5444531]
[0.5818774]
[-0.00153544]
[0.00017987]
[0.06965046]
[0.00039274]
[1.0962844]
[-8.823541e-05]
[-1.5927505]
[-0.623953]
[0.18040115]
[-1.0596114]
[-1.4689345]
[-1.6514734]
[-0.36310506]
[-2.5903146]
[-0.50616795]
[-1.9084576]
