layers 10
layer 0 Dense
6 6
[-0.17355078  1.4333025   0.31312773  0.01686311 -0.5975586  -0.00985665]
[ 0.9049096   0.14524134  2.3934064  -0.1161932  -0.33769828  0.19367652]
[-0.29204825  0.22900349  0.00453548  0.5131032   0.49268064 -0.61119115]
[ 0.78539467 -0.7349334   0.84090155  1.3229753  -0.15301353  1.098735  ]
[-0.14156555  0.13227469 -0.07375021 -0.00790512  0.30634886  0.050928  ]
[ 4.0711994   0.11391582  0.30883238  0.23879287  0.17998064 -0.98118323]
[-0.11351958  0.4619482  -0.4241195  -0.71864617  0.623937   -0.52548873]
layer 1 Activation
elu
layer 2 Dropout
layer 3 Dense
6 24
[-1.0079231   0.02853034  0.81568074 -0.03758809 -0.4416226   0.6615417
  0.02271157  1.2635194   1.5534446  -0.2588931  -1.0035046  -0.11255962
  0.5922006   0.09598465  0.35937992  0.03019832 -0.4048265  -1.1925136
  0.2947736  -0.523916   -0.04565438  0.17451893 -0.3827749   0.15586184]
[-1.3020380e-01  6.3348538e-01 -2.1720668e-03  4.9024347e-02
 -1.6043164e+00 -2.2109607e-01  1.1453965e+00 -1.0843339e-02
  4.3182123e-01 -1.4948836e-01 -4.8282632e-01 -3.3846006e-01
 -3.0991797e+00  8.7444222e-01  1.2248888e-01 -3.1940126e-01
  5.1108178e-02 -3.4627923e-01  5.9701341e-01  3.5430169e-01
 -1.9347313e-01  7.7492759e-02 -9.4128013e-02  6.1725265e-01]
[ 0.09055412  1.0551708   0.18272583 -0.07863413  1.2478777  -0.06739762
 -1.5762019   0.7465881  -1.4610134   0.2623806   1.2125176   0.15861192
 -4.3194556  -0.19929938 -1.216763    0.5701904   0.09372703  1.2195963
 -0.76127917 -0.38016063 -0.9233362   0.34681606  0.05428588 -0.05090024]
[  0.7716739   -0.38601723   0.6227104   -0.08009151  -0.9049216
   0.4106545    1.3368026    0.47131935 -12.114811     3.5500872
   0.6199936   -1.9559512    0.706897     0.5757493   -0.36670795
  -0.73796165  -0.1602937   -0.41638833  -0.39031777   0.67640615
   0.44020316  -0.8641347    1.9844836   -0.2985029 ]
[-0.3719667  -0.08775724 -0.3101149   0.01120646  0.9267733  -0.6611528
 -0.89124286  0.3520334  -0.5059682   0.03382424 -0.01285158 -0.8630477
  0.59425753 -0.46291646  0.06111847  0.33387974  0.25455543  0.22416498
 -0.12794991 -0.51177377 -0.07037377  0.22018002  0.02090876  1.1709993 ]
[ 0.8278195   0.0257615  -0.4563095  -3.534543   -0.27864423 -0.63639927
  0.9554125   0.5182416   4.7032733  -0.7212536   0.95835143  7.2523065
 -0.75327784  0.6545995  -0.6800143  -1.3563832  -0.7023662  -1.3032713
 -0.63868254  0.7132513   0.15447298 -0.35869282 -2.2965894   1.082281  ]
[ 0.51843476 -1.4395452  -2.6987507  -2.729314   -0.6281199  -3.2548099
  1.2047797  -0.12553115 -1.2114409   0.15304942 -0.7122143  -0.26582655
  3.853398   -0.67467684  0.0355841  -1.5017507   0.35970774 -1.1620444
 -0.20953575  1.010379    1.3964119  -0.8058212  -0.50205636 -1.1197759 ]
layer 4 Activation
elu
layer 5 Dropout
layer 6 Dense
24 100
[-3.2034785e-01 -9.6285474e-01  1.8687856e-03 -2.8329587e-01
  9.7741991e-01 -3.6468524e-01  1.6990572e-01  3.3572862e-01
  2.3037468e-03  4.2442000e-01 -1.0419534e+00  1.4784902e-01
 -1.0932471e+00  8.1279920e-04  2.0092349e+00  3.8993089e-03
  1.9323544e-01 -1.3169189e-03 -3.7126377e+00  2.5813708e+00
 -2.8138116e-03  3.6209757e-03  7.8159791e-01 -4.6066961e-01
  3.8576741e-03  1.1247961e-03 -1.2835412e-02 -2.5801763e-03
 -2.3350704e-03  2.9284149e-01 -6.3056350e-03  6.1252016e-01
  2.9244354e-01  4.7701740e+00 -7.3616509e+00  1.2291005e+00
 -4.3231235e+00  4.6790484e-04 -1.7611257e+00  1.5809866e+00
 -7.7643257e-01 -7.6782364e-01 -7.0714211e-01  3.3174562e+00
 -3.7905433e+00  1.0504559e+00  4.0059628e+00  4.7986996e-03
  3.3824191e+00 -2.3872263e+00 -1.1942502e-03  9.9549770e-01
 -7.5402027e-03  1.7799476e-01 -7.5791603e-01  2.4435406e+00
 -4.6984134e+00  2.8214741e-01  2.9755230e+00  5.6301826e-03
  9.2748512e-04  4.6412358e-03 -9.0674049e-01  5.2986927e-03
  1.4085047e+00  1.9677278e-01  8.4147143e-01  4.5735413e-01
 -4.3264931e-01  2.0356867e-01 -1.0731667e+00 -2.0540917e-01
 -2.8410368e+00 -1.5086334e+00  2.1973965e+00 -2.3814332e-01
 -6.0668051e-01 -3.3884315e+00 -1.8466376e-03 -5.2723531e-03
  9.2010880e-01  8.3061187e-03 -6.6775218e-02 -3.0912963e-01
 -4.7930066e-02 -2.3479333e+00 -1.1580923e-02 -4.1056788e-04
 -7.1521051e-04 -1.1628091e-03 -1.2449263e+00 -2.5794888e-01
  2.7413263e+00  2.5588397e-03 -2.9031050e+00 -8.5897284e-04
 -1.1863239e-02  2.3522812e-03 -6.9251221e-01 -8.0878818e-03]
[-2.3689256e+00 -3.8378024e+00  3.3344253e-04 -4.5369637e-01
  1.0274857e+00  4.3181223e-01  1.1599032e+00  6.5330291e-01
 -4.9534300e-03  1.0303705e+00  3.1668049e-01  4.1568047e-01
  1.5642832e-01 -1.8081244e-04  1.1694903e+00 -7.6713841e-03
  8.9159274e-01  2.6032848e-03  8.9230865e-02  2.2434646e-01
 -1.0364105e-03 -7.3208893e-03 -7.9107535e-01 -1.0213667e+00
 -6.7822577e-04 -2.5557189e-03 -1.5542426e-03 -7.5017107e-03
 -3.2839163e-03  1.2996362e+00 -4.9143513e-03 -7.7869552e-01
  6.4672448e-02  1.1583370e+00  1.7648169e+00 -7.6443803e-01
 -1.7346034e+00 -4.1149938e-03 -1.4329216e-01 -5.2131450e-01
  2.9114038e-01 -1.2072204e+00 -6.3668382e-01  1.9307735e+00
  4.6874306e-01  1.5925122e+00 -4.1334894e-02 -1.2043314e-04
  1.8667707e+00 -7.1024120e-02 -3.7387322e-04  1.2739214e+00
 -6.1632772e-03 -9.8581058e-01  3.1193054e-01  6.7232847e-01
 -3.4727722e-01 -5.8504534e-01  1.2681129e+00 -4.2520911e-03
 -3.6837654e-03 -2.8374954e-03  3.8921165e-01 -5.8681392e-03
 -4.8236981e-01 -4.5214376e-01 -5.1516241e-01  8.4424749e-02
 -8.9481455e-01  2.6692210e-02  8.5502529e-01  1.1047251e+00
  1.1342367e+00  7.6482183e-01  1.9042292e+00  4.5767668e-01
 -1.2787317e+00  1.2854485e-01 -2.7957056e-03 -6.8953396e-03
 -4.6902356e-01 -3.8385051e-03 -1.7551582e-01 -1.5073860e-01
 -1.7309620e+00  2.3247590e+00  1.5412111e-02  2.1934216e-03
 -1.6304889e-03 -2.3295006e-03  4.8497024e-01 -5.9210616e-01
 -3.8406640e-01 -8.8127179e-04 -2.1287351e+00  4.3785619e-03
 -2.4327645e-03 -4.7497670e-03 -1.5236580e+00 -6.4316471e-03]
[ 1.11673016e-03  6.89772293e-02 -1.17149379e-03 -6.18432164e-01
 -4.42203917e-02 -7.15364635e-01 -3.89592886e-01  2.53406167e-01
  3.66793852e-03 -1.26328158e+00  9.27375257e-01 -3.64176178e+00
 -1.55710831e-01  4.92136925e-03 -7.25506186e-01 -5.99869434e-03
  1.07056610e-01  1.01764721e-03  9.22628105e-01  6.07669413e-01
  2.58371886e-03 -1.06078098e-02 -6.84690922e-02 -1.36016560e+00
 -3.83844110e-03 -9.87762026e-03  6.64769532e-03  2.81850994e-03
 -1.69997592e-03  6.26357317e-01  6.40837522e-03 -9.81158972e-01
 -5.37304342e-01 -2.44916558e+00  5.64765263e+00 -8.86463344e-01
  4.51225668e-01  4.99323569e-03 -4.55993153e-02  1.23767011e-01
  1.50788033e+00 -1.32191157e+00  2.39997268e+00  1.16919830e-01
  1.20392906e-04  4.85922545e-01 -1.22887218e+00  4.98125469e-03
  8.06728125e-01  1.20422685e+00 -2.82070274e-03  1.30667657e-01
  3.04278289e-03  1.37801278e+00 -6.42347515e-01 -1.59198296e+00
  1.19403327e+00 -2.66810203e+00 -3.71549129e-01  1.54672249e-03
 -7.12239090e-03 -6.66818209e-03 -8.92842174e-01 -3.14577424e-04
 -4.83292667e-03 -1.21192706e+00 -2.75284195e+00  1.74556720e+00
  6.43311143e-02  3.32093060e-01 -1.06110597e+00  8.53166819e-01
 -5.30001640e-01 -3.23087263e+00 -6.57730103e-02 -2.89266324e+00
  8.78802359e-01  1.63368270e-01  1.43051869e-03  4.39188490e-03
 -2.51545370e-01  4.56830906e-03  6.65215909e-01 -5.21406770e-01
 -1.75263393e+00 -2.15159202e+00 -7.92055484e-03  3.35385394e-03
 -6.56829623e-04  3.15385382e-03  1.76714122e-01  1.85371339e+00
 -5.68952501e-01  4.60097287e-03 -1.33556560e-01 -1.18814246e-03
  2.65637389e-03  4.53257142e-03  1.36523294e+00 -9.88537213e-04]
[-5.0440121e-01 -2.6549127e-02  5.7724658e-03 -1.4632102e+00
 -2.2784779e+00  1.6998594e-01 -1.1911072e+00 -5.3517276e-01
  1.0012760e-02  1.5789888e+00 -5.1319890e+00  6.7002279e-01
  1.3691865e+00  4.4596149e-03 -1.0510923e+00 -3.9066238e-04
 -3.7395108e+00 -4.2894893e-04 -1.9999561e+00 -3.7685437e+00
  3.1010145e-03 -2.0097638e-04  5.3400981e-01  2.5623651e+00
  4.9087312e-03  4.8986184e-03 -8.0661150e-03  1.0578871e-02
 -6.6171709e-04 -2.5762980e+00 -2.7355581e-04  2.8429195e-02
 -4.2078128e+00  4.5233097e+00 -5.5100727e-01 -7.3680514e-01
  1.7167026e+00 -2.6764343e-03 -4.0975308e-01  3.3516121e-01
  1.5293673e+00  9.7154033e-01 -5.5696267e-01 -2.5547729e+00
  1.0401908e+00 -1.1401943e+00 -1.3660620e+00 -2.8207228e-03
 -1.8802375e+00  4.0456853e+00  7.7777342e-03  5.1512867e-02
 -6.7793196e-03 -1.9614099e+00 -6.9720978e-01  4.1365176e-01
  8.8402468e-01 -1.2376558e+00 -6.3581491e-01  1.4065884e-03
 -5.2494728e-03 -4.9680956e-03 -1.5133677e-01  1.7478943e-03
  2.2458258e+00 -1.1946130e+00  2.2747161e+00  3.1795490e-01
  9.3835700e-01  1.9517102e+00 -9.5144100e-02  2.5020318e+00
 -2.2058907e+00  1.5073242e+00 -5.2847207e-01 -1.6818956e-01
  1.1436105e+00  8.3753318e-02  3.1505842e-03 -6.6013956e-03
 -9.6851170e-01 -2.6999374e-03 -4.6594378e-01 -1.2294698e+00
  2.0205250e+00 -2.0309401e+00  2.2464026e-05 -8.1371125e-03
 -9.8373378e-03 -5.1459158e-03  4.6348068e-01  1.7445670e+00
 -5.8572454e+00  4.4056242e-03  1.1796020e+00  2.9406236e-03
 -6.4960099e-03 -4.0806099e-03  1.6393805e+00 -3.0747305e-03]
[ 1.15935481e+00  1.17217612e+00 -1.72720430e-03  2.87820160e-01
  2.12921977e-01  6.52866542e-01 -1.73382020e+00 -1.93687725e+00
 -1.15950899e-02 -2.39557266e-01 -8.23494673e-01  5.95023148e-02
  2.41732642e-01 -1.38725783e-03 -3.09100121e-01  1.94782298e-03
 -1.40559822e-01 -2.25348724e-03  1.66665152e-01 -1.08761215e+00
 -3.78617668e-03  6.43421337e-03 -1.44858420e+00  6.24521136e-01
  4.45644418e-03  7.73389474e-04 -8.75313766e-03 -2.44487310e-03
  4.82370099e-03  4.47043329e-01 -1.11148960e-03 -4.35705036e-01
  2.14109361e-01  1.17809094e-01 -4.33034807e-01 -1.26622963e+00
  9.96055186e-01  4.04740777e-03  7.19610214e-01 -2.32879311e-01
  1.99445948e-01  3.23788524e-01  2.53609121e-01  6.77530169e-01
  2.88004667e-01 -1.21759427e+00 -6.06850803e-01 -2.92254757e-04
  3.55240077e-01 -5.47090173e-01 -6.84812039e-05 -3.08177495e+00
  9.04127315e-04 -6.94930553e-01  2.88462698e-01 -5.45614004e-01
  5.69301248e-01 -3.72672886e-01  2.98012972e-01  5.75177837e-03
  1.73335825e-03  5.26110549e-03  1.01142788e+00  5.25305327e-03
 -4.66253817e-01  5.76161563e-01 -1.50189292e+00  2.10211918e-01
 -2.13801593e-01 -1.84827551e-01  2.09537998e-01  3.94158572e-01
  1.31840336e+00 -1.81598872e-01 -2.58100009e+00  3.46762761e-02
  1.82893932e+00 -5.40163100e-01 -8.24805349e-04  5.60399517e-03
 -1.14964977e-01 -4.05883975e-03 -6.43025041e-01  4.05152142e-01
 -1.65332508e+00 -1.90343246e-01  6.39055288e-05  1.41438574e-03
  4.53362148e-03 -3.27124551e-04  5.09408593e-01 -1.11329126e+00
 -1.12776971e+00 -3.29388212e-03  2.18201804e+00  6.98888954e-03
  5.55960974e-03  4.73685541e-05 -1.10137534e+00  2.94574583e-03]
[-6.7481422e-01 -6.4889394e-02 -7.3032524e-03  3.2622228e+00
  1.2341113e+00  2.3574331e+00  1.7783330e-01  1.1827477e+00
 -2.7116130e-03  1.2555761e+00  3.4953032e+00  3.6760368e+00
  7.7490628e-01 -6.0972786e-03  2.6906395e-01 -6.8060555e-03
  6.5227196e-02  1.3953019e-02 -7.2461361e-01  2.8883567e+00
 -4.8269369e-03  4.1763037e-03  1.5066576e+00  4.5080056e+00
  5.9000622e-03 -8.1744336e-04  2.7909579e-03 -1.0693832e-02
 -4.3740072e-03 -7.0299691e-01 -1.4653761e-02  2.5680375e+00
  9.2573816e-01  2.3490622e+00 -1.5930172e+00  3.0505168e+00
 -2.2307670e-02 -1.4500286e-02  3.0214632e-01 -4.0682902e+00
 -1.0308018e+00  1.7412636e+00  1.6297157e+00  1.2243869e-01
 -5.4868537e-01 -1.0598904e+00  1.2481815e+00 -1.0351465e-02
  4.6166737e-02 -4.3163447e+00 -2.4290415e-04  1.5760501e-01
 -1.2316082e-02  1.7146602e+00  1.1512220e+00  3.5199702e-01
  4.5047170e-01  3.4364884e+00 -1.7067139e+00 -1.4671240e-02
 -8.0570467e-03  3.4687705e-03  1.4187129e+00 -7.0331576e-03
 -3.4986460e-01  3.3702198e-01  2.7830491e+00 -2.9743419e+00
  4.8688459e-01 -1.5647752e+00  2.5173748e-01 -2.7962608e+00
  4.1673722e+00  4.5893202e+00  7.8154451e-01  3.1031566e-02
 -4.0777314e-01 -8.8535887e-01 -2.5260844e-03 -2.0136043e-02
 -1.3300028e-02 -1.2029091e-02  9.7297001e-01  5.8370912e-01
 -1.6907312e+00  1.5207702e+00  5.5110719e-02 -8.2682110e-03
 -3.1478342e-03  2.8863197e-04  1.0927156e+00 -2.7058855e-01
  1.1611592e-03 -2.0888099e-02 -2.2200109e-01 -2.4239898e-03
 -8.6875207e-04 -1.5995797e-02 -2.8395441e+00 -4.8655332e-03]
[ 1.06830120e+00 -1.30018890e+00  9.42951068e-04 -2.81779110e-01
 -3.77665251e-01 -5.97867429e-01  1.38378453e+00  1.51024270e+00
  5.69155859e-03  3.88044477e-01  9.42811966e-01  1.21104233e-01
 -1.57951087e-01 -2.78517790e-03 -1.40881822e-01 -5.03981533e-03
  3.34508985e-01 -8.25872004e-04 -1.01229876e-01 -2.88144279e+00
 -3.04030348e-03 -7.14605488e-03  2.40260512e-01 -7.72043800e+00
 -3.81823455e-04  1.10648235e-03  3.36669176e-03 -3.26341833e-03
 -3.22741806e-03  4.84043248e-02  2.95102084e-03 -5.04015303e+00
 -7.42135197e-02 -1.07778811e+00 -6.24825835e-01  2.24602476e-01
  2.25989029e-01 -1.57566799e-03 -2.77490206e-02  1.10110812e-01
  2.20958106e-02  1.43531457e-01  3.38367134e-01 -7.91407108e-01
 -1.45545021e-01  1.56025779e+00  5.78083932e-01  4.76559252e-03
 -1.28547072e+00  7.90754259e-01  3.97022814e-04  9.60652292e-01
 -1.66390534e-03  3.00531060e-01 -5.18436849e-01 -1.45176697e+00
 -6.23315752e-01  4.98345494e-01  2.05157116e-01  1.44190111e-04
  8.24154820e-04 -8.62459280e-03 -4.66673166e-01 -6.26351452e-03
  1.08722627e+00 -2.18598199e+00  1.01663403e-01  5.01723707e-01
  2.78113931e-01  3.09933066e-01 -2.54310817e-01 -1.08880289e-02
 -9.76421237e-01 -8.29936886e+00  1.61103141e+00  1.11256294e-01
  4.99729700e-02  1.99889851e+00  1.33056054e-03 -1.43213873e-03
  2.13679314e-01  2.01269705e-03 -3.65205914e-01 -2.73677140e-01
 -2.02768111e+00 -4.64399934e-01 -9.32570174e-03  3.85321880e-04
 -7.68108619e-03 -1.80375192e-03 -4.83591184e-02  2.27934504e+00
 -1.62400174e+00 -2.22553092e-04 -1.35112488e+00 -1.17011461e-03
 -2.65313312e-03 -2.76537542e-03 -4.14582193e-01  5.86570194e-03]
[ 3.22533920e-02  8.13283920e-01  1.02529489e-03 -1.18903309e-01
 -6.65832281e-01  2.07475603e-01 -2.25789323e-01  2.75559306e-01
  1.50684302e-03  2.22260609e-01 -1.10426223e+00  9.16410029e-01
 -5.90506136e-01 -1.87896760e-04  7.48730898e-01  5.45594608e-03
 -1.04978943e+00 -4.05746931e-03 -1.34247482e+00 -1.98306108e+00
  1.91454645e-04  5.50376903e-03  3.82192045e-01  1.29665601e+00
  2.09630933e-03  5.89699252e-03 -3.95961991e-03  2.08255812e-03
  4.05390793e-03 -6.28444195e-01 -2.65706377e-03  7.82133937e-01
 -3.31606209e-01  1.89778388e-01 -3.23146987e+00  8.42568815e-01
  5.24289608e-01  5.50272875e-04  4.77666169e-01 -1.04555100e-01
 -2.00831905e-01  6.99394763e-01  2.01706195e+00 -8.60216975e-01
 -1.61935911e-01 -8.86576116e-01  9.02333200e-01 -1.99104077e-03
 -5.82906663e-01 -5.22341609e-01  6.92651200e-04 -1.32898182e-01
  1.13149686e-03 -1.09390295e+00  2.39452660e-01  4.68671858e-01
 -1.27757525e+00 -3.24186116e-01  6.27823234e-01 -1.29260554e-03
  5.50769735e-03  2.87827407e-03  6.21017933e-01  2.29484774e-03
 -3.37712795e-01  2.73322999e-01  7.15155244e-01 -3.55790526e-01
  2.12660775e-01  3.39760602e-01 -6.60470128e-01 -8.43151882e-02
 -1.73289049e+00 -1.27067363e+00 -2.43769750e-01 -1.38554740e+00
 -5.05863070e-01 -2.95442224e-01 -1.59503613e-03  1.76236383e-04
 -6.28968894e-01  6.60901278e-05 -5.48494279e-01  5.21718621e-01
  4.74578381e-01 -3.56576681e+00 -1.86849814e-02 -2.44013686e-03
 -2.79282127e-03 -7.95294356e-04 -1.22201025e-01 -3.97766352e-01
 -1.34927988e+00  3.17606865e-03  2.66655177e-01 -1.63636357e-03
 -9.23802983e-03 -4.48237668e-04 -1.15290034e+00  2.45746603e-04]
[ 4.55055386e-02  1.46513015e-01 -6.31421339e-04  4.35131013e-01
 -1.67165375e+00  3.91599029e-01  1.83813691e-01 -1.08758166e-01
  2.53120135e-03  1.53204954e+00 -2.48520494e-01 -4.81977388e-02
  5.06011307e-01  4.68483986e-03 -1.58959284e-01 -1.66571152e-03
  2.39757970e-02  1.30986422e-03 -4.25077021e-01  2.21575350e-02
  2.30231252e-03 -3.20738833e-03 -2.51626447e-02 -1.55747175e+00
  3.94283998e-05 -2.17863312e-03  2.20128335e-03 -5.15804160e-04
 -1.62143187e-04 -8.44695345e-02 -6.03604130e-04  2.93187618e-01
  5.87550364e-02  6.17373288e-01 -1.93763226e-01  7.35705392e-03
  4.35039289e-02 -9.38772500e-05 -9.30010676e-01 -1.39908940e-01
  1.33198529e-01  2.56253332e-01  1.23841986e-01  5.92398681e-02
  2.40124375e-01  5.85344017e-01  6.60927892e-01 -4.25502920e-04
  4.70952660e-01 -1.19278423e-01  2.47683463e-04  6.56318516e-02
  1.32220273e-04  2.79718578e-01  6.35666966e-01  2.32104197e-01
  1.43426642e-01  3.30466055e-03 -5.12336940e-02 -1.98308611e-03
 -1.09215861e-03 -3.03822756e-03 -6.06461763e-01 -9.12392570e-04
  4.35037404e-01  3.78643304e-01  3.79245013e-01  4.55968469e-01
 -5.19151330e-01 -4.91226353e-02  6.80256784e-01 -7.59841740e-01
 -4.67881966e+00  5.69492221e-01  3.97278927e-02 -4.26342338e-02
 -7.07591847e-02  4.92578834e-01  6.27806876e-05 -3.42435844e-04
  1.82008553e+00 -2.70075485e-04  7.02559599e-04  1.21918142e+00
 -6.82624996e-01 -8.94885883e-02 -1.40701293e-03  6.62154751e-04
 -2.34118212e-04  3.30992858e-03  5.16063094e-01 -2.81981468e-01
  1.98992148e-01  7.63195385e-06  1.14341397e-02 -7.90896069e-04
 -1.75881013e-03 -8.30663717e-04 -3.12214106e-01 -1.33143144e-03]
[-2.4550197e-01 -1.3632463e+00 -1.3024344e-04 -6.1184853e-01
 -1.9489652e-01 -1.2226611e-01 -3.0654271e-03 -1.9627327e+00
 -4.0629152e-03 -4.0442553e+00  9.5884033e-02  4.2013460e-01
 -6.5316095e+00 -1.6181580e-03 -1.7439409e+00 -5.5975361e-05
  6.9565833e-01  1.5827904e-03 -8.0409674e-03 -5.8072335e-01
 -9.0955524e-04 -1.3206176e-03 -4.1270623e-01 -1.2346864e+00
 -4.8724419e-04 -3.8004207e-04  2.4943172e-03  1.6486787e-03
 -1.2816708e-03  4.7374266e-01  4.2781993e-03 -8.2450032e-01
  6.4193654e-01 -3.2735319e+00 -2.6571235e-01 -9.1867411e-01
 -2.5061989e+00 -3.0621809e-03 -1.4511908e+00  3.6249438e-01
 -3.1685558e-01  1.3428476e+00  1.5614559e-01  7.0659953e-01
  4.2295179e-01  1.1794691e+00 -1.5738046e+00  2.4629410e-03
 -1.8261788e+00  6.3763034e-01  2.8786247e-03  1.1657606e-02
 -1.0557733e-03 -1.0934167e+00 -8.1541929e+00  9.3052691e-01
 -9.9789208e-01  1.3489089e+00  1.3787507e-01  2.2650019e-03
 -1.3301256e-03  5.7999176e-05 -8.7783343e-01  1.4442132e-03
 -3.0137382e+00  7.2691768e-01 -2.5705581e+00  1.2175832e+00
 -6.2880945e+00 -7.2605938e-02 -7.4721777e-01 -1.0520924e+01
  1.6419663e+00  1.6200482e+00  6.3746595e-01  1.7392449e-01
  1.0248619e+00  1.2573855e+00  1.8126967e-03 -5.9929630e-04
 -7.1351880e-01  1.9598401e-03 -1.6014832e+00 -9.9219954e-01
  3.4492740e-01 -3.1603680e+00  6.8717711e-03  9.1429893e-04
  2.0723762e-03  2.8743737e-03  1.1040145e+00  1.5995516e-01
 -8.4589940e-01 -2.8314933e-03 -8.1039494e-01  2.7366234e-03
  7.8621721e-03 -4.0711529e-04 -2.8714377e-02 -1.1814540e-03]
[ 1.6106219e+00  3.7692842e+00  1.6554121e-03  3.9707596e+00
 -1.5314667e+00 -3.2420835e-01  3.1191361e-01  1.4252807e-01
  3.9522056e-03  3.9726670e+00  5.2893200e+00 -6.5496880e-01
  4.3704492e-01 -4.5824149e-03 -1.4102132e+00  4.5984430e-04
 -5.5180430e-01 -4.2187129e-03 -2.0994308e+00  1.6957265e+00
  2.0017440e-03 -7.7811512e-04 -9.6283066e-01  2.9145303e+00
  2.5216318e-04  3.4602499e-03  3.0455820e-03  1.5807989e-03
  1.6608697e-03  4.9994574e+00  1.4185713e-03  2.3007376e+00
 -6.1994576e-01  3.0929377e+00  9.1618195e+00  1.4139150e+00
  4.9319312e-01  5.3922259e-03  9.6659350e-01 -2.6017900e+00
  1.1142901e+00  2.8420856e-02 -2.6184590e+00 -1.9660201e+00
  1.2202585e+00  1.1885940e+00 -1.7254729e+00 -1.2778740e-03
  1.8691739e+00 -4.3543786e-01 -3.4108858e-03 -1.1494902e+00
  3.9443946e-03 -5.0227135e-01  9.6729159e-01 -3.7373810e+00
  2.3017592e+00 -3.3894200e-02 -4.4427922e-01 -1.6209536e-03
  1.3132989e-03 -8.9475064e-04  6.9000131e-01 -2.8904246e-03
  3.2798915e+00 -2.2842085e+00  3.1209815e+00 -3.1731913e+00
 -4.7635026e+00  7.6321244e-01  2.3223619e-01 -1.0125122e+00
  8.9602530e-01  8.5363585e-01 -1.5428702e+00  1.2356908e+00
  6.0156542e-01 -7.4740481e-01  1.1795029e-04  5.2250894e-03
  1.7448171e+00  6.0861500e-04 -6.6346532e-01  1.4152770e+00
 -1.7309222e+00  1.8078455e+00 -3.6155877e-03 -3.6773069e-03
 -5.4568797e-03 -6.7599830e-03 -2.1505187e+00  2.9948146e+00
  3.2364082e+00  8.6693384e-04  2.7121711e+00 -5.1194867e-03
 -1.8789952e-04  1.2411349e-03 -2.0559978e+00  6.5086749e-03]
[-6.4282075e-02 -1.7377087e+00  1.8296381e-03 -4.0039900e-01
 -4.4627279e-01 -1.6039282e+00  3.4003552e-02  1.1483860e-01
 -8.8371336e-04 -1.5757629e-01 -2.8710350e-01 -6.8367791e-01
  2.5286231e+00 -1.4936087e-03  7.9546493e-01  6.9352900e-05
 -9.6054047e-02  6.4204150e-04 -4.0104365e-01 -8.5187770e-02
 -1.5055614e-03 -1.3048443e-03  1.7277502e-01 -2.1555097e+00
 -7.6446560e-04  1.8958388e-03 -1.6032719e-03  7.7211211e-04
  5.5670994e-04 -1.1413372e-01  1.5424098e-03 -3.8216174e-01
 -1.3613255e-01 -8.3560860e-01 -6.1291867e-01 -3.8235986e-01
  4.9650064e-01  2.6183340e-04 -5.4458427e-01  9.7506320e-01
 -8.0772841e-01 -1.6846975e+00  4.7618281e-02 -3.2327637e-01
  3.3541799e-01 -6.1094683e-01  7.1346802e-01 -2.5198236e-04
 -7.5238639e-01  1.3740840e+00  6.7269901e-04  1.6364495e-01
 -7.2421081e-04  7.3432073e-02  2.1993303e+00  1.3024151e+00
 -1.5349367e-01  7.6593351e-01 -7.6926187e-02  2.4254734e-03
  1.1920769e-04  1.7989420e-04  4.2616808e-01  3.1001371e-05
 -1.9175063e+00  6.1048746e-01 -3.0803895e+00  8.6584193e-01
  2.0587993e+00  2.4464586e-01  2.4289365e-01  4.4385257e+00
 -3.0130482e-01 -5.9907243e-02  7.5792477e-02 -7.6642487e-04
  3.1572083e-01  6.2164021e-01  3.7777060e-04  9.1873074e-04
 -1.5222707e-01  1.0430203e-03  4.1740513e-01  1.1621939e+00
  1.4330287e+00  2.9455125e-01  6.5255468e-04  4.1369133e-04
  1.1888286e-03 -3.1841528e-03 -4.3426238e-02 -1.4181833e+00
 -3.1635153e-01  2.4506164e-04  3.1625035e-01 -3.3872333e-04
  4.6820639e-04  2.1078896e-04  6.8749046e-01 -4.8286822e-03]
[ 1.77810073e+00  9.98331726e-01 -4.63056756e-04 -1.52467698e-01
  1.23223752e-01 -5.12534678e-01 -1.17584205e+00 -1.64830184e+00
  1.03206316e-03  1.70493677e-01 -5.00589848e-01  7.70488828e-02
 -5.07206358e-02  7.76363013e-04 -4.43484157e-01 -1.91864849e-04
  3.97986978e-01  9.03780223e-04 -1.15537316e-01 -1.25791803e-01
  2.74911057e-04 -1.78498006e-03 -3.64648223e+00 -4.02650297e-01
  7.81369163e-04 -1.99516234e-03  1.72637892e-03 -8.24345683e-04
  5.89549367e-04 -2.91480333e-01  4.27481573e-04  5.29902101e-01
  6.23702347e-01  5.73710054e-02  2.06941471e-01 -1.99939206e-01
 -9.44322050e-02  8.77666753e-04  3.31206232e-01 -7.64513481e-03
 -3.75231296e-01 -2.45343700e-01  3.81606519e-01 -4.33529258e-01
 -7.57640600e-01 -6.67275786e-01 -9.13175404e-01  1.17754156e-03
 -4.97900657e-02  2.12068081e-01  1.20419136e-03 -3.23675847e+00
  4.47325729e-04 -7.47821629e-02 -7.15620220e-02  3.69948745e-01
  1.27641618e-01  6.15462065e-01 -4.13725346e-01  1.27148035e-03
 -2.66847528e-05 -2.27874308e-03  3.28204215e-01 -4.80935414e-05
  2.42000327e-01 -9.37909901e-01 -8.23648155e-01  4.63990569e-01
 -3.22177112e-01  1.54036388e-01 -1.08544564e+00  1.13525018e-01
  5.14090478e-01 -5.14697969e-01 -1.90448928e+00 -9.11529139e-02
  9.11040187e-01 -1.10550588e-02  8.19395005e-04  8.21272668e-04
 -1.18901730e-01 -5.34229504e-04 -2.01575622e-01 -1.35981649e-01
 -8.83198261e-01  3.12081128e-01 -3.28143942e-03  6.90776913e-04
  7.93926360e-04  4.68832499e-04  3.82545710e-01 -2.03069448e+00
 -2.93830395e+00 -9.36203651e-05  1.47724831e+00  1.88198150e-03
  1.25957059e-03 -5.62408939e-04  3.26178700e-01  8.07763659e-04]
[-1.21289003e-03  5.19228411e+00 -1.37504544e-02 -7.45391309e-01
 -5.46834707e-01  1.65787637e-01 -2.67180037e+00 -2.24609804e+00
 -1.05804857e-02 -9.65636194e-01 -1.59514403e+00  1.15380570e-01
  3.11657432e-02  5.31215686e-03 -4.79765236e-01 -5.53155900e-04
 -8.57222021e-01 -2.98332865e-03 -1.36893129e+00  2.93277621e+00
  7.02110212e-03  1.47614651e-03 -1.29810929e+00 -2.73586178e+00
  9.25903488e-03 -1.83704123e-02 -9.92110232e-04  3.06441495e-03
  1.20539488e-02 -1.30603170e+00  2.19222764e-03 -1.43687820e+00
  5.95360994e-01 -5.72001398e-01 -3.44533300e+00  1.89139564e-02
  6.01372063e-01  1.38881151e-02 -7.63115227e-01 -2.91974068e-01
  1.12161584e-01  1.27669764e+00 -4.96072263e-01 -1.30622029e+00
 -4.03604317e+00 -3.31180692e+00  2.58016139e-01 -9.03691165e-03
 -5.34369171e-01 -5.89706063e-01 -4.30333847e-03 -2.19840360e+00
  7.46858772e-03 -4.14891213e-01  2.34699056e-01  4.06170815e-01
 -1.74527049e+00  2.66634524e-01  7.42926598e-01 -2.87279044e-03
 -4.34596511e-03 -5.73525997e-03  1.45431888e+00  1.21875731e-02
  2.95825452e-02  2.61858058e+00 -9.71212387e-01  2.12764516e-01
  7.20585048e-01 -2.11172566e-01 -1.40238762e-01 -9.22305346e-01
 -1.01770377e+00 -3.84546733e+00 -2.73617387e+00 -1.82553992e-01
 -2.25483274e+00 -1.51244247e+00 -1.15756353e-03  1.68168675e-02
  6.09786749e-01 -4.24427865e-03 -1.48557395e-01  1.02482510e+00
  3.41650081e+00 -9.39935565e-01 -8.00156314e-03  7.68337818e-03
  1.36256730e-02  1.88825428e-02  3.89002442e-01 -1.74326217e+00
  2.45768452e+00 -4.87809768e-03  4.23903555e-01 -2.42911163e-04
  3.27958842e-03 -7.18354655e-04  3.55035305e-01  5.99083630e-03]
[ 1.1121942e+00  5.7154900e-01  1.0531111e-05 -1.3738228e+00
 -5.0611062e+00  4.5518938e-01  2.6285677e+00  1.1499380e+00
 -3.6420505e-03 -1.0367540e+00 -1.8843094e-01  2.6736474e-01
  7.9956734e-01 -4.6188798e-04  2.6547248e+00 -6.1589002e-04
 -1.2349970e+00 -1.9516054e-03 -1.1359392e+00 -7.4121838e+00
 -4.4666575e-03  5.1841820e-03  2.2116878e+00  1.0599288e+00
 -1.9783056e-03  1.3714537e-03 -5.3655785e-03 -1.5779868e-03
 -7.6126476e-04  2.0897815e+00  2.9580209e-03 -9.7618723e-01
 -2.2592709e+00  6.6587098e-02 -1.9799073e+00  1.1392126e+00
 -1.6591028e+00  8.8869301e-06 -1.8328941e+00 -1.5244982e-01
 -4.1355619e-01  1.8346546e-02 -6.3454378e-01 -1.5916085e+00
  3.1642585e+00 -6.7542188e-02  7.4893832e-01  5.7938960e-05
 -2.6738119e-01 -1.1299715e+00 -5.6108152e-03  5.8843553e-01
 -3.6615545e-03 -2.0075548e+00  1.1844368e+00  1.8410350e+00
 -1.6236587e+00 -4.3191202e-02  6.4685879e+00  3.3540647e-03
  6.6950050e-04  6.7423284e-03  9.2775561e-02  6.1751076e-04
 -5.2365582e-02  1.6992656e+00 -2.4713280e+00 -1.0676461e-01
 -5.6600529e-01 -2.0702156e-01  1.0357676e+00 -1.9567527e-01
 -4.4425273e+00  7.3405700e+00 -2.3144549e-01  7.8641996e-03
 -5.5169559e+00  1.2970899e+00 -2.1555687e-03  8.0439722e-04
 -1.3019021e-01  5.1335379e-04  8.2900010e-02  6.9112325e-01
 -8.3352290e-02 -2.0635841e+00  7.0156730e-03  3.2687819e-04
  2.7928408e-03 -3.5917589e-03 -2.1391323e-01 -4.1051583e+00
  1.9804022e+00 -1.3497695e-03 -2.2713258e+00 -1.0402715e-03
  4.5083845e-03  1.3137376e-03 -2.0007224e+00  3.1450003e-05]
[-5.2408528e-01 -1.9545958e+00 -6.4440477e-03  6.4449275e-01
 -1.4126495e-01 -1.8868155e+00  8.1548440e-01 -1.4676253e+00
 -1.3406958e-02 -3.3923969e-01 -1.9099865e+00  4.3578210e-01
 -7.1529168e-01 -3.8812524e-03  1.5117413e-01 -8.1359036e-03
  3.0927476e-01  7.2299223e-04  1.5229491e+00 -8.6364162e-01
 -2.2020675e-03 -1.0476976e-02  1.4060410e+00 -1.7112134e+00
 -2.5341641e-03 -1.0659255e-02 -6.0537113e-03 -1.2888195e-02
 -3.4945034e-03 -1.3697416e+00  4.9221478e-03 -9.2748690e-01
  8.3394998e-01 -2.5210724e+00  1.0251173e+00 -5.1218575e-01
 -1.5256106e+00 -2.8186683e-03 -3.0619531e+00  1.2913408e+00
 -4.3750727e-01  1.7054030e+00 -5.0839263e-01 -1.2803403e+00
  4.2780146e-01  6.3394743e-01 -1.2652839e+00 -1.5113153e-03
 -5.0205750e+00 -1.3086545e-01 -1.5036635e-02  1.5097101e+00
 -7.5988378e-03  3.7759331e-03 -2.7806357e-01  1.6528746e-01
 -2.4587168e-01  7.4378198e-01 -1.4683811e-01  8.7511860e-04
 -2.8035056e-04 -2.6587634e-03  3.5607275e-01 -9.4723068e-03
 -2.2887673e+00  2.7162147e+00 -1.4696082e+00  2.3383404e-01
 -7.7578276e-01  2.9977289e-01  1.2958436e+00 -1.4654915e+00
 -4.1572466e+00  3.5774475e-01  2.5700791e+00  3.8853571e-01
 -1.5369925e+00  6.2753487e-01 -6.3826866e-03 -3.2195654e-03
  6.1561710e-01 -7.8436369e-03 -4.4834441e-01 -5.5472356e-01
  1.9437093e+00  1.1066120e+00  1.7153623e-02  1.7288656e-03
  4.1828309e-03 -1.1426714e-02  3.0510187e-01  4.0547127e-01
  5.4509001e+00 -1.8174829e-03 -2.7147624e+00 -5.6426036e-03
 -8.8694496e-03 -8.4118620e-03  1.0852081e+00 -3.8296322e-03]
[ 4.3405122e-01  1.3488647e+00 -2.6122851e-03  1.9294873e+00
 -1.8338711e+00 -8.0205667e-01  1.5007936e-02 -2.6390741e+00
  1.3371077e-02 -4.9051642e+00  6.0990590e-01 -1.4892529e+00
 -1.8498452e+00  4.6595894e-03 -1.2080386e+00  5.3902213e-03
 -1.6659393e+00 -5.4123364e-03 -2.4007883e+00  1.2202101e+00
  8.8540362e-03 -3.4311560e-03 -7.3020071e-01  1.1307486e+00
  5.9733340e-03 -5.1189857e-03  3.8957002e-03  6.4855902e-03
  1.1595694e-02 -4.5719114e-01  2.3288920e-03  1.0744859e+00
  7.3763557e-02 -2.9755747e+00  7.0061696e-01  1.8267357e+00
 -1.2055334e+00  1.0068265e-02 -2.4999373e+00  7.4988532e-01
 -2.8440222e-01  1.3311062e+00  4.1724265e-01 -1.4578145e+00
 -2.2539620e-01 -1.7584507e+00 -2.3554204e-01 -2.3378721e-03
 -1.6536125e+00 -2.3996325e-01 -8.3485311e-03 -9.5964938e-01
  3.7401847e-03 -3.3576694e+00 -1.5253630e+00 -4.9503648e-01
 -2.8527601e+00  1.0808843e+00  1.9865487e+00 -9.8135241e-04
  1.7552737e-03 -6.8742055e-03 -1.7221360e-01  6.2387916e-03
 -3.6166875e+00 -4.0856776e-01 -6.5788007e-01  5.5005223e-01
 -3.2769150e-01 -2.2663498e+00 -3.9374862e+00 -2.4261131e+00
  6.0817885e-01 -2.5417495e+00 -3.9045298e-01 -6.5316665e-01
 -1.6377304e-02  9.5216310e-01 -1.8521424e-03  5.3437152e-03
 -1.8932898e+00  5.4885815e-03 -3.3151233e+00 -9.0390754e-01
 -1.9857989e-01 -9.2987353e-01 -5.4299787e-02  1.8296700e-03
 -4.9346332e-03  7.7633313e-03  4.8021036e-03  9.6181995e-01
  8.9176251e-03  3.5679394e-03 -5.2563781e-01 -4.5736190e-03
 -1.5632328e-02 -3.2044249e-03 -2.4733577e+00  4.7948715e-04]
[ 2.94530421e-01 -1.29982138e+00  1.01063364e-04 -1.23200858e+00
  9.90831971e-01 -8.98453355e-01 -1.14711726e+00  1.66349351e-01
 -6.85944513e-04 -6.70404196e+00 -2.19463445e-02 -1.84985474e-01
 -3.50372696e+00  3.49481194e-03  7.65966773e-02 -1.40990887e-03
 -4.84960884e-01  2.11983291e-03  8.58782291e-01 -9.20306623e-01
  1.48989155e-03 -3.97543702e-03  2.65961476e-02  7.29689360e-01
 -3.08193034e-03 -6.39357138e-04  4.16105520e-03  1.18761288e-03
 -3.40740569e-03  4.44829822e-01  7.18646566e-04  6.87223315e-01
  7.97397971e-01 -8.76708412e+00 -2.59541392e+00  1.86798945e-01
  1.61256301e+00 -6.99450169e-03  2.11120248e+00 -1.06150560e-01
 -1.54145277e+00  4.48769510e-01  4.48923975e-01  6.85952246e-01
  1.10334170e+00 -6.14954948e-01  1.71457857e-01  4.03939572e-04
 -2.68975902e+00  1.27547491e+00  5.33823390e-03 -6.40782937e-02
 -4.06315230e-04 -4.78727722e+00 -4.24516773e+00  2.37271115e-01
 -3.62745667e+00 -1.31159258e+00 -2.97514975e-01 -2.90024560e-03
 -9.06809466e-04 -6.22364599e-03 -3.96096557e-01 -6.25873974e-04
 -3.53028727e+00  3.52270752e-01 -5.85470021e-01  1.34621990e+00
  1.04194081e+00 -9.16214809e-02 -1.43260586e+00 -1.68585682e+00
  5.44163167e-01 -4.42274272e-01 -6.12860262e-01 -2.64283270e-01
 -7.82855511e-01 -5.49712032e-03  1.53656676e-03 -2.63224845e-03
 -4.95086145e+00 -1.82211387e-03 -4.02491474e+00 -3.11970329e+00
  1.56689429e+00 -4.53501129e+00  2.20211619e-03  2.80278130e-03
  2.18911888e-03  5.73143037e-03 -3.46288949e-01 -7.88831234e-01
 -1.13865888e+00  3.00815376e-03  2.58159447e+00  4.99756017e-04
 -2.08099768e-03  4.03467100e-04 -2.31079006e+00 -3.96792637e-03]
[-1.8691473e+00 -7.0127153e-01  1.2398115e-04  2.5465782e+00
 -2.7973089e+00 -5.1434880e-01 -1.6313032e+00 -2.9393678e+00
 -1.2102702e-02 -9.6951896e-01  5.9854311e-01  4.1804838e-01
 -7.6098102e-01 -5.2912827e-03 -2.0807366e+00  6.1265989e-03
 -5.9714407e-01  1.2350656e-03  2.5265863e+00 -1.6186659e+00
 -1.1548740e-03  1.5152965e-03 -2.6843116e+00 -3.3566513e+00
 -4.2397270e-04  1.5790506e-03 -3.1888974e-04 -2.5297338e-03
 -3.7103600e-04  2.1909318e+00 -3.6476727e-03 -1.7400446e+00
 -9.3631303e-01 -3.8802414e+00  1.5734534e+00 -1.1891614e+00
  6.3142377e-01 -6.4057768e-03  1.0140624e+00  1.5856478e+00
 -8.8113105e-01 -5.3592378e-01  3.5694352e-01 -2.5422122e+00
 -2.7084830e+00  2.4667419e-01 -2.2107320e+00  2.4043666e-03
 -2.7645702e+00 -1.2670920e+00  4.2072912e-03 -2.2163739e+00
 -1.2565239e-03  3.1212890e-01 -3.0193561e-01 -4.1639480e-01
  9.5773143e-01  6.9132340e-01 -3.6769891e+00  3.1252324e-03
  5.1223636e-03  3.6277603e-03  2.6042586e-02  1.0294472e-03
 -2.6508946e+00  1.0352795e+00 -1.6954452e+00 -1.2479899e-01
 -8.9281654e-01  4.4948524e-01 -5.9400398e-01 -1.0754291e+00
  3.9888072e+00 -1.0657988e+01 -1.0093704e+00 -4.8834300e-01
  6.4860463e+00  3.0734399e-01 -6.3304236e-04 -5.2084774e-03
 -4.6597403e-01  2.9784215e-03 -2.9720199e-01 -7.2277576e-01
 -3.5750207e-01 -2.3487277e+00  5.3330227e-03 -1.0128212e-03
  5.7567498e-03  4.1503208e-03  3.4123933e-01  1.4882113e+00
  2.1452956e-01 -3.2679949e-04  3.1545489e+00  7.2886911e-04
 -3.4695044e-03 -8.3489856e-04  6.4144272e-01 -5.2917860e-03]
[-8.48028779e-01 -2.07340233e-02 -2.23966618e-03  1.84887275e-01
  6.03128076e-01  1.00788295e+00  1.18503261e+00  2.97859693e+00
 -7.81610701e-03  6.01871917e-03 -7.01404870e-01 -4.31212574e-01
  5.31300128e-01 -1.72913284e-03  1.90232742e+00 -2.35275627e-04
 -3.64547998e-01  3.09246592e-03  6.59505188e-01 -1.03170013e+00
 -6.23629754e-03  5.92349702e-03  1.58129096e+00  3.53687024e+00
 -1.08232431e-03  2.37920159e-03  7.38948863e-03  7.74148898e-03
  2.85317423e-03 -1.05858095e-01  8.35719344e-04  1.72291672e+00
  3.81898493e-01  2.57458830e+00  6.31519127e+00  2.46318206e-02
  1.69823483e-01 -6.37648767e-03 -8.68236572e-02 -6.55460179e-01
 -5.57352364e-01  6.01928174e-01  7.34116316e-01  1.05836713e+00
  1.19269943e+00 -8.44556153e-01 -5.97334981e-01 -2.48566736e-03
  1.38314855e+00 -1.18163154e-01  7.02922791e-03  2.08189654e+00
  4.99380101e-03  2.16862246e-01  1.07773483e+00  1.95898831e+00
 -7.63085365e-01 -2.47208071e+00  7.29698598e-01 -6.69840863e-03
  1.43918965e-03  4.97667352e-03 -1.54286861e-01  3.39587266e-03
 -7.71894574e-01  2.57370901e+00  1.47016072e+00 -1.51238024e+00
 -3.98550212e-01 -9.75655675e-01  2.30872482e-01  6.57062590e-01
  5.69247603e-02  3.33207631e+00  9.21041548e-01 -3.70933533e-01
  6.80494383e-02  3.52792335e+00  1.07329630e-03 -7.79972877e-04
 -6.86040878e-01  8.63156805e-04  1.10653651e+00  2.88020909e-01
  1.71319783e+00 -6.80878520e-01  1.48700492e-03 -5.32724988e-03
  2.80380086e-03  8.42453353e-03 -8.70062351e-01 -1.45583880e+00
 -1.05132699e+00 -2.36691441e-03 -2.47200322e+00 -5.32658596e-04
  5.49144438e-03 -3.08084651e-04  1.22900903e+00  6.25208195e-04]
[-2.09943390e+00 -1.52204260e-01 -1.64251286e-03 -1.28816431e-02
  1.63800612e-01  8.86406600e-01 -1.14287364e+00  5.27250707e-01
 -6.57575391e-03  4.19555902e-01 -9.27559972e-01 -7.24084005e-02
  1.23989806e-01 -4.55090310e-03  3.72788548e-01 -7.94793596e-06
 -1.45882264e-01 -3.72058875e-03  1.92959636e-01  2.46305060e+00
  5.02691278e-03  1.91852369e-03 -3.37606072e-01  1.85602927e+00
  4.60366486e-03  3.54617485e-04 -5.51000284e-03  4.34138626e-03
  7.31107173e-03  5.56351840e-01 -6.42686849e-03  1.46002531e+00
 -4.37134385e-01  9.58851457e-01  1.51899230e+00 -9.84215438e-01
  1.04433918e+00  7.41483597e-03  2.19472811e-01 -5.34747005e-01
 -1.21612632e+00  4.24390823e-01 -2.92250693e-01 -9.77659345e-01
 -1.80162579e-01  1.57413352e+00  7.45490611e-01 -1.38618713e-02
  1.20772731e+00  9.69312727e-01  3.22315074e-03 -1.76853299e+00
  5.32047497e-03 -7.60840237e-01  8.41207877e-02 -1.15385163e+00
 -1.10204530e+00 -1.61670220e+00 -5.48029244e-01 -1.35374572e-02
 -4.95817745e-03  3.96769773e-03  7.99849853e-02  5.93594229e-03
  1.69298217e-01 -2.21227169e-01  9.22442198e-01 -2.83094525e-01
  9.87890303e-01 -4.11832333e-01 -1.09737247e-01  8.85019779e-01
  1.74067545e+00  5.43341303e+00  3.12547646e-02  1.78727228e-02
 -7.40118563e-01 -3.32902431e+00 -4.27923957e-03  6.38773851e-03
 -2.10951462e-01 -9.76446457e-03  7.26655781e-01  4.49974090e-01
  2.05670834e+00  1.61686301e-01  1.17425621e-02  5.26474463e-03
  4.07983502e-03  2.55365623e-03  2.11271048e-01  3.03085756e+00
 -1.15135145e+00  1.53870578e-03 -6.88370407e-01  8.02833028e-03
  2.49275891e-03 -3.25623609e-04 -1.18995702e+00 -5.49545325e-03]
[ 5.45624435e-01  1.55101907e+00  9.54500120e-03  7.37568676e-01
 -1.61414409e+00 -2.50577807e-01  8.98553729e-01  2.10504055e+00
  1.21262129e-02 -3.96494579e+00  1.27454126e+00  1.23386458e-01
  1.23364973e+00  4.49397927e-03 -8.46471429e-01  1.01026511e-02
  1.18341279e+00 -4.33218153e-03  5.16416430e-01  7.73256421e-01
  4.43129335e-03  1.21166836e-02  1.12197876e+00 -1.61061597e+00
  9.02685244e-03  1.57699306e-02  7.24441232e-03  1.69227291e-02
  1.11250775e-02  1.65420964e-01  5.70959831e-03  9.48698819e-01
  7.61215150e-01  2.23979974e+00 -5.68630695e-01  6.57022476e-01
 -6.94282949e-01  1.56710986e-02 -5.21589518e-01  2.35704854e-01
 -4.55668479e-01 -2.65570432e-01  2.49816775e-01  6.84183419e-01
 -1.65139604e+00  2.18210173e+00  4.32855755e-01 -4.07293672e-03
 -1.06546307e+00  1.28955328e+00  1.49260610e-02  2.64476132e+00
  1.45714367e-02 -2.55814523e-01 -9.45273578e-01 -7.87808001e-01
 -3.65093589e+00  1.03757215e+00  9.05616105e-01  9.16215871e-03
  4.85051749e-03  5.03705349e-04 -2.32132983e+00  1.52365603e-02
  2.51166749e+00 -2.30494785e+00  2.48328829e+00  1.02151251e+00
  7.72495687e-01 -1.30110085e-01 -1.41472328e+00 -1.01593924e+00
 -2.27495694e+00  4.39017200e+00  1.75155699e+00  4.36314270e-02
  7.36585081e-01  1.82353079e-01  1.00453068e-02  2.67923232e-02
  1.04320121e+00  6.37786975e-03  7.49279678e-01 -1.18810630e+00
  2.42984962e+00  7.90056348e-01 -4.00666939e-03  8.14684681e-05
  7.59338029e-03  1.51836351e-02 -7.95471296e-02  1.96155059e+00
 -4.44928169e-01 -1.15960380e-02 -2.48906898e+00  1.31343557e-02
  4.28206585e-02  1.07540116e-02  9.58240747e-01  1.69509184e-02]
[ 3.2923087e-01  1.4417956e+00  4.4342293e-03  4.5027727e-01
  5.0643367e-01 -5.7123554e-01  2.1017915e-01  2.7204027e+00
  8.4860846e-03  5.3467903e-02  5.0083805e-02  1.3131046e-03
 -1.9956820e+00  1.4070278e-02  2.9823840e+00 -7.9305831e-04
  1.3923785e-01  7.2296336e-04  2.9923463e-01  1.3661264e+00
  7.3855412e-03 -1.0634848e-03  5.7365799e-01 -3.6723807e-02
  2.1083197e-03  2.4805991e-03 -1.9879378e-03 -4.0876349e-03
  2.6896701e-03 -3.5539731e-01 -7.4216011e-03  7.1794492e-01
 -1.8171710e-01  2.1938610e+00  1.7458946e-01  6.5236342e-01
  2.2342136e+00  5.9512695e-03  2.1798928e+00 -3.0043957e-01
  6.6317953e-02 -2.6730697e+00 -3.7148097e-03 -2.8238443e-01
 -8.2153219e-01 -8.4680027e-01  2.0141306e+00 -5.4168655e-03
  5.6321633e-01 -9.7350127e-01 -4.1104848e-03  3.9086556e-01
  8.7472145e-04  1.3130255e+00 -6.4333010e-01 -8.3981472e-01
  8.5203207e-01 -1.3373452e+00 -2.7309108e-01  2.9839650e-03
  3.5206999e-03 -4.1788719e-03  1.1531405e+00 -2.4268415e-03
 -2.2723699e+00 -4.8068359e-01  2.6151330e+00 -1.4028332e+00
 -1.1776255e+00  4.4966188e-01 -3.5108707e+00  1.5624923e+00
 -1.4281758e+00 -8.6865461e-01 -6.1011624e-01 -7.5478233e-02
 -1.3361844e+00 -1.4403896e+00 -5.3940160e-04  5.4721753e-03
  1.8841892e-01 -2.8953245e-03  2.2624087e+00  9.5780355e-01
 -8.8966483e-01 -2.9901128e+00  2.0129366e-03  1.5255608e-04
  3.6369818e-03  3.1237512e-05 -1.1523975e+00 -8.3790708e-01
  1.2772609e+00 -2.5585908e-03  6.8873334e-01 -2.5926996e-04
 -3.3379914e-04  4.9229705e-04 -8.2192913e-02 -7.4155418e-05]
[-5.64858355e-02 -4.11395669e-01 -1.32807810e-03 -2.09097371e-01
  8.04233670e-01  4.43677723e-01 -1.87854365e-01  7.39254355e-01
 -1.63093153e-02  8.32700312e-01  7.91523885e-03 -6.11137211e-01
 -2.13285834e-01  3.07622104e-04  1.85210004e-01 -1.67170465e-02
  2.82677542e-02  1.01676388e-02 -3.27653319e-01 -1.20191298e-01
 -9.52639710e-03 -1.13170883e-02  2.61059999e-01  5.39975941e-01
 -5.80015220e-03 -9.69231594e-03  1.05542950e-02 -1.02345077e-02
 -8.21980927e-03 -2.36990526e-01  9.06517380e-04 -6.37502670e-02
  4.29305434e-01  5.53064704e-01  4.78473336e-01  2.37349939e+00
  1.01016915e+00 -8.46922956e-03  5.35355449e-01 -3.96016061e-01
  3.10201142e-02 -1.66705564e-01  8.27687308e-02  5.45138717e-01
 -1.17837805e-02  1.83704391e-01  5.38634121e-01  1.30129075e-02
  2.25494772e-01 -1.06061161e-01 -8.05832073e-03  4.68046755e-01
  1.52693223e-03  9.31932807e-01 -3.22988540e-01 -1.15808301e-01
  1.05075026e+00 -5.22660650e-02 -8.31471145e-01 -7.30893668e-03
 -1.35612255e-02 -3.77256516e-03  9.29184854e-02 -5.93221094e-03
 -2.88478453e-02 -3.42585176e-01  4.16053057e-01 -6.40694797e-01
 -4.76113223e-02 -1.31659985e+00  7.15590894e-01  1.98730290e-01
 -3.68369550e-01  2.14505076e-01  3.12684834e-01  5.77897877e-02
  3.90829146e-01 -3.06347221e-01  1.48718827e-03 -4.41361219e-03
  2.16816649e-01  1.53002562e-03  2.08212471e+00  1.87941015e-01
 -6.67559266e-01 -1.48799077e-01 -2.41858197e-06  1.68411678e-03
 -1.33479461e-02 -1.13100335e-02 -1.60424575e-01  5.28122745e-02
  1.43861175e-01 -9.28416848e-04  7.19464794e-02 -6.89626765e-03
 -2.96587893e-03  1.99280470e-03 -3.24589312e-01 -3.54287028e-03]
[ 1.16794002e+00 -1.03633738e+00 -9.73598007e-03 -2.07074299e-01
 -5.76551533e+00 -7.93325365e-01 -1.88575172e+00 -2.26891026e-01
 -5.51333185e-03 -4.85905975e-01 -2.84121823e+00 -3.22062278e+00
  4.67762321e-01 -4.19746339e-03 -3.26531269e-02 -2.58165263e-02
 -2.26530004e+00  2.29542665e-02 -2.98267102e+00 -5.20505571e+00
 -8.37955438e-03 -1.51249487e-02  6.82109892e-01 -7.36662769e+00
  3.86267726e-04 -2.29271539e-02  2.17287030e-04 -1.06908260e-02
 -1.83493812e-02 -1.63532460e+00 -2.95960321e-03 -2.65082169e+00
 -3.81882906e+00  3.96544605e-01  2.62614012e-01  5.84725559e-01
 -5.82126796e-01 -1.29699735e-02 -2.32461596e+00 -6.07916164e+00
 -5.72658825e+00 -9.99568284e-01  6.34750724e-01 -5.22905731e+00
 -8.57891381e-01 -5.60596049e-01 -8.71455148e-02 -3.91560653e-03
 -4.25210953e+00 -4.86894920e-02 -4.71511390e-03 -5.81958294e-01
 -1.97322853e-02 -8.00911665e-01 -1.86440718e+00 -6.97342455e-01
  5.12494266e-01  1.00611150e+00 -2.54644680e+00 -5.64892404e-03
 -2.93691643e-02 -8.67789425e-03 -3.47675323e-01 -1.07020410e-02
  9.27430615e-02 -1.01777107e-01 -1.97624040e+00 -4.59354925e+00
 -2.93739796e+00 -4.04791355e+00 -1.04063594e+00 -1.26877296e+00
 -9.13651657e+00 -2.32342029e+00 -5.16152680e-01 -7.95547962e-01
 -8.92360568e-01 -1.96632501e-02  2.28554755e-03 -1.97092947e-02
 -6.31933451e-01 -1.18208174e-02 -2.53092122e+00 -1.10925472e+00
 -1.28368771e+00 -4.94085693e+00  9.83265191e-02 -4.11371281e-03
  2.82860501e-03 -8.06239061e-03 -3.31131697e+00 -3.14953899e+00
 -1.57322717e+00 -1.84970777e-02  9.16596830e-01 -4.21409030e-03
  9.32625402e-03 -1.19310403e-02  1.63212314e-01 -1.25706457e-02]
layer 7 Activation
elu
layer 8 Dropout
layer 9 Dense
100 1
[-0.09220023]
[0.04962353]
[0.00012908]
[-0.20064738]
[0.12126511]
[-0.03969328]
[0.03466386]
[0.02385494]
[0.00021926]
[-0.05677754]
[0.10806744]
[-0.155492]
[-0.17766242]
[0.00017747]
[-0.03247506]
[-8.519921e-05]
[0.06851766]
[8.9553505e-05]
[0.05649921]
[0.30934745]
[0.00019874]
[-0.00029407]
[0.09686083]
[-0.06778527]
[4.5974677e-05]
[-0.00013378]
[0.00022982]
[-0.00016695]
[-5.066984e-06]
[0.08539306]
[-7.864201e-05]
[0.08330771]
[0.08346312]
[-0.05861156]
[0.07191305]
[0.02742783]
[0.05353701]
[-4.598621e-05]
[-0.04046875]
[0.4396275]
[-0.6220913]
[-0.04551406]
[-0.6102862]
[0.10951871]
[-0.03438234]
[0.05094435]
[-0.04494839]
[-8.2831575e-05]
[0.04969858]
[0.03128584]
[-6.914741e-05]
[-0.13213462]
[-6.8749934e-05]
[0.0818425]
[0.08058338]
[-0.03043514]
[0.07058566]
[-0.05299377]
[0.03876996]
[-1.5967962e-05]
[7.014669e-05]
[-0.00036562]
[-0.07099181]
[-0.00020247]
[0.03660972]
[-0.04345013]
[0.03619875]
[-0.0817436]
[0.06831994]
[-0.1706393]
[0.02456602]
[0.05835046]
[0.19521333]
[-0.1345284]
[-0.133231]
[-1.0480872]
[0.04542516]
[0.13535917]
[-5.0163053e-06]
[-3.1542757e-05]
[-0.08543685]
[-0.00017134]
[0.11431359]
[-0.06070935]
[0.01467807]
[0.27487975]
[0.00020213]
[8.432462e-05]
[0.00010561]
[0.00011885]
[-0.08451025]
[0.01999534]
[0.0838674]
[-0.00019334]
[-0.06203618]
[0.0001033]
[5.823896e-05]
[-0.00017809]
[0.02466006]
[6.599212e-05]
[0.17934881]
