layers 10
layer 0 Dense
5 5
[-0.00447015 -0.02121262  0.58732694  0.00374021  0.00426983]
[ 0.00816614  0.7682968  -0.16508883 -0.01353276 -0.00626745]
[ 0.03742544 -0.00370132  0.00284931  0.02556797  0.06471693]
[ 1.4342701   0.02602907 -0.00477187  0.9403093  -2.04341   ]
[ 4.2986226  -0.5212516  -0.07740526 -4.141772   -3.4736285 ]
[-3.0115476   0.06083091 -0.10306523  3.4655461   3.4050329 ]
layer 1 Activation
elu
layer 2 Dropout
layer 3 Dense
5 22
[-2.2933807e+00  1.0943980e+00  3.2191892e+00 -1.1976571e+00
 -2.7517051e-02  2.2335293e+00  1.9782811e+00  2.6723886e-01
 -2.4507225e+00 -3.6269729e+00  1.2680899e-03 -2.6386344e+00
 -2.9110089e-01 -3.1369102e+00 -4.9503767e-01 -9.8536336e-01
  2.1510644e-01 -2.5363600e+00  1.4344738e+00  3.1396377e+00
 -1.4481297e-02 -2.1529168e-01]
[ 6.70607574e-03 -4.01002429e-02 -8.93967003e-02 -1.61848319e+00
 -1.06748596e-01 -3.57567072e-02 -6.33730292e-02  2.86128426e+00
  6.07600398e-02 -3.07686720e-02  1.53527403e+00 -5.98857813e-02
 -3.14743352e+00  2.35232860e-02 -1.17200696e+00 -5.45131117e-02
  1.54732633e+00 -1.76127423e-02 -2.52407700e-01 -1.06171258e-01
 -7.11892769e-02 -2.05724849e-03]
[-1.0890747e-02  1.5274145e-03  4.5817953e-02  2.2116034e+00
 -1.2964032e+00  2.9853966e-02  3.5585314e-02 -3.8317647e-02
 -2.0788275e-02  1.2473650e-03  8.3141489e+00  3.4656134e-02
 -2.8609607e-01 -1.6388917e-02 -1.9610782e+00 -2.1573922e-03
 -1.5740725e+00 -1.5920484e-02 -4.8418876e-02  4.8163600e-02
  2.0269940e+00 -2.1615831e-02]
[ 2.1746557  -1.0049399  -3.063591    0.21487239  0.02006229 -1.5644715
 -4.401475   -0.5670172   2.3948984  -3.3469288  -0.24006444 -0.74846303
  0.9551352  -1.3540412   0.13603503 -0.63036007  0.3904956  -3.6975834
  0.10463075 -3.4543116   0.16530739 -0.67064905]
[-5.84488995e-02 -4.77567703e-01 -1.72701561e+00 -8.61457527e-01
 -8.45102314e-03  1.96579897e+00 -5.28238487e+00 -5.08772954e-02
  7.25524426e-01 -9.27579594e+00 -9.73021761e-02 -2.72692609e+00
 -5.82506433e-02 -4.70642000e-01 -1.24765635e-01 -2.24630690e+00
 -1.26863503e+00  1.11103737e+00  1.30880845e+00 -2.66463685e+00
  1.09331496e-01  2.75652707e-01]
[ 2.164958    0.5798456  -1.716886    2.2842615   0.04831686 -0.098381
 -3.0454662  -0.10638169  2.840647    3.3920257   0.3214591   2.9434652
 -2.5322964   3.9962523   0.7758072   1.0482736   3.313913    1.7229754
 -1.497037   -2.6615047  -0.11616503  0.6917014 ]
layer 4 Activation
elu
layer 5 Dropout
layer 6 Dense
22 100
[ -7.497244    -0.9248251   -4.8767657    0.03853954  -0.6336814
  -9.241641    -4.7636476   -3.0224404    0.16005954   0.06197473
  -5.018607    -0.37428585  -1.0722865    0.45398018  -7.8270483
  -2.471612     0.28530452  -3.0606925    1.0215442    1.0613776
  -2.4935753    2.2359054   -0.9061624    1.2896211   -5.003645
   0.62861633   0.9101649   -0.9314933    0.1782278   -3.1502767
  -0.68894964   1.089903     2.1190383    0.40018418  -1.9820261
   0.72425467  -1.0624478    0.19543195   0.26843166  -0.16624896
  -1.5957547   -3.2644365    1.4263588   -2.532811     0.29278806
   0.0458982   -7.5533085   -7.991889    -0.09011866   0.4094552
   0.38774052 -11.465319    -1.6573321    0.18450841   0.12443727
  -2.7623682    0.8758696   -6.1908555   -3.215933     1.1221455
   0.15726154   0.05298403 -10.819903    -4.4494367    0.64243054
  -8.147698     0.0369822   -0.6939054    0.56774783   0.3081002
  -7.7067666   -0.2226705   -1.4313287   -1.1841154    0.11098485
  -2.883664     0.5759099   -3.8423986   -5.962414     0.75784093
  -1.6732278    0.45109555  -9.926706    -2.9604068    0.2908395
  -0.04552544   1.5393693   -1.8270179   -3.4313138    0.18752754
   0.19086608  -0.41580686  -7.4728866    0.9652037    0.4805383
  -1.9181594   -1.0507346    0.05535493  -3.010871    -7.4379025 ]
[ 0.13326612  1.4124845   1.9379652  -0.5608519  -0.96310526 -1.6910844
 -1.5308284  -1.1752453   3.173238    0.93774116 -1.7200892  -0.24137382
 -0.559894    1.70378    -1.8009164  -1.133444   -0.78784424 -0.81556886
  1.2258533   1.2266928  -0.9634526  -1.3006098  -0.47764662  1.939698
 -1.7387451   1.3094122   1.6205608  -1.3923849   1.39552    -1.343019
 -0.03409318  1.6254067  -1.103318   -0.28121474 -0.2395087   1.5142581
  3.430325    1.6576791  -0.04426039 -0.606399   -3.0442958  -1.7516577
 -0.69845897 -0.8464629   0.02051178  1.5269151  -1.1433461  -0.3440489
  0.47392976  1.3062518   1.7541952   1.3444393  -0.7202604   0.23938732
  1.2609501  -1.2789414   1.3530622  -1.8176003   1.0280412  -3.9561427
  1.3714744   1.0824918   1.2833387  -1.2808554   1.5782937  -1.4336988
  1.2687281  -0.7621118  -0.6007427   1.3513896   0.15030272  0.48457047
 -5.8929744  -0.24438784  4.2018304   1.4463644   1.2542737  -1.561111
 -1.8909459   1.4255759   0.54921144  0.82568616 -1.3792906  -0.02092397
  0.75020725 -1.6623318   0.91677713 -0.768881    1.3683344   1.5707941
 -1.204453    1.552683    0.4554059  -0.35543424  1.3458323  -1.2440195
  0.36219597  1.6554847  -1.109368   -0.97141546]
[ 0.9281586   2.2725759  -6.159494    2.941363    2.115343    1.698305
 -0.536367   -0.9614623   4.4022317   2.665676    0.88075393  1.8229406
  2.9123058   2.8081074   1.4825008   2.5666277   3.8674395  -0.08787949
  2.884211    2.9559605   0.6513573   1.806807    4.9628444   0.71353185
 -0.3837832   2.773452    2.8042624   1.6984766   3.1468623   2.0104415
  1.6473546   3.1408582   0.3147721   0.20685196 -1.0216947   3.1081426
  0.76141846  3.03809    -0.0252247   2.9546015   0.32691136  1.2446468
  2.700302    2.6302047   4.1915755   2.693517    0.06080687  0.77741235
  2.263842    3.096153    3.0193055  -1.2681282   2.9059      0.29792386
 -2.2340684   2.4679081   2.8751838   1.8064622   0.23595531  2.6686418
  2.6874645   2.8537843  -1.870213    2.522603    2.7993915   0.2965118
  2.8056443   3.9152179   3.2052343   2.9153247   0.03254574  2.1625614
  4.219954    1.7649984   1.3049511   1.6653472   2.9384196   1.9124323
  1.9590691   2.7128072   2.7031662   2.6586437   0.9924762   0.6959499
  2.5755758  -0.7952709  -5.958681    2.9362898  -8.95606     2.9266384
  1.7579262   4.2899156   1.6730533   0.1765302   3.0060127   0.02601037
  2.776182    2.903555    2.646049    1.7042137 ]
[-8.539566   -3.7244284  -0.9150854  -0.72811055  0.36076304 -3.7137325
 -4.7514596  -1.7565988   0.67329746 -5.5286837  -1.3098911   0.26329234
 -0.74079496 -4.880602   -2.2945154  -1.6974576   0.00889091  0.20425041
 -5.7322717  -6.19905    -4.993225    0.21224865 -1.9129949   5.541358
 -5.360432   -6.1107397  -4.956644   -0.7000831  -4.821808   -1.4061363
  0.5842719  -5.532907    3.2425075   1.297845    0.7723615  -5.355482
 -2.7836761  -4.848604   -0.23660561 -0.4151146  -0.11938841 -1.0562179
  0.06521692 -1.337885   -0.15162426 -4.6923375  -3.8408828  -6.45876
 -4.902281   -5.189713   -5.081398    0.92339045 -1.0799884  -0.19764082
  0.47987434 -1.3692025  -5.8791623  -4.0432124  -3.2077243   5.259969
 -5.041604   -5.4708595  -1.874449   -1.9431008  -4.703931   -6.6011877
 -5.663311    1.5268034  -0.2914253  -4.8079305  -4.439762   -5.911583
 -1.3609126  -5.7468705  -0.22588892 -2.3689802  -5.3134704  -1.6044257
 -1.7809367  -5.3268056  -7.5679336  -6.5837455  -1.2327502  -2.7164016
 -6.4433675   1.7096726  -1.9087528  -1.3793517  -0.8069369  -4.8277774
  0.1574048   1.0553368  -5.6304145   0.993639   -5.051912   -0.01143568
  1.1650658  -4.721959   -1.7505363  -4.81571   ]
[-6.99633121e-01 -4.88992023e+00  1.17230499e+00  3.53298068e-01
  1.51394272e+00 -5.26241720e-01 -6.01416445e+00  2.08754301e+00
 -2.04418018e-01 -5.31983614e-01  2.00839285e-02 -8.27762038e-02
 -3.22155841e-02 -3.94142365e+00  1.64607501e+00  7.48350397e-02
 -1.88824624e-01  8.18020403e-01 -2.41069317e+00 -2.01873398e+00
  1.13608316e-01  8.28719989e-04 -1.32864022e+00 -1.23500347e+01
 -5.72328568e+00 -4.95696217e-02 -5.78733444e+00  8.39344561e-01
 -4.30944824e+00  5.52550852e-01 -1.14217907e-01 -4.23114443e+00
 -1.16750975e+01  7.06410527e-01  1.56460428e+00 -3.13892221e+00
  3.60660505e+00 -5.34509134e+00 -1.63245887e-01 -3.04022938e-01
  2.04317376e-01 -3.51061893e+00 -4.55652565e-01 -3.48933548e-01
 -4.97282058e-01 -5.81282187e+00 -2.12746501e+00 -3.82165879e-01
 -1.06320155e+00 -2.72387648e+00 -4.91774225e+00  8.38609934e-01
 -1.70941815e-01  4.33867306e-01 -5.38117290e-01  5.85270375e-02
 -1.99127209e+00 -2.94881940e+00  3.32692534e-01 -2.32333565e+00
 -3.56232738e+00 -1.41525447e+00 -1.90377820e+00 -4.56496269e-01
 -4.51427317e+00  2.27661943e+00 -9.50178742e-01  7.31485114e-02
  3.61794353e-01 -3.44649196e+00  3.85869324e-01  2.18823695e+00
 -3.91689777e-01  4.37634754e+00 -1.26537657e+00 -1.56915069e+00
 -2.08015728e+00  7.45662451e-01  7.42448688e-01 -2.85602283e+00
 -1.55087745e+00  1.70272458e+00 -2.06577390e-01 -6.58676720e+00
  2.06747818e+00  6.20929289e+00 -2.14598969e-01 -2.09702998e-02
 -8.22348058e-01 -4.43294764e+00  2.75124814e-02  6.62863581e-03
 -9.09095287e+00 -6.23762703e+00 -3.32834721e+00  1.29156518e+00
  1.29942164e-01 -5.28046370e+00 -5.31645596e-01  1.92676830e+00]
[ 2.8643749   4.3820605   2.5339005   1.6239138   1.8099065  -0.5630368
 -2.2763894  -0.01168678  1.9231704   4.774157    0.66098505  0.9387562
  1.2854455   5.3275466  -0.24706545 -0.06770658 -0.6241689   2.2941384
  5.5547934   5.6230574   0.8745406  -9.419195    2.1127212  -0.15931214
 -0.75899786  5.1523094   5.401262    2.4309566   5.106376   -0.01278727
 -0.18538171  5.7188096   0.47555348 -0.496218    3.69267     5.4809184
  0.6736598   5.0121937   0.07188729  1.4756765  -2.2704425  -0.44108522
  1.6402144   0.67199796  1.7099766   5.1821494   0.98902124  2.4034834
  4.4781737   5.3780584   5.358345    0.9230393   1.1861461   0.08979414
  4.1248493   0.67709875  5.414583   -2.5176542   2.5696056   2.2446897
  5.08017     4.9526134   2.6813126  -0.6982257   5.39241     0.92964953
  4.8208747   0.15037279  1.6969941   5.0963745   2.2385304   4.386235
  1.6033953   3.1467893   2.13894     4.4929743   5.2847924  -0.157213
 -0.5806205   5.3285427   4.2793794   5.225734   -1.6311      2.0019476
  4.5112176   1.3438953   7.3092065   0.94730914  0.91612875  4.93587
  0.52220964 -0.33409008  2.465538   -0.05974999  5.3258095   2.9994922
  0.26648143  4.7788444   0.70450354 -1.3981409 ]
[ 6.5463696  -1.9004267   5.123011    2.891028   -1.3323802   6.917619
  3.4171224  -0.79127914  0.47196037 -3.145165   -2.8697622   2.2536385
  4.0720167  -3.7834175   7.286786    8.133996   -1.7562481  -2.0989275
 -4.233383   -4.4293184   3.8415234   0.54418355  8.569973    0.57685524
  3.917744   -3.8999703  -4.305376   -0.49144807 -4.343625    3.6320896
  1.3037359  -4.881871   -0.20410699  0.13947944  0.8615173  -4.576838
 -3.551735   -3.8371787  -0.01591356  6.324596   -1.5413148   1.2852979
  6.626964    2.302852    2.9350185  -3.437056    8.426064    4.310184
 -2.6786163  -4.2589955  -4.134305    0.8215707   2.9410603   0.50941336
  2.2448153   2.5006497  -4.165735    9.504014    7.263797   -0.6387054
 -3.8945065  -3.9379783   1.8968378   8.3185     -3.819231    8.7076435
 -3.7106786  -0.39784983  4.9363637  -3.9190218   7.9689236  -2.6961725
 -3.1906435  -1.0988195  -3.277382   -9.660012   -4.098494    8.103593
  8.187718   -4.117341   -1.1356645  -3.7679462  -7.561206    1.277601
 -3.2764049  -0.49487686  1.7741176   2.2753232  -3.069447   -3.924924
  3.6561637  -0.8892978   6.084908   -0.1559751  -4.009148   -0.5535079
 -0.48878145 -3.1343672   4.43708     8.336845  ]
[ 3.3932135e-01  1.0159969e+00 -6.5468097e-01 -4.1817300e-02
  1.6182623e+00  1.6704323e+00  6.9956064e+00  7.1849627e+00
 -8.4720992e-02 -1.1190348e+00  2.1217102e-01  1.2558277e-01
  2.1941663e-01 -3.5542750e-01  5.4026955e-01  4.7070000e-01
  7.9404259e-01  5.4766089e-01  2.8302038e-02 -1.2903057e-01
 -4.7585778e+00 -1.0047371e-01 -8.7191468e-01 -2.1511957e+01
  2.9679101e-02 -7.4565089e-01  9.7001499e-01  4.8351717e-01
 -2.7467060e-01  2.0862600e-02 -1.4892143e-01  3.6918080e-01
 -4.0320988e+00 -1.3993667e+00  7.9422790e-01  4.4767421e-02
 -1.7941978e+00 -5.3469735e-01  2.9474750e-01  3.1468025e-01
 -5.7177268e-02 -4.7736597e-01  1.9497012e-01  2.0507498e-01
  2.4266189e-01 -3.4087166e-01  3.6119869e+00  3.4953120e-01
 -1.6205795e+00 -2.3956478e-01 -1.4720704e-01  2.6306248e-01
  1.6146156e-01 -5.5959292e-02  6.5713227e-01  3.9646599e-01
 -4.1068113e-01 -1.6591266e+00 -3.6435923e-01 -8.3432126e-01
 -6.5318269e-01 -7.4154276e-01  1.1088190e+00  3.6397821e-01
  3.4920353e-01 -7.0031470e-01 -9.0619344e-01 -4.1907717e-02
  3.6192998e-01 -6.5229380e-01  1.0745851e+00 -1.8300978e+00
 -8.2277715e-01 -2.0633125e+00  1.6243132e+00  7.5767142e-01
 -6.1218935e-01  5.6881458e-01  7.2644657e-01 -4.1137061e-01
  2.0036874e+00 -8.4532994e-01  1.6515347e-01  3.4834735e+00
 -1.7599695e+00  4.5376444e+00 -1.6293845e-01  2.3267785e-01
  1.5128054e-01 -8.1281751e-01  1.2700640e-01 -1.3032733e-01
  4.2609477e+00 -3.3443184e+00 -4.3018302e-01  7.1512449e-01
 -4.8132319e-02 -8.4466767e-01  3.9611924e-01  6.4624560e-01]
[-12.61328     -2.8835478   -3.195298    -1.4620445   -4.3523707
 -13.588938   -13.620255    -7.476643     0.26751593  -2.1016638
   0.7313566   -1.3837116   -1.6559469   -0.5949855  -12.998227
  -5.852068    -0.8184015   -1.8412608   -1.2363398   -1.2248249
  -3.497145    -4.1809535    0.7384783   -1.9643786  -10.587737
  -2.2624505   -1.8193369   -1.5684767   -1.3492005   -5.200931
  -0.99488676  -1.4238856   -3.6231391   -1.3089302    2.0206788
  -1.0500728   -0.31495345  -1.0654048   -0.18973567  -0.884142
  -1.0278448   -1.2012951   -0.61118644  -3.9123724   -0.94820464
  -1.2354281  -11.152071   -12.8932705   -1.849452    -1.0513363
  -0.88246804  -1.0235318   -2.9904113   -0.02482968   0.18191554
  -4.953695    -1.3779061  -13.387151    -5.3108077   -0.7437938
  -1.1285237   -1.597233    -4.995518    -9.682021    -0.73601127
 -13.694711    -1.8677185   -1.0914248   -1.1562493   -1.1342463
  -8.187861    -3.2628446   -1.5744072   -4.856859     0.44579747
   0.68426126  -1.6394219   -8.531809   -10.532299    -1.3403438
  -5.367167    -2.4884048   -2.314002    -4.5038      -3.2036362
   0.2982864    0.0381001   -3.585826    -4.459958    -0.91678786
  -0.37486872  -0.6772969  -13.126508    -2.0325367   -0.86077785
  -0.75378215  -0.8952989   -0.6930058   -5.644128   -15.870393  ]
[-8.8749868e-01 -3.8364367e+00 -3.2501190e+00  8.8354743e-01
 -5.2292500e+00 -2.1113913e+00  6.4051561e+00 -2.0111191e-01
  3.3114839e+00  1.2420104e+00  6.7046958e-01 -9.0417701e-01
  1.3730551e-01  4.7121909e-01 -2.0833330e+00 -2.0851264e+00
 -3.7248781e+00  3.7547804e-02  1.2228992e+00  1.4779519e+00
  1.1891838e+01 -3.0101013e-01 -5.2536731e+00 -1.5653521e-01
 -2.2939370e+00  1.3727634e+00  1.0439213e-01 -3.1826212e+00
  7.9736531e-01 -1.1187295e+00  6.2357748e-01  1.1987294e+00
  2.3977394e-01  2.0078218e-02  6.2656097e+00  1.1703939e+00
 -2.7196777e+00  1.0500348e+00 -1.0069414e-02 -6.7051750e-01
  1.3506653e+00 -1.1065090e+00 -6.9303614e-01  4.9970478e-02
  7.3822361e-01  7.3768365e-01  2.1509693e+00 -3.1068401e+00
  1.2640599e+00  1.3339852e+00  1.2694622e+00  1.4351686e+00
 -5.4524038e-02  3.7321451e-01  6.8986630e+00 -3.6461985e-01
  1.5315869e+00  1.1492337e+00 -5.1378760e+00  3.9967053e+00
  1.1526132e+00  1.2647098e+00 -1.7856140e+00 -1.0839946e+00
  1.9338167e-01 -3.0392647e+00  1.2436566e+00  1.4153636e+00
 -6.4173329e-01  1.3523163e+00 -4.2748413e+00  8.4104586e-01
 -4.4757338e+00  3.1184077e-01 -2.1228459e+00  4.5546183e-01
  1.4380493e+00 -8.1118041e-01 -1.6943700e+00  1.3088615e+00
  9.3332112e-01  1.3285983e+00  9.4419575e-01 -4.4065418e+00
  1.0399096e+00 -2.7320033e-02 -5.4883301e-01 -1.4617096e-01
  1.0688409e+00  1.0694033e+00 -1.9838991e+00  2.9275987e+00
 -1.0254643e+00 -6.0539331e-02  1.1868047e+00 -2.1074312e+00
 -4.8657221e-01  9.5482653e-01 -1.5807823e+00  2.5640304e+00]
[ 2.92396933e-01  8.98351446e-02  6.45622134e-01 -2.91039437e-01
  8.08077008e-02 -3.87006730e-01  6.02231789e+00  6.43747374e-02
 -4.20051478e-02  4.33715105e-01 -2.46704239e-02 -8.32935199e-02
  4.97677363e-02 -3.35701823e-01 -3.93948972e-01 -1.23511828e-01
  1.91528901e-01 -6.87329005e-03  7.33806014e-01  9.52798724e-01
 -5.40487719e+00 -1.00167841e-02  5.70287645e-01 -1.05235710e+01
 -3.32037878e+00  1.07078409e+00  6.58379942e-02  2.27702260e-01
 -4.27020222e-01  2.54043579e-01 -5.77654317e-02  1.84079602e-01
 -2.51386490e+01  5.96377730e-01  2.42937878e-01  1.19329514e-02
  3.37005663e+00 -8.37933064e-01 -1.37123451e+01 -3.45754921e-02
  5.35133034e-02  4.67515677e-01 -1.75103545e-01 -8.62620473e-02
 -2.26479083e-01 -8.69271040e-01 -2.15017915e+00 -4.19058740e-01
  2.37366054e-02 -5.93027323e-02 -5.64340830e-01 -4.46666665e-02
 -4.65262830e-02  2.01359296e+00  5.58192879e-02 -1.21384345e-01
  5.55981696e-01  8.93529691e-03 -3.65356416e-01 -1.69320869e+01
 -3.68384868e-01  4.48630840e-01 -2.18094289e-01 -5.96498139e-02
  1.20274268e-01  6.05233908e-01  5.11336505e-01 -2.69185975e-02
  9.99208391e-02 -5.69500625e-01  3.46494585e-01  1.44298232e+00
 -2.33188525e-01  1.71908200e+00 -5.18353701e-01  4.81645539e-02
  1.33165762e-01  3.48487240e-03  3.90980035e-01  2.33084243e-02
  1.60961175e+00  1.83314157e+00 -2.35551536e-01  1.42062712e+00
  1.74334693e+00  2.84194779e+00 -9.80723739e-01 -1.44594749e-02
 -2.01248273e-01 -7.76537240e-01  4.26807255e-02 -2.99426522e-02
  5.00415921e-01 -1.79626179e+01 -2.36437500e-01  1.58382609e-01
  8.61259401e-02 -1.15870690e+00 -1.13831192e-01  1.54390073e+00]
[ -3.2882068   -8.0539       1.4970921   -0.70120656   0.17143816
   3.6462712    9.969763    14.569536    -0.6685466   -3.225622
  -1.1590008   -0.9053366   -0.5165756   -3.2799065   -0.8671893
   0.84077793  -3.8500428    1.8468006   -1.7894144   -1.8927534
  -0.5750483    1.0704943   -1.7388517    1.1776338   -4.0474515
  -2.4355676   -3.4743268    1.0987419   -2.6400943   -1.6993804
  -0.5301778   -1.6845154   -1.1732628   -1.2467773   -1.7227417
  -2.0779345   -0.695517    -3.0672898   -0.02089118   0.919363
   1.1366526   -2.0517478   -0.12819926  -2.0361717   -0.05612935
  -3.376465    -9.18033     -2.1026359   -3.6075082   -2.567151
  -2.773434     2.3510444   -0.9732679    0.34230202   1.7147866
  -2.1511045   -2.2837694   -4.3407073   -0.11731476  -4.31915
  -2.6909897   -2.8146646    1.1253662   -2.1105285   -2.845284
  -6.2859044   -2.8151743    0.5294299    1.1115787   -2.9317136
  -0.7524154   -3.4669816   -0.43746418  -3.8037064    1.5891063
 -10.93449     -2.9617004   -2.8815491   -2.140401    -2.3673189
  -1.962566    -2.2229652    1.3530658   -0.9625881   -3.1671298
  -0.39226067   0.4195592   -0.92832816  -3.0202653   -3.1316154
   1.1612022   -1.3756692   -4.459365    -0.5109325   -2.8870132
   2.0755289    0.31108135  -3.4306827   -0.53723127  -4.735992  ]
[-4.7120090e+00 -7.2210133e-01  2.2944574e+00 -4.7319183e-01
  2.5956237e-01  1.2297955e+00  2.3584454e+00 -3.1784165e+00
  4.6185542e-02  1.8841025e-01 -1.0579016e+00 -8.2467675e-02
  1.4869466e-01  6.1851114e-01 -2.3030153e-01  1.5836202e-01
 -1.3404533e+00 -7.5693631e-01  8.5575908e-01  9.9232507e-01
 -4.8714799e-01  3.6474296e-01  1.1427336e-01 -5.9481568e+00
  2.3747037e-01  6.2672168e-01  1.9218443e-01 -8.6537695e-01
  4.9138251e-01 -2.5143144e-01  1.7717910e-01  5.9467328e-01
 -2.6425438e+00  5.5876642e-01 -2.4781020e+00  4.8252043e-01
  4.6522322e+00  2.3239967e-01 -8.3298795e-03  1.9609866e-01
  5.7140853e-02 -5.7318454e+00 -6.7799020e-01  1.6759248e-01
  3.4573510e-01  5.0156441e-02 -5.4289365e-01 -3.3334494e+00
  4.3544707e-01  5.8956605e-01  1.2082283e-01 -1.5651972e+00
  4.7956350e-01 -7.8736311e-01 -5.7709002e-01 -8.4027663e-02
  4.7012246e-01  1.3855531e+00 -1.9370444e+00 -9.0884180e+00
  1.7066470e-01  5.6292278e-01  7.3705065e-01  1.1954728e+00
  6.6066766e-01  2.0704366e-01  3.8407013e-01  2.4883120e-01
 -1.8083021e-01  2.2735187e-01 -1.2683672e+00  3.9852461e-01
  1.0638319e+00  2.8533822e-01 -2.9043522e+00 -9.6486968e-01
  3.3469108e-01  6.9601929e-01  3.4930560e-01  3.6442724e-01
 -2.7572749e+00  8.5980469e-01 -2.1647823e-01 -1.6668620e+00
  8.3743578e-01 -4.0475160e-01 -2.1903925e+00  3.9919704e-01
  3.2178175e-01 -9.6355245e-02 -1.1240233e+00  1.2268386e-01
 -5.2849107e+00 -1.0641359e+00  4.5932412e-01 -5.6735682e-01
  1.1609693e-01  7.8177772e-02  3.7881497e-01  2.2491326e+00]
[  2.245416    -5.549875     2.382991     0.12811592  -4.6834292
   4.295208    -0.6483245   -1.9815284    1.626005    -5.6165643
   1.1923743   -0.93323094  -2.458871    -6.190445   -10.753942
  -5.6051583   -4.196956     0.10682028  -7.163834    -7.2298555
  -2.6244433   -2.5680652    1.7446615   -0.68844706   2.2385607
  -6.4523873   -7.0764875   -4.7390447   -6.552162    -4.199262
   0.31074053  -7.301375     1.0046574    0.3143967   -0.12615643
  -6.9584002    0.2735298   -6.118009    -0.05533597  -2.6336255
  -1.2226592   -6.1718903   -2.3082602   -4.43078     -0.09978814
  -5.9296885    0.01524845   1.9179713   -5.95568     -6.639661
  -6.3539724   -0.43549386  -3.7208512   -0.4466822    3.4876337
  -4.866577    -6.76042     -2.41016      3.2985818    1.703135
  -6.1484203   -6.315764     3.1872761   -6.6686134   -6.883463
  -0.9196379   -6.13905      0.24999432  -0.0727057   -6.005888
   2.8270738   -5.5268793    2.1614814   -4.1515007   -0.77793753
  -6.767086    -6.324237    -4.3715844   -6.8290787   -6.6214004
  -5.2282376   -6.6083207    1.4132075   -4.925797    -6.0662413
   0.81425947  -0.01594559  -4.0068636    1.2900641   -6.0600624
  -0.57790667   0.80941087   1.1886606    0.48047224  -6.417213
  -1.343625    -0.4956041   -5.7106357   -5.731716    -3.8658879 ]
[-8.34318697e-01  2.35181212e+00 -1.71669275e-01 -9.51841652e-01
  1.23749804e+00 -2.50220805e-01  4.57718277e+00  1.70581207e+01
  3.61554414e-01 -4.32573140e-01  4.85671237e-02  2.03402549e-01
 -1.27963662e-01 -4.07947868e-01 -1.02551377e+00 -2.46503338e-01
  9.49660301e-01 -2.24604085e-01  1.72294748e+00  2.03412652e+00
 -8.47715557e-01 -2.20424578e-01  7.70078361e-01 -1.44103765e+01
 -1.13368502e+01  9.79446828e-01  2.67462158e+00 -3.48230153e-02
 -2.62895077e-01  3.06262165e-01  7.99815804e-02  1.68491077e+00
 -6.61841440e+00  3.08338118e+00 -2.58795228e-02  4.70160812e-01
  3.84290266e+00 -8.89811099e-01  7.50245988e-01  4.22983557e-01
 -1.85654998e-01  2.87427115e+00  1.59104511e-01 -1.71007261e-01
  9.66492444e-02 -6.32650614e-01 -2.86947727e+00 -1.31843853e+00
 -1.47652555e+00  3.30611803e-02 -1.06961846e-01  1.60667896e-02
 -2.29649812e-01  5.37636280e-01  1.21098764e-01 -3.35718244e-02
  9.45691109e-01  4.94648188e-01 -1.58006716e+00 -1.64154358e+01
 -7.34175026e-01  1.97061703e-01  1.54058397e+00 -2.66242862e-01
  1.20816708e+00 -2.04832673e+00  5.43886647e-02 -2.71235704e-01
  2.25268856e-01 -1.28269029e+00  2.00113821e+00 -3.64639051e-02
 -1.49457848e+00 -3.12118769e-01 -2.14425492e+00  3.01476628e-01
 -1.38489202e-01 -5.39057255e-01  7.80065730e-02  1.11851335e-01
  2.82861948e+00  1.84478903e+00  5.48287213e-01  3.10174274e+00
  8.54610205e-01  5.87925613e-01 -1.50177643e-01 -3.66144516e-02
  1.48219960e-02 -1.44236982e+00 -6.91566244e-02  3.77804488e-01
 -2.75238967e+00 -8.26479256e-01 -3.12161565e-01 -8.95250663e-02
 -3.44989270e-01 -1.95394313e+00 -1.85416788e-01  2.09994602e+00]
[-2.6060584e+00  5.0956202e-01  1.7187756e-01 -1.2975077e-02
 -1.6641051e+00 -1.9438446e+00  4.9643288e+00  2.1505566e+00
  4.6209011e+00  2.0597618e+00  1.6087669e+00  6.0086399e-01
  4.2490688e-01  3.3272469e+00  9.2895049e-01  1.1640322e-01
 -5.3836060e+00 -5.9821200e-01  2.5909100e+00  2.5332606e+00
  4.8286691e+00  1.8058079e+00  2.4196322e+00 -1.5528810e+00
 -3.9219074e+00  2.1105404e+00  2.9825668e+00  9.3972188e-01
  3.2148674e+00  9.1743276e-02 -1.9391446e+00  3.4030848e+00
  2.0809422e+00  1.1426057e+00  2.4251819e+00  2.8216188e+00
 -1.8590482e+00  3.3271825e+00  1.4160372e-01 -3.3981097e-01
 -4.4683356e+00 -1.1199319e+00  6.8613863e-01 -1.6227107e-01
  7.5474793e-01  3.7955289e+00 -2.9266136e+00  8.9628983e-01
  2.2900505e+00  2.6798329e+00  3.3510273e+00  4.0086169e+00
  3.2255691e-01 -2.0725740e-01  1.5845693e+00 -4.5525596e-01
  2.3897491e+00 -9.9938977e-01  2.5003777e+00 -5.3506460e+00
  2.9435856e+00  2.3772943e+00 -1.5382431e+00 -8.8431299e-01
  3.4222419e+00 -1.0357568e+00  2.4087462e+00 -4.9881730e+00
  1.7086512e+00  2.9765787e+00  6.1486912e-01  1.8460113e+00
  6.0038152e+00  7.2781897e-01  6.7062011e+00  2.3889492e+00
  2.7688303e+00 -5.3539377e-01 -1.3870344e+00  2.9056876e+00
  2.7104478e+00  1.7268690e+00  8.4367466e+00 -1.6636603e+00
  1.8562454e+00  2.7560792e+00  1.7903316e+01  4.4438219e-01
  6.7688580e+00  3.3379848e+00 -1.1334674e+00 -2.5765612e+00
 -6.8019814e+00  9.3571854e-01  3.0806949e+00  1.9324777e+00
 -8.5661507e-01  3.3509355e+00 -7.8814870e-01 -2.7463541e+00]
[-1.09567680e+01 -5.86413097e+00 -2.32022166e-01 -1.02612245e+00
 -2.31542897e+00 -6.40227413e+00 -7.67267084e+00 -4.00779438e+00
  1.26199448e+00 -5.25798225e+00 -1.96713364e+00  1.38233528e-01
 -1.34056497e+00 -5.55520296e+00 -3.68333316e+00 -2.68054533e+00
 -2.00853395e+00 -9.43264902e-01 -5.44805717e+00 -5.49543095e+00
 -3.17688632e+00  5.86931586e-01 -5.50763369e-01 -2.66453719e+00
 -1.78052533e+00 -5.46333027e+00 -6.09749842e+00 -2.16024613e+00
 -5.54279566e+00 -2.17287135e+00  9.24461484e-01 -5.97334528e+00
 -2.24156833e+00 -1.09370816e+00 -2.23806596e+00 -5.87722301e+00
  3.60608578e-01 -5.59466267e+00 -1.47949293e-01 -6.96022511e-01
 -2.41700768e-01 -2.61037040e+00 -3.34166288e-01 -2.05146861e+00
 -6.36395514e-02 -5.65643644e+00 -8.96708012e+00 -8.37520218e+00
 -4.28735542e+00 -5.63593578e+00 -5.90688610e+00  1.36390515e-02
 -1.60296822e+00 -5.71613193e-01 -5.45040429e-01 -2.23536229e+00
 -5.60714769e+00 -2.18135095e+00 -3.86718416e+00 -3.67933303e-01
 -5.42367506e+00 -5.20559120e+00 -3.23847127e+00 -3.06404972e+00
 -5.63154793e+00 -7.78122425e+00 -5.28157091e+00  1.48877871e+00
 -7.23207772e-01 -5.57284021e+00 -5.42512226e+00 -4.50607824e+00
 -2.94683844e-01 -4.22791624e+00  2.54237866e+00 -4.73403978e+00
 -5.53403473e+00 -2.97443700e+00 -3.58042717e+00 -5.47084475e+00
 -9.81677914e+00 -5.19087458e+00 -1.89847863e+00 -5.87280273e+00
 -4.50089216e+00 -7.81195223e-01 -1.27104902e+00 -1.91116560e+00
 -6.45661235e-01 -5.53468657e+00 -3.72491151e-01  1.58378506e+00
 -1.84334011e+01 -1.78571117e+00 -5.51394463e+00 -1.32155859e+00
  9.58950162e-01 -5.60091305e+00 -2.41191578e+00 -6.13655186e+00]
[ 3.1627363e+01  6.8292933e+00  9.4047146e+00 -7.1612635e+00
 -7.7102342e+00 -1.2743778e+01 -3.3258810e+00  2.4876199e+00
 -2.4271734e+00  7.5137696e+00 -1.2058510e+01 -6.3878512e+00
 -5.5899320e+00  4.6182933e+00 -5.5848250e+00 -4.3104172e+00
 -1.2990025e+00 -6.1913376e+00  5.0939326e+00  4.9664392e+00
  1.1750437e+01 -4.5809536e+00  3.7670186e+00  2.5660738e-01
 -8.5968208e+00  6.4508457e+00  5.5101285e+00 -9.1950741e+00
  5.6725526e+00 -7.8899322e+00 -4.2366157e+00  5.1051321e+00
  8.8585109e-02 -7.0490442e-02 -1.9820437e+00  4.7932997e+00
 -1.5011147e+00  6.6457076e+00 -2.2890723e-05 -4.3270063e+00
 -1.0487594e+01 -3.9597359e+00 -3.2963760e+00 -5.4373369e+00
 -2.5084155e+00  6.7873445e+00  3.4273056e+01  2.8651363e+01
  8.0311832e+00  5.6609497e+00  6.3803048e+00 -1.7126907e+00
 -5.9351292e+00  1.1823682e-01 -1.1450640e+00 -5.6036415e+00
  6.0457592e+00 -4.4086752e+00  1.1974937e+01  6.4084678e+00
  5.8740573e+00  6.0031400e+00  1.8093782e+01 -3.4058518e+00
  5.2412591e+00  3.4543621e+01  6.4625273e+00 -6.8094754e-01
 -5.9135571e+00  6.6989856e+00  2.4011786e+01  7.7238932e+00
  6.7016840e+00  8.5187426e+00 -4.4243164e-02 -1.0757352e+00
  6.1405506e+00 -7.8252745e+00 -7.4338222e+00  6.0718412e+00
  1.1135353e+01  6.2628794e+00 -1.1150828e+01  4.7869124e+00
  7.1271000e+00 -1.8769903e-01  2.0437450e+00 -5.6041431e+00
 -8.9319820e+00  6.2774506e+00 -6.5781937e+00 -6.6068101e-01
  3.2075752e+01 -7.6810070e-03  5.9999852e+00 -6.3139172e+00
 -2.1247344e+00  7.7063203e+00 -4.6196780e+00 -8.1719780e+00]
[ 2.3035766e-01 -6.0292702e+00  2.1468670e+00  1.0234002e+00
 -4.5999017e+00 -1.7802975e+00 -9.5556698e+00  7.8410494e-01
  4.3193290e-01 -8.1300297e+00  2.8269547e-01 -6.0778993e-01
  5.4909462e-01 -8.3453140e+00  2.1014719e-01  6.0534573e-01
 -3.9095190e+00  1.0559130e+00 -5.3461766e+00 -5.3360810e+00
 -4.2148118e+00  1.7580949e-01  2.1638985e+00 -1.5834206e+00
 -2.4794669e+00 -7.1224823e+00 -6.9164186e+00 -2.0003595e+00
 -7.7593694e+00 -1.3052943e-01 -3.0853945e-01 -6.0223961e+00
 -1.6863333e+00  2.3461281e-01 -6.3229198e+00 -5.8691292e+00
  8.9870286e-01 -8.7245779e+00 -2.5273850e-03 -3.2457820e-01
  4.0577990e-01 -2.3309030e-01 -1.8783476e+00  3.2113746e-01
  5.3187293e-01 -9.1678858e+00  8.7027496e-01 -1.6975591e+00
 -7.9900918e+00 -7.0390515e+00 -7.8410430e+00 -1.4458157e+00
  1.4165355e-02 -9.7963375e-01  5.2507651e-01 -3.0263685e-02
 -6.6504345e+00  3.1397170e-01 -5.0360984e-01  1.9974443e+00
 -7.7202225e+00 -7.3189726e+00 -1.9442375e+00 -8.1210309e-01
 -7.6954331e+00 -2.2948112e-01 -7.5114188e+00  1.0767329e-02
  4.4763738e-01 -8.1522121e+00  1.7487532e+00 -8.0395269e+00
  3.3593349e+00 -7.5065622e+00 -5.7884181e-01 -1.8981801e+00
 -7.7900586e+00  1.0368867e+00  3.2993007e-01 -6.8222079e+00
 -9.7449059e-03 -6.6913280e+00 -3.3315873e+00 -3.2674394e+00
 -7.8602052e+00  2.1518071e+00 -4.1898608e+00  4.0469471e-01
  1.9759018e+00 -8.9027510e+00 -2.6772454e-01 -5.2315629e-01
  8.0096970e+00 -1.1949826e+00 -7.7904725e+00  3.4487155e-01
  1.8787156e-01 -9.5726051e+00  3.7263510e-01  3.2771864e+00]
[ 1.39734888e+00  1.03919521e-01 -5.62935233e-01  1.43270051e+00
  5.49530566e-01  3.72630048e+00  1.60881567e+00 -1.47580755e+00
  3.16312337e+00  5.82805276e-02 -1.09347630e+00  8.30480754e-01
  3.80720520e+00  1.58632487e-01  3.03593469e+00  4.35069656e+00
 -3.20981789e+00 -2.27360559e+00 -1.62140489e-01 -1.85569063e-01
  1.16464607e-01  1.92691624e+00 -8.19651794e+00 -4.56212938e-01
  1.06528795e+00 -1.90192863e-01  4.09050077e-01 -2.35311103e+00
  2.34723702e-01  3.33001184e+00  2.97439933e+00  7.42239282e-02
 -5.32854557e-01 -2.83976525e-01 -2.79812598e+00  4.44028303e-02
 -3.74648952e+00  2.05479324e-01  9.17591807e-03  3.14874673e+00
  1.13089311e+00  3.15550923e+00  2.91112614e+00  3.92056918e+00
  1.87490249e+00  2.87050575e-01  1.35525119e+00  1.53423679e+00
  1.76245958e-01  8.07262771e-03  1.75320223e-01 -7.47169065e+00
  3.99769759e+00 -8.22108150e-01 -3.24466634e+00  4.04002047e+00
 -2.94418968e-02  4.54489040e+00 -2.15212393e+00  9.34597075e-01
  2.89369255e-01  3.68138030e-02 -4.76232815e+00  4.49762726e+00
  2.00350732e-01  1.91212833e+00 -7.92538226e-02  1.67431760e+00
  1.40519381e+00  3.47686023e-01 -1.42227864e+00 -6.71597347e-02
 -9.00741482e+00 -4.02822912e-01 -2.07455039e+00  2.00186253e-01
  3.57126370e-02  3.55595684e+00  3.72560883e+00  1.87225893e-01
  2.25191325e-01 -4.43533212e-01  1.84080911e+00  1.71724141e-01
 -3.62476677e-01  2.89382160e-01 -7.22657740e-01  4.05268717e+00
  1.19576894e-01  4.06215847e-01  3.39389968e+00  1.20514607e+00
  2.46203089e+00 -1.21846370e-01  9.39688012e-02 -1.78939271e+00
  2.02589917e+00  5.32115340e-01  3.86278224e+00  4.44304752e+00]
[-1.13564396e+00 -1.29583502e+00 -1.16812599e+00  5.49639702e-01
 -7.11751640e-01  3.01260296e-02 -4.07459259e+00 -6.73750162e+00
  6.85852528e-01  1.22020550e-01  1.06250554e-01  3.32163781e-01
 -5.31048715e-01  2.90515929e-01  1.93391645e+00  2.87875712e-01
 -1.71327078e+00 -7.04930305e-01  2.03890681e-01  3.68359387e-01
 -6.04815722e-01  1.02137364e-01 -6.03283107e-01  1.42117271e+01
 -1.51400733e+00 -1.29779994e-01  1.51362017e-01 -1.54303646e+00
  3.35829079e-01 -5.65508127e-01  3.46073240e-01  4.62457985e-01
  2.01682854e+01 -1.34838855e+00 -2.80990767e+00  5.27649641e-01
 -4.75581837e+00  5.43861330e-01 -9.81979847e-01  3.23572993e-01
 -3.20649624e-01 -1.83472776e+00  1.81747526e-01  1.16356676e-02
  8.77496064e-01  4.45605010e-01  2.74519753e+00  7.25597262e-01
  3.56391877e-01  5.45937657e-01  5.67972243e-01 -3.79890233e-01
 -1.14137106e-01 -9.76961613e-01 -1.37998009e+00  4.27127689e-01
  2.77982831e-01  9.67206061e-01  8.05390775e-01  6.90894890e+00
  4.19708431e-01  2.21026942e-01  8.49100113e-01 -5.82979083e-01
 -5.10465443e-01 -1.81238842e+00  2.57801324e-01 -6.26706004e-01
 -2.31869891e-01  2.33383045e-01  1.56496763e+00 -6.33136690e-01
  7.07097650e-01 -5.44401467e-01  1.24770641e+00 -2.04896235e+00
  1.83039173e-01 -4.53417152e-01 -1.37009931e+00  4.96618122e-01
 -3.36966181e+00 -5.44989824e-01  1.40687430e+00 -2.25860143e+00
 -4.10923034e-01 -1.04744148e+01  4.57415724e+00  1.14969626e-01
  9.25732017e-01  3.28138560e-01 -7.20631480e-01  5.99730730e-01
 -1.58740940e+01  8.80573463e+00  4.18985367e-01 -1.09509766e+00
 -1.11222899e+00  5.38969934e-01  1.99108079e-01 -2.81603289e+00]
[ 0.6874321  -5.0980406  -1.6933516   0.24755323  2.8232877   0.47068268
  1.1918544  -3.2069685  -1.9565365  -6.1638417  -3.4296358   0.4991197
 -0.1993987  -6.527199    2.2128973  -0.43102768 -3.5200732  -1.1978343
 -6.1546335  -5.9755144  -1.2876867  -1.8200439  -2.4666355   3.7609155
  1.3774511  -6.025994   -6.313376    3.6843233  -6.337112   -0.45156482
  0.27557474 -6.100299   -1.5370811  -0.50187856  3.2692008  -5.867853
 -4.9811034  -6.0694175  -0.17006913  0.6912725   2.1891527   1.5894787
  0.5967128   0.0508796  -1.231754   -6.1643023   0.20517747  0.0787537
 -5.852344   -6.120334   -6.164982   -0.07938302  0.20105307  0.11274388
 -6.141971   -0.1210936  -5.7598753  -1.3312242   0.83247685 -9.609591
 -6.0504417  -6.2541323   0.37203845  0.29666403 -6.901774    1.3797841
 -6.0594845  -0.80039537 -0.04111039 -5.9955797   1.1299453  -5.8028784
 -3.7300029  -4.098283    2.542016   -4.3007765  -6.1337943  -0.7493368
  0.18810798 -6.1357193  -3.7820418  -5.9882035  -5.8802404  -4.0824976
 -5.8650146  -6.785595   -7.4201045  -0.38635206 -6.140725   -5.8052926
  1.5885476  -0.30350542  3.4560196  -1.542945   -6.395035    1.3320253
  1.8314286  -5.8704085  -0.73559165 -0.3854456 ]
[ -0.44157666  -4.0351624   -0.9791574   -0.2993264   -1.261631
  -4.379805    -5.126992    -2.0838947    3.4670475   -5.322587
  -1.5233876    1.1193597   -0.7951557   -4.975551    -5.4054937
  -3.1249247   -2.1893337    0.9266673   -5.2901587   -5.3684497
  -4.4478436   -5.9299836   -1.6304364   -1.6661425   -4.524335
  -5.3481994   -5.327227    -0.77255404  -5.1035366   -3.0450249
   2.2381012   -5.295465    -3.8310485    0.07399928   1.0795616
  -5.2331915    6.769654    -4.9321284  -10.694011    -0.16912402
   0.48025453  -3.6620402    0.32956842  -2.03787      0.88577974
  -4.794301    -2.2137644   -0.533454    -5.4140215   -5.1025343
  -5.086029     0.97256166  -1.2463062   -0.33557835  -0.7759536
  -2.4181123   -5.1734633   -5.1856503    0.68228674 -17.681297
  -5.0616164   -5.204108    -0.50983393  -3.9192057   -5.1581984
  -2.1652477   -5.1529055    4.11681      0.25925034  -4.9663615
  -0.44514725  -5.606276    -2.262301    -5.0010123    5.8546195
  -2.4628003   -5.2366643   -3.643229    -4.552429    -5.180665
  -3.8409383   -5.389294    -3.0375772   -2.8854167   -5.650213
  -1.1840391    0.40329596  -1.7646912    0.9229306   -5.035426
   0.9297786    4.2936206    0.05016547  -3.9629412   -5.127976
   1.2864642    3.175936    -4.9290624   -2.8655584   -4.7203183 ]
layer 7 Activation
elu
layer 8 Dropout
layer 9 Dense
100 1
[0.26857293]
[0.7158388]
[0.18246531]
[-0.41403565]
[-0.10905805]
[-0.4451367]
[-1.4997876]
[0.5776679]
[-0.9747522]
[1.051069]
[-0.9790523]
[-0.63588077]
[-0.69178647]
[0.9808319]
[-0.39061138]
[-0.39808396]
[0.44942975]
[-0.20506763]
[0.82008594]
[0.9701517]
[0.67404187]
[-2.7063503]
[0.1284379]
[-0.17647716]
[-2.7850149]
[1.0189677]
[0.9531942]
[-0.34803262]
[0.96354645]
[-0.2850025]
[-0.8872304]
[0.832891]
[-3.2198517]
[-2.5365698]
[0.14566873]
[0.9560828]
[-0.59246606]
[1.0361646]
[-1.6125993]
[-0.73916686]
[-1.0787673]
[-0.09712682]
[-0.6204005]
[-0.57666415]
[-0.5703223]
[0.9614994]
[0.39608216]
[0.2610559]
[1.0418472]
[0.9058347]
[0.9996043]
[0.4667245]
[-0.61361176]
[-0.05713385]
[0.1596183]
[-0.49459958]
[0.8196964]
[-0.18536317]
[0.31068352]
[-2.8407614]
[1.0866692]
[0.9318531]
[0.15338138]
[-0.31717247]
[0.9627231]
[0.40950355]
[0.9149888]
[-0.8712132]
[-0.6067487]
[0.81180483]
[0.25514635]
[0.8646933]
[0.23421258]
[0.9083403]
[-0.95724255]
[0.5881788]
[0.935219]
[-0.3560896]
[-0.28678548]
[0.9262849]
[0.8421141]
[1.0527978]
[-0.19880584]
[0.8816215]
[0.93158925]
[0.06622172]
[-0.1424811]
[-0.60569644]
[-4.2020755]
[0.9580561]
[-0.5532556]
[-1.009949]
[0.25384307]
[0.95832187]
[1.0365405]
[-0.27120018]
[-0.7417252]
[0.91754204]
[-0.40875468]
[-0.4585667]
[-0.11729073]
