layers 10
layer 0 Dense
9 9
[-0.01253487 -0.01565797  0.00806286  0.09027182 -0.00903023  0.03135874
 -0.00226829  0.6643394   0.02450464]
[ 0.04451565 -0.18416132  0.05578935  1.3872784   0.02078353 -0.3605038
 -0.27325282 -0.473078    0.01333005]
[ 0.07185595 -0.0118488   0.00467494 -0.00307091 -0.00556877  0.02998998
 -0.00099323  0.02031341  0.6845433 ]
[ 1.3639452e+00 -1.8123394e-01  5.2037895e-02  1.4589283e-02
  1.7373133e-02 -3.7852293e-01 -2.7103123e-01  8.3419401e-04
 -6.3888955e-01]
[-0.00152299  0.00357586 -0.01073155 -0.00341759 -0.0077469   0.16635185
  0.00609424  0.00399287  0.00395001]
[ 0.04970695 -0.01327824 -3.8150678   0.06647422  0.10670634 -2.5948057
  0.13616045 -0.13613208 -0.11644974]
[-0.12739387 -0.5609924  -0.19000548 -0.04529025  0.13860476 -1.8386841
  3.3222892   0.2351546   0.18621537]
[-1.0269544e-02  4.0701485e+00 -9.4404221e-03 -8.5342443e-04
 -1.2897140e-02  1.3044952e-01 -1.1396264e-02  4.1717436e-02
  6.9659827e-03]
[ 3.4351314e-03  3.2375444e-02  4.3557532e-04 -4.2921668e-03
 -9.2088022e+00  4.3626770e-01 -2.1378892e-03  1.5759828e-02
  1.5309218e-02]
[-0.73660374  0.63476574  0.43911523 -0.8029366   8.705815    3.2628434
 -2.1411872  -0.07831575 -0.07474001]
layer 1 Activation
elu
layer 2 Dropout
layer 3 Dense
9 30
[-3.4297939e+01 -3.3591005e-01 -2.5690177e-01  2.1273315e-02
 -1.5751479e-02 -1.2659372e-01  8.1871200e-04  2.0879845e-01
 -1.2938010e-02  2.2131588e+00 -4.1518990e-02 -1.7394443e-01
  1.3106310e-01 -1.7137069e+00 -4.4280402e-02 -3.3386011e+00
 -5.7135427e-01 -4.0423913e+00  1.7238937e-01  1.2117950e+00
 -1.4472525e+00  1.1646724e-01  1.2549314e+00  1.2845269e-01
  7.1180925e-02  2.0058489e-01  3.8781203e-02 -7.6097856e+00
  4.6816799e-01  5.9945218e-02]
[-0.08167186  0.07594118 -0.01733378 -1.8276521   0.03200848  0.06709697
 -0.00296298 -0.13885577 -0.00844108 -0.01085775  0.04038631 -0.01858817
 -0.01150661 -0.00910356 -0.03717235  0.04277978  0.0369173  -0.02148422
  0.01893369  0.02224991 -0.08857075 -0.00931699 -0.01817104  1.2473848
  0.00810067 -0.01160524  0.05401647 -0.03326025  0.02491545  0.02097408]
[-0.5796071  -0.5880118  -0.3384895   0.14801155  1.7054222   4.1476927
 -0.07928313  0.2754983  -0.29617572  0.15490058  0.36132812 -0.9653885
 -5.725682   -0.13006558  0.01612765  0.3070277   0.4567952  -0.00891138
  0.02123519  0.21657898 -0.3743349  -0.05555001 -0.9076009  -0.10136717
  0.02132292 -0.91338825  8.324615   -0.28297782  0.28248844  0.34508386]
[ 5.0478923e-01 -3.5872276e+01 -7.8772674e+00  1.3677469e-02
 -1.9291263e-02 -1.6148886e-01  1.2288877e-02  3.1308138e-01
  8.9229438e-03  9.9928334e-02  1.0452973e-01 -1.4617422e-01
  1.5612812e-01 -1.5703131e+00  1.6986536e+00  3.6767957e-01
  6.4707953e-01  2.2620052e-01  1.4749874e-01  1.3222314e+00
 -1.8361259e+00  1.3192976e-01  1.1463288e+00  1.1351051e-01
 -1.7542984e+00  1.8634628e-01  9.0485282e-02 -3.9341271e-01
 -2.2792716e+00  3.9327059e-02]
[-3.7793148e-02 -1.9659411e-02 -2.3394115e-03 -6.2483209e-03
 -5.4868092e-03  9.5833629e-02 -1.8607464e+00 -1.1507098e-02
 -3.9824059e+00 -1.9462181e-03 -1.3279566e+01 -1.0822945e+01
 -4.9443459e-03 -6.5443590e-03 -3.3393698e-03 -5.7017623e-04
 -1.3258347e-02 -4.5701289e-03  3.0400972e-03  2.2862297e-03
 -1.2026366e-03 -1.8891556e-03  1.3283136e-03  2.3299209e-03
 -2.8081669e-03 -1.0641929e+01  1.1005636e-02 -9.2892861e-03
  5.0366193e-04 -2.4181745e+00]
[-1.33854941e-01 -3.32511097e-01 -1.55515090e-01  9.77202971e-03
 -1.19824705e+01  2.00769782e+00 -7.87616149e-02 -1.95730016e-01
 -2.80124366e-01 -8.01886711e-03 -3.61268699e-01 -5.71211338e-01
 -1.16126060e-01 -1.62407234e-01 -4.63399254e-02  6.38617799e-02
  1.25012130e-01  6.99233115e-02  8.13156739e-02  2.01003969e-01
 -2.14217529e-02 -3.79571430e-02  4.49837781e-02 -5.96409775e-02
  3.29812728e-02 -4.33663845e-01  1.96278602e-01 -1.55446455e-01
 -4.24544401e-02  3.42006460e-02]
[-6.9994230e+00 -6.7211752e+00 -2.2829962e+00  1.3187361e+00
 -9.5540065e-01 -2.4444315e+00 -2.5082912e-02 -2.2039090e-01
 -6.1860770e-02  5.6864655e-01  1.8611079e-01  2.1662152e-01
  8.4683672e-02 -4.5350771e+00  1.5110891e-01  1.3431345e+00
  2.1001313e+00  7.4177688e-01  3.5063114e+00  2.0989673e+00
 -4.7478586e-01 -4.9661150e+00 -4.4396076e-01  2.2667319e-01
  9.9326968e-01  5.2564428e-03  7.7342170e-01 -2.3795915e+00
  1.0062664e+00  1.2308971e+00]
[-8.0449514e-02 -1.3824087e+01 -6.5103388e-01 -3.2065067e-02
  1.0393798e-01 -6.5747768e-02 -1.3679614e-02  9.0234947e-01
 -2.4901846e-02  5.8166023e-02 -7.7992246e-02 -1.2632100e-01
  1.5597612e-02  1.8959868e-01 -1.3427930e+00 -2.4314034e-01
  1.2825803e-01  5.4113302e-02 -4.6237148e-02 -2.7382249e-01
  2.1108823e-01 -9.0916278e-03  8.9513764e-02  1.3963318e-02
 -3.1877041e+00 -3.0731536e-02 -1.5273415e-01 -7.1674339e-02
  1.0137068e+00  3.5867903e-02]
[-1.2544982e+01  3.3618024e-01  3.2509938e-02 -2.4731170e-02
  4.4096332e-02 -7.7030540e-02 -7.8258459e-03  1.7712356e-01
 -2.2455446e-02 -7.9352391e-01 -2.5296301e-01  4.6090167e-02
  4.0164753e-03  1.9064432e-01  7.7853546e-02  5.1702356e-01
 -7.9202857e+00 -4.3148608e+00  1.3717577e-02 -1.9519494e-01
  1.0162439e-01  9.4587849e-03 -5.2915934e-02  3.7280242e-03
  8.5253932e-02 -7.2608769e-02 -7.7833295e-02 -3.1077617e-01
 -1.5230924e-01 -4.7117844e-02]
[-14.884791   -16.087477    -3.9255705   -0.24706332  -1.5457785
   6.141889     0.22722776   0.5616376   -0.32144994   0.0313779
  -3.8252494   -3.4934828   -5.362722    -3.762165    -0.16736497
  -1.6759198   -2.1896749   -1.1638558   -0.26954752  -1.4856789
   1.7055236   -4.376128    -1.190715    -3.2875445    0.3537124
  -3.4989853   -2.932269    -3.5208182   -1.3065063   -1.169289  ]
layer 4 Activation
elu
layer 5 Dropout
layer 6 Dense
30 100
[-5.9253301e-02 -1.4775763e-03 -7.4366131e-03  1.8133214e-01
 -6.2973477e-02  2.6422921e-01  1.5776180e-01  1.0349275e+00
 -1.5448187e-02  5.1880872e-01  1.2529153e+00  9.1066964e-02
 -9.2386827e-02 -3.6959580e-01  1.3566320e+00 -5.8549722e-03
  2.7399017e-02  7.3108912e-01 -8.5955728e-03  7.5489268e-02
 -8.7426287e-01 -2.9123777e-01 -5.1455502e-04  4.9215233e-01
  3.6315853e-03  2.4667572e-02  6.5296598e-02  2.7359715e-02
  1.8752202e-02 -7.8561105e-02 -1.6029538e-01  2.7902463e-01
 -2.0739929e-01  1.1883584e-01  1.5830737e-01 -2.4794504e-01
  5.0071335e-01 -6.2323678e-03  5.0405401e-01 -1.9640243e-02
  8.7118186e-02 -1.7552318e-02 -6.6949415e-01  1.7431183e-01
 -5.9181410e-01 -2.4836423e-01  3.8203198e-02  1.0768227e-01
 -2.3965532e-01 -4.7505990e-02  5.3258907e-02 -2.0683620e+00
 -4.5103025e-01  2.8122663e-01 -4.4158962e-01  3.8879105e-01
 -4.4446897e-02  1.7170552e-02  1.5350837e-01 -3.0110329e-02
  2.0824936e-01 -1.1719498e-02 -6.5093480e-02  2.3572466e-01
 -3.6176312e-01 -1.9739678e-02  8.4443213e-03 -1.4938862e+00
 -1.4881755e-01  1.3090423e+00 -3.0481627e-02  3.1109821e-02
  7.6795593e-02  1.3928723e+00 -5.1246874e-02  1.9631820e-02
  3.3994591e-01 -1.3887851e-03  2.5690377e-01 -2.0369583e-01
 -9.8882996e-02  1.2082769e-01 -3.6630044e+00  6.3690450e-04
  7.0597485e-02 -3.8543597e-01  1.2293935e+00 -1.1881781e-02
 -7.0949577e-02 -9.8660797e-01  2.8014357e+00 -2.6148353e+00
  6.6734985e-03  1.0910350e+00  2.4855504e+00 -2.5665703e-01
 -1.7552774e-02  3.5537810e-03  3.0996814e+00  2.7750016e-03]
[ 2.17516825e-01 -7.00786337e-03  1.03802625e-02 -1.35015965e-01
 -1.01785526e-01  2.14309707e-01 -1.33024740e+00  1.72055066e+00
 -1.57554483e+00  1.18383324e+00  1.80372500e+00  6.44464791e-02
 -1.26504824e-01 -1.60146847e-01  8.86977185e-03 -8.82020127e-03
 -1.01173751e-01 -1.34659004e+00 -3.14009643e+00  8.80322158e-02
  2.64358707e-02  3.11310816e+00 -3.11286736e+00  8.45271707e-01
 -2.04399996e-03  2.23389715e-02 -9.69123781e-01  1.77189540e-02
  1.22009600e-02 -1.42717719e+00 -5.89517117e-01  3.76850426e-01
 -1.89284861e-01 -6.06785488e+00  2.60090474e-02 -6.28920123e-02
  7.05831170e-01 -3.90286464e-03  9.09704447e-01  7.64374097e-04
  5.25740460e-02 -3.09683847e+00 -2.28036299e-01  1.55406475e-01
 -2.66587678e-02 -4.78397124e-03 -1.63387302e-02 -1.03396463e+00
  2.42603794e-02  2.09499419e-01  3.27340104e-02  1.10237099e-01
  2.92095989e-02 -2.31810331e+00  6.34625196e-01  2.84744203e-01
 -4.89567965e-02 -4.27656889e-01 -4.36253622e-02 -4.11789231e-02
  8.64931867e-02 -1.24646341e-02 -5.31401532e-03  6.32515103e-02
  1.12107515e+00 -2.04469543e-02 -1.38641265e-03  1.80841237e-01
 -1.44481510e-01  5.99319160e-01 -2.23874412e-02  4.42402475e-02
  3.92658412e-02  1.93270206e+00 -4.50486392e-01  7.75224566e-01
  6.14643395e-01 -5.33132209e-03 -3.35119456e-01 -6.53024539e-02
 -1.75644681e-01  3.69560301e-01  4.81825203e-01  1.20212011e-01
  1.13554263e+00 -3.82652998e+00  1.75345385e+00 -8.33098963e-03
 -2.39599291e-02 -4.48683351e-02 -2.54619956e-01  2.12690886e-02
 -1.31209299e-03  1.34652400e+00  2.21057034e+00  1.35562658e-01
 -2.94039750e+00  6.73430506e-03  2.95643806e+00 -6.05433527e-03]
[-1.90744221e-01 -2.71166861e-02 -8.31593387e-03 -1.52581060e+00
  1.08907044e-01 -1.62639332e+00  2.37597322e+00 -2.47539043e+00
  7.72839642e+00 -3.00554991e+00  6.66125715e-01  4.40358698e-01
  9.16663229e-01  5.69478907e-02 -6.75022125e-01 -9.69176739e-02
  8.44008446e-01  1.56908071e+00  1.19182987e+01  2.32205510e-01
  1.97691947e-01 -8.54737949e+00  1.40448503e+01 -1.68744957e+00
 -7.22673908e-02 -1.24728426e-01 -2.35817242e+00  6.36808515e-01
  3.85106658e-04 -3.46635669e-01  1.40714133e+00 -8.73422205e-01
  4.45955426e-01 -1.93135738e-01  2.43660405e-01  6.31059706e-01
 -3.50908470e+00 -4.71022241e-02 -2.33528113e+00  6.63143247e-02
  3.78257602e-01  2.73721790e+00  1.15892291e+00 -2.22602785e-01
  6.33472681e-01 -2.26097360e-01  3.83153975e-01  7.44281411e-01
  1.61351502e+00 -7.35206187e-01  5.98808408e-01  2.41817519e-01
  1.44472396e+00  2.23708439e+00 -9.63391438e-02 -9.86859798e-01
 -1.64666459e-01  3.03843331e+00 -5.50998092e-01  8.66392195e-01
  2.59050671e-02 -1.27429873e-01 -7.17529212e-04  5.41115522e-01
 -3.03630233e+00  1.57096773e-01  2.96167992e-02  1.47588968e+00
  5.68640351e-01 -8.20989966e-01 -1.54974997e-01  4.90254581e-01
  5.62941015e-01 -3.78542018e+00 -1.93241104e-01 -9.93425786e-01
 -7.55627346e+00 -7.84789994e-02  2.44119477e+00 -1.15657851e-01
 -1.18644856e-01 -3.72590244e-01 -2.43706420e-01 -5.57922721e-01
  1.74001181e+00 -2.26650500e+00 -1.37021446e+00 -5.24374284e-02
  2.74061412e-01  5.65571249e-01  5.16462982e-01 -2.80690819e-01
 -1.22010879e-01 -2.04999256e+00 -8.56243229e+00 -2.60310721e+00
  1.30117666e-02 -1.03763724e-02  1.51039386e+00  6.28072560e-01]
[-2.0153046e+01  1.6944990e+00  6.5332428e-03  3.1505702e+00
  1.2446858e+01 -3.9063773e+00 -2.6926844e+00  2.5284353e+01
  5.7428259e-01  5.0093865e+00  4.5141277e+00  6.9936681e+00
 -4.6981215e+00  1.6280112e+00 -4.8335571e+00  8.3570843e+00
  7.5976496e+00 -5.4748642e-01  4.3998647e-01 -3.9228418e+00
 -2.9898024e+00 -9.3559341e+00 -4.1787359e-01  3.5923035e+01
  9.4689951e+00  9.4093761e+00  3.7792048e+00  5.2225270e+00
  7.4524732e+00  4.6408248e+00 -3.3968194e+00 -1.9095453e+01
  5.0333042e+00 -2.3785238e+00 -6.5644293e+00  6.0171471e+00
 -1.9749910e+00  3.5627732e+00  1.3607660e-01  3.3918016e+00
  7.1899533e+00 -4.8984208e+00  7.4895277e+00 -2.3683062e+00
 -1.5383847e+00  4.2836928e+00  4.0001225e+00 -3.6275659e+00
  4.1798124e+00 -8.0394614e-01  6.1614633e+00 -3.1799421e+00
  6.5668683e+00 -1.1142519e+00  3.5179315e+00 -1.7933211e+00
  3.9218090e+00 -1.0818375e+00 -9.9181061e+00  2.3837130e+00
 -1.8897070e+01  7.5779219e+00 -6.9159545e-02  2.0285823e+00
  6.5622272e+00  1.8945835e+01 -1.1005837e+00 -1.0753192e+01
  4.5969948e-01  8.4932690e+00  6.2291884e+00  4.1594253e+00
  6.8348479e+00  3.6263439e+01 -5.5214915e+00 -1.7885267e+01
 -5.7244015e+00  8.7855091e+00 -2.5627992e+00  1.5080739e-02
 -2.2215372e-01  6.8749537e+00 -6.9639850e+00  2.0305277e-01
 -3.3696504e+00  8.2399184e-01  3.2860783e+01  1.1253447e+01
 -1.3520715e-01 -2.2477373e-01  5.6386700e+00  1.5684971e+00
  9.2681427e+00  3.2525410e+01 -1.2871636e+00  6.5391903e+00
  1.5515878e+00 -2.6160360e-03  1.1769271e+00  4.0401301e+00]
[-1.0389379e-01  2.5900317e-02 -2.2862598e-02 -5.4035797e+00
  1.5093518e+00  1.7039193e-01  3.3459145e-01 -6.1399937e-01
 -2.6020995e-01  2.8578807e-02  4.9488348e-01 -3.4297854e-02
 -1.0648801e+00  5.6354195e-01 -1.7289722e-02  9.5753670e-02
 -4.4865912e-01 -4.6322325e-01 -6.5039531e-03 -2.7457708e-02
 -4.4077426e-01  2.6690978e-01  4.6610530e-02 -6.4139855e-01
  2.6139495e-01  3.3605859e-01  7.7526706e-01  5.0661713e-01
 -4.8188308e-01 -1.9970050e+00 -1.4247656e+00  4.1467965e-01
 -7.6970704e-02  2.0658703e+00 -3.3892289e-01  6.8925625e-01
 -9.4882645e-02 -1.5989296e-01 -4.8757949e-01 -7.1644276e-01
 -1.7606419e-01  1.3642863e+00  2.3428349e+00  3.2442519e-01
  9.1758639e-01  2.2608368e-01 -7.4798346e-01  6.8021514e-02
 -6.3089865e-01  2.7243795e+00  3.2059252e-01  1.2482873e+00
 -6.9710666e-01 -4.6664715e+00  1.0616639e-01  1.0462028e+00
 -1.7154217e-01 -5.3311484e-03  2.1246816e-01 -3.3730856e-01
  2.4940898e-01  1.8871756e-02  5.7048041e-01  4.4910049e-01
  2.3494436e-01  5.8242905e-01  3.8429532e-02 -2.2201362e-01
  1.7392571e-01 -2.5112174e+00  5.4746184e-02  2.1709152e-02
  1.6104576e-01 -2.6351777e-01 -4.4509307e-01 -2.1667992e-01
 -1.6239522e-01  1.6311465e-01 -7.8550220e-01  2.3349290e+00
 -2.4830647e-02 -2.5151175e-01  4.0954000e-01  5.1115114e-02
  6.2546730e-01  1.0659631e+00 -3.5000901e+00 -7.0916362e-02
  9.3492627e-01  2.4122925e-01 -5.5092573e-02  4.3069816e-01
  2.1470287e-01 -3.5357279e-01 -7.0454665e-02  3.3224007e-01
  7.4337113e-01 -1.8569978e-02  2.0863211e+00  6.2327653e-01]
[ 1.0866981e-01  3.3555645e-01  3.1850187e-03  1.2702466e-02
  4.5433584e-01  2.3959498e-01  2.4597998e-01 -5.6876177e-01
 -1.1401813e-02  8.8573657e-03 -2.4111879e+01 -1.2398227e+00
 -3.6792046e-01 -3.4849297e-02  1.4683211e-01 -1.9840977e+00
 -9.3839753e-01  5.5453354e-01  2.4181785e-01  9.0390056e-02
 -2.1033265e-01  2.2191183e-01  2.5069997e-01 -2.7657259e-01
 -2.5477529e+00 -2.7433269e+00 -4.6608537e-02 -1.6670299e+00
 -3.9598951e-01 -7.5805195e-02 -3.5353208e+00  3.2365188e-01
 -7.9716569e-01 -1.1461918e-01  8.9795440e-02 -1.1686446e-01
  4.7563292e-02 -5.2870756e-01 -2.9692807e+00 -1.0155816e-01
 -1.0928328e+00  2.9666111e-01  8.5973129e-02 -1.6001676e-01
  2.8785425e-01 -1.5869354e-01 -1.0798335e-01  2.5956824e-01
 -3.2272655e+01  2.0505193e-01 -1.5568277e+00  3.5674328e-01
  5.2880418e-02 -1.2960935e+00 -1.8309003e-01  7.2433633e-01
 -7.7481455e-01  2.2310202e-01  4.2701015e-01 -3.0080137e+00
  2.6194078e-01 -1.6667993e+00  9.9315986e-02 -3.0799770e-01
 -4.8307949e-01 -5.5704293e+00 -3.1357226e-01  2.2022828e-01
 -9.6223354e-01 -8.7870979e+00 -1.2591242e+00 -1.3878982e+00
 -1.4075023e+00 -1.1426072e+00  5.5569613e-01  5.5512697e-01
  2.1881181e-01 -2.2056525e+00  5.1651031e-01 -5.7314381e-02
 -4.5566216e-01 -8.7121800e-02  2.7566472e-01 -2.3066498e-01
 -4.5623593e-02  2.3305845e-01 -1.2099413e+01 -1.3965270e-01
 -5.7183248e-01  7.2319782e-03 -2.2530988e-01  1.4769694e-01
 -2.3663652e+00  1.2438164e-02  1.0203629e-01 -4.4030389e-01
  6.7388661e-02 -7.6819008e-04 -3.9901463e+01 -2.4488034e+00]
[ 7.6374096e-01 -5.1454628e-01  3.1933330e-03  2.0524530e+00
 -1.7789131e-01 -2.7339634e-01  7.5652027e-01  4.3675227e+00
 -1.9068553e-01  2.8644667e+00 -7.0442133e+00 -3.0384514e+00
 -4.9612507e-01 -1.4796739e+00  2.6361146e+00 -4.7087741e+00
 -2.8492944e+00  2.4124762e-01  8.6419605e-02 -2.0845595e-01
  2.9527536e-01  2.3168018e+00  7.9113513e-01  8.5646927e-02
 -6.5145822e+00 -7.1202416e+00  8.3573765e-01 -4.0911913e+00
 -7.9630256e-01 -7.1766078e-01 -3.8695198e-01  1.6299965e+00
  3.9073774e-01  3.0405885e-01  1.9785625e-01 -9.2607802e-01
  1.0893829e+00 -1.7522240e+00 -7.4161215e+00 -1.6063749e+00
 -2.7250540e+00  1.7514617e+00 -1.4980051e-01  5.6012397e+00
  1.5398507e+00 -6.1002445e-01 -2.0669229e+00  2.1241660e+00
 -1.4972399e+00 -7.8474417e+00 -3.9234598e+00  2.1475487e+00
 -1.5955977e+00 -5.6989093e+00 -8.7356663e-01  2.4806383e+00
 -1.7997569e+00  4.4398874e-01  3.4090989e+00 -6.7926378e+00
  1.2797900e+00 -3.9026906e+00 -1.8575935e-01 -1.1086515e+00
 -1.9650266e+00 -1.4631852e+01 -5.1953006e-01  2.4511309e+00
  4.3378748e-02 -5.8771181e-01 -2.8684895e+00 -5.4249454e+00
 -3.5113215e+00  4.5035229e+00  4.2079264e-01  1.0727541e+00
  2.1030629e+00 -5.3746924e+00  1.6686033e+00  1.4348593e-01
  5.7268041e-01  1.6525558e+00  3.4472513e+00  1.5947880e-01
  3.5786521e-01 -4.4957478e-02  2.1352327e+00 -5.6970793e-01
 -3.7346950e-01  3.0545719e-02 -1.7408930e+00 -2.5648710e-01
 -5.8873343e+00  1.0663602e+00  1.2404175e+00 -4.8919153e-01
 -5.3441685e-01 -1.2448211e-02 -7.2391838e-01 -4.9912548e+00]
[-5.9505779e-01 -4.0104493e-01 -5.3082149e-02  8.9412117e-01
 -2.7665164e+00  8.8722962e-01 -1.7767867e+00  1.5943803e-01
 -1.3700868e+00 -4.6023145e-01  1.4499311e+00  1.0027744e-01
 -5.3540454e+00 -4.3526873e-01 -2.3748569e+00  5.1191546e-02
  1.3734492e+00  3.9789839e+00 -2.2065675e+00  6.1152065e-01
  6.6987509e-01 -8.2488430e-01 -2.5912416e+00 -1.7377906e+00
 -4.6532340e-02  1.6711670e-01 -1.4669381e+00 -2.3686656e-01
 -4.6555531e-01 -4.8285639e-01 -2.5518985e+00 -3.3148706e-02
 -8.5986549e-01 -1.9758722e-01  1.1270557e-01 -1.1532158e+00
 -3.9357087e-01 -1.4219767e-01 -3.8013446e-01  2.6137522e-01
  3.5772073e-01 -1.1993430e+00 -1.0942709e+00  2.6307249e-02
 -1.4959539e+00  5.3329796e-01 -5.0609525e-02 -3.6323631e+00
 -1.5864849e+00 -8.1137991e+00 -2.3526335e-03 -2.2902730e+00
 -2.3649707e-01 -3.3876414e+00 -1.3779899e+00 -1.5487907e+00
 -9.4105370e-02 -9.6530771e-01 -1.2057990e+00 -1.9131978e-01
 -2.5137869e-01 -4.2310767e-02  5.0769519e-02 -2.7594585e+00
  3.2242057e+00  9.9450946e-02  1.3704701e-01 -1.9125259e+00
 -1.7682641e+00 -3.9390664e+00  1.2677690e-02  1.5038275e-02
 -7.0715405e-02 -2.5565467e+00  1.2898406e+00 -1.2800670e+00
 -2.3440549e+00  3.0903509e-02 -1.2926162e+00 -2.7639660e-01
  8.3933604e-01 -2.3509704e-02 -4.4373589e+00 -2.7344346e+00
 -5.4106086e-01 -7.4732268e-01 -2.5945909e+00  4.4826111e-01
 -2.2533311e-01  6.1304355e-01  2.6434855e+00 -1.6219790e-01
  1.9646550e-02  9.8138672e-01  2.3670691e-01 -8.6269665e-01
 -2.2722703e-01 -3.1273566e-02  2.7537170e-01 -5.8434826e-01]
[ 3.03434342e-01 -1.57597280e+00 -1.54758748e-02  3.99201822e+00
  4.39428234e+00  2.03442788e+00  1.14519227e+00 -2.36889482e+00
 -5.02646387e-01 -1.77300227e+00 -6.07399273e+00 -1.59686196e+00
 -1.88196146e+00 -4.75808561e-01 -2.93617773e+00 -2.66266561e+00
 -5.99276200e-02  2.42587018e+00 -3.52146834e-01 -1.14299305e-01
  1.11093915e+00  8.76751304e-01 -2.58086026e-01 -1.52461499e-01
 -3.80297136e+00 -3.93572855e+00 -1.84848443e-01 -2.02111197e+00
 -1.30896723e+00 -1.78593352e-01  8.54879856e+00  1.13844001e+00
  4.25648689e+00  4.56335396e-01  6.71591461e-01 -5.18593311e-01
  1.08361758e-01 -1.14695239e+00 -3.51236439e+00 -4.89749491e-01
 -1.43077326e+00  8.10626984e-01 -6.27388656e-01 -2.33148789e+00
  4.07929212e-01  2.25546062e-01 -5.73554114e-02  6.85373902e-01
 -3.19564891e+00  3.21647120e+00 -1.99653828e+00  5.28563233e-03
 -2.49834225e-01 -2.48305392e+00  6.13477230e-02  3.10859108e+00
 -1.01295602e+00 -5.64970613e-01  1.39944303e+00 -1.21845388e+00
  6.81457520e-01 -2.22674322e+00 -3.34211618e-01 -1.76325634e-01
 -1.88644275e-01 -9.45465279e+00 -1.29542008e-01  7.76652753e-01
  1.24161601e+00  7.90348530e+00 -1.57927132e+00 -1.89387894e+00
 -1.82257879e+00 -3.93525386e+00  1.11512291e+00  8.43259871e-01
 -3.21226032e-03 -3.03746629e+00  8.43676567e-01 -2.96726972e-01
 -5.33975614e-03 -1.33676112e+00  7.30605781e-01  2.12798095e+00
 -8.70190203e-01 -5.35537481e-01  3.89121675e+00 -3.29702407e-01
 -1.45062220e+00  6.86541498e-02 -9.36879337e-01 -4.39251304e-01
 -3.55020380e+00  1.80658984e+00  8.98290217e-01  7.63497889e-01
 -1.10026741e+00  1.03950603e-02  4.03186798e+00 -1.17280459e+00]
[ 1.1949946e+00 -8.7374598e-02  3.2187816e-02 -9.2531770e-01
  9.5087481e-01  1.4225397e-01 -1.7322198e-01  1.4404857e-01
 -5.3845221e-01  5.5849928e-01  3.2371908e-01  5.3017545e-01
 -1.6137767e+00 -6.3766944e-01 -5.2821964e-01 -1.6514346e-01
  4.9708191e-01 -1.5311197e+00 -1.4983973e-01  2.5990081e-01
 -4.4034305e+00 -2.9488270e+00 -4.7193363e-01 -5.2692473e-01
 -1.0175653e-01  6.7121774e-02 -1.1577287e+00  3.1592926e-01
 -1.0731479e-01  2.9812840e-01  1.0889415e+00  7.8893948e-01
  1.0106469e+00 -9.7321200e-01  8.9403711e-02 -6.6696262e-01
  1.1127229e+00 -1.3087688e-01  3.6548337e-01 -1.6229035e-01
  7.5790864e-01 -1.7811668e-01 -1.3652979e+00  8.6321142e-03
 -1.4575605e+01 -1.0183278e+00  9.9712807e-01 -1.8624800e+00
  1.7818639e-01 -2.8949354e+00  4.2323205e-01 -1.4705374e+01
 -1.3315462e-01 -1.6038177e+00 -1.2182091e+00  3.3242400e+00
 -1.7469412e-01 -1.3801947e+00 -7.0931482e-01 -7.2925299e-02
  1.8411446e-01 -1.8492649e-01 -2.8956378e+00 -1.5215825e+00
  4.5102924e-01 -3.3247083e-01 -2.3096919e-03  6.0305995e-01
 -6.1921775e-01  4.8401146e+00 -1.8737508e-01  3.0678678e-01
  3.5762584e-01 -1.2004341e+00  1.3353659e+00  3.5953322e-01
 -2.3470855e+00 -1.2479304e-01  6.2764436e-01 -2.3058949e+00
 -1.6434420e+00  2.1595529e-01 -5.4491830e+00 -6.9078028e-01
 -3.5206035e-01  6.9767281e-02 -3.6555639e-01  1.7088962e-01
 -3.5149294e-01  8.1051928e-01  5.3624507e-02 -9.9130392e+00
 -1.2533979e-01  1.4808878e+00 -1.3405864e+00 -1.6187754e+00
 -2.3137724e-01  1.1970808e-02 -7.8595262e+00  3.9168159e-03]
[-5.27807832e-01  5.54178524e+00  1.11379540e-02  3.85564065e+00
  2.38061285e+00 -6.19719803e-01 -1.26180303e+00  1.16687477e+00
  2.32742524e+00  2.30685353e+00 -3.52535009e+00 -5.14163065e+00
 -1.60637617e+00  4.62144107e-01  6.04968444e-02 -3.90363216e+00
 -4.66112041e+00 -3.36504316e+00 -1.53691566e+00 -6.13833129e-01
  5.25576890e-01  2.04623365e+00 -1.54209530e+00 -4.19203013e-01
 -3.07451296e+00 -3.90387607e+00 -1.53447521e+00 -2.26357508e+00
 -2.16381931e+00 -4.47484875e+00 -1.15445700e+01 -8.17752361e-01
  3.66745472e+00 -4.96673489e+00 -1.77313411e+00  4.64915127e-01
  1.38042045e+00  1.58620238e+00 -4.19626921e-01  4.11471605e-01
 -5.14479303e+00  5.18133163e-01 -5.23469543e+00  1.03596389e+00
 -3.02603698e+00 -4.43074179e+00 -2.29164290e+00  6.76245093e-01
 -4.96048021e+00 -4.82151079e+00 -3.31890202e+00  8.66252065e-01
 -2.63919145e-01  3.19339943e+00 -3.93190765e+00 -8.13434720e-01
 -2.57370234e+00  5.51032734e+00 -1.67328611e-01 -1.44267225e+00
 -8.69363621e-02 -4.03580761e+00 -1.46039939e+00 -3.48952413e+00
 -6.49057007e+00 -3.27472210e+00  1.76231992e+00 -1.53761423e+00
  1.26346648e+00  1.00377035e+01 -3.20487070e+00 -2.90950727e+00
 -4.57944870e+00  5.47696173e-01 -3.64494061e+00 -2.48951483e+00
  7.27450132e+00 -3.40952754e+00 -6.60625041e-01 -3.51795852e-01
  9.61301386e-01  1.46015346e+00  1.00057697e+00  2.06453657e+00
 -9.52296257e+00 -3.35837483e+00  8.52925873e+00 -6.89728498e-01
 -6.33168936e+00 -4.18569183e+00 -2.37081513e-01 -1.24825013e+00
 -3.00991869e+00 -1.60276532e-01  4.41862285e-01 -7.45526171e+00
  1.93782717e-01  7.37148197e-03  4.44829971e-01 -2.50696278e+00]
[ 1.0634917e+00 -1.9977107e+00 -2.2627812e-02 -3.4324126e+00
  6.9422092e+00  1.5860299e+00 -1.3604010e+00 -5.1379333e+00
  4.5470624e+00  6.9399729e-02  2.0662916e+00 -2.6678731e+00
  3.0497986e-01  1.1701537e+00  2.5717058e+00 -3.3559871e+00
 -3.1216500e+00  6.3238275e-01 -1.4722598e+00  1.3831058e+00
  2.0296474e+00  3.4946351e+00 -1.3851188e-01 -1.3644966e+00
 -3.6614044e+00 -3.7868273e+00 -1.0603429e+00 -2.6054227e+00
 -3.3558457e+00 -1.7141052e+00  8.1381369e+00  2.6012236e-01
 -5.2149482e+00 -4.4963989e+00  8.5404360e-01  1.8537703e-01
  1.7356502e+00  9.3879096e-02 -2.3513766e-01 -6.5824449e-01
 -2.1945901e+00 -9.8823410e-01 -1.8151838e+00 -6.7036003e-01
  2.8756042e+00 -4.3258643e+00  1.3895646e+00 -1.9019219e+00
  2.3149002e-02  1.2141481e+01 -3.1642945e+00  4.5075192e+00
  3.0517706e-01 -4.4502516e+00  4.2912972e-01 -5.8625352e-01
 -1.5487487e+00  8.2013212e-02  1.6374342e-02 -1.6498342e+00
  1.0303581e+00 -3.0273862e+00  2.6855896e+00 -2.7071056e+00
 -1.2915977e+00 -7.0768595e+00 -1.2662063e+00 -4.8245694e-02
 -3.6698782e+00  8.4137344e+00 -2.7145653e+00 -3.8958576e+00
 -3.4551642e+00 -4.7930770e+00  4.2348566e+00  3.0794551e+00
 -1.2425828e+00 -3.7362697e+00  3.1952212e+00  3.6343722e+00
 -1.8117496e+00 -4.4874212e-01 -5.3354273e+00  3.2615778e-01
 -2.2461212e-01  2.4996283e+00  1.8947180e+01 -8.3456682e-03
  2.8860030e-01 -2.1788077e+00  4.6284056e+00  2.7893376e-01
 -3.7889321e+00 -2.4516306e+00 -7.3795271e-01 -7.7788824e-01
  2.8673007e+00 -2.5063101e-02  2.5437975e+01 -2.3307097e+00]
[-1.68591630e+00  9.48973656e+00  1.37768658e-02 -4.33005184e-01
  1.93735838e+00 -8.91136646e-01 -6.13076866e-01 -2.65675640e+00
  1.09708317e-01 -1.55486417e+00  2.05124593e+00  8.60911727e-01
  1.62113285e+00  2.09511971e+00  9.43343997e-01  5.29001832e-01
  1.00719106e+00 -3.43080521e-01 -2.45270193e-01 -2.64667928e-01
 -2.16188610e-01 -1.64885044e+00 -7.61177897e-01 -1.12929928e+00
  7.68061876e-01  5.51400602e-01 -9.17020142e-02  1.18954659e-01
 -2.11696371e-01  3.06022674e-01 -1.47931919e+01 -2.34090018e+00
  3.82434392e+00 -5.16804218e-01 -6.69818461e-01  1.01678097e+00
 -5.97436666e-01  3.39047574e-02  3.15421104e-01  2.09449744e+00
  1.16414356e+00 -1.73253298e-01 -2.18231335e-01 -1.27062488e+00
  1.15848064e-01 -4.14161593e-01  1.72926950e+00 -1.55758214e+00
  9.24833059e-01 -5.44983196e+00  4.15714502e-01  2.81107575e-01
  1.51449573e+00 -6.47344232e-01 -6.83046401e-01 -2.92380738e+00
  4.75814670e-01  1.92966849e-01 -9.42406714e-01 -2.33674860e+00
 -7.03167975e-01  5.87658882e-01  2.09569991e-01  1.39895976e+00
 -7.20179856e-01  2.00805521e+00 -1.41665831e-01 -1.45450437e+00
 -1.91913569e+00 -4.75760959e-02  4.51660931e-01  1.62571383e+00
  6.66734576e-01 -3.63069010e+00  8.59136879e-03  4.38467599e-02
 -2.37493917e-01  6.00323200e-01  3.18766423e-02  7.79092789e-01
 -2.85603285e+00 -3.90609175e-01 -2.95404482e+00 -3.34455639e-01
 -2.03802258e-01  3.60236049e-01  1.32691851e+01 -1.99036688e-01
 -1.71968853e+00 -2.55061507e-01  2.19418645e+00  2.55904943e-01
  7.97473907e-01 -2.09828520e+00 -7.30021954e-01 -9.75779176e-01
  4.23292667e-01 -3.43902060e-03  6.69499969e+00 -2.16950417e+00]
[-3.6965844e-01  1.7222917e-01 -1.4395140e-02 -9.9974957e+00
 -2.0517473e+00  8.2179628e-02 -7.0461529e-01 -7.7142599e-03
  2.8750473e-01 -2.7901642e+00  5.2978244e+00 -9.3050444e-01
  1.5707287e+00  1.4960952e+00  4.3253288e-01  5.5616587e-01
 -1.4459525e+00  5.5711560e+00 -6.6906291e-01  7.4475461e-01
  2.6923859e-01 -6.6962779e-01 -6.1902118e-01  4.2026964e-01
  5.9631914e-01  7.7506399e-01 -7.1379268e-01 -8.0811900e-01
 -1.3236345e-01  2.0197484e+00  1.2146028e+00 -1.3919687e+00
  8.0423677e-01  2.3762674e+00 -1.2874271e-01 -2.2284712e-01
  2.8112350e+00  2.1284597e-02  1.7319180e+00  7.9935223e-01
 -9.5118791e-01 -1.9671547e+00  2.5011451e+00 -8.9653069e-01
 -2.8906350e+00 -6.8415747e+00  2.0462255e+00  1.2017144e-02
  2.4573269e+00 -3.1685557e+00 -8.3335483e-01 -2.7639325e+00
  1.1450204e+00 -2.8557618e+00  1.6133246e+00  3.3535725e-01
  9.2644942e-01  4.0990698e-01 -5.9654671e-01 -1.9210868e+00
 -1.3874805e+00  5.5632472e-01  4.7199696e-01 -4.8601791e-01
  2.8352888e+00  7.4252284e-01  4.8175782e-02 -1.1030562e+00
 -2.4570749e+00  3.6396310e+00  6.0935628e-01 -8.0303377e-01
 -8.8413131e-01  2.8593900e+00 -1.5742890e+00 -2.2158444e+00
 -1.1115271e-01  4.6282580e-01  1.8296447e-01  1.5855000e+00
  7.9230723e+00 -1.9179921e+00 -1.4692023e+00 -1.1403035e+00
 -1.9464116e-01  4.5856390e+00  3.0149024e+00  3.8546387e-02
  2.5851703e-01 -3.6182383e-01  5.7611060e-01  1.9573820e+00
  4.5991176e-01  7.9040031e+00  1.4847686e+00 -1.0831685e+00
  9.2163634e-01 -1.6096074e-02  6.1406646e+00 -1.2021632e+00]
[-5.87933064e-01 -1.58091217e-01  4.22888435e-02 -4.07096535e-01
  1.37028885e+00  2.52429694e-02 -3.49558854e+00 -8.13716725e-02
 -2.23655605e+00  2.81237125e-01  7.28949010e-01  3.61898094e-01
 -3.38608360e+00 -4.22978759e-01 -3.36846757e+00 -1.50038734e-01
  6.88713610e-01  2.68163979e-01 -5.53315103e-01  2.04934031e-01
  3.22642982e-01 -1.48799193e+00 -2.41101170e+00 -1.37671602e+00
 -1.01351306e-01  1.33617446e-01 -1.31248581e+00  2.56036609e-01
 -5.61982207e-02 -2.60719180e-01  1.39083982e-01  2.70131081e-01
  1.08462799e+00  9.80719328e-01  2.16152772e-01 -4.11564887e-01
 -1.54182673e-01 -1.05183922e-01  3.21781449e-02 -1.28925294e-01
  7.66354501e-01 -1.12805974e+00 -1.57896733e+00 -1.37825429e-01
 -1.05087614e+00 -8.71238530e-01  5.02941728e-01 -7.42822945e-01
  7.61753976e-01 -1.41620862e+00  2.87264049e-01 -1.14574671e+00
  5.95820189e-01 -2.69094372e+00 -9.90585089e-01  4.39828300e+00
 -1.10519335e-01 -7.31755400e+00 -2.69399738e+00  9.93722957e-03
 -1.18088625e-01 -1.54269516e-01  3.07015747e-01 -2.85506153e+00
 -4.51821625e-01 -4.38664585e-01  5.48237748e-03 -6.03086770e-01
 -1.17839909e+00  4.36282444e+00 -1.39978305e-01  5.17281055e-01
  1.78189084e-01 -9.26676035e-01  1.16722405e+00  4.49268699e-01
 -1.68724132e+00 -1.08072110e-01  6.48486972e-01 -1.57058370e+00
 -2.97567654e+00  2.78719753e-01 -4.11227894e+00 -1.69910359e+00
  1.29671609e+00 -3.78725529e-01 -2.84880924e+00  2.89828092e-01
 -4.78291452e-01  4.38143104e-01  2.18726730e+00  2.04327807e-01
 -8.78091827e-02  1.51478112e+00 -1.25117826e+00 -5.76258898e+00
 -9.63963413e+00 -7.08915177e-04 -7.49150753e+00 -2.01893181e-01]
[-4.89161587e+00  7.56407380e-02  6.66704355e-03  1.92020571e+00
 -1.05007797e-01 -2.78894119e-02  4.98197645e-01 -1.96068406e-01
  8.06596041e-01 -1.86653212e-01 -1.61331832e-01 -6.59946144e-01
 -2.19158083e-02  5.24230051e+00  1.50381613e+00  1.02602340e-01
 -1.64090383e+00  6.40293550e+00 -2.82429047e-02 -6.01709545e-01
  8.95923233e+00  1.32377744e-01 -1.07038938e-01  4.63631183e-01
 -3.26196104e-02 -2.73212139e-02  1.62336040e+00 -2.49436975e-01
  8.92177131e-03  2.90091491e+00 -2.11426482e-01 -3.44288088e-02
 -4.94797170e-01  1.37347436e+00  3.63208771e-01  1.24472904e+00
 -3.20758641e-01  2.24024653e-02 -2.01510087e-01 -8.16100895e-01
 -9.45777357e-01 -4.33023781e-01 -6.94988823e+00  3.40548247e-01
 -1.33244431e+00 -2.47415528e-01 -4.36081439e-01  2.93629140e-01
 -4.84125435e-01 -2.07127213e+00 -3.20684373e-01 -7.40801871e-01
  9.02101696e-01 -7.67895818e-01 -4.45674211e-01 -2.28859186e-01
  4.20055181e-01  1.94886431e-01 -4.49832392e+00  1.85638592e-01
 -9.74868715e-01  1.34219155e-01 -2.10644650e+00  1.12289155e+00
  7.92332530e-01  2.85122972e-02  9.23838764e-02 -3.57628733e-01
  1.94721207e-01 -6.09701812e-01  2.39070401e-01 -8.09613019e-02
 -4.85338330e-01 -4.89878267e-01 -3.76344055e-01 -1.32306731e+00
  1.32687554e-01  1.94959808e-02  8.07053924e-01  6.14544809e-01
  2.48374239e-01 -1.21129207e-01 -1.99043980e+01  1.89792025e+00
  1.22570193e+00  1.57057360e-01  1.70725405e+00 -3.10117275e-01
  1.87775642e-01 -5.57870722e+00  1.12931585e+01 -8.14417183e-01
 -1.86385829e-02 -4.20920074e-01 -4.66236211e-02 -9.41534281e-01
  4.51936513e-01 -8.31827521e-03  1.62306502e-01  1.13536626e-01]
[-4.6898170e+00  2.4535269e-01 -1.2959920e-02  9.5890141e-01
  2.8058958e-01 -2.3768167e-01 -3.9939815e-01  7.2169840e-02
  3.6610231e-01  4.8881318e-02 -6.3375644e-02 -2.4980545e-01
 -5.0139147e-01  2.4088969e-02 -4.3577600e+00  5.3333405e-02
 -2.7596229e-01 -1.0932866e+00  1.5764992e-01 -1.2477870e-01
  4.0938559e+00  1.0613561e+00  2.9756250e-02 -2.4930269e-02
  2.5306631e-02  1.7756207e-02  1.2252523e+00 -2.2353762e-01
 -9.6380547e-02 -8.0453157e-01 -1.1994539e+00 -6.4010870e-01
 -1.9920082e-01  1.0921509e+00  7.3817484e-02 -4.3814700e-02
 -1.2034657e+00 -4.0260721e-02 -3.6291960e-01  1.7009547e-01
 -2.9192284e-01 -2.7778843e-01  1.9895126e+00 -1.7524458e-01
 -1.1306002e+00  1.6895536e+00 -1.1135659e+00 -4.7532003e-02
  7.4346319e-02  1.1768370e+00 -2.1069926e-01 -3.4477315e+00
 -7.8705966e-01 -1.3603641e-01 -9.2252441e-02 -8.0755636e-02
  1.4096706e-01  9.1942000e-01 -1.3597327e+01 -2.9790121e-01
  3.0666811e-02  7.4211538e-02 -1.2625570e+01  1.3349833e-01
 -2.1060255e+00  2.0889131e-02  5.5719344e-03  1.0755049e+00
 -7.9464905e-02 -1.5579318e+00  6.3255899e-02 -3.3873525e-02
 -1.9968186e-01  2.5447434e-01 -7.3366627e-02 -2.6677108e+00
 -2.1325639e-01  4.8391853e-02 -6.0919315e-01  1.7732370e+00
 -2.9156125e+00  6.6754706e-02  2.7652853e+00 -1.2199103e+00
  1.9728811e+00 -2.2744420e-01  1.9879153e-01 -4.2247094e-02
  1.9549364e-01  2.4780147e+00 -4.3189840e+00  2.7657578e+00
  3.3633575e-02 -1.5878558e-01  3.4085247e-01  4.6677494e-01
  1.4582871e-01  2.4398060e-03  2.9637849e+00 -2.6854014e-01]
[ 1.57286024e+00  9.35355797e-02  1.33245699e-02  5.71642637e-01
 -6.18679404e-01  1.27337709e-01  4.08041738e-02 -2.09239032e-02
 -5.81990071e-02 -1.73093248e-02  1.51671901e-01 -1.10635392e-01
 -4.97784978e-03  6.76719189e-01  4.51757282e-01  2.83645652e-02
 -9.01193917e-02 -8.96192932e+00 -1.99697521e-02  1.96877003e-01
 -1.35599756e+01 -3.42374146e-01 -2.00525206e-02  1.16230927e-01
  1.36201624e-02  2.64769215e-02 -1.64206140e-02 -7.58281946e-02
  7.43390236e-04  2.11291149e-01  3.61167938e-01  2.28510872e-01
 -1.50006562e-01 -6.57143593e-01  5.50961867e-02  1.01068139e-01
  1.99159328e-02  3.76782231e-02  1.85376748e-01  1.18601531e-01
 -1.11017406e-01 -9.32738334e-02  3.78093541e-01 -9.82706025e-02
  2.14956135e-01  5.34368791e-02  7.76674673e-02  3.36185098e-02
 -1.19059660e-01  5.56574941e-01 -9.61875618e-02  3.63474160e-01
  3.74914140e-01  2.26381376e-01  1.37836134e+00 -4.14363086e-01
  6.19395971e-02 -1.94071263e-01  3.01993132e+00 -1.56083964e-02
 -2.53919095e-01  3.50613073e-02  6.17289019e+00 -3.87949139e-01
  1.54877353e+00  4.19653207e-02  8.10902566e-04 -7.62435198e-01
 -1.28541319e-02 -1.08025241e+00  6.40834421e-02 -9.87346396e-02
 -1.26229659e-01 -2.06935570e-01 -1.92542303e+00  1.24174464e+00
  9.62424278e-02  9.53819044e-03 -1.25192896e-01  5.48627317e-01
  7.95261085e-01 -5.14842868e-02  1.22374678e+01  3.92618060e-01
 -1.25592366e-01  2.41271764e-01  1.55390918e-01  1.49247512e-01
 -1.37424082e-01  3.94410086e+00 -7.74885559e+00  2.63913798e+00
  2.40780916e-02  1.40773043e-01  2.05230922e-01  5.02175987e-02
  2.53971182e-02 -1.08408770e-02  5.78217506e-01 -8.51425156e-02]
[ 1.18779570e-01  4.59530264e-01  5.15990052e-03 -1.38351059e+00
 -5.61941326e-01  1.16578829e+00 -4.53977197e-01  3.46909332e+00
 -3.44324613e+00  1.45052683e+00  2.58699965e+00 -1.04232979e+00
  1.45581293e+00 -3.56372404e+00 -4.61406201e-01  2.97958225e-01
  5.09364724e-01  1.07175887e+00 -1.15270579e+00 -3.13900977e-01
  1.68065369e-01  7.04778954e-02  1.14182317e+00  7.10898578e-01
  3.20684046e-01  4.75335807e-01 -8.12565136e+00 -2.50632143e+00
 -8.05573225e-01 -5.80790091e+00 -9.10100698e-01  1.45591772e+00
  4.47952867e-01 -2.21845984e+00 -6.21199787e-01 -1.15469992e+00
  3.13208789e-01 -2.03576422e+00  1.55573380e+00 -6.15243816e+00
 -4.60487336e-01  8.52704272e-02 -4.40734005e+00 -2.23870069e-01
  5.56237809e-02 -1.83581448e+00 -1.86502457e+00  2.56675541e-01
  8.20986986e-01  4.19806957e+00 -2.15950060e+00  5.47029153e-02
 -5.19115925e-01  2.25370193e+00  1.96459365e+00  1.80670428e+00
  4.63918597e-01  1.43565714e+00  4.95211065e-01 -2.13190436e+00
 -1.24246135e-01  3.55770260e-01 -7.01102972e-01 -1.36752498e+00
 -5.27038537e-02  3.59406978e-01 -2.02141553e-01  1.39244246e+00
  1.42071202e-01  1.96644688e+00  3.40803266e-01  1.09466588e+00
 -1.64357662e+00  4.64449215e+00  2.78768390e-01  7.23318100e-01
  4.46021736e-01  3.31779301e-01  7.24333644e-01 -2.91783357e+00
  4.01592016e-01  1.18274331e+00  2.12421155e+00  8.46576393e-01
 -6.24436915e-01  4.47788626e-01 -1.79577613e+00 -9.84149933e+00
  8.72669876e-01 -1.75970817e+00 -2.33251408e-01 -1.10084753e+01
  3.25268954e-01  4.06226158e+00  6.64068818e-01  6.30678892e-01
 -8.61235237e+00  2.19021421e-02  5.40391588e+00 -3.14798999e+00]
[-9.1891403e+00 -1.1698369e+00 -1.6699502e-02 -1.2749459e+00
 -2.3390887e+00 -9.8862767e-01  1.4338925e+00  2.6626796e-01
 -8.8365622e+00 -6.0036099e-01 -5.4981488e-01 -1.2552465e+00
 -1.9157524e-01 -7.6391006e+00 -2.0791619e+00  8.1833738e-01
 -1.6975874e+00  5.2764493e-01  2.1406934e+00 -1.4758555e+00
 -1.8163064e+00  1.8435934e+00 -1.0312070e+00 -9.1413265e-01
  8.0972028e-01  4.1511041e-01  5.3187561e+00 -1.2233216e+00
  9.4892299e-01  8.8875318e-01 -7.8099618e+00 -3.0451825e+00
 -5.5127817e-01  3.1855245e+00  4.0724516e+00 -9.7899504e+00
  9.9695456e-01  1.2370420e+00 -7.5416732e-01  1.2014842e-01
 -1.4351338e+00 -2.3178027e+00 -1.3984971e+00 -2.0229200e-01
  4.1742596e-01  1.2886102e+00 -6.9033146e+00  1.3269831e+00
 -1.6182449e+00  3.4357491e+00 -1.1741778e+00  8.0825204e-01
 -3.8130436e+00  2.3176234e+00  1.9927294e+00 -4.6167859e-01
  2.7620548e-01  6.3379282e-01  2.1877813e+00 -1.5979595e+00
  2.3809768e-01  9.1581559e-01  1.9214115e+00  8.2752556e-01
 -1.4774140e+00  8.0454576e-01  7.5482532e-02 -6.8792850e-01
 -1.1745362e+00 -1.2258804e+01  1.0669729e+00 -1.7448730e+00
 -1.0751611e+00  1.6045136e+00 -1.4872727e-01  4.0276730e-01
  1.2743411e+00  7.1680808e-01  1.3292083e-01 -4.1047120e+00
 -5.7967057e+00 -5.5872726e-01  2.6874814e+00 -7.7568054e-01
 -5.0828733e+00  5.0794464e-01 -2.9522214e+00 -1.0169648e+00
 -1.4792585e-01 -2.3748533e-01 -1.3107532e+00 -7.3486767e+00
  8.3205199e-01  7.9720938e-01  4.0783703e-01 -4.0480509e+00
 -2.9516277e+00 -1.2187874e-02 -3.3485648e-01 -7.1324326e-02]
[-1.8734081   0.5922004   0.01865844 -0.13540094  3.5412955  -0.88995105
 -1.6911762  -0.5478195  -1.3333055   0.40115276  1.3392202  -0.28990805
 -4.7718754   2.5801642  -3.3715029   0.2998793   0.54304165  3.347126
 -2.6193132  -0.54898226  0.7628647  -3.2197404  -5.1175127  -2.085035
  0.4718725   0.6023557  -0.239126   -0.673901    0.5096767  -0.8565552
 -2.9018252  -1.8115559   1.7750266  -0.90377873  0.03389127  1.327137
  0.07721265  0.26438376 -0.34696126  0.73550916  0.3743246  -1.2332464
 -1.2463647  -0.38814145 -2.7871356   0.13286513  1.3783417  -5.5755024
  0.27662486  5.778858   -0.7745674  -2.831889    2.4690082  -1.9208602
  0.48993263  2.698884    0.22190906 -1.222512   -2.0323205  -0.15339503
 -0.5173282   0.34693703  0.01860385 -2.8933775   0.25771573  0.2922376
 -0.08249318 -3.7398837  -0.8758261   6.431595    0.36773598  0.02451592
 -0.6687676  -2.1628792  -0.08797143 -0.49380225 -5.206054    0.36497086
 -1.8029822   2.1719174  -5.62606     0.01191176 -5.593775   -3.0978231
 -0.6231521  -0.81487715  7.048659    0.70200825 -1.1728685  -0.440909
  3.0171099  -0.796543    0.49551585  2.1260283  -1.2704566  -2.9398909
  0.22068222  0.02282954 -3.8325517  -0.7001308 ]
[ 8.0202565e-02 -1.2463717e+00 -1.4407150e-02  8.3509007e+00
  1.8362328e-01 -2.6405523e+00  2.2457120e-01  2.7273548e+00
  2.9063787e+00  1.9727063e-01  4.0714989e+00  1.1581314e+00
  1.5387764e-03  7.1472869e+00 -1.8397558e+00 -3.4165668e+00
  2.3024588e+00 -8.0984545e+00 -2.8915346e+00 -1.6209610e+01
 -6.7886448e-01 -1.5551093e-01 -1.0633628e+01  2.4556413e+00
 -4.1311955e+00 -3.9165957e+00  1.5159835e+00  1.8440838e+00
 -7.2055931e+00  9.7048483e+00 -3.1486549e+00  1.4002438e+00
  3.1084838e+00  1.1263039e+01 -9.3424397e+00  4.2704411e+00
 -8.1681480e+00 -1.0575548e+01  3.4125800e+00  1.2809148e+01
  1.4227927e+00 -1.0916907e+00  5.6236210e+00 -1.9908624e+00
 -1.1052694e+00  3.2150857e+00  1.0479396e+01 -1.8309368e+00
  2.5251205e+00  2.6733327e+00  1.6035186e+00 -1.4118153e+00
 -8.9074963e-01  4.7558351e+00 -2.9509251e+00 -9.5819062e-01
 -2.5254102e+00 -2.9924054e+00 -1.1393551e+00  3.6767445e+00
  5.0419664e-01 -3.1780424e+00  1.8935155e+00  7.5188071e-02
  1.9845141e+00 -1.1014533e+01 -2.5731895e+00 -1.9984025e+00
 -2.5339323e-01  5.7937040e+00 -2.6580079e+00  1.4947616e+00
  1.2143036e+00  3.4674914e+00 -5.5347733e+00 -1.7419276e+00
 -1.0948818e+00 -3.6492460e+00 -6.7062016e+00  7.6913719e+00
 -5.1822147e+00  1.2023715e+00 -2.4316835e-01 -1.1677186e+01
 -2.2615190e+00 -1.1114819e+01  2.1564758e+00  1.1638973e+00
  2.0123034e+00  2.7432606e+00  1.0091853e+00 -5.5151910e-01
 -3.9855659e+00  8.6516085e+00 -3.3028519e+00  8.4361231e-01
  8.7076688e-01 -2.5266365e-03  5.5886397e+00  3.7838583e+00]
[-1.2048197e+00  3.5850491e-02 -3.4611488e-03 -5.3852587e+00
  7.9517311e-01  9.1781214e-02 -1.8389605e+00 -4.8554191e-01
  4.2409879e-01  5.2825511e-01  1.4151947e+00  3.2189921e-01
 -1.5038126e-02  1.6743006e+00 -1.3783581e+00 -3.7709150e-01
  1.3986081e-01  4.1763112e-01 -7.4042410e-01  4.2285687e-01
 -6.3308805e-01 -6.6804118e-03 -6.6580874e-01  1.2687842e+00
 -3.3712408e-01 -2.8432393e-01 -1.6950313e+00  7.3587304e-01
  4.0731934e-01 -1.3489804e+00 -4.8827705e-01 -1.0514071e+00
 -3.3338732e-01 -4.5500998e+00  4.0456623e-01  6.7316532e-01
 -3.2066745e-01  9.9282905e-02  4.8855391e-01 -1.2147671e+00
  3.4933132e-01 -1.4518396e+00  2.6140599e+00 -9.8175019e-01
 -2.2120421e+00 -3.7245509e-01 -1.4289075e+00 -1.5254940e+00
  1.5709856e+00  1.0968116e+01  3.2537869e-01 -2.2951992e+00
  2.3814893e+00  1.0497310e+00  1.5853921e+00 -1.8444195e+00
  2.5126207e-01  1.4801420e+00 -1.2095569e-02  1.5031538e+00
  8.0017529e-02 -2.3758405e-01  8.8754141e-01 -5.4129529e-01
  3.9352667e-01 -8.4556259e-02 -1.6590938e-01 -1.9135789e+00
  3.0266935e-01  1.1844332e+00 -9.2147775e-02  1.6548233e+00
  3.7467715e-01 -1.3423306e+00  1.8985369e+00  1.0934728e+00
 -3.1496555e-01 -4.5445195e-01  1.3223641e+00 -1.8443865e+00
 -4.5833511e+00  3.9857584e-01 -2.7037172e+00 -1.3818148e+00
 -4.4900811e-01  2.4858420e+00  8.3330166e-01  3.6437252e-01
 -3.9416903e-01 -6.9055462e-01  1.7557970e+00  1.5350903e+00
 -3.6714536e-01  1.1480820e-01 -8.3157808e-01 -1.6405597e-01
  1.6222162e+00 -2.4861700e-03  1.2049408e+01  2.6385683e-01]
[-1.94064602e-01  1.00567020e-01 -1.00938901e-02  2.92437166e-01
  2.73970842e-01 -3.10822272e+00 -3.95518273e-01  2.75169730e-01
 -2.00111762e-01  3.81005073e+00  4.28525180e-01  1.45745367e-01
 -6.01871157e+00  1.30025700e-01 -6.34396255e-01  2.32692137e-01
  4.18924153e-01  5.65846086e-01 -6.33445457e-02  6.52510524e-02
 -2.50555396e-01 -3.53369445e-01 -5.08041441e-01 -1.02103972e+00
  3.31589878e-01  3.69774818e-01 -1.35312051e-01  1.26704156e-01
 -2.15446663e+00 -4.30111140e-02 -1.98311977e+01 -1.42701954e-01
 -1.19347239e+00 -4.99581695e-02 -9.66705754e-02 -3.10398210e-02
 -1.03248119e-01  9.63612646e-02  2.54275233e-01  1.88161701e-01
  2.30491772e-01 -3.82264256e-01 -1.56065270e-01 -1.58140316e+01
 -5.02046406e-01  1.17885046e-01  2.81863809e-01 -7.67991841e-01
  2.65851080e-01  2.30448574e-01  1.20070279e-01 -6.74733400e-01
  3.14744323e-01 -1.08735542e+01 -1.62347808e-01 -1.29861374e+01
  7.97147006e-02 -3.21082056e-01 -3.54114026e-01  2.41982490e-01
 -9.46118906e-02  1.92471534e-01  1.61645800e-01 -8.83029103e-01
  5.51559567e-01  6.96060359e-01 -1.36684895e+01 -5.99625885e-01
 -9.06341171e+00 -2.41006947e+01  1.52607888e-01  1.83338180e-01
  9.85105261e-02  5.90685964e-01  2.47092217e-01 -2.14388162e-01
 -7.83500314e-01  2.66042024e-01 -2.75622278e-01  1.40080139e-01
 -3.52337450e-01  9.30534422e-01 -1.32690847e+00 -8.72715592e-01
 -1.12867095e-01 -4.28306125e-02 -1.19094908e+00  9.42933112e-02
  1.44922975e-02  1.11852296e-01  6.44499362e-01 -8.26493576e-02
  3.01818192e-01  5.49493980e+00 -1.36300862e-01 -4.05532807e-01
 -5.50195761e-02  1.03258351e-02  6.42722905e-01  1.22129388e-01]
[-5.2146715e-01  5.4332424e-02 -3.9683804e-02  1.1416423e+00
 -1.2572372e+00  1.9639897e-01  3.5178900e+00  1.1700028e-01
  5.9612803e+00 -2.0708388e-01 -2.0569691e-02 -2.3887299e-01
 -9.5482439e-01  4.8364121e-02  2.3509309e-01  4.2754669e-02
  2.3796666e-02 -2.9757380e-01  1.1771224e+01  1.1898419e-01
 -2.6343668e-02 -5.1549749e+00  8.3441544e+00 -1.9103405e-01
 -2.1896653e-02  9.2960149e-03  6.6345733e-01 -1.6947740e-01
 -1.2980108e-01 -2.1962205e-01 -1.6099997e+00 -1.5173833e-01
 -6.1175776e-01 -8.0084008e-01  1.7412697e-01 -4.3508211e-01
 -1.5103871e-01 -9.3370434e-03 -3.8722980e-01  1.7336239e-01
 -2.9436433e-01 -1.6247067e-01  6.1973858e-01  6.3168012e-02
 -9.6320860e-02  3.2231945e-01 -6.5496868e-01  5.5899682e+00
 -6.1351001e-01 -1.4749486e+00 -1.5293354e-01 -3.1636247e-01
 -2.8823391e-01 -5.6018645e-01  1.3543580e-01 -8.9216053e-01
  6.7226239e-02 -3.1990302e-01  3.2101342e-01 -4.6780143e-02
 -1.7345126e-01  2.2636084e-02 -1.1857905e-01 -3.6935231e-01
  9.0061831e-01  4.3549936e-02  5.8227938e-02 -7.0869923e-01
 -2.5121367e-01 -2.5656815e+00  5.9557378e-02 -6.3389920e-02
 -2.0086367e-01 -1.6106549e-01  1.1921624e-01 -3.5880282e+00
  3.3716576e+00  7.5482139e-03 -6.7210442e-01  2.7498165e-01
  1.0399004e+00 -4.9268376e-02 -8.1948221e-01 -2.1524638e-01
  2.5333624e-02  2.1428990e-01  1.0770228e+00  1.0652349e-01
 -5.6240574e-02  1.9933027e-01  3.7711909e-01  2.2246029e-02
  8.2668690e-03 -2.2051436e-01  2.9407120e-01 -1.5520322e+00
  2.5233727e+00 -1.6226472e-02  2.2508783e+00 -1.7908646e-01]
[ 1.8698114e+00 -9.9462068e-01  5.7928864e-02  4.2688745e-01
 -1.0785012e+01 -9.7080475e-01  4.0470514e+00  2.6552155e+00
 -6.3860803e+00 -8.4014827e-01 -7.3385220e+00 -2.8021410e+00
  2.3800521e+00 -4.0759034e+00  3.2890475e+00 -4.6309109e+00
 -2.4109342e+00  1.9144306e+00  2.0356407e+00 -1.2505805e-01
 -1.0453776e+00 -1.0246518e+00  1.5246078e+00  1.3171679e+00
 -5.9550300e+00 -6.6128745e+00  2.7052474e+00 -3.3085270e+00
  2.0778632e+00  3.1494513e+00  8.2674875e+00  3.4834952e+00
 -4.5628934e+00  5.9424133e+00  3.2729799e-01 -2.1133018e+00
 -1.2788613e+00 -1.9605080e+00 -1.4931995e+00 -5.1508129e-01
 -2.6010716e+00  5.6486912e+00  3.8075802e+00  2.1391270e+00
  3.4784207e+00  5.1784563e+00 -1.7276058e+00  4.6380739e+00
 -5.3620152e+00  1.9571449e+01 -3.3007190e+00  1.2841876e+00
 -2.4990690e+00  1.9607604e+00 -1.9221084e+00  3.4665060e+00
 -2.0069990e+00  1.9578275e-01  2.2769055e+00 -1.3736134e+00
  3.6126968e-01 -3.7185178e+00 -2.8403561e+00 -5.9940219e+00
  1.5664128e+00 -9.7993584e+00 -8.9231312e-01  3.9986188e+00
 -5.9060178e+00  2.0037102e+01 -2.7109389e+00 -4.5080633e+00
 -2.7817073e+00  8.9711213e-01 -4.6191698e-01  1.0044526e+00
  1.5806860e+00 -5.2027149e+00  3.7028196e-01 -3.1030695e+00
  1.4519470e+00 -7.0099360e-01  1.0492784e+01 -1.2503331e+00
  3.7338762e+00  1.5191117e-01  2.8668011e+01 -7.6263773e-01
  9.8507875e-01  4.0225720e+00 -7.7307763e+00  7.8403646e-01
 -5.5090785e+00  3.6203700e-01  1.2520229e+00  1.5927407e+00
 -1.8026656e+00  8.7617710e-03  2.3456625e+01 -2.4295728e+00]
[-3.03432524e-01 -7.15789199e-02 -2.90666763e-02 -7.63885200e-01
 -4.00548637e-01 -6.06885105e-02  3.94138042e-03  2.83895344e-01
 -2.81681836e-01  3.87616530e-02  4.16616154e+00 -4.47691172e-01
 -1.14622364e+01 -2.62411714e-01  6.93148792e-01 -4.68457997e-01
 -3.87787730e-01 -2.17351556e-01 -4.85910252e-02 -8.04477781e-02
 -6.58443272e-02 -2.61625856e-01  8.44492465e-02  1.65217862e-01
 -6.58690512e-01 -2.72110254e-01  9.28900484e-03  1.75360417e+00
  2.96507269e-01 -1.76615804e-01  1.15817719e+01  1.37052298e-01
  2.30138302e+00 -1.28726467e-01 -5.25343180e-01  1.56688560e-02
  2.10140198e-01  3.57695967e-01 -4.97856110e-01 -8.27551901e-01
 -2.34712288e-01 -6.50914758e-02  1.35319503e-02  7.46178031e-02
  3.90317857e-01 -6.16264224e-01 -2.33508325e+00  1.91568777e-01
  2.60901904e+00  4.15010786e+00 -1.08648515e+00  4.85128462e-01
 -3.15422893e-01  2.85300821e-01 -2.61528909e-01  6.35671914e-02
 -2.87359148e-01  1.93733647e-01 -2.93289155e-01  1.83762443e+00
  1.59467105e-02 -4.25789833e-01 -6.04296699e-02 -5.81741571e+00
 -5.39349854e-01  2.29768109e+00 -2.12041736e+00  4.33716297e-01
  4.72477317e-01  1.02552376e+01 -3.05501133e-01  1.18438399e+00
 -6.70086086e-01 -1.66588604e-01 -2.69230962e-01  2.82496512e-01
  2.13736519e-01 -5.54026425e-01 -1.61804825e-01  1.46844015e-01
 -1.90657586e-01  1.43627018e-01  1.03801882e+00 -5.23318589e-01
  6.86529100e-01  2.27082044e-01  3.02864647e+00 -5.37808001e-01
  2.65245318e-01 -1.15351386e-01 -4.10980135e-01 -2.92319972e-02
 -8.39162707e-01 -1.85296968e-01  1.46789206e-02 -2.60798410e-02
  2.74026375e-02  1.17637515e-02  5.66454029e+00  1.55284846e+00]
[-2.82844186e-01  5.08518098e-03  1.52219851e-02 -1.28924823e+00
  1.80454746e-01 -7.27947950e-01 -5.54775894e-01 -1.66158509e+00
  3.13921496e-02 -8.21003377e-01 -6.13022268e-01  8.74108449e-02
  4.04751062e-01 -4.77527529e-01 -6.11995888e+00 -6.53891861e-02
  3.41909558e-01 -2.90513086e+00  1.56285837e-01 -1.10118136e-01
 -7.44339323e+00 -2.40877897e-01  4.95442867e-01 -1.81034732e+00
 -2.72222850e-02 -8.07076171e-02 -3.03227961e-01  2.97591269e-01
  2.30677202e-02 -1.08931400e-02  7.96995163e-01 -9.20083284e-01
 -1.38203353e-01 -2.35814109e-01 -4.77981836e-01  2.19020247e-01
 -2.09542418e+00 -4.82103042e-02 -4.01491070e+00  2.15588406e-01
  3.56984660e-02  3.66886288e-01 -1.06406558e+00 -2.96905518e-01
  1.93935096e+00  1.73901752e-01 -8.16130519e-01 -1.04222484e-01
  1.26918042e+00 -1.12539506e+00  2.39397094e-01  2.23049068e+00
  4.25311327e-01 -2.12331367e+00 -6.91714644e-01 -1.63960278e+00
 -1.04562782e-01  7.54669085e-02 -2.34767318e+00  5.54442525e-01
 -4.53311577e-02 -8.07808861e-02  3.42176843e+00  1.01193346e-01
  1.45241156e-01  1.86643019e-01  1.03058182e-02 -2.50124913e-02
  6.17664337e-01 -1.26375139e+00 -7.38076568e-02  2.62273043e-01
  1.82099491e-01 -5.50465047e-01  2.71345305e+00 -3.84474248e-01
 -5.97135782e-01 -4.47548330e-02 -1.29870248e+00  1.22167673e-02
 -6.65204525e-01 -1.67862535e-01  2.53463078e+00 -7.32559323e-01
 -2.65339911e-01 -3.95465434e-01 -8.02959323e-01 -8.77528116e-02
  1.78464115e+00  1.35091078e+00 -3.10577536e+00 -2.55566686e-01
 -7.16130361e-02 -3.29133987e+00 -9.37571239e+00  1.42372131e+00
 -1.72353700e-01 -5.25107048e-03  5.49119771e-01  3.66122156e-01]
[-4.2395697e+00  1.6265763e-01 -1.0533746e-04  2.1189289e+00
 -4.6274841e-02  6.7868583e-02 -2.5392075e+00 -3.1922886e-01
  8.0684972e-01 -6.9288743e-01 -6.4444804e-01 -1.1383368e+00
  1.2511377e+00  1.6408945e+00  6.0370713e-01  2.6877052e-01
 -2.4249964e+00 -4.4289322e+00 -8.4657240e+00 -7.3152620e-01
 -3.4327734e-01  1.8113104e+00 -1.0425678e+01  7.9348773e-01
  1.2637537e-02 -5.7481863e-02 -3.4321773e+00 -4.0889981e-01
 -6.6378098e-03  5.8525425e-01 -7.8898662e-01  2.7132139e-01
 -1.1802086e+00  4.7032361e+00 -3.0326419e-02  7.5954449e-01
 -2.6895872e-01 -4.2619225e-02 -3.7465841e-01  1.2800997e+00
 -1.5933517e+00  2.2041678e+00  2.6698251e+00  3.1441301e-01
  9.2260325e-01  2.7366614e-01 -7.3984394e+00 -7.7115102e+00
 -3.2064450e-01 -2.1572785e+00 -5.9082919e-01  1.2932825e+00
 -5.2043778e-01 -4.1591516e-01 -1.0056631e-01  4.5951072e-02
  8.2731742e-01 -1.3696576e+00  1.1688621e+00  2.4089536e-02
 -1.0594536e+00  3.4145364e-01 -1.0911045e+00  1.8596230e+00
 -1.9440429e+00  1.3495402e-01  7.2646618e-02  1.2015799e-01
  4.7270903e-01 -3.5792325e+00  5.4406148e-01 -1.3370273e-01
 -8.1424868e-01  7.3920459e-01 -9.0491213e-02  5.1128227e-01
 -7.2509561e+00  1.2686516e-01  4.0823007e-01  1.1079017e+00
  2.2566864e-01 -2.6658523e-01  1.4985306e+00  2.5845220e+00
  1.8236021e+00 -4.9108905e-01  5.6867307e-01 -6.8801802e-01
  4.9002132e-01  4.5483002e-01 -9.5225447e-01  1.8266389e-01
  5.2316099e-02 -1.2679912e+00  3.5994098e-01 -9.0909958e-01
  1.3326032e+00 -3.8194068e-02  1.3184187e+00  1.7649007e-01]
[ 7.9555826e+00  3.7298843e-01 -4.0263128e-03 -7.5830617e+00
 -8.8886003e+00 -1.1570482e+00 -1.6936078e+00 -1.5045954e+00
 -4.6267262e-01 -1.9512217e+00  5.5266488e-01 -1.8060652e+00
  2.9980949e-01  3.7881269e+00 -1.9259244e+00 -2.8242975e-01
 -6.2509745e-01 -7.9233217e-01 -1.3503377e+00  3.2451296e+00
  1.2827122e+00 -2.8895230e+00 -1.3158529e+00  1.9547980e-01
  4.0780950e-01  5.0968641e-01 -3.9386408e+00 -6.1996751e+00
  3.0735981e+00  5.8548441e+00  3.8031058e+00 -1.9017915e+00
  7.3132306e-01 -1.6132218e+00  3.5136836e+00  1.3660374e+00
 -6.1464339e-01  4.2263455e+00 -9.6285802e-01  4.6818852e+00
 -8.0143291e-01 -1.1900148e+00 -5.1199126e-01  1.4205971e+00
  2.8894949e-01  1.8272497e-01  5.3005972e+00 -1.9069493e+00
  1.4083245e-01  1.5103580e-01 -3.6659400e+00 -4.7535818e-02
  1.2888863e+00  5.7627921e+00  8.9912409e-01 -2.1364286e+00
 -6.0307676e-01  2.0186102e+00 -3.1476331e+00 -5.8388853e+00
 -6.3548536e+00 -5.0810808e-01 -3.8919631e-01  9.6435562e-02
  4.3969479e-01  1.6809976e+00 -8.2890838e-01 -2.3763999e-01
 -3.6910508e+00 -3.6949437e+00 -9.0881038e-01  3.2165480e+00
 -2.7266810e+00 -2.8255296e-01  2.1267228e+00 -1.3911833e+00
 -7.2860003e-01 -4.7111735e-02 -1.8047355e+00 -2.1318862e+00
  1.3824399e+00 -1.0389452e+00 -1.7162842e+00 -5.3419714e+00
  5.3207868e-01  1.8465228e+00 -6.0062261e+00  1.8748832e-01
 -1.7466435e+00 -9.7060189e-02  7.1490800e-01  2.9407904e+00
  1.0951724e-01 -3.6583009e+00 -1.2164588e+00 -2.0062671e+00
  5.8450480e+00  2.7851185e-02  5.2243762e+00 -7.3247395e+00]
[-33.73263     -1.9701269   -0.08052811 -11.038999   -10.709514
 -14.573863   -10.996013    -1.9684854   -7.8714027  -13.4555025
  -5.589211     3.144417    -7.5391393   -4.8171926  -13.59355
   1.7937074    5.8092866   -3.0487566   -9.775      -19.137432
   0.54762775 -16.70806    -14.943022    -1.4124198   -3.7448616
  -6.9203305   -8.76288     -1.2584007   -3.6959567    2.9445617
 -13.131905   -23.597559    -3.9804845   -7.1685715   -9.892636
  -2.1834252  -14.286286    -4.8977737   -5.761868    -2.620818
   4.955899    -4.479491    -3.6188154  -19.019325    -5.6186066
  -0.38370362 -14.16058     -8.004745    -2.630502    -6.167841
  -0.4935232   -7.084956    -3.0019982   -7.454595     0.79097426
 -33.26083      3.2242324    2.7432067  -32.49704     -1.8250918
 -29.524334     2.9158425  -15.106379    -4.20383      3.6482315
  -6.8482494  -18.29923     -8.281025   -14.476301   -11.461073
   4.041919     0.20261456   1.553358    -3.9461865  -15.009992
 -31.651474    -7.918602    -0.06371061  -5.183779    -9.654036
  -1.7827672    0.3038028  -10.751751    -7.723162    -8.556404
  -9.238677    -4.1490145   -5.1144514   -3.3063378   -2.5670962
   5.264221   -20.266531    -2.1180634   -9.8960085  -18.30004
   2.562125   -12.637264    -0.08696037  -7.097173    -0.55211115]
layer 7 Activation
elu
layer 8 Dropout
layer 9 Dense
100 1
[0.68026525]
[1.5221171]
[0.00015498]
[0.07031763]
[0.12861645]
[1.4420483]
[2.7274158]
[-0.45829403]
[0.12328961]
[1.371314]
[-0.88096654]
[-0.54052716]
[0.05748133]
[0.1690493]
[2.4754593]
[-0.98913157]
[-0.5802953]
[0.5652403]
[-0.32827237]
[1.7118535]
[-0.19141772]
[0.54802567]
[0.44341776]
[-0.7019447]
[-1.1310841]
[-1.3753921]
[3.1750689]
[-0.4154852]
[-0.4703406]
[-0.47328854]
[0.06789841]
[0.492149]
[1.8611903]
[3.3476832]
[0.19308667]
[0.26466054]
[0.8560806]
[-2.7813191]
[-1.051778]
[-1.9177157]
[-0.57449675]
[-0.15812504]
[-0.26359648]
[1.0057498]
[0.20653577]
[-0.18214016]
[0.21288356]
[-0.6745297]
[-0.33479387]
[0.08749873]
[-0.42925528]
[-0.1699085]
[0.1949456]
[0.06969477]
[-0.17584337]
[0.7046899]
[-0.93547595]
[-0.12063973]
[1.465667]
[-0.37738296]
[2.1878035]
[-0.9682189]
[0.33723894]
[-0.08926401]
[-0.16581531]
[-0.99165076]
[-3.5298796]
[0.12511928]
[-0.26568773]
[0.04596735]
[-0.9989341]
[-0.37871403]
[-0.4700954]
[-0.42685726]
[0.13493106]
[0.8822731]
[0.1972118]
[-1.0323871]
[0.13534918]
[0.28226718]
[2.6090026]
[-1.2936951]
[0.1455382]
[0.13199024]
[0.14511172]
[0.16939992]
[0.07846665]
[2.969471]
[-1.1556115]
[-0.11709265]
[-0.34944826]
[2.5306275]
[-1.0540872]
[-1.9943514]
[2.555745]
[-0.15314001]
[2.330463]
[-6.446678e-05]
[0.07033113]
[-0.4598637]
[-1.2138488]
