layers 10
layer 0 Dense
9 9
[ 0.00874377  0.00131335 -0.06033546  0.3300666   0.08100528  0.206649
 -0.03287625 -0.12410917  0.25482592]
[ 0.1654735  -0.00512185 -0.03999249  1.1066955  -0.13887292 -0.23300959
  0.12774254  0.30821967 -0.10976234]
[ 0.3583868   0.00563838 -0.0254568  -0.10781685  0.07782121  0.22363862
 -0.02689817 -0.10176881  0.23470344]
[ 0.9362609  -0.00145666 -0.00320438  0.1276863  -0.16544081 -0.22612138
  0.1469804   0.35864142 -0.11173838]
[ 0.00762175 -0.02676124 -0.22330941  0.00564819 -0.12261697 -0.18624997
  0.02023488 -0.14327425  0.21631059]
[ 0.18029653 -0.11467679  0.46233928  0.05327815  1.5498303  -1.0756763
 -1.1325758   1.2539855  -0.14434175]
[-0.27168295 -0.5179643  -1.5991204  -0.24757507  0.9219716   0.01522541
 -1.4554337   1.0584495  -0.3861735 ]
[-5.2954471e-03  1.9711550e-01  4.5082051e-02  1.3921458e-03
  1.5829272e+00 -3.3604592e-01  1.6287100e+00 -1.2865393e-01
  3.3179343e-01]
[-0.04045251  3.3920543  -1.3273728  -0.02863866 -0.51845556 -1.1134961
  0.28570464 -0.07636649  1.3518817 ]
[-0.6722054  -2.5307255   2.8990088  -0.5220633  -0.33096334  2.2726479
  1.3913294  -0.64214367 -0.09430673]
layer 1 Activation
elu
layer 2 Dropout
layer 3 Dense
9 30
[ 0.3763226  -0.973139    0.0376737   0.47436547  0.5985822   0.04595532
  0.06022204 -1.6097245  -0.0621703  -0.18996538  4.5467505   1.2140609
  1.3339497  -0.00748848 -1.0017849  -0.0243503   0.6895533   0.3259112
 -0.4576755  -0.21436156  0.6160505   0.4549962   0.36619708  0.44572166
  0.52341485 -0.08111511 -0.6332866   0.61397374 -0.01211273  0.07510209]
[-2.047576    1.2149507  -0.05290095 -0.12886657  0.20057598  6.9019628
 -1.6160299  -0.04698299 -0.04864363  0.08036149 -0.12077623 -0.17904393
  0.6991631   0.2292663  -0.10035127 -0.02155167  0.2828568  -1.91869
  0.2768885  -0.16081424 -0.06199554 -0.19882517 -0.0398664  -1.8935757
  0.03645366 -0.03582367 -0.07226926 -0.03142688 -0.6766992   7.241241  ]
[ 0.2186505   1.3080174   1.4286268   0.6646123  -0.11403836 -0.7547873
  0.48853895 -0.80580103 -1.170138    0.737138   -0.19908667  0.73979694
  0.60264474  0.72978884 -0.02941674 -1.3909061  -1.1940175   0.6015618
 -1.2623254  -0.63914895  1.154169    2.2900944  -0.5558419   0.246962
  0.8536009   0.31370595  1.222006   -0.7819206  -0.5209903  -1.171571  ]
[ 2.0666152e-01  3.0914086e-01  1.1131587e+00  1.9729936e-01
 -1.3070564e+00 -3.8941830e-02  1.6093107e-03 -1.1880331e+00
 -1.8601755e-02  8.8639057e-01 -6.8053663e-01  7.9671341e-01
 -6.2474024e-01 -2.4273646e-01  9.1897547e-01  2.4187060e-02
  4.9166051e-01  3.2245171e-01 -3.5371920e-01  1.3303050e+00
  2.4233183e-01 -2.1630819e+01  3.0448130e-01  3.2540736e-01
  3.4782499e-01  1.7856172e-03 -1.4121325e+00 -3.0844368e-02
  1.0399385e-02  5.1614817e-02]
[ 0.10907207 -1.5312868  -1.0582691   0.52002287  0.44716358  0.06430618
 -0.7420052   0.4201889  -1.9104348  -0.1449039   0.4004642   0.81808364
 -1.0412809  -0.8961306   0.69519776 -0.9518577  -0.50653905  0.43949357
 -5.837933    0.01033832  0.5084611  -1.8351682  -0.36832047  0.5836775
  0.06664175 -1.6896995   0.3726272   1.12002     0.4588252   0.0982343 ]
[-0.15408267 -0.05817301 -1.3817698  -0.53298604 -0.10254041 -0.31458747
  0.17051645  0.01499361  1.060491   -0.25366434  0.6474754   0.4714833
  0.5743085   0.16982925 -0.22074184  1.4000227   0.5839768  -0.48011437
  2.2072668   0.0826262  -1.7451334  -5.1644797  -1.2157791  -0.7605654
 -1.586963    0.3725491   0.02154033  0.6420051  -0.44739622 -0.241083  ]
[ 0.12431715  1.036949    0.77713263 -0.61432683 -0.3359948  -0.89047796
  0.9888559  -0.25218368 -3.1484826   0.10920812 -0.42006323 -1.1650238
  0.75430536  0.80135375 -0.8271261   1.4556767   0.82154924 -0.2505431
 -8.986529    0.25325468 -0.9898118   1.2594737   0.57088965 -0.40087053
 -0.41237053 -1.857524   -0.74827504 -1.1172525  -0.68757176 -0.94307315]
[-1.3371397  -0.15488291  0.55195445 -0.13176307 -0.8208687   0.21467368
 -1.0655247  -0.33251104  1.1648471   1.7702262  -0.36699894 -1.1371706
 -0.297688   -0.94611615 -1.6206295   0.28757375 -0.09294364  0.3274034
  2.7193687   0.37081194 -1.6598879  -1.2112637   0.3226996  -0.47797108
 -1.3298178   0.69861996 -0.8071619  -1.3779452   0.12275653  0.331473  ]
[-0.83537644  0.7950151  -0.15570502  0.25109982 -0.22127533 -0.01454172
 -0.27892718 -0.656843   -0.2498603   0.38978335  0.68144596  1.6690863
  0.99252754 -0.07470102  0.19204594 -0.8578083  -1.1920143  -0.05873443
  0.19760299 -0.41690117  0.06570644 -3.3597248  -1.701616   -0.35762057
 -0.4046865   0.41512516  1.4334469   0.28669354 -0.52583486 -0.11900298]
[ 0.5297322   1.815004   -1.8378888  -0.9287653   1.475086   -2.112573
  0.4815853   0.74981505  0.55292845 -0.89557564  0.13571872 -2.6870153
  1.2654222   0.7818794   0.7577446  -1.1520188   1.2031261   0.43173042
  0.12053062  0.10225686  0.07827567  0.5033618   2.2600548   0.5111238
  1.8259679   1.268576   -2.5934038   0.5239959   0.8694316  -2.1553752 ]
layer 4 Activation
elu
layer 5 Dropout
layer 6 Dense
30 100
[-4.8837087e-01 -6.5316510e-01 -5.4338515e-01 -3.3834794e-01
  5.4561272e-02 -3.8885358e-01 -3.7991741e-01 -6.3942152e-01
 -5.3506601e-01  2.2473965e-02 -2.3085684e-02 -3.1672008e-02
  4.1984048e-02  5.0882314e-04  1.7840029e-01 -1.0451673e+00
 -6.0330480e-01 -2.5835437e-01  2.1994606e-01 -4.4040355e-01
 -2.7757353e-01 -1.1950336e+00  1.5879951e+00  4.5838598e-02
 -2.8945073e-01  7.6863649e-03 -1.1321690e-01 -7.3210374e-02
  4.6804830e-02 -7.2436816e-01 -8.2933360e-01  9.4705345e-03
 -4.2816799e-02  6.1706334e-01  7.4943170e-02  1.5473540e-01
  6.1100792e-02 -1.9067870e-02 -8.0156350e-01  4.4814819e-01
  1.3309845e-01 -2.5091690e-01  5.6373674e-01  3.2381490e-01
 -4.0660992e-01  1.9932872e-01 -1.4248294e-01  3.3747947e-01
 -8.1175119e-01 -7.8908265e-01 -1.6383688e-01 -4.9609132e-03
  7.0780180e-02 -3.4295559e-01 -9.6485289e-03 -2.9645488e-01
 -1.6243772e-01  1.5458909e-01 -2.7356941e-02 -3.3949295e-01
 -4.2172053e-01 -1.2487595e+00  1.5028060e-02 -6.2287652e-01
  4.0368587e-03  3.8506284e-01 -3.8377929e-02 -5.9583062e-01
 -1.0076277e+00 -6.5050691e-01 -3.9866006e-01 -7.0530003e-01
 -5.9962893e-01  4.8000148e-01  8.6512387e-02 -1.4897804e+00
 -3.7687469e-01  3.5656017e-01  4.7956315e-01  3.4757456e-01
 -1.6277413e+00 -6.7183870e-01 -3.4813333e-01  1.2684616e-01
 -5.5617738e-01  8.0511747e-03 -1.4797102e-02 -1.0881722e+00
 -5.9975120e-03  4.5146573e-01 -5.0854005e-02 -1.3140626e+00
 -1.3102411e+00 -3.4580138e-01 -4.9936205e-01  8.2808894e-01
 -1.6490389e+00 -2.9746452e-01 -3.8075629e-01 -2.6905992e+00]
[-1.79007208e+00 -1.72262383e+00 -7.00074971e-01  2.32264519e-01
 -2.02874854e-01 -3.75128508e-01 -3.16925555e-01 -2.68334299e-01
 -1.03795022e-01  5.85971475e-02  1.23973126e-02  6.52561337e-02
 -5.19378809e-03 -1.31579768e-02 -3.64758909e-01  5.80490589e-01
 -1.44512802e-01 -2.25922060e+00  1.41554132e-01 -7.15278745e-01
  1.56434476e-01 -2.04538393e+00 -6.26431227e-01  2.86651263e-03
 -1.43648554e-02  1.12919584e-02 -1.52364016e+00 -1.63384467e-01
 -8.68823752e-02 -6.83596075e-01 -6.19449377e-01  4.25601080e-02
 -2.73516488e+00 -3.08459663e+00 -2.93380246e-02  1.48052752e+00
  1.64904539e-02 -3.81164066e-02  4.32665050e-01  8.33871663e-01
  7.26785719e-01 -2.75602460e-01 -4.85726929e+00 -3.69576991e-01
  7.08113462e-02 -1.43793762e+00  2.14113855e+00 -1.86144924e+00
 -2.62985015e+00 -1.52169335e+00 -4.05515969e-01  3.61330025e-02
 -9.81035158e-02  1.70386881e-01  1.05037309e-01 -6.06766164e-01
 -3.54496747e-01 -3.08446735e-01 -1.77344918e-01 -1.70694757e+00
  2.40077347e-01 -1.23642266e-01 -3.98771055e-02 -1.56132376e+00
 -8.00164342e-01 -1.77671313e+00 -1.67997336e+00  3.13209623e-01
 -2.16418552e+00 -1.31617486e+00 -1.58053327e+00 -5.39109886e-01
 -9.29246426e-01 -3.21754605e-01 -1.04533100e+00  3.04308057e-01
  2.35932916e-01  2.32375398e-01 -4.12986469e+00  3.19053113e-01
 -2.52718806e+00 -2.19371676e+00 -7.07248509e-01 -6.55299783e-01
 -7.84370601e-01 -5.98737551e-03 -5.45281135e-02 -5.70345782e-02
  1.21261729e-02 -1.31148982e+00 -2.03167666e-02 -1.99398863e+00
 -4.00455189e+00 -1.96910754e-01  2.49889836e-01 -1.66783571e-01
 -8.83295119e-01  6.88678622e-01 -4.22054499e-01 -2.57603240e+00]
[ 8.79289389e-01 -1.36124954e-01  5.56008101e-01 -1.71242332e+00
 -8.29730213e-01  8.97038043e-01  6.42114412e-03 -4.38677192e-01
  3.87710762e+00 -3.14691626e-02 -3.40196043e-02 -7.87235349e-02
  3.67190805e-03  4.09955718e-02  3.15271318e-01  7.41394982e-02
  7.50172615e-01 -9.73368436e-02  8.55786026e-01 -1.99664701e-02
  8.40244889e-02 -5.91839969e-01  7.97958747e-02  1.37083558e-02
  2.19330955e+00 -6.47541061e-02 -1.14025211e+00 -5.94998896e-01
  5.79404905e-02  4.15061563e-01  1.11986637e+00 -1.02600008e-01
  4.12425101e-01  1.30217099e+00 -3.07338741e-02 -1.60210028e-01
 -4.45015728e-02  3.82222086e-02  1.14387774e+00  6.57391012e-01
  4.07852024e-01 -1.66721791e-01  3.73049796e-01 -2.37631989e+00
  2.15913847e-01 -8.13698828e-01 -3.03318173e-01 -5.49867570e-01
  4.17252094e-01 -1.16836004e-01 -1.28077841e+00 -1.25167752e-02
  2.55942438e-02 -3.61783773e-01 -3.45456712e-02 -2.86709523e+00
  7.20189393e-01  7.12144136e-01  5.47170639e-01  6.09547794e-01
  2.92117089e-01  2.00105622e-01 -1.99195240e-02  7.92209983e-01
  1.03990626e+00 -3.54886241e-02 -4.70694870e-01  5.53292930e-02
 -4.27323133e-01 -1.98547468e-01  3.35661054e-01 -6.89129233e-01
 -1.06687039e-01  6.89389169e-01  7.16374338e-01  2.82014728e-01
  2.85097715e-02  2.75197953e-01  5.75304568e-01  1.04367471e+00
 -1.19147047e-01 -2.72443652e-01 -1.23402190e+00 -7.15051055e-01
  2.89161593e-01 -4.20887433e-02 -1.10842707e-03  9.24740434e-01
 -7.39777237e-02  4.50439602e-01 -1.96531527e-02  3.71998936e-01
 -2.31335893e-01 -2.01457524e+00  2.09196135e-01 -4.94805932e-01
 -1.48217666e+00  2.21359944e+00  2.28019953e+00  2.57090479e-01]
[ 0.27429265 -0.1646817  -0.20408143 -0.20880474  0.5379836   1.168947
  0.10556121  0.44130754  0.49333715  0.03849429  0.08636289 -0.09214889
 -0.14621909  0.00765988  1.277035    0.09037115  1.111286   -0.49819425
  2.169159    0.18453392  1.0329635   2.327087   -1.3135165   0.10970535
 -1.1261039   0.03367306 -2.8077106  -0.06413426  0.00601758  1.2689312
  0.15001665  0.4394454   0.8907474  -1.2126722   0.1944375  -2.7157176
  0.18805465 -0.05049615  0.8952398  -0.9774083  -0.27343887  0.22444965
  0.15387696 -0.2604215   0.16559191  0.17553689  1.2863922  -2.6843472
  0.07785422 -0.15423699  0.10538474 -0.02264528  0.1267055  -0.4543396
  0.01844849  0.98967767  0.21762629  3.4339855  -0.6951364   0.7265414
  0.06272382  1.0380198   0.09879834 -0.9793515  -0.39716402 -2.895403
 -0.717485    1.0941889  -1.2612351  -0.04117855 -1.0607135   0.72324437
  0.2365263   0.949057    0.72813797  1.3142132   0.48206452 -1.3696512
 -0.323283   -0.51120317 -0.29596668 -0.45931083  0.41939    -0.28253326
 -0.4158712   0.12656529 -0.00673534  0.91750014  0.02776279 -2.6597838
 -0.00783204 -0.25035137 -0.33668146  0.06761402  0.4897146   0.37881058
  1.4196333   0.2353333   0.1297888   1.5108469 ]
[-3.9558309e-01  4.8465971e-02 -3.0176425e-01 -4.7644144e-01
 -1.6795030e+00 -3.8786035e-02  2.0319056e-02 -1.5099205e-01
 -5.2877642e-02  2.1968476e-01  3.4009907e-02  4.0231463e-02
 -1.1715970e-02 -3.0139592e-02  1.5324751e-01 -1.5760878e-01
 -2.9177121e-03 -6.7654717e-01  1.0335370e+00  2.8356633e-01
  5.0070524e-01  5.1612604e-01 -5.4082376e-01 -2.0626871e-02
  1.0253817e+00 -4.7703270e-02  1.9918020e+00 -3.6466974e-01
 -4.4601865e-02  3.2294342e-01  3.4281826e-01  1.6957760e-01
 -8.3443537e-02 -2.0474350e+00 -7.3801346e-02 -1.0725089e+00
 -9.7093873e-02 -4.0110298e-02  6.4926177e-01 -5.1269883e-01
  6.1338919e-01  4.2928359e-01 -3.7156706e+00  5.4957038e-01
 -8.7714219e-01  8.5656673e-01 -1.8623823e+00 -2.3422425e+00
 -9.5541060e-01 -1.6945153e-02 -1.1201137e+00  1.3697197e-02
 -3.5024729e-02  1.5454590e-01  1.9878714e-01  7.2691345e-01
 -4.4663224e-01 -1.8963603e+00 -1.5946383e+00 -3.0930749e-01
  2.6873648e-01 -3.0316174e-01 -1.3692562e-01 -1.8554330e-01
 -3.1062749e-01 -1.5432453e+00 -7.5250459e-01  1.4190395e+00
  2.2536141e-01  1.0248434e-01 -6.8666726e-01  9.9691916e-01
  1.5794601e-01  6.6022521e-01  5.1511312e-01  1.9150613e-01
  1.5694308e-01 -1.5509806e+00 -3.5137200e+00 -5.9690523e-01
 -5.7224768e-01 -5.9748138e-03  2.2413251e-03  1.5756577e-01
 -6.6126865e-01 -4.2742364e-02 -1.0437109e-02 -4.6461004e-01
  1.6448360e-02 -1.7926910e+00 -6.8952721e-03 -6.2262058e-01
 -5.2353132e-01  8.6966157e-01  1.1040169e-01  1.8423049e-01
  3.3204895e-02 -8.4139165e-03 -3.8536426e-01 -7.4633425e-01]
[-7.98327565e-01 -3.24216509e+00 -3.28264380e+00 -7.09138632e-01
 -1.22378981e+00 -2.61392903e+00 -2.52491212e+00 -2.45378351e+00
 -1.39907813e+00 -2.02088162e-01  4.65649143e-02  1.82981312e-04
 -1.21572755e-01 -2.33292338e-02 -1.47305202e+00 -3.46404505e+00
 -2.18688798e+00  8.84569809e-02 -3.01891661e+00 -1.64815891e+00
 -2.58935761e+00 -1.13449466e+00 -8.10209811e-01 -6.86483309e-02
  6.81519747e-01  4.04924005e-02  2.70706326e-01 -2.60929608e+00
 -1.20976724e-01  3.27064705e+00  1.95345330e+00 -5.53025961e-01
  2.69980621e+00  1.23367679e+00 -8.80914554e-02  3.17613339e+00
 -7.59410439e-03 -5.14265113e-02 -3.02008462e+00  6.95218563e-01
  1.68346059e+00 -2.69346881e+00  6.34456158e-01  1.69499978e-01
 -1.99592069e-01  7.12733746e-01  2.55658478e-01 -8.76033366e-01
 -5.01290512e+00 -2.96328473e+00 -6.24560893e-01  6.12311997e-03
 -9.19362232e-02 -2.71233082e+00 -1.90693036e-01 -9.95970070e-01
 -3.65175080e+00  1.45541048e+00 -1.44076371e+00  3.79281664e+00
 -1.85310745e+00 -2.11643982e+00  4.53785947e-03 -1.28961051e+00
 -2.94238663e+00  1.46470594e+00 -1.56912863e+00 -1.60877836e+00
  9.23523903e-01 -2.77351737e+00  7.51377419e-02 -3.14012551e+00
 -2.34327936e+00 -1.84116721e+00 -5.05811870e-01 -3.22712207e+00
 -3.78530765e+00  1.44420588e+00 -3.03222854e-02  9.52461123e-01
  8.13457966e-01 -4.06651831e+00 -5.38693547e-01  1.00599527e+00
 -1.72382081e+00  5.23919277e-02  1.32844932e-02 -6.60512877e+00
 -2.44053323e-02 -5.16224444e-01  3.00302473e-03 -3.20574784e+00
 -5.32609081e+00 -1.52525067e+00 -2.21335030e+00 -1.16017020e+00
  2.23447371e+00 -1.36091143e-01 -1.02628194e-01 -1.41904914e+00]
[ 2.50458330e-01 -4.53098297e-01 -9.86777246e-01 -3.54140520e-01
  3.62408638e-01  2.77277797e-01  4.38320264e-02 -3.13558638e-01
  4.50385720e-01 -2.18952410e-02 -1.40428208e-02  6.40332373e-03
 -5.69922850e-02 -3.62851322e-02 -3.18208128e-01 -2.07420087e+00
 -1.29385799e-01 -5.62271357e-01 -1.63172781e-01 -6.47061467e-01
  2.15362161e-02  8.06738615e-01  1.11757720e+00 -7.79903978e-02
  1.99215084e-01 -2.61199549e-02  7.23183036e-01 -5.96397877e-01
 -8.33599418e-02 -6.31486595e-01  3.43974322e-01  1.33981451e-01
 -1.51443586e-01  1.06862240e-01 -1.14979610e-01 -4.98736054e-01
 -7.53110647e-02 -5.79162966e-03 -3.86817873e-01 -8.08322243e-03
 -4.78228569e-01 -7.03024626e-01  3.56179811e-02 -4.34752524e-01
  3.51150721e-01  9.01874900e-02  1.25366032e-01  3.28409582e-01
 -1.45948577e+00 -7.90223479e-01 -3.30647588e-01  2.50728615e-03
 -8.50198865e-02 -5.13295412e-01  2.38873586e-02 -1.28119290e+00
 -4.05262887e-01 -3.26472342e-01 -4.59632009e-01 -6.20737016e-01
 -4.23985094e-01  2.63377637e-01 -1.52859825e-03 -1.03466737e+00
 -4.53157127e-01 -3.02638531e-01 -1.88160527e+00  2.28307098e-01
 -9.29368913e-01 -6.07318997e-01 -6.92006528e-01 -1.10094294e-01
 -6.85488224e-01 -1.01231061e-01 -3.62270802e-01 -5.96938491e-01
 -4.83619839e-01  6.83048546e-01  4.42476481e-01  4.77192730e-01
 -2.72970653e+00 -8.31309199e-01 -1.81465375e+00  4.77835625e-01
  2.06914574e-01 -4.22485694e-02 -6.93398993e-03 -2.68409729e+00
 -2.16885135e-02 -5.71016729e-01 -5.39620314e-03 -1.29331887e+00
 -2.66908503e+00 -1.19474769e-01 -5.85574985e-01 -4.22347218e-01
 -2.85975337e+00 -1.91782340e-01  5.06908953e-01 -3.06558967e+00]
[-1.41679144e+00 -2.98327375e-02 -1.28466293e-01  5.42480052e-01
 -5.18439770e-01 -8.97831261e-01  7.66010489e-03  2.90983375e-02
 -2.44813395e+00  3.40042934e-02 -4.86003421e-03  1.11800684e-02
  1.55926833e-03  1.55801717e-02  3.42427380e-02 -8.23121145e-03
 -8.44491661e-01 -1.22333597e-02 -4.40912992e-01  5.53345308e-02
 -3.43626559e-01  1.07935369e+00 -1.16372669e+00  8.96442216e-03
  1.29628658e+00  1.79051030e-02 -2.39428091e+00 -1.07118952e+00
  1.19513245e-02  9.82563794e-01  7.11981356e-01 -3.09328996e-02
  5.56394815e-01 -9.31340218e-01  3.22072506e-02  1.39471126e+00
  1.03283962e-02  1.29026677e-02  7.05769598e-01  2.15714812e-01
  1.71794069e+00 -2.14468762e-01 -1.77637100e+00 -4.64316696e-01
 -3.63259576e-02 -5.89039266e-01  1.25973070e+00 -3.29440689e+00
 -6.60445169e-02 -1.65738508e-01  1.60557663e+00  1.24883875e-02
  2.54782978e-02  1.03398755e-01  4.44464609e-02  1.29323959e-01
 -2.07553536e-01  3.14934760e-01  1.60042119e+00 -5.32020554e-02
  7.52146065e-01 -1.04581177e+00  3.85245793e-02  1.91081673e-01
  1.37669235e-01  9.32938814e-01  5.71437657e-01  5.56013227e-01
 -5.06956935e-01  2.05373857e-02 -7.16991186e-01  1.52341142e-01
  3.32087348e-03  1.53899646e+00  6.53009653e-01 -4.15201604e-01
  1.65718570e-01 -1.77280411e-01 -1.85403800e+00  8.10998857e-01
 -3.86437088e-01 -1.03299715e-01  4.84918088e-01  2.30513215e+00
  6.80071115e-01  2.57904816e-04  3.94845987e-03 -1.13406561e-01
  3.35463881e-02 -3.76844227e-01  1.53537523e-02  5.03951013e-01
  1.26453340e-01 -1.70741796e+00  3.44178468e-01  4.49617028e-01
 -9.18720007e-01  9.07575071e-01  2.20324919e-01 -1.23140216e+00]
[-2.6850274e+00  3.4395168e+00  2.6997471e+00  3.3744559e+00
  6.3567674e-01  1.2435085e+00  2.5198109e+00  4.4638691e+00
  4.8912973e+00 -2.8369591e-01 -6.7924492e-02  1.2908803e-02
  2.2313971e-02  4.2716719e-02  1.7293215e+00  1.2222137e+00
 -1.2741479e+00  1.3779315e+00 -1.0111328e+00  2.2582564e+00
 -1.8342080e+00  1.9851816e+00 -1.5208338e+00  5.8332700e-02
  1.5269140e+00  1.5342903e-02 -4.3187845e-01  1.5977718e+00
  2.9129384e-02  1.8980765e+00  5.0341761e-01 -4.2055947e-01
  1.4879134e+00  3.6372509e+00 -1.0005812e-02  8.5462034e-02
  6.9744855e-02 -5.7866357e-02  1.6562536e+00 -2.7345545e+00
 -9.2736101e-01  3.7181141e+00  4.2374415e+00  5.4565644e-01
  2.1924002e+00 -8.1365973e-01  1.7652909e+00  7.8793585e-01
  3.7824702e+00  3.1929824e+00 -5.6149054e-01 -5.9829675e-02
 -5.0763696e-02  1.8979266e+00 -2.4352168e-01  3.6319849e+00
  1.0801044e+00  7.4474329e-01 -1.3612542e+00  2.1923411e+00
  3.9340951e+00 -1.9095269e+00 -9.6911509e-03  3.7428768e+00
  9.2255157e-01  4.6961927e+00  1.3853387e+01  2.5967011e+00
  3.9411957e+00  3.6116209e+00  1.4944941e-01  1.3608437e+00
  3.1602383e+00 -1.9762491e+00 -7.8979594e-01  2.3279984e+00
  2.0128686e+00 -8.0086970e-01  2.7341352e+00  5.9066784e-01
  1.7948626e+00  3.6576607e+00  2.8805234e+00  1.7009584e+00
 -5.3949356e-01  1.8970912e-02 -2.8806672e-02 -1.7578570e+00
 -8.0574386e-02  3.8255749e+00 -2.2413960e-02  1.9321051e+00
  1.9009428e+00  4.4342065e-01  4.0824685e+00  4.9825978e+00
  3.9432058e+00  5.9716187e+00  1.7016718e+00  2.2613959e-01]
[-5.7357949e-01  1.4180046e-01  1.1211108e+00  1.2184819e+00
  7.6094645e-01  1.1693772e-01  6.8758786e-01  6.2890345e-01
  4.8968071e-01  9.1257654e-02 -3.5010803e-02  5.8450265e-04
 -5.9889574e-03 -8.7067969e-03  1.0288205e+00  2.9501688e-01
 -2.9181278e-01 -4.3488672e-01 -4.0357929e-01  5.9752673e-02
 -1.0438820e+00 -1.5348283e+00  1.8767192e+00 -5.9334558e-02
  1.7340157e+00 -3.0814648e-05 -1.8647693e+00  8.7826449e-01
 -1.5953651e-02  7.6088005e-01  5.3443491e-01  4.4523571e-02
 -4.8163030e-01 -3.2620156e-01 -6.8579435e-02 -1.5806504e+00
 -8.6055934e-02  6.9821803e-03  5.3144389e-01 -9.7536182e-01
 -1.2999212e+00  5.6878436e-01 -1.0522177e+00 -1.7043105e+00
  1.4487391e+00 -1.7254924e+00 -1.7800249e+00 -4.4512352e-01
 -1.0165994e+00  3.9610114e-02 -2.3668161e-01  1.6156020e-02
 -1.2311215e-02  4.4398391e-01  8.7908156e-02 -4.3122482e-01
  4.9750927e-01 -2.1501538e-01 -6.9627291e-01 -1.3935038e-01
  1.5007563e+00 -1.1189185e+00 -3.0189380e-02  5.1391679e-01
 -1.0995015e+00 -5.8718264e-01 -1.8027853e+00 -8.5956377e-01
 -2.2518300e-01  2.7827358e-01 -6.8787044e-01 -1.7696814e-01
  1.2891163e-01 -4.7194469e-01 -3.2240352e-01  8.1814200e-01
  2.5672558e-01  2.5987411e-01 -1.0381013e+00  7.9665101e-01
  2.2937505e-02 -9.6715160e-02 -1.3354295e+00  3.5352647e-01
 -9.8398191e-01 -4.9912654e-02  4.4472251e-02 -8.0246037e-01
 -1.7955055e-03 -1.5477421e+00 -8.5781721e-08  3.5060620e-01
 -2.5035134e-01  2.5098559e-01  7.7222949e-01 -6.5590161e-01
  1.9576231e-02  8.4044737e-01  7.7663314e-01  9.2750573e-01]
[-1.8779168e+00 -6.3244656e-02  5.1254433e-01  3.7248051e-01
 -6.8240094e+00 -2.2558771e-01  6.7352355e-01  3.0131975e-01
  2.7120176e-01  9.9879149e-03 -3.9622676e-02  1.6083064e-02
  5.4779109e-02  5.0509674e-03 -1.6628209e+00  3.2436854e-01
 -5.8357942e-01 -1.4002459e-01 -1.8926357e-01 -3.6573014e-01
 -8.1983638e-01  3.6085367e-02  1.0031856e+00  5.2663083e-03
  2.3961842e-01 -2.3001481e-02 -2.9806509e+00  6.2801725e-01
  1.7144734e-02  6.7041874e-01  1.7727505e-01 -2.4437818e-01
  3.6853421e-01  6.2434387e-01 -1.4866630e-02  1.3476610e+00
 -3.4561496e-02  3.2869231e-02  3.1018123e-01  1.2988143e+00
 -3.3224413e-01 -4.0429771e-02  4.3533197e-01 -1.0241013e+00
  1.1309432e+00 -2.8740403e-01 -6.3318124e+00 -2.2420843e+00
  4.1041882e-03 -6.1753015e-03  2.6556903e-01  1.9210139e-02
  5.9899851e-03 -2.7372676e-01  5.1212713e-02 -5.1087135e-01
 -8.9095637e-02  1.0588530e+00  6.8312085e-01 -1.5956437e-02
  6.6091758e-01 -2.2811379e-01  9.6737202e-03 -9.8870777e-02
 -1.8394591e-01  1.0321192e+00 -7.5790599e-02 -1.1622308e+00
 -5.2021307e-01 -1.6694018e-01 -1.9455738e-01 -1.1526248e+00
 -1.2249703e-01 -2.2062080e+00 -1.6441716e+00  3.7616014e-01
  2.2387321e-01  1.1330862e+00  1.6148673e-01  1.1796709e+00
 -1.5999836e-01  2.3823360e-02 -2.4147315e-01 -3.8261884e-01
  7.0155859e-02 -5.4753069e-02 -5.5671971e-02  8.1110291e-02
 -1.6477915e-02  3.3792141e-01 -1.8392880e-02 -1.5329658e-02
 -8.2533047e-02 -1.6025860e+00  7.6844740e-01  2.0449339e-01
  3.5988074e-02  1.2614076e+00  8.8768035e-01 -1.7388788e-01]
[ 1.6978902e+00 -6.2369205e-02 -8.4152770e-01  5.3536731e-01
  1.1451056e+00 -3.5400820e-01  3.2390386e-01 -7.0568435e-03
  1.0222049e+00 -1.3513762e-01  2.3128890e-02  2.8927399e-02
 -3.8709268e-02 -3.9364208e-02  1.3873018e+00  1.0053416e-01
  4.9332264e-01  8.5616517e-01  1.6253199e-01 -1.3757390e-01
  5.2159202e-01 -1.4558314e+00 -8.8999653e-01 -1.2089164e-03
  2.0321946e+00  3.6613382e-02 -3.7951818e+00  7.8485656e-01
 -7.5349875e-02 -1.6016275e-01 -4.3022942e-02  5.6384325e-02
  1.4093739e-03 -1.0308554e-01 -2.2178382e-02 -9.7176981e-01
  4.0024783e-02 -6.3312113e-02 -1.2672739e-01  1.0372934e+00
 -1.0279101e+00  2.7559474e-01  1.8317751e+00  9.7990507e-01
  1.0088336e+00  3.5247326e-01  2.5175180e+00 -1.4783986e+00
 -2.9199475e-01 -4.6049152e-03 -7.2485614e-01  7.8781415e-03
 -8.9079268e-02  6.1729044e-01 -1.4153612e-01  7.6846045e-01
  1.6431914e-01  2.6970181e+00 -5.1884377e-01  1.8769341e-02
 -5.9178126e-01  8.3901232e-01 -4.7636058e-02  2.8588252e-02
  1.1009568e+00 -1.8211206e+00 -5.4160261e-01  5.1551658e-01
  4.0593469e-03 -2.3507725e-02  2.6393803e-02  8.4619373e-01
 -4.5537073e-02  3.3395250e+00  1.0604987e+00  5.5236232e-02
  1.7250605e+00 -1.6347300e+00  1.3921465e+00 -2.1662189e-01
  3.4500682e-01 -1.3259773e-01  6.0891181e-01  1.5558906e+00
 -8.3663154e-01  6.5023959e-02  9.5717013e-03 -7.2226144e-02
 -9.5972922e-03 -2.1355965e+00 -2.0857146e-02  1.0134977e+00
 -3.1703898e-01  7.8610671e-01 -3.3925837e-01  6.8475246e-02
  3.6880299e-01 -9.7505367e-01  1.6882323e-01  2.2123851e-01]
[ 7.59209454e-01 -6.38348103e-01 -6.42734349e-01 -4.63957667e-01
  3.37358892e-01 -3.34179968e-01 -5.49414217e-01 -4.91489351e-01
 -7.52939343e-01  1.39157936e-01 -1.92801990e-02 -7.03905672e-02
 -1.02902409e-02 -5.28560532e-03  1.50514948e+00  1.06087193e-01
  2.83961624e-01 -6.20303512e-01  5.33597708e-01 -4.52364348e-02
  4.98127371e-01  7.79069841e-01  5.71999848e-01 -1.40126841e-02
  2.83126682e-01 -4.29399647e-02  1.99479356e-01  4.54755686e-02
  1.30089059e-01 -5.74151218e-01 -1.05689295e-01  3.61387938e-01
 -2.25959039e+00 -2.45008969e+00  9.88144204e-02 -2.53516531e+00
  1.93691649e-03  4.99316044e-02  1.12870209e-01 -1.17499697e+00
 -8.53592396e-01 -1.32169574e-01 -2.33531976e+00 -3.61158967e-01
 -1.94860086e-01 -3.06262165e-01 -2.83671570e+00 -1.51538789e-01
 -1.05144346e+00 -8.07097375e-01 -9.00435984e-01 -3.93623300e-02
  1.59742624e-01 -3.79813641e-01  6.98115155e-02  9.81672853e-02
 -3.90475839e-01 -3.68239999e+00 -4.49988872e-01 -1.65749383e+00
 -1.07242234e-01  5.89245021e-01  8.01861286e-02 -3.66011173e-01
 -3.01211864e-01 -1.83443820e+00 -8.04488182e-01  2.56965458e-01
 -7.26264417e-01 -3.99735779e-01 -2.77481258e-01  9.02738690e-01
 -3.84539753e-01 -6.50379956e-02  1.42271769e+00 -3.38140547e-01
 -2.08966181e-01 -4.42821354e-01 -1.75603378e+00 -4.88036498e-02
 -8.91746759e-01 -9.61768925e-01 -5.17315149e-01  3.84192228e-01
 -5.61753273e-01  6.14923937e-03  5.93111366e-02  4.04885978e-01
  3.54126878e-02 -3.51618677e-01  3.46008874e-02 -2.02007484e+00
 -1.04738641e+00  8.21464658e-01 -6.42020285e-01 -2.38040686e-01
 -9.06675220e-01 -9.03957486e-01 -9.43157613e-01 -1.39153349e+00]
[ 8.1572807e-01 -3.1396735e-01 -6.3588613e-01 -7.8928553e-02
  6.6025966e-01 -5.5576283e-03  6.4032666e-02 -5.5982167e-01
  9.7383201e-01 -2.5246995e-02  4.3943219e-02  1.6473297e-02
  1.3012870e-02  3.7013292e-02  3.7712967e-01 -1.7073174e+00
 -1.2503757e-01 -8.1173015e-01 -2.5313821e-01 -2.4215610e-01
  2.8446290e-01  1.6852660e+00 -6.6725546e-01  5.7445876e-02
  4.1978836e-02  7.4271724e-02 -7.9341310e-01 -5.8762825e-01
  2.5847631e-02  1.0871444e+00 -2.9754811e-03 -2.5332168e-01
 -5.6710255e-01  4.5842263e-01  7.5731285e-02  7.0435530e-01
  5.3615458e-02  1.6068171e-03  1.4812386e-01 -1.4187238e+00
 -4.1308898e-01 -9.3146831e-01  1.8578045e-01 -7.5308293e-01
  6.7766881e-01 -2.3440205e-01  2.9675415e-02  1.8370061e-01
 -3.2328182e-01 -1.3292377e-01  1.1977375e-01 -2.8908916e-04
  5.4189537e-02 -1.5570329e-01 -5.2403923e-02  4.1971064e-01
 -2.9632556e-01 -3.1906649e-01 -2.1904543e-01 -8.6907756e-01
 -7.7053404e-01 -3.8495681e-01 -1.0741159e-02 -1.2554500e+00
 -1.7434701e-01  3.7768564e-01 -1.0323166e+00  3.8896194e-01
 -1.4729028e+00 -3.0143684e-01  1.9134559e-01  4.0182582e-01
 -2.1589859e-01  6.7602992e-01  4.3631008e-01 -2.8806646e+00
  7.1232878e-02 -7.3666114e-01  3.7294832e-01  2.2151546e-01
 -2.3256609e+00 -3.3788419e-01 -4.0462363e-01  3.9554137e-01
  3.0032271e-01  5.7796430e-02  4.1552979e-02 -6.7419030e-02
  2.7153624e-02 -2.1972263e+00  3.1716604e-02  9.9703997e-01
 -7.0105100e-01 -8.8234138e-01 -5.8746362e-01 -9.9337339e-01
 -2.3626163e+00 -4.6724316e-02  3.2132652e-01 -4.2774490e-01]
[-1.8903582e+00  5.0871577e-02  3.3453321e-01  3.6193807e-02
 -1.7368607e-01 -4.5463720e-01 -1.4635891e-01  4.8371431e-01
 -2.8796619e-01  2.2167842e-01 -6.7786947e-02 -1.4948470e-02
  7.1918823e-02 -6.2935585e-03  7.2856641e-01  1.7607768e-01
 -1.0976976e+00 -4.4602811e-01  5.3928709e-01 -4.4080493e-01
 -2.7731720e-01 -6.9338164e+00 -4.3753433e-01 -2.9146716e-02
 -2.0606520e+00 -1.5150972e-01 -3.4212778e+00 -9.1769975e-01
  1.5056434e-01  8.8935941e-01 -4.9215108e-01 -8.5090518e-02
 -1.1944350e+00  1.0982755e-01  5.0705519e-02 -7.1947372e-01
 -7.8412719e-02  9.7313821e-02  2.9810110e-02 -5.9567791e-01
  1.1291337e+00  3.7285712e-01  7.9660243e-01 -7.8879941e-01
 -1.0117725e+00 -5.8141387e-01  7.0784694e-01 -1.2725841e+00
 -5.9514981e-02  2.5597724e-04 -7.3965150e-01 -6.7242663e-03
  1.6978209e-01 -1.6280377e+00  1.8872868e-01 -1.3239253e-01
 -1.6413578e+00  1.5120876e+00  4.3611574e-01 -1.5377700e-01
  1.3185219e+00  1.9782695e+00  4.9168196e-02 -2.6432249e-01
  3.6050230e-01 -1.6221124e+00  3.6355567e-01  5.0233161e-01
 -2.7878156e-01 -3.7286136e-02 -1.6045351e-01  3.6238441e-01
 -4.3338630e-02 -1.3151538e+00 -7.0991975e-01  8.2352839e-02
  5.9323698e-02 -3.9945650e-01  7.5324607e-01  8.1053838e-02
 -4.1830610e-02  9.7420387e-02 -1.6348681e-01 -7.6602608e-02
 -6.5723389e-01 -1.5293936e-01 -9.9290656e-03  4.5628449e-01
  4.8738144e-02  1.9593047e-01  9.4671333e-03 -8.0084521e-01
  9.2072695e-02 -1.9189773e+00  1.0643104e+00  2.7458587e-01
  5.7769370e-01  1.0935909e+00  3.8589633e-01 -5.3764874e-01]
[-1.0550176e+00 -2.4072275e+00 -3.0616751e+00 -8.7388057e-01
 -2.4305172e+00 -1.1469829e+00 -1.5416068e+00 -1.8672098e+00
  6.6321194e-01 -3.7405774e-02 -7.5843692e-02  4.7617026e-02
  1.3158232e-01  1.7007899e-02  3.8044071e-01 -1.8007094e+00
  1.7706007e+00 -3.2257420e-01  1.8521789e+00 -1.4472501e+00
  1.8950013e+00 -1.4184273e+00  1.7968377e+00  5.9024740e-02
  1.5819965e-01 -5.3665754e-03  7.6280302e-01 -2.0328262e+00
  1.0589946e-01 -2.1685596e-01 -1.1939825e+00 -3.6828449e-01
  6.1111408e-01  1.2419999e+00  2.0053118e-02  1.3040255e+00
  1.4879137e-02  2.6201356e-02 -1.9173919e-01  1.1705606e+00
  8.8026285e-01 -1.7858341e+00  1.0446032e+00 -3.7439030e-01
  2.2983968e-01 -8.7551735e-02  1.4974555e-01 -2.9328656e-01
 -2.9590130e+00 -1.4380563e+00 -2.5994828e+00 -6.1877303e-02
  1.9111138e-02 -2.1263661e+00 -7.1672350e-02  2.4482356e-02
 -1.6084195e+00  8.3498007e-01  1.4335059e+00  6.2022114e-01
 -2.4864554e+00  2.1584854e+00  2.9730745e-02 -1.9777162e+00
  5.1269412e+00 -2.0835425e-01  2.0037303e+00 -1.8731542e+00
 -1.3760432e-02 -1.6233497e+00  1.6834352e-02 -1.5226777e+00
 -1.1185853e+00 -6.9253695e-01  5.2701813e-01 -1.8836511e+00
 -1.2579041e+00  1.6035730e+00  1.3657682e+00 -9.1607475e-01
 -5.3018934e-01 -2.1391439e+00  1.7205647e+00 -7.3737597e-01
  5.9374061e+00  1.8107308e-04  3.6063086e-02 -4.1945097e-01
  3.7662342e-02 -3.6877744e+00  4.7736235e-02 -4.9384099e-02
 -2.4381909e+00 -1.8514171e+00 -1.6723210e+00 -1.2736875e+00
  2.3581643e+00 -4.4703683e-01 -1.2398556e+00 -8.5317117e-01]
[-5.9471732e-01 -1.9694482e-01 -3.3050284e-01  2.4411032e+00
  1.1753778e-01 -4.4407415e-01 -4.4607726e-01 -4.0060271e-02
 -3.4663165e+00  6.0646482e-02  6.7969359e-02 -2.6317315e-02
 -1.0063637e-01 -2.9694399e-02 -2.0899734e+00  1.2629597e-01
  3.4806034e-01 -4.3605188e-01 -1.6472900e-01 -9.7784376e-01
  1.5867316e+00 -5.0084281e+00 -1.1246533e+00 -4.0676840e-02
  1.9525061e+00  9.3586640e-03 -1.7374767e-01 -9.2736465e-01
 -7.6097719e-02  5.9147769e-01  1.1254395e+00  3.2375070e-01
 -4.9980617e-01  1.0863427e+00  2.2239361e-02 -1.0628121e-01
  9.8104645e-03 -3.5539445e-02  1.6920276e-01  2.1151874e+00
  3.2468453e-01  2.2137067e-01  9.3458109e-02  1.8088135e+00
 -7.7412534e-01  3.1785527e-01 -2.6093557e+00  1.5021297e-01
 -2.8162247e-01 -6.5766817e-01 -2.2289317e+00  6.2874638e-02
  9.8884630e-04 -1.6583287e+00  8.3597347e-02  2.0625465e+00
 -1.2155292e+00 -6.8278092e-01  4.7627920e-01  4.7061631e-01
 -5.0829905e-01  2.8360546e+00 -2.7423255e-02 -1.2224771e+00
  1.8773209e+00  3.7288228e-01  2.4037800e+00 -2.7483263e+00
  3.7124205e-01 -2.8825030e-01  1.6690727e+00 -2.8664119e+00
 -6.9687569e-01  8.3223194e-02 -1.2115967e+00 -3.2965499e-01
 -3.5811782e-01  1.6174297e+00 -3.5564604e-01 -3.2062039e+00
 -1.6095397e-01 -5.9024483e-01  3.2524278e+00  1.4538205e-01
  2.5120714e+00  2.3474915e-02 -2.0500829e-02  6.1931747e-01
  4.3643740e-07 -2.6842880e+00 -2.5565222e-02 -2.0140346e-02
 -5.4434204e-01  1.5217231e-01 -4.6867496e-01  6.1140209e-01
  2.0164597e+00  2.9823458e-01  1.6087554e-02 -3.6201683e-01]
[-3.59822094e-01  2.10108943e-02 -9.94112432e-01  5.96070647e-01
 -2.66182631e-01  1.77633375e-01  2.66921729e-01  4.68995690e-01
 -1.25715330e-01  1.34485126e-01  4.77617159e-02  3.43493745e-02
 -4.79015335e-03  2.28727795e-02  2.75572427e-02 -2.47724700e+00
  5.24244666e-01 -6.62154317e-01 -3.93321007e-01  3.98880839e-01
  1.64387450e-01 -4.21576977e-01 -4.00208616e+00  9.06934813e-02
  5.05365610e-01  3.13550271e-02 -2.10304952e+00  6.48363531e-01
  6.80191517e-02 -1.49826705e+00 -1.38908803e+00  4.93498519e-02
 -7.48433590e-01 -1.43491328e+00  1.74175650e-01 -4.99955297e-01
  1.14428185e-01  1.14615529e-03  3.10714990e-01 -2.58305162e-01
  1.24724194e-01  4.67615187e-01 -2.37804580e+00 -3.44219655e-01
  3.73474628e-01 -6.72340214e-01  1.40849441e-01 -1.45220053e+00
 -8.82030874e-02  9.82676074e-02 -1.35478079e-01  1.11215310e-02
  6.89489841e-02  5.29078603e-01  9.58342776e-02 -9.55516919e-02
  3.95701855e-01 -1.63114965e+00  5.67816138e-01 -4.99141932e-01
  6.54378474e-01  6.27436817e-01  3.37665416e-02  4.14291173e-01
 -5.88764429e-01 -1.66266775e+00 -5.52064657e-01  2.65956014e-01
  3.87825102e-01  3.61176789e-01  6.24731854e-02  9.10369992e-01
  4.03591305e-01 -5.84779024e-01 -1.04005739e-01 -2.11052465e+00
  6.20962679e-01 -1.17579508e+00 -2.44681597e+00 -1.69916600e-01
  3.32125008e-01 -6.19329326e-02  5.63469410e-01 -6.43694878e-01
  1.29114194e-02  7.50938356e-02  3.53275910e-02 -1.08345735e+00
  9.25720483e-02 -2.72585201e+00  7.88788423e-02  3.00847560e-01
  6.59684598e-01  8.12319160e-01  5.03688514e-01 -8.50105047e-01
 -4.07447219e-01  5.87331772e-01 -4.36108969e-02 -8.38133872e-01]
[ 2.5047076   0.06295136  0.6453151  -0.29614884  0.8602978  -0.52492595
 -0.18380721 -0.0454633   3.4777255   0.4491595   0.16123484 -0.01992402
 -0.07785839 -0.02377944  2.0516796   0.10596609  0.72903955 -0.17775825
  0.68339086 -1.0614798   0.8408078   4.19016     1.3303748  -0.05178262
 -0.0325152  -0.02207112  0.43564168 -0.5058144  -0.04557001 -0.2562807
 -1.1239282   0.70183897 -0.36301184  0.7911701   0.07229771 -0.68954694
 -0.03258613  0.07121841 -0.43278247 -0.71073985 -2.0470014  -0.26134467
  1.4030209  -0.24908979  1.403259   -1.821182    1.3943934   0.91115576
 -0.72158384 -0.96576154 -1.2655262   0.13746998  0.09657285 -0.2829094
  0.35467437  1.6474929  -0.41639817  0.15445502  1.1034818  -0.70052195
 -0.3867065   1.0104617   0.01935654  0.5373228   0.3647894   0.77274525
 -0.29856202  0.6882422  -0.29425123 -0.43663585  0.27864528  1.1682262
 -1.0418931   1.0596449   1.3196551  -0.01507678 -0.5174969  -1.2674081
  1.859054    0.38788518  0.8585671  -0.18146777  2.951737   -1.2990257
  0.74338853  0.05069587  0.04305428  1.6566001   0.10050619  0.96593267
  0.02794718  1.283232    2.715882    0.4075434  -0.5552457   0.31207722
  1.6138756   0.20965154  0.7262939   0.8180848 ]
[-2.45748329e+00  9.32745337e-02 -2.78515786e-01  2.83898878e+00
  4.62259829e-01 -1.07247010e-01 -1.28460869e-01 -5.84668279e-01
 -1.62082160e+00  1.14248775e-01  7.10875541e-02 -1.19045684e-02
  1.95751619e-03  4.00085375e-02 -7.76795983e-01 -2.30556995e-01
  1.88599750e-01  5.08030891e-01  4.18577939e-01  1.29290745e-01
 -2.12755397e-01 -1.03233111e+00  2.17012954e+00  5.22419289e-02
  5.91887474e-01 -2.09167115e-02  2.95059443e-01 -2.53064334e-01
  1.49465455e-02  3.52796942e-01 -2.54866958e-01 -1.28916791e-02
  5.19857071e-02  2.74101675e-01 -5.37407212e-02  2.11968839e-01
 -6.58930838e-02  2.00675577e-02 -3.52332324e-01  9.03365910e-01
  9.41678822e-01 -3.75227034e-01  7.91982949e-01 -5.94571270e-02
  6.69725418e-01 -1.85888708e-01 -1.31682026e+00  1.32587337e+00
 -1.71576023e-01 -2.44389195e-02  1.35733888e-01  3.03571634e-02
 -1.30017297e-02 -2.03035370e-01  9.34033394e-02  4.61962104e-01
 -1.04499226e-02  3.54685992e-01 -1.28920460e+00 -2.03274846e-01
 -4.03223604e-01  7.17236400e-02 -9.26423669e-02  1.34227544e-01
 -2.56139129e-01  3.12163860e-01 -1.26909345e-01 -1.27999270e+00
 -6.98237717e-02 -9.65864137e-02 -5.54396868e-01 -6.34700656e-01
 -4.36284840e-02 -5.26103258e-01 -5.42432964e-01 -1.89189807e-01
  1.30821407e-01  1.05453038e+00  9.18875694e-01  1.92606616e+00
 -3.00203294e-01  2.22813800e-01 -1.64801568e-01  3.66623849e-01
  3.53533477e-01 -1.49282478e-02 -2.31017359e-02 -2.07208797e-01
 -1.65228471e-02 -1.00184464e+00  3.02040763e-02 -8.64284635e-01
  7.18269467e-01 -6.36529744e-01 -2.82654583e-01  8.31246436e-01
 -5.67827165e-01  4.43921745e-01  2.72046607e-02 -9.58363593e-01]
[ 2.64321041e+00 -6.23001814e-01 -2.40904784e+00  2.85003632e-01
  1.67836857e+00  1.85232377e+00  1.68485796e+00 -8.07477653e-01
  5.33844590e-01  1.65705696e-01 -7.22850710e-02  1.13835316e-02
  1.28673436e-02 -4.47452888e-02 -1.10240853e+00  6.15762949e-01
 -8.56239736e-01 -1.91735888e+00  8.09347257e-02  5.62020838e-01
  8.46219599e-01 -5.08758873e-02  1.60718203e+00 -1.02422968e-01
 -2.34190226e-01  1.18715875e-02  1.19790030e+00  1.78190625e+00
  7.50351138e-03 -1.41203547e+00  4.53135222e-01  3.29364613e-02
 -5.56174032e-02 -1.41544893e-01 -5.74514940e-02 -9.31304395e-01
 -7.71664754e-02  4.82939743e-02  1.02665424e+00 -3.08477378e+00
 -1.27494991e+00 -5.35317242e-01 -2.67543256e-01 -2.83338571e+00
  8.60543072e-01 -1.05280519e+00  1.89494357e-01 -3.89925212e-01
 -1.28800642e+00 -7.87804902e-01 -1.54124463e+00 -2.35311352e-02
  1.62749365e-02  1.60645986e+00  2.23135874e-01 -2.23084903e+00
  1.65672517e+00  8.79267696e-03 -1.08417916e+00  3.04351866e-01
 -1.27707899e-01 -4.52796787e-01  9.14223492e-03 -1.87560642e+00
  9.20429766e-01 -1.00988412e+00 -1.07429338e+00  8.88432026e-01
 -4.48884130e-01 -7.68669009e-01 -1.42058456e+00  1.35581648e+00
 -3.17514688e-01  6.00328267e-01 -3.71278256e-01  6.99429065e-02
  7.14112341e-01 -8.63018036e-02  4.47802693e-01 -3.18101072e+00
  6.57542109e-01 -1.16720736e+00 -1.66603065e+00 -5.85801005e-01
 -5.13503253e-01 -9.74449143e-02  5.24540804e-02 -1.44978261e+00
 -2.21210741e-03 -6.24409676e-01  3.22205052e-02 -9.47210848e-01
 -6.25147700e-01 -8.29378188e-01 -1.27295160e+00 -1.81566584e+00
  2.98276114e+00 -1.32900202e+00 -5.21432698e-01  9.45301712e-01]
[ 1.5657344e-01 -5.0990726e-03  1.3126990e-01  3.2955506e-01
 -3.1153876e-01  6.3309306e-01 -7.7073373e-02  3.0460384e-02
 -6.5530330e-02 -2.5994673e-02  1.0631540e-02 -4.6223919e-03
 -2.0324618e-02  1.3692306e-02 -1.4658378e-01  3.7933104e-02
  1.5496618e+00  1.2885468e-01 -7.9782975e-01 -4.7405988e-02
 -1.9436513e-01  1.8587557e+00  5.3688556e-02 -2.3247795e-02
 -3.6709565e-01 -3.2183547e-02 -4.2586261e-01 -1.6307095e-01
 -2.3415962e-02  1.6844985e-01 -1.8539815e+00 -2.3421899e-03
 -7.8659832e-01 -1.4377928e-01 -2.4305662e-02  1.8901941e-01
  4.0496374e-03  6.7392727e-03  1.8156284e+00  3.0837175e-01
 -4.5540157e-01  4.3394766e-03  2.0193623e-01 -2.5340542e-01
 -3.3698359e-01 -2.1517272e+00 -1.6734213e-01 -3.6738917e-01
  3.5791360e-03 -2.7771122e-03 -5.0310399e-02  1.0185560e-02
 -2.5979996e-02 -2.6180565e-01 -2.5353346e-02 -3.1814802e-02
  1.8955630e-01  1.6734691e+00 -1.3797615e+00 -2.5976170e-02
  1.3808709e-01  2.7583472e-02 -1.9849123e-02  2.2463967e-01
 -1.4314434e-01  1.3258924e+00  1.9600576e-01  4.3529373e-01
  6.9800876e-02 -1.2213933e-02  7.1728542e-03 -4.9130923e-01
 -7.1359668e-03 -1.2596419e+00 -2.0251238e-01 -3.2134657e-03
  1.3883340e-01  1.7277032e-01  9.5329225e-01  1.1464402e-01
 -2.8502420e-02 -3.6495542e-03 -6.7236170e-02 -4.4208873e-02
  1.0140319e-01 -2.6700897e-03  7.9010837e-03 -1.5571406e-03
 -9.4941529e-03 -4.0002376e-02  3.7333730e-03  3.2057628e-02
 -1.5181716e-02 -6.0434449e-01  3.6066331e-02  8.2743950e-02
 -1.2759098e-01  3.1408620e-01 -1.2480320e+00  3.9213072e-03]
[-1.18135977e+00  3.19437943e-02  4.81416844e-02  9.50561404e-01
 -7.57746622e-02  2.09883261e+00  5.73114991e-01  4.76476490e-01
 -7.04964101e-01  3.20256054e-02  5.06950654e-02  1.43669546e-01
 -9.85400658e-03 -5.91408722e-02  3.67338181e-01  1.01581919e+00
 -9.08875048e-01  3.06503832e-01  1.80801481e-01 -2.22451016e-01
 -6.58957899e-01  1.84111357e+00 -3.26650405e+00  2.09160279e-02
  5.43614447e-01  4.18193415e-02 -3.68401557e-01  1.24246347e+00
 -7.24724755e-02 -5.74855208e-01 -8.99101257e-01  1.36895433e-01
  1.68018949e+00  4.18426275e-01  1.12236984e-01  3.02588224e+00
  1.25186086e-01 -7.20871091e-02  1.37401497e+00  1.65750885e+00
 -1.59012151e+00  1.12529516e-01 -5.47157526e-01  1.96351612e+00
  1.85225832e+00 -1.80738652e+00  4.62490529e-01 -1.29285479e+00
  7.64798597e-02  2.28794497e-02  8.98221359e-02 -6.10762686e-02
  6.20628882e-04 -1.19044662e-01 -2.15306263e-02  5.58472872e-01
 -1.30166459e+00 -5.71497023e-01  1.87316298e+00  8.77247095e-01
 -8.43020201e-01  1.55858517e+00  5.16764969e-02  6.78501248e-01
  2.30253994e-01  8.87369573e-01  2.40471855e-01 -2.50560665e+00
  1.48655474e+00 -1.45850897e-01 -1.05868363e+00 -1.37547091e-01
 -9.18777660e-02 -1.32111800e+00  1.18809414e+00  4.59585696e-01
 -9.97309387e-01 -3.30648810e-01 -1.01572967e+00  1.98113903e-01
 -3.23013924e-02  7.80585334e-02 -3.36275488e-01 -8.03018630e-01
 -2.24099922e+00  9.68663618e-02  1.81386399e-03 -4.25324179e-02
  1.51298746e-01  1.76885560e-01  7.28234351e-02  2.04224527e-01
 -2.21034680e-02  1.46549940e+00  3.03392172e-01  1.75513446e+00
 -3.03804159e-01 -8.94025207e-01  2.41810739e-01 -1.93169042e-01]
[-0.03975283 -0.34896237 -2.0416281   0.09810443 -0.19342199 -0.49470368
 -0.20822407  0.03101345 -0.24833113 -0.07431361 -0.02977737  0.0271507
  0.01705627 -0.01628361  0.2858717  -2.8081164   0.11771902 -1.1761556
  0.33170623  0.1467903   0.11424761 -0.25781482  1.5222471  -0.11020536
  0.03692485 -0.03845384  0.7472423   0.2766521  -0.06717437 -0.07508732
 -0.7544364  -0.04215743  0.73589915 -1.5008738  -0.18110926  0.25340703
 -0.14607087  0.01698886  0.10869676 -0.02196122  0.31622487  0.26179436
 -1.5967797   0.07556639 -0.42998824 -0.74738574 -0.07058886 -0.5253386
  0.12481149  0.1098136  -0.23783416 -0.01098251 -0.10055384 -0.13074836
 -0.03408986  1.3020203  -0.11169104  0.9446229  -0.46065816 -0.53119975
  0.3488095   0.53029263 -0.05311987 -2.380302    0.482065   -2.9534066
  1.1268411   0.27380335 -0.9238237  -0.18922085  0.29935884  0.07482719
  0.01846509 -0.3588215   0.19638193 -5.953868    0.3455236   0.25141656
 -0.8684359  -0.5432937  -0.9879512  -0.3665865   0.5204621  -0.40560263
 -0.22497319 -0.06896063 -0.03883179  0.8285379  -0.05307916 -0.71604896
 -0.02754677  0.03159042  0.20619877  0.0509074   0.4183105   0.22217335
 -0.15608262 -0.18714228 -0.8738396  -2.7792614 ]
[ 5.01538157e-01 -3.52881610e-01 -1.57689691e-01  7.28665471e-01
 -9.94657218e-01  3.18369597e-01  6.91248834e-01  3.35473746e-01
 -2.06305170e+00 -1.45423517e-01  6.97637871e-02  5.94928376e-02
  4.21847068e-02  2.45518726e-03 -2.60326296e-01  3.48802894e-01
  8.30296397e-01 -3.54826379e+00  1.17493284e+00 -1.44340837e+00
  6.01540059e-02  2.73703247e-01  2.73220092e-01  2.87508089e-02
  1.30818868e+00  3.87876183e-02  2.53407329e-01  3.73420149e-01
 -3.98700871e-02  1.00435221e+00 -1.55164218e+00 -9.56602544e-02
 -2.91689301e+00 -1.45519018e+00  1.23692155e-02 -2.59521544e-01
  4.25007567e-02 -4.39205319e-02  9.25238431e-01  2.46296927e-01
  1.25733352e+00  4.55275893e-01 -1.62858415e+00  5.16899109e-01
 -1.26119637e+00  7.28867710e-01 -3.73329431e-01 -1.39824009e+00
 -1.42304969e+00 -4.69074070e-01 -1.03893661e+00  3.38120386e-02
 -4.93912809e-02  1.09496295e+00 -1.91217348e-01  4.89508629e-01
  2.40832806e-01 -2.44466376e+00 -1.84872234e+00 -1.30308390e+00
  2.65756190e-01  7.27685630e-01 -2.12365054e-02 -1.86157596e+00
 -3.89000130e+00 -1.48316300e+00 -1.47265482e+00  1.03526726e-01
 -3.51449370e+00  2.49333316e-05  2.64422226e+00 -1.40161157e+00
 -5.83973050e-01  2.12304544e+00  7.10438043e-02  6.27665997e-01
  7.64620721e-01  1.68417501e+00 -1.12649190e+00 -2.80921674e+00
 -1.95751831e-01 -4.30561543e-01 -6.89042449e-01 -6.63963854e-01
  1.46375573e+00  6.21259697e-02 -3.97953130e-02  5.51358238e-02
  2.53829528e-02 -6.37263954e-01 -2.75551639e-02 -7.86825180e-01
 -3.28434110e-01 -6.65262222e-01  2.90272772e-01 -2.62940526e+00
 -3.40284288e-01 -3.44995141e-01 -1.02551305e+00 -2.74077863e-01]
[ 4.7256431e-01  6.0477924e-01  9.5416629e-01  6.6793573e-01
  1.0825506e-01  6.2001395e-01  1.0421040e+00  1.4316808e-01
  3.7698051e-01  3.5059925e-02  9.6905902e-03 -1.4248864e-03
 -1.8418239e-02  1.1152764e-03  2.1767387e-01  5.6593962e-02
  5.7956165e-01  9.0731966e-01  3.4527409e-01  6.1471754e-01
 -9.3595976e-01  6.7245406e-01 -2.1066909e+00 -7.0028109e-03
  1.5110794e-01 -8.9850901e-03 -6.6607392e-01  7.2509712e-01
 -1.5639031e-02  7.6847725e-02  7.6082833e-02  5.0483026e-02
  1.9565187e+00 -2.6110056e-01 -1.3557073e-02 -9.5393741e-01
 -2.1013470e-02  1.3158986e-03  8.7225229e-02 -5.6498408e-01
 -1.5547039e-01  3.3773050e-01 -6.5553844e-01 -1.9055009e-01
  2.0084947e-01 -3.3194941e-02  1.5108338e-01 -1.0581572e+00
  9.1376162e-01  6.8274665e-01  4.4139415e-02  1.1072525e-02
 -5.2440637e-03  1.0525457e+00  2.4042912e-02  1.1594333e-01
  5.8139119e-02  1.6236480e+00 -3.6374435e-01  2.2576153e+00
  3.9016199e-01 -4.6077225e-01 -6.7438576e-03  1.1472826e+00
  3.4140664e-01 -3.5642469e-01 -3.3756062e-01  9.9041265e-01
  1.3767989e+00  5.1140147e-01  6.1181540e+00  1.1574231e+00
  5.3916991e-01  1.8368165e-01  1.7898463e-01  2.5523314e-02
  8.1672734e-01 -1.4794370e+00 -9.3280870e-01  4.5898858e-02
  4.1122350e-01  7.6956296e-01  1.7034932e+00 -2.5636637e-01
  1.5749282e-01 -1.0049724e-02  9.9591762e-03  9.7160339e-02
  8.8153295e-03 -4.4716846e-02 -9.8893873e-04  1.8186637e+00
  8.8363707e-01  1.8761766e+00  3.0829889e-01 -1.3807970e+00
 -2.8244132e-01  3.0419767e-01  2.9121184e-01  4.3055823e-01]
[-5.59160113e-02  1.08561188e-01  9.82591152e-01 -5.31735241e-01
  3.79358268e+00 -1.05953336e+00 -1.88045311e+00  6.62143648e-01
  3.77031040e+00 -4.27346565e-02 -1.86058283e-02 -9.92731843e-03
  2.67644431e-02  6.52389787e-03  2.86368871e+00  1.61768943e-01
  4.23758888e+00  2.40725785e-01  3.51223469e+00 -1.05897762e-01
  1.83034551e+00  7.38086510e+00 -2.45235062e+00  2.66233310e-02
 -1.58177531e+00  4.21274034e-03 -1.41659248e+00 -1.74217856e+00
  1.86894108e-02 -8.91773283e-01 -2.14703894e+00 -1.20455742e-01
  1.18052149e+00  1.34388578e+00 -5.56136365e-05 -1.13342464e-01
 -2.01912653e-02  9.48340259e-03 -9.91395295e-01 -1.57495904e+00
  8.96971107e-01  6.79837763e-01  1.34428000e+00  1.68724823e+00
 -3.81674528e-01  7.09055662e-01  3.10183334e+00  3.28561813e-01
 -9.85122100e-03  2.61789262e-01 -4.79156911e-01 -1.02852117e-02
  1.20482007e-02 -1.00740242e+00 -3.55874859e-02 -3.24422777e-01
 -7.73954868e-01  6.69220030e-01 -4.51021314e-01  6.73658013e-01
 -8.06119621e-01  1.86476755e+00  3.08558512e-02 -2.34824881e-01
  3.44209582e-01  9.33544695e-01 -3.76864560e-02 -1.78907812e+00
 -5.37998021e-01  1.78345233e-01  7.76915345e-03  2.11554074e+00
  1.29892245e-01 -2.27177024e+00  3.50170207e+00  4.10651445e-01
 -5.52523673e-01 -8.95803571e-01  1.49127352e+00  1.07995164e+00
  3.27085525e-01  1.34455964e-01 -6.64288640e-01  1.43841338e+00
  8.06425959e-02  9.81716905e-03 -2.39204243e-02  4.76554871e-01
 -7.88196514e-04  1.31466699e+00  1.94762107e-02  5.95576763e-01
  1.17957897e-01  2.09704709e+00  7.11630821e-01  8.89992118e-01
 -1.92365170e-01 -4.56966370e-01  1.46973014e+00  6.39272094e-01]
[-2.70974278e+00  1.30635276e-01 -3.21486220e-02 -3.22016835e+00
  4.64411646e-01  4.94853824e-01 -1.14403498e+00  1.04029924e-01
 -3.35464215e+00 -4.29044291e-02  6.97533339e-02  6.22406565e-02
 -8.94406289e-02 -8.69533885e-03  2.16221631e-01 -5.79421997e-01
 -1.44694471e+00  1.99937731e-01  1.57704845e-01  4.19498891e-01
 -1.23913097e+00 -4.13330078e+00 -7.17775345e-01  1.84809845e-02
 -1.72987652e+00  1.11772515e-01 -7.71009684e-01 -1.73148942e+00
 -1.25199884e-01 -5.54774344e-01  9.52669084e-01  2.37238646e-01
 -7.81291425e-01 -1.67469275e+00  8.13979730e-02 -5.53207815e-01
  1.53463244e-01 -7.86329806e-02  8.41611743e-01 -7.45246232e-01
  2.77925897e+00 -1.86276779e-01 -2.20979992e-02 -3.66884023e-01
 -3.35551190e+00 -5.34266531e-01 -3.85495281e+00 -4.94306505e-01
 -7.73887038e-02  3.41896608e-04 -1.92400917e-01  2.03663707e-02
 -8.33631232e-02 -1.73990405e+00 -7.83314109e-02  3.63389403e-01
 -6.52786732e-01 -9.70962822e-01 -1.59171760e+00  6.08014107e-01
  2.03100994e-01  2.79125571e-01  9.61386785e-03  6.84478760e-01
 -2.70576179e-01 -2.21442103e+00  6.95953444e-02 -1.55723166e+00
  1.06241381e+00  2.91428566e-01 -1.31669581e-01 -1.52550197e+00
  2.62654305e-01 -2.76491857e+00 -1.30953288e+00 -4.59668338e-01
 -8.70604038e-01  1.63776624e+00 -6.02408983e-02 -2.32870483e+00
 -3.40595454e-01 -2.33248435e-02  5.48577070e-01 -3.07128310e+00
 -5.75490594e-01  1.34828135e-01  1.75376143e-02 -1.17510414e+00
  2.84824762e-02  5.58317117e-02 -8.80696345e-03 -4.12184782e-02
  2.10555106e-01 -2.61248589e-01  2.91923452e-02  1.90837398e-01
  1.02072626e-01 -5.35348952e-01 -8.80380630e-01 -4.77931499e-02]
[-0.6640055   0.00451503 -0.9278508  -0.05894981 -1.2710483   0.40261066
 -0.47460088  0.24303444 -0.4271641   0.14335354 -0.05825412 -0.04300074
  0.04360411 -0.04288522 -0.2353913  -0.0570842  -0.27805558  0.47186485
  0.27754775  0.42200607  1.0596354  -0.90648717  1.2135168  -0.06637336
 -0.076393   -0.05052752  3.1329038  -0.91897017  0.0659301   0.7669502
  1.374755    0.16052024 -0.6785626  -0.4981092   0.00570632  2.1583076
 -0.04752962  0.0326649   0.05731694  0.83488744  0.09036455 -0.18762505
  0.294344    0.30208433  0.15452866  0.08113686 -0.26711577  1.7933893
 -0.34136045 -0.09438364  0.06163606 -0.01760471  0.08332863 -0.61410236
  0.16123109 -0.0839836  -0.8775078   1.1696191  -0.30287158  0.17688431
  0.543492    1.4547989   0.03389376 -1.0898361   0.09387065 -1.2695283
 -0.9094032   0.4227794  -0.32232466  0.06066952 -0.5852244  -0.655995
  0.22285965  0.22767313  0.3118536   0.38228604 -0.06297368  0.60490525
  0.04083481 -1.7326545  -0.04069837  0.02083451  1.1360419   0.9537028
 -0.18764392 -0.04855343 -0.02767306 -1.1391956   0.00938661 -0.42370355
 -0.04908691 -0.49086788 -0.14955397 -0.6935982   0.33644006 -0.49662814
  1.4003876  -0.5367518  -0.48489645 -0.03314786]
[-7.58763671e-01 -3.87382913e+00  4.70873499e+00 -1.52344000e+00
 -6.93028212e-01 -2.88624072e+00 -2.96607924e+00 -2.98801708e+00
  9.40089673e-02  2.21027449e-01 -6.75607547e-02  2.83687394e-02
  1.52217314e-01  1.47645213e-02  3.42453318e-03  1.74819326e+00
 -9.86130610e-02  1.20285547e+00 -6.26428783e-01 -3.53071022e+00
 -6.71236575e-01 -6.99350834e-01  5.39930630e+00  6.29289672e-02
 -7.55176604e-01 -5.05844913e-02  1.85929930e+00 -3.56384444e+00
  1.59920976e-01  3.39725184e+00  6.43977928e+00  5.42420328e-01
  5.76889372e+00  3.30963969e+00  1.09825425e-01 -4.49102849e-01
 -3.12098041e-02  7.56710842e-02 -4.19275618e+00  1.23586416e+00
 -7.75828302e-01 -3.30061078e+00  2.60906649e+00 -6.47993267e-01
 -9.22254860e-01 -6.46087885e-01 -2.43314672e+00  1.32931435e+00
 -4.05798292e+00 -3.93344259e+00 -2.47140360e+00 -2.52591930e-02
  1.05690055e-01 -3.82767129e+00  2.17208967e-01 -3.90935093e-01
 -4.36642694e+00  4.99764633e+00 -3.86512280e-02  7.46208477e+00
 -2.80338717e+00 -5.51137686e-01  1.72761269e-02  4.54495239e+00
 -7.62174428e-01  3.25086570e+00 -6.86134249e-02 -2.90676385e-01
  4.95019960e+00 -3.76984501e+00 -1.23161852e+00 -1.75974667e+00
 -3.48131871e+00 -1.91734701e-01 -2.80488968e-01  2.58549809e+00
 -4.83446884e+00  3.48925447e+00  1.93158352e+00  1.72088099e+00
 -7.64906454e+00 -4.66843176e+00  4.03161436e-01 -1.13555580e-01
 -5.29966354e-01 -7.68316537e-02 -1.52910529e-02  6.50860220e-02
  5.53334393e-02  1.97414196e+00  2.49025617e-02 -6.18112850e+00
 -6.04219866e+00 -6.46321595e-01 -3.24291968e+00 -5.86126864e-01
 -5.90611029e+00 -1.32894409e+00 -1.25832403e+00 -7.01169968e+00]
[-2.1487746e+00 -4.2202629e-02 -7.9022968e-01  1.0342065e+00
 -2.4417930e+00  4.0909475e-01  4.9042737e-01  5.6988800e-01
 -3.4334068e+00 -5.7751936e-01 -3.3252786e-03 -1.1938207e-01
  2.4038037e-02  2.7782632e-02 -2.1665435e+00 -4.2029354e-01
 -1.0593990e+00 -1.1721388e+00 -6.4732987e-01  1.6086979e+00
 -8.5884845e-01 -4.6276875e+00 -4.1283665e+00  4.8781377e-03
  9.0219146e-01 -2.5146585e-03 -1.3762769e+00  5.9501344e-01
 -2.6272570e-03 -9.9184579e-01 -1.1219599e+00 -6.1923838e-01
 -1.3056357e+00 -1.9510219e+00 -8.2166411e-02  1.7958377e-02
  3.4399319e-02  3.6761399e-02  9.9838823e-01  3.2149658e-01
  2.4367363e+00  5.9167218e-01 -2.2480278e+00  8.8613069e-01
 -8.4805143e-01  2.3022711e+00 -1.6601390e+00 -1.1568037e+00
 -1.4015737e+00  5.3237265e-01  1.1017267e+00 -6.0340874e-02
 -1.1688194e-02  8.6733752e-01 -5.8748305e-01  3.7025645e-02
  3.2223400e-01 -1.4575111e+00 -1.4996927e+00 -1.0045396e+00
  1.3958901e+00 -9.6582055e-01  6.6471770e-02 -6.5695566e-01
 -2.7049279e+00 -1.3891081e+00 -3.4466788e-01 -2.9498887e-01
 -1.6388160e-01  9.7447610e-01  1.9077291e-01 -7.5411087e-01
  1.5133662e+00 -1.4732170e+00 -1.9194950e+00 -3.9611372e-01
  8.0531782e-01 -2.2501106e+00 -1.9606290e+00 -1.0036637e+00
 -3.9953324e-01 -1.2854115e+00  1.9881606e-01 -1.8302726e+00
 -2.1517663e+00  6.3422672e-02  2.4302201e-03 -2.1770289e+00
 -1.4983897e-01 -1.4733688e+00 -5.7165895e-02 -1.6840781e+00
 -2.3873403e+00  2.8406209e-01  1.3397230e+00  3.5508294e-02
  4.2024598e-01  4.7715324e-01 -8.8564408e-01 -1.7534006e-01]
layer 7 Activation
elu
layer 8 Dropout
layer 9 Dense
100 1
[0.30210638]
[-2.77529]
[0.8180794]
[-0.14620966]
[0.13673727]
[-0.1538419]
[-0.21512358]
[-0.8032837]
[-1.6622087]
[0.00054143]
[5.857036e-05]
[-0.00091929]
[-0.00028783]
[-0.0003788]
[0.387871]
[0.28803912]
[0.1698213]
[2.3654382]
[0.2205287]
[-0.83676726]
[0.17302789]
[-0.17227635]
[1.4192879]
[0.00017674]
[-0.25270656]
[0.00044936]
[2.9360256]
[-0.31042042]
[-8.484656e-05]
[1.8060447]
[0.331575]
[0.00300508]
[2.5402906]
[3.7393098]
[8.378291e-05]
[-1.5796962]
[0.00097537]
[-0.00017095]
[-0.3062956]
[0.4197585]
[-0.3702662]
[-0.97989655]
[4.0504937]
[-1.2305857]
[-0.2914536]
[-0.26767004]
[-0.8211148]
[3.5153217]
[-3.112545]
[-2.0040867]
[-0.2943249]
[0.0004671]
[-0.00016843]
[-0.3179287]
[0.00066144]
[-1.8550544]
[-0.37076157]
[2.9740982]
[0.2646526]
[2.0937862]
[-0.5113277]
[0.15361366]
[6.568934e-05]
[1.1475611]
[2.6166723]
[2.6768255]
[-4.830174]
[0.2119866]
[1.1087074]
[-1.9542986]
[-0.3401093]
[0.29198107]
[-1.5085803]
[0.13965558]
[0.8030228]
[0.41118264]
[-0.5613191]
[0.8487236]
[3.852128]
[0.09546542]
[-1.1981528]
[-2.4209764]
[-3.056167]
[1.2211801]
[0.43521988]
[0.00031474]
[0.00012686]
[0.24285583]
[-8.114432e-06]
[2.1124556]
[-0.00032464]
[-2.9805171]
[-1.6259398]
[0.16831605]
[-0.7626358]
[-2.2633126]
[-2.5343957]
[-0.50878054]
[-1.0616719]
[-0.48926502]
[-0.96152544]
