layers 10
layer 0 Dense
7 7
[ 3.2845401e-04 -1.3534003e-04  1.3457732e-02 -4.9912594e-03
 -2.1296313e+00  1.2790877e-03  1.1255936e-02]
[-0.00265463  0.03578073 -0.07172081  0.02370932  0.46033075  0.00357385
  1.6233478 ]
[ 8.5023194e-06  8.2913910e-05 -5.1324298e-03  7.7281701e-03
  1.5886671e-04  3.4704249e-04  2.6620864e-03]
[ 0.82861614  2.307647    4.14762    -0.05088475  0.01178098  3.8037322
  0.06131896]
[-6.0495615   5.6106305   4.1910105   0.19850875  0.01921672  4.6055436
 -0.7158767 ]
[ 1.1949982e-04 -2.6050615e-01  1.1329792e+01 -7.4131656e-03
  5.3932317e-02  3.4832857e-03  2.0524586e-02]
[ 1.0272624e-03 -9.3149320e-05  3.4267016e-02  1.8712804e+00
 -4.3482748e-03  1.3367910e-04 -1.3425761e-02]
[ 5.0590925  -4.799116   -3.7769597  -1.8562753   0.43519682 -4.6737394
 -0.13632573]
layer 1 Activation
elu
layer 2 Dropout
layer 3 Dense
7 26
[ -1.8231225  -10.994543    -0.50099653  -7.2715282   -0.07904226
  -1.4272952   -0.733178    -3.2198038   -0.25992337 -10.618835
  -1.8075141    0.14238186   0.9005924    0.6509976  -12.53758
   2.5352507   -4.5399413   -0.19582339  -3.0662374   -0.24561223
  -7.771417    -6.3835645  -10.723994     0.08279017   0.9292143
  -2.1245425 ]
[-4.550741    1.7762299  -0.09536024  6.930634    0.832254   -2.8603866
 -0.11460093  0.413341   -0.62664187  2.3134916   1.2260157  -0.01101256
  7.854629    0.23354249  1.6506265  -0.2327126   4.226224    1.241337
  2.2803056  -1.4529471   4.80805    -3.898274    3.8544528   0.0725927
 -0.0691798   0.12073029]
[-1.2791470e-01  3.7527569e-02 -8.8771660e-04 -8.9880304e+00
 -6.7126332e-03 -2.4427922e-02 -2.9313192e-03  1.0554885e-02
 -7.0516421e-03 -8.3471384e+00  2.6833773e-02 -1.9465024e-02
 -1.5887123e-02  2.4204964e-03  3.8077824e-02 -4.2992169e-03
  9.6822448e-02 -8.6063594e-01  5.3320747e-02 -3.3463818e-01
  1.1094197e-01 -9.3043134e-02  8.8726684e-02  2.6442540e-06
 -7.4150501e-04  3.0709114e-03]
[ 1.08145215e-01  1.76744200e-02  4.17070510e-03  5.62912337e-02
  7.63650775e-01 -7.16158235e-03  2.08883244e-03 -5.65635925e-03
 -2.91200392e-02 -5.78065014e+00 -2.12227907e-02 -9.71527596e-04
 -1.89703852e-01  4.49063368e-02 -2.05863267e-03 -1.37181766e-02
 -1.22912237e-02  1.90527707e-01 -2.14412669e-03  1.31180972e-01
  2.75947270e-03  5.13792178e-03  8.37616529e-03  1.65121257e+00
  2.29834858e-02 -1.20609696e-03]
[-6.6323996e-02 -4.7244882e-04  2.8970318e-03 -6.9463320e-02
  2.6575718e-02  1.1862113e-02  5.0398968e-02  5.6056870e-04
  2.3441274e-02 -2.5981411e-01 -6.1949790e-03  4.3207517e+00
 -8.5616148e-01  5.2500824e-03  7.7897571e-03 -2.6784914e-03
 -5.5194541e-04 -1.7409839e-02 -7.6380046e-04 -1.3784216e-03
 -9.9254004e-04 -8.2025146e-03 -1.7865907e-03 -2.2640908e-03
 -8.7715722e-05 -6.4927305e-04]
[ 3.5311806e+00  3.0443804e+00 -2.1950696e+00  3.5364025e+00
 -5.3534579e-01  1.8399004e+00  9.4428338e-02  1.1271453e+00
  4.5957693e-01  9.6681356e+00 -2.3435533e+00  8.9816777e-03
 -2.3127928e+01  3.7751725e+00  2.2187912e+00 -1.7951441e+00
  5.6650543e-01  8.7511940e-03  1.3368243e-01  1.2200733e+00
  9.7827405e-01  4.3366613e+00  2.2567403e+00 -1.4664483e-02
  2.2451696e+00 -4.1882510e+00]
[-2.8362529e+00 -8.8992931e-02 -1.9652043e-02 -5.6329119e-01
  3.4469705e+00  4.1060712e-02  3.1983221e+00 -1.5547197e-02
 -6.6025944e+00 -2.5697544e-01 -1.1172735e-05 -1.2546118e+00
  2.0815113e+00 -4.9020197e-02 -5.5735789e-02 -1.2455756e-02
 -9.1651089e-02 -6.6038705e-02 -5.7848301e-02  1.1772005e-02
 -1.0779768e-01  7.2969519e-02 -1.0198960e-01 -8.9573888e-03
 -6.6343187e-03 -7.1183331e-03]
[ -3.7139788   -8.980801     0.9578995   -5.665557     2.2535207
   1.6210915   -0.14339665   4.160889    -1.9686948  -10.803697
   1.3061181   -2.6917696  -26.314886     1.8397934   -9.425186
   0.22474341  -4.6664004   -2.746551     0.67958564   0.8892681
  -1.1286229   -0.1900822   -5.257026     0.6614982   -7.390861
  -1.1604813 ]
layer 4 Activation
elu
layer 5 Dropout
layer 6 Dense
26 100
[ 3.31840292e-03  1.22080069e+01  1.12705255e+00 -6.41491842e+00
  1.20011854e+00  1.01371694e+00 -7.84091330e+00  2.39802933e+00
  5.91694051e-03  2.91485858e+00 -5.76285410e+00 -6.27244473e-01
  9.68324840e-02  5.27500916e+00  8.42681503e+00  5.12340307e+00
  7.00631440e-01  2.00592327e+00  8.54739130e-01  2.81817293e+00
 -4.61702967e+00 -2.01349211e+00  1.39726031e+00  2.07194281e+00
  2.37769246e+00  2.86435056e+00 -4.13611126e+00  8.75181675e-01
  4.85937357e-01 -3.36121351e-01 -2.66689420e+00  4.57378769e+00
  2.88763857e+00 -2.66606998e+00 -1.20222282e+00  9.10537529e+00
  4.87716007e+00  7.66154528e-01 -1.54607821e+00  6.51267099e+00
 -2.45724559e+00 -3.85611415e+00 -1.19111784e-01  2.78361011e+00
  3.67289281e+00  1.28932142e+00  2.99596024e+00 -1.02237701e+00
 -6.09561205e+00 -1.51138175e+00 -2.52251768e+00 -2.97432005e-01
  7.09246039e-01  1.89778125e+00 -2.97293425e-01  3.70910120e+00
  5.88799775e-01 -3.36310577e+00  1.13483009e+01  1.22033525e+00
  3.45029068e+00  1.26112628e+00 -2.31288290e+00  1.02490222e+00
 -9.15641403e+00  2.32050729e+00  8.07690799e-01  3.36882257e+00
  2.34346485e+00  4.07265854e+00  5.79705524e+00  8.24462354e-01
  1.18494058e+00  8.38424587e+00 -1.30366402e+01 -2.38059998e-01
  1.80369174e+00  4.69055700e+00  1.10079622e+01 -2.68712759e+00
  1.13655078e+00  2.90965825e-01  7.05566585e-01  1.73760688e+00
 -1.27727585e+01  3.68868375e+00 -5.62253094e+00 -3.78245997e+00
 -1.22601874e-01  1.36861837e+00  8.35912347e-01  9.98167706e+00
  5.09898722e-01  8.30592346e+00  1.75999928e+00  1.69601786e+00
  3.22139001e+00  4.11017942e+00  3.42228222e+00  1.38809967e+00]
[  5.2034287    0.35644355   2.1579115   -0.5006139    2.1102412
   6.121096    -3.7190626    1.5240958    0.36428255   1.6699356
   2.046324     9.943571    -1.7117692   -9.121068    -4.341449
   2.8398669   -5.913494   -16.244503     1.1511582    2.4036722
   2.5874484   -5.252772    13.026356     2.197171     0.05194837
  -5.1385155    5.222643    -3.0921617    3.8718204    0.05465984
   0.34391645   1.8828406   -8.784473    -5.3135195   -1.1553884
   4.0631905    5.40109     -9.156151    -1.5589045    0.12233111
   0.33057675   4.682246    -0.17709172 -10.848475     4.4231057
   0.975942     1.7483724   -0.43115377  -6.5729194    1.7391953
  -0.12416436   0.08962807  -6.563472     2.576483    -1.796521
   6.301718     3.4613402   -0.1842594    6.0203304    0.63110757
  -3.0922213   -0.25510556  -2.4692178   14.98875      1.318544
   1.055704     3.6734557   -0.29365957  -5.5174336    5.2032804
   2.4812527    0.9247636    0.701454    -8.683543     5.9505506
   0.0767792    1.1892681    9.700596     7.3832865    3.664801
   2.1083853   -9.666095     0.8084344    2.1484127    5.8223023
   2.6457927    3.00398      3.86571      0.14625368   0.13653755
   2.3438284    1.2235509    0.2623257   -3.5599713   -0.54796404
   5.45154     -0.50885355  -7.0540757    0.62844574  -0.62056047]
[ 2.2528867e-01  2.4511046e+00 -1.8577290e+01  7.6151069e-04
  5.2941591e-01  9.5024186e-01 -5.4162240e-01 -1.7735701e+00
 -5.2899833e+00 -4.6421036e-01 -1.1801778e+00  8.2206573e+00
 -3.3292899e+00 -4.5520611e+00  4.1591799e-01  1.4086483e-01
 -1.3712250e+00 -3.4420528e+00  2.6696522e+00 -5.9137022e-01
 -4.2372408e+00 -1.1734010e+01 -5.4432249e+00  3.4085932e-01
  4.1251049e+00  2.4529996e+00  5.1448518e-01  2.7286091e+00
 -4.0464349e+00  1.2164047e-01 -1.2717599e-01  5.9417596e+00
 -6.4372909e-01  4.6585119e-01 -2.9415891e+00  8.4516363e+00
  6.4572721e+00 -1.7516125e+00 -2.2322695e-01 -2.5199885e+00
 -1.6522478e+00 -2.6123071e+00  4.7645673e-02  2.3737507e+00
  3.8570955e+00  5.1501626e-01  6.6294360e-01 -7.6068647e-02
  2.1098209e+01 -2.2367725e+00 -2.3860347e+00  1.1872858e-01
 -2.2396541e+00  2.4719083e+00  5.4492182e-01  2.7519987e+00
 -4.0715590e+00  1.1397620e-01  1.1151571e+01  1.2500980e+00
 -4.9196281e+00  1.3049560e+00 -1.6433136e+01 -3.6440828e+00
  6.7765719e-01 -3.3198705e-01  7.3789710e-01 -1.9519536e+00
  6.5289536e+00 -7.8228503e-02  3.4432871e+00  6.3632238e-01
 -7.9919285e-01  1.0654776e+01 -3.6740415e+00  3.9176211e-02
 -2.1397469e+00 -1.5094200e+01 -1.7827178e+00 -2.6702875e-01
  2.2315214e+00 -7.9745978e-02 -1.0239853e+00 -1.0205921e+00
  1.2118925e+00  3.0580213e+00 -3.1002183e+00 -1.5795499e+00
 -1.5124872e-01  3.8894279e+00 -1.8983413e+00  2.5713328e-01
 -1.1991571e+00  1.1172788e+01  3.2590315e+00 -7.3870152e-01
  5.1568562e-01  2.2865949e+00  6.6425556e-01  2.0078340e-01]
[-1.41994894e+00  6.58317614e+00  9.73485661e+00  1.42861485e-01
 -1.78338277e+00  9.87219870e-01  7.78896236e+00 -1.04390228e+00
  3.52248311e+00 -3.56728101e+00  1.96024895e-01  3.63650560e-01
  2.85829544e+00 -2.42812958e+01  2.40470219e+00  7.90368915e-01
  5.41328080e-02  4.47552948e+01  1.37061739e+00 -7.40462780e-01
  1.17958343e+00 -2.03762112e+01 -1.61069679e+01 -3.18395877e+00
 -5.69436884e+00 -3.27962255e+00 -1.80642402e+00  1.84583035e+01
  3.26059246e+00 -5.76009825e-02 -3.36907339e+00  5.03809333e-01
  1.99115410e+01 -8.92257118e+00  6.12449188e+01  8.57979279e+01
 -1.93955064e+00  1.08417082e+00 -1.04579055e+00  2.02853489e+00
  3.30280948e+00  1.33959711e+00  1.93499255e+00 -1.96221006e+00
 -2.90722585e+00  2.78102160e+00 -6.15573466e-01  5.45731068e+00
  1.90076103e+01 -7.22505391e-01 -1.17336147e-01  1.18192397e-01
  2.94415975e+00 -9.62486553e+00 -1.43069649e+00 -1.59660854e+01
  4.10438251e+00 -2.41853431e-01  1.88508167e+01  2.22532535e+00
  4.27580147e+01  2.75711679e+00  2.46576142e+00 -1.54795780e+01
  2.74695611e+00  7.21352398e-01  5.74431837e-01  4.43599367e+00
  4.37079191e+00  2.20841479e+00 -6.35593891e+00  2.21620917e+00
  1.53521967e+00 -3.09739933e+01  1.53709030e+00  2.30115622e-01
 -9.03908491e-01  4.31865120e+01  2.14472413e+00 -2.15928936e+00
  1.42016661e+00  1.47153926e+00  2.58964658e+00 -8.03936243e-01
  9.97419453e+00 -8.59920859e-01  1.07424569e+00  1.57419050e+00
 -8.67567062e+00  1.30071890e+00  2.66628504e+00  2.07520509e+00
  2.51754379e+00  6.24305954e+01  3.38943601e+00  3.09863973e+00
  1.37050495e+01  7.27222490e+00 -1.02421343e+00  2.74167013e+00]
[ 2.46660393e-02  2.87774116e-01  5.07798851e-01 -8.93767849e-02
 -1.40933573e+00  5.40976584e-01 -1.92909408e+00 -1.32473123e+00
 -4.39802170e-01  1.11739182e+00 -4.61875021e-01  2.81677902e-01
  9.16832220e-03 -7.59994164e-02  8.36279839e-02  5.40426731e-01
  1.38978228e-01  1.99940908e+00  6.55790567e-02  2.25631863e-01
 -2.78827161e-01  1.64040971e+00 -1.04804206e+00  9.91254952e-03
  4.94162321e-01  4.96944860e-02 -4.11797613e-02 -6.07143462e-01
 -1.83508441e-01 -2.93592177e-03 -1.04307614e-01 -9.61044431e-02
 -9.96736407e-01 -1.67797133e-01  1.19788671e+00  3.96673656e+00
 -4.71084297e-01 -2.49628961e-01 -3.11698705e-01  4.53566283e-01
  5.60097024e-03 -1.12676434e-01 -1.16377242e-01  1.54355943e+00
 -8.08629894e+00  8.97010490e-02 -2.67323456e-03  4.14813805e+00
  2.42477894e-01 -1.89434454e-01  4.27707322e-02 -4.43788432e-03
 -1.14577249e-01 -1.07930645e-01 -2.31087637e+00  4.35342282e-01
  2.79971004e-01 -2.37593334e-02 -1.53603745e+00  2.18277648e-02
  2.64975834e+00 -1.06603995e-01 -1.00595906e-01  1.11296093e+00
 -9.64463615e+00 -5.89746125e-02  2.25584459e+00 -7.30762291e+00
 -2.09976118e-02 -2.01519489e+00 -1.82318240e-01  1.63815355e+00
 -3.15976000e+00  1.33054268e+00  2.12168306e-01 -6.38161832e-03
 -8.70326579e-01  5.46709013e+00 -1.26839697e+00 -3.13000306e-02
 -1.72797298e+00 -1.32573408e-03 -2.79200363e+00 -1.76123867e+01
 -2.79363656e+00 -4.65511205e-03 -9.83338524e-03 -6.93523558e-04
 -5.07011041e-02 -1.80384960e+01 -1.37238717e+00  4.81728017e-02
  7.21211210e-02  1.24281563e-01 -5.86029947e-01  1.24464822e+00
  1.72052994e-01 -5.41760778e+00 -1.24105513e-02  6.16879240e-02]
[-6.96026921e-01  6.13424397e+00 -1.73668340e-01 -7.47909009e-01
 -4.77608728e+00  5.27190447e-01 -1.35861292e-01  5.75956464e-01
 -3.87835763e-02  2.64480162e+00 -8.28713226e+00  1.32947850e+00
  6.13328815e-02  5.24762332e-01  4.44008380e-01  2.56669211e+00
  9.47350785e-02 -4.54482347e-01  3.79345119e-01  2.14864564e+00
 -6.01501763e-01  9.38884318e-01 -1.17157012e-01 -1.96571219e+00
 -5.84575757e-02  8.38368058e-01 -7.46744359e-03  8.19950402e-01
 -1.43618405e-01  1.14162080e-01 -3.62904109e-02 -4.86352473e-01
 -1.08443189e-03  1.10430753e+00  9.23614681e-01 -4.79324436e+00
  5.22602606e+00 -2.68649489e-01 -3.07769179e-01  1.08262789e+00
 -2.06095099e+00 -2.25308990e+00  2.48079479e-01  1.37747288e+00
 -9.86872864e+00 -3.46644551e-01  1.23199856e+00  1.50012958e+00
  1.51052582e+00  4.88407575e-02 -1.92520630e+00  4.08200435e-02
 -3.77146602e-01 -8.78811169e+00  2.68295612e-02 -1.56388128e+00
 -1.67632714e-01  5.31849675e-02  8.11810780e+00 -3.08575958e-01
  3.89524817e-01  2.82677174e-01  2.20347241e-01 -1.94346571e+00
 -1.69874609e+00 -9.06560123e-02 -9.25697708e+00 -1.08344066e+00
  5.69825172e+00  6.32111073e+00  6.47512317e-01  1.50268149e+00
  7.10266173e-01  1.99232781e+00  1.09923534e+01  2.37623174e-02
  2.59004998e+00  3.01694703e+00  9.73742771e+00 -2.59714574e-01
 -3.22811460e+00  9.08226669e-01  3.00852954e-01 -6.95806742e+00
 -8.11134434e+00 -9.81737554e-01  5.32310665e-01 -5.63012064e-01
  1.09346755e-01 -1.01208200e+01  1.88614726e+00  3.09608374e-02
  2.21205258e+00 -1.51998401e+00  5.52433491e-01  3.65464836e-02
  2.10798934e-01 -1.03700352e+01 -1.11313537e-01  3.99288237e-02]
[ 7.39156455e-02 -4.10599172e-01 -7.36469865e-01  5.06208353e-02
 -4.75646114e+00 -4.97504383e-01 -5.63033390e+00 -7.68281817e-02
  4.79134232e-01  3.49866296e-03  5.31057060e-01 -3.31299841e-01
 -4.01483104e-02 -8.95341299e-03 -1.40791938e-01 -7.30697155e-01
 -7.85240382e-02 -2.58825350e+00 -8.71741325e-02 -3.09674650e-01
  2.89302796e-01 -1.97222948e+00  1.36599064e+00 -1.07538281e-02
 -6.01824641e-01 -1.17456950e-02  2.14281194e-02 -4.68711233e+00
  2.43928924e-01 -5.41264610e-03  4.98746932e-02  1.26897827e-01
 -8.23263359e+00  3.95195782e-01 -1.02938437e+00 -8.06489563e+00
  3.17796230e-01  2.05285102e-01  2.98655778e-01 -9.57810998e-01
  6.54466152e-02  1.11923449e-01 -1.81064606e+01 -1.67072606e+00
  2.85363364e+00 -1.13647282e-01 -3.85860726e-02 -2.57639561e+01
 -7.74803936e-01  2.03163341e-01 -4.42703106e-02  6.22139834e-02
  1.05253845e-01  4.50655520e-01  1.99583507e+00 -5.21727979e-01
 -2.61503190e-01  1.15817906e-02  2.23713231e+00 -3.52796279e-02
 -3.09179425e+00  9.02554467e-02 -9.60154012e-02 -7.74649143e-01
 -1.41292963e+01  3.83068025e-02 -2.10840774e+00  1.19641793e+00
  5.59786148e-02 -3.48679572e-01  2.38350555e-01  4.72281426e-01
  2.46815145e-01 -1.19156885e+00 -4.96619374e-01  9.44098234e-02
  7.77247310e-01 -5.12898970e+00 -3.75841179e+01  3.23493667e-02
  1.55513853e-01 -4.69901692e-03 -3.95933837e-01 -1.52252703e+01
 -1.78765163e+01  1.82147082e-02  8.49160030e-02 -1.12570561e-02
 -4.18401770e-02 -1.16725330e+01  1.25474298e+00 -6.77657872e-02
 -1.92230761e-01  6.98218942e-01  7.29811966e-01 -1.85287228e+01
 -1.63454667e-01  1.32953227e+00 -2.50653662e-02 -7.89591894e-02]
[-2.92159176e+00  4.60821009e+00  2.33427143e+00 -4.55779886e+00
 -1.30753803e+01 -3.33099437e+00 -1.05027771e+00 -3.24400067e+00
 -2.49796557e+00  4.10234928e+00 -7.67896950e-01 -2.81943631e+00
 -2.79481649e+00 -5.54352331e+00 -1.80706942e+00  1.37029181e+01
 -2.76082468e+00 -5.08923578e+00  1.80264366e+00  3.22059131e+00
 -1.64500272e+00 -2.09283620e-01 -4.09241152e+00  4.05148172e+00
 -2.01604128e+00 -1.15344726e-01 -3.82739019e+00  2.27221087e-01
 -2.71394086e+00 -4.02286910e-02 -1.60713166e-01 -7.76448548e-01
 -3.95714211e+00 -8.13846970e+00 -2.32268944e-01 -7.52598810e+00
 -3.25966716e-01 -3.12533307e+00 -2.75479507e+00 -1.42821932e+00
  2.62930486e-02 -7.72395968e-01 -9.02140662e-02 -2.20992804e+00
 -2.27047586e+00  1.68180239e+00 -6.22557497e+00 -6.18052304e-01
 -7.94743299e+00 -2.16037416e+00  2.10987493e-01 -3.58746350e-02
 -2.98524618e+00 -1.57578850e+01 -1.26111662e+00 -4.09250593e+00
 -1.70696390e+00 -4.14527464e+00 -6.36348486e+00  1.91788793e+00
  6.01160705e-01  1.06663036e+00 -2.37416685e-01 -3.35275722e+00
  6.14483714e-01  1.90753853e+00 -1.12844248e+01  2.50688004e+00
 -3.89918804e+00 -2.87635899e+00  8.62865031e-01  7.44286239e-01
  7.95709133e-01 -2.01643372e+00 -6.94325089e-01 -5.92434825e-03
 -4.39194798e-01 -3.18393040e+00 -2.95665288e+00 -2.54163957e+00
 -4.55046833e-01 -3.21928477e+00  8.02560568e-01 -1.76915936e-02
 -1.86839428e+01 -8.76571751e+00 -4.51055259e-01 -1.50041476e-01
 -1.65267602e-01  9.61506486e-01 -4.36733544e-01  7.96171236e+00
  7.05231190e-01 -8.65148008e-01 -1.31581831e+00 -6.04441822e-01
  4.12805939e+00 -1.37526989e+01  3.09417725e+00 -1.80820823e+00]
[ 5.75218759e-02  1.02168456e-01  1.32213458e-01 -5.44995628e-03
  1.63546175e-01  3.59790891e-01  9.34094429e+00 -2.04731965e+00
 -6.67980611e-02 -2.62236536e-01 -2.77542174e-01  9.16059464e-02
  1.24831274e-01  5.09555340e-02  7.53678232e-02  3.72536063e-01
  2.62107670e-01 -9.27552521e-01  1.91758871e-02  1.75853908e-01
 -8.67191777e-02  5.82242012e-01 -5.40054381e-01  4.93417531e-02
  1.25751287e-01 -2.72076167e-02  4.12714854e-03  2.07955933e+00
  8.42144266e-02  5.66462688e-02 -4.47194949e-02 -7.83649459e-02
 -3.93861747e+00  1.32956058e-01  6.68201983e-01 -6.76654673e+00
 -8.01179707e-02 -7.73181394e-02 -1.22531213e-01 -2.35200956e-01
  1.24484070e-01 -2.64087245e-02  2.81344795e+00  5.58238506e-01
  1.44636941e+00  3.77007052e-02 -1.09403834e-01 -3.75712514e+00
 -3.07160544e+00 -5.51047511e-02 -3.98860611e-02  3.21501791e-02
  7.03913122e-02  1.05798137e+00 -7.68764210e+00  1.98682964e-01
  3.30865771e-01  4.74091154e-03 -1.92657542e+00  1.11405952e-02
  1.40463805e+00 -5.75047173e-02  1.30257513e-02  1.36918867e+00
 -1.35743494e+01 -7.92520568e-02  6.39352226e+00  1.84489143e+00
 -4.27404374e-01 -3.45745969e+00 -1.62105754e-01  6.99645424e+00
 -9.91563678e-01  5.54164171e-01  4.00920123e-01  3.31124291e-02
 -4.05002534e-01  2.37529850e+00 -2.29275179e+00  4.03043777e-02
 -5.99464417e-01  1.53467074e-01 -3.49069506e-01 -6.23926258e+00
 -2.16776276e+00 -1.86564866e-02  1.70396075e-01  4.44309115e-02
 -3.41217756e-01  3.64176965e+00 -2.34353828e+00 -2.26354487e-02
  6.18595146e-02  1.64719629e+00 -2.89074033e-01  3.96920490e+00
  6.57684952e-02  1.76327550e+00 -2.04964299e-02  1.30314440e-01]
[ 1.08154716e+01  1.90432763e+00  4.17514086e+00 -4.49386954e-01
  4.24233961e+00  1.53243761e+01  6.54324579e+00  3.75852418e+00
  9.49470901e+00 -2.33092618e+00  1.03790557e+00  1.96116962e+01
  8.04852581e+00  1.36647301e+01 -3.18340331e-01  5.81218290e+00
  4.53761673e+00 -2.23622704e+01  1.50626624e+00  4.16353989e+00
  1.22219682e+00  3.31835914e+00  2.35136471e+01 -2.13346577e+00
  2.20878143e-03  1.46762156e+00  1.66071311e-01  6.53401899e+00
  6.77174950e+00  1.06615983e-01  3.91951346e+00  3.72751665e+00
  2.25492620e+00  8.87976837e+00 -1.01520309e+01  1.14515753e+01
  4.41007185e+00  5.75003576e+00  2.53133011e+00  3.85884404e+00
 -4.38719416e+00  4.91474247e+00  3.67378068e+00  8.83050728e+00
  9.98979950e+00  1.99468040e+00  4.24762154e+00  4.25513697e+00
  2.16686783e+01  1.29947507e+00 -9.56627905e-01 -1.10948965e-01
  6.88431835e+00  8.87999439e+00 -3.23346585e-01  1.82472503e+00
  7.98585510e+00  1.07609192e-02  2.56336765e+01  1.58926022e+00
 -1.69926529e+01  1.92885745e+00  2.68920088e+00  2.50542183e+01
  1.73252594e+00  8.96410108e-01  6.30601358e+00  2.59318972e+00
  1.34533310e+01  9.50145626e+00  4.90320158e+00  2.17429900e+00
  1.13758337e+00  3.19686204e-01  7.08550119e+00  2.58524925e-01
  3.25973010e+00  1.07262678e+01  8.14987850e+00  1.39449370e+00
  3.36193657e+00  6.03621531e+00  1.39573300e+00 -7.34477997e+00
  7.49982023e+00  4.75093269e+00  2.62640148e-01  1.39787638e+00
  4.38459635e+00 -6.13854074e+00  4.52224970e+00  4.41705608e+00
  3.33456540e+00  2.20953407e+01 -1.55629742e+00 -2.07529497e+00
  7.02841580e-01 -3.80845857e+00  3.00558591e+00  4.42286205e+00]
[-6.7657173e-01 -7.0360274e+00  2.0815041e+00 -9.2112428e-01
  1.4202789e+00  1.1667187e-01 -3.8307723e-01 -8.8066924e-01
  1.1555573e+00 -7.4658632e-01  4.5241823e+00 -3.7733908e+00
  1.1601304e+00  2.7596400e+00 -1.2481828e+00 -1.5216012e+00
  1.7249916e+00 -1.0835991e+00 -2.4461792e+00 -5.6113619e-01
 -1.0313441e+00  7.9775855e-02  1.8343569e-01 -3.6543357e-01
 -4.4887509e-02  3.4358306e+00 -4.5887408e-01 -4.3194942e+00
 -4.9030942e-01  8.2324535e-02  1.8045248e-01  9.3169636e-01
 -3.2381876e+00 -1.1059348e+01  1.2352902e+00 -3.3859935e-01
  7.3630633e+00  2.1349959e+00  1.5937920e-01  1.0936385e+00
  2.5147054e-02 -3.4408131e+00  3.5385635e-02  1.7737153e+00
 -4.2534070e+00 -2.6366314e-02  8.7177172e-02 -2.0774996e-01
 -1.8854612e+00 -3.8248563e-01  2.0780964e-01  5.9506476e-02
  1.2065235e+00  3.0394576e+00 -1.5280044e+00 -3.1512329e-01
 -1.7728330e+00  3.0357135e-03  6.1820030e+00 -7.6463187e-01
  2.2599695e+00  5.6195563e-01 -1.4454824e+00 -1.2639761e+00
 -2.0107036e+00 -3.1437054e+00  3.9022117e+00 -2.1954041e+00
 -1.3521603e+01  5.7333016e+00  1.5829592e+00 -2.0209552e-01
 -3.2060950e+00 -6.6455908e+00 -2.5350878e+00  2.3921931e-02
  1.8916612e+00 -8.8043442e+00  1.9956332e+00 -3.5358879e-01
  3.5930426e+00  8.1512147e-01 -1.3984537e+00  1.2705017e+00
 -2.2563816e+01 -1.3573931e+00 -4.0903044e+00 -2.2167070e+00
  1.1327030e-02 -1.7124740e+00 -2.4674876e+00  7.4662173e-01
  1.3606331e+00 -1.5993531e+00 -1.3206426e-02  1.4490630e-01
 -3.0613279e+00  2.5372720e+00 -1.6934181e+00 -3.7140605e+00]
[ 3.0794412e-01  6.4675421e-02  1.2997457e-01 -6.7834720e-02
 -1.5566781e+00 -2.4053051e-01 -8.6003036e+00 -2.9397056e+00
  1.3132936e-02  2.3034456e+00  1.4452526e-01  1.3373122e+00
 -2.5287881e-02  6.6070758e-02  3.8779102e-02 -5.4156147e-02
 -9.4534464e-02  4.4109726e-01  1.8099396e-02 -4.5869974e-03
 -4.5091320e-02  2.4519630e-01 -9.5148444e-01 -5.3469851e-03
  1.2334469e-01 -9.7649276e-02 -2.2338698e-02  1.3457055e+00
 -2.3750249e-01  1.5469082e-02  5.1556170e-02  5.7856287e-03
  5.4363494e+00  4.1771448e-01 -1.9241910e-01  1.0389871e+01
 -5.6972992e-01  7.3471576e-02  1.5770614e-02 -3.4501206e-03
 -4.1445613e-02 -6.2201314e-02 -1.7311064e+01 -2.1258775e-02
 -1.5837424e+01  1.6409518e-02  1.1333087e-02 -5.7220821e+00
 -7.9590172e-01  6.8125660e-03 -1.4198129e-02  1.7589850e-02
  1.3733960e-02 -6.8490660e-01 -2.8005347e+00  1.8825087e-01
  7.2722100e-02  9.5954454e-03 -1.3275125e+01 -1.5727637e-02
 -8.9837891e-01 -2.2510603e-02  7.5535700e-02 -1.5531932e+00
 -7.3613682e+00 -2.3312010e-02 -1.4065635e+01  8.2805163e-01
 -1.9080983e+00  2.8089723e-01  5.5150092e-02  6.8238492e+00
 -1.3072926e+00 -3.9083710e-01 -1.9895424e-01 -5.8696759e-03
 -4.8524432e-02 -2.5682693e+00 -1.5524559e+01  1.0417804e-02
 -2.6286848e+00  2.3471277e-02  5.3027749e-01  4.5952425e+00
 -1.2191073e+01  1.7217981e-02 -8.0786934e-03  3.1301912e-02
 -1.7823543e-02  1.0864186e+00  1.9416610e+00  1.9051945e-02
 -3.4984723e-02 -9.3922645e-01 -2.1029867e-01 -2.7237105e+00
  3.2543484e-02 -1.1327138e+01  4.4785743e-03  8.7703347e-02]
[ 5.3814297   1.8971362  -6.859827   -0.96124834  2.9695406   5.604652
  4.3934946   3.1117558   4.298759   -3.6752677  -0.48990828  5.51385
  3.7910788  -2.502994   -0.22681798  1.0239865   1.1180009   2.627726
 -0.6767932   4.043677    0.84731156 -3.380667    6.2419887  -3.5038664
  3.3974454   1.8821741  -0.8531243   4.068098    4.5843964  -0.4225254
  4.5794125   2.1038654   2.982216    6.324161   -5.094901   -0.44193012
  0.4634911   2.3485618  -0.66688657  4.778384   -1.0760676   3.3577821
  8.618057    7.7519684   5.5612707   0.16172762  2.4631317   3.5580018
 13.34944     0.7350566  -1.3504034   0.77321047  3.5027742   3.1950226
  1.8431427   4.7624383   3.9668982   0.44087055 14.424542    0.02063415
  1.1220319   0.8845996  -4.5575633   7.025401    6.5043077  -0.47203523
 -2.3322632   1.7116939   9.703313    2.7979994   1.6533532   0.7351861
  0.23585999  5.975496    2.6983101   1.0461112   3.4906452  -2.178394
  3.5824852  -1.5850332   2.666383    2.4795225   0.8225811  -3.177748
 13.308601   -0.04907903  2.472879    0.60223645  2.0980515  -2.0369954
  1.5396777   2.6994956   5.1397266  -5.3666463  -3.773247    2.2346008
  7.075958    4.4145103   1.881624    1.5635324 ]
[-5.9677095e+00 -3.8348436e+00 -8.9052086e+00 -9.8979169e-01
  3.5829850e-02 -5.6248918e+00  6.5064955e-01 -6.5091615e+00
 -3.6479044e+00 -5.7924103e-02  3.1022286e-01 -7.5295949e+00
 -2.5120788e+00 -7.9416876e+00 -1.3215820e+00 -8.2822905e+00
 -4.0135345e-01 -6.3350487e+00 -2.6904616e+00 -1.0546683e+01
 -1.3037486e+00 -9.6250706e+00 -1.1216210e+01  2.1766119e-02
 -7.1955314e+00  1.6314294e+00 -4.1801822e-01 -4.6666765e+00
 -5.7003212e+00  5.8158185e-02 -4.0198557e-02 -4.8029666e+00
 -3.0124953e+00  1.4303350e+00 -6.1778784e-01 -5.1002936e+00
 -1.9553432e+01 -7.2710723e-01 -4.5304081e-01 -1.9144671e+00
  1.0412601e-01 -1.5429518e+00 -3.5499975e-01 -7.7538943e+00
  5.4538471e-01 -3.0370376e+00 -9.0268650e+00 -4.8576623e-01
  5.7759843e+00 -5.1439333e-01  1.9593938e-01  4.8820928e-02
 -1.9324931e+00  1.6447444e+00 -2.1723418e-01 -1.0442305e+01
 -6.1497426e+00 -2.9625958e-01 -1.5638089e+01 -3.0312510e+00
 -6.6183438e+00 -2.8784318e+00 -6.9588585e+00 -1.1046633e+01
 -1.3540909e+00 -2.1635580e+00  7.6285332e-01 -6.9946637e+00
  2.1626141e+00 -4.6265298e-01 -1.8076607e+00  4.5527896e-01
 -8.5037956e+00 -3.6417162e+00 -3.1923559e+00  2.3937853e-02
 -2.6601853e+00 -5.0155773e+00 -2.1307905e+01  5.6029400e-03
  7.8972006e-01 -1.3408524e+00 -5.1643176e+00 -1.6442429e+00
  7.3885299e-02  4.7433946e-02 -1.6560374e-01 -1.0570704e+00
 -4.7660369e-02 -1.6817667e+00 -4.2617598e+00  1.6542910e-01
 -2.6549451e+00 -8.3495722e+00  1.6307129e+00 -2.2541477e-01
  8.5783637e-01  3.0993021e-01 -3.2602341e+00  1.2414789e+00]
[ 5.0813704e+00  4.2359895e-01  1.3471118e+00  8.6504072e-02
  3.8523777e+00  1.2403201e+01  2.8606477e+00  1.8211226e+00
 -5.7373900e+00  5.3590196e-01 -4.9716268e+00  1.9826590e+01
 -4.2798824e+00  1.4209035e+01  1.3718796e+00  4.0390978e+00
  4.8621697e+00 -2.7661572e+01 -1.3166726e-01  2.3709068e+00
 -1.0334609e+00  7.7729387e+00  2.7986530e+01  5.1354587e-01
  1.0439020e+01 -5.5581677e-01  2.2622304e+00 -7.5299063e+00
 -1.9117080e+00 -9.9137731e-02 -1.4399347e-01  7.4596000e+00
 -5.3596911e+00  9.2466564e+00 -5.1588547e-01  4.1894765e+00
  3.7915001e+00  3.7053628e+00  3.9257810e+00  3.4896927e+00
 -5.6127286e-01  4.1314955e+00  2.5551569e-02  6.6303749e+00
  9.0467758e+00 -5.5419916e-01  2.8288696e+00  8.5489839e-01
  1.1403900e+01  2.4996517e+00 -1.0391846e+00 -9.7174816e-02
 -9.3830770e-01  8.4150476e+00  2.0355365e+00  2.0240162e+01
 -8.3552427e+00 -4.0161595e+00  1.5034385e+01 -1.4078238e+00
 -8.5629435e+00 -3.3917584e+00  4.6880922e+00  3.4235428e+01
 -8.0964977e-01 -2.8303957e-01  5.4061198e+00 -3.8078277e+00
  7.7364631e+00  6.7872396e+00  9.2495651e+00 -1.6235064e-01
  8.3006394e-01  7.8002310e+00  3.5361722e+00 -3.2056656e-02
  1.4902251e+00  7.0232677e+00  7.2047281e+00  3.4067502e+00
  2.6911938e+00  3.5389495e+00  9.6871525e-01 -1.3117181e+00
  6.8337612e+00  3.9761426e+00 -2.6575844e+00  9.4076693e-01
 -4.2324379e-02  2.6957343e+00  3.1810830e+00  4.4072962e+00
  1.1800220e+00  3.1763549e+00  5.3146851e-01 -4.5073855e-01
 -6.2870851e+00  4.9146047e+00  1.5944333e+00  6.3389091e+00]
[ 2.1614521e+00 -4.0243652e-01 -3.3789852e+00 -4.4204149e+00
  5.2151138e-01  2.1521366e+00  1.5376887e+00 -2.7025473e+00
  1.2348620e+00 -4.6634257e-01 -1.5689797e+00  3.5187261e+00
  9.4755936e-01 -9.4340539e-01 -6.7586036e+00 -2.0989796e+01
  4.3084568e-01 -6.8206711e+00 -3.3261440e+00 -2.3251629e+00
 -3.3314886e+00 -4.5606751e+00  3.5460083e+00 -9.1481900e-01
 -4.6140151e+00  1.4503896e+00 -2.6820300e+00 -1.0790610e+00
  1.5870974e+00  1.7288748e-02 -3.6862865e-02  5.1320350e-01
 -1.3115016e-01 -2.7423193e+00  1.2802585e+00 -1.7894776e+00
  6.0215936e+00  4.1518863e-02 -8.1085086e-01  2.8442559e+00
  3.2612283e-02 -3.6238883e+00 -7.1234506e-01 -6.4958529e+00
  3.3118668e+00 -4.9519163e-01  7.0947266e-01 -1.2323804e+00
  3.5279565e+00 -1.3617929e+00 -1.5085554e-02  1.0929374e-02
  9.2789292e-01  1.2275711e+00 -4.5593861e-01 -1.7807798e+01
  7.4811828e-01 -1.6760960e+00  1.1090858e+01 -2.4670708e+00
 -6.2198715e+00 -2.0066051e+00 -5.5590361e-01  3.8075199e+00
 -2.0564389e+00 -4.6889457e-01  4.9319047e-01 -1.0891374e+00
  2.5504479e+00 -1.1306636e+00  1.8226810e+00  6.4907092e-01
 -2.6889527e+00 -1.6365049e+01  5.5725688e-01  4.4636154e-03
 -1.3080853e+00  1.0021636e+00  3.8293974e+00 -2.1652887e+00
 -2.8728443e-01  4.5285583e-01 -2.9923623e+00 -3.2482412e+00
 -3.1120920e-01 -2.0783334e+00  1.3072902e-01 -9.9354279e-01
 -7.6288313e-02 -3.9911859e+00 -1.4995477e+00 -1.2065797e+00
 -3.0996260e-01  3.0045804e-01 -5.1798983e+00 -1.5338878e-01
 -2.4527569e+00  2.3396068e+00 -1.8898103e-01  3.3864141e-02]
[ 1.2755697e+00 -3.2985392e+00 -2.5414801e+00  2.1076577e+00
  5.4627913e-01  1.7435086e+00 -2.1612403e+00 -2.1163564e+00
  1.9422649e-01  1.0536736e+00  2.7661936e+00  2.9830551e+00
  3.8546759e-01 -3.8288186e+00 -1.1169201e+00 -1.1851233e+01
 -1.2329994e-01 -2.4169865e+00 -1.2313186e+00 -2.6920075e+00
 -1.4995453e+00  5.7390958e-01  3.7185969e+00  7.2187823e-01
 -7.5851836e+00  1.9819422e-01 -7.0830327e-01  2.1317682e+00
  3.5175064e-01 -2.9569974e-02 -3.8651526e-02 -8.5327330e+00
  3.3874240e+00 -1.7040493e+01 -3.3324962e+00  4.9257560e+00
  7.0950446e+00  4.0480095e-01 -1.1522186e+00 -4.0007162e+00
  2.2000726e-01 -2.7624056e+00  4.6290818e-01 -7.0127201e+00
 -1.0045512e+00 -4.2464003e-01 -9.2319828e-01  7.1438450e-01
  2.8128855e+00 -8.5821581e-01 -7.9989269e-02 -6.7952022e-02
  8.4104222e-01  4.4779058e+00 -4.7058029e+00 -5.8768430e+00
 -3.1560683e-01 -1.0073093e+00  2.8263333e+00 -7.5246358e-01
  1.6525627e+00 -6.9652158e-01  4.5263922e-01  2.3461530e+00
 -1.0203013e+00 -1.7619860e+00  2.3857903e+00  1.7934518e+00
 -5.8702893e+00  9.8076433e-02 -8.9187231e+00 -5.9015065e-01
  1.2549478e+00  2.1247776e-01 -1.2615358e+01 -9.1131277e-02
 -3.0655661e+00  1.1333307e+00  4.4986920e+00 -2.7508559e+00
 -1.9902897e+00  8.0440938e-01  3.5690346e-01  1.9486921e+00
  4.0926690e+00 -1.9572393e+00  2.4030588e+00 -1.2861587e+00
  3.0193040e-02 -1.1628347e-02  2.3742719e+00  3.2069061e+00
 -3.6010118e+00  8.1594505e+00 -3.4437466e+00 -8.4622879e+00
  3.2110175e-01  2.4791939e+00 -2.2058444e+00  2.4414308e+00]
[ 4.5261714e-01 -1.5280126e+00  1.7437264e+00 -1.4470085e+00
  4.6364913e+00  7.3007357e-01  8.9430361e+00 -5.5664504e-01
  3.4972718e-01 -4.4675565e+00  2.2990330e+01  1.5175812e+00
  2.5106779e-01  2.8954895e+00  1.9613642e+00 -8.8413477e+00
  8.4915376e-01 -4.6773225e-01 -1.4456005e-02  1.4917613e+00
  1.1778638e+00  8.7768621e+00  3.1527728e-01 -3.8954256e+00
  3.3343856e+00 -2.4165235e+00 -1.2085977e+00  6.3255391e+00
  6.1635727e-01  9.4912630e-01  4.6361084e+00  4.7601681e+00
  4.2615356e+00  2.0218809e+01  8.5906076e+00 -2.9653232e+00
  1.3029505e+01  6.6222012e-01 -4.4135261e-02  1.6173111e+00
  9.6377172e+00 -6.0079932e+00  1.1409752e+00  6.3718381e+00
  1.1123880e+01  1.4866526e+00 -2.1144919e-01  4.8124771e+00
  1.3890108e+01  1.8913841e-01  1.6855282e+01 -2.8709623e-01
  4.5522004e-01 -4.8740941e-01 -1.7085150e+00  1.4294248e+01
 -7.9540417e-02  6.1172253e-01  2.7045462e+01  7.0798558e-01
 -2.8990388e-01  1.9154719e+00 -2.2994085e-01 -1.8639816e-01
  1.6134045e+00 -5.8388913e-01  2.5900192e+00  2.8747864e+00
  2.2783026e+01 -1.2135043e+00  5.3160443e+00 -4.5048448e-01
  1.6134673e+00  2.8455429e+01 -2.6032057e+00 -1.4949241e+00
 -1.4981377e-01 -2.7318153e+00  1.5031585e+00 -8.1199259e-01
  3.2544036e+00 -9.1848612e-01  1.6832875e+00 -3.1625345e+00
  1.1657245e+01 -2.7615290e+00  5.0901728e+00  6.8650059e-02
  3.0970426e+00 -1.4995058e+00  1.7981315e+00 -3.0621067e-01
  8.5907966e-01  7.5307384e+00  2.9329407e+01  5.6370001e+00
  4.4055052e+00  9.7664108e+00  4.7369334e-01  4.6548214e+00]
[ -1.9458811   -3.4806607    3.2958887    3.5176775   -5.7111816
  -2.1607604   -1.5331244   -1.2064512   -1.7263311    3.3728411
   0.8480474   -1.9913411   -2.1306884    4.179005   -14.093354
 -16.891407    -2.147786     2.5131533    1.4745412  -14.799896
   0.6149686   -0.31473112  -1.6793121    3.2053068   -1.215923
  -0.15585305  -1.1502333   -1.0330995   -1.6347529    0.07712191
   0.07341057   3.1236248    0.527365   -10.208174     3.6859457
  -1.8207827   -1.9242898   -2.5129237   -2.0328043    3.2460063
   0.17766152 -18.26204      0.23210232  -3.6472235   -1.4717126
   2.0382316   -2.3651497    0.73967236  -9.238813    -2.155537
  -0.1864095    0.0845855   -2.3254383   -1.9597179   -1.556254
  -1.5658326   -1.3443164   -1.2270168    1.1193779    2.35219
 -10.234598     0.9326993    3.352       -2.2070615   -0.49103323
  -0.24175142  -0.66164607   0.7033223   -2.156433    -8.518393
   1.8243153   -0.2569326    0.17939161   5.471988    -1.3622578
   0.03125442   0.6544893    1.4909264   -5.4948697   -2.281637
  -1.5922529   -2.6468964   -0.40520597   0.5832718   -0.850958
  -5.4873505    2.7502756   -0.43379003   0.231689    -0.5541693
   0.1883288   -5.3419294   -1.468422    -4.259356     2.6081104
   0.4056277    5.118595    -1.138886    -4.655525     1.3430688 ]
[-5.1715732e-01 -1.3255011e+01 -2.0210834e-01 -2.8942245e-01
  1.2546954e-01  2.9432304e-02  1.7784813e-01 -2.0484076e+00
 -1.9454798e-02 -1.4518251e-01  5.7777095e+00  5.6761438e-01
  3.8632028e-02 -4.6513777e-02  2.4134351e-01  1.3803967e+00
 -1.3152401e-01  5.0932670e+00  3.4947887e-01  2.4589552e-01
 -3.0959800e-01 -1.5416129e-01  2.7208561e-01  5.0642779e-03
 -2.6770777e-01  2.1592569e-01 -3.3541713e-02  1.1223425e+00
 -3.9269027e-01  3.6485858e-02 -8.1924915e-02 -1.7019695e-01
  2.4833572e+00  3.9016573e+00  1.2900248e+00 -6.5062008e+00
 -4.6695757e-01 -3.8131270e-01 -1.1206886e-01  2.1549444e-01
  5.2765697e-01 -7.6653761e-01 -1.8581225e-02  3.8375631e-01
  1.2131414e+00 -1.8595724e-01  2.9856371e-02 -2.7911323e-01
  3.9003804e-01 -4.1592166e-02  1.2728292e+00  4.5620196e-02
 -5.1188892e-01  2.0722735e-01  2.4219345e-01 -1.4275023e+00
 -9.4261684e-02 -1.2881623e-02  6.5569061e+01 -9.8807037e-02
  2.5089438e+00  2.0792452e-01  2.7726942e-01  4.5039007e-01
  8.6174107e-01 -3.8266022e-02 -1.4857878e-01  8.8324833e-01
  2.0395454e+01 -1.4209770e+01 -1.9343941e-03 -5.1757270e-01
 -3.6294188e+00  7.6015190e+01 -2.7329292e+00  3.0742023e-02
  8.3408020e-02 -1.0298911e+00  1.2696408e-01 -6.4419910e-02
 -1.4204494e+00  9.0958792e-01 -2.1804025e+00  1.2585273e+00
  7.5572938e-02  1.2661310e-01  3.3641851e-01  2.7660280e-02
  6.7636669e-02  3.0537522e-01 -4.6848431e+00  3.2072671e-02
 -1.6828037e+01  6.6908402e+00  2.3647863e+01 -2.0259441e-01
  1.4419724e-01  7.5438142e-01 -1.3333425e-01 -8.0228508e-02]
[ 2.5773838e+00 -3.8728449e+00  1.0593605e+00 -4.5750779e-01
 -5.7346612e-01  1.8888602e+00  2.4176555e+00 -2.3639953e+00
  3.2214432e+00  1.3885837e+00 -1.5415723e+00  1.7566538e+00
  2.7078688e+00  7.7479362e-01  1.7452633e-01 -9.1400099e+00
  2.6728811e+00 -6.9005772e-02 -1.4249232e-01 -3.4056404e+00
  5.5906844e-01 -6.3296944e-01  1.6787878e+00  1.1933411e+00
  2.6216516e+00 -7.8688514e-01  4.7849331e+00  2.1496599e+00
  2.8707309e+00 -3.2592658e-02 -7.9531120e-03  8.1535047e-01
  3.8335104e+00  1.2494073e+01  3.0303862e+00  2.7731180e+00
  1.4530030e+00  2.5039670e+00  3.0598259e+00 -1.3920619e-01
 -1.5248922e-01 -9.1080379e-01 -7.5270385e-02  3.3755095e+00
  7.1133935e-01  7.7584773e-01 -1.3340645e+00 -1.5354176e-01
  6.6518321e+00  4.6544156e+00 -1.3688192e-02 -2.9180534e-02
  2.6332116e+00  3.4306939e+00  2.2200170e+00  3.7240863e+00
  3.1019762e+00  4.8389707e+00  4.4416590e+00 -1.8250063e-01
  9.3923964e-02  1.3983780e+00 -1.5681510e+00  9.7568560e-01
  1.4962503e+00  5.5006200e-01  1.1588008e+00  1.5280161e+00
 -3.6750090e+00 -7.2546190e-01 -3.1177846e-03  1.7527121e-01
  4.9764268e-02  2.5359993e+00  1.0576194e-01 -1.7380483e-02
 -6.8015499e+00  9.0728766e-01  3.0679748e+00  2.7820852e+00
  1.8401593e+00  2.5154049e+00 -3.2135418e-01  2.7514142e-01
  6.4442263e+00 -1.6870298e+00 -9.6476583e+00  1.2121221e+00
  7.3225503e-03  1.4029224e+00 -4.7218820e-01 -9.7012491e+00
 -1.0838044e+00  6.6724195e+00  2.0924938e+00  1.4704308e-01
 -3.3213871e+00  6.9646633e-01 -1.6975545e+00 -1.9401240e-01]
[ 2.4624640e-01  6.8707242e+00  7.6324663e+00 -3.4140854e+00
  4.5734181e+00  8.2692012e-02  1.4282870e+00  3.4553051e+00
  2.5757337e-01  2.1095090e+00 -4.5909891e+00  5.7350045e-01
  3.4649363e-01 -2.0324948e+00  3.7630372e+00 -4.2437585e-03
 -2.4540971e-01 -1.3387301e+00 -5.2544641e-01  2.8055837e+00
 -1.9353034e+00 -5.8002806e-01 -2.2247529e+00  2.5665541e+00
  1.4596089e+00  1.2686189e+00 -9.6869154e+00  4.6666007e+00
  1.3384524e-01 -1.2531769e-01 -1.4110519e+00  1.1712624e+00
  2.7150612e+00 -2.0509747e+01 -6.5282303e-01  1.2289722e+01
  6.3534179e+00 -6.4475507e-02 -1.4616441e+00  1.3700026e+00
  3.0690679e-01 -6.6185766e-01  7.3988867e-01  3.7837267e+00
 -4.7627921e+00  1.9963059e-01  3.3264978e+00  1.5542576e+00
 -1.0443238e+01 -1.2894635e+00  2.3024426e-01 -2.0843759e-01
  2.0715003e-01  5.4013886e+00 -2.2887919e+00 -1.9936290e+00
  5.3799516e-01 -1.5575708e+00  9.0840569e+00  4.9881622e-01
  4.0735438e-01  3.0064011e-01 -1.0286796e+01  1.2054034e+00
 -2.1878622e+00 -7.9875582e-01  3.4843955e+00 -1.6417249e+00
 -4.3925757e+00  5.7916059e+00  3.1714766e+00  5.4090250e-01
  1.3470941e+00 -5.3488415e-01  1.0242509e+00 -2.9862899e-01
  3.5673628e+00  7.9911751e-01  1.0233105e+01 -2.1970396e+00
 -1.1078493e+01 -2.9052032e-02  7.3214221e-01 -5.6695590e+00
 -2.5394382e+00  4.6925492e+00 -2.5976107e+00  1.3118329e+00
 -2.3846972e-01 -3.8648003e-01  1.0695581e+00  5.6331081e+00
  6.7141619e+00  3.1879714e+00  1.3787286e+00  3.2309835e+00
 -9.5302206e-01  2.8380053e+00  2.3363736e+00  5.0996838e+00]
[  6.7656183    0.12471344  -4.204259    -2.1731362    3.8291986
   6.5380297   -0.99229056   1.5692922    6.489191     2.8773556
   0.73531556   6.7783833    6.3814635    3.982861     1.6018766
  12.243446     4.164764     4.1611886    1.2178723    1.5218755
   1.8478959    1.2936854    5.978343     2.589326     3.9552035
  -2.108895    -1.225688     1.8596393    7.2239146    0.04186044
   0.18678331   3.1644707    3.4787395   14.108695     0.5568984
   7.4127727    3.0206335    4.9575915    3.5946047    3.2380807
  -0.0633297    2.6915295   -0.2011525    5.4397764    3.7543366
   0.17638233   2.3578136   -0.28787506   6.1965346   -2.3323417
  -0.01679444   0.0710363    5.8959246    4.232775     3.4835372
   4.4048       7.3256516   -3.573336     8.4844885    0.8110235
   5.390044     1.0919311    3.353715     5.667156     0.46538913
   1.341187     2.0490065    1.2528288   -1.5370257    4.2304435
   2.6544518   -0.5995987    0.5130162    4.0585794   -0.20079082
   0.09573748   0.9589637    5.2233033    5.9766273    3.466416
   0.22079965   5.4889235    0.06904826   0.08285989   5.4346595
   2.0754173    3.388192     0.88560617  -0.0899737   -0.62699467
   1.3856201    4.3695087    2.001463     9.69255     -0.07295851
  -0.7424385   -0.33330095   5.4081616    1.763715   -12.19869   ]
[ 1.68667406e-01  1.67154282e-01  9.07928199e-02  3.06615978e-02
 -1.93593558e-02 -2.68219173e-01 -2.56690174e-01 -3.26125193e+00
  1.89019099e-01 -1.97883695e-02 -9.60134602e+00  1.28419727e-01
  5.09500317e-02  3.48083287e-01 -8.06313604e-02  1.56193972e-01
 -4.12263647e-02 -1.38669765e+00  3.26134749e-02 -1.67747086e-03
  1.45107344e-01 -3.73380393e-01 -1.13770366e-01 -3.16876955e-02
 -1.09806530e-01 -2.43040994e-02 -2.18824875e-02 -1.26929712e+00
  6.02450222e-02  9.62248165e-03  8.40796757e+00  1.34686485e-01
 -2.82821155e+00  4.12389129e-01 -3.43198133e+00  4.66767836e+00
  7.76566803e-01  7.54026845e-02  1.00455485e-01 -3.54996979e-01
 -6.04145241e+00  3.04135419e-02 -3.77651118e-02 -6.05055928e-01
 -1.00138657e-01  1.56659316e-02  1.15269519e-01 -1.99962187e+00
 -5.29050484e+01  1.11149088e-01 -1.27190514e+01 -9.33055058e-02
  1.49507195e-01  2.82687694e-01  1.03080511e+00  6.45846501e-02
 -7.47610554e-02 -4.86725941e-03 -4.41693115e+00  6.65886179e-02
 -7.82270372e-01  1.40069753e-01  2.91164130e-01  3.60108793e-01
  4.25127649e+00  8.41650143e-02 -1.13276362e+00  3.80491924e+00
 -1.82575655e+00  2.05634761e+00  1.82361379e-01 -5.94914138e-01
 -2.67400837e+00 -2.54075933e+00 -4.45025377e-02 -6.43467978e-02
  4.10307258e-01 -2.24637842e+00  1.97385478e+00 -3.56153063e-02
  6.06858492e-01  6.26988709e-02 -3.27162719e+00  8.83492756e+00
  1.30797875e+00 -9.30176675e-02  9.69487801e-02 -8.84346571e-03
  8.40557671e+00  8.92328072e+00 -8.25787163e+00 -1.36619164e-02
  1.26907006e-01  8.23683500e-01 -2.00739441e+01 -7.31722534e-01
 -7.12005645e-02  1.26466930e-01  7.79426992e-02 -7.96229169e-02]
[ 6.0680814e+00 -1.3360885e+00 -7.6095786e+00 -5.5353498e+00
  4.7080331e+00  4.4393606e+00  3.2569602e+00  1.0597561e-01
  9.4371023e+00 -3.6581190e+00 -4.2919292e+00  4.4267726e+00
  6.4508686e+00 -5.3510928e+00  1.6667435e+00 -1.3470249e+00
  1.7684311e+00  5.1048189e-01 -3.2864666e+00 -3.2602060e-01
 -5.3266950e+00 -7.8672509e+00  4.1182961e+00 -2.7153516e+00
  1.5028919e+00  1.7896059e+01 -8.4655309e-01  3.2332721e+00
  4.5342727e+00 -3.0636731e-01 -2.3298539e-01 -7.3829490e-01
  2.4086781e+00 -8.6557198e+00 -6.9469914e+00 -2.8502157e+00
  8.4350147e+00  2.6032503e+00  2.6998370e+00  2.3185954e+00
 -2.0930557e-01 -2.9924271e-01  3.6516550e-01  4.6935005e+00
  5.7716136e+00 -2.8019695e+00  1.7052338e-01  1.3253205e+00
  6.2126217e+00 -8.0266505e-01  9.4862491e-01 -2.8408572e-01
  5.6308050e+00  5.1740832e+00  1.0039353e+01  9.4389504e-01
  4.8800068e+00  5.4399675e-01  2.3183432e+00 -3.0043314e+00
 -2.4654036e+00 -3.5099718e-01 -6.0739932e+00  5.3156490e+00
  1.8834151e+00 -4.2531533e+00  5.7609873e+00  5.5675989e-01
  1.0633913e+00 -4.4236803e-01 -1.7404450e+00 -1.4949994e+00
  4.7508121e-01  2.6752088e+00 -8.2842922e-01 -1.3528600e-01
 -7.5982730e-03 -5.2394676e+00  1.1787385e+00  1.5193841e+00
  3.6171710e+00  4.3761754e+00  5.0879943e-01 -9.6700186e-01
  6.5268321e+00 -2.9182496e+00  8.7586299e-02 -7.4876776e+00
  6.6887593e-01  3.8918612e+00  8.3214515e-01 -1.7430184e+00
  1.9306073e+00 -5.7794356e+00 -2.7601945e+00  5.2402234e-01
 -4.3573701e-01  8.3318224e+00 -5.2818871e-01 -9.6279402e+00]
[-1.39912815e+01 -1.24395156e+00 -3.67953968e+00 -9.33216661e-02
  7.68411207e+00 -1.94589329e+01 -1.93213975e+00  5.38940001e+00
 -7.26574802e+00 -4.25408268e+00 -3.35112119e+00 -2.22511978e+01
 -6.81732893e+00 -2.74714065e+00 -2.76509323e+01 -5.82124901e+00
 -4.41790056e+00 -1.00351782e+01 -3.54774499e+00 -6.66049290e+00
 -6.60679102e+00 -1.51941538e+00 -1.03643293e+01 -3.76978922e+00
  2.23939056e+01  4.55554914e+00  3.60368311e-01  2.83803368e+00
 -7.81637573e+00 -2.00754821e-01 -6.31754228e-04  1.37963572e+01
  7.87047386e+00  4.91942406e+00  3.42969513e+00  3.11901054e+01
  1.40568793e+00 -6.18383312e+00 -2.91968155e+00  1.70908070e+01
 -1.02698505e+00 -8.13122082e+00  2.28161246e-01  3.14690895e+01
  1.36056900e+01 -1.88285995e+00  4.13508654e+00  9.02949095e-01
  1.45159760e+01 -4.75158787e+00 -3.08833146e+00 -1.36384472e-01
 -8.80980873e+00 -3.95568252e-01 -5.92339754e+00  4.04068222e+01
 -3.23809958e+00 -8.68142918e-02  9.15582371e+00 -2.07321024e+00
 -3.68740273e+01 -2.31065345e+00 -4.47790289e+00 -9.86581707e+00
 -1.70460153e+00 -1.85430443e+00  7.37662125e+00 -2.35481977e+00
  1.52786226e+01  9.83229733e+00  8.32069397e+00  1.78469852e-01
 -3.03489399e+00  5.05861521e+00  2.34920287e+00 -7.62757957e-02
  3.69093251e+00 -6.01080894e+00  9.92189884e+00 -1.38324618e+00
 -1.07456481e+00 -9.21371651e+00 -1.17803526e+00  1.02371049e+00
  2.77979541e+00 -9.23587233e-02  1.11974669e+00 -4.63543844e+00
  7.22606108e-02 -9.30598140e-01 -3.61170435e+00 -2.86438107e+00
 -2.44065499e+00  1.50586872e+01 -1.65478611e+00  7.07431018e-01
  8.74484158e+00  1.12146053e+01 -4.58910561e+00  1.21543862e-01]
[ -5.830272     1.6766689    7.392294     3.0786295    0.47430712
  -5.9528003   -5.9835505    0.43756902  -3.805986     5.4229555
  -1.1189514   -7.01282     -3.5113566    4.406691     0.70072114
  -0.08420654  -0.083039     0.9176392    2.2152953    0.29855394
   0.95342594   6.032998    -6.2302117    5.121163    -1.6050369
  -1.1253185    2.8322203   -5.6164927   -4.6768165   -0.51699483
  -4.5194607   -0.15560164  -3.6710958   -6.8683157    4.271448
   3.9157467   -7.027596    -1.218383     1.9057052   -1.5030074
   0.5049834   -2.6486444   -5.7044954   -4.9551697   -3.8644714
   1.9527658    1.0667659   -4.3792024  -11.650252     1.2001874
  -0.43773735  -0.49518633  -3.1433165   -5.0428486   -2.2404194
  -2.3829095   -3.6631894   -1.3593844   -9.113557     2.163386
   3.0686498    0.9739989    6.444498    -6.783942    -3.4381382
   1.4784777   -3.6480625   -3.2500656   -9.908305     1.1358873
   0.20235819   0.8021162   -1.8976972   -2.290242    -4.512107
  -0.6425773    0.8852766    4.7473435   -2.2252326    3.2829938
  -3.37424     -2.1621263   -1.7594129   -0.3443699  -11.994741
   3.4240122   -2.0058205    1.7492427   -3.043675    -0.6280679
  -1.8801821    1.0967644   -1.0578861    1.9266496    3.2284553
  -4.529763    -7.194584    -0.38459724   0.76594484  -2.511072  ]
layer 7 Activation
elu
layer 8 Dropout
layer 9 Dense
100 1
[-0.13935426]
[0.04013709]
[0.11256503]
[-0.27952367]
[1.4594575]
[-0.10965503]
[0.02161385]
[1.3093345]
[-0.19508338]
[-1.1825397]
[-1.2452279]
[-0.0557209]
[-0.2391465]
[0.13000911]
[0.17413126]
[-0.04255916]
[-0.2796993]
[0.40009913]
[0.29345238]
[1.2613337]
[-0.15268989]
[0.22025579]
[-0.03380931]
[-1.3628098]
[0.0863583]
[-0.09644204]
[-0.44551528]
[0.01089726]
[-0.13529979]
[-0.00011241]
[-1.223546]
[0.11175091]
[-0.16319995]
[0.01572732]
[-0.6637865]
[-0.1509743]
[-1.4993207]
[-0.25275943]
[-0.35711992]
[0.9183996]
[-0.01738668]
[0.10562587]
[-0.16938283]
[0.06576306]
[0.04198775]
[0.23843144]
[1.0447633]
[0.04550191]
[0.00340035]
[-0.28073385]
[-0.03775949]
[0.00054761]
[-0.23660737]
[-0.06452809]
[-0.00753608]
[0.06883406]
[-0.18389393]
[-0.65475345]
[-0.0079683]
[0.2995009]
[0.43586123]
[0.23312315]
[0.06086963]
[-0.02523714]
[-0.006035]
[0.22051792]
[-0.07452479]
[-1.3230281]
[0.39562026]
[-0.0682674]
[0.1623084]
[-0.01203436]
[-1.8129799]
[0.05803043]
[0.04240177]
[0.00116717]
[0.8904643]
[0.62425596]
[-0.00529902]
[-0.46457627]
[-0.35778022]
[-0.2103499]
[-1.0159514]
[-0.02123557]
[0.1510663]
[0.68656]
[0.07995559]
[-0.19401336]
[-0.02387855]
[-0.01586811]
[-0.06045302]
[1.2242689]
[1.4627846]
[-0.21368653]
[-0.03403639]
[0.01915559]
[0.5266866]
[0.12328509]
[1.5090613]
[0.15177949]
[-0.6549147]
