layers 10
layer 0 Dense
7 7
[-4.5732860e-02 -2.9422806e-03  1.2203736e-03  1.7535774e+00
  7.2770583e-04 -2.2307580e-02 -1.1270164e-01]
[ 1.8124082e+00 -6.5402754e-02  1.6347773e-03 -1.3277153e-02
 -2.3783745e-02  8.7506860e-02  6.7031491e-01]
[-0.06908128  0.37224007  0.0383794   0.01039689  0.02258493 -0.03494369
 -0.12144631]
[-0.24070577 -0.8657707   0.64853144 -0.05364057  0.91794413  0.20275941
  3.6242223 ]
[ 0.38457233 -2.537957    1.9093415  -0.05851879  5.2042165   0.07137672
  0.8157931 ]
[ 9.4754796e-04 -2.8115273e-02 -6.5471787e+00 -1.0600681e-03
  1.0516035e-03  3.2907454e-03  7.4916468e-03]
[-2.3732807e-03  5.3253051e-02 -4.5650895e-03 -1.8697085e-02
 -2.2525825e-03 -5.0149879e+00 -4.2777594e-02]
[-0.33026582  1.9864715  -1.6956593   0.01913062 -3.2788324   4.7527585
 -0.43431643]
layer 1 Activation
elu
layer 2 Dropout
layer 3 Dense
7 26
[ 1.52888167e+00  6.43728243e-04 -1.11867793e-01 -1.88330203e-01
 -2.15308809e+00 -1.24793224e-01  2.64506125e+00 -2.16995168e+00
 -4.32228059e-01 -8.88156146e-03 -4.33492474e-03  2.17573449e-01
 -4.07617360e-01 -3.09033155e-01  5.08164009e-03  1.78522002e-02
  1.00667262e+00 -1.58718869e-01 -8.47799778e-02  9.45380554e-02
  4.50780034e-01 -5.20471344e-03  2.94275135e-01  6.55840635e-02
 -3.30923609e-02  5.23306251e-01]
[-0.08545104 -0.02250259  0.37957668  1.0271938  -0.29493225  0.08612922
  0.45965555 -0.10829124  0.3322656  -0.00769208 -0.00626698  0.6314283
  0.07520097 -0.21287331  0.00429733 -0.25955406 -0.69550484  0.18316902
  1.5933442  -0.23581037  0.21829896 -0.00392009  0.8884758  -0.03818278
  0.11466981 -0.65109354]
[-5.8374405e-03 -5.4818821e+00 -3.0553624e-01  4.4292602e-01
  6.7294680e-02  2.3919644e+00 -6.2480226e-02  4.1316846e-01
 -8.7820619e-01 -3.7181508e-02 -2.0317037e-03 -1.6805713e+00
  3.1511989e-01  1.0530078e+00 -4.8493985e-03  1.3122116e-01
  5.8252856e-02  6.2933433e-01 -3.2792398e-01 -5.1142551e-02
  4.4429138e-02 -8.3771930e-04 -1.1223010e+00  2.5369201e+00
  1.2807235e-02 -1.0063601e+00]
[ 8.6539008e-02  2.8615405e-03 -9.6927825e-03  4.1950814e-02
 -5.5454690e-02  1.2849548e-01  7.6848619e-02 -5.7283051e-02
  5.8255196e-02  1.8241177e-01 -2.8151791e-03 -7.2307140e-02
  7.2110511e-02  4.7405969e-02 -4.6999548e-03 -2.1761265e-02
 -1.5423258e-01  3.6017511e-02  2.8618904e-02 -1.2297892e-02
 -4.2448444e+00 -3.4700255e-03 -2.6267858e-02 -8.0634076e-03
 -5.5472760e+00 -7.9536952e-02]
[ 6.9945657e-01  5.2072513e-01 -2.1114857e+00 -2.7427342e+00
  1.7644837e-01  4.9153633e+00  4.7790699e-02 -3.9851596e+00
  1.3554275e-01 -2.7961902e-02  8.5524691e-05 -1.6027122e+00
  1.5572366e+00 -1.7286026e+00  3.3211578e-03 -1.0525036e-01
 -5.7387495e-01 -8.3113317e+00  1.2328461e+00  4.0785861e+00
 -1.2125255e-01  3.3068901e-04  2.6256571e+00 -3.8878819e-01
  7.0237310e-04 -4.3208370e-01]
[-1.18228095e-02 -6.77494099e-04 -1.21527426e-01  1.44124171e-02
 -3.88743426e-03  1.06588721e+00  2.78902939e-04  1.51221817e-02
 -2.73612961e-02  3.08973156e-03  5.55661740e-04  2.58180290e-01
 -1.26680760e-02 -5.28252684e-03  2.67672935e-03 -3.64055634e+00
  2.03487556e-02  7.45066348e-03  6.32404303e-03 -5.34418691e-03
  1.98224746e-02 -1.21135789e-03 -1.21749237e-01  1.17850518e-02
  2.05106325e-02  1.66072380e-02]
[-1.6776171e-01  2.9559005e-02 -1.1150671e-01  5.8268112e-01
 -2.8088480e-01  1.8133371e+00  2.8579661e-01  3.9277238e-01
  1.1548430e+00  2.2468390e-03  2.1045706e-03 -1.3027090e+00
  1.2318002e+00  6.8683529e-01  4.7613219e-03  3.8713422e-01
 -2.7953935e+00  6.8216443e-01  3.7536824e-01 -2.0689848e-01
  1.5746938e-01 -1.1033951e-03 -4.1477489e-01 -1.7402221e-01
 -5.1930111e-02 -1.5156580e+00]
[-8.3312553e-01 -4.9963837e+00  2.5115559e+00 -3.6869676e+00
  9.5531261e-01  4.3405862e+00 -2.0436318e+00 -2.9523036e+00
 -4.0255408e+00 -1.8696217e-01 -4.7322228e-03  2.8904338e+00
 -6.2198365e-01 -1.3793173e+00  3.4858470e-03 -8.4895462e-01
  1.3845307e+00 -8.0354509e+00 -1.7184089e+00  1.6536223e-02
  1.9657758e-01 -6.0175834e-03  2.1787131e+00  2.1885908e+00
 -1.3422471e-01  8.6436677e-01]
layer 4 Activation
elu
layer 5 Dropout
layer 6 Dense
26 100
[-3.54010463e-01  4.38471705e-01  4.81384802e+00 -3.11900340e-02
  2.31389832e-02  7.71109164e-01 -3.88499945e-01  3.96938622e-03
 -2.32293427e-01  2.35951319e-03 -1.49161341e-02  9.15619209e-02
 -4.71288300e+00  1.56072402e+00 -3.67612273e-01 -3.83089930e-01
 -1.09442651e+00  3.11145365e-01  1.22681796e-03  2.04285622e+00
  1.50487411e+00 -7.15140939e-01 -4.21610884e-02  4.55400161e-03
  2.95632184e-01 -7.97411621e-01  8.83718804e-02  1.18134201e-01
 -2.55911857e-01  3.32006478e+00 -6.46077871e+00 -1.97758719e-01
  6.19125843e-01  1.96345337e-03  5.65534756e-02  9.74710509e-02
  2.90904492e-01  7.88506269e-01  3.84188704e-02 -1.28207958e+00
 -1.09170400e-01 -9.84081253e-02  4.68977727e-02  2.30202913e-01
  1.20524764e-02 -2.78024465e-01  4.85879444e-02 -5.91435075e-01
  5.14087856e-01  9.13705900e-02  2.95584975e-03  5.83280949e-03
  1.64960015e+00 -2.34012395e-01  2.54491018e-03 -2.76930833e+00
 -1.19920999e-01 -5.97900927e-01 -9.65327770e-02 -1.73689634e-01
  4.59729843e-02 -9.44438949e-02  3.89270157e-01  1.01575680e-01
 -1.52825737e+00 -5.50253838e-02 -5.30790329e-01 -6.01234555e-01
 -1.81469297e+00  2.11370373e+00 -2.78983665e+00  1.44332007e-01
 -1.02795139e-02 -2.43509308e-01  7.26948455e-02 -3.33806753e+00
  8.76272842e-02  1.17426179e-01 -1.04915869e+00  1.66288670e-03
  2.27025723e+00 -1.62753072e-02 -7.56928101e-02 -1.24679066e-01
  8.00137315e-03 -4.64080960e-01 -5.90215884e-02 -1.40007496e-01
  2.85575151e-01  1.39412321e-02  4.85081375e-02 -3.38688828e-02
 -2.16804695e+00  8.05526897e-02 -1.25438645e-01  1.69222581e-03
 -6.49144220e+00  9.89874780e-01 -2.72267580e-01  4.35108552e-03]
[ 1.85643375e-01  5.10802031e-01 -2.14582339e-01 -2.15497017e-01
 -2.59926207e-02  2.41022900e-01 -2.83861428e-01 -8.85958504e-03
  3.54350358e-01 -3.70866880e-02 -1.57621782e-02  2.65898019e-01
 -4.97840214e+00  2.21662417e-01 -7.39800856e-02 -1.93099752e-01
  3.79434466e-01 -3.60145211e-01 -2.66780239e-03  1.19023090e-02
 -8.79527509e-01 -1.13622211e-01 -3.70416790e-01  1.33894095e-02
  3.66433412e-01 -2.15404779e-02 -2.00855091e-01 -7.89696395e-01
 -2.58149445e-01 -1.45699948e-01  2.49362420e-02  2.77063340e-01
 -1.08470321e+00 -2.43272930e-02 -1.63489265e+01 -3.82963806e-01
  2.33550981e-01 -7.08042264e-01 -4.45896357e-01 -3.65030468e-01
 -5.34109890e-01  2.72242844e-01 -3.02155554e-01 -5.31901836e+00
 -2.93131098e-02 -4.93279397e-02 -6.98803902e+00 -4.25846875e-01
 -1.31313354e-01 -1.57273605e-01  1.20509043e-02 -3.55754457e-02
  3.82376239e-02  4.10445303e-01 -8.20342358e-03 -2.33401522e-01
 -3.23820084e-01 -7.97464466e+00 -7.09797144e-01 -2.79776603e-01
  2.45370537e-01 -1.98237643e-01 -4.89666432e-01 -5.53506725e-02
 -4.36933376e-02 -2.42265165e-01  2.33984008e-01 -8.87501016e-02
  1.74544588e-01  5.16852736e-02  3.35762769e-01 -5.25416255e-01
  9.64454096e-03 -1.61769345e-01 -4.49678749e-01  2.18833182e-02
  5.66346236e-02 -2.12118581e-01 -7.03361750e-01 -1.30182430e-02
  2.39185821e-02  5.55568514e-03  1.30239296e+00 -2.65297008e+00
 -8.14468972e-03 -1.00116420e+00 -2.26453617e-01  8.11093986e-01
  6.08056009e-01 -2.02769171e-02 -1.23118468e-01 -5.19206941e-01
  6.00526631e-01 -1.42726421e-01 -6.77186191e-01  2.25262189e+00
  2.11378932e-02 -3.26942146e-01 -3.21708828e-01 -4.14483808e-03]
[-2.9666283e+00 -2.6266615e+00  5.7047027e-01 -8.2592577e-01
  3.8058095e-02  1.2554882e+00 -1.0025351e+00  3.5923444e-02
 -9.8167443e-01  2.9982908e-02  1.4050660e-02 -3.7024722e+00
  7.9401450e+00  2.9468650e-01 -7.5594741e-01 -8.1949019e-01
 -2.4742999e+00 -2.8663239e-01  3.4599740e-02 -1.2681781e-01
 -9.3552217e+00 -2.6110284e+00 -1.7877027e+00  4.1379113e-02
 -3.0451447e-01  3.1041127e-01 -9.9441868e-01  2.0675775e-02
 -6.6880560e+00  8.4644127e-01 -1.1010662e+00 -1.0626566e+00
 -1.1550391e+00  2.6752701e-02 -4.2043152e-01  1.2335776e+00
 -2.9587650e+00 -7.4054351e+00  4.1391751e-01 -1.8746237e+00
 -1.6777607e+00 -6.2296252e+00 -3.6053723e-01 -9.1450338e+00
  2.0700328e-02  3.0893907e-01 -1.2973742e+00 -1.4442528e+00
 -1.5437577e+00 -5.6060958e-01  2.6529673e-02  3.8534652e-02
  1.3465934e+00 -1.0455295e+01 -4.2720541e-02 -9.9291974e-01
 -3.9953861e+00 -2.7035668e+00 -2.8707466e+00 -1.7800447e+00
 -5.0643477e+00 -1.8693491e+01  1.2014280e-01 -1.6698439e-01
 -1.6041857e+00 -2.3873831e-01 -1.5447640e+01  2.3441273e-01
 -2.0932851e+00  1.8603013e-01 -1.6405876e+00 -6.7587078e-01
  8.7859202e-03  3.3515710e-01  1.9300854e+00 -9.9735208e-02
 -1.0829799e+00  4.4983000e-01  6.2186103e-02  4.9300846e-02
  3.4913570e-01 -8.4557803e-03 -1.1642089e+00 -9.6620941e-01
  5.6870855e-02 -4.4799781e+00 -6.1248654e-01 -1.9223025e+00
 -1.6886859e+00  3.2377910e-02  1.6305112e+00 -2.1006033e+00
  6.1218303e-01 -4.5835626e-01 -3.0090063e+00  8.4294671e-01
 -3.9307280e+00 -3.9700930e+00  9.7315651e-01  1.6900748e-02]
[ 1.8008379e+00 -9.4190496e-01 -2.4337444e+00 -9.4140179e-02
  2.0930977e-03 -1.3466529e+00 -2.5846475e-01  1.5252804e-02
  2.4149196e+00  9.8530576e-03 -2.2669548e-02  2.1996391e+00
 -6.2833924e+00  2.7509074e+00 -2.7729671e+00  3.2604752e+00
 -4.9085574e+00  8.3466667e-01 -5.5614728e-05  2.6690445e+00
 -9.6881407e-01 -1.7708179e+01 -6.7590773e-01 -3.5350688e-02
  4.6543625e-01 -6.0455225e-02  2.1267281e+00 -1.1387939e-01
 -2.8605726e+00 -4.7362331e-01  3.3797474e+00  2.1147323e+00
 -1.2942191e+00  2.8611487e-02  1.9634765e-02  3.0006388e-01
  1.5045611e+00  6.1767912e-01  8.8906229e-01  2.3879659e+00
 -1.1583906e+00  3.0724781e+00  1.4584229e+00  3.0277997e-01
  7.2599696e-03 -6.3250524e-01  3.1564483e-01  2.3789008e+00
  7.3265147e-01 -2.4463305e-01 -4.4023771e-02  9.9748680e-03
 -4.6165571e-02  3.3507905e+00  5.4568645e-02  3.3843472e+00
 -1.4385117e+00 -6.8378355e-04 -5.2067499e+00  7.7548826e-01
  2.4261260e+00  2.4675090e+00  1.4802215e+00 -3.1924397e-01
  8.6070687e-01 -5.5525303e-01  3.0747254e+00  1.9289771e+00
  4.6862588e+00  1.9415311e+00  3.7056906e+00  1.7452383e-01
 -4.0374666e-02 -1.1734390e+00  4.9777475e-01  3.2665345e-01
 -1.5941969e+00  1.7298214e+00 -2.7582033e+00  1.4174398e-02
 -2.0623596e+00 -1.6574718e-02 -1.2480689e+00 -3.6877039e-01
  1.8336913e-02 -1.6406147e+00 -3.9240193e-01  2.5071144e+00
 -2.4046125e-02  1.8143507e-02  1.6742403e-02 -1.2363329e+00
  2.4347837e+00  3.8973397e-01 -3.3753850e+00  1.4612238e+00
  3.4542408e+00 -1.9905478e+00  2.5719635e+00 -3.3443939e-02]
[ 1.78234875e-01  2.52663828e-02 -1.67141342e+00  7.87645802e-02
  1.45165892e-02 -4.15619421e+00 -1.81134254e-01 -1.69875834e-03
  1.76485702e-01 -7.30489474e-03 -2.43195873e-02  2.70276964e-01
 -8.50097954e-01  6.79861784e+00 -4.46086079e-01 -1.58439025e-01
 -1.62094042e-01  3.57223958e-01  2.78225052e-03  2.32726741e+00
  5.26447475e-01 -7.79941753e-02  6.48743138e-02 -4.97145625e-03
  2.37673268e-01  6.78780985e+00 -1.90414727e+00  7.74303377e-02
 -1.74478412e-01  5.27577341e-01  5.93257618e+00  2.25212574e-01
 -1.75609142e-01  5.73914079e-03  4.39009108e-02 -9.58571181e-05
  2.82685906e-01  2.94333994e-01 -1.56830087e-01  3.28589392e+00
  8.54448006e-02  2.65401244e-01 -8.09724852e-02  3.24408680e-01
  1.09695131e-02  1.15571089e-01  3.47670633e-03 -1.06210208e+00
 -2.76316196e-01  3.26931886e-02 -1.03913881e-02 -4.02584393e-03
 -5.13912153e+00  3.09705943e-01  2.02473141e-02 -1.32466626e+00
 -3.48760843e-01 -4.12041873e-01 -1.45140991e-01  7.18483829e+00
  3.00619006e-01  7.10429788e-01 -8.66459608e-02 -1.46964625e-01
  2.55827725e-01  8.02621767e-02  3.37329715e-01  1.78621233e-01
  2.86122322e+00  1.74738538e+00 -1.55721128e+00 -2.24546269e-02
 -2.54725032e-02  2.52020448e-01  1.16902165e-01  2.21936554e-01
  2.33965233e-01 -4.06865329e-02 -3.96946454e+00 -8.92822631e-04
 -4.07596684e+00 -1.75343861e-03  1.65829644e-01 -3.28046471e-01
 -1.33048010e-03 -3.82248938e-01  4.55415025e-02  1.02082238e-01
  3.03941548e-01  4.26099403e-03  5.01468740e-02  4.26297374e-02
 -6.07071161e-01  5.81640452e-02 -7.86850229e-02  2.23720026e+00
  2.39688015e+00  3.78527433e-01  2.03128862e+00 -7.96116702e-03]
[ 1.35110680e-03 -1.43879697e-01 -1.83716342e-01  3.79312783e-02
  5.01858629e-03  5.05220532e-01 -2.81408358e+00  8.30540992e-03
  1.94038644e-01  5.85512863e-03 -1.71336788e-03 -1.18784368e-01
 -8.98488808e+00 -7.48425201e-02 -2.54788637e-01 -5.32834947e-01
 -2.70025897e+00  3.90054524e-01  1.26547292e-02 -2.95710355e-01
 -1.45896721e+00 -5.41985559e+00 -2.56643087e-01  5.70462458e-03
  3.45488131e-01  3.80423591e-02 -6.77469512e-03  4.63319987e-01
 -8.96156311e-01 -7.00884163e-02 -5.25473595e-01  5.49331129e-01
 -4.49925804e+00  6.37470046e-03  1.63819924e-01 -1.79301631e+00
 -1.62340909e-01 -8.26139867e-01 -3.01523304e+00 -9.37388539e-01
 -1.56044781e-01 -4.40012962e-01 -5.24821711e+00 -1.09569466e+00
  7.02861138e-03  3.91375631e-01 -3.90446275e-01 -1.17940927e+00
 -8.22312951e-01 -1.01420507e-02  2.04373314e-03  6.50806399e-03
  3.02864254e-01 -8.73770058e-01 -2.72008940e-03 -8.07825804e-01
 -4.49355870e-01 -7.40490139e-01 -8.29586208e-01 -9.06181633e-01
 -2.83144087e-01 -2.36306882e+00 -3.86995506e+00 -8.36524069e-02
 -2.75438011e-01  1.48084253e-01 -1.47212279e+00  4.03611809e-01
 -1.10874069e+00 -2.18628317e-01 -1.37256375e-02 -6.15586117e-02
 -3.47938691e-03  6.96997285e-01 -1.33520341e+00 -4.22633812e-03
  1.98331684e-01  2.67446280e-01  2.75849104e-01  1.16348285e-02
  5.66865444e-01 -4.58711945e-03 -1.01446643e-01 -3.55769157e-01
  1.48619888e-02 -1.38848948e+00 -1.17460769e-02 -1.64622664e-01
 -9.47600454e-02  8.53025168e-03 -1.21770656e+00 -3.60852182e-01
  3.88905346e-01 -1.27673531e-02 -6.02355182e-01  7.80448854e-01
 -5.24873734e-01  6.02438927e-01 -1.31098366e+00 -2.74605723e-03]
[-3.0510642e-02 -4.5237797e-01 -1.3913180e+01 -1.1068299e-01
  7.8931957e-04 -1.6107423e+00  2.4682695e-01 -8.9792749e-03
 -4.0276524e-02  5.7124980e-03  1.0582012e-03 -2.2218576e-01
  4.0242915e+00 -9.3211323e-01  2.8282186e-01  1.0717318e+00
  1.2330704e+00 -3.3905253e-01 -7.4912976e-03 -2.1011980e+00
 -7.0926464e-01  9.4576389e-01 -1.5101927e-02  5.4455302e-03
 -3.1104258e-01 -1.1807170e+00  1.5420601e+00 -3.3305129e-01
  1.0248861e-02 -1.5097510e+00  8.8999796e-01 -2.6678184e-01
  6.1911228e-03 -1.6066042e-03 -7.5314172e-02  9.3403703e-04
 -2.2843561e-01 -5.4452485e-01  1.0626693e-01 -1.9375064e+00
 -3.8446743e-02 -1.7645878e-01 -1.1000825e-01 -2.2160983e-01
 -4.6859579e-03 -6.7723349e-02  6.0230915e-02  8.4838170e-01
 -1.5254314e-01 -1.2397763e-01  5.5068224e-03 -6.8283016e-03
 -1.7190163e+00 -2.4120593e-01 -5.7516317e-03  8.4383732e-01
 -2.9982211e-02  4.0567508e-01  1.7679666e-01  1.0064237e+00
 -2.3134224e-01 -4.3585753e-01  2.4331613e-02 -1.6326943e-01
 -3.0233314e+00 -1.0020134e-01 -2.2532810e-01  7.2021656e-02
  2.2776713e+00 -6.2037578e+00  1.2663211e+00 -9.0163186e-02
  9.5012095e-03 -2.1268469e-01 -9.5252484e-02 -8.9900341e+00
 -1.6950896e-01 -1.4386715e-01 -5.0214620e+00 -1.0252414e-02
 -1.4614842e+00  1.8086357e-02  1.7596319e-01  1.6964278e-01
 -1.5635161e-02  3.3598500e-01 -3.7362855e-02  1.1526179e-02
 -7.9613365e-02 -1.1505561e-02 -8.9231245e-02 -4.6490929e-03
  2.0979118e-01 -1.4407475e-01  8.7690040e-02  3.8029921e+00
 -4.7347722e+00 -2.4976984e-01  7.5700080e-01  8.5693914e-03]
[ 4.73733217e-01 -6.89679563e-01  8.16498876e-01 -1.07820593e-02
 -7.24609243e-03  2.91756129e+00  2.05824867e-01 -9.45964642e-03
  1.99701324e-01 -6.01865724e-03 -3.20646772e-03  5.42692184e-01
  2.63193667e-01 -6.74703932e+00 -1.95247427e-01 -1.32900524e+00
 -1.99844968e+00 -2.60558486e-01 -2.49710283e-04 -2.32269096e+00
 -1.01741862e+00 -5.01159728e-01 -1.71815697e-02 -2.98586627e-03
  6.04580007e-02  1.31451297e+00  2.58286357e+00 -2.86194272e-02
 -1.20560288e+00  3.23067164e+00 -8.09002686e+00 -1.73258647e-01
 -2.30508417e-01 -5.11374278e-03  2.50727069e-02 -6.54791528e-03
  9.15148199e-01 -2.55773991e-01  2.19019353e-02 -7.24525738e+00
 -1.97294238e-03  5.75208306e-01 -6.98217098e-03 -1.03454208e+00
 -3.81576642e-03  6.44663051e-02 -2.82356124e-02  9.49869096e-01
  1.55062422e-01 -1.35840610e-01 -1.96104986e-03 -8.48011207e-03
  3.74632263e+00  1.61145553e-01  4.52599721e-03  1.18045151e+00
  2.58071089e+00  2.11162180e-01  1.13058686e-01 -8.05724144e+00
  8.17480385e-01 -3.89450717e+00 -3.62247139e-01 -4.10796367e-02
 -1.62939787e+00 -5.70409447e-02 -1.27339494e+00  1.61301121e-02
 -2.55989933e+00 -4.20073223e+00 -6.13479805e+00  7.78111070e-02
  1.67509762e-03  3.72327007e-02 -1.62140042e-01  4.60267395e-01
  5.77702284e-01  2.45841756e-01 -4.06102896e+00 -4.63745696e-03
  6.35126877e+00  1.44114373e-02  3.67837220e-01  4.75737676e-02
 -1.01825213e-02  2.39336848e-01 -1.02080211e-01 -1.12068228e-01
  3.38129303e-03 -9.90294013e-03 -3.25903147e-02 -6.09042728e-03
  4.33580354e-02 -1.11289639e-02  1.05522193e-01 -2.06454158e+00
 -5.19611645e+00  6.65746033e-01 -2.73271203e+00 -1.83294970e-03]
[-1.1450642e+00  3.6126084e+00  1.4661218e-01 -3.5217118e-01
 -1.8389422e-02 -5.8238310e-01 -2.8179224e+00 -1.1880340e-02
 -1.5889108e+00 -3.0802330e-02  2.9283049e-02 -1.2296044e+00
  1.2528619e+01  7.8684229e-01  1.8776590e+00  5.6540222e+00
 -2.2272139e+00 -4.9512878e-01 -2.5007576e-02  1.6981778e+00
 -7.5184045e+00 -6.0067356e-01  4.9889311e-02  5.7479467e-02
 -1.1646259e+00 -2.6509008e-01 -6.6845469e-02 -1.3180348e+00
 -4.0902395e+00 -1.7459473e-01  2.5087821e-01  2.2771206e+00
 -1.8918853e+00 -3.1014320e-02 -1.7056355e-01 -7.5693794e-02
 -9.8246181e-01 -3.2701888e+00 -7.5339764e-01  1.3188851e+00
  5.5047691e-01 -1.7797822e+00 -4.5881886e+00 -9.3637800e+00
 -3.0477051e-02  2.2438036e-01  9.5277794e-02  5.7624203e-01
 -1.6191349e+00  5.8201540e-01  5.4528560e-02 -2.7564364e-02
 -3.8058019e-01 -2.6367161e+00 -8.2107738e-02  1.5213183e-01
 -3.6310694e+00  9.4177735e-01  4.0786985e-01 -4.2619619e-01
 -1.5474160e+00 -2.9692447e+00 -1.4413694e+00  5.6879010e-02
  9.7363377e-03  5.3605181e-01 -3.3617375e+00  3.4296632e+00
 -3.6334019e+00  3.7175813e-01 -1.5051815e-01 -9.2732358e-01
  5.9690949e-02  4.3984753e-01  6.5520316e-01 -4.0124938e-02
 -1.6433202e-01  4.6056504e+00  1.3370917e+00 -4.3860022e-02
 -8.2288450e-01  2.8904557e-02 -3.4827876e+00  7.4636227e-01
 -3.0461358e-02 -8.7708521e-01  3.9266542e-01 -3.4422326e+00
 -7.9252750e-01 -4.1335341e-02  7.6864731e-01  2.1719140e-01
 -1.9891732e+00  6.9144154e-01  2.0054545e-01 -1.6943390e+00
 -1.3451867e-01  1.5670921e+00  6.4715557e-02  5.1002741e-02]
[ 1.1405669e-01 -2.0593858e-01  6.1622119e-01  2.8621556e-02
 -1.1702500e-02  6.3560116e-01 -5.3439073e-02  4.3269701e-02
 -6.4786762e-02  9.6949153e-03  4.3798551e-02 -4.9954131e-03
  2.0381920e-01  2.2048278e+00 -4.3793502e-01 -4.9638413e-02
  1.1791193e-02 -6.8342082e-02  4.6307523e-02  1.0166496e+00
 -3.7172830e-01  2.9690936e-01  3.1254705e-02 -4.6658844e-02
 -9.2513822e-02 -1.0848980e+00  2.9957774e+00 -2.3519713e-01
  2.0932449e-01 -5.4061240e-01  1.4286659e+00  8.5230388e-02
 -5.6587937e-03  3.5340704e-02  1.5737203e-01  2.0469498e-02
 -2.5018135e-02 -2.1631537e-01  7.6014213e-02 -5.8506233e-01
  2.6197774e-02 -6.8182856e-02 -6.2065292e-02  5.2564281e-01
  1.0432212e-02 -8.9239813e-03 -6.4746122e-04  4.6679154e-02
 -5.4645948e-02  1.3549048e-02 -5.4788657e-02  6.9773467e-03
 -3.5850102e-01  2.4644201e-01  1.3919498e-02  1.0461361e+00
  4.1067314e-01  3.7613001e-02  7.2378232e-03  5.1676297e-01
 -6.3697003e-02 -7.4563342e-01 -1.6500880e-01 -2.2167398e-01
 -2.6526167e+00 -8.1225127e-02 -1.3211523e-01  1.7313166e-01
  8.8368821e-01  9.4568896e-01  1.4149722e+00  2.0339498e-01
  2.1096729e-03 -5.6831267e-02  2.0899984e-01  3.9082116e-01
  1.1947398e-01  1.8455477e-01  1.7324365e+00  5.7987079e-02
  2.6251364e-01 -1.7445488e-02  2.1966280e-01  4.5984063e-02
  2.4831997e-02 -5.4611582e-01 -6.4279959e-02 -1.0980807e-01
  9.3820244e-02  1.1070263e-02  1.5796386e-01 -3.8100671e-02
 -5.3374797e-01  1.3803335e-01 -4.5166347e-02  1.4570323e-02
 -1.5430417e+00 -4.6294510e-02  6.8019450e-01 -4.5497201e-02]
[ 0.07587637  0.11717144  0.01164531 -0.0026035  -0.00545376  0.00981407
 -0.02193145  0.01724628  0.01338731  0.01008841  0.02230859 -0.02975935
  0.20138691  0.00231955 -0.00292219 -0.04683239  0.01550138 -0.00692622
 -0.0338696   0.01358254  0.00476731  0.04231105 -0.02158869 -0.02229913
 -0.02477743  0.00922488 -0.11215443  0.05308569  0.01903987  0.01063353
 -0.04533687  0.00638254  0.06169894  0.02111075 -0.01132496 -0.00909697
 -0.02221232  0.03195023 -0.04699966  0.01040303 -0.00600964 -0.02358881
 -0.00351773 -0.03248205  0.03150088  0.01281807  0.01505337 -0.00311469
 -0.00920638  0.00939227 -0.02302697  0.01289822  0.02621486  0.04489077
  0.01523746  0.01226659  0.02103442 -0.02048509  0.00212801  0.08484054
  0.00904952  0.00287426  0.00887535 -0.00396431  0.0465514   0.01052754
  0.01800626 -0.03581095  0.06311776 -0.00885766 -0.0095429  -0.01093161
 -0.0045767   0.00941479  0.01373588  0.00113039  0.00234216 -0.02650305
 -0.01355717 -0.01128884 -0.00091353  0.02895105 -0.05757253 -0.03257276
  0.0275143  -0.08712736 -0.0080113   0.03853224  0.07079926  0.01822325
  0.01644314  0.00567014 -0.0169227   0.00030327  0.01595263 -0.00532452
 -0.01387542  0.02801675  0.01583405 -0.01350431]
[-8.95682812e-01 -6.52104974e-01  4.42383587e-01 -1.06373286e+00
 -6.16124598e-03 -5.42958379e-01 -2.90181160e+00 -1.44550037e-02
 -1.01798797e+00 -1.78073216e-02  2.54625622e-02 -9.21268463e-01
 -1.01104412e+01 -3.97267818e-01  1.45262492e+00  1.02833331e+00
 -1.37905655e+01 -1.70907545e+00 -2.10120287e-02  9.30409431e-01
  1.64412212e+00 -1.60401859e+01 -3.39789420e-01  2.84401979e-02
 -1.07179403e+00  1.97442248e-01  4.32169467e-01 -2.03476667e+00
  2.83160448e-01  6.46346986e-01  5.46923459e-01 -1.46320474e+00
 -3.99595737e+00 -1.89103596e-02 -1.63024500e-01 -3.00790334e+00
 -5.94546974e-01 -5.71306407e-01 -3.69591212e+00  1.19694316e+00
 -6.83492422e-01 -8.24864984e-01  4.03738350e-01  9.54911053e-01
 -2.34536156e-02 -2.10889578e+00  2.71512002e-01  1.62589145e+00
  1.02083051e+00 -6.00086689e-01  3.12702581e-02 -2.12774128e-02
 -3.45709532e-01 -8.87122333e-01 -4.47061174e-02  3.05706143e-01
  2.38168254e-01  1.54202521e+00  1.10535324e+00  1.04814291e+00
 -8.52557361e-01 -9.52891409e-01 -4.72936487e+00 -9.77972686e-01
  2.88647488e-02 -1.34873819e+00 -7.31893063e-01 -8.13613415e-01
  1.62424004e+00  1.37600675e-01 -1.24160862e+00  5.70801020e-01
  3.88224088e-02 -3.02620101e+00 -3.90646219e+00 -4.32512648e-02
 -8.36940467e-01 -5.37061274e-01 -9.56149638e-01 -3.59162390e-02
 -6.01111352e-01  2.13109702e-02  1.38954365e+00  9.06722724e-01
 -3.39408815e-02  2.58960843e+00 -6.89708114e-01  2.07306638e-01
  1.08180094e+00 -3.36382203e-02 -3.75194454e+00 -2.81351566e-01
 -7.16746747e-01 -7.99304187e-01  2.60476589e-01 -3.01923931e-01
 -2.93490826e-03 -3.70099092e+00 -1.96843123e+00  3.08366735e-02]
[-1.6754063e+00 -1.7315296e+01  5.2476072e-01  1.0861617e+00
  8.6745229e-03 -1.4406104e-02  4.0810103e+00 -1.9161154e-03
 -1.3788286e+00 -4.2993273e-03  1.8207310e-02 -1.7941170e+00
  7.6770840e+00 -4.9802977e-01 -2.9936063e+00 -6.3878018e-01
  5.2421322e+00 -9.2520541e-01 -1.4068013e-02  8.7606198e-01
 -5.5648675e+00  7.0834808e+00  1.8058611e+00  8.1079490e-03
 -1.2575326e+00  7.6690620e-01  1.0931298e+00 -3.5099590e+00
 -8.4198055e+00  1.2917449e+00  2.0256151e-01 -2.4452612e+00
  7.5793529e+00  1.5295844e-03 -3.9258353e-02  1.2422819e+00
 -8.2078326e-01 -1.0483406e+01  3.3723698e+00  1.2577707e-01
  7.5447756e-01 -1.8483092e+00  5.4999037e+00 -6.0432444e+00
 -1.2167311e-02 -9.7708613e-01  4.6783146e-01 -1.0432283e+00
  3.6332953e+00  8.0164772e-01  7.2074258e-03 -2.6223550e-03
  4.0021971e-01 -1.7393689e+00 -1.1214148e-02 -3.7433350e-01
 -1.1690023e+01 -2.3191138e-01  2.9913676e+00 -1.4352612e-01
 -1.7168474e+00 -7.3629493e-01  4.9028254e+00  1.2663769e+00
 -5.6353158e-01  3.9437205e-02 -1.9182068e+00 -1.1783195e+01
  2.5969965e+00  4.3237180e-01 -1.4144293e+00 -3.3669112e+00
  5.2428306e-03 -3.5850258e+00 -1.0738006e+00  2.0513462e-02
 -1.2813697e+00 -4.7225113e+00 -1.9221178e+00 -9.1382964e-03
  2.2902094e-01  9.8240133e-03  3.7248042e+00 -5.1253629e+00
 -1.5815882e-02  4.4427414e+00  9.1189730e-01  3.8638842e-01
 -1.3759291e+00 -1.4074941e-02 -1.3321408e+00  2.2003038e+00
 -7.0312642e-02  7.5524533e-01  3.3391969e+00  2.0565188e+00
 -1.1853398e+00  6.0672730e-02  5.5160880e-01  1.6476516e-02]
[-1.11713600e+00  3.93459129e+00  3.54961336e-01 -2.66773403e-01
 -2.74669169e-03 -1.24818325e+00  1.88224244e+00 -1.03012649e-02
 -1.52268493e+00 -2.48598680e-02  2.97038201e-02 -3.95662636e-01
 -1.35941017e+00  7.40237355e-01  5.61246157e+00 -1.48390341e+01
 -2.54559350e+00  9.32257593e-01 -1.43861873e-02 -4.77724582e-01
 -3.59072614e+00  9.74406540e-01 -1.35329753e-01  1.29637914e-02
 -3.80047321e-01 -1.01512992e+00 -2.68379927e+00 -9.91259813e-02
 -1.62514126e+00 -3.44503671e-01  1.54157114e+00  2.07139063e+00
 -4.04358000e-01 -1.69271529e-02 -2.59557903e-01 -3.01781386e-01
 -2.20458126e+00 -2.40879774e+00 -5.10320425e-01  2.95630789e+00
 -3.83067697e-01 -1.65378761e+00 -1.44722238e-01 -2.58964252e+00
 -1.80790164e-02  1.20959088e-01 -6.60665274e-01  6.19289637e-01
 -2.23031950e+00  5.68629980e-01  2.13452335e-02 -1.24004595e-02
 -6.19962700e-02 -3.21178293e+00 -3.70402895e-02 -1.56091368e+00
 -5.73216009e+00  3.09124541e+00 -1.06026389e-01 -4.42538112e-01
 -1.18109548e+00 -6.17392254e+00 -9.93575335e-01  1.44245839e+00
 -1.35686383e-01  1.51277855e-01 -4.08878183e+00 -6.73627198e-01
 -3.09106064e+00  6.46092594e-02 -1.03436697e+00 -3.15346003e+00
  3.04774474e-02  1.28286827e+00 -1.74232137e+00 -5.61335146e-01
 -2.66771704e-01 -1.18533623e+00  1.47811902e+00 -2.26246156e-02
 -2.21233606e+00  1.67341009e-02  1.72016218e-01 -1.07028465e+01
 -2.54024696e-02 -1.04535198e+01  7.49577463e-01  3.55529284e+00
 -1.48087665e-01 -2.21673641e-02  3.50672342e-02 -4.69733745e-01
  2.72242975e+00  2.51176357e-01  1.07412636e-01 -2.14328551e+00
 -1.45606652e-01  3.78052688e+00 -1.52429688e+00  1.44172329e-02]
[-0.01378218  0.01233177 -0.0206075   0.007799   -0.00460903  0.00855925
 -0.06514363  0.00565742  0.01201409  0.01812786 -0.00089795  0.04142416
  0.02283146 -0.0199636  -0.01188075 -0.02351422  0.002187    0.00290956
 -0.05989358 -0.0316877   0.01724883 -0.10149744 -0.00590527  0.02691414
  0.00711858 -0.00760243  0.04221107  0.01492475 -0.01894374  0.00837922
 -0.05043351 -0.00267219 -0.00870127  0.00557148 -0.00865567  0.001993
  0.00955014 -0.01098249  0.01485204 -0.01887028  0.00948967 -0.04821064
 -0.00034817 -0.05892707  0.0188845  -0.00092193 -0.00674375  0.00220049
  0.02416215 -0.00238617  0.02528165 -0.00995526 -0.00201569 -0.01453016
 -0.03690048 -0.01810448 -0.0398268  -0.03794415 -0.00591807 -0.05465258
  0.00184779 -0.01971545  0.03529381  0.0005252  -0.01957823  0.00833117
  0.04215497 -0.05807847 -0.07683634  0.0122848  -0.01106423  0.00476132
  0.03963404 -0.0080485  -0.03403743  0.00423339 -0.03212653  0.01491984
  0.05115022  0.01785949 -0.00014859 -0.03638976  0.0069806   0.01198145
  0.00620459 -0.01027804 -0.00403434  0.02140485  0.03923758  0.0196004
 -0.02268391 -0.00061731  0.01199071 -0.00234576  0.00349863 -0.01327806
  0.01335648 -0.06483099  0.006286    0.03812345]
[ 4.3616727e-01 -1.1189166e+01 -2.6849580e+00 -8.6605177e+00
 -3.2122741e-03  6.5950308e+00  3.8824494e+00 -9.1756473e-04
  6.4771068e-01  1.1136651e-03  1.4824027e-03  2.5892195e-01
  7.8338113e+00 -9.4247907e-01 -7.9864717e-01 -8.6595470e-01
  1.9357260e+01 -6.5779872e+00  2.9737994e-03 -3.4330947e+00
 -8.1609535e+00  2.3305120e+01 -8.7554903e+00  8.2784267e-03
  7.1995907e-02  7.8167266e-01  9.3222487e-01 -2.7580698e+00
 -5.2467184e+00 -7.0254427e-01 -1.1139581e+00  7.8410894e-01
 -1.4874351e+00  1.7488383e-03  2.9782493e+00  1.8177581e+00
 -6.1953582e-02 -9.0822525e+00  2.0218496e+00 -9.4740877e+00
 -9.3710508e+00  5.4019642e-01 -6.2406468e-01  3.0213671e+00
 -6.2735453e-03 -9.7991390e+00 -1.7687219e+00 -5.8945818e+00
 -6.6618190e+00 -9.9251242e+00  9.3385354e-03 -8.4503852e-03
  5.1929331e-01  6.2804997e-01 -9.5129609e-03 -4.7527013e+00
  5.9896165e-01 -5.8618708e+00 -8.3321581e+00 -3.3150280e+00
  4.2244342e-01  1.2253959e+00 -1.0170888e+00 -1.4348112e+01
 -1.0710275e-01 -1.0265506e+01  1.1198261e+00 -4.2151752e+00
 -1.7060977e+00 -3.5373995e+00  3.6934531e-01 -2.8983130e+00
  8.5859569e-03 -8.7903776e+00  2.0942669e-01  1.0155375e+00
 -3.1652927e-01 -4.2260718e+00  9.0626374e-02 -7.8664701e-03
  4.0501766e+00  9.7379618e-04  5.8650918e+00  4.4580069e+00
  2.9613980e-04 -2.2634749e+00 -1.0129051e+01  2.5590912e-01
 -1.5258700e+00 -8.4097190e-03 -3.5656676e+00 -9.9737253e+00
  4.6269307e+00 -1.0590083e+01 -8.8992739e+00  9.4401091e-01
  1.0012684e+00 -7.4109135e+00  2.1191797e+00  1.5331865e-03]
[-2.24537659e+00  1.51479590e+00  3.71125966e-01 -3.25850099e-01
 -1.94388349e-02  1.01988591e-01 -7.83074093e+00 -3.42268636e-03
 -8.61917436e-01 -9.25388187e-03 -2.02505719e-02 -4.68867493e+00
 -6.02582991e-01  5.05181476e-02 -1.17438471e+00 -9.80619967e-01
  3.69741654e+00 -4.17706817e-01  9.36413277e-03 -8.90127480e-01
 -2.00787663e+00  2.02796414e-01 -3.27653259e-01  2.54181679e-03
 -1.63140392e+00 -2.49722391e-01  5.96857250e-01 -7.35492802e+00
 -7.80146980e+00 -5.95968783e-01  6.67599201e-01  1.67421591e+00
 -5.55323076e+00 -1.19319055e-02 -4.81434688e-02 -3.67626786e+00
 -5.73667479e+00  1.70904660e+00 -8.31482506e+00 -4.61834133e-01
  4.42885590e+00 -6.52985811e+00 -9.45442021e-02 -1.08771067e+01
 -5.29015018e-03  5.56973755e-01 -6.22793078e-01 -9.26189125e-01
  1.44224966e+00 -7.02525496e-01  2.15668441e-03 -1.25721926e-02
 -1.65967047e-01 -8.35792542e+00  7.61315925e-04 -1.93595934e+00
  1.51719677e+00 -8.91977012e-01  4.58022165e+00  2.64201850e-01
 -5.50740767e+00 -1.07969809e+01 -8.71191788e+00 -3.94024134e-01
  2.41303280e-01 -9.24709380e-01 -1.02914038e+01 -1.14496064e+00
 -1.42912388e-01 -3.44148487e-01  5.54952323e-01  3.00559187e+00
  7.86042865e-03 -3.86286974e-01  3.44814621e-02 -6.80317879e-02
 -4.69360733e+00  3.36708307e-01 -3.51546377e-01 -7.26642553e-03
  8.61617625e-02 -1.29993334e-02 -6.04210049e-02 -2.40502262e+00
  7.80497212e-03  5.41933298e-01 -7.43097961e-01 -1.60922146e+00
  7.60140181e+00 -4.02835105e-03 -3.18830729e+00  6.25627518e-01
  6.54839098e-01 -1.14946091e+00  1.03059387e+00  1.38487473e-01
  4.90952462e-01  2.68514991e+00 -1.22006163e-01 -1.84850078e-02]
[ 1.5764356e+00 -4.3789444e+00  5.2867651e-01 -4.0017998e-01
  4.4869171e-03 -1.3955036e+00 -1.4652310e-01 -7.4217180e-03
  1.4388690e+00 -8.6759133e-03  1.4216510e-02  1.7424183e+00
 -3.0931792e+00  2.2911477e+00 -1.1541682e-01  4.4896274e+00
 -3.8514319e-01 -5.6021696e-01  4.4866642e-03  3.9365032e+00
 -3.0535192e+00 -1.6321913e+00 -2.2714148e-01  3.0770773e-02
  3.9339128e+00 -9.0845388e-01  1.4840504e+00 -2.3305310e-01
 -8.5048509e-01 -1.4015434e+00  5.4780358e-01  4.9424791e-01
 -7.1159277e+00 -1.7119471e-02  3.3674869e-01 -4.5370355e-02
  1.3378140e+00  5.3464961e-01 -2.9330447e-01  1.9633977e+00
  1.0970213e-02  3.0918577e+00 -3.0189586e-01  4.7819477e-01
 -1.0041677e-02 -5.5697721e-01  2.9825199e-01  3.6436636e+00
 -4.5192261e+00 -2.8581914e-01  3.2051064e-02 -6.4196913e-03
 -3.3207641e+00  2.9810307e+00 -3.2407925e-02  3.2064002e+00
  8.0708660e-02 -2.8096262e-01  2.4181893e+00  3.8558431e+00
  2.2181764e+00  1.8693645e+00 -1.9519788e+00 -6.9112509e-01
 -4.6574950e+00 -5.2201557e-01  2.5873797e+00  1.5847583e-01
 -6.2402940e+00  3.2303214e+00  3.1903627e+00  5.6735581e-01
  2.1499617e-02 -1.7183235e-01 -1.7862810e+00 -1.4561090e-01
  7.0295177e+00 -2.8699119e+00  5.9475913e+00 -4.0015001e-03
 -1.2829530e+00  5.5406350e-03  2.9140359e-01  1.7508556e+00
 -7.7889841e-03 -4.5180740e+00 -4.2985639e-01 -1.4353591e+00
  1.2994183e+00 -1.0261108e-02 -1.5008699e-02 -1.3387734e-01
 -7.4732170e+00 -6.7246246e-01  2.0760455e+00  2.5039530e+00
 -3.9590850e+00  6.5354478e-01  7.8714675e-01  2.7965989e-02]
[-5.66165186e-02  7.41875291e-01  1.70770776e+00 -3.60305272e-02
 -2.32516844e-02 -4.33921218e-01  9.85763669e-01 -1.56669244e-02
  3.34776789e-01  1.43674146e-02 -3.59875597e-02  5.54156303e-01
  1.41653314e-01 -7.32906520e-01 -1.71766543e+00 -3.45716858e+00
  3.35556602e+00 -7.69384801e-01  9.81806871e-03 -3.67751360e+00
 -8.19036543e-01  2.45143342e+00 -3.20795834e-01 -5.72490096e-02
  1.63605362e-01 -4.01548415e-01 -6.26092017e-01  1.07948232e+00
 -1.44983545e-01 -2.29151726e-01 -1.21259995e-01 -1.90448117e+00
  9.39706147e-01 -9.47393198e-03 -1.07320082e+00 -1.09942925e+00
  7.33585536e-01  1.12903821e+00 -1.08407152e+00  4.55097288e-01
 -5.47884285e-01  8.63057733e-01 -1.82597136e+00 -6.53341115e-01
  3.07618268e-02  9.00840104e-01  3.85509074e-01  3.83253485e-01
  2.12185192e+00  4.79247898e-01 -3.81282382e-02 -8.58475803e-04
 -8.81169513e-02  1.38931048e+00  6.02200851e-02 -1.48891941e-01
 -2.14164138e+00  1.56540930e-01 -3.91612291e-01  1.10971618e+00
  6.44124329e-01  1.11110234e+00 -4.06597584e-01  7.26691067e-01
  2.64339894e-01  8.51124108e-01  1.83601749e+00 -2.37917256e+00
 -4.07057166e-01 -4.15046960e-01  4.96040523e-01 -2.07112503e+00
 -2.32949927e-02  8.85209501e-01 -8.89683425e-01  1.37130916e-01
 -1.94009662e-01 -1.20237696e+00  5.75108409e-01 -1.68210221e-03
 -8.95323813e-01 -2.40042247e-02  2.26244664e+00 -7.92694867e-01
 -1.06766168e-02 -3.19041520e-01  5.40985286e-01 -1.80916238e+00
 -3.33300900e+00  3.20067704e-02 -3.89139622e-01 -2.45764419e-01
 -1.39302599e+00  5.86546659e-01 -8.19141507e-01 -3.09005332e+00
 -3.91951174e-01 -1.10428393e+00 -2.07893085e+00 -3.89534049e-02]
[ 3.8801789e+00  1.0293852e+00  2.5814337e-01  1.0331536e-01
  3.0749072e-03 -1.6017162e+00 -1.3701191e+00  1.7743637e-03
  3.7097492e+00 -2.1343869e-03  2.2311816e-03  4.5220637e+00
  1.4798054e+01  1.1424078e+00  7.2994572e-01  2.0481226e+00
  1.9756780e+00  3.2075118e-02 -2.8763557e-04 -7.8323615e-01
 -3.5126325e-01  1.1553749e+00  9.4793282e-02  6.4715842e-04
  2.7360032e+00 -1.5025260e-01 -1.0429869e+00 -6.3838279e-01
  5.3446239e-01 -2.9848206e-01  2.3725047e+00 -7.8994293e+00
  5.7058640e-02  1.0314437e-03  4.2287555e-01 -7.6263152e-02
  3.8637390e+00  8.7509859e-01 -4.1351792e-01  2.7571633e+00
 -5.9253313e-02  5.6939640e+00  3.3363792e-01 -9.9960446e-01
  1.3143857e-03 -5.7062113e-01 -1.8258676e-01 -2.3362808e+00
  1.0012947e+00 -4.3336189e-01  3.5768744e-04  5.3364732e-03
 -7.0825052e-01  5.8691635e+00 -4.3315389e-03 -4.9397864e+00
  1.9447480e+00  1.3457097e+00  7.0441574e-01  2.9642329e+00
  4.9570470e+00  4.3541403e+00 -1.0684071e-01 -5.2115411e-01
  7.2083926e-01 -3.7721789e-01  6.4666433e+00 -5.2678144e-01
  2.8119860e+00  2.9256955e-01 -4.0367472e-01  8.6083823e-01
  1.4348782e-03 -8.4207267e-01 -4.3134055e+00  6.5911943e-03
  3.1158490e+00  7.4461204e-01 -1.1447055e+00  8.3932206e-03
 -2.9829009e+00 -1.5211002e-03  3.4833357e-01  2.1514347e+00
  8.2797483e-03 -1.1539953e+00 -4.7015795e-01 -9.6272974e+00
 -1.0362307e+00  3.5706840e-03 -6.4794458e-02  1.7809595e-01
 -7.4622351e-01 -5.3626591e-01  2.1259704e-01  6.2801671e+00
  5.1170826e-01  5.9910636e-02  1.1258500e-02 -1.0484675e-03]
[-3.7146885e-02  4.8067242e-02 -3.5896547e+00  1.4055745e-02
 -6.6961888e-03 -1.9013596e-01  5.5205319e-02  2.9829694e-03
 -9.5362514e-02 -5.6550093e-03 -1.3798651e-03 -6.1636595e-03
 -1.5065354e+00 -1.4686683e+00 -7.6214984e-02 -1.1615307e+00
  5.7457011e-02 -2.3197515e-03 -2.8538285e-04  1.3084518e+00
 -1.7066003e-01  2.4660198e-01 -1.8277211e-03 -1.8683338e-03
 -6.1904073e-02  2.5434485e-01 -1.1149050e+00 -2.0853216e-02
 -1.0191977e-01  2.1610718e+00  7.2361097e-02 -3.4046922e-02
  1.3531543e-01 -1.6770671e-03 -1.9643279e-02 -6.5089320e-03
  6.9682516e-02 -1.4194626e-01  5.9843384e-02  4.6682125e-01
 -3.1018516e-02 -2.0791646e-02 -5.0927629e-04 -2.6985344e-01
 -1.2769453e-02 -1.6923003e-02 -2.3670143e-02 -9.3676925e-02
  1.4806348e-01 -3.2707926e-02 -3.4027866e-03 -9.6153263e-03
 -1.5990313e+00  2.4305806e-02  1.0089672e-03  2.0669740e-01
  2.1110654e-03  1.0280161e-01  5.0407663e-02  1.9954568e+00
 -1.2376969e-03 -3.8005501e-01 -4.8790246e-02  6.4976439e-03
 -5.4165816e+00 -8.8948123e-03  2.3672168e-01 -6.3755289e-02
  7.9800516e-01 -3.5307066e+00 -1.7934008e+00 -2.9042173e-02
 -5.5580313e-05 -1.9511616e-02  5.1610347e-02  3.2062531e-02
  7.6903857e-02  2.6909972e-02  1.3545249e+00  4.4685975e-03
  2.2715230e+00 -1.1965185e-03  2.8404638e-01 -1.3594773e-01
 -1.6758990e-03 -2.2897695e-01 -4.1950718e-02  1.3642265e-01
  8.7950259e-02 -3.5087091e-03  2.8512491e-02 -3.3220239e-02
 -6.3051587e-01  8.1171133e-03 -4.4913337e-02  5.6307769e-01
 -6.5999713e+00 -1.0279072e-02  5.6301755e-01 -5.4495782e-03]
[-3.07061858e-02  5.47699854e-02  1.10717155e-02 -3.00027477e-03
  1.33147249e-02  3.31116444e-03  9.12370626e-03 -1.64322034e-02
  2.35603154e-02 -2.60771834e-04  1.86842382e-02  3.45449150e-02
  8.44453201e-02  2.21377816e-02  8.70953128e-03 -6.59509329e-03
 -7.66339377e-02  6.69518346e-03 -5.15234917e-02  3.11318487e-02
  1.17165865e-02  1.61849827e-01 -1.44816674e-02  2.88529973e-02
  4.56604612e-05 -1.31770596e-02  4.26796172e-03  8.15535709e-03
  2.42076907e-02 -1.18076336e-03  7.89688621e-03 -4.46316740e-03
  1.85982697e-02  2.26104055e-02 -1.53527064e-02 -1.94603968e-02
  1.06216630e-03  3.98597214e-03 -9.95685905e-03  1.82779171e-02
 -4.67997603e-03 -1.96601469e-02 -1.72632989e-02 -1.30998446e-02
  4.01818976e-02 -9.88426246e-03  1.24219181e-02 -3.52930510e-03
 -4.07466479e-02  3.85533017e-03 -1.64733529e-02  2.53635999e-02
  1.26130478e-02  5.52068986e-02 -1.23381638e-03 -1.40068633e-02
  2.00128537e-02 -4.15800102e-02 -3.50874336e-03  4.40799557e-02
 -1.75414025e-03  4.13991101e-02 -9.37994104e-03 -1.32406421e-03
  1.02601293e-02 -4.81990725e-03 -4.03343216e-02  2.35694870e-02
  4.36045043e-02 -5.66442125e-03  9.06735472e-03 -8.21702369e-03
 -1.57869682e-02  2.81170681e-02  1.46665256e-02  9.41883679e-03
 -1.85661446e-02 -2.53019910e-02  4.87637930e-02  1.54937748e-02
  5.41457022e-03 -2.38827392e-02  1.38004031e-02  5.66464700e-02
 -1.61045827e-02 -5.04666343e-02  4.55576601e-03 -3.32072563e-03
 -5.10137193e-02  6.23294562e-02  3.74994017e-02  1.33614335e-02
 -1.23267733e-02 -9.84465936e-04  7.61132035e-03 -2.54899426e-03
 -1.55336447e-02  5.74096180e-02 -1.18849697e-02 -2.34644301e-03]
[ 1.08560300e+00  1.02618590e-01 -5.07436752e-01 -9.04677510e-01
  8.53758771e-03  1.77755296e+00  2.38574147e+00  8.28491617e-03
  5.57616830e-01  1.44476711e-04  4.31547426e-02  6.55212760e-01
 -5.89947224e-01 -1.81138647e+00  1.47258759e+00 -1.06506741e+00
 -4.37667179e+00  1.19581342e-01 -1.99707481e-03  5.76318979e-01
  1.70006737e-01  1.93434149e-01 -1.07502055e+00  5.25722466e-02
  1.01473010e+00 -6.56958371e-02  1.40771139e+00 -1.24202035e-01
  1.75794154e-01  4.47500572e-02 -2.11604214e+00  3.21152663e+00
  1.55902064e+00 -2.97158444e-03  1.25963020e+00  2.48921537e+00
  2.58113861e-01  5.82739592e-01  3.06399798e+00 -3.06274843e+00
 -8.75550687e-01  4.96875405e-01  9.54968691e-01  1.79152799e+00
 -1.68083236e-02 -9.27365184e-01 -1.46216202e+00 -4.68006659e+00
 -2.92992282e+00 -7.63574660e-01  4.59707081e-02 -5.52480167e-04
  5.09412706e-01  8.81491363e-01 -7.56333470e-02 -4.42067575e+00
  6.68954849e-01 -5.75094044e-01 -1.82113814e+00 -3.53293943e+00
  7.28721499e-01  1.88914025e+00  2.75443053e+00 -6.48002386e-01
 -8.14272404e-01 -1.20537305e+00  9.17902708e-01  1.88640952e+00
 -4.16557646e+00 -1.34837484e+00 -9.97249961e-01  1.29465401e+00
  5.03657758e-02 -1.66470334e-01  2.59445786e+00 -2.70960946e-02
  1.07281375e+00  1.29165149e+00  6.84004009e-01 -1.03791533e-02
  3.22411990e+00  2.45433953e-02 -2.54992533e+00 -3.89843255e-01
 -5.47402631e-03 -2.19757771e+00 -8.84040117e-01  1.43481410e+00
  2.20317984e+00 -2.14365181e-02  2.31595254e+00 -1.55958343e+00
  7.73025572e-01 -6.41553521e-01 -1.68334687e+00  3.79810119e+00
 -5.17878354e-01 -6.74604595e-01  1.64720726e+00  4.21234258e-02]
[-3.6201188e-01  4.0981695e-01  5.7559025e-01  1.4062726e-01
 -4.1974038e-02  3.6969179e-01  3.8873410e-01 -2.4645876e-03
 -3.7844962e-01 -1.6611964e-02  2.4853839e-02 -2.8448746e-01
  1.2809741e+01 -6.8143272e-01  7.3538280e-01 -6.2675077e-01
  8.9097744e-01 -1.1878191e+00 -3.0584916e-02  1.7829764e-01
 -1.0532720e+00  3.0116024e+00  7.2146451e-01  4.4463649e-02
 -2.3142751e-01  1.0435950e-01  6.8094313e-02 -2.0359306e+00
  1.1939502e+00  3.9391989e-01 -4.1609925e-01  3.4277260e-02
  1.5643296e+00 -2.8856490e-02 -1.1040791e+01  6.4227039e-01
  2.2233582e-01  3.0303371e+00  1.3245636e+00 -4.8334366e-01
  5.8030063e-01 -3.2490796e-01 -5.5179042e-01  1.0682211e+00
 -5.0065216e-02 -2.7170488e-01  1.3287135e+00 -1.1205097e+00
  3.2627130e-01  3.1560984e-01  4.3160092e-02 -4.3298502e-02
 -6.3490256e-04 -1.7159724e-01 -6.5777257e-02 -6.6406596e-01
  5.7166976e-01 -9.4165987e-01  1.4748744e+00 -4.5536602e-01
 -2.6743814e-01 -1.0843979e-01  1.5277472e+00 -1.7076226e-01
 -2.6340732e-01  3.4783326e-02 -5.2385229e-01  5.3842690e-02
  4.2111450e-01 -9.9806599e-02 -7.3276472e-01  7.9386726e-02
  4.9253378e-02 -1.4618444e+00 -2.7145669e-01 -7.1683906e-02
 -1.2777362e-02  6.9485801e-01 -6.8125725e-01 -3.2746490e-02
  6.6038424e-01  1.8655213e-02 -9.9658954e-01  1.9338824e+00
 -2.1865688e-02  1.4038674e+00  2.7473596e-01  2.8796640e-01
 -8.1652623e-01 -5.1958192e-02  1.7929941e-01  8.4685582e-01
 -1.2950470e-01  3.8470218e-01  1.6160578e+00  1.7246667e+00
 -3.9348060e-01  1.3057983e-01 -2.0999147e-02  2.9562375e-02]
[ 5.63242473e-02 -1.56171685e-02  4.41413927e+00 -3.40941884e-02
  1.19153140e-02  7.12224770e+00 -7.12228790e-02  1.13209840e-02
  1.63843393e-01  1.24501279e-02  1.91674624e-02  7.39808241e-03
  1.89084125e+00 -7.16933537e+00  9.15408209e-02  1.94542003e+00
  2.21154198e-01 -3.78383733e-02  7.16303661e-03 -1.06678933e-01
  2.98826963e-01 -5.52723765e-01  3.51886556e-04 -7.73015199e-03
  1.28041983e-01 -1.35510713e-01  5.49604273e+00 -5.84857725e-03
  1.31196022e-01  7.44227350e-01 -5.23565674e+00  1.03914514e-01
 -2.58807033e-01  1.73621811e-02  8.27468038e-02 -1.48558374e-02
 -1.13584809e-01  2.75070876e-01 -1.08183689e-01 -6.98355103e+00
  6.37273639e-02 -1.98676046e-02  3.36758234e-02  7.29288936e-01
  2.59282384e-02  4.17752266e-02  4.43544835e-02  4.13838565e-01
 -2.31489584e-01  7.62952194e-02 -8.10070429e-03  2.44210828e-02
  1.17142925e+01 -3.86932082e-02  1.42605032e-03  5.50147474e-01
  1.22837350e-01 -5.98448031e-02 -3.10788024e-02 -1.01966972e+01
 -9.97600611e-03  3.14891934e-01  9.95556563e-02  5.40824309e-02
  4.65545559e+00  1.43743008e-02 -6.07577264e-01  1.63757689e-02
 -9.00682354e+00  2.28791595e+00 -8.98731136e+00 -3.16416658e-02
  2.18169810e-03  1.67007763e-02  1.71517924e-04  8.55188817e-03
 -1.33713096e-01 -2.56877020e-02 -4.81606781e-01  1.12181827e-02
  6.57754660e+00 -6.13331888e-03 -3.13847423e-01  2.63156682e-01
  1.47370081e-02  4.91105378e-01  5.18631190e-02 -2.87411332e-01
 -4.18017387e-01  1.33350817e-02 -7.83481896e-02  5.23667112e-02
  2.63074684e+00 -8.90176371e-03  5.19047603e-02  3.49713981e-01
 -8.60657978e+00 -1.17623180e-01 -6.37252140e+00 -2.81824986e-03]
[ -1.3588974   -0.23728588  -0.39121866  -1.5169051    0.02196777
   0.15959018  -7.478522     0.01746231  -0.85400325   0.03026529
  -0.01572699  -0.8168736   -4.9376736    0.29291585  -2.7427518
  -0.2501227   -4.147499    -2.550456     0.01346033   0.01975272
  -6.6266184   -3.7278762   -2.185378    -0.0509407   -0.29604983
   0.02016396  -0.689015     1.3683844    0.52911127  -0.37049803
  -0.6844074    0.5170766   -3.59915      0.03624476   0.9832658
  -2.080964     0.4360601    4.694486    -4.4867077   -0.7606313
  -5.1905913   -1.1290103   -0.69669425  -4.7068367    0.03229451
  -0.6712776   -0.3246655    1.6972938   -0.62502545  -1.0477095
  -0.05191823   0.0371174    0.09556735  -1.1641155    0.07460992
   3.4250314   -1.6335694   -1.0820894   -5.9484706   -0.25707996
  -0.98675233  -1.9697315   -5.2810507    0.03639507   0.03565668
  -0.6684058   -1.9032683   -0.20795381  -1.1066581   -0.4607199
   1.2595417   -4.0675063   -0.06677695  -1.9951276   -0.9355929
   0.25798294   0.27182692   1.5082158    2.2199516    0.05021633
   0.33149156  -0.02085898  -1.1368897   -0.23699403   0.03045631
  -3.0672407   -0.94265795   0.40947518 -10.671086     0.04711388
  -0.24403848  -2.5668094   -0.2341446   -0.2056797   -4.0077252
  -1.4579778   -0.06542538  -2.1082487   -1.3223097   -0.02937106]
[-2.2234173e+00 -8.4908276e+00 -1.2493056e+01 -3.1375332e+00
 -1.6698690e-01  4.2766709e+00  7.6386726e-01 -1.2711722e-01
 -1.0106980e+00 -9.7209617e-02 -2.2568147e-01 -2.3651283e+00
 -1.0073105e+00 -1.0304031e+00 -2.5266452e+00 -6.0512738e+00
 -4.5874786e+00 -1.8722606e+00 -9.0908810e-02 -4.6987319e+00
  1.4385525e+00 -1.4496764e+00 -3.1992178e+00 -3.6250857e-01
 -1.8652165e-01 -9.7777569e-01  6.9987208e-01 -7.3685592e-01
  6.3257933e-01 -1.9199412e+00 -2.0111809e+00  7.0649707e-01
 -8.2120001e-02 -6.2337674e-02  1.8458797e+00  3.9883044e+00
 -1.8580704e+00 -1.8689901e+00  3.0141840e+00 -5.4496307e+00
 -3.3295763e+00 -4.8530626e+00 -7.1199889e+00 -2.6802056e+00
  1.2296139e-02 -3.1547272e+00 -2.3407714e+00 -6.2774787e+00
 -1.7371799e+00 -4.2938939e-01 -2.9159680e-01 -1.0208899e-01
  2.4979351e+00 -5.9785795e+00  4.4990483e-01 -3.8159487e+00
 -1.5781366e+00 -2.3765714e+00 -2.8508370e+00 -5.7397187e-01
 -4.0177851e+00 -5.1313038e+00  1.7946531e+00  1.4280635e+00
  2.0298016e+00 -2.3912847e+00 -6.4754043e+00 -8.8554945e+00
 -8.0020685e+00 -2.3446333e+00 -1.1586106e+00 -5.8499188e+00
 -2.3930101e-01 -3.6013317e+00 -1.4692813e+00 -9.9759884e+00
 -8.3366019e-01 -9.0661955e+00  1.2062175e+00 -8.3608545e-02
  5.2285390e+00 -8.8420868e-02 -4.0043111e+00 -8.1724977e+00
 -1.1890535e-01 -2.1073327e+00 -1.8305213e+00 -4.9272175e+00
 -1.6921513e+00  1.3757632e-03  2.7480428e+00 -3.5784304e+00
  2.4732227e+00  7.0740753e-01 -4.5288839e+00  3.2140484e+00
 -5.8244810e+00 -2.4766223e+00 -6.0049520e+00 -2.4778220e-01]
layer 7 Activation
elu
layer 8 Dropout
layer 9 Dense
100 1
[-0.3380496]
[0.19558609]
[0.55024225]
[-0.5631305]
[-0.00104201]
[-0.22934759]
[0.17610095]
[-0.00114352]
[-0.32671353]
[-0.00412927]
[-0.0013686]
[-0.45780316]
[1.5191542]
[-0.0683424]
[0.12963624]
[0.26188242]
[0.3621029]
[-0.38010007]
[0.00026736]
[0.05134715]
[0.26946697]
[0.18594874]
[-0.6757399]
[0.00040513]
[-0.4627993]
[0.15195455]
[-0.03890146]
[-0.15923464]
[0.32264164]
[0.13752013]
[0.07823849]
[-0.2052504]
[0.37660095]
[-0.00166352]
[-0.15170385]
[0.3128722]
[-0.30973244]
[0.24872588]
[0.3023249]
[0.16820185]
[-0.8820846]
[-0.40518144]
[1.4453523]
[0.17986803]
[-0.00153666]
[-0.644157]
[0.7103522]
[-0.7949527]
[-0.2769195]
[-0.7623436]
[0.00041112]
[-0.00165685]
[-0.180523]
[-0.30004382]
[0.00071345]
[0.20835541]
[0.24723504]
[0.14064217]
[-1.8631791]
[-0.09020742]
[-0.42731848]
[-0.322641]
[0.3717879]
[-0.8400745]
[0.10423803]
[-0.6986239]
[-0.23234032]
[0.17080061]
[0.2526533]
[0.05835367]
[-0.12295756]
[0.34458762]
[3.615598e-05]
[-0.6646769]
[1.4339753]
[0.91093534]
[-0.41532463]
[0.56713307]
[-0.02382392]
[-0.0008204]
[-0.21793634]
[0.00060788]
[0.31265616]
[0.5381338]
[-0.00101825]
[0.10768185]
[-0.78553057]
[0.19643934]
[0.06883306]
[0.00014223]
[0.1720148]
[-0.6243325]
[-0.20307775]
[-0.62336373]
[-0.44541803]
[-0.9708433]
[-0.24834417]
[-0.1857013]
[0.5386045]
[-0.00059504]
[0.24303393]
