layers 10
layer 0 Dense
9 9
[-0.14988211  0.6412315   0.03009127 -0.00225177  0.00917386  0.00486836
  0.01189142  0.02655628 -0.23306964]
[-0.18007532 -0.22135948 -0.30616894  0.09173692  0.01080822 -0.0748769
  1.2418281   0.04031027  0.09792747]
[-0.47174427  0.11075162  0.1346715   0.00161081 -0.00892075 -0.00313319
  0.06324514  0.10330693  0.32798436]
[-0.03050794  0.24550125 -0.8363437   0.03644523  0.04302928 -0.01655889
 -0.0011698  -0.03920556  0.22573277]
[-0.02050738 -0.00578671 -0.00120804  0.00613001  0.00600623 -0.00745267
 -0.00433601 -0.01105713 -0.01697394]
[ 0.5283532   0.06359838 -0.11111801  0.01922621 -0.13514644  0.02615076
  0.01277618  0.5282488   0.2604563 ]
[-1.6597013  -0.42547095 -0.61376095  3.4010224  -3.2671      3.5039365
 -0.52116966 -3.084366   -0.41441843]
[ 2.4161954   0.61087054  0.91868883 -7.1921554   4.2230587   0.0961282
  0.7897873   4.1191483   0.7089065 ]
[-0.5654196  -0.29542428 -0.369018   -0.05510027 -0.02303851 -0.0674365
 -0.3746255   0.0683969  -0.7911177 ]
[ 2.0344384   0.2141297   1.3401922  -3.0209117   3.1864254  -2.8213985
 -0.14254673  2.5962372   0.49475938]
layer 1 Activation
elu
layer 2 Dropout
layer 3 Dense
9 30
[-1.8950822  -0.62324524  0.53779477  0.33546972 -0.67958766 -0.10611499
  1.0812207   1.6175996  -0.08748008  0.08028556 -0.7373802  -0.03499134
 -1.166609   -0.13617477 -1.0833571   0.11212977 -0.098551    0.12574854
  0.43093622 -0.21400456 -0.3850273   0.277365    3.259804   -0.42147863
 -0.4740194  -0.8553171   0.17598273 -1.0179839  -0.25883862 -0.4604404 ]
[ 0.5739875  -1.0133362   0.7420419  -0.36692253 -5.874167    0.41916072
 -0.13969956  0.60495555 -0.24684104  0.8798734  -0.19405934 -6.6532183
 -0.10175318  0.17832819  0.06505419  0.05264555 -0.5641614   0.19735548
  0.83283406 -0.22187081 -5.8787427   0.16991735  0.23280036 -0.17119962
 -0.5974064  -0.3628431   0.8836222  -0.02859562 -1.3443364  -0.06085587]
[-3.5874014e+00  4.7775350e+00 -2.4100914e+00  2.1496909e+00
 -1.8078680e+00 -4.3469667e-01  6.2848979e-01  1.7147574e-01
 -7.8086567e-04  1.1051011e+00 -1.3831721e-01  4.3837357e-01
 -2.9986152e-01  1.3501734e+00 -1.4857341e-01  1.4447740e-01
 -1.7320561e+00  5.6768435e-01  1.0577685e+00 -3.5796154e-02
 -1.1365538e+00  2.9074153e-02 -1.4429215e+00 -1.0227283e-01
 -1.2023692e+00 -7.9833150e-02 -3.6388702e+00 -1.4254931e-01
 -1.0270913e-01 -1.9938725e-01]
[-1.7755266  -1.942638    1.3854743  -0.3612508  -1.8632997   1.741919
  0.8673616   1.3229827   1.1408297   1.320457    3.5874987   3.3782072
  4.380446    5.170829   -0.9646758   4.3104     -2.628243   -0.95655763
 -0.1199696  -1.2933868  -0.5778095   2.2826033  -1.5519519   2.4401546
 -1.2028464  -1.889009   -0.66709226 -1.9836363   0.22772144  7.641587  ]
[ 1.3580166  -2.0224595   0.3596862  -0.9942451  -0.17135186 -0.76609737
 -1.1355506  -2.6068332   0.60318744  0.216823   -1.8687992   3.5395088
 -6.5549273  -0.4668689  -0.1632203   0.07021247 -9.800521   -0.48800445
  4.0543613  -0.90242     0.9462157  -2.6373923   1.3042809  -1.2749257
  0.2580278  -0.30098006  1.9048665   0.7768537   0.22644362 -0.07877786]
[  0.7917639    0.09557025  -1.5769898    1.9162985    0.15507437
  -3.8074048   -1.3060722    1.4858056   -0.2227164   -0.31089136
   2.4498174   -4.0798545    1.3168375   -4.3406763   -0.59198177
   1.3393493   -0.3297126    2.0207365   -0.02491064  -0.68360114
   0.30565664   2.8090146    1.0667831    2.6175203    0.18947814
   1.3658267    0.56095344   1.225981    -0.32508585 -13.651466  ]
[  0.9243563    0.9590405   -0.9790827   -0.25673226   6.714336
   0.7806891    0.3512148    0.24628328  -1.0301874    0.5239091
  -0.13394472 -10.948985    -0.18836348  -1.0835599   -0.15652756
  -0.06153027  -0.29393044   0.27496427   0.5208268    0.5414333
   1.0667605    0.0434571    0.1290097   -0.14182839   3.2205617
   2.1335375   -0.54180247  -1.5334183   -0.33372104   0.1304187 ]
[-0.04012811  1.775517   -0.7028363   0.5606762   0.5386107  -0.335385
  0.21701525  1.2172686  -0.11008474 -0.86262214 -0.94934076 -1.6573502
 -2.4431415   0.39201757 -0.18034543 -0.18664064  4.1945677   0.541648
 -5.1867304   0.53105074 -0.23598477  0.02409743 -2.5628068  -0.6118536
  0.02095905  0.7972202  -1.4163986   0.09873224  0.04778716 -0.04076918]
[ 1.883147   -1.9463066   1.7783787  -0.75416917  0.29816484 -0.24369037
 -0.15144816  1.1812531  -0.89988315  1.9617484  -0.36804554  6.5885215
 -0.40706924  0.12588395  0.1717233   0.1264438  -1.501472   -0.04056737
  1.6772922  -0.20155543  2.2184024   0.20568854 -2.2313542  -0.32051682
 -1.0809472  -0.3994571   1.1370158   0.07726424  0.75828034  0.03726741]
[-1.3172858  -2.5781913  -0.10522057 -0.96287966 -1.13288     1.8018402
  0.62072724 -1.3021059   3.2473223   1.9823978  -2.0116475  -6.8324347
 -2.8245773   0.7650064   0.38221687  2.652872   -2.9291027  -0.70525885
 -0.74606836  1.2830993  -1.4084035  -1.0222696  -0.10826669 -1.2837824
 -0.501264   -1.009465   -0.8918633  -0.4230451   0.13720517 -4.2710576 ]
layer 4 Activation
elu
layer 5 Dropout
layer 6 Dense
30 100
[-6.38608217e-01 -5.48698127e-01 -9.03277576e-01 -6.19170144e-02
 -8.62085968e-02 -6.45459956e-03  4.98244882e-01  3.30181003e+00
  7.02268928e-02 -9.38032746e-01 -2.46859264e+00 -6.11059189e+00
  2.61528683e+00 -1.07427694e-01 -1.97782791e+00 -2.19522429e+00
 -1.02175713e+00 -5.24238884e-01 -9.25693929e-01  1.90644050e+00
  8.94124448e-01  2.66101092e-01  6.37582839e-01 -7.12936461e-01
 -3.98469418e-02  3.33896130e-01 -1.93742931e-01 -1.20773292e+00
 -3.02026105e+00 -7.70644426e-01 -4.21631962e-01 -1.23656976e+00
 -2.93498874e+00 -1.22464873e-01 -1.03628635e+00  6.89805508e-01
  1.14235049e-02  1.62158772e-01  5.08452773e-01  9.46760893e-01
 -7.67373383e-01 -8.47815633e-01 -6.41510010e-01  2.41181865e-01
 -1.05256081e+00 -1.94095361e+00 -2.82486796e+00  4.73102294e-02
 -2.06641465e-01  2.14769745e+00  6.10804185e-02 -3.11205482e+00
 -6.07107103e-01  1.04561722e+00 -4.63199615e-01 -9.82060790e-01
 -1.53034836e-01 -3.95586997e-01 -6.40324116e-01 -3.93339902e-01
 -4.19280481e+00 -1.63812482e+00  3.93890530e-01  9.80927050e-02
  1.06746340e+00 -1.88866243e-01 -3.78628612e-01 -5.74610494e-02
  2.51854205e+00  8.74316096e-01 -1.17794585e+00 -2.54142499e+00
 -3.32325411e+00 -1.98765254e+00 -5.59718441e-03  3.46785158e-01
  9.78107601e-02 -9.06107783e-01 -4.55270481e+00 -9.31788981e-01
 -3.93000156e-01 -2.29018465e-01 -1.41600752e+00  5.34694195e-01
 -1.47524571e+00  1.13037169e+00 -8.31158638e-01 -1.13764799e+00
  5.59721887e-02 -4.94777948e-01 -2.16138673e+00 -1.07831013e+00
  1.37051165e-01  3.37217957e-01 -2.40132838e-01 -1.52539921e+00
 -1.02612925e+00 -1.22286844e+00  1.56196988e+00 -8.99277806e-01]
[ 8.9926761e-01 -7.2389044e-02 -1.8873601e-01  2.1472140e-01
  1.9328240e-01  5.0966364e-01 -6.0624987e-01 -1.7999626e+00
  1.6276816e-01 -1.1472138e+00  5.8821827e-01 -1.2447590e+00
  3.5414939e+00  1.6961919e-01 -5.7532620e-01 -7.1172041e-01
 -4.7637784e-01 -4.5822689e-01  4.3178982e-01 -4.2707429e+00
 -2.5669019e+00 -4.1300568e-01  1.9271525e+00 -4.8921254e-01
  2.0713827e-03 -2.9479975e-01  8.8455722e-02 -5.1150036e-01
 -8.0222374e-01  4.4946530e-01  1.0689014e+00 -2.7084682e+00
  9.8197484e-01  5.2280235e-01  2.2821483e-01 -3.3994493e-01
 -2.6725979e+00 -1.7150822e+00 -7.5795472e-02 -1.4169631e+00
  1.7390187e-01  1.2549074e-01  3.8248539e-01  1.1333305e-01
  7.4029386e-01 -3.7908626e-01 -7.4759054e-01 -1.1655280e-02
 -2.6289973e-01 -3.6194608e+00  2.6346492e-02 -2.6451612e+00
  5.0861186e-01  2.0335581e+00  6.5162075e-01 -3.8067797e-01
  2.8731424e-01  5.8710742e-01 -1.0311098e+00  7.0116848e-01
 -3.6367589e-01 -3.6543876e-01  5.2086744e+00  4.5760807e-01
 -5.6521553e-01 -7.2567195e-02  6.8011457e-01  5.6568712e-01
 -1.1576875e+00 -3.5671368e+00 -1.2703849e-01  1.1107094e+00
 -5.2848940e+00 -1.9293053e+00  1.5831176e+00 -2.2880514e+00
 -1.5985258e+00  2.8944116e+00  4.3503413e+00 -2.2026362e+00
 -6.9166750e-01  1.8430293e-01 -5.8889769e-02  5.1849234e-01
  6.8209052e-01  4.7408882e-01 -2.6173205e+00  1.1846837e+00
  7.7380770e-01  1.4457766e+00 -9.6639223e-02 -5.2419132e-01
 -5.5646485e-01 -1.0788071e+00 -1.3238169e-02 -3.6233213e+00
  5.8422899e-01 -9.7912526e-01  5.4420382e-01  4.2070410e-01]
[ 1.4260536  -0.15745866 -3.4616017   0.25162643 -0.3121868   0.10738251
  0.22901319  0.02580898 -1.0573586   1.1975253  -0.748376   -1.022465
  0.04668396 -0.02175983 -2.2780802   1.9240408  -0.07262108 -0.7483148
 -2.343362   -1.7713429  -0.23816195  3.1578999  -1.5757397   1.5150907
  0.01065978  0.22246684  3.904427   -1.471574   -1.1154213  -0.32046485
  0.30453688 -1.3679262   0.61725813 -0.08268949 -1.5125844   0.2318417
  0.25801238 -0.59540534 -1.1108981   1.2786443  -0.7467711  -0.51214546
  0.71067333 -0.17003533 -0.6459725   2.2282805  -0.17082416 -0.13618052
  0.70473534 -0.45689675 -0.05660337 -1.5435361  -0.27564955 -0.2861491
 -0.4201644  -0.21928574 -1.0654188  -0.2429863  -0.05805952  0.26828134
 -2.185337    1.5021667   1.2774587   0.149693    0.60982317 -0.04991052
  1.059439    0.15593316  4.1167107   2.2753954  -0.41194135  1.4973426
 -4.0245275   1.3513104  -0.966788   -0.40771586 -0.11344924 -0.6928974
  1.0963833  -0.40514216  0.1876339   0.3452317   2.6276984   0.44856024
  0.17337383  0.06406412  1.7677288   0.5642995   2.0245156  -0.13567244
 -0.00732085 -1.6613728   2.0725608   0.5463222  -0.0718878   1.3280878
  2.4444664  -0.91847014  1.8472768   0.16278405]
[-0.18560593  1.6986771   0.76278794  1.3595499  -0.14830917  0.90840346
  0.82025623  1.8237343  -2.0555325  -0.8163454   0.29620507 -3.732573
 -2.5329506   0.32574338 -5.5419593   1.3434676   0.4210686   0.40224034
 -0.8876081  -0.12346573 -0.02359278  0.14505537 -1.2921932   0.65370387
 -0.16082796 -0.00839343  0.12061876 -1.6046691  -4.4624295   0.18439925
  0.7446447  -4.6096463  -3.8034613   1.4944507  -0.19186734  0.69854975
  1.5382043  -2.639774   -2.4469795   1.2875608  -0.6667401   0.53974605
  1.8014145   0.08483806  0.09410579 -0.516694   -0.9366028   0.07729861
  1.1242149  -0.62889993  2.527294    1.3870158   0.16904807  0.7570874
  1.856652    0.48264912  0.13644831 -0.7873178   0.40487438 -0.45442155
 -2.0523698   0.70834476 -0.7571121   0.73988235  0.9197744   0.6039151
  1.8336006   1.2001196   1.5287062  -0.74979925  1.5383309  -5.8234525
 -0.4556043   3.167511   -2.1413443  -1.1718905   1.3764449  -2.1855834
 -0.35202214  3.0087786  -0.913165    0.63016933  1.0834234  -0.7573348
 -3.139089    2.3616965   0.7477      0.04980241  2.9771526  -3.566603
  0.5711526  -0.7406284   0.46994957  0.9401613   0.65568    -2.092822
 -0.0720263   1.0049653   1.343632    0.5759213 ]
[ 4.13626701e-01  2.77687371e-01  1.38310981e+00  4.06338304e-01
  2.48743445e-02 -8.90200026e-03 -3.83479178e-01  3.43334645e-01
  1.01757896e+00 -4.94522858e+00  2.77687645e+00 -1.24877729e-01
 -1.69964269e-01 -7.98385963e-02  3.07708066e-02  1.53947294e+00
 -4.68856283e-02 -4.09671813e-01  8.57944727e-01  2.93486476e-01
 -2.66872197e-01  1.99124789e+00 -8.83022666e-01  1.00022805e+00
 -5.63657694e-02 -3.53610307e-01 -4.32971656e-01 -7.49887884e-01
  2.90894198e+00  1.82668984e-01  1.95473179e-01  1.73493981e+00
  4.26357210e-01  5.95311761e-01  6.70325398e-01  7.08200753e-01
 -1.01099300e+00  1.89814544e+00  5.44258714e-01 -9.95209515e-01
 -2.92588234e-01  1.29310712e-01  2.69311011e-01 -4.35915170e-03
 -1.77784845e-01  1.75778556e+00  3.39671195e-01 -7.77902305e-02
  4.76927936e-01  3.09325904e-01  1.78691328e-01  2.07621291e-01
  5.23646057e-01  4.83558059e-01  1.47185415e-01  1.05005585e-01
 -6.47611737e-01  1.07452834e+00  2.18298340e+00  6.65809691e-01
  1.89838871e-01  1.00936353e+00  8.25524032e-01  6.31379941e-03
 -1.99182570e-01  4.55147684e-01  8.53318453e-01 -1.76912814e-01
  6.32784843e-01 -8.05903852e-01  1.23072112e+00  1.28537321e+00
 -1.06495643e+00  4.27342713e-01 -1.38317990e+00  2.47353601e+00
 -1.22739708e+00 -2.33159021e-01  3.77675176e-01 -1.52307081e+00
 -2.03943467e+00  2.84219801e-01  8.43579173e-01 -3.58004153e-01
  9.53504145e-01 -1.90714359e-01 -1.37828815e+00  5.33754706e-01
  1.34716654e+00 -1.23875594e+00  3.56471092e-01 -6.82464421e-01
 -3.56357694e-01  2.37634897e+00  4.00153138e-02 -3.35611153e+00
 -1.82417154e-01  3.12723190e-01 -1.15877640e+00  3.12068850e-01]
[-0.6964824  -0.30341637 -2.2531939   0.28109246 -0.40150088  0.24779333
 -1.142748    1.5719557   1.2737057  -4.2518535   0.44250822 -0.6607428
  0.78437483 -0.5085632   5.483091    0.5641241  -1.0482798  -2.673156
 -0.2301785  -0.1751848  -1.92345    -1.035201   -0.2656091   0.59561574
 -0.21668528 -0.01622025 -0.73218846 -2.6051605   3.0018816   0.33094692
  0.22648855  0.7744956   2.0266347   0.05779853  0.60918534 -1.2045602
 -0.44945526  3.3462625   0.98545855 -0.05103539 -0.7858248  -1.2902783
  0.4636345   0.4304688  -0.70348036  1.1190445  -2.3057728  -0.47517833
  0.5949741   1.647778   -6.421236    0.97000146 -0.04259905 -0.9260439
 -0.1297631  -0.4692547   0.5158116  -0.9520542   0.04716135 -0.60724175
 -0.9044869   0.94569117  0.96853304  0.70301425 -1.4842949   0.11672539
 -0.48201528  0.26854962 -0.7014696   0.92860174 -0.6769701  -0.89389586
 -0.2970997   0.93339366  0.5825862   1.0629679   0.1472232   1.2768523
  0.9252007  -1.3600603   0.9563608   0.01140712  1.7388825  -0.69133055
  0.28399533 -0.73172903  0.45623058  0.46018225  1.1989172   0.18108304
  0.05787643  0.97807735 -1.4492886  -2.3242533  -0.03212701 -2.2405965
  1.1088107  -0.5518859   0.3212097   0.13509575]
[-0.00533532 -0.93856543  1.2619431  -1.6476793  -0.3689821  -0.6124169
  0.59236854  0.40948796  1.801068    0.04703636  1.1233991   0.8146984
  0.89364487 -0.19569135  1.0166593   1.8538828   0.1303263  -1.0393857
 -0.36934134  0.9194623  -3.2329447  -1.3633517   1.6598903   0.9874541
 -0.15890278 -0.064762   -0.1481511  -1.4774567   1.1030248  -1.0303648
 -0.13840944  0.55775476  0.6847278  -2.092009    0.41663224  0.01682961
 -0.92824334 -5.182163    1.1273687  -0.36610812 -0.88744134 -0.14363079
  0.45280752 -0.08724031 -0.5025669  -1.7185904  -0.50776994  0.09435719
 -1.9114933   0.4980094  -4.167679   -0.12270369 -1.5578597  -1.1511362
 -2.2482758  -0.00794195 -0.20607337 -0.34202716 -3.2259986   0.7090485
 -1.8908918   2.189147   -0.5318651  -1.1193608  -0.7809376  -0.43749523
 -1.0773501  -0.8488846  -1.3516312  -0.56809425 -0.6655036   0.24272951
 -1.59004    -0.24277762  1.5217737  -0.8389094  -3.1781845  -1.6726089
 -1.6707588   0.32692006  0.5341487  -1.0433851   2.2519891   0.41726276
  0.91778773  0.40079576 -0.13297132 -2.268728    1.189323    0.24755281
  0.98147374  0.30044517  0.4811959   0.55734026  0.02894334 -3.7428155
  2.143584   -4.1363716  -1.3684424  -0.01481678]
[ 1.5150982   2.1812885  -2.432343    1.6184064   0.54981244  1.2429541
  1.4236039  -1.9883275  -1.1446612  -1.9088869  -0.7704224   1.0971252
 -1.3498855   3.0109746  -1.405971    6.0197845  -0.31704175  0.3816191
  1.8062187   0.83173144 -0.90323514  6.08138     1.8319435   5.7887073
  0.00879052 -0.11286426 -5.5099154  -0.45795858 -2.3956363   0.35655808
  0.1753922   0.6889014  -0.3677128   2.2647886   0.35399637 -0.15965992
  0.36906096 -3.727248   -0.19319537 -1.042856   -0.593855    0.215137
  5.384923    2.5154428   0.5369332  -1.2885883   0.62649316  2.641059
  2.2160869  -1.6349785   0.22497377 -0.06074151  8.330274    2.2005117
  2.0431914   0.1580768   1.235113    0.7387849   2.8991964   0.17548542
 -0.5185574   5.869059   -1.2186759   1.0784459   1.4649802  -7.7165055
  2.8622348   1.1037807  -2.3715281  -0.39419815  1.5236777   2.0956337
  1.3900337   1.5576361   0.37055165 -4.062371   -1.6187307  -3.5839097
 -2.2361615  -0.27925688 -0.57483524  1.0708226   5.71259     0.41705692
  1.6727462  -2.0214252  -0.81939125  0.30767938 -4.2389503   2.6958668
 -0.3144355  -0.8208319   0.0525461   2.991719    3.9343326  -2.3677976
  6.9173956  -1.0888349  -0.02901583  0.48936185]
[-1.2403402  -4.47907    -3.0781755  -3.9977653  -0.006996   -4.3782644
  0.06540332  0.45907658 -1.0107324  -2.507754   -0.826652   -0.9270222
 -1.7146255  -1.1323881  -2.6449687  -3.7751715  -3.995514   -4.5059757
 -1.4778967  -1.2856385  -2.5720348  -3.0953927   0.22632478 -4.395405
  0.3467966  -1.5962644  -0.19754538 -1.744846   -1.5699487  -4.7408524
 -4.4527326  -0.2564053  -0.82253337 -3.903824   -4.499407   -3.434176
 -0.8978253  -2.2887485  -0.54144865 -0.16365428 -3.872476   -4.1154604
 -3.0126095  -0.04480578 -3.880832    0.29049125 -1.0447245  -0.65759647
 -3.423354   -0.50335026 -4.9179993  -1.995161   -3.109047   -0.31405097
 -3.7032182  -3.8898807  -1.3889459  -4.312899   -3.4289324  -4.0895505
 -1.241865   -3.8134487  -0.02215989 -4.525121    1.0732744  -2.8586664
 -4.349664   -4.4573503   0.87679    -3.0001752  -4.0242844   0.10109857
 -2.9592845   0.5351456   0.33619565 -2.7762108  -3.654785   -2.6210437
  0.9216643  -0.35940567 -0.61096257 -4.32381    -3.8287704   0.07471669
 -1.9032781   0.30703995 -1.5510849  -1.5329314  -3.4746182  -1.273588
 -1.8468959  -1.1767904   0.7807882   0.63728815 -2.0255284  -1.4719095
 -2.1869545  -3.0159118   0.24998972 -4.291275  ]
[-0.47349334 -3.541854   -1.3415946  -2.8394718  -0.05828324 -3.4604201
 -0.5838      0.37958637  0.48853403 -3.8207805  -0.4291864  -0.16443837
 -2.1844807  -0.7121311  -3.5589263  -3.1520817  -3.7244866  -3.1548362
  0.02188185 -1.594032   -3.4307325  -2.1149316  -0.44965097 -2.282781
  0.36633155 -0.3207192   0.1193333  -0.8423317  -1.0072215  -4.450898
 -3.8297107  -0.49855652 -0.15938848 -3.16423    -0.52946556 -2.5129457
 -0.66713834  0.6528787  -0.2020671   0.00462573 -2.3981202  -4.2831554
 -1.3479172   0.3711654  -1.4904784   0.58722246 -0.967733   -0.3335126
 -1.9360266  -0.86045253 -3.6186397  -0.53053564  0.85408247 -0.21343708
 -2.8240101  -3.5200148  -1.6831578  -2.9201655  -1.6675651  -4.0029116
 -1.1575321  -1.9155854   1.0949944  -3.7900999   0.727749   -1.7791743
 -3.5068092  -3.7707484   0.10391901 -2.5357964  -3.7320325   0.6643501
 -1.3571192   0.5901444  -0.5070523  -0.6010847  -2.8250446  -1.9600265
  2.1327243  -0.5374586   0.04247459 -3.0799716  -2.91358     0.35533792
 -1.9894913  -0.09359469 -1.3267179  -0.04552022  1.3710163  -0.06309896
 -2.1978054   1.153035   -1.5308534  -1.2178711  -1.217153   -0.83020246
 -1.1718187  -2.186862    0.21843705 -3.5707614 ]
[ 0.03337505  1.4457356   0.5262013   1.8843125   3.1168034   0.27209142
 -0.25083727  0.00742337 -0.8023184   0.85103285  1.0539256   0.9453985
  1.4192232   5.0252657  -1.6367508   6.6456985   0.99709696  1.3409272
  3.128727    0.4079542  -1.0718822   3.7641351  -0.6045494   5.107158
  3.1316917  -2.8904493  -0.5626366   0.06794842  0.48974353  0.52813625
  0.12550734 -0.13562179  1.0448216   2.0909975  -2.1967247  -0.4953075
 -0.42206475  3.8882518  -1.1148311  -1.13595    -0.65115196  0.33008498
  5.605296    4.394267   -0.6887888  -0.01529204  1.6664938   3.9556582
  3.6092608   2.422795   -3.5050738   0.22777753 -0.03509918  0.12009903
  2.680129    0.24694587  0.2542049  -0.36594054  1.3091984  -0.0084133
  1.3491745   4.8840714   0.07748134  0.79803437  0.13576674 -1.1939678
  1.7079175   0.6373474  -0.49680233 -0.3474007   1.7382768   0.9969462
 -0.62160975  0.06984589 -0.10547975  0.4394741   1.3298815   0.07034454
  0.15856715 -1.0254309  -0.8581265   1.0765405   5.704044   -0.01431127
  1.311684   -0.04606735 -2.0279806  -0.17390066 -1.3986789   0.5175983
 -0.07273847 -0.5791278   0.2328602  -0.19943723  5.4620256  -0.61538506
  2.9177344  -1.6817129  -0.828501    0.26612633]
[-3.60219026e+00  5.78722477e-01 -3.81382966e+00  4.01903838e-01
 -8.74760598e-02  8.65774632e-01 -6.49009198e-02  4.33818579e-01
 -1.69707358e+00 -3.39794230e+00  1.80417509e-03 -1.39622748e+00
 -3.70147228e+00  1.21278539e-01 -7.03011155e-01 -4.48530108e-01
 -9.68751073e-01 -2.00019336e+00 -1.04692012e-01  1.11546710e-01
 -1.75623035e+00 -4.39786315e-02 -2.51706302e-01 -4.25363004e-01
 -8.44024643e-02  1.11246713e-01 -3.95571329e-02 -2.72038907e-01
 -2.27415279e-01  5.47166705e-01 -7.63545856e-02 -3.09644610e-01
 -7.01928318e-01  4.75857377e-01 -7.41777420e-01 -1.27632821e+00
 -3.01988721e-01  1.76629364e+00  3.36949416e-02 -2.93302983e-02
 -1.35661864e+00 -8.69964540e-01  2.53311306e-01 -2.96915192e-02
  1.23655999e+00 -4.48577553e-01 -5.33573961e+00  7.22005963e-02
 -8.67606252e-02 -3.86806697e-01  8.07486057e-01 -1.62642360e+00
 -6.62534654e-01 -2.46776804e-01  1.01815060e-01 -1.01431084e+00
  1.88707963e-01 -1.05318797e+00 -1.98533809e+00 -7.28817642e-01
 -4.60826337e-01 -1.87292182e+00  1.78127438e-02  4.85641241e-01
  1.00137842e+00 -1.00193895e-01 -2.36325301e-02 -6.61337078e-02
 -3.65055829e-01 -2.24742830e-01 -1.84569880e-03 -3.63464862e-01
  6.60239533e-02  1.07888997e-01  2.45664001e-01  1.03129409e-01
 -1.07908249e+00  3.84358287e-01 -3.15933302e-02  6.54760152e-02
 -7.19158053e-02  1.03031111e+00 -1.19393229e+00  1.34023023e+00
  4.47755121e-02  8.41646791e-01 -5.60316220e-02 -3.19005442e+00
  8.54189470e-02 -1.69868052e-01 -6.65244997e-01  1.68004166e-02
  4.14109230e-02 -1.90531731e-01  3.32811028e-01  9.78068948e-01
 -1.50024605e+00 -1.67383015e+00 -2.19615698e-01  3.25619459e-01]
[ 3.98776025e-01  1.44343603e+00  2.23729515e+00  3.72550702e+00
 -5.40478230e-01  2.14868736e+00  5.74101647e-03  1.46011069e-01
  3.21738034e-01  3.77317011e-01  3.75398278e+00  2.41897845e+00
  2.24245858e+00  3.25637007e+00 -1.60466766e+00  5.72800398e+00
  1.30498791e+00  2.25252688e-01  6.14676046e+00  7.82124579e-01
  1.50509727e+00  1.58664495e-01 -2.61470556e-01  1.13261688e+00
 -1.98144603e+00 -2.30034208e+00  3.35708523e+00  1.49210095e+00
  7.72738218e-01  3.23179173e+00  1.64639676e+00  2.21219063e+00
  1.78907633e+00  4.07159328e+00  5.60856342e-01 -8.02223146e-01
 -2.35566318e-01  8.70869923e+00 -3.69479768e-02 -7.58366704e-01
  1.16301739e+00  3.79734963e-01  7.84617519e+00  3.48253274e+00
  2.51628852e+00  1.19349301e+00  3.05310440e+00  3.63890839e+00
  5.22544146e+00  1.08846629e+00 -1.77575112e-03  1.35300767e+00
  1.69213629e+00 -1.55088747e+00  4.65875292e+00  9.47058320e-01
 -1.09741494e-01  1.78919613e+00  1.69885540e+00  9.65334356e-01
  1.67871940e+00  1.73492873e+00 -1.12830079e+00  2.84136224e+00
  2.94235870e-02  2.20140791e+00  2.67067885e+00  2.28898835e+00
  1.21473026e+00  1.60626900e+00  3.29314590e+00  2.78135586e+00
  2.06761861e+00 -1.42268944e+00  6.36597514e-01  9.90563333e-01
  1.38792765e+00  9.14330542e-01  1.72373563e-01  3.39683086e-01
 -7.48050749e-01  3.32783246e+00  5.45697689e+00  3.48592103e-01
  2.31814837e+00 -1.30667891e-02 -2.62570286e+00  2.34435320e+00
  1.82558656e-01  2.32885385e+00  6.47652090e-01  1.04256725e+00
  7.74490654e-01  1.88249373e+00  4.45733261e+00  5.27755618e-01
 -1.64074862e+00 -3.69197011e+00 -4.02736664e-01  2.50471163e+00]
[ 1.8586531   0.70281124 -7.2100453   0.97821814 -0.18929285  0.43227807
  0.04799926 -1.9357092  -0.69760585 -0.3338912  -0.487048    1.4547081
 -2.2761767  -0.18075635 -4.065342    1.9133555  -0.15887226 -6.121316
 -2.0121496  -0.10128286 -0.63827205  1.2607096   0.71441156  1.8782685
 -0.10222992  0.5328512   1.0820122   1.6348063  -3.0433586  -0.11848157
 -0.43177813  0.0581465   1.844173    0.6488646  -0.9610304   0.2998865
 -0.58605474  2.1331327  -0.69623655  0.43784076 -2.0863106  -1.1555098
  2.2592812   0.01263352  0.6130701  -0.5374558   5.1757026   0.06267531
  1.3357581  -4.820576   -5.3830695  -2.9116423  -2.7676363   0.24835579
  1.4536369  -0.30527762 -0.10736903 -1.176257    1.3232023  -0.9775662
  0.08571396  2.5686436   0.26727265  0.26635504  1.8520824   0.41999117
  1.2603703   0.05258794  1.050238   -1.8022223   0.7158133   1.0291889
 -3.7771113  -1.6378292  -0.90515554 -1.1333562   0.45414674 -7.426587
  0.4490263  -0.49679595 -0.3002487  -0.20788816  3.1510417   1.2422957
  3.3507838   1.4828323   0.984256   -1.6867067  -0.55720305  2.9295733
  1.3021784  -1.6977861  -0.13357061  0.26616773  0.07357599 -2.0016942
  1.9931431   0.12324344 -1.2103772  -0.5884499 ]
[-7.2295743e-01 -7.9304636e-01 -2.5089426e+00 -2.6369739e-01
  5.0737488e-01  3.9330652e-01 -1.1357700e+00 -6.1359290e-02
  2.4774082e+00 -4.1540842e+00 -1.1095217e+00 -4.8094917e-02
 -2.4390438e+00  4.6965778e-03 -4.8068781e+00 -2.8882399e+00
 -3.3785431e+00  1.5046116e+00 -2.4847221e+00 -2.8630526e+00
 -3.1363342e+00 -4.6332316e+00  8.1486732e-01 -3.8632281e+00
 -5.6621539e-03 -2.1473983e-01  1.7353513e+00 -4.3224635e+00
 -4.0594845e+00 -7.5568539e-01 -4.6412653e-01 -2.5000472e+00
 -4.9694076e+00 -4.0648681e-01  7.4142613e+00 -4.7477761e-01
 -1.6536196e+00  3.4103625e+00  2.0308968e-01  9.5106167e-01
 -2.7236135e+00 -3.6245775e+00 -8.9683580e-01 -6.1242986e-01
 -9.9052411e-01 -1.6475070e+00 -8.8342005e-01  3.9616111e-01
 -4.1080049e-01 -8.5225880e-01  4.6089807e+00  1.4853705e+00
  2.6389029e-02  1.3707831e+00  2.3520009e-01 -3.3661611e+00
 -7.6205514e-02 -2.5850356e+00 -3.8061103e-01 -3.5018718e+00
 -3.3655405e+00 -1.3421243e+00  1.0739537e+00  1.8370125e-01
  1.8122652e+00  2.4370747e+00 -1.4214407e+00  1.9622976e-01
 -7.8356320e-01 -9.9236882e-01 -1.4386014e+00 -1.5992246e+00
 -7.7115822e-01 -6.1433750e-01 -9.2294234e-01 -3.0250609e+00
 -2.8991399e+00 -7.2795773e-01  3.1670394e+00  9.9695498e-01
  2.8806026e+00 -3.5510778e-01 -1.7172467e+00 -3.8323089e-01
 -3.2468464e+00 -2.0225258e-01 -1.3510631e+00 -1.6613138e-01
 -6.4719790e-01 -2.0261552e+00 -4.0369377e+00  3.5529137e+00
 -1.1493707e+00 -1.7088895e+00 -4.4279420e-01  9.8096764e-01
 -7.0702648e-01  2.4840949e+00  3.9635089e-01 -2.4878453e-01]
[-0.1870342  -2.5769405  -2.1409822  -2.6884851   2.692129   -2.8888187
 -0.77818215 -0.39177713  0.509268   -0.72706383 -4.1107936  -1.727644
 -2.0496008  -0.95482683 -0.5897182  -2.3148065  -2.2200487  -0.7770674
 -0.8607166   0.17778695 -1.9771911  -1.7754254   0.29214773 -0.88874364
  1.2893037   0.20364386  1.2700142   1.0329187   0.7702751  -3.9444766
 -4.136764    0.8537642  -1.1679547  -2.442652    2.1944377   2.6490426
 -0.16092011 -2.094387    0.48218426  0.2009901  -0.98590684 -2.329616
 -1.6208446   0.52799946 -0.8264118  -0.35608804 -3.2844982  -0.04787106
 -2.4578047  -4.944367    3.3782659  -2.660186   -8.157967    0.60740316
 -2.6555748  -1.2554338  -0.36367062 -0.6671599   0.31264555 -2.6016512
 -0.41019377 -2.3253303   0.6677544  -3.3472493  -0.79135466  2.2189937
 -2.5861955  -3.1852202  -0.7982029   0.619285   -3.4284155  -2.590919
  0.75606316  1.7355233  -0.0185206  -1.6893926  -1.1134148   2.0900557
  0.25142998 -0.1434816   0.3141641  -3.1321251  -2.0104716   0.46305326
 -1.6944393  -0.1222382   1.0106696   1.3531165   1.9224766  -3.4396799
 -1.0400876   0.7298713  -1.6732594  -1.5534757  -1.5098581  -1.5995972
 -1.8528858   1.5279546  -0.24169818 -4.000868  ]
[ 0.55273134  0.6907412   4.073027    0.6344156  -2.6765878   1.3096734
  1.104731    0.47113284  1.6455307   1.1725322   2.4631712   3.2909577
  2.4887795   0.671313    2.8385363   1.0809128   1.2656813  -1.9416931
  1.0143819   0.91337425  0.09776922  0.64121276 -0.41946593  0.33473876
 -4.246433   -1.7355312   3.541612    1.3795846   2.0438194   1.1437734
  1.1920266   5.363174    1.8921211   1.059628    0.9310356   0.57194674
  0.5423588   0.44958344  2.6965604  -0.7482858   0.6361722   1.5667756
  0.89423877 -0.15717293  0.44227487  1.7008873   3.728017    0.13394062
  0.27441758  1.6732284   2.6822705   1.8194033   2.0316641  -2.4908004
  0.73749447  1.0776355   0.42741555  1.0078467  -0.09239702  1.6004448
  2.0573812   0.30584094 -3.389518    1.3679079  -1.3349713   4.2437005
  1.1470228   1.113436    2.4673355   0.7466432   0.81469005  4.8580647
  2.1101599  -3.2419329   0.52898264  2.3443084   0.75650215  1.792441
  0.39006808  1.6510774  -0.93739915  1.1981575   1.0452334  -0.14596446
  2.3896804   0.8726863   0.46474946  1.7500924  -1.0461274   1.9735107
  0.802381    2.1625504   1.562109    1.5034928   0.5758143   0.49505693
  2.3025365  -0.04352386 -1.2649426   1.3000674 ]
[-2.1222746e+00  1.8073857e-02 -4.8807282e+00 -4.1230816e-01
  1.3556831e-02 -3.7392500e-01 -1.4857432e+00  7.0493764e-01
  2.5662334e+00 -1.3064257e+00 -1.8324820e+00 -5.1604609e+00
 -5.6527071e+00  3.3780479e-01  1.4605782e+00  7.5374043e-01
 -1.1494030e+00  1.4329193e+00 -4.6182013e+00 -2.8902695e+00
 -1.3749299e+00  9.4071972e-01  1.5974611e-01  1.3566601e+00
  1.5064159e-01  3.6904109e-01  1.7188131e+00  1.5516695e+00
 -1.5818956e+00 -6.3284981e-01 -4.9836883e-01 -2.2331314e+00
 -3.7643459e+00 -5.7383919e-01  5.2361488e-01 -4.8290214e-01
 -1.8502173e+00  1.0973191e-01 -3.5345554e-02 -6.2894386e-01
 -7.6513022e-01 -1.4514335e+00  4.9352393e-01  3.5600692e-01
  6.1066583e-02  5.5491757e-01 -1.1917222e+00  1.0944775e-01
 -1.4545918e-01 -1.1091510e+00  2.4287400e+00 -1.4569159e+00
 -1.4247705e+00 -2.5792503e+00 -2.2401793e-01 -1.0214871e+00
 -4.6503505e-01 -7.5428146e-01 -2.4751841e-01 -1.3288122e+00
 -1.1570119e+00  1.2709246e+00  1.7359607e+00 -3.4956464e-01
 -6.9906157e-01  1.6180198e-01 -4.0191528e-01 -2.8264484e-01
  6.5645307e-02  1.4437461e+00  2.4928242e-01 -3.9717340e-01
 -2.2362771e+00  1.3380389e+00  2.8777189e+00 -2.4399097e+00
 -4.8007086e-01 -5.2086916e-03  3.5595226e+00 -1.9076703e+00
  2.1082768e+00 -7.0632148e-01  1.1819975e+00  6.7546952e-01
  1.4590899e+00  4.7711325e-01 -1.4572355e+00 -1.7909746e+00
 -1.7299402e+00 -2.5692968e+00  2.9394259e+00 -1.4639791e+00
 -4.8636746e-01 -2.2514043e+00  7.0386058e-01 -3.8581700e+00
  1.0412221e+00  2.0793606e-01 -4.1371605e-01 -5.6267333e-01]
[ 2.15857908e-01 -1.10365832e+00  1.91609710e-01 -3.09299499e-01
 -6.02020502e-01 -1.05496563e-01  5.55435538e-01  8.51398408e-02
 -6.57532036e-01  2.20082235e+00  1.45141810e-01 -1.87168613e-01
  3.64645422e-01 -2.19087496e-01  2.21792746e+00 -4.05254698e+00
 -5.16440868e-01  1.18006217e+00  4.44701624e+00  4.02824640e-01
  1.70692277e+00  2.31439203e-01  2.57334143e-01  2.12762132e-01
 -3.59110892e-01 -3.62054080e-01  5.52095622e-02 -5.17528765e-02
 -7.82971084e-02 -3.04049790e-01  3.10963276e-03 -1.44163063e-02
 -3.57793808e-01 -1.53031796e-01  4.58864784e+00  6.72383213e+00
  2.70906299e-01  4.68398362e-01 -3.89302343e-01 -1.62114352e-01
  8.75704408e-01  1.99537292e-01 -1.17449939e+00 -3.57367456e-01
  1.45691991e+00 -3.97299707e-01  2.60935962e-01 -1.00671627e-01
 -1.16662157e+00 -9.05191720e-01  1.67481273e-01  8.44712928e-02
 -1.09998584e+00  1.60596669e-01 -1.26039755e+00  2.22590864e-01
  6.41779482e-01  1.48925877e+00  8.10214615e+00  2.39488438e-01
 -3.78646925e-02 -4.83967113e+00 -5.78105450e-01 -2.13286772e-01
 -2.46803567e-01  9.18873131e-01 -8.38402748e-01 -1.60812229e-01
  3.00215602e-01  1.73911321e+00 -1.41570234e+00 -3.04112732e-01
  7.10350633e-01  1.31882122e-02  1.13124184e-01 -6.62282586e-01
  1.46930683e+00  1.00251675e-01 -9.55482185e-01  4.84215647e-01
 -1.66142806e-01 -7.80417696e-02 -4.39065409e+00 -6.29664510e-02
  1.32901460e-01  2.28529423e-01  4.14529085e+00 -6.14747941e-01
 -1.44665349e+00 -3.20766211e-01  6.58301115e-01 -1.16664922e+00
  1.38785696e+00  1.15549123e+00 -2.28791296e-01 -1.49274811e-01
 -1.82895386e+00  4.13432455e+00 -3.42173249e-01 -3.83123457e-01]
[-8.7090850e-01 -4.5952673e+00 -3.4527304e+00 -4.1230922e+00
 -7.9582500e-01 -5.3795805e+00 -1.0776310e-01  7.2855318e-01
 -1.4341424e-01 -1.1660520e+00 -9.6890575e-01 -2.6489215e+00
 -3.6322267e+00 -4.5143849e-01  1.9717783e+00 -2.5439630e+00
 -2.5298846e+00 -1.4783809e-03  3.9678019e-01 -2.6973653e+00
 -1.8681018e+00 -4.8941741e+00  3.1815786e-02 -7.1678810e+00
  2.7372983e-01 -3.1859541e-01  7.0947729e-02 -1.5411826e+00
 -3.8226509e+00 -5.3153372e+00 -5.0353355e+00 -1.9217288e+00
 -2.8108535e+00 -3.9977787e+00  2.8197968e+00 -4.8214760e+00
 -7.5039178e-01 -3.6889558e+00 -1.3562790e+00  2.0317128e-01
 -2.1360233e+00 -2.5987754e+00 -2.2164412e+00 -2.6958597e-01
 -2.7401383e+00 -1.7421888e-01 -2.1312587e+00 -2.5175121e-01
 -2.2964420e+00 -3.0860982e+00 -1.1918490e+00 -1.7632986e+00
  1.0254719e+00 -2.6208177e-01 -3.4630916e+00 -2.7390530e+00
  5.2336794e-01 -2.8544099e+00 -7.0536489e+00 -2.7086477e+00
 -7.2909036e+00 -3.4786999e+00  8.1752020e-01 -5.5562730e+00
  1.7137464e+00  2.1826725e+00 -4.5962982e+00 -5.2745609e+00
  3.5334510e-01  2.0940802e+00 -5.2058253e+00 -2.4786077e-01
  1.0493680e+00  5.3385079e-01 -4.8634771e-01 -2.9653533e+00
 -2.9758070e+00 -1.5303358e+00  3.0624979e+00  3.0121285e-01
  1.3324342e+00 -5.3537998e+00 -3.2760439e+00  6.3594419e-01
 -2.0517282e+00  4.9424532e-01 -5.0155026e-01 -1.6596162e+00
 -9.1018540e-01 -1.2381343e+00 -2.7705004e+00  1.2509778e+00
 -2.3469521e-01 -1.0390477e+00 -1.4921161e+00 -1.0024753e+00
  3.9060688e-01 -4.7385955e+00 -1.6741380e-01 -4.8464746e+00]
[-4.4394100e-01  5.2210015e-01 -1.5675801e+00 -3.0142525e-02
 -2.8805753e-02  3.3216596e-01  1.5691272e+00 -6.4456969e-01
 -4.8693008e+00  1.8870393e+00 -2.3032696e+00  3.9464024e-01
  1.4198925e-01 -2.8240748e-03 -2.1249986e+00 -1.1633337e+00
 -3.0363014e+00  4.2887792e-01  4.8353717e-01 -1.9306767e-01
  3.5025278e-01 -2.9096737e+00  7.0248139e-01 -8.5862362e-01
  9.4027683e-02  3.1929234e-01 -6.1263673e-02  1.2130861e+00
 -1.5588181e+00 -5.2587700e-01 -7.7188772e-01 -1.5309114e+00
  1.5533789e+00  7.1673810e-01  2.9192206e-01 -9.4366306e-01
  8.1293732e-01 -1.3307140e+00 -2.8474668e-01  2.7134326e+00
 -3.0860484e+00 -2.8736670e+00 -6.0082465e-01 -4.4982992e-02
 -2.1025922e+00 -1.9059263e+00  1.8508600e-01  8.0285251e-02
 -6.6383249e-01 -5.4416651e-01 -7.4159479e-01 -1.3312116e+00
 -1.0227919e+00 -6.3952124e-01 -1.8361601e-01 -2.9959328e+00
  2.0390852e-01 -2.5556803e+00 -6.4537990e-01 -2.2543426e+00
 -2.7459753e+00  1.5377429e+00 -6.3969034e-01 -6.2153204e-03
 -1.5416856e+00 -6.5089649e-01  5.2972203e-01  9.8225236e-01
 -3.2220778e-01 -1.3511593e+00 -1.2799071e+00 -1.7793471e-01
  7.2525293e-01 -5.8075392e-01 -1.6682035e+00 -1.4654247e+00
 -3.3503339e+00 -1.2228829e+00 -4.8098320e-01  7.3745704e-01
 -1.2773982e+00 -4.4539712e-02 -1.2858089e+00  4.5413260e+00
 -1.3660971e+00  1.0963587e-01  7.4046803e-01  3.8686827e-01
 -1.9654205e+00  1.9270684e+00 -4.8773999e+00 -3.2404685e+00
  2.9384279e-01  4.7564733e-01  1.0091574e-01  2.2833176e+00
 -7.0957005e-01 -8.0684853e-01  2.9847360e+00 -7.1919155e-01]
[ 1.2449017   1.2042549   2.4349377   1.4767139   3.9540133   0.38743523
 -0.15406692  0.5234659   0.7951805   0.42347145  0.7239356   0.7819516
  0.49327424  4.750051    1.6403608   4.085964    0.14192753  3.869318
  1.4924117  -0.2313077  -1.0525616   3.1485963  -0.20030974  3.5501778
  5.8562026   1.3909953  -4.6498513  -0.78039503 -0.06298102  0.5553071
 -0.07181571 -1.2103225  -0.19656128  1.5721463   1.7237158   0.6851612
 -0.26504698  2.577214    0.07355548  0.22021435 -0.6323813   0.02558521
  4.2564564   3.9347863  -0.14224513 -0.11843226  0.9227915   4.3883615
  2.476536   -0.07167809 -0.6115081  -0.15640573 -3.2083158   2.3606715
  2.0136144  -0.052443   -0.01407727 -0.534867    0.08478553 -0.12123944
  0.21877867  3.6859188   1.4893404   0.5372879   0.38781476 -4.2357383
  1.2000135   0.88057107  0.25164795 -0.11732429  1.2397562   0.34686938
 -0.08495159  2.2759345  -0.98761743 -0.26914367 -0.58430517 -0.2741875
 -0.4959297  -2.69932    -0.08892029  0.48444432  3.6343243   0.01695507
  0.32851213  0.18836245  0.5524028  -6.5961356   0.71474344  0.53617257
 -0.53715867 -1.8905367   1.9054554  -0.3961781   4.914464    0.47586685
  3.7250483   0.808266    0.38429108  0.1561018 ]
[ 3.4611323e-01  8.2567036e-02  2.0730215e-01  5.4161477e-01
  6.2039779e-03  1.0410228e+00  1.1130294e-01 -9.3471313e-01
  6.9827393e-02 -1.1278501e+00 -2.5067621e-01 -2.7771404e-01
  3.4416950e-01  8.9384198e-02 -2.8338528e+00 -4.0837878e-01
 -6.1662710e-01 -6.7972797e-01  4.4640689e+00  2.7823765e+00
 -2.3501489e+00 -8.7454778e-01  2.2148616e+00  2.5967313e-03
  4.1257668e-02 -1.4442596e-01  5.2772559e-02 -6.2538886e-01
  3.0118743e-02  7.7462387e-01  6.6221923e-01  1.5426630e+00
 -9.3701327e-01  1.2263129e+00  1.6719180e+00 -3.7467268e-01
 -2.5103089e-01 -3.4511158e+00  3.2501338e+00  2.3015456e-01
 -2.2119267e+00 -1.2021255e+00 -3.1110384e-02  2.7386162e-01
 -2.0521729e+00 -1.5970050e+00 -1.6711190e-02  2.2341606e-01
  1.4749981e-01  2.7200403e+00  4.1774251e-02 -5.0949907e-01
  1.0245070e+00  1.2388448e+00  3.0908939e-01 -1.2801814e+00
 -7.2126798e-02 -1.2184008e+00 -1.2079130e+00 -6.7662024e-01
 -1.0726626e+00 -4.6280971e+00 -1.6767627e+00  5.8673185e-01
  6.3005990e-01  4.8251364e-01  7.0851856e-01  7.3370159e-01
 -2.6312308e+00 -2.0674907e-01 -5.0198011e-02 -3.9402443e-01
 -7.3663449e-01 -2.2035110e+00 -1.0077819e+00  1.5945847e+00
 -1.5079172e+00 -8.6957258e-01 -2.4974568e+00 -5.0498325e-01
 -1.6694561e-01  9.3773532e-01 -3.2515175e+00  3.6009476e-01
  6.4747972e+00 -3.6831191e-01 -5.7887256e-01 -4.0934983e-01
  1.0658602e+00 -3.6026986e+00 -1.7536402e+00  2.2477947e-01
 -5.0421154e-01 -1.3874200e-01  9.7949050e-02 -1.0592171e+00
 -9.0454513e-01 -2.6955721e-01  9.5727319e-01 -7.4891571e-04]
[-0.09261977  1.187917    1.1731919   1.7710594   4.38962     0.40705448
  0.39275193 -0.25111023 -0.38669646  0.8678571   0.41451654  0.28710148
  0.7012923   4.622077    0.5442343   3.823009    0.43126318  3.8335176
  2.2398627   0.03771654 -1.1073819   2.6366181   0.01169626  3.0774596
  6.082633   -0.7607324  -4.2411942  -0.5276663  -0.12402245  0.3584384
  0.19462861 -1.415461    0.33123904  1.5186273   1.9640205   0.9004308
 -0.12201446  3.0335054   1.0010939  -0.7295112  -0.99407387 -0.28112233
  4.275217    3.5860274  -0.39938992 -0.413295    1.4172734   4.0711036
  2.999244    0.5181719   0.6104386   0.17280838 -0.8353872   1.27081
  2.2667263  -0.04847646  1.4553069  -0.87769085  0.50789356 -0.22061235
  0.11256872  3.198595    1.2888763   0.79666966  0.46940193 -4.101963
  1.4886351   0.7217802  -0.12355572  0.44271433  1.1213903   0.20994374
  0.18710527  1.6351547  -0.62883747 -0.31399313  0.06604908  0.12083125
 -0.54889995 -2.2036192  -0.20547445  0.92878795  3.789777    0.16351885
  0.6503882   0.218873    3.0695622  -3.4789464   0.06809776  0.6625184
 -0.23745354 -1.7165928   0.45424858 -0.22862819  4.8444204   0.52513015
  2.7602692   2.587438   -0.2859028   0.3580757 ]
[-5.73606849e-01  4.82370526e-01 -2.20619655e+00 -1.34330206e-02
  7.76305934e-03  1.44126475e-01  1.16773844e+00  8.95100832e-01
  4.60710883e-01  2.63896489e+00 -3.96903300e+00 -5.97888470e+00
 -3.52652383e+00 -4.59960923e-02 -1.19988799e+00 -2.48611355e+00
 -2.99243331e+00  2.81021357e-01 -2.90228391e+00 -1.19832194e+00
 -1.18226337e+00 -2.45820880e+00  6.28674269e-01 -1.12552571e+00
  9.49959159e-02 -5.85486591e-01  3.93351960e+00 -4.84752767e-02
 -2.84180427e+00 -1.23645771e+00 -1.67312741e+00 -3.89439988e+00
 -2.33580518e+00 -1.33168355e-01 -8.12681735e-01 -1.30950975e+00
  1.14363086e+00  4.40886676e-01 -2.21245587e-01  9.00906861e-01
 -2.27043462e+00 -2.59396243e+00  5.91688091e-03 -2.95320094e-01
 -2.57227826e+00  6.68209732e-01 -5.57530165e+00  1.63427874e-01
 -3.58134657e-02 -3.93812823e+00  6.08681917e-01  3.55590321e-03
 -9.55931425e-01 -1.19345129e+00  1.20497905e-02 -2.79253626e+00
 -1.60577381e+00 -2.68439531e+00 -2.34680200e+00 -2.79245710e+00
 -1.83701241e+00 -2.48568749e+00 -1.43836927e+00 -5.25345325e-01
 -5.67079596e-02 -1.94020021e+00  2.07817703e-01 -5.61728060e-01
 -1.67306304e+00 -1.79879463e+00 -1.20902622e+00 -1.58429384e+00
 -1.24335754e+00  1.66512728e+00  2.43448424e+00 -4.31950712e+00
 -1.56595683e+00 -4.60140657e+00  1.35615242e+00  1.73576081e+00
  1.56363177e+00 -4.27385151e-01 -4.36246723e-01  2.69118452e+00
 -3.61998630e+00  1.04590118e+00  6.45242929e-01  4.01184112e-02
 -3.43762860e-02 -1.45110339e-01 -2.26494050e+00 -2.83647561e+00
  3.92228454e-01 -1.35939407e+00 -1.42860353e-01  1.44557500e+00
 -8.32727790e-01 -4.60283577e-01  5.10822654e-01 -2.04751968e+00]
[ 1.6602427  -0.23999952  2.101964   -1.0681591   0.15739594  0.1290199
  1.8319092   0.4840648  -2.4932768   1.6911623  -2.8918333   4.7136927
  0.95865613  0.25142974 -2.1402187  -1.0470392  -1.7759844  -1.1380622
 -0.55344    -0.22128612  0.8974858  -0.8585993   0.11401355 -0.45994347
 -0.03453077 -0.03352699 -3.7508101  -0.80239326 -3.2734776  -0.4773199
  0.2403896   0.8422027   0.3208228  -0.23001866 -2.3893106   0.24146156
  1.0427655  -1.7063652  -1.8496991   1.4910873   0.02271281 -1.6540462
 -0.26597413  0.4822998  -1.1755724  -2.761353   -1.0263689   0.24070013
 -1.0055387  -1.839371   -2.325799    3.4574542   0.22936794  0.5285602
 -0.70509386 -1.5035602  -1.1478605  -0.92111284 -2.0927207  -1.4691086
 -1.2866937  -1.424434   -0.5254043  -0.34704173  2.6056087   0.14120014
 -0.8266863  -0.31933025  0.31184328 -1.3712553  -1.1544343  -0.8396207
  1.3079388  -0.6953375  -4.962226   -0.5970455  -1.6092888  -2.6524122
 -0.1033952   2.6529531  -0.08340409 -0.47995088 -1.3034059  -0.29958022
 -3.435178    0.075816    3.6103485  -1.9576045  -1.0480418   0.8652235
 -4.830806    0.9127907   1.1835725   1.6402154  -0.21881378  2.1134267
 -0.2380632  -1.4680997  -0.05716652  0.3177083 ]
[-1.8979458  -1.1333686  -6.899665    0.251376    0.12158403 -0.48548937
 -0.86842984  0.55074716  0.19002786 -0.5565441   1.0687444  -2.9917529
 -2.942993    0.04968939  3.6992865  -2.1600592  -1.2804486   0.541602
 -0.7187827   0.5057081  -3.0013754   2.2036924   1.9536858   0.45815083
  0.01964447 -0.31661388 -4.230342   -4.592484    2.6451533  -0.63131136
 -0.66848516 -1.4003406  -2.0638196   0.15021874  0.7071066  -0.13903521
 -0.15962978  1.9780344  -1.4768957  -1.6551143  -2.3515465  -0.8479993
  0.19733994 -0.03976427 -1.6783199   1.4488624  -3.5181153  -0.01907203
  0.41108894 -3.2317915   0.5501016  -4.67375     0.15393975 -1.2096411
  0.16504045 -1.576807    0.29568502 -1.4960328  -0.20441288 -1.2262784
  0.43341693 -2.7638543  -2.08979    -0.4802141  -0.5894748   0.22165108
  0.23527952 -0.46253723 -6.055564   -2.751843   -0.60171896 -2.131722
  2.289828    1.5673434   0.8679404  -1.084743   -0.64226407 -2.412133
  1.4791687   2.4953473   0.00839025 -0.3695956  -1.0395433  -0.9343574
 -0.19624516 -0.69627756 -0.3019719  -0.03190169 -1.2224419  -2.967349
 -1.2197161  -0.11382782 -4.2608495  -0.6953434  -0.32044232 -0.85648
 -1.1661793   0.368663   -0.49647304 -0.61870307]
[ 1.70047641e+00 -2.89229810e-01  2.30627036e+00  1.13468334e-01
 -4.26007777e-01 -1.12756684e-01  6.28641322e-02  8.32441330e-01
 -4.20370847e-01 -2.72712529e-01  1.41941905e+00  1.54298151e+00
 -2.13270617e+00 -1.59049258e-01  7.37827837e-01 -3.48587370e+00
 -2.82358122e+00 -4.51852381e-01  2.59295750e+00 -1.39854029e-01
 -3.08558643e-01 -6.28755808e+00 -8.47695887e-01 -5.99977875e+00
 -1.19123362e-01 -1.68972409e+00  2.72446632e-01 -1.19997859e-01
  1.14029717e+00 -9.01358426e-01 -1.06941748e+00 -5.67188160e-03
  1.06834865e+00 -4.35748428e-01  1.09482276e+00 -9.76166844e-01
  3.18784714e-01 -5.33376709e-02 -3.86211962e-01 -1.63577068e+00
 -9.72651720e-01 -2.56511331e+00 -4.30026382e-01  4.13413048e-01
 -2.95966744e+00  9.25530732e-01  5.66299558e-01 -7.65928105e-02
 -4.97835547e-01 -3.61870337e+00 -1.89313626e+00  1.13646317e+00
  9.84694600e-01  1.05051625e+00  3.83604258e-01 -2.34839702e+00
  1.80356359e+00 -1.22148359e+00 -1.71079695e+00 -1.79007089e+00
 -5.96590817e-01 -2.44468975e+00  3.95030826e-01 -5.68071485e-01
 -2.06545186e+00 -7.25682139e-01 -3.88679355e-01 -2.65461326e-01
  5.02518415e-01  1.31195915e+00 -1.26792765e+00  1.84186208e+00
  9.44460154e-01  1.48644900e+00 -2.24454021e+00  4.39517260e-01
 -2.85393190e+00 -1.72653210e+00 -1.55567721e-01  3.94310132e-02
 -1.60762131e+00 -1.33876517e-01 -4.07128143e+00 -3.39577734e-01
 -2.86440992e+00  8.21429268e-02  1.56739101e-01 -1.19701326e+00
  3.14069486e+00  2.59633750e-01 -1.63517320e+00 -1.61874187e+00
  2.67050505e-01  1.54887581e+00  7.77374133e-02 -3.42747808e+00
 -2.24245620e+00 -3.62475467e+00 -1.19524205e+00 -8.29274714e-01]
[-0.4301651  -2.2264938   0.8140337  -1.8353255  -0.01663499 -2.8189445
  0.54991287  0.34252018  0.94825387  0.89323056  0.18872258  0.735715
  1.5712116  -0.19729204  1.8119388   0.29350072 -1.9223218  -0.96234244
  0.48418036 -0.47110498 -0.34858927 -3.9815543   0.43805587 -2.838446
 -0.04394175 -0.678116    0.14405225  1.715265    0.01971134 -2.6863499
 -2.929235    0.09707887 -1.3623013  -1.9773749  -0.8662076  -0.8255733
 -0.16195469 -0.7755232  -0.20236674  0.0234301  -0.80810124 -2.1761472
  0.08343803  0.10134098 -4.4304714  -0.7476448   2.7870882  -0.06748597
 -1.0137595  -1.2143993   0.04104144  0.39348534  1.8826306   0.72699267
 -1.4888263  -2.158721   -0.46070912 -2.8982606  -2.5005333  -2.3579402
 -1.1040552  -0.6085645   0.2210707  -2.6744735   0.2510539   0.1952004
 -1.7162465  -2.7762299  -0.12471166 -0.00845741 -2.2075937  -0.46094394
 -0.54767656  0.03912794  0.5066845  -0.14128652 -1.9153199  -0.7292471
  0.65619576 -0.18231203  0.15058422 -2.4017503  -0.8708776   1.7812169
 -2.8140478  -0.9496483   1.00013     0.76873106  1.1873541  -0.11727039
  2.6195447  -0.23750901 -0.3578487   0.2573839  -0.02035625  4.012511
 -0.46806365  1.1958331  -0.51937956 -2.139379  ]
[-1.7599927   1.1433085   1.2185415   0.9734078  -1.1016743   0.48850024
 -1.6972015  -1.5931503   3.399496   -1.2534736  -0.7271175   1.5668226
 -8.238801   -0.04431061  5.341654   -0.08706991  0.44551802 -7.6004357
  1.8204424  -3.901801   -0.1421442  -0.5372984   2.5815806   0.129113
 -0.8400307   0.59730774  2.733167    5.008513    2.5322857   0.31424746
  0.4957469  -0.7250597   0.11699633  0.8073321  -1.0457932  -0.49617907
 -1.9062576   1.4437544   0.9916601   1.0614794  -0.9517751   0.32067615
  0.09844324  0.4113437   2.4074366  -2.5644844   0.70839566  0.32084912
  0.0923432   3.196361   -4.889164    0.4785174   0.04062777 -2.2684019
  0.93735415 -0.12448819 -1.0868587   0.47921747  0.92022926  0.0798356
  3.1097543   1.3663236   1.7967448   0.48107967  3.8870738  -3.7380943
  0.99036384  0.78656137 -3.7096179  -0.0556935   1.0077561  -2.701071
 -1.1723275  -0.98369795  1.4433582  -2.0263445  -0.06013614  1.3976908
  3.853337   -0.9717351   4.9432573   0.51548284  0.35895714 -1.8809291
  1.5760784  -0.95241064  0.6462029   0.32608882  3.3079152   0.20503443
 -0.35838792  5.7100325  -1.1035423  -2.585796   -0.17539231 -0.12090246
 -0.3630204  -2.413148    1.4412123   0.52448034]
[-0.3884734  -1.0900167  -4.318655   -1.2303139   2.668655   -1.6643406
 -1.0244819  -0.6982749  -1.6905833  -0.7118306  -2.1368806  -3.3023713
 -2.1555924  -0.07951502 -2.7843068  -0.63250405 -0.82779086  1.2396848
 -2.0027213  -1.0845325  -0.40253013 -1.031074    0.4081791  -0.61510295
  4.449912    1.5689807  -3.765145   -1.4174335  -1.8343197  -1.6422954
 -1.6405479  -5.81049    -1.8528849  -1.3420326  -1.0067055  -0.46785837
 -0.6266994  -1.0142543  -2.0690644   0.94159913 -0.43167838 -1.13576
 -0.9020884   0.6948248  -0.67086303 -1.9705755  -3.3303623   0.3137951
 -0.56937397 -1.1470276  -2.880686   -1.5781248  -1.8068304   2.5467203
 -1.0766937  -0.93599427 -1.1510466  -0.9098537   0.1374023  -1.4272432
 -1.5150281  -0.4319527   3.4524508  -1.5684303   1.4701368  -5.5189137
 -1.4617838  -1.5847003  -2.661303   -0.43284303 -1.1199627  -5.276482
 -2.5308695   3.240503   -0.8509849  -2.048842   -0.59636647 -1.1807389
 -0.99984336 -2.0646572   1.0933893  -1.6605426  -0.79235655  0.01888307
 -2.2379534  -0.64746827 -0.3301665  -2.3378148  -0.15720206 -2.012574
 -0.8689146  -2.2725217  -1.4353757  -1.4320775  -0.4397039  -0.32250437
 -1.5007226   0.3189792   1.2027808  -1.4697007 ]
layer 7 Activation
elu
layer 8 Dropout
layer 9 Dense
100 1
[-0.17509106]
[0.02302407]
[0.1576501]
[0.0169628]
[-0.8271554]
[-0.04515179]
[0.4972412]
[0.26689962]
[-0.14256734]
[0.19290633]
[0.30002597]
[0.20603783]
[0.0931504]
[-0.9173623]
[0.05051072]
[-0.05341982]
[0.43502718]
[0.9668947]
[-0.0151636]
[-0.3413589]
[0.24095696]
[-0.03669281]
[-0.15046413]
[-0.12059509]
[-2.0485148]
[-0.18681435]
[0.12982416]
[0.33233505]
[0.10982032]
[-0.0342932]
[-0.07658492]
[0.30576763]
[0.14308323]
[0.01736042]
[0.05982913]
[0.17642386]
[0.23382318]
[-0.10626233]
[-0.3111572]
[-0.12187898]
[0.33931896]
[0.45123985]
[-0.3950576]
[-0.95924395]
[-0.00740943]
[0.07875267]
[0.16016981]
[-1.026811]
[0.03253103]
[0.04918114]
[0.23120302]
[0.09347963]
[0.06592327]
[-0.18427117]
[0.03791187]
[0.38965636]
[-1.3209459]
[0.28229636]
[0.06549493]
[0.24048077]
[0.0954189]
[-0.11862846]
[-0.22210471]
[-0.02437502]
[-0.07397722]
[0.17882048]
[0.02088888]
[-0.03025681]
[0.06573408]
[0.42691097]
[0.02103139]
[0.23046646]
[0.41230214]
[-0.51694244]
[0.08557506]
[0.15179457]
[0.02090245]
[0.42193535]
[0.21409583]
[0.18529817]
[-0.14299712]
[-0.0197635]
[-0.04472927]
[-0.14532958]
[0.06484564]
[0.08350611]
[0.04346603]
[0.11844623]
[-0.10600027]
[0.18303242]
[0.07119343]
[0.08749637]
[-0.5492336]
[-0.21786267]
[-0.65575975]
[0.13346753]
[-0.15373436]
[0.16281101]
[-0.09177388]
[-0.04071654]
[-0.18817584]
