layers 10
layer 0 Dense
7 7
[-4.2873362e-05 -2.1582670e-03  3.7942312e-03  1.3190205e-03
 -1.4327949e+00  7.2900089e-04 -2.2765389e-03]
[-0.00188963  0.04685879  0.01947417  0.16131249  0.16920324  0.00457727
  1.2202713 ]
[-5.6936740e-05 -1.0388721e-03  4.1649803e-03  3.3698471e-03
  5.4111076e-04  8.9851284e-04  2.1911392e-03]
[ 0.7465903   1.5886819   3.2002993  -0.07289623 -0.03340814  2.8839679
 -0.03970359]
[-4.3346725   4.3728004   4.0344853   0.31153384  0.04287671  3.5750518
 -0.67288613]
[ 1.1476992e-04 -9.5525289e-01  5.8217087e+00  2.3794811e-02
  3.2437209e-03 -1.2434210e-01  3.9376073e-02]
[ 4.7564053e-04  4.6602269e-03 -5.1040887e-03  7.5406808e-01
  7.9364842e-03  3.5675815e-03  1.1084327e-02]
[ 3.5676656  -2.9009836  -2.6962612  -0.8310221   0.42300314 -3.020471
 -0.04320462]
layer 1 Activation
elu
layer 2 Dropout
layer 3 Dense
7 26
[-1.2929215  -6.0403237  -0.30663788 -4.48707    -0.8271797  -0.42045674
 -0.72312874 -1.9650564  -0.5693281  -6.168944   -1.1319332   0.20165613
 -0.67644525  0.7843724  -6.405675    0.66721016 -4.437851   -0.12656763
 -2.3091347  -0.19346043 -5.1261725  -1.9396689  -6.580432   -0.6288989
  0.92878526 -4.0379767 ]
[ 0.27555236  0.93237466  0.17647165  7.5267634  -0.56806886 -0.9535573
 -0.03295451 -0.46719557 -0.5226764   0.15656391 -0.8971001  -0.01529224
 -1.1825562   1.8287716   0.9544915  -1.1925203   2.1571732   1.5105411
  1.5026087  -1.2259135   2.9308205  -1.1200486   2.2762978  -0.65832406
 -0.34761357 -1.244596  ]
[ 4.2001635e-02  1.9700797e-01 -1.5993062e-02 -1.0469596e+01
 -1.3305143e-01 -4.8610460e-02 -8.8592302e-03 -3.5584956e-02
 -6.6927657e-02 -1.5448867e-01 -8.8889971e-03  1.3091260e-03
 -7.1427956e-02  3.0681062e-01  1.9443902e-01 -1.9868025e-01
  3.8854095e-01 -1.0017484e+00  2.6443410e-01 -2.6997170e-01
  4.9599063e-01 -1.3068505e-01  4.0200678e-01 -1.4621536e-01
 -6.2465095e-03 -2.5663853e-01]
[-7.30418414e-03 -1.81371234e-02 -3.27980262e-03  7.93500841e-02
 -8.19928348e-01  1.07982129e-01 -4.60899211e-02 -4.25054925e-04
  3.02698482e-02 -2.48105321e-02 -1.99109882e-01 -8.08041617e-02
  3.07729661e-01  4.84388210e-02 -5.82298962e-03 -3.38680670e-03
 -8.28159321e-03  2.85817683e-01 -1.35065867e-02  4.06840891e-02
  1.48157077e-02 -1.14664853e-01 -4.65599913e-03  2.10623312e+00
  1.34790735e-02  4.38773260e-02]
[ 2.0576799e-03 -2.4744658e-02 -9.0664513e-03 -9.2951588e-02
 -4.3878746e-03  1.9401265e-02 -4.9199611e-03  4.8036519e-03
  7.7128736e-03 -7.4470401e-02  1.1461794e-03  6.4078364e+00
 -2.0375705e+00 -1.5923763e-02  1.4588019e-03  2.2564225e-03
  3.5405664e-03 -1.0853897e-02 -8.9504542e-03  9.0239302e-04
  2.1634251e-04  8.5723586e-03 -2.4697711e-03  8.4826531e-04
  7.9136109e-03 -2.7171618e-03]
[ 0.38049102  1.9532812  -2.3629203   5.370466   -0.32855883  0.6178432
  0.12502804  1.1993823   0.45460182  0.76421016 -0.25130183  0.02149152
 -1.7704613   1.9080718   1.7644175  -0.37665892  1.6133659   0.02754042
  0.26141906  1.3573995   0.6920332   1.7080342   1.440746   -0.14297701
  2.4848723  -2.436935  ]
[-0.00784111  0.02585429  0.04070817 -0.06447287  1.3267603   0.37841377
  3.861681    0.02430246 -5.234485    0.22860189  0.02929544 -0.88706
  6.8244605   1.489538   -0.05401723 -0.03472181 -0.09639402 -0.10763583
 -0.04831251  0.09064811 -0.04869205 -0.2317095  -0.0929952   1.290539
 -0.0346465   0.04805687]
[  0.10664573  -5.7237687    1.5084014   -2.1485202    3.2054524
   0.6918299    0.23514901   2.0902286   -1.1913418   -7.313435
   1.9137782   -3.332471   -13.048447     5.067446    -6.177878
   1.2885408   -4.501433    -2.5027726    0.04208946   0.7812136
  -1.3152018   -0.17476645  -3.8364408    3.5984101   -6.8997445
   1.8978068 ]
layer 4 Activation
elu
layer 5 Dropout
layer 6 Dense
26 100
[  1.5158647    1.7737082    4.544988     1.1693053    3.3374937
   2.0488348   -5.0307837    2.4027028    0.12309045   3.92516
  -0.1434866    2.5952933   -0.10054567   7.717998     2.8591728
   2.9263084   -0.8473373    5.2685256    3.4109538    2.3220568
  -1.9850452    6.730412     3.5108426    3.6375246    8.3782625
   3.0558486   -0.6976982    1.1388164    1.300141     0.48161805
  -0.4265258    7.8393774    2.3118002    9.963638     3.6873963
   6.6808705    3.4445553   -0.7888238   -1.3599646    3.7391331
  -0.71545494  -2.467752    -4.3265595    5.6686907    4.8404326
   4.597672     3.1066155   -0.7985233    6.083726    -1.4864386
  -0.4160235    0.414168    -0.44257888   3.6797037   -0.48912352
   7.348021     0.58731604  -6.3556323    8.23687      4.1811695
   5.233869     4.719967     8.040912     3.0009258   -4.373679
   3.0407667   -0.3789173    1.67638      4.5476604    3.5154378
   5.9674892    2.1061428    1.2029196    5.3718896  -18.1889
   0.08694793   2.1445756    6.7775893    2.2769766   -1.3965381
   0.98356694  -0.8481487    0.8926207    0.47668177  -9.486468
   3.8687584   -8.233484    -1.8020976   -2.323263     0.77485204
   1.6249304    4.0981917    2.069546     8.076968     0.74907416
   1.8201894    5.10844      5.7338176    2.574506    -4.3040023 ]
[ 3.42599893e+00  1.32049334e+00 -1.13927937e+00 -5.81275582e-01
  9.97949600e-01  4.79895401e+00  8.95282090e-01  1.54299569e+00
  8.94847214e-01  3.56755592e-02  1.14845717e+00  4.92919636e+00
 -3.30008328e-01  1.78107810e+00 -2.81748056e+00  3.02702570e+00
  1.16653812e+00 -1.74234371e+01  6.99341774e-01  2.14650989e+00
  1.60239673e+00 -7.08625257e-01  8.91852379e+00  1.85922831e-02
 -4.75098515e+00 -2.85908794e+00  1.97798252e+00 -5.78307569e-01
  2.15460157e+00 -1.68679119e-03  2.64197849e-02  1.56883228e+00
 -3.40095496e+00 -1.20821571e+01 -6.78216457e+00  1.74057007e+01
  8.48397791e-01  4.24106941e-02  1.77474356e+00 -6.44448519e-01
 -9.50307906e-01  4.61988640e+00 -7.41256103e-02 -1.00705853e+01
  3.93000364e+00 -3.31820905e-01  1.59950709e+00  3.58401656e+00
  1.72359025e+00 -3.02264631e-01 -2.08119035e+00  2.21089274e-02
 -7.01473355e-01  2.23753762e+00 -6.27273035e+00  7.05689955e+00
  1.64578915e+00  5.26065111e-01  7.86315918e+00  6.63168907e-01
 -1.04826927e+01  1.99969858e-01 -1.02697935e+01  7.31393623e+00
  1.29679644e+00  3.03173065e-01  8.99850070e-01  1.02970600e+00
 -4.65067863e+00  4.20537710e+00  3.61322808e+00  5.27401447e-01
  7.82356858e-01 -6.26496363e+00  6.22766876e+00  2.51282733e-02
  1.65942919e+00  1.07775927e+01  9.01636899e-01  3.09223104e+00
  6.67594135e-01 -4.02530462e-01  7.74320006e-01 -3.29711580e+00
  2.28312874e+00  3.73727798e+00  1.83333671e+00  1.21064532e+00
  1.15672708e+00 -3.00586176e+00  1.96474123e+00 -8.25508296e-01
  2.60976613e-01  8.18352509e+00  1.38884330e+00  5.75561380e+00
 -7.63458550e-01 -9.54090977e+00  8.53259265e-01 -1.62281215e+00]
[-1.6914591e+00  4.7602167e+00 -1.0504908e+01  1.6240014e+00
  6.2958246e-01 -7.7416497e-01  1.4637820e+00 -1.8339740e+00
 -1.9058717e+00 -5.8120787e-01 -1.6250346e+00 -8.2091081e-01
 -3.9067894e-01 -1.5227787e+00  1.6448059e+00  8.3493919e+00
 -7.0822632e-01 -8.1177082e+00 -5.6245750e-01 -9.3502712e-01
 -3.1898799e+00 -5.5376377e+00 -1.3963280e+00 -8.3533853e-02
  1.5255988e+00  2.1457281e+00 -5.0277734e-01  4.0493212e+00
 -2.0702548e+00  1.0415171e-02 -2.5663776e-02  1.0797839e+00
  2.6463574e-01 -1.8193527e+00 -3.7374339e+00  6.3429594e+00
  8.1928902e+00 -2.7963620e-01 -1.2465093e+00 -2.5889325e+00
 -3.1720424e-01 -8.9195251e-02  2.8019473e-01  1.7365776e+00
  1.9759086e+00  6.0486042e-01 -4.0380996e-01  1.6801070e+00
  9.0388739e-01 -2.8928246e+00  2.1005914e-01 -4.7090776e-02
  5.7552749e-01  5.3456575e-01 -2.5926471e+00  7.9975233e+00
 -2.5825837e+00 -2.3576039e-01  7.4302626e+00  1.8218163e-01
 -1.0162628e+01  7.5718910e-01 -1.4768443e+01  6.2132573e-01
 -1.0132592e-01 -5.0113845e-01 -1.2445129e+00 -2.7968150e-01
 -2.8314072e-01 -1.1828814e+00 -4.9348265e-01 -3.1105474e-01
 -7.9297370e-01  8.5082684e+00  1.8344163e+00 -1.3660032e-01
 -2.0443122e+00 -8.2073584e+00  2.6295161e+00 -1.5183351e+00
  1.3591013e+00  4.2629981e-01 -7.1079475e-01  3.7388256e+00
  1.0093184e+00  1.7892374e+00 -4.1932507e+00 -1.0337368e+00
 -5.6220651e-02  5.0670915e+00 -1.1021091e+00 -1.2522676e+00
 -2.8141963e+00  8.3264656e+00  3.3409150e+00 -3.6752802e-01
 -2.2078061e+00  2.7781475e+00 -3.0186263e-01  1.6775090e-01]
[-2.78824520e+00  7.55615997e+00  2.87356639e+00  1.05679250e+00
 -2.89646196e+00 -2.31910086e+00  1.38873780e+00 -1.02500236e+00
  1.13639891e+00 -1.83479464e+00  4.69108433e-01 -2.94522381e+00
  1.51857102e+00 -9.31199169e+00  3.83805251e+00  2.02730370e+00
 -7.34984338e-01  3.56857376e+01 -2.55233526e-01 -9.85129595e-01
  4.23947096e-01 -1.14663963e+01 -1.21435223e+01 -1.65481460e+00
 -1.80897021e+00 -4.11578417e+00 -4.64368552e-01  6.34113550e+00
  1.56723452e+00 -3.15925390e-01 -3.09427691e+00  2.36411071e+00
  2.02050924e+00 -1.05106945e+01  4.78920174e+01  4.72883339e+01
 -5.40993452e+00 -7.50220895e-01 -3.66820574e-01  8.37933004e-01
  5.19645882e+00  1.27531672e+00  8.82317185e-01 -4.52798748e+00
 -2.78973508e+00 -1.37423072e-02 -7.61501372e-01  1.16986263e+00
  3.94381475e+00 -4.85917553e-02  9.49038863e-01  7.14338198e-02
  8.34658921e-01 -6.38545513e+00 -8.66494119e-01 -8.81954193e+00
 -6.80795193e-01  7.20759630e-01 -1.17702699e+00 -6.79687932e-02
  4.35070267e+01 -2.61419684e-01 -9.83400822e-01 -7.47336769e+00
  2.70810008e+00 -2.20250726e-01 -1.88110209e+00  1.17311347e+00
 -5.08664370e-01  1.19504130e+00 -1.26428092e+00 -8.77547324e-01
  1.44522071e+00 -3.39445806e+00  1.78906000e+00  5.83820760e-01
 -4.44474638e-01  2.67601871e+01 -4.49115658e+00 -5.69732308e-01
  2.32476664e+00 -3.43839414e-02  2.57275963e+00 -3.80328387e-01
  3.80166483e+00  2.33443558e-01 -9.61328894e-02  1.18936670e+00
 -8.19037914e+00 -4.17206573e+00  2.30423689e+00 -3.10867047e-03
  1.39989305e+00  6.45015945e+01  4.71126842e+00  3.32694769e+00
  6.36563253e+00  4.35899067e+00 -8.02140772e-01  1.70096374e+00]
[  1.2254316   -1.819525     3.8825884   -0.06365964  -0.23771909
   1.3664402   -1.4447427   -1.3551922    0.7962577    1.1461482
   2.9044247    1.9835999    0.36091238   8.157725    -0.3637435
  -0.38261786  -0.20760365  -0.85828733   2.0211813   -1.7995424
   0.9163637    5.1278286   -1.5262274    0.49693254   1.3272018
  -1.5550375   -0.25716335   0.82801425   1.5645498   -0.02575693
  -6.221508     2.6178834   -1.2380381    2.411996     1.1902847
   3.1047778   -2.4333525   -0.42981663  -0.09647508  -0.31057706
   4.760106     0.64485353  -0.12690209   2.3312929    1.7806649
   1.7315301   -0.6649561    4.405747     2.480804    -0.8667875
   3.4509726    0.09508896  -0.24675962  -2.4028394    1.2764642
   2.8176217    1.1577199    0.29180297   3.940393     2.0028987
   2.7509313    1.1250871    3.9512026    1.0954849   -1.6549786
   1.5327356   -1.6108085   -3.7590814    2.9860854   -0.5612076
   2.2491934    0.4765599   -3.083639     2.390566    -0.77871245
   0.0726098   -1.9918505    3.4647408  -11.284526    -0.14841747
  -2.4457738   -0.44646317  -2.5587187   -2.728902    -1.3392671
   0.4960745    0.97468686   0.8280508   -4.45537     -2.9075658
  -1.9617473   -0.04125666  -1.0671773    2.3831446   10.264463
  -0.6497947    0.70015144  -5.2570972   -0.79856646  -0.6651235 ]
[ 0.16440731  0.6784734  -0.301221    3.0646665   2.493057   -0.54534715
  2.7678182   0.5490055   0.30279282  0.48439962 -2.5794334   1.0030525
  0.08184108 -5.9646726   1.0169945  -0.8633822   0.12719196 -2.6144953
  0.08759156  1.60449    -0.19243146  2.329282    0.1911901  -0.29867592
  1.8413802   2.1999664  -0.29465294  2.1359954  -0.0418589   0.17073254
 -0.8097154   0.18352601 -2.841727   -9.567846   -2.5041614  -2.939153
  2.8833587   0.11957797  0.02483004  1.3383805  -0.9199767  -1.7290193
  0.9856768  -1.1282465  -4.304047    0.2818899   1.5797076  12.737325
  6.508915    0.60795057 -0.5883605  -0.03403431 -0.09757385 -1.5999835
  2.6191833   0.71289974 -0.25456762 -0.30446574  0.36518544 -0.06901818
 -0.5824591   0.56867987 -0.68325406  2.1382842  -1.2697948  -0.31116197
 -3.6868155   1.0905437  -0.967713    3.1169136  -1.3728411  -0.993004
  0.71948683 -8.838187    1.7044859  -0.20319593  1.3679761   2.7387123
 -6.587914   -0.6004276   0.775202    0.08857118  0.2830294   2.1363606
  3.002975   -1.9612218  -0.5695354   0.11813278 -0.21749572 -0.90884864
  0.6384314  -0.32425132  0.18301646  3.0991004  -7.5277452  -2.215463
 -0.6967086  -0.24822813  1.0769155   2.7647808 ]
[ 1.0632387e+00  1.0622973e+00 -2.6129666e-01 -1.7721143e-03
 -1.7388496e-01  1.1494449e+00 -2.0949814e+00 -6.3043676e-02
  4.3278250e-01  1.5494223e-01  2.0082004e+00  1.3085539e+00
  4.2469862e-01 -1.4272409e-02  2.3829815e-01 -7.3122306e+00
  3.3372408e-01  2.5868993e+00 -1.6943479e-01  6.5308386e-01
 -1.4909211e-03  4.1328114e-01  3.7312720e+00 -4.0195459e-01
  2.2910094e+00  2.7908042e-01  9.0414457e-02  6.4518827e-01
  5.9582347e-01  1.9836833e-03  8.4543802e-02  7.3635656e-01
  7.2867401e-02  1.1337923e+00  1.5540626e+00 -3.2166300e+00
  4.6102563e-01  4.6922684e-01  1.8990611e-01  2.1677406e+00
  5.9178486e-02 -1.6826300e-01 -9.8610821e+00  1.8715646e+00
  1.2898370e+00  2.1583255e-01 -3.0452135e+00 -7.2952228e+00
  1.3922735e+00  4.4779643e-01  1.2995527e+00 -1.0437272e-01
  5.8690417e-01  3.5700870e+00 -8.2898865e+00  2.5026906e+00
  5.2299064e-01 -2.3054208e-03  2.6133132e+00  5.5671737e-02
  1.9341853e-02  2.9763117e-01  6.7816067e-01 -1.4489921e+00
 -1.2645738e+01 -1.2993935e-01  1.8459994e+00 -1.3040598e-01
  1.0485687e+00 -3.3832645e+00  3.4467548e-01  1.3273880e+00
  1.8597695e-01  1.5777062e+00 -4.5654055e-02 -2.8962962e-02
  4.5686531e-01  6.0700828e-01 -9.7602139e+00  1.4914253e-01
 -1.8694707e+00  5.7328713e-01 -7.0315015e-01 -1.7970608e+01
 -1.5304096e+01 -2.9580538e+00 -2.3693269e-01 -5.4778509e-02
 -2.0071156e-01 -7.4549050e+00  8.9829642e-01  2.8111930e+00
  9.4960338e-01  2.7712984e+00 -2.2783685e+00 -5.1838465e+00
 -3.4876338e-01 -3.3671937e+00 -1.0197202e+00 -9.3262531e-02]
[-1.2614968e+00  1.8134917e+00  1.2231334e+00 -2.2856414e+00
 -2.8882542e+00 -1.4488610e+00 -4.7582626e-01 -3.2622488e+00
 -1.0173607e+00  2.5385432e+00  9.6560192e-01 -3.6662164e-01
 -1.2210522e+00 -5.6156292e+00  6.6254516e+00  1.1194098e+01
 -1.3819619e+00 -5.5162849e+00  1.6532991e+00 -3.3665721e+00
  4.5685551e-01  9.6056439e-02 -1.3409958e+00  2.7441654e+00
  3.8492352e-01 -1.0951961e+00 -1.0498190e+00  1.3714464e+00
 -1.5356222e+00 -3.6941461e-02  1.9875491e-01  3.7557989e-01
 -3.9765751e+00 -1.7523643e+01 -2.4434197e+00 -7.2033672e+00
  3.0329258e+00 -1.4805632e+00 -1.4891223e+00 -2.6492846e+00
 -3.5351396e-01 -9.2235908e-02  3.0144137e-01  7.5865114e-01
  7.0041424e-01  1.0397263e+00 -4.2053971e+00  3.1219931e+00
 -6.3027740e+00 -5.8033711e-01  9.5721257e-01 -2.2862014e-01
 -1.3394451e+00 -1.3822405e+01 -2.3655813e+00 -2.6519518e+00
 -8.5905993e-01 -2.8742323e+00 -6.6966510e+00  1.8454000e+00
  7.2378832e-01  8.3827758e-01  7.2848958e-01 -3.5995415e-01
  4.7381359e-01 -3.1893370e-01 -1.0922395e+01  1.9942987e+00
 -5.7509243e-01 -4.8852882e+00  1.4320629e-02 -7.3142487e-01
  1.3149730e+00 -4.0582180e+00  3.4345350e+00 -2.1767654e-01
 -2.0541821e+00 -3.1521924e+00 -1.5695871e+01 -1.1737254e+00
  1.5491581e+00 -1.6087143e+00  1.7358184e+00 -3.7467752e+00
 -4.9869928e+00 -6.0610800e+00 -3.6710720e+00 -4.7634694e-01
  9.7957277e-01 -3.5506096e-01  2.9852629e-01  2.6876304e+00
 -1.2615012e+00  4.0726769e-01 -4.8892307e+00  1.0662612e-02
  1.8907230e+00 -5.4719267e+00 -1.3972876e+00  2.2562172e-01]
[-1.92087203e-01 -1.89180434e+00 -2.04499304e-01  3.48633558e-01
 -3.37994313e+00 -1.10858880e-01  7.80303001e+00 -2.04591608e+00
  5.08102924e-02 -7.27800071e-01 -3.95072520e-01 -2.44229257e-01
 -5.07641933e-04 -7.34880209e-01 -4.44402695e-01 -3.34428644e+00
 -9.22811553e-02 -3.37038040e+00  7.97529996e-04 -1.98197150e+00
  8.47682059e-02 -4.41838235e-01 -1.05050659e+00  2.38413196e-02
 -1.12009561e+00 -1.29000819e+00  4.53762747e-02 -1.20448077e+00
  1.20306462e-01  7.35996887e-02  1.43965527e-01 -3.96050841e-01
 -3.49853963e-01  2.33277011e+00 -5.59883177e-01 -5.76629114e+00
 -2.22750098e-01 -1.19894795e-01 -4.98202927e-02 -3.08505416e+00
 -2.60655314e-01  6.99507058e-01  6.40781641e+00 -9.53961313e-01
 -9.19711769e-01 -1.98409334e-01 -3.41859150e+00  2.91186738e+00
 -1.24566019e+00 -1.29940152e-01 -6.13799214e-01  1.52949179e-02
 -7.31925666e-02  3.05221140e-01 -1.15056381e+01 -6.33900523e-01
  3.35717387e-03  4.27015610e-02 -2.54181051e+00 -1.42480925e-01
 -3.66964072e-01 -1.77201569e-01 -7.80238390e-01 -1.83655071e+00
  1.59536161e+01  9.52698737e-02  2.62993383e+00 -5.08902967e-02
 -1.50487319e-01 -4.25483561e+00 -3.37587923e-01  2.84585357e+00
 -9.31197762e-01 -6.51780844e-01 -9.00504366e-03  8.83593317e-03
 -3.05261946e+00 -1.77988136e+00 -6.44877553e-01  5.93956076e-02
 -1.43093998e-02 -1.14684477e-01  1.31064430e-01  4.38086224e+00
 -1.11610383e-01  1.30657148e+00  5.47890186e-01  1.11733355e-01
  3.35035235e-01  1.52585581e-01 -7.56938696e-01 -5.52840376e+00
 -2.08026505e+00  1.46857798e-01  1.22200561e+00  1.24851770e+01
  4.21405256e-01  1.38680220e+00 -1.31961608e+00  1.33936957e-01]
[  7.1752377    2.8723893    5.492744     0.31790507   3.1297545
  11.76803      1.7500378    3.7632647    6.788464    -0.8904323
   0.5081412   15.0815       5.5943284   10.632017     1.1370976
   3.7698643    3.841331   -21.574984     0.83480436   3.906394
   0.96314293   3.7079394   19.898216    -0.9154815   -5.1613317
   0.63762903   1.1096404    4.722072     3.7683253   -0.02278298
   0.15518817   0.12396379   0.89554805  -1.7605995   -8.409943
  10.813487     0.9547315    4.440591     3.1539567    0.6197
  -3.1248417    4.855954     0.42582312   2.3882105    5.5108037
   0.42632395   4.0869293    0.5916743    5.4213214    1.6070342
   0.50250226  -0.10110655   4.814506     6.8532467   -0.62227505
  -4.876536     5.5037637    0.82474816   9.36885      0.37404567
 -19.294847     0.30564106   2.2868366   22.124552     0.8916068
   0.6636957    3.914644     1.141949     6.801713     8.508753
   2.184234    -0.10706518   1.045622    -0.31422284   7.341337
  -0.08864298   3.727846    10.713254     1.3342633    2.8633454
   1.451323     4.6941333    1.0450014   -7.1438894    1.3251159
   5.8386884   -0.9078752    1.0841951    3.1220088   -5.535684
   4.1389103    2.3492525    2.2167578   20.721954     1.3546163
  -1.7487323   -3.4009743   -6.67859      3.2604294    3.3836155 ]
[-1.64736539e-01 -1.98856130e-01  1.52218723e+00 -9.83332396e-01
 -4.90791887e-01  6.37843907e-01 -1.78963459e+00 -9.17158902e-01
  7.12527474e-03 -3.39833528e-01 -4.86539173e+00 -5.03023446e-01
  8.03727955e-02  4.08832264e+00 -8.68191943e-02 -5.32209826e+00
 -5.90319857e-02 -3.31097293e+00  2.05984026e-01  1.35094190e+00
 -3.49909216e-01 -7.13572741e-01 -1.55157125e+00  6.12854958e-01
  1.85610309e-01 -9.21059489e-01 -2.93812662e-01 -2.82590914e+00
  1.93585634e-01  1.11819215e-01  8.91575031e-03  5.78362763e-01
 -2.02081656e+00 -2.21645985e+01  2.70036429e-01  2.25508779e-01
  1.42607439e+00 -1.03996940e-01  1.02841789e-02 -2.81557709e-01
  9.86783028e-01  6.95944428e-01  4.14048076e-01  1.48170161e+00
 -6.05152071e-01 -7.25975782e-02 -1.54719919e-01 -3.70287538e+00
 -1.10032158e+01 -1.71410397e-01 -7.29176521e-01  2.46447399e-01
 -3.96721996e-02  3.50004196e+00 -2.80105424e+00  5.21929078e-02
  1.49571851e-01 -4.00635228e-02 -3.99051642e+00  4.12869826e-02
  4.74222958e-01 -1.43953219e-01 -9.53023911e-01 -2.17683625e+00
  2.78600788e+00 -6.60861194e-01  2.55704141e+00 -1.47646189e+00
 -1.73412552e+01  5.20958424e+00  8.59666884e-01  1.44331917e-01
 -3.08836842e+00 -1.29733486e+01  2.23006511e+00  1.09754056e-01
  1.63646114e+00 -6.71842575e+00 -4.93506384e+00  8.62668827e-02
 -4.67992157e-01 -5.62992655e-02 -8.81938100e-01 -2.31135345e+00
 -1.46130657e+00  5.35446763e-01  2.53381789e-01 -5.24475455e-01
 -7.26784050e-01 -1.04901135e+00 -2.61370754e+00 -2.85877019e-01
  2.34841442e+00 -1.88429809e+00 -7.61778069e+00  2.91328216e+00
 -1.12507808e+00  1.46240580e+00 -2.11374807e+00 -1.02516735e+00]
[ 1.55808628e-01 -2.45192337e+00  1.06883697e-01 -8.71688575e-02
 -4.60925341e+00 -2.65444126e-02 -1.12800527e+00 -2.93424320e+00
 -9.79737751e-03  6.58831775e-01 -1.78337358e-02  1.69697538e-01
  1.85511224e-02  2.61556268e-01 -2.80277114e-02 -4.59511709e+00
  6.00275863e-03 -1.14407134e+00 -2.40379609e-02 -1.53389108e+00
 -2.10721027e-02  2.36496046e-01 -1.04495466e-01  1.44640326e+00
  9.79041755e-02 -1.99378461e-01 -1.65581610e-02 -1.81598663e+00
 -7.66198933e-02  5.81368757e-03  5.69525845e-02  1.88816153e-02
  9.68875587e-01  1.53948784e+00 -3.03080767e-01  3.11400318e+00
 -2.20816821e-01  1.15614561e-02 -6.41888997e-04 -4.77314043e+00
  7.28342980e-02  1.14019075e-02 -1.67468643e+01  2.21592396e-01
  7.00706914e-02 -6.54099416e-03 -4.11374760e+00 -2.44192624e+00
  1.28539925e+01 -1.46148046e-02  9.16933417e-02  1.99253624e-03
  9.79166664e-03 -8.68055463e-01 -1.25767946e+00  2.26509403e-02
  6.72928914e-02  2.57009733e-02  1.08662084e-01 -1.47400592e-02
 -1.39221525e+00 -3.39751616e-02  1.00117311e-01  3.79663706e-01
 -1.72934589e+01  4.43680584e-03 -8.63448238e+00 -1.61306843e-01
 -7.51523638e+00  2.51097655e+00  1.39340296e-01  2.17301989e+00
 -1.39899147e+00  1.07463762e-01  1.91187719e-03  1.74787473e-02
 -2.01476264e+00 -3.16427994e+00 -1.75270958e+01  1.28472438e-02
 -4.77898479e-01  9.82210599e-03  2.65918791e-01 -9.69907641e-01
 -1.25534210e+01 -4.57125616e+00 -1.68160647e-02 -3.13660200e-03
  2.06378534e-01  5.27796075e-02  1.91573307e-01  2.78190464e-01
 -1.71951890e+00 -3.12762308e+00  2.20969245e-01 -1.13911142e+01
  4.95044664e-02 -3.42290282e+00 -2.54777884e+00  7.31241181e-02]
[ 2.5465250e+00  2.8656950e+00 -6.6400695e+00 -2.0074752e-01
  2.2703695e+00  2.6260386e+00 -5.1612395e-01  3.1164968e+00
  2.1939371e+00 -2.0437913e+00  2.5032055e-01  2.9425159e+00
  1.8018975e+00 -6.0393896e+00  1.2311110e+00 -1.0514020e+00
  8.2621533e-01  2.8410158e+00 -1.6992069e+00  3.7865577e+00
  8.1750864e-01 -4.4555993e+00  2.6125700e+00 -2.1229017e+00
 -1.5067378e+00  1.2346960e+00  3.0558223e-01  1.9877729e+00
  2.4209270e+00 -5.7262337e-01  2.1720624e+00 -1.4039176e+00
  1.6095800e+00 -4.0853810e+00 -8.3912599e-01 -1.1706786e+00
  3.3860536e+00  1.4379586e+00  3.3807054e-01  2.1980619e+00
  5.1765704e-01  3.3919001e+00  5.3381901e+00  1.6490933e+00
  2.1062651e+00 -1.8481313e+00  3.0706215e+00 -9.7011067e-02
 -2.4454713e+00  1.2364628e+00  2.1139491e-01  7.8012300e-01
  1.8179932e+00  2.0622735e+00  1.7518572e+00 -1.3757253e+00
  2.2960277e+00  1.2553182e+00 -2.5999584e+00 -1.5890574e+00
 -2.0865782e-01 -1.2236054e+00 -5.4438171e+00  2.9590256e+00
  5.6750722e+00 -9.4199967e-01  2.5126007e+00  7.4149137e-03
  4.3283181e+00  1.7846024e+00 -1.0557626e+00 -1.0866390e+00
  1.3830352e-01  2.7316768e+00  3.0426121e+00  6.8910921e-01
  3.9588673e+00 -2.5109286e+00 -4.6047020e+00  2.4413937e-01
  6.1176199e-01  1.6853802e+00  4.4518653e-01 -2.7588882e+00
  7.5240030e+00  1.0340176e+00  1.3839159e+00  4.9446064e-01
  1.1832967e+00 -7.3236561e-01  1.1226780e+00  6.3585454e-01
  4.0198970e+00 -7.0380411e+00  1.5927202e+00  3.1064987e+00
  3.1462653e+00  1.7555318e+00  2.1426802e+00  5.6196845e-01]
[ -4.5681014   -6.8013234   -4.5844154   -0.52282417  -8.822549
  -4.7400937    0.4102274   -6.513348    -2.2390952    0.57820415
  -1.1421152   -6.3042803   -1.7589295   -8.814371    -0.5091673
  -7.553893    -0.77495676  -5.6945086   -2.0979125   -7.709944
  -1.0742648   -7.7335677   -7.7535377    0.5413782   -8.747942
   0.7668479   -0.31018412  -3.0750008   -3.4843965    0.0417425
  -0.5166315   -5.9765983   -3.777063    -3.5132828   -1.8084476
  -4.7830453    0.7329448   -0.9475525   -0.56428534  -7.5213385
   0.81048465  -0.08357998  -0.6228475   -8.489749    -5.1823306
  -2.7749567   -8.2320795   -0.9619955   -6.517281    -0.7984122
  -1.1102911    0.08819774  -1.48761     -4.3616276   -1.9717205
  -8.928548    -2.90194     -0.45340198 -11.365783    -2.5724263
  -5.3578973   -2.3317976   -6.305743    -6.5272837   -0.9827241
  -1.374218    -0.02094916  -6.2269306   -4.1088495   -8.559245
  -3.8294518    0.30541387  -8.089139    -4.1886473    0.4067811
  -0.01752121  -7.051396    -6.6818595   -8.724986    -0.26097342
  -4.805842    -1.156846    -4.4637494   -2.1945496   -0.85582465
  -6.592983    -0.44175255  -1.0032519   -0.5807443   -2.7654893
  -4.4110327   -8.652357    -5.852825    -5.350438     0.44257462
   0.80626345   0.75479484  -2.4118447   -6.80829      0.5884677 ]
[ 1.30278368e+01  1.38751757e+00  2.47384191e+00  7.35664010e-01
  2.73942471e+00  1.63948078e+01  1.64741969e+00  1.84002256e+00
  1.50986826e+00  9.79153693e-01 -2.85179162e+00  1.75104580e+01
  1.02456760e+00  5.95024204e+00  2.86150217e+00  4.75782251e+00
  4.81143427e+00 -2.31747017e+01  1.57008040e+00  2.11382532e+00
  6.57431960e-01  1.31212676e+00  1.91612949e+01  6.80540860e-01
  2.79346943e+00 -8.65821421e-01  2.48457813e+00 -2.00368810e+00
  7.64170933e+00  1.69375911e-02 -1.72514185e-01  3.71477890e+00
  1.59233093e+00  1.18030238e+00 -2.56581068e-01  1.73647213e+01
  1.04556434e-01  4.66720390e+00  4.42483664e+00  4.40529728e+00
  1.63745117e+00  4.07270575e+00  3.26323181e-01  4.85063362e+00
 -1.76704556e-01  1.82002401e+00  2.67519784e+00 -2.68248177e+00
  2.04591894e+00  1.94833791e+00 -1.17675912e+00 -5.45262471e-02
  2.30704451e+00  6.54143381e+00  3.52370405e+00  1.52457342e+01
  1.99700797e+00 -3.30567241e+00  9.88844395e+00  1.09848988e+00
 -8.77332401e+00 -1.08191006e-01  3.72910380e+00  1.99298172e+01
 -5.44223428e-01  1.27474844e+00  3.52133775e+00  1.07893491e+00
  3.33184123e+00  5.78937149e+00  6.64164352e+00  1.49706244e+00
  9.01669323e-01  1.01897726e+01  3.80033708e+00 -8.45230222e-02
  1.96022975e+00  8.96343327e+00  8.42928708e-01  3.91157484e+00
  1.14426982e+00  2.94454765e+00  9.45604324e-01  2.95996499e+00
  8.25930178e-01  5.06431055e+00 -3.82870698e+00  1.20635569e+00
 -1.64678872e+00  7.99988925e-01  3.09252834e+00  2.35162473e+00
  1.09055805e+00  1.87907600e+01 -1.33450210e+00 -1.90577790e-01
 -4.22281122e+00  2.40590167e+00  1.82593632e+00  5.29040146e+00]
[ 7.78278291e-01 -5.45297241e+00  1.87672460e+00 -4.12316322e+00
 -2.14286542e+00  5.42567551e-01  9.35150504e-01 -2.77230167e+00
  1.01880360e+00 -2.01202333e-01 -2.67744493e+00  1.62044322e+00
  1.12720287e+00 -4.48527247e-01 -3.60758591e+00 -2.20924950e+00
 -3.99069535e-03 -2.98028350e+00 -1.69946110e+00 -3.26306653e+00
 -1.65746248e+00  1.53268468e+00  4.90958989e-01  2.60929316e-01
 -9.97836685e+00  1.51251543e+00 -1.25763381e+00 -3.10825062e+00
  1.09214211e+00  1.09759025e-01 -2.01688990e-01 -9.21755123e+00
 -1.30495214e+00 -5.42706490e+00  4.42462832e-01 -1.85980868e+00
  1.49455488e+00  5.05310893e-01 -9.28445533e-02 -1.35311365e+00
  6.66550994e-01 -9.73624647e-01 -1.76575255e+00  2.94170588e-01
  4.22233677e+00 -1.10686040e+00 -2.34044552e+00 -5.88357496e+00
  2.83224416e+00 -2.50296736e+00 -1.91892743e+00  1.31970346e-01
  5.95412493e-01  4.45958042e+00 -1.00490272e+00  1.23966575e+00
  1.43214548e+00 -2.51402259e+00  8.00955677e+00 -1.43355560e+00
  1.08205724e+00 -9.77107823e-01  5.63944387e+00  1.84483171e-01
 -6.27294898e-01 -1.21380329e+00  2.66855001e+00 -2.97519851e+00
  6.55756950e+00 -1.61678576e+00 -1.94621873e+00  3.30978423e-01
 -2.76547933e+00  4.71959800e-01 -4.65731263e-01  4.53530364e-02
 -3.11527896e+00  6.50928020e-01 -8.81188154e-01 -4.53504980e-01
 -2.72254348e+00  3.66689295e-01 -3.21338153e+00 -4.25207710e+00
 -1.11417723e+00 -1.07669520e+00 -2.55558968e-01 -2.10162902e+00
 -3.65263700e-01 -4.97865534e+00 -1.93946123e+00 -4.18837696e-01
 -2.90288711e+00  1.09859094e-01 -5.37001753e+00  2.92189956e+00
 -1.71070945e+00  1.40185213e+00 -2.76367664e+00 -2.69235551e-01]
[ 2.2154429e+00 -2.1989179e+00 -2.0377076e+00 -1.2074291e+00
 -5.6610650e-01  2.2119448e+00  1.8147544e+00 -2.1116095e+00
  1.7445161e+00  1.1847014e+00  8.0921781e-01  2.1554067e+00
  1.8486644e+00 -2.1071188e-01  4.7379535e-01 -2.6766253e-01
  1.4784526e+00  4.2590108e+00 -2.3932855e+00 -2.9271386e+00
 -1.3441573e+00  1.1041010e-01  4.5721416e+00  1.0692118e+00
 -7.9034476e+00 -1.2577674e+00  5.4632127e-01  2.6595674e+00
  1.8165618e+00  7.6717627e-03  1.5715045e-01 -9.5852280e+00
  2.6186607e+00  2.7046988e+00  3.6647832e+00  2.3956492e+00
  2.4993260e+00  1.6387584e+00  9.0744585e-01 -1.0189137e+00
 -4.3503579e-01 -2.8535225e+00  7.3640424e-01  1.1873857e+00
 -1.3749936e+00 -2.6570387e+00 -1.0730426e+00  1.5624665e+00
  1.5759436e+00 -7.8987968e-01  8.8999856e-01  9.7589314e-02
  2.0320520e+00  5.6024380e+00  1.2585618e+00  3.6606336e+00
  1.7637190e+00 -3.2310924e-01  3.3585792e+00 -2.6596601e+00
  5.1748309e+00 -3.0056722e+00 -3.0999334e+00  2.7944105e+00
  1.2081866e+00 -1.9405961e+00  1.7030758e+00  2.8984225e+00
 -8.9108706e-01 -8.9958650e-01 -1.0785667e+01 -7.0284218e-01
  1.5958613e+00  3.1570062e-01 -1.1241270e+01  1.4628036e-01
 -2.5340514e+00  9.5781326e-01 -9.4037730e-01  3.0540040e-01
  7.8097373e-01  1.8023629e+00  9.2813987e-01  3.6151465e-02
  1.7041676e+00 -8.6323518e-01  1.6958232e+00 -5.9841126e-01
  4.2630014e-01  8.6078817e-01  1.9808189e+00 -1.8689613e+00
 -2.8866441e+00  5.7122378e+00 -8.8870060e-01 -4.6407785e+00
  2.5969656e+00  8.5796237e-01 -1.9758135e+00  1.0953765e+00]
[-0.21460673 -0.55105215 -0.4207392  -2.1845787  -1.5003095   0.18072058
  3.3201213  -0.5292646  -0.37552404 -3.053364    5.94595     0.6421007
 -0.39042312  0.14312227  4.657145   -1.958495    0.26414314 -0.57838184
 -0.64894223 -0.58278066 -0.28437704  4.123236    0.6535207  -2.755049
  0.9526711  -1.114867   -1.4270358   4.04195     0.11892077  1.0596945
  1.7172607   2.2128308   2.4437585   6.3018622   7.0449924  -3.8829403
 11.54819     0.12160105 -0.11827903 -1.5656508   8.072907   -4.454184
  1.0157934   5.6436253   0.8816418  -0.13017254 -1.311576   -1.0889363
 -3.920689   -0.60661745  5.358786    0.05881497 -0.05345253  2.2813706
  0.93378186  5.2047744  -0.17915927 -0.11607354 -2.7744532  -0.7014053
 -3.1734045   0.46381354 -3.3307474   1.0347328   1.5814666  -1.0020208
  0.26485118  1.1609372   7.5230765  -2.2208738   3.1239798  -1.640324
  1.5191547   5.3713183  -2.635564   -1.578385   -0.21664919 -4.2111554
 -3.8193681  -0.67818266  1.3798012   0.17595246  1.3186058  -0.65118176
  7.663544   -2.1002915   2.6890934  -1.4625925   0.33792463 -0.5414389
  1.4102622  -2.9674153  -0.24591784  1.0681293  15.583132    4.386973
  3.6934564  -0.94798034 -0.5553806   2.4178607 ]
[ -0.7398127   -1.051441     1.6616378    1.000323    -5.3667617
  -0.8391084   -0.6558429   -1.192539    -0.71077913   2.3491647
  -0.38015226  -0.28226072  -0.8623858    2.0403862  -17.303766
  -4.1149573   -0.57375664   2.8764713    0.68753666  -1.7407175
   1.9395231    0.54287773   0.22769585   2.4206266   -1.1811677
  -2.5535703    0.20461978   0.05345427  -0.8518233   -0.02143546
   0.0610849    0.49975213   0.14558701  -6.02952      2.5034015
  -1.878405    -4.2910633   -0.7751399   -0.47235882  -1.2865757
   0.02740403  -6.123045     0.5923473   -1.1566454   -1.0558172
   1.4867642   -3.0039694   -2.750754    -2.265913    -0.3713235
  -0.9834135    0.30983308  -0.8261569   -0.38882062  -1.4496891
  -2.1956005   -0.8584275   -0.23349415  -1.3407007    1.4405856
  -9.566369     1.1901246    1.375693    -0.19191012   1.8457109
   0.33161572  -1.9133137    0.67788273   3.0269632   -4.6575785
   1.764471     0.6319154    0.6346124    4.0951967    2.5563705
   0.4336024   -0.3418368    1.53708     -9.927861    -0.4543318
   0.55048245  -0.9542122    0.37018004   0.5865003   -2.336201
  -5.5048366    5.618621     0.61911047   0.47310072  -0.58876145
   0.45290023  -0.9119305    0.97759926  -4.002772    -0.05393421
  -0.54293877   1.6190561   -1.1961279    0.10050556  -2.7205937 ]
[-1.4228417e-01 -2.1902704e+00  1.4956486e+00  1.1119314e+00
 -4.6898594e+00  2.0734379e-01  5.5808192e-01 -2.0470843e+00
  1.2366036e-01 -4.6017744e-02  8.6051006e+00  5.0213242e-01
  1.2406441e-02  2.7720773e-01  9.8609692e-01  4.8493066e+00
  1.2571210e-01  2.3231399e+00  3.7173439e-02 -3.3002353e-01
  1.8488015e-01  6.2672037e-01 -2.5622425e+00  9.7228564e-02
  3.0280874e+00  1.0132139e+00 -8.0236906e-01  1.3349262e+00
 -5.0222898e-01  8.5590795e-02  9.9104702e-02 -8.9367175e-01
  2.7589736e+00  1.9047855e+01  1.6018211e+00 -8.7892890e-01
  9.7634006e-01  1.1605661e-01 -1.0428192e-02  6.3035196e-01
  5.4133004e-01  3.2190208e+00  5.6724370e-01  4.3306276e-01
 -1.0198328e+01  4.6800651e-02  8.6166210e-02  2.9409728e+00
  6.5344550e-02  5.5713326e-01 -7.6331991e-01  1.7429441e-01
 -7.8096725e-03  8.5376568e+00 -8.9283216e-01  4.3024068e+00
 -3.6840075e-01 -9.7355329e-02  3.7666485e+01  4.9899399e-02
 -5.8657753e-01  1.8754488e-01 -2.3510556e+00  1.1777456e+00
  4.2801535e-01 -1.5124078e+00 -5.8865923e-01 -2.4915147e-01
  2.3184679e+01 -9.9072428e+00 -3.1147950e+00  7.4885026e-02
 -3.6920295e+00  8.1247044e+00 -3.9760891e-01  8.1249535e-02
 -1.7946316e+00  2.7026956e+00 -3.5111690e-01 -8.1848580e-01
 -1.6225418e+00  1.5347534e-01 -2.2589343e+00  2.6885586e+00
  6.1943179e-01  5.4681487e+00 -5.2406639e-01 -5.0388962e-01
 -2.4081057e-01  1.4269373e+00 -4.4678631e+00 -4.6606278e+00
 -2.8553369e+00 -2.4645569e+00  9.3753958e+00 -7.4774408e-01
 -2.0751262e+00  4.3693435e-01 -1.7921079e+00  2.0816734e+00]
[ 2.4343164  -3.618396    0.56417245 -0.05123408 -1.6840894   1.9709476
 -0.13435861 -2.3592086   2.4536567   1.6442772   0.23655511  2.2824779
  2.0976472   0.665219    0.33548456 -1.4500502   2.314319    0.84839827
  0.4286738  -3.3982203  -0.35774466  1.4512011   2.7358134   1.6537507
  2.2553427   0.89968437  3.66643     2.9519153   2.1819766  -0.05725925
  0.01997058  3.1286952   2.7269638   6.487883    3.1278956   2.4317656
 -0.12102603  2.2429044   2.5814757  -1.1105444   0.2717711  -0.7341347
  0.27466393  2.0218253   1.4616381   1.1713922  -1.5183814   0.60687715
  0.8048452   2.7602983   1.6167511  -0.20613906  2.1538315   5.0785046
  1.870282    1.0327708   2.0988321   4.956883    2.1309025   0.501099
  1.1263444   1.0509231   0.5540005   2.2094202  -4.502183    0.32517487
  1.404032    0.8847862   3.7512462  -0.91855705  3.3308241   0.31835422
  0.8578507   2.0231612   1.2098287  -0.22635794 -2.51806     0.9314054
 -0.89002174  2.3343852   0.3300717   2.2025685   0.6258055   1.8138932
  3.0332139  -0.59768474 -7.419906    0.9519904   0.14047457  1.3214638
  1.0823054  -0.97988236 -2.4954991   6.597923    2.8860261  -3.1076236
 -2.712818    0.72970307 -2.0292084   2.0197847 ]
[-0.32843524  4.7013187  -4.1343575  -3.33126     3.610767   -0.44838855
  1.3824588   3.4598591  -0.2587639   3.6154673  -0.9805478  -1.5583442
 -0.6527772  -1.6698614   6.8632298   4.098608   -0.02414198 -2.2087615
 -0.2797184   3.1764443  -0.0638125  -5.1932955   0.3239468   3.683794
 -2.3377078   2.9579544  -9.15398    -1.2455895  -0.85421515 -0.32524836
 -0.10184161 -2.7597713   0.08746183 -7.3995457  -3.2771347   5.8535056
  1.7607223  -0.3670435  -0.33894205  5.1878266   0.919484    0.22478059
  1.0545548  -0.84924567  4.0358186   0.35638258  3.342797   -3.6090293
  7.435753   -6.7703443  -0.4757538  -0.43333796 -0.56044424  2.6533475
  1.632842    1.0648392  -0.39281163 -0.4333473  11.516182    0.7777508
 -3.0210183   0.7705374   1.5334486   0.0960919  -5.196943    0.28427005
  0.7333041   0.59480953 -3.747831    5.5353847   0.0285034   2.820812
  1.3979256  -1.4362988   2.9458554  -0.18151979  3.7049897   5.187762
  4.1392713  -1.5115771   0.60436434 -0.28173023  0.8054436   4.102477
 -5.6014457   6.030525   -3.5987802  -1.5995547  -2.7955608   2.7042048
  1.55769     4.707942    3.135242   -0.41835865 -4.9080033   5.09309
  2.6335535   0.69067746  2.8159232   5.5810122 ]
[ 4.814962    1.0302349   1.0850607   1.1198702   2.716252    4.850165
 -1.7797924   1.5881925   4.148649    3.8691447  -0.27088112  5.3841243
  4.221091    4.99435     3.595491    2.2266529   3.633075    6.995228
  2.0296643   1.2756352   1.7066641   3.679564    5.4050527   3.7929063
  9.709821   -1.1619166   1.7922138   2.528694    4.6603813   0.01831255
 -0.0737178   4.357629    2.4770525   5.748226    4.022511    6.1143413
 -0.72359043  3.9483662   3.4366937   3.1533973   0.20955187  2.6342971
 -0.5692756   7.7187376   3.8104799   2.3152869   2.2031467  -0.90297294
  4.833568    0.43733937  0.93398607  0.02670333  3.9154487   5.295449
  3.345054    7.1869226   4.5313077  -3.952403    6.4993544   2.126528
  7.082489    3.1290197   4.5049434   5.1949873  -1.7015114   1.7670667
  1.3244658   1.2256279   4.449188    3.2326822   1.9407581   2.1071332
  1.1055049   4.3367643   0.3953457  -0.01638499  1.4701304   5.437101
  1.3051536   3.1825738   0.8759937   4.093072    0.8641053  -0.48201618
  2.8037784   3.1666691   2.2087386   1.2691153   0.01406737  0.61938924
  1.8472638   2.7419786   1.4042349   7.8894486   0.2646699  -1.0125823
 -2.3640318   4.5863314   2.0101905  -8.205845  ]
[ 5.9203339e-01  6.5437335e-01  1.5064509e+00 -2.6614198e-01
 -6.4433665e+00  7.3164415e-01 -9.9779105e-01 -3.2637246e+00
  2.9896125e-01  7.8364402e-01 -8.1374311e+00  7.3141032e-01
  1.0446706e-01  3.5168755e+00 -1.6384210e-01 -1.0656440e+00
 -1.1659289e-01 -2.4561119e+00  8.5037309e-01 -2.6296847e+00
  3.4984398e-01  1.4837704e+00 -4.6203589e-01  2.3059277e-01
  4.2338461e-01 -7.6903415e-01 -2.5112432e-01 -5.7178378e+00
  6.6693264e-01 -4.3153659e-02  5.3244486e+00  1.1709027e+00
 -6.5701642e+00  6.5641320e-01 -3.3683429e+00  7.9484415e-01
 -9.2254621e-01 -2.0631771e-01 -8.5405186e-02 -3.7679369e+00
 -4.5332389e+00  2.6172930e-01  3.1450731e-03  1.4199991e+00
  1.4032257e+00  7.5603902e-01 -6.2510543e+00  5.3177226e-01
 -4.2147350e+00 -5.8187187e-01 -6.1926627e+00  3.4777518e-02
 -1.1219860e-01 -6.8997884e-01 -2.4169506e-01  7.0853299e-01
  5.1960713e-01  4.4414639e-02 -4.0756381e-01  8.9255476e-01
  1.2422688e+00  5.0387353e-01  1.7421529e+00  4.0587252e-01
 -3.8420305e-01  6.3249505e-01 -2.1669421e-01 -9.1724914e-01
 -6.3542849e-01  2.3274496e-01  1.1119235e+00  2.3440227e-01
 -2.7355785e+00 -1.2581588e+00 -1.9421794e-01  4.5951582e-02
 -3.4291513e+00  1.2583452e-01 -6.4125972e+00 -1.1747410e-01
 -3.0441096e+00 -1.9549507e-01 -3.5230772e+00 -1.3704709e+00
 -6.5726101e-01 -2.5296123e+00  4.5453647e-01  3.4539798e-01
  4.2208567e+00 -1.0073043e+00 -9.1446371e+00 -5.1328230e+00
 -3.7723126e+00 -4.0995712e+00 -2.9024792e+00 -8.1887096e-02
  4.4734761e-01 -3.6216552e+00 -5.4012938e+00 -4.2870960e-01]
[ 3.8190813  -0.8543679  -7.2746167  -1.8686554  -0.72423255  1.7716955
 -4.842033    0.13705873  4.5915265  -2.9668481  -2.0300527   0.20094089
  4.005193   -8.830519   -2.5630958  -3.4256644   0.6536241   0.6622092
 -4.216562   -0.56606144 -3.7343864  -8.927424    0.5992963  -2.8959894
 -3.3828175  12.306991   -0.9622329   1.0985582   3.4200792  -0.10128053
  0.24435793 -4.2215185   1.034363   -5.1448483  -2.67378    -3.5756414
  4.4585342   1.0343597   0.6482391  -0.87448895 -0.46004704 -3.0085135
 -0.18982077 -1.3930637  -0.33336252 -4.614224   -0.5010907   6.947323
 -4.629992   -2.2088208   1.6045525  -0.06148805  2.9224446   1.8643265
  2.9885345  -5.181454    4.723846    0.1411196  -9.615449   -4.3315635
 -3.7327456  -2.2025456  -6.952473    1.3233911   2.687421   -4.655072
  4.5802417  -1.1445875   2.6540992  -1.4571244  -4.419623   -2.4103503
  0.37791777 -0.04677057 -0.13331722  0.19221139  0.46306467 -5.635824
 -5.9789753   0.43119282  0.61571705  1.6459036   0.13009076 -2.1991942
  4.122678   -1.2994113   0.513317   -4.545198    0.9855785   0.26515007
  0.41589427 -2.4186695   0.8310587  -7.4092727   1.8000824   0.8426153
  4.858921   -1.9481465  -0.29421628 -5.2193694 ]
[-1.1483576e+01  3.8237491e+00 -2.5373049e+00 -3.5003121e+00
  3.8392482e+00 -1.3175044e+01 -9.8733073e-01  5.3941364e+00
 -5.7245555e+00 -2.0586283e+00 -1.1970288e+00 -1.6340889e+01
 -6.2063718e+00  9.4814396e-01 -1.6722315e+01  1.1069741e+01
 -3.4342613e+00 -1.2450055e+00 -1.7649873e+00  6.2578301e+00
 -7.1822629e+00  7.7800728e-02 -7.9440999e+00 -1.6689519e+00
  2.3473717e+01  5.0654526e+00  6.4239448e-01 -5.8161521e-01
 -1.0396397e+01 -3.3662315e-02  1.1757883e-01  1.4138279e+01
 -2.5471003e+00  9.6213436e+00  7.8507838e+00  2.0146482e+01
  1.3187109e+00 -4.3013234e+00 -2.4440806e+00  1.8225649e+01
 -1.4542470e+00 -4.3133330e+00 -1.7068039e-01  2.8973032e+01
  1.6117060e+01  8.2887512e-01  8.0666885e+00 -4.5512123e+00
  3.1512041e+00 -2.2396433e+00 -1.2831960e+00 -5.0485838e-02
 -6.5126891e+00 -2.0431459e+00 -5.5724874e+00  3.9715885e+01
 -7.5798225e+00 -1.3744897e-02  1.6033045e+00 -5.0866562e-01
 -2.4186697e+01  2.5945160e+00 -3.7696910e+00 -1.2173462e+01
 -4.0463516e-01 -3.6016667e+00  4.4357591e+00 -1.4029566e+00
  1.2748639e+01  1.3295977e+01  8.4151726e+00 -7.2369695e-01
 -3.1328125e+00  5.3492455e+00  2.8472003e-01 -2.6039474e-02
  5.2409949e+00 -4.4131565e+00  7.9961324e+00 -1.6148044e+00
 -1.0179098e+00 -5.4106183e+00 -1.1918802e+00  6.8257344e-01
 -2.2076912e+00  1.0833862e+01  4.3035007e-01 -6.7630706e+00
  7.4414349e-01 -2.1623662e+00 -3.8669515e+00  6.5235287e-01
  5.5386405e+00  2.1378103e+01 -3.8540521e+00 -5.0490004e-01
  5.8849044e+00  1.0669240e+00  3.8386374e+00 -7.6557058e-01]
[-2.9372334   0.7129456   7.173373    2.3179095   1.5868864  -2.973693
 -1.3524343   0.40729082 -1.7004066   3.8393676  -1.8591664  -2.6020436
 -1.5305215   7.945485   -0.75487715  1.9940293   0.22162761  0.7811435
  3.2388103   0.54128695  0.98314625  7.1096053  -2.6007776   3.746147
  3.2999525  -0.29576468  1.673244   -3.5368361  -2.513213   -0.36066386
 -0.7574114   3.352054   -2.2988644   4.089358    0.01647935  4.6434793
 -3.5687687  -0.30805483  0.90030324  1.6939121  -0.9658198  -2.5894296
 -2.4715624   1.1485168   0.09918269  3.962608    1.2156641  -0.63236856
  4.5241537   0.6988953  -1.9814515  -0.47926974 -1.4584047  -2.5955513
 -2.2013848   3.756681   -1.9923078  -2.1697211   6.5446725   3.773621
  4.361493    3.08286     7.3120337  -2.7180014  -2.594837    1.9611182
 -1.2574204  -1.5469902  -3.2458215   2.1431413   2.9077082   3.0846953
 -1.8026884   0.95508265 -4.767872   -0.25335222  0.41534537  5.0865192
  4.588097    1.4537015  -1.3186785  -1.1684144  -1.3897805  -0.76369953
 -5.8203754   2.3325038  -0.8357523   1.8606416  -1.780168   -1.9324996
 -1.4644896   3.1611872   0.06082987  3.5984774  -2.1376188  -4.862852
 -3.2645388   2.4857762   0.5414923  -1.4702828 ]
layer 7 Activation
elu
layer 8 Dropout
layer 9 Dense
100 1
[-0.2445207]
[0.31686452]
[0.19550201]
[-0.12567294]
[1.5220504]
[-0.2026873]
[0.03770432]
[1.3635759]
[-0.30238047]
[-1.2009045]
[-1.5316544]
[-0.18725133]
[-0.42650238]
[0.0451108]
[0.20626576]
[-0.06816176]
[-0.4988365]
[0.5777936]
[0.4102709]
[1.3237619]
[-0.30222675]
[0.12387879]
[-0.14662568]
[-1.0963876]
[0.09521751]
[-0.14838324]
[-0.55819607]
[-1.6414376]
[-0.24446283]
[0.00140809]
[-1.4266547]
[0.12558715]
[-0.93019825]
[0.0044149]
[-0.6786597]
[-0.24225534]
[-1.4807007]
[-0.47784114]
[-0.5451822]
[1.0061464]
[-0.04894612]
[0.5395106]
[-0.16381639]
[0.09827004]
[0.7220677]
[0.3645906]
[1.1122046]
[0.02214294]
[0.0151705]
[-0.19746596]
[-0.63387126]
[-1.4156463e-05]
[-0.41847208]
[-0.6022252]
[-0.02034051]
[0.05525134]
[-0.31849086]
[-1.1067604]
[0.00981429]
[0.38949496]
[0.64181435]
[0.35342103]
[0.07048898]
[-0.0318321]
[-0.05311097]
[0.38556772]
[-0.10567995]
[-1.5285935]
[0.52017635]
[-0.03074177]
[0.14748749]
[-0.15811592]
[-1.7587392]
[0.18814097]
[1.7573364]
[-0.00089097]
[0.96109575]
[0.6134538]
[-0.01478931]
[-0.58024645]
[-0.45133165]
[-0.4629089]
[-0.96172947]
[-0.02886043]
[0.21448538]
[0.8040872]
[0.2555645]
[-0.22891562]
[-0.05532093]
[-0.6018561]
[-0.00996875]
[1.431848]
[1.5575345]
[-0.28542188]
[-0.07029817]
[0.07940036]
[0.27287745]
[0.16765927]
[1.5772464]
[0.21540634]
[-0.7091212]
