layers 10
layer 0 Dense
7 7
[-2.1548932e-04  2.9361034e-05 -2.8746529e-03  2.6794153e-04
 -2.6292105e+00 -2.6177423e-04  1.5339607e-02]
[-2.1498476e-03  1.3071145e-03  1.8046240e-03  2.9087368e-02
  2.2197419e-01 -5.7810306e-04  2.2303832e+00]
[-5.5320132e-05  1.3768753e-05  2.3048045e-02  8.4859421e-03
  5.0802488e-04  2.6123956e-04  4.0437789e-03]
[ 1.5198439   3.185719   -0.07749999 -0.0921338   0.01867712  5.028187
  0.11641978]
[-11.273925    11.0422945    1.879428     0.14309193  -0.097386
   6.0434012   -1.2984842 ]
[4.8449484e-04 3.8368798e-05 1.2935910e+01 1.8410190e-03 5.6125801e-02
 1.1511773e-03 7.7922666e-03]
[ 1.3641586e-03 -2.4187178e-04  3.1605665e-02  2.0585270e+00
  2.5314771e-04  1.6261904e-03 -1.8907644e-02]
[  9.752885   -10.099387    -1.9120178   -1.8875878    0.7865035
  -5.982843    -0.19265482]
layer 1 Activation
elu
layer 2 Dropout
layer 3 Dense
7 26
[-5.6474242e+00 -1.5285137e+01 -4.9237102e-01 -1.7831017e+01
 -1.6028224e-01 -9.4260323e-01 -4.2162934e-01 -2.1179752e+00
 -1.0193834e-02 -2.8725466e+01 -1.8834085e+00  4.7119115e-03
 -2.3308098e-01  7.1455985e-01 -2.3969873e+01  2.8518233e+00
 -6.6184182e+00 -1.0722280e+00 -2.4987149e+00 -2.1118645e-01
 -1.0193505e+01 -4.1974072e+00 -1.0687003e+01  5.3995948e-02
 -8.6351591e-01 -6.5586323e-01]
[-1.0672438e+01  6.9907718e+00 -1.5399095e+00  2.5093980e+00
 -1.0508895e-01 -2.6945863e+00 -8.2514491e-03  2.9755297e+00
 -6.5050215e-02  2.3140862e+00  6.5094434e-02  4.5480286e-03
  9.7628584e+00  5.1354985e+00  7.1441042e-01 -3.3430128e+00
  5.2880561e-01  1.6590874e+00  1.7779016e+00  6.9987945e-02
  9.9702549e+00  6.1345057e+00  8.0903616e+00  2.0025529e-02
 -2.5837233e+00  1.9550221e+00]
[-4.6071148e-04 -7.7777181e-04  1.9132401e-04 -8.8929129e+00
 -2.5874041e-03  1.9879063e-04 -1.3950899e-03  3.1028652e-05
  1.1839296e-03 -1.5589336e+01 -3.1693320e-04 -1.5546236e-02
 -7.8831386e-04 -4.9636059e-04 -2.0226850e-03  8.8411267e-05
 -8.9082686e-04 -2.2914469e+00  1.5246874e-04 -4.9837199e-01
  4.7463982e-05 -2.5703325e-03  3.8385368e-04 -9.9848595e-04
 -1.0641199e-04 -8.4771644e-05]
[-1.2435308e-02  2.2855452e-03  1.3947254e-04  1.3625421e-01
  1.0194080e+00 -1.0442657e-02  2.6188185e-02 -2.8927687e-03
 -1.2494853e-02 -2.2752726e+00  1.9866384e-04 -3.3120355e-03
 -1.7026041e-02  8.6955931e-03 -2.4311446e-02 -5.5149910e-03
 -9.6683092e-03  3.6797062e-01 -1.0065141e-03  3.7772920e-02
  5.5771768e-03 -4.6726391e-02  1.1610736e-02  1.9495454e+00
  1.4557191e-02 -2.2558356e-03]
[-2.7583119e-05  1.4310579e-02 -1.0519683e-03  1.9825218e-02
  5.1192325e-02  2.6229231e-03  7.5771965e-02  7.1403407e-04
 -3.0117534e-02 -5.3625017e-02 -5.3444714e-04  3.5694046e+00
  2.0709925e-04  2.9890068e-04  2.2115804e-02 -6.2708929e-04
  2.2451044e-03 -1.3446313e-02 -5.0052663e-04 -7.0680808e-03
  2.0990472e-03  1.3187996e-03 -4.8609477e-04 -1.2230875e-02
  1.5640002e-03 -1.4328250e-03]
[ 7.9013348e+00  1.3474488e+00 -1.7987716e+00 -2.8186662e+00
  5.6152426e-02  8.9460164e-01  2.7632603e-02 -3.6696488e-01
  1.9058062e-02  1.3836436e+00 -1.1101736e+00 -6.4412071e-03
 -2.2330292e+01  6.8246102e-01 -4.8370737e-01 -3.6630756e-01
  3.8678801e+00 -1.4825449e+00  5.3411508e-01 -2.7544660e-02
  1.2974602e+00 -1.2447159e+00  1.8167430e+00  6.2085362e-03
  3.9649212e+00 -4.8760071e+00]
[-4.6201744e-03  4.9489509e-02 -1.3571517e-03  2.8941436e-02
  3.7474506e+00 -5.3112707e-03  2.6222470e+00 -3.7899255e-03
 -5.2412906e+00  9.2302196e-02 -4.0846867e-03 -3.5953504e-01
 -8.8733656e-04  5.8506252e-03 -7.9820963e-04 -5.1872637e-03
 -7.3677427e-03  4.0724166e-03 -3.7610638e-03 -9.7862901e-03
 -1.1355495e-02 -6.0999533e-03 -1.3647089e-02 -4.4940151e-02
  4.6613021e-03 -3.4073887e-03]
[-2.6218636e-02 -2.1503822e+01  1.3279703e+00 -1.5352572e+01
  3.2448821e+00  1.3257854e+00  4.0327701e-01  5.4163427e+00
 -2.9388599e+00 -2.6401999e+01  1.6705379e+00 -2.8536406e+00
 -1.1236887e+01  2.4549685e+00 -1.8021605e+01  1.1051462e+00
 -5.1821818e+00 -3.9949396e+00  1.4427611e-01 -1.5508690e+00
 -4.6807566e+00 -9.4314461e+00 -1.2258633e+01  7.7283168e-01
 -8.5201111e+00 -1.0159042e+00]
layer 4 Activation
elu
layer 5 Dropout
layer 6 Dense
26 100
[-4.7225537e+00  8.3523684e+00  3.5546673e+01 -4.2034807e+00
  2.0655866e+00  3.4838692e+01  6.5095574e-01  2.4102592e+00
  3.2313640e+00  1.3115234e+00 -7.9003644e+00  1.6844904e+01
  3.7944393e+00  2.3692455e+01  1.3656474e+01 -2.6211638e+00
 -5.9402055e-01  1.0128840e+00  6.9383817e+00  4.2122660e+00
 -7.8794684e+00  4.8263936e+00  1.9327087e+01  1.6000209e+00
 -1.3570974e+00 -6.0380807e+00 -2.2237339e+00  7.7689773e-01
  7.1986942e+00  6.3615918e-01 -9.7403246e-01  4.3967447e+00
  2.0117171e+00  1.8170864e+01 -8.2753439e+00  8.8533812e+00
  4.1765072e+01 -6.0932574e+00 -1.0507927e+01  1.8782536e+01
 -2.0013328e+00 -4.9955487e+00  2.2713426e-01 -2.7081677e-01
  3.3346541e+00 -2.7247045e+00  1.0036710e+01 -6.2107328e-02
 -3.3823407e-01 -2.8419416e+00 -1.8204730e+00  6.6209114e-01
 -3.5587999e-01  2.4499233e+00 -1.3407423e+00  1.2712226e+01
  5.2653222e+00  6.8152437e+00  1.0502864e+01  2.0585341e+00
  1.4226101e+01  1.3906002e+00  1.3039571e+01 -4.1690807e+00
  1.9399986e+00  5.5949297e+00 -4.7208786e-01  1.2266049e+01
  3.7600946e-01  6.3583547e-01  1.1371750e+01  2.7864319e+01
  1.3024672e+00  1.4791518e+01 -6.1635084e+00  7.3677272e-01
  1.0278472e+01  1.1650162e+02  8.5452008e-01 -6.4267021e-01
 -5.6718640e+00  9.3529940e+00  8.2358932e-01 -6.1962527e-01
  1.2313354e-01  2.5144460e+00 -2.9540438e+01 -2.0231709e+00
 -4.0972286e-01  3.2065432e+00 -1.7116943e-01  8.5671616e+00
  3.2518432e+00  1.1499365e+01  3.1066079e+00  1.8346997e+00
  8.2846041e+00  4.3765187e+00  2.0908570e+00  1.0898017e+00]
[ 6.8889551e+00 -1.7474108e+00 -6.2995100e+00 -9.3801868e-01
  3.7625887e+00  6.5721660e+00 -4.2957249e+00  1.5412637e+00
 -1.8236723e+01  1.5024444e+00 -4.5806265e+00  8.7037125e+00
 -1.5854851e+01  2.3340414e+00 -4.9688973e-02  6.9976491e-01
  6.2913475e+00 -1.6435081e+01  4.5414805e+00  2.3312011e+00
 -5.8732665e-01  1.8043508e-01  1.2938770e+01  1.9383683e+00
 -5.5152936e+00 -3.4772501e+00  3.7794766e+00 -3.1677940e+00
  2.5944199e+01  1.7708570e-01  1.6814463e-01  1.3596922e+00
 -9.8838692e+00  3.5145869e+00 -1.7957807e-01 -1.2205909e+00
  1.4603817e+01  1.0835557e+00  3.5024085e+00  8.9423094e+00
 -1.4167047e+00  6.0249181e+00  1.9887690e-01 -1.4503300e+01
  4.0529175e+00 -3.0257251e+00  8.9123068e+00  3.9136177e-01
  3.2253637e+00 -5.1440203e-01  9.8791331e-01  2.1646190e-01
 -4.9133887e+00  2.8797090e+00  6.4131427e-01  9.9491987e+00
 -1.9044601e+01  9.7302830e-01  5.1676359e+00  1.4593737e-01
 -2.6241751e+01 -1.1524701e+00 -9.9532595e+00  1.0546095e+01
 -8.5838871e+00 -1.0792641e-01  2.5956330e+00  2.0588946e+00
 -2.0474184e+01  2.3591442e-01  2.9390991e-01  7.9954023e+00
  8.8897043e-01  6.4665830e-01  7.7569380e+00  3.5690892e-01
  1.4359231e+01  5.5286877e+01  4.6079054e+00  4.1054353e-01
  5.0798721e+00 -5.5899887e+00  9.2691529e-01 -1.2139206e+00
  1.8505169e+01 -1.5870885e+00  6.3511205e+00 -1.3885312e-01
  1.8867581e+00  3.8363335e+00  2.8388333e+00  7.5998378e+00
  3.0960536e+00 -7.9757409e+00 -2.4224315e+00  2.5545924e+00
 -1.3931019e+00 -6.6726069e+00  3.5516181e+00  3.0067179e-01]
[ 4.98605680e+00  3.86681557e+00 -1.29362278e+01 -1.31436503e+00
  5.33428669e+00  3.28087234e+01 -2.39688203e-01 -1.82472181e+00
 -1.94560547e+01 -1.02486873e+00  1.79150403e-01  1.42230034e+01
 -4.96587229e+00  2.08163381e+00 -8.59622574e+00  3.79655576e+00
 -6.39886427e+00  2.65614629e+00  5.97788858e+00 -2.98847389e+00
 -1.11981001e+01 -5.04167461e+00  2.42252083e+01 -6.08685613e-02
  7.69873762e+00  1.33155465e+00 -1.42896545e+00  2.99375725e+00
  1.42278719e+01  1.66048482e-02 -4.33616638e-01  1.63224411e+01
  1.44454670e+00 -2.94255657e+01  2.35900116e+00  4.61173744e+01
  6.74358749e+01 -1.43070087e+01 -1.05245848e+01 -6.31729603e+00
 -9.61022675e-01 -5.80868101e+00 -2.49355435e-02  5.00063121e-01
  1.55422986e+00  7.98620796e+00 -3.34741116e+00 -9.43047553e-02
  3.03231031e-01 -1.31339025e+00 -1.55031919e+01  2.07012184e-02
 -1.07553196e+01  2.19622350e+00 -4.04504508e-01  2.16170006e+01
 -3.11595688e+01 -8.62392664e-01  1.52138824e+01  6.43328142e+00
 -9.27405262e+00 -1.31971097e+00 -2.50158501e+01 -6.31682158e+00
  1.21965080e-01 -9.49837387e-01  5.83721220e-01  2.22183514e+01
 -1.01122403e+00 -1.14223063e+00  1.03230133e+01 -1.57377803e+00
 -1.22737777e+00  4.44890594e+01 -2.83366889e-01  4.71438803e-02
  1.16133380e+00  8.28395462e+01  1.62878215e+00 -1.38145578e+00
 -1.55058975e+01 -1.76958168e+00 -1.26534152e+00 -1.65560126e-01
 -3.80294509e-02  4.64732230e-01 -4.17900848e+00 -1.38512945e+00
 -1.68344527e-01 -1.46106136e+00 -2.31936073e+00  3.95215464e+00
 -4.64658070e+00  2.50927486e+01  1.29424650e-02  1.08403288e-01
  6.70234060e+00  2.13917637e+00  1.33647454e+00 -3.17940044e+00]
[-8.2909193e+00  2.0762396e+01  2.5783045e+01  1.3427494e+00
 -1.3078226e-01  2.4531654e+01  7.9493918e+00 -1.0267344e+00
 -1.3422705e+00 -4.5507178e+00  3.8934914e+01  1.5058534e+01
 -3.5758717e+00 -1.6696877e+01  6.6950264e+00 -2.8300755e+00
 -1.5575364e+00  1.0466137e+02  3.3156652e+00 -8.0678833e-01
  2.2336090e-01 -4.1992401e+01 -7.0215721e+00 -5.6141539e+00
 -3.7162655e+01  1.2638750e+00 -4.2836781e+00  1.9956123e+01
  3.4051614e+00  5.3604554e-02 -9.1400518e+00  7.0557060e+00
  2.4636202e+01 -5.6697148e-01  7.9295227e+01  7.8993706e+01
  2.8426208e+01  4.5756078e+00  3.4905417e+00 -4.1738093e-01
  1.2672914e+00  2.6816423e+00  1.2298049e+00 -4.5744316e+01
 -3.2634995e+00  1.2438640e+01  6.5505714e+00  6.0173888e+00
 -3.1768541e+00 -4.3498917e+00  4.8437915e+00  1.0039526e-01
  7.6251225e+00 -9.2451744e+00 -3.0279217e+00 -5.3792866e+01
  1.1014194e+01  5.5467921e-01  1.8008934e+01  1.3493682e+01
  5.5177631e+01  1.0080338e+01  4.5528736e+00 -2.1668974e+01
  6.1963620e+00  8.4377270e+00 -3.9993134e-01  2.2620676e-01
 -2.7927477e+01 -2.7583795e+00 -3.7598007e+01  4.2724438e+00
  1.6540023e+00 -4.5237053e+01  3.3582439e+00  1.3201106e-01
  1.7861223e-01  1.5767734e+02  8.4006271e+00 -9.3065935e-01
 -8.3948574e+00  9.3853579e+00  2.6450343e+00  3.6245034e+00
  2.3549862e+01 -5.0950379e+00  4.4205060e+00  3.7657220e+00
 -1.0718468e+01 -2.9012793e-01  1.4504298e+00  8.4731798e+00
  1.0558052e+01  3.7383430e+01  3.3328915e+01  9.0523472e+00
  3.5207409e+01  7.6588464e+00  2.2997987e+00  3.6316297e+00]
[-2.31852420e-02  6.18482977e-02 -5.66035435e-02 -2.92184521e-02
 -2.18336180e-01  8.43781829e-02  1.10115242e+00 -1.34199369e+00
  4.33532074e-02  2.16581225e+00 -7.39612389e+00 -3.17463756e-01
  3.97534072e-02  3.70929167e-02  4.51016880e-04 -8.77436846e-02
  1.09732427e-01  1.45214100e+01  6.48165718e-02  1.70291901e-01
 -1.94716901e-01  2.02543810e-01 -2.61593640e-01 -1.18570337e-02
  6.97437534e-03  3.68802878e-03 -1.16416672e-02 -1.91702783e+00
  1.37104705e-01 -4.17738775e-04  7.58330896e-02 -3.18491429e-01
 -2.15736270e+00 -4.27260017e-03  5.87986767e-01 -2.97365913e+01
  1.33989906e+00 -4.38340660e-03 -1.43351415e-02  3.29588294e+00
 -4.26887311e-02 -2.42652856e-02  8.40621948e-01 -4.26925831e-02
 -3.20241833e+00  1.14593245e-01  9.05239880e-02  4.96932840e+00
 -1.47300676e-01 -1.53263360e-02 -1.54616594e-01 -3.44516803e-03
  2.08682656e-01  7.22418055e-02 -3.86239195e+00  1.05295157e+00
  1.33639586e+00 -3.93948285e-03  3.00650205e-03 -7.26769865e-02
 -1.13467686e-02  1.22760341e-01 -7.22052008e-02  5.11173964e-01
 -1.29486790e+01 -1.94130605e-03  2.29776073e+00 -3.04924793e+01
  6.78633600e-02  2.98716966e-03  1.32162377e-01  5.16444333e-02
 -3.15616226e+00  6.97783089e+00  2.15873290e-02 -1.16949121e-03
  1.75921246e-01  2.51572075e+01 -2.81225741e-01 -5.96215576e-03
  7.30467737e-02  6.84695393e-02 -2.78992009e+00 -7.23055601e+00
 -1.56893277e+00 -3.38731259e-02  3.57449576e-02  3.11953146e-02
 -1.01175820e-02 -1.04784336e+01 -1.04837966e+00  3.05432100e-02
  1.57530949e-01  3.01727593e-01 -9.95673001e-01  4.80718040e+00
  4.73099314e-02 -4.59717655e+00 -4.20464911e-02  3.63257676e-02]
[-1.10549030e+01 -1.54111350e+00  1.04332647e+01  2.83899188e+00
  1.01884699e+00  2.10228558e+01 -9.58798170e-01  5.56125998e-01
  3.93314409e+00  1.32534809e+01  5.84677267e+00  2.16970012e-01
 -9.43034744e+00  2.08282185e+01  6.93717384e+00 -3.73542726e-01
  2.71201062e+00  4.74439859e+00  3.73177195e+00 -2.51605916e+00
  8.27383220e-01 -5.94840956e+00 -2.97321835e+01 -2.35584641e+00
 -1.71441865e+00  4.24731636e+00  4.09446269e-01  9.41798806e-01
 -1.25365934e+01 -9.17653460e-03 -2.44614542e-01  4.52624589e-01
 -1.56338525e+00 -6.83967292e-01  4.70114326e+00 -5.56080627e+00
  1.26240997e+01 -8.82353401e+00 -1.68243015e+00 -1.33181610e+01
 -7.16105327e-02 -1.95222867e+00  1.57185569e-02  7.14464712e+00
 -2.04187050e+01  8.84067059e-01  2.03000679e+01 -1.49614550e-02
  1.31868291e+00  1.05979300e+00  1.06143498e+00 -1.40216630e-02
  7.67573404e+00  6.30727434e+00 -1.75781146e-01  1.28782396e+01
  2.33059496e-01  2.68654197e-01 -2.34122314e+01  1.28289819e+00
  1.57288427e+01  6.11887693e+00 -4.92137051e+00  2.13995075e+00
  1.02166212e+00 -1.04260445e+00 -3.04438629e+01  2.46709499e+01
 -3.31640315e+00 -5.00310373e+00  1.06202316e+01 -3.58116341e+00
  5.38323522e-01  7.17330322e+01  2.14976621e+00 -1.25568518e-02
  1.23146305e+01  7.07622528e+01  3.98326874e+00 -1.19812787e+00
 -4.21339684e+01 -1.25578558e+00  1.54366136e-01  4.42567736e-01
 -9.52002029e+01 -1.09234405e+00 -7.46078110e+00 -2.39216089e+00
 -4.72747982e-02 -3.95520759e+00  1.98134887e+00  2.55769801e+00
  4.11955118e+00  1.00111759e+00  6.46810293e+00  5.57068527e-01
  1.15414352e+01 -2.79941254e+01  7.46516109e-01  2.03086734e+00]
[ 1.98783241e-02 -8.01044479e-02  1.99797526e-01  4.28819843e-02
 -3.48455235e-02  5.11644408e-02 -2.32011681e+01 -6.08899482e-02
 -3.34379263e-02  6.74470663e-02  9.88147259e+00  3.31846058e-01
 -6.68475702e-02  1.86044909e-02  3.50275896e-02  4.73846719e-02
 -2.82320920e-02 -2.36290665e+01 -5.35380840e-02 -2.30711803e-01
  2.65771329e-01 -2.87450582e-01  4.92154479e-01  1.12011330e-02
  6.48334548e-02  8.41759983e-03  1.43078147e-02 -5.48404169e+00
 -6.07149720e-01  1.29750744e-02  2.20395904e-02  5.28108120e-01
 -1.29711628e+01  2.07472080e-03 -9.83818710e-01  3.89264984e+01
 -1.94461381e+00 -6.08456135e-02 -8.63650814e-03 -4.10406160e+00
  6.95920438e-02  2.91836821e-02 -2.74608917e+01 -5.14079705e-02
 -1.57149862e-02 -1.47255570e-01 -8.53777006e-02 -3.60037804e+01
 -9.32490528e-02  2.04428546e-02  9.94094312e-02  1.99299343e-02
 -2.18809068e-01 -1.65944412e-01  7.24586904e-01 -1.44776952e+00
 -1.75355840e+00 -6.44954108e-03 -1.90207690e-01  1.34032771e-01
  6.26865327e-02 -1.71792835e-01  1.27391532e-01 -4.46469694e-01
 -1.22237425e+01  2.39200667e-02 -3.15265465e+00  1.39205189e+01
 -6.13694414e-02 -3.48152407e-02 -1.82525307e-01  1.73001122e+00
  4.32694852e-01 -9.43614578e+00 -1.30276298e-02 -5.42999012e-04
 -2.01118395e-01 -3.94552193e+01 -3.14418507e+01 -4.37860051e-03
 -2.07533136e-01  2.36982393e+00 -2.89086580e-01  7.65956545e+00
 -1.32287483e+01  4.41594534e-02 -8.18444267e-02 -5.23982309e-02
  5.56355193e-02  3.69177246e+00  1.71951786e-01 -1.56984031e-02
 -1.63563848e-01  1.22994912e+00  1.01697481e+00 -5.64723587e+01
 -6.32884577e-02  3.52005474e-02  8.93988609e-02 -6.22883327e-02]
[-1.0886734e+01  1.1979989e+01  2.7053151e-01 -5.1755795e+00
 -1.1883179e+01 -1.6496049e+00 -4.5685115e-01 -3.2687786e+00
 -2.2469091e+00 -6.6290689e-01  3.5783237e-01  6.0773939e-01
 -4.5897965e+00 -6.6711893e+00 -4.9456751e-01  8.5991716e+00
 -6.0319028e+00 -3.3403306e+00  3.4920785e+00  6.1975002e+00
 -3.8954771e+00  1.3205185e+00  4.2106402e-01  5.6594539e+00
  1.4882432e+00 -1.8519000e+00 -4.6891584e+00 -2.1870847e-01
 -8.4206991e+00 -3.4908228e-02 -1.9720408e-01  2.2687621e+00
 -5.4661269e+00 -3.6948233e+00  5.2509189e+00 -6.7972970e+00
 -4.3870163e+01 -1.0073791e+01 -7.5803251e+00 -5.5410361e+00
 -3.8651431e-01  3.1965787e+00  7.8953229e-02 -1.4827861e-01
 -3.5425408e+00  4.3904490e+00 -5.7357544e+01  1.6921896e-01
  1.1803780e+00 -7.7078824e+00 -1.2560862e-01 -3.3125419e-02
 -1.3234909e+00 -2.1354986e+01 -3.6648396e-02 -6.7255158e+00
 -3.7716589e+00 -6.6505156e+00 -8.3602085e+00  4.5558801e+00
  1.6482849e+01  3.5798113e+00 -6.0758133e+00 -3.5740137e+00
 -1.8719167e-01  4.8010464e+00 -8.6551800e+00 -2.0519371e+00
 -1.0294566e+00 -5.2205319e+00  7.4244380e-01  8.6746483e+00
  3.1853750e-01 -9.5131025e+00  8.8621244e+00 -4.2169437e-02
  1.4712825e+01  1.3007876e+01 -1.9348635e-01 -6.7894826e+00
 -9.7851934e+00 -2.9957347e+00  2.3933600e-01  7.3548816e-02
 -2.3539690e+01 -1.6684195e+01 -3.7753091e+00 -2.1610513e-01
 -4.2999294e-02 -1.4053272e+00 -1.0251036e+00  8.1512842e+00
  1.8206928e+01 -5.8085957e+00  3.6988330e-01  2.8128216e-01
  6.4277754e+00 -1.3527865e+01  4.2006674e+00 -2.7491333e+00]
[-2.80091822e-01 -2.90126763e-02 -8.96710381e-02 -1.80250760e-02
 -3.32944202e+00  3.44298422e-01  1.51050777e+01 -2.04157281e+00
  6.03265613e-02 -2.05500460e+00 -3.45473266e+00  5.47443740e-02
 -1.14242889e-01 -3.28446448e-01 -4.62284870e-02  4.07540239e-02
  3.24005902e-01  5.00131798e+00  2.05029529e-02  1.68905243e-01
 -1.56832308e-01  2.83419471e-02 -6.01538777e-01 -1.10834055e-02
 -1.36071712e-01  2.29603541e-03  1.95949543e-02  2.73069811e+00
  2.87741709e+00 -4.16529775e-02  1.62610263e-01 -1.28165409e-01
 -1.63666630e+00  7.85736814e-02  1.27370909e-01 -2.06009979e+01
  2.04378700e+00 -1.34938315e-01 -4.02851440e-02 -2.94105792e+00
 -2.23761916e-01  5.63459173e-02  6.55668688e+00 -3.05331320e-01
  3.98524332e+00  5.48998564e-02  1.79594919e-01 -4.56428528e+00
  1.25389361e+00  1.32300304e-02 -1.82810619e-01 -2.53827889e-02
  2.20151067e-01  6.65962994e-01 -2.14879646e+01  3.07366282e-01
  6.81608737e-01  3.05839442e-03 -2.52134228e+00 -8.87308419e-02
 -9.04390588e-03 -1.60496193e-03 -1.31164134e-01 -1.05675964e+01
 -1.59911785e+01 -5.47672212e-02  1.35956621e+01  1.18702315e-01
 -1.68565825e-01  6.54343609e-03  1.46345282e-02 -6.85309744e+00
 -1.11061490e+00  3.13846087e+00 -4.65354174e-02 -2.97735184e-02
  1.15433328e-01  3.32115021e+01  1.71172714e+01  1.69670992e-02
  1.29648492e-01  8.29043293e+00 -5.03629625e-01  1.66198695e+00
  2.79414320e+00 -5.77440113e-02  9.66389924e-02 -2.76318565e-02
 -1.63769782e-01  8.81897736e+00 -3.75971413e+00  9.45615117e-03
  1.08892664e-01 -1.46049500e+00 -5.52887678e-01 -6.93825901e-01
  3.20515111e-02  4.51501179e+00 -6.63776994e-02  1.20862871e-01]
[  0.21654268   5.201247   -19.9303      -0.6736639    5.8935847
  43.682674    13.654844     3.7708154    4.6978416   -2.5338771
   1.2640435   37.08743     10.643179    31.755602     4.235614
   3.684805    13.13195    -14.283998     3.2531419    4.0892
   1.533856   -11.589944    34.190323    -2.241756     3.0826712
   3.4088378    0.14790577   6.329415     5.3873158    0.09595606
   7.8995566   12.027559     1.1497816   17.394073     1.4856253
  11.725061    36.647457    10.426837     7.395453    16.123741
  -4.9349236    6.2574115    8.484617     9.689554     9.632161
  -3.3167357   11.414872     5.4563665   10.301421    -1.5913535
  -5.2143087    0.10407279  10.603876     9.2596855    4.2239547
  12.776885     3.6958365    1.7205609   24.797485     1.2833219
   9.122705    -3.0942156    0.64208084  21.07292      6.1645074
   0.39863813   8.274785     3.6662226   -1.9384526    4.536394
   1.8510345   13.080281     1.256366   -14.713756     8.88891
   0.20837496  13.913277    84.53019     11.191036     1.6913637
   3.5652807   15.935308     1.4859526   -6.726685    21.030449
   0.51558816   3.609056     4.7212596    4.1674833   -5.481327
   3.1698942   10.7897625   12.625853     5.6824317   -8.017288
  11.979999     5.0540996   -3.4240086    5.853837     5.316461  ]
[ 1.9856039e+01 -1.9909117e+01 -1.1153437e+01 -7.0216531e-01
  1.9432166e+00  5.1499152e+00 -3.3060658e+00 -9.0802020e-01
 -4.5685320e+00 -2.0204492e+00  1.8893742e+01 -4.5607166e+00
 -6.7146158e-01 -1.1053561e+01  6.1925998e+00 -9.4706793e+00
  3.8000350e+00  4.4111476e+00 -1.0158281e+01 -4.4603601e-01
  3.3252523e+00 -1.0430570e+01  3.5572500e+00 -4.2107196e+00
 -1.2305933e+00  5.7539449e+00 -1.3125495e+00 -4.2577524e+00
  2.7713573e+01 -1.6607586e-01  4.6478145e-02  9.3568161e-02
 -2.8881593e+00 -3.1510377e+00 -1.5474086e-01  2.1905850e-01
  3.2727047e+01  8.2021770e+00  3.0775051e+00 -2.2125125e+00
 -2.2265461e-01 -2.1041531e+01  1.8314940e-01  1.1297122e+00
 -6.8090801e+00 -9.9873276e+00  1.8077883e+01  4.6752450e-01
 -1.9288728e+00 -2.5154080e+00  5.8047771e-01 -1.8283172e-01
 -6.6869984e+00  3.5847716e+00 -3.1401673e-01 -1.0361103e+01
  1.6296334e+00 -6.7282683e-01  4.8894830e+00 -9.6525087e+00
 -2.3291159e+01 -7.3417015e+00  9.2369699e+00  1.1241734e+01
 -8.8031828e-01 -1.0482834e+01  5.5125456e+00 -7.7348790e+00
  2.4883762e-01  9.8053646e+00 -1.4713383e+00 -2.3027361e+01
 -3.2839625e+00  1.1711634e+01 -1.8014660e+01 -1.5835440e-01
 -1.0891411e+01  4.7944252e+01 -8.6881037e+00  7.6805639e-01
  2.3875357e+01  2.8192618e+00 -1.6460742e+00 -2.8156430e-01
 -1.3583637e+01  9.6497784e+00 -1.5932779e+01 -3.2131836e+00
 -1.3060345e-01  2.0008044e-02 -1.2690233e-01 -2.7604547e+00
 -1.2750909e+01 -6.1048287e-01  2.3087822e+01 -3.0779031e-01
 -1.5078977e+01  2.9108825e+00 -2.1597426e+00  1.5548189e-01]
[-9.57213417e-02  2.63079014e-02  1.73903387e-02 -1.69278644e-02
 -5.70994876e-02 -1.43750608e-01 -8.93564892e+00 -2.92803001e+00
  3.03194709e-02  6.81162357e+00 -1.21560109e+00  6.58157825e-01
  8.08093417e-03  7.43967816e-02  1.20137587e-01 -1.00081049e-01
 -1.74490646e-01  1.55489373e+00  4.11380790e-02  3.97985093e-02
 -3.05552967e-02  5.58622964e-02 -1.08768888e-01 -4.61521372e-03
  9.86207724e-02 -3.51857096e-02 -1.49679417e-02  1.54918456e+00
  1.82572234e+00  1.07295476e-02  2.23257571e-01  4.06620800e-02
  6.50251770e+00  6.32912517e-02 -3.07339400e-01  2.28079567e+01
  1.24295712e-01  1.16293564e-01  1.03159705e-02 -1.65393562e+01
 -2.87931394e-02 -1.15156561e-01 -2.20782948e+01  1.51092531e-02
 -1.07235765e+01 -9.49509325e-04  6.65848982e-03 -4.13325596e+00
 -4.01895702e-01 -2.24881023e-02 -7.21870037e-03  1.17477328e-02
  1.80335805e-01 -7.81651258e-01 -7.12202609e-01  3.54632407e-01
  3.92398745e-01  7.44135026e-03  1.71078897e+00 -9.72715579e-03
 -3.76381874e-01  1.18164457e-02 -2.69141700e-02 -6.27363205e+00
 -7.69590187e+00 -1.69776306e-02 -2.23315849e+01  2.93178670e-02
 -1.00633860e+00  3.71445268e-02 -1.22007400e-01  2.99353266e+00
 -1.19409764e+00 -8.40436667e-02  4.73696738e-03  1.38601079e-03
  4.57217507e-02  2.07718124e+01 -2.03479385e+01  6.78341649e-03
 -2.32930318e-03 -1.44169741e+01  5.96142769e-01  7.72205448e+00
 -2.80372314e+01 -1.07844621e-02  4.18508351e-01  3.24267149e-02
  7.64832944e-02 -1.34118118e+01  3.01558185e+00 -1.93728060e-02
 -4.30221222e-02 -1.43039548e+00  9.61296320e-01 -2.11760426e+00
  4.65210304e-02 -1.44602308e+01  8.82733054e-03  1.23074977e-02]
[-9.56659222e+00  6.89104462e+00 -9.17574501e+00 -4.34644604e+00
 -7.07388520e-01 -4.49269104e+00  1.57740951e+00  3.12398124e+00
  1.23358755e+01 -2.84546995e+00  1.64281987e-02  9.53174057e+01
 -8.04915714e+00  5.18661880e+00  3.54643297e+00 -4.74710852e-01
  2.69429588e+00  3.40291429e+00 -1.42878592e+00  1.01845922e+01
 -2.57826179e-01 -2.37992451e-01 -2.17820301e+01 -5.70769453e+00
  9.43938637e+00  4.94063711e+00 -4.08757257e+00  3.96856499e+00
  3.10648327e+01 -3.56064290e-01 -4.00372505e+00  4.79543400e+00
  2.11220384e+00  1.48894320e+01 -9.84929752e+00 -5.76189756e-01
 -1.31896687e+01  5.30856371e+00  4.56148446e-01  2.59450030e+00
 -1.36570139e+01  4.52740955e+00  8.53411496e-01  4.14969778e+00
  4.42039919e+00  1.27154022e-01 -1.24035149e+01  5.97315252e-01
  1.97599697e+00 -3.39377666e+00 -1.77212029e+01 -4.02384281e-01
  7.06902552e+00  6.71016979e+00 -1.35698199e-01 -7.45941782e+00
  1.21041403e+01 -2.79273152e+00  3.94235468e+00  5.12289107e-01
  3.12754593e+01 -1.09890439e-01 -1.15758610e+00  2.35697293e+00
 -5.24982309e+00 -3.99565184e-03 -2.65823126e+00  1.23931580e+01
  1.53482580e+00 -2.16264129e+00  1.71674309e+01  5.11266565e+00
  4.56581682e-01  9.65110779e+00 -3.52160025e+00 -5.50033808e-01
  7.24037552e+00  1.06733887e+02  2.84142246e+01 -6.75806332e+00
  6.49005175e+00  8.46069145e+00  9.41334128e-01 -1.77966237e+00
  3.35921311e+00  1.74938946e+01 -3.15128541e+00 -1.66825187e+00
 -2.16792274e+00 -6.36793423e+00  5.10919034e-01  1.05201130e+01
  1.26003428e+01 -1.25696969e+00 -3.96809411e+00  8.34085047e-01
  1.34449501e+01  6.01773262e+00  9.07633209e+00  2.52210045e+00]
[-2.23921967e+01 -7.19319820e+00 -9.65114212e+00  1.48193091e-01
  1.91121352e+00 -2.63501034e+01 -1.09656617e-01 -6.50783205e+00
 -1.66023884e+01 -6.63590491e-01 -3.18645620e+00 -8.57306385e+00
 -9.27355766e+00 -2.35976429e+01  1.88860381e+00 -7.24988604e+00
 -2.27947569e+00 -5.81526184e+00 -3.05233049e+00 -2.90268364e+01
 -3.20585072e-01 -1.08172855e+01 -3.49772949e+01  6.47522092e-01
 -1.26005106e+01  1.67110229e+00 -3.44460458e-01 -4.79926682e+00
 -2.40064549e+00 -1.05136484e-02 -1.24367490e-01 -1.30480061e+01
 -4.14250517e+00  3.95941257e+00  1.21795368e+00 -4.03319645e+00
 -1.01268053e+01 -2.20449543e+00 -1.33783352e+00 -1.39170227e+01
  2.40796000e-01 -2.38833547e+00 -2.50858605e-01 -8.10029316e+00
  1.02836323e+00 -6.39856100e+00 -1.60616493e+01 -5.14688969e-01
 -5.19465268e-01 -5.04011571e-01  6.17007852e-01 -9.09564085e-03
 -1.35914564e+01  2.16160917e+00 -2.77464896e-01 -5.96766758e+00
 -1.63132133e+01 -1.14572786e-01 -7.41955709e+00 -4.28968287e+00
 -7.09416389e+00 -6.23260927e+00 -1.53730106e+00 -1.19941769e+01
 -5.37596226e-01 -3.67652178e+00  3.66925627e-01 -3.79132390e+00
 -1.44981965e-01 -1.35191870e+00 -1.25239201e+01 -7.69838667e+00
 -8.50375175e+00 -5.43049812e+00 -4.52174950e+00  6.10351935e-03
 -4.80153809e+01 -4.68495026e+01  1.11734724e+00 -8.61772120e-01
  1.55376777e-01 -3.69297075e+00 -5.16509056e+00 -1.71620414e-01
  1.09388363e+00 -5.34130871e-01 -5.66867948e-01 -1.04057264e+00
 -2.30510198e-02 -1.51248288e+00 -2.70197749e+00  1.05316246e+00
 -1.49439030e+01 -1.29545221e+01  8.12326336e+00 -4.14905071e-01
  2.43745255e+00  1.36662138e+00  3.77924144e-01  2.88605547e+00]
[ 2.9085755e-01  1.2142863e+00  8.2942686e+00  2.3648042e-02
  5.5039039e+00  2.3733105e+01 -2.2260175e+00  1.8382906e+00
  3.5435462e+00  2.5517862e+00 -2.1734573e+01  1.9733658e+01
  2.2203479e+00  1.3626290e+01  5.4668221e+00  1.8243636e+00
  4.7340779e+00 -4.3698090e+01 -2.0319428e+00  2.2987304e+00
 -1.3282480e+00  4.0641794e+00  4.4667847e+01 -1.1704623e+00
 -5.0792899e+00 -5.1753221e+00 -1.3528583e+00 -7.8415570e+00
 -8.2575808e+00 -8.9089908e-02 -2.9451591e-01 -1.3922476e+01
 -6.7271490e+00  1.6923183e+01  1.1706140e+00  2.0446531e-01
  1.7882854e+01  1.0912673e+00  4.2701077e-01  1.0221766e+01
 -1.1834141e+00  5.4741645e+00 -5.9909618e-01 -2.6502862e+00
  8.6891165e+00 -1.2270477e+00  9.9943914e+00 -5.2402085e-01
 -6.3099504e-01 -8.8724071e-01 -2.3635974e+00 -9.9368058e-02
  2.9458628e+00  8.7938099e+00 -1.3461530e-01  9.2032080e+00
  2.1602304e+00 -4.1013436e+00  1.4189727e+01  6.8796062e-01
  1.5951723e-01 -2.8732686e+00  4.6387978e+00  3.7636791e+01
 -1.7356840e+01 -2.4122212e+00  4.5352659e+00  4.4574900e+00
 -8.5015717e+00  1.8190079e+00  6.4144220e+00 -2.9618723e+00
  1.0083032e+00  8.4397736e+00  5.3426571e+00 -9.6076883e-02
  3.9179053e+00  7.8621780e+01  5.4160113e+00  1.5785477e+00
  1.7273298e+01  4.5884109e+00  1.0634335e+00  9.7970361e-01
  2.0429047e+01 -2.5829145e-01  6.8885052e-01  3.8254023e+00
  3.5310045e-01  2.0219608e-01  3.5701256e+00  1.0780296e+01
  6.3514395e+00 -5.2008767e+00 -2.3630493e+01 -3.4243639e+00
  2.9004519e+00  5.2960734e+00  5.0050898e+00  7.2323337e+00]
[ 3.8069785e+00 -2.0590770e-01 -5.7876822e-02 -2.2170444e+00
  4.3220562e-01  1.1513331e+01  4.5366552e-01 -2.7748761e+00
  2.0894942e+00 -7.6773620e-01 -2.0680707e+00  7.6936650e+00
  1.2376748e-01  5.1931810e+00 -2.3843758e+00 -3.1473330e+01
  8.2192641e-01 -9.9197884e+00 -2.0138566e+00 -1.4854196e-01
 -4.9631772e+00 -2.3723907e+01  7.7905316e+00 -8.9284086e-01
 -1.0634561e+00  8.0617803e-01 -1.7389712e+00 -1.1581028e+00
  3.9231753e+00  5.9571625e-03 -2.0604856e-01 -1.9417919e-01
 -1.0905108e+00  3.7563038e-01  1.4196950e+00 -2.6850965e+00
  8.6330090e+00 -5.5735940e-01 -8.1982410e-01  2.0252986e+00
  4.2069431e-02 -4.1563001e-01 -3.7005952e-01 -5.7602735e+00
  1.1463205e+00 -1.0015856e+01  4.9248576e+00 -8.9122581e-01
  4.1803607e-01 -3.0502379e+00  3.1304288e-01  5.8981879e-03
  1.9364008e+00  9.5941824e-01 -2.7073732e-01 -4.0297035e+01
  1.8132789e+00 -1.5597761e+00  4.0854282e+00 -8.2260311e-01
  2.9260387e+00 -1.6475714e+01 -4.1185594e+00  1.8186558e+00
 -8.9742571e-01 -1.2097615e-01  1.5032059e-01 -9.7532845e+00
  4.1853899e-01 -2.3030782e+00 -1.2600752e+00  3.7281718e+00
 -3.2542591e+00 -3.2880772e+01  8.4821862e-01  2.6976422e-03
  5.2168703e+00  4.3169544e+01  5.5425167e-01 -2.8761125e+00
 -1.9467337e+01  1.9464738e+00 -3.0810969e+00 -2.4867527e-01
 -1.1815760e+00 -3.0903234e+00 -3.5862482e-01 -6.6351545e-01
 -6.3446172e-02 -4.4658446e-01 -2.5437238e+00  1.4102329e+00
  2.7858996e+00 -6.6671152e+00  1.2230684e+00 -6.8730396e-01
 -8.3534927e+00  1.6374071e+00  2.4011865e-01 -1.0476525e-02]
[ 2.14210911e+01 -2.43866968e+00 -6.20567703e+00 -6.33306921e-01
  2.19909787e+00  5.01456118e+00 -3.65855336e+00 -2.10408044e+00
 -2.38754010e+00 -2.10724664e+00 -5.92188835e+00  1.14523160e+00
 -3.51098204e+00 -2.25126858e+01  4.73500586e+00 -3.64981008e+00
 -1.32909429e+00 -1.90896015e+01  7.23742172e-02 -2.40295172e+00
  3.48886251e+00 -2.04278922e+00 -1.80897236e+00  2.67993283e+00
 -5.04558611e+00  1.63162196e+00 -6.26139879e+00  2.58483720e+00
  1.15007877e+01 -4.06590194e-01  8.95021379e-01 -5.71774530e+00
  7.36372900e+00 -2.04602070e+01  2.50029892e-01  2.03986111e+01
  1.24646015e+01 -4.14919043e+00 -3.17617822e+00 -1.51336813e+01
 -3.57791662e-01  6.69806421e-01  1.51278436e-01  3.05539823e+00
 -1.66246605e+00  1.16133678e+00  6.23578072e+00  4.31765653e-02
 -1.76007748e+00 -6.10592365e+00 -9.40849409e-02 -4.45935786e-01
 -6.16560638e-01  4.52238989e+00 -1.48938030e-01 -8.21609211e+00
 -1.27093959e+00 -1.21467628e+01  1.97555816e+00  2.19565535e+00
 -2.84463520e+01  1.62484717e+00 -3.24590731e+00 -3.17533636e+00
 -2.45728016e+00 -3.32074583e-01  9.61210728e+00 -7.85589933e+00
 -2.76205387e+01 -4.28780222e+00  1.48612726e+00 -3.95779152e+01
  1.37246406e+00 -3.25682282e+00 -1.10109806e+01 -5.27073622e-01
 -1.30727119e+01  5.17451134e+01  8.60036612e-01 -4.37965536e+00
 -2.49451866e+01 -5.47986364e+00  4.82665181e-01 -1.50885284e-01
 -7.46914959e+00 -6.23629475e+00  8.67064476e+00 -1.30286133e+00
  1.56938314e-01 -6.38981581e+00  3.91903472e+00  1.32027352e+00
 -1.22398510e+01  2.38560295e+00  1.23644717e-01 -3.73898417e-01
 -3.66972148e-01  2.86356759e+00  1.39342621e-01  1.43608123e-01]
[-5.37807703e+00 -5.81587934e+00 -1.36766462e+01  4.38437834e-02
  6.38984537e+00  2.71080589e+01  1.33923817e+01 -5.34520864e-01
  2.57877707e+00 -5.13960600e+00  4.22877960e+01  1.81960030e+01
  7.00882554e-01  2.70199947e+01  6.80150557e+00 -1.30418081e+01
  7.33717060e+00  1.95200670e+00 -1.57708013e+00 -4.12000227e+00
  2.39751768e+00  1.00288229e+01  1.71082630e+01 -5.05663443e+00
  1.48785105e+01  1.38796639e+00 -1.47297597e+00  6.23481798e+00
  4.89523602e+00 -2.98436761e-01  1.84931030e+01  1.14825993e+01
  3.33961725e+00  2.80676918e+01  1.80246563e+01 -2.10730672e+00
  5.00142822e+01  1.77656567e+00  3.44461679e+00  1.00086746e+01
  1.40038481e+01 -4.20193243e+00  7.73057556e+00  1.51419725e+01
  1.07212391e+01 -3.93851376e+00  8.52681923e+00  7.58728552e+00
  2.19014049e+00 -1.31536710e+00  2.95962715e+01 -6.36969447e-01
  5.06014109e-01 -2.20282152e-01  6.01519167e-01  3.17549820e+01
  5.12510538e+00  9.58863020e-01  2.53483047e+01 -4.11294842e+00
  2.27283249e+01 -3.29932356e+00  2.66554976e+00 -5.35042429e+00
  8.67601871e+00 -3.09635258e+00  1.15208781e+00  1.36938009e+01
  9.06282043e+00 -6.36746836e+00  9.39513683e+00  2.63824883e+01
  1.73206258e+00  6.53040619e+01  5.43549418e-01 -1.14277828e+00
  9.13845444e+00  1.05585014e+02  3.05141258e+00 -1.69644630e+00
  1.92183685e-02  5.60148859e+00  1.77259851e+00 -5.62224770e+00
  2.44926834e+01 -6.00707769e+00  7.92364597e+00  2.75058460e+00
  1.05297165e+01 -5.11376047e+00  7.25024581e-01  1.36403477e+00
  1.61967611e+00  1.92990627e+01  7.04758606e+01  1.39636564e+01
  1.05721989e+01  1.02659273e+01  6.58598781e-01  5.78483438e+00]
[-4.4518277e-01 -8.9613384e-01  2.2075148e+01  6.1906104e+00
 -4.0723138e+00 -2.8556194e+00 -2.5803211e+00 -1.1935036e+00
  3.0309131e+00  1.8464133e+00  8.0226068e+00  6.7806762e-01
  7.6284176e-01  8.9819775e+00 -2.1817472e+01 -2.7231773e+01
 -9.8664182e-01  6.0429325e+00  1.1076644e+01 -6.9832486e-01
 -4.3830824e+00  4.2285080e+00 -5.5573159e-01  3.8376043e+00
  1.6367771e+01  4.4059110e+00  2.2694302e+00 -1.1265479e+00
 -7.8523338e-01  1.3616984e-01 -1.3187682e-02  2.5382313e+01
 -2.4069852e-01  7.9684812e-01  3.3811936e+00 -4.4227368e-01
  4.4936905e+00 -3.3949440e+00 -1.2724371e+00  4.5430789e+00
  2.8747603e-01 -1.6274944e+01  2.0899342e-01  2.3604853e+00
 -2.3833897e+00  5.3682799e+00  4.4074688e+00  2.7535784e-01
  1.7268772e+00  4.2506108e+00 -6.0835067e-02  1.2464321e-01
  3.7232325e+00 -1.9675682e+00 -4.9784142e-01  2.1513410e+00
  1.1062683e+00 -1.4849780e+01  2.4340557e-01  1.4002467e+01
  2.2066810e+00  6.3583188e+00  1.2618829e+01 -8.5843449e+00
  8.7904677e-02  4.3810785e-01  8.2999678e+00  4.1336775e+00
 -4.9611792e-01 -5.5672765e+00  2.5741556e+01 -9.8875803e-01
  3.2826230e-01  1.0355798e+01 -4.2375031e-01  8.2281306e-02
 -3.3992320e-01  2.3558323e+01 -7.7009883e+00 -5.9995518e+00
 -1.2594100e+01 -2.8863807e+00 -4.4160539e-01 -8.2042092e-01
 -1.1749886e+01 -1.0552935e+01  2.4587397e+01  4.7110945e-01
  1.6999876e-01 -7.3241383e-01  1.6711757e+00 -2.2612000e+00
 -1.7067015e+01 -4.9388876e+00  2.0818312e+00  5.4077500e-01
  1.8700718e+01 -7.5755900e-01 -2.3085947e+01 -1.2387179e+00]
[ 2.1356681e-01  1.2815921e+00  1.6879406e+00 -1.1280232e-01
  5.2186799e+00 -2.0047596e+00 -1.2297185e-02 -2.0372963e+00
  7.5796612e-02 -7.8375306e+00  5.4663116e+01 -6.9200044e+00
  9.5000052e-01 -9.7197288e-01  7.5616799e-02 -1.1747388e+00
 -4.6512112e-01  1.1557956e+01  4.8136225e-01  1.9826798e-01
 -1.2441647e-01  5.8523417e-01  7.6972163e-01 -1.7274651e-01
  3.4567344e+00 -3.0902576e-01 -5.3912912e-02  1.0364655e+00
 -3.9820120e+00 -1.4711761e-01  3.1042987e-01 -1.1078992e+00
  1.2096466e+00 -5.1703256e-01  7.3750796e+00 -4.4779687e+00
 -1.0531345e+01 -1.1599760e+00 -3.7140802e-01  7.4526296e+00
  2.2399067e+01  2.4193555e-01  4.9896404e-02  2.3878231e+00
  1.1470093e+01  2.2955954e-01  2.7960079e+00  2.0029832e-01
 -9.0369501e+00 -8.6352028e-02  2.7578709e+01 -1.0011517e-01
 -7.1828127e-02 -2.5181165e+00  1.3156259e+00  8.6438096e-01
 -2.2848482e+00  1.9501095e-01  2.1436288e+00  1.0469036e-01
  6.3803631e-01  7.2490507e-01  3.8550159e-01 -8.5958300e+00
  1.5834359e+00  1.8972391e-01 -3.3344414e+00 -6.4966208e-01
  1.3800702e+02 -1.5542874e-01  3.2906904e+00  6.6221209e+00
 -3.5821135e+00  1.7385687e+02 -2.9352924e-01 -2.5376571e-02
  2.9861483e-01  7.7480774e+01  3.7413404e+00 -2.2740611e-03
 -2.8770807e-01  2.6014197e+00 -2.1330657e+00  8.5575677e-02
 -8.5681957e-01  1.9256644e-02  4.9258131e-01  6.2607974e-01
 -2.8426747e+00 -9.9633306e-01 -6.4071188e+00  8.5178621e-02
  9.5991504e-01  2.2358955e+01  7.8542221e+01  3.3847171e-01
 -1.2141902e-01  1.6287313e+01  1.5389790e-01 -3.0590460e-01]
[ 1.86388397e+00 -2.63207048e-01 -9.59056541e-02  1.32371094e-02
  1.07895732e+00  1.11558075e+01  9.95935857e-01 -2.35174203e+00
  8.19199371e+00  5.17307818e-01 -1.68372416e+00  6.24690771e+00
  6.17770958e+00  1.98419743e+01  9.12535608e-01 -4.41701841e+00
  7.33213329e+00  5.56062365e+00 -2.34731293e+00 -3.46316767e+00
  1.03895378e+00  6.57749057e-01  8.10114098e+00  4.52622592e-01
  1.64367068e+00 -1.67061067e+00  2.63036609e+00  1.68468380e+00
 -2.40487695e+00  6.06205314e-02 -1.37907445e-01  1.26549399e+00
  2.27841377e+00 -5.08365822e+00 -2.00909948e+00  4.58414030e+00
  1.22873039e+01  6.73799610e+00  6.08387184e+00  2.41528940e+00
  4.22620587e-02  6.10196054e-01  3.95351537e-02  3.14598250e+00
 -6.97262108e-01 -5.25388598e-01  5.83252335e+00  1.84478551e-01
 -1.62827060e-01  3.95920706e+00 -3.82707193e-02  6.76602498e-02
  8.87821960e+00  3.15816140e+00  2.14001864e-01  1.10926895e+01
  6.71026039e+00  1.23230991e+01  3.59040666e+00 -2.92237329e+00
  8.43283176e-01 -4.49947804e-01 -4.50520515e+01 -3.07057190e+00
  7.79417098e-01 -1.75788879e-01 -5.65137529e+00  5.76304102e+00
  8.04261923e-01 -1.21048288e+01  1.24830365e+00  1.56106796e+01
  2.74362743e-01  1.79280605e+01 -7.06381798e+00  7.94414133e-02
  2.59496193e+01  1.70169353e+01 -3.20025265e-01  6.23390245e+00
  7.74210453e+00  5.21116543e+00 -2.72080541e-01  2.53620058e-01
  1.59319105e+01 -5.92194796e+00 -3.55308380e+01  8.15358162e-01
 -1.05234705e-01  1.27492487e+00 -2.68406487e+00 -2.51488285e+01
  3.01243019e+00  5.52173376e+00 -2.25491309e+00  1.16790615e-01
 -5.93598223e+00  1.07933211e+00  1.58752191e+00  1.29690720e-02]
[ 4.0635788e+01 -3.2081822e-01  2.7528288e+00 -5.5680780e+00
  6.2246680e+00  7.0692391e+00 -4.6591134e+00  3.4675190e+00
 -1.3732234e+00  3.7799904e+00  2.7209561e+00 -8.3599240e-01
 -1.9445673e+00 -1.0559970e+01  7.7946434e+00 -5.1354780e+00
 -2.1847971e+01  1.9626806e+01 -4.5234799e-01  2.7196538e+00
 -2.0348086e+00  4.3503737e-01 -2.9054222e-01  6.1288013e+00
  1.4003957e+01 -9.7846144e-01 -4.6906238e+00  4.9682693e+00
  2.1890575e+01 -3.4236941e-01  7.7952933e-01 -6.2613931e+00
  1.8773148e+00 -1.4855798e+01 -6.9839770e-01  6.0507216e+00
  1.6402771e+01 -2.2762596e+01 -1.5600978e+01  4.5869546e+00
 -4.2175490e-01  6.6594756e-01 -1.1087004e-02  1.6465649e+01
 -5.2335777e+00 -8.2565528e-01  1.0493737e+01  7.3763728e-02
 -3.6304057e+00 -2.1940939e+00 -8.9895993e-01 -3.7890276e-01
 -1.9626740e+01  5.6631970e+00  1.3142340e-01  2.0616032e+01
  3.4918565e-01 -2.3241425e+00  8.2320051e+00 -2.8295484e-01
 -6.2695231e+00 -6.1711079e-01 -9.5992308e+00 -4.1718097e+00
  9.0381876e-02 -4.2593250e-01  4.5507154e+00 -1.5081411e+01
 -1.9444128e+01  7.8021491e-01 -5.1079574e+00 -4.4297105e-01
  1.4645599e+00 -3.1089943e+01  3.2657630e+00 -5.5525833e-01
  1.2719059e+01  1.5497870e+02  8.7081823e+00 -7.6438270e+00
 -5.7807183e+00  2.6214690e+00  8.4145558e-01 -1.2569821e-01
  6.5481286e+00  4.5825779e-01  6.8128681e-01 -5.0354371e+00
 -6.2849110e-01 -1.6180816e+00  1.9144548e+00  1.1808923e+01
  1.2787633e+00 -1.8369814e+01 -1.5689479e+00 -2.2071466e+00
 -2.5962806e+00  3.2224538e+00  5.2480636e+00  6.8109288e+00]
[ 1.51661072e+01  2.10784745e+00  4.66621310e-01 -1.59924424e+00
  5.48109293e+00  1.48701782e+01  1.00919867e+00  1.58645999e+00
  8.64039803e+00  3.27954292e-01 -5.36476755e+00  1.11261787e+01
  6.09097672e+00  6.43666649e+00  3.62721324e+00  1.17099228e+01
  1.27594531e+00  1.05773878e+00  5.39760768e-01  1.44970226e+00
 -6.01777911e-01  2.62149930e+00  1.33385830e+01  9.12599206e-01
  2.40222716e+00 -1.48820484e+00  1.30922771e+00  1.82052732e+00
  7.20862055e+00  1.82272285e-01 -4.18751180e-01  2.66277432e+00
  3.00547290e+00  7.91027927e+00  2.22284243e-01  1.28578815e+01
  1.16901741e+01  6.18688869e+00  1.28811967e+00 -5.70871949e-01
  9.44019854e-02  4.03629446e+00  2.03190353e-02 -3.70903492e-01
  2.69668603e+00  7.76270211e-01  9.52233982e+00  1.02320872e-01
  1.12937832e+00 -6.91039920e-01  2.92171873e-02  1.98715985e-01
  6.09791231e+00  4.16962671e+00 -7.44046271e-03 -5.68252850e+00
  1.18686266e+01 -3.94561505e+00  7.63284874e+00 -1.88586742e-01
  1.50604448e+01  4.90519315e-01  1.57801819e+01  2.11646652e+00
  9.35498595e-01  7.67054319e-01  7.76410103e+00  6.25267696e+00
 -1.50274792e+01 -7.47280478e-01  2.77289182e-01  6.28051281e-01
  7.00135469e-01  4.67778635e+00  1.57272100e+00  2.43866727e-01
 -7.54284477e+00  2.66308517e+01  3.09421134e+00  4.64391261e-01
 -1.54914217e+01  2.95287108e+00  1.94712877e-01 -8.06574374e-02
 -1.04424679e+00 -2.15758109e+00  6.73805285e+00  5.58624804e-01
  1.29844835e-02  2.74257874e+00  2.17742038e+00  1.07539730e+01
  5.01237869e+00  1.95011559e+01  1.40441164e-01  3.02355826e-01
 -1.73363388e-01  5.78963041e+00  4.93565702e+00 -2.94367957e+00]
[ 2.07897071e-02  3.45104351e-03  1.26952752e-01  2.28672139e-02
 -1.11323729e+01 -3.23806733e-01 -8.83535802e-01 -3.25871134e+00
  1.05916545e-01 -1.14003003e-01  6.58390474e+00  5.56524813e-01
 -3.95141654e-02  8.34289789e-02 -1.45469531e-02 -8.36602375e-02
  3.66809145e-02 -7.08736134e+00 -2.95039210e-02 -5.29540367e-02
  7.88077489e-02 -9.73451659e-02 -3.52233425e-02 -1.20314015e-02
  1.88408569e-01  6.66836426e-02 -4.18870896e-03 -3.46099234e+00
  6.85351342e-02  2.90876273e-02  2.33151741e+01  2.07443014e-01
 -6.73226357e+00  3.86799537e-02 -2.17587757e+00  2.92925453e+01
 -9.56844747e-01 -8.78354311e-02  4.75012138e-03 -1.70440030e+00
 -7.04947090e+00  2.51214001e-02 -5.28745413e-01  3.24604839e-01
  6.12129085e-02 -4.67150435e-02  6.95285350e-02 -2.66557407e+00
 -1.86068134e+01  3.13496543e-03 -1.75641975e+01  3.86231393e-02
 -1.61987081e-01  1.30146652e-01  2.40534973e+00  4.80074845e-02
 -7.00086534e-01 -1.30110299e-02  7.89473951e-02  6.57450631e-02
  2.26269752e-01  9.89945699e-03  7.11569935e-02 -5.81964403e-02
  6.87068748e+00 -1.15013879e-03 -1.30513132e+00  1.27630653e+01
 -2.00692490e-01 -3.89811844e-02  1.28072724e-01  5.07664919e-01
 -2.66744614e+00 -1.13634920e+00 -2.41432223e-03  5.88880256e-02
  1.57918353e-02 -1.65111427e+01  4.17354286e-01  1.05075527e-03
 -1.31927997e-01  2.27635819e-02 -3.26137686e+00  4.02824211e+00
  6.21886134e-01  1.87955648e-02  1.96002633e-03 -9.17364191e-03
  7.28714800e+00  5.55750799e+00 -9.08784103e+00  2.84645744e-02
  5.96939623e-02  6.11678267e+00 -2.47410755e+01 -2.61428547e+00
 -1.26401894e-02  2.79992014e-01  2.47369017e-02 -5.27711760e-04]
[ 1.40584970e+00 -7.03923225e+00 -9.76669884e+00 -7.06310940e+00
  4.04674101e+00  3.22808647e+01  6.31062508e+00  1.33029670e-01
  1.67750206e+01 -3.90829235e-01 -1.41583958e+01  2.14335766e+01
  1.14277039e+01  1.32433453e+01 -1.47247353e+01 -5.40756893e+00
  3.76508975e+00  1.43766046e+00 -2.70378327e+00 -4.12689537e-01
 -1.36842775e+01 -3.60631990e+00  2.20752335e+01 -3.79632425e+00
  8.65711212e+00  1.30562048e+01 -1.49381561e-02  3.13271403e+00
  1.12320690e+01  2.59060234e-01  5.63387573e-01  9.42686939e+00
  1.29254699e+00 -2.95975132e+01 -1.92049866e+01 -2.99339485e+00
  4.53057556e+01  3.42681384e+00  2.04432082e+00  1.44164619e+01
  5.57599545e-01  6.93371201e+00 -3.95822637e-02  1.40647135e+01
  4.73699379e+00 -2.69418836e+00  7.31340981e+00 -7.05057755e-02
  5.23022556e+00  6.70652568e-01 -1.76906168e-01  2.44789764e-01
  1.07159538e+01  5.78580379e+00  1.12934971e+00  1.03152370e+01
  1.24399385e+01 -9.98696864e-01  1.78428054e+00 -2.34327531e+00
  2.08527927e+01  5.29097736e-01 -1.15546875e+01  1.00387466e+00
  1.46853042e+00 -7.41239929e+00  9.81000996e+00  1.53208227e+01
 -1.88953459e+00  3.65587258e+00  7.57197046e+00  2.01007042e+01
  6.64698839e-01  1.78431091e+01  1.02316797e+00  2.03349829e-01
  1.50540705e+01  6.06313667e+01 -1.61862302e+00  2.29094410e+00
  4.00663376e+00  3.50324821e+00  6.27779901e-01 -4.48111326e-01
  8.19940758e+00  6.39507949e-01  6.86030912e+00 -1.23069258e+01
  8.06449533e-01  1.88489704e+01 -1.74710557e-01 -1.51199198e+00
  9.19749641e+00 -1.61806381e+00 -1.38185806e+01 -5.36862493e-01
 -3.87527871e+00  8.65068340e+00 -3.35715652e-01 -1.36248798e+01]
[ 1.02946873e+01 -3.03351909e-01 -1.45050287e+01  4.98425364e-01
 -3.55577302e+00  2.11238651e+01 -2.60484409e+00  5.38687944e+00
 -2.82906208e+01 -9.49271870e+00 -2.96196008e+00 -1.59207201e+01
 -2.11097126e+01 -1.69655590e+01 -2.19180756e+01  2.00541377e-01
 -5.56422901e+00 -2.26039524e+01 -3.80795193e+00 -1.24446678e+01
 -2.03766704e+00  3.22368956e+00  3.93204460e+01 -1.67085457e+00
  8.22941685e+00  4.06212950e+00  9.25615013e-01  4.60925150e+00
 -1.01690855e+01  4.24356759e-02  6.99492514e-01  2.23295957e-01
  1.55741806e+01  1.29624090e+01  7.65327737e-03  6.60040741e+01
  3.11636524e+01 -6.27759933e+00  1.68296263e-01 -1.59145460e+01
 -1.06210792e+00 -1.04595976e+01  4.11737740e-01  2.01565590e+01
  1.32828188e+01 -5.69659948e+00  3.24359207e+01  9.36355710e-01
 -5.17111599e-01 -4.64047861e+00  1.11034079e+01  3.88230421e-02
 -6.90398884e+00  2.14919233e+00  1.20322919e+00  1.46579456e+01
 -2.18010864e+01 -1.39968705e+00 -4.21497917e+00 -4.14368534e+00
 -5.60716057e+01 -6.82022572e-01  7.24484491e+00  8.04093266e+00
  8.20792675e-01  4.80186558e+00  1.38885956e+01 -1.05933847e+01
  2.87654686e+00 -1.11201563e+01 -1.09577818e+01  3.33884621e+00
 -3.04314923e+00 -1.99137669e+01  1.06086445e+01 -3.68177854e-02
 -7.76829100e+00  8.58112488e+01 -6.09093761e+00 -2.94656301e+00
 -2.16770983e+00 -1.26383362e+01 -1.24129701e+00  7.26363882e-02
 -8.16009045e+00 -3.57425094e+00  7.17427540e+00 -4.80395079e+00
  1.26362950e-01 -1.44543961e-01 -4.73021889e+00 -7.21296978e+00
 -8.47364235e+00  1.91938725e+01 -5.12570381e+00 -1.79896629e+00
  1.32932043e+01  1.99480057e+01 -3.12543821e+00  1.03135407e+00]
[-1.1831310e+00  6.8240781e+00  9.5783005e+00  3.4270110e+00
 -1.1782582e+00 -3.3838871e+01 -1.1234191e+01  4.1229644e-01
 -1.1973122e+01  6.7580218e+00  1.0613256e+00 -2.4486744e+01
 -1.0478750e+01 -1.4238281e+01 -3.0718558e+00  2.0449109e+00
 -9.1701984e+00 -5.6949491e-03  2.2703028e+00  3.7151626e-01
  2.0602295e+00  1.8241115e+00 -2.4198299e+01  6.9118133e+00
 -8.7749395e+00 -3.0435343e+00  5.3631282e+00 -5.5154057e+00
 -1.1594481e+01 -3.0162802e-01 -8.8682241e+00 -1.0335026e+01
 -2.7979722e+00 -1.5433424e+01  1.5726449e+01  4.0654702e+00
 -4.4044495e+01 -4.1864638e+00  7.5746757e-01 -1.3806408e+01
  7.9697752e+00 -3.9938657e+00 -1.3271766e+01 -1.4338672e+01
 -3.5080473e+00  2.2200685e+00 -6.0991859e+00 -9.4973497e+00
 -7.1551480e+00  5.2964430e+00  1.3907721e+01 -6.0465479e-01
 -6.7176037e+00 -5.4184694e+00 -2.3689806e+00 -1.1761690e+01
 -1.1799927e+01 -2.5789919e+00 -8.2625303e+00  1.8061694e+00
 -2.0254473e+01  3.3293462e-01  3.0421116e+00 -2.5121784e+00
 -9.6773310e+00  5.1109729e+00 -2.2618241e+00 -1.6037207e+01
  5.0503540e+00  6.1017098e+00 -9.1527205e+00 -2.7574404e+01
 -2.0052671e+00 -2.1631575e+01 -6.3185120e+00 -1.1739345e+00
 -1.4197555e+01 -1.0302671e+02 -4.4323726e+00  8.0891314e+00
 -4.1715937e+00 -1.1333951e+01 -1.8497156e+00  4.8853393e+00
 -2.5599768e+01  7.6588130e+00 -5.3526897e+00  6.0129714e-01
 -3.5717647e+00  6.0762715e+00 -8.4418762e-01 -5.2787781e+00
 -8.3619471e+00 -2.2986498e+00  4.6426229e+00 -1.2377712e+01
 -1.4165932e+01 -7.6694542e-01 -2.4924116e+00 -3.4186499e+00]
layer 7 Activation
elu
layer 8 Dropout
layer 9 Dense
100 1
[-0.02204047]
[0.07455677]
[0.04098564]
[-0.19137408]
[1.4661967]
[-0.01513737]
[0.02772686]
[1.3733985]
[-0.06185516]
[-0.40612495]
[0.12085547]
[-0.02829898]
[-0.09299155]
[0.02577403]
[0.06995943]
[-0.0598616]
[-0.09618052]
[0.1563693]
[0.14057468]
[0.836904]
[-0.16790128]
[0.3608707]
[-0.01540177]
[-2.0198905]
[0.0790022]
[-0.09094311]
[-0.28802475]
[0.14176674]
[-0.01851165]
[0.00050341]
[-0.01287743]
[0.07674678]
[0.15445314]
[0.06598751]
[-0.6657729]
[-0.13875489]
[-0.01290193]
[-0.07374556]
[-0.14797132]
[0.5407583]
[-0.02401504]
[0.05289667]
[-0.13497676]
[0.06791168]
[0.06086666]
[0.18455817]
[0.05434627]
[0.05735146]
[0.00677409]
[-0.19761942]
[-0.05757519]
[0.00056827]
[-0.08506553]
[-0.04731695]
[-0.01363344]
[0.03744594]
[-0.07004941]
[-0.22154711]
[-0.01487859]
[0.14487228]
[0.2550162]
[0.21053652]
[0.03358169]
[0.00481524]
[-0.00614917]
[0.1175382]
[-0.048214]
[0.00785164]
[0.03368928]
[-0.1927408]
[0.10137471]
[-0.01055201]
[-1.7489164]
[0.04018439]
[0.10995297]
[0.00084359]
[0.18689182]
[-0.01753542]
[-0.00776859]
[-0.34249023]
[-0.04558068]
[-0.01757275]
[-0.95148367]
[-0.02040709]
[0.03933398]
[0.14810246]
[0.02690638]
[-0.12194032]
[-0.01739554]
[-0.00899645]
[0.00478588]
[0.57565093]
[0.16947211]
[0.381751]
[-0.06004306]
[0.02577475]
[0.40739715]
[0.14646547]
[1.0027348]
[0.1550719]
[-0.7191816]
